#input normalization
0.16111 0.272712
62.0941 63.4481
9.63197 37.843
7.92802 31.6947
0.0110841 0.0439661
0.00881468 0.0338775
0.542988 1.36901
0.823511 1.27769
1.05267 1.47112
1.29982 1.67897
1.57855 1.87949
1.86027 2.06281
2.12999 2.22636
2.39629 2.3791
2.64341 2.50023
2.87854 2.5868
3.10222 2.64749
3.30893 2.68228
3.48879 2.68793
3.62724 2.6498
3.75209 2.59835
3.85097 2.5101
3.92847 2.41397
3.96982 2.29961
3.99558 2.16779
3.98964 2.01953
3.9519 1.86013
3.89572 1.68228
3.7862 1.48252
3.65921 1.28429
3.54363 1.09712
3.41767 0.920599
3.26231 0.743118
3.10243 0.571919
2.94038 0.400932
38.1053 49.985
7187.57 4869.21
#output normalization
1 0
#neurons weights
0.197882
-0.244756
-0.0728901
-0.127111
-0.107657
-0.163387
-0.284079
-0.382944
-0.450011
0.293868
0.328582
0.492749
-0.486301
-0.242147
-0.0848345
0.358873
0.32709
-0.218767
-0.104714
0.135797
0.269201
-0.0220081
0.00444713
0.122138
0.00225319
-0.2663
0.0582339
-0.0213387
-0.125523
0.412931
-0.260863
-0.300965
0.324878
-0.497984
-0.216417
0.234322
-0.259536
-0.109717
0.278319
-0.195403
0.1079
0.203679
-0.387648
1.5908
1.43961
0.700012
0.104318
0.0597952
0.361469
0.0581963
0.15415
-0.286112
-0.0781423
0.273913
-1.11836
-0.335051
0.0218431
-0.395045
0.0373773
0.260588
0.522058
0.461074
0.152227
0.428475
-0.113456
-0.267099
0.112487
0.568662
-2.08606
-0.0336772
-0.385726
0.297389
-0.312857
-0.147827
-0.291995
-0.160362
-0.0750397
0.0790584
-0.00283046
-0.276434
-0.263949
-0.509679
-0.31875
0.417117
0.194259
0.496228
-0.801363
0.221023
0.530861
-0.466225
-0.435698
-0.209208
0.0857008
-0.39596
0.34557
0.417157
-0.141359
0.42334
0.353336
0.129151
0.273528
-0.264858
-0.149403
-0.134437
-0.067973
0.0677935
0.396722
0.577336
-0.494188
0.376794
-0.422572
-0.471991
0.269478
#synapses weights
-0.28572
0.304713
0.393327
-0.227982
-0.0358353
0.000205789
0.676783
0.0708049
0.0598642
-0.176874
0.153089
0.126663
-0.219352
-0.0283523
0.502679
-0.391429
-0.168828
-0.125624
-0.02365
0.239818
-0.0140741
-0.220172
-0.157683
0.125058
0.106705
0.369597
-0.373591
-0.363487
-0.383969
0.0726675
0.29835
0.304182
0.330056
-0.0864931
-0.25476
0.237004
1.27373
0.372965
-0.380577
0.446673
0.439431
-0.371066
-0.0781192
0.376267
0.342966
0.151077
0.0491212
0.0869498
-0.218892
-0.241475
-0.249434
-0.169197
0.467775
0.00124047
-0.313848
-0.369105
0.500971
-0.273616
-0.237484
0.353917
0.145298
-0.274444
-0.208586
-0.0833121
-0.267677
-0.357166
-0.40276
-0.256425
0.391683
0.298348
-0.114384
0.37632
0.125661
1.01893
-0.318516
-0.0390099
-0.00927865
0.0159686
0.0767816
-0.170946
-1.07745
-0.495886
-0.0735457
0.480779
0.368015
0.163881
-0.0264086
0.213839
0.275071
0.0660317
0.0311167
0.249151
-0.227278
-0.382577
-0.297183
-0.428417
0.499703
0.146755
0.431745
-0.332883
-0.00881603
0.0416504
0.123841
0.188113
0.134438
-0.196256
0.449476
-0.0607295
-0.15138
0.142852
-2.12232
0.131147
-0.379067
-0.250196
-0.363946
-0.267242
-0.365498
0.0907543
-0.350751
-0.0165651
0.138246
0.423971
-0.113347
-0.32648
0.0435401
0.36589
0.256485
0.115095
-0.191411
0.398254
-0.241801
-0.362715
0.257692
-0.367423
0.0236785
-0.339392
-0.346283
0.127183
-0.0690237
-0.334267
-0.377704
0.294672
0.36886
-0.252239
-0.417245
0.211829
-0.237991
0.0733919
0.445767
-0.23888
-0.169521
0.139225
0.136267
0.183967
-0.472486
-0.223716
0.13527
-0.288989
0.187119
-0.135737
0.0661685
0.147252
-0.0666135
-0.137755
0.0438587
-0.471701
0.0136304
-0.286832
0.209189
-0.0500892
-0.119486
0.00749142
0.288023
0.328725
0.278256
0.24534
0.275849
-0.397403
-0.0153346
-0.26792
-0.174274
0.0460369
0.0293591
-0.0398849
1.09048
0.039706
0.267876
-0.0236965
-0.174746
0.375873
-0.155165
-0.660843
-0.0606803
0.122402
0.0716316
-0.283279
-0.0615269
-0.241981
0.106315
-0.359182
0.190269
0.432106
-0.496245
0.0617677
-0.375423
-0.112767
0.191192
0.254793
0.437701
-0.0657275
0.0533263
0.371172
-0.0558084
-0.471071
-0.374838
0.284206
-0.187961
-0.251779
0.0413566
0.229194
-0.223504
-1.99206
0.0565121
-0.0859599
0.0119689
0.406118
-0.0627347
-0.443533
1.32063
1.60576
0.106532
0.111062
-0.0114009
0.326978
-0.0815564
0.367219
0.123828
-0.203352
0.249989
0.0197546
0.00354784
-0.179494
-0.0503184
-0.0288866
0.35316
-0.0056886
0.0733606
0.0932134
-0.0488452
0.0710385
-0.0774531
0.199614
0.0576672
-0.236658
-0.239091
0.219917
-0.319595
-0.356423
2.73933
-0.125181
-0.298049
0.183413
-0.168213
0.0183734
0.00611885
0.373645
1.27889
0.328888
0.0888299
0.0687276
-0.0422742
-0.217197
-0.0147711
-0.0325185
0.116617
-0.182182
0.35913
0.0790834
-0.0401368
0.00670556
-0.197808
-0.169525
0.233657
0.183588
-0.0391376
0.255441
-0.248642
-0.348278
0.441446
-0.226376
0.074866
0.137616
0.047418
-0.240446
-0.0883695
2.47989
-0.22874
0.30631
-0.326182
0.224967
0.107668
0.403861
0.335653
-0.365032
0.740224
0.150339
0.109878
0.0794383
-0.0868384
-0.333623
0.0228636
-0.0340921
0.229753
0.458947
-0.179961
-0.261661
-0.268178
-0.386047
0.22897
-0.461968
0.294343
-0.498416
-0.0142124
0.198096
-0.452885
-0.333666
-0.193258
0.237816
-0.0870308
-0.0106064
-0.337173
-0.100444
0.846568
0.0765468
-0.553401
-0.0513506
0.140983
0.197561
0.227601
0.402449
-0.0589507
0.0522142
-0.0584627
0.17399
0.342783
0.324056
-0.0297023
0.119389
0.243763
0.153346
0.296514
0.141943
-0.0811046
0.0141771
0.00553152
0.279937
0.110412
0.395621
0.384609
-0.117289
-0.0407563
0.291267
0.275002
0.415237
-0.329371
0.360657
-0.365999
0.329243
-0.68306
0.676822
-0.403806
-0.0251145
0.0884478
-0.0881369
0.339963
-0.581147
-0.302672
-0.456828
-0.227828
-0.493229
-0.476702
0.222846
0.0536956
-0.433637
-0.0737779
0.310334
-0.105302
-0.272695
0.268017
-0.569147
-0.380581
0.262865
0.204232
0.369395
-0.551015
0.124831
0.169875
0.252545
-0.253701
0.0941935
-0.421754
-0.373546
-0.276108
0.178424
-0.508674
0.805923
-0.861882
-0.400561
-0.153772
0.336593
-0.4435
0.156654
0.0283444
-0.285336
-0.0285365
-0.170013
0.236232
0.232593
-0.381135
-0.420157
-0.0453272
0.207548
0.438929
0.555109
0.336019
0.316183
0.109065
-0.0216557
0.361016
0.435531
0.0465151
-0.119351
-0.0888302
-0.422198
-0.0533242
-0.372341
0.531706
0.120636
0.363932
-0.319043
0.399503
0.321342
-0.315679
-0.88491
-0.116366
-0.123649
-0.196297
0.349632
0.483369
0.299408
-0.442209
-0.193529
-0.117449
-0.347271
-0.277515
-0.166466
-0.372981
-0.269312
-0.336053
0.0808614
-0.327064
-0.486937
-0.185572
0.132796
-0.364292
0.254067
-0.205846
0.285373
-0.00427585
0.268676
0.255464
-0.425893
0.331154
-0.0664145
0.31876
0.156642
0.345502
0.135155
-0.0904596
-0.374436
-0.395517
-0.234199
-0.226744
0.170554
0.272485
-0.307395
-0.311963
0.0292185
-0.57066
-0.407614
0.34976
-0.408057
-0.401311
-0.366933
-0.200788
-0.0175669
0.421737
0.255708
0.373436
-0.42098
0.170827
-0.375886
-0.201671
0.475763
-0.119381
0.176507
-0.0734634
0.00681476
-0.434568
0.143404
0.00567588
0.00855812
-0.380902
0.179666
-0.289729
-0.053417
-0.0694929
-0.175766
0.295923
0.255489
0.439983
0.321483
-0.132717
0.204289
0.147344
0.0387376
-0.036969
0.0596535
-0.311348
-0.30512
-0.0913992
0.4254
0.348972
0.327233
-0.0986106
0.292818
-0.17536
-0.377086
-0.12433
-0.0922624
-0.270799
0.0373461
0.267707
-0.101597
0.293775
-0.489663
0.369043
0.353215
-0.374761
-0.0265596
0.0958727
-0.238754
0.118261
-0.384422
0.373734
0.28778
-0.0791334
-0.376356
0.169992
0.0320353
0.12375
0.354736
-0.247863
0.174342
-0.0976651
-0.583189
0.482156
0.390541
0.2124
0.122769
0.168817
0.00633517
-0.432878
-0.179568
-0.277867
0.489488
-0.225589
-0.429734
0.0156663
0.287617
0.273141
0.274531
-0.244004
-0.30867
0.245133
0.0144694
0.121322
0.13988
0.314686
0.298853
-0.104944
0.578385
-0.0609618
-0.0089849
0.123826
-0.00394105
-0.13682
-0.064813
0.60131
-0.158668
-0.400843
0.114255
0.0263484
-0.283397
-0.0969422
0.0922444
0.391144
-0.36548
0.147524
0.0261051
-0.00061501
-0.397685
0.365478
-0.250029
0.413285
-0.0121606
0.0286989
-0.507664
0.210002
0.379714
-0.137687
0.0865563
-0.0526274
-0.0440837
0.217157
-0.0624376
0.100129
-0.0384267
0.848818
0.450988
-0.394627
0.286302
-0.192827
0.0774391
0.219629
-1.61294
-0.0879153
0.0370218
0.0514777
-0.0147481
-0.151238
0.368853
-0.472157
0.153991
0.118948
-0.00732067
0.169061
0.0831209
-0.224234
0.16187
0.321282
-0.300069
0.0419604
-0.340378
0.37871
-0.10843
0.0316886
0.0840635
-0.0906801
0.055375
0.0751933
0.120046
-0.04744
-0.263719
-0.600139
-2.95873
-0.351796
-0.489679
-0.428807
0.375781
0.121698
-0.0579451
-0.75952
-0.249806
0.553153
0.110827
0.383202
0.153111
0.372655
-0.151153
0.022533
-0.360279
-0.273984
-0.0952112
-0.225779
0.449916
-0.389456
-0.0267794
-0.0719468
0.307127
-0.329053
-0.201139
-0.0687298
0.126798
-0.256898
-0.491431
-0.013086
-0.225023
0.079343
-0.48929
-0.496161
0.636951
-0.106617
-0.10536
0.153696
0.189379
-0.247055
-0.0870773
0.0582384
0.929479
0.128981
-0.157408
0.0714103
0.11209
-0.186749
-0.267821
0.452257
-0.254225
-0.422488
0.252858
0.14302
-0.00434702
-0.569844
0.186697
-0.169255
0.0100638
0.123082
-0.444403
-0.342899
0.126468
-0.383487
-0.0813118
0.182602
0.0296962
-0.472304
-0.483047
0.317194
0.3153
0.37451
1.30159
0.288705
0.242809
-0.510005
0.338996
-0.400056
0.131317
-0.2572
-0.339795
-0.259384
-0.446727
0.0586424
-0.337396
0.203104
0.141101
-0.176993
0.236449
-0.0963935
-0.278849
0.249011
-0.216592
0.281742
0.223229
-0.412667
0.147757
-0.128123
-0.314982
-0.437453
0.0465914
-0.25555
0.258484
-0.255072
-0.348703
-0.18652
-0.378294
-0.287751
0.0155126
-0.00789432
-0.2987
0.406283
-0.0537498
0.367295
0.338304
0.142203
-0.319575
-0.338295
-0.155997
0.298102
-0.273666
-0.115594
-0.205891
-0.16349
-0.357447
0.515159
0.471078
-0.399267
0.214535
0.333175
-0.0134866
-0.155466
0.124559
0.030608
-0.122877
0.382265
0.385839
-0.148699
-0.384109
0.500966
0.213224
-0.0728526
0.105633
-0.167216
-0.0733867
0.120117
0.517928
0.231823
0.135821
-0.209006
0.0414538
0.326563
0.101214
0.545426
-0.167396
-0.00101132
0.0549167
-0.167472
-0.0832528
0.20202
-0.333192
-0.306934
0.201556
-0.0812285
-0.171875
-0.0415528
0.0453124
-0.0712016
0.392649
0.109011
0.264584
-0.341722
-0.340011
0.0237518
0.254995
-0.248028
-0.319949
0.428988
0.393465
-0.116436
-0.155701
-0.130713
0.349964
1.3024
0.130626
-0.437891
-0.150578
0.0592235
0.0259928
0.434925
-1.08716
-1.1485
-0.567939
-0.235068
0.231856
0.0544408
-0.240285
-0.186975
0.0432198
-0.206902
0.1857
0.187687
-0.53649
-0.339475
0.167484
0.0966952
-0.166231
0.00733427
0.0739419
-0.0500844
0.126463
0.354263
-0.0514771
-0.272745
0.0207551
0.427034
-0.14285
0.426506
-0.0868874
-0.112294
-0.396357
-0.171828
0.0650082
-0.0839546
-0.412422
-0.00760937
-0.467467
0.548302
0.207755
-0.123015
-0.28124
0.27328
-0.203591
0.433015
-0.284952
-0.0844079
0.132281
-0.289618
-0.00370802
0.0192371
-0.318208
0.175246
-0.0956021
-0.0495512
-0.0619392
0.424284
-0.352549
0.0759818
-0.230246
-0.133047
0.22414
-0.230237
0.0756098
0.0831077
-0.0134829
0.403721
-0.022
0.613807
0.279745
0.318402
-0.135232
0.0446138
0.152488
0.104571
-0.152402
-0.156574
0.201793
-0.0639892
0.326928
-0.673576
-0.243657
0.0887959
0.0233838
0.331914
0.166896
0.149671
-0.290581
-0.4485
-0.331669
0.141207
-0.287034
-0.001109
0.322685
-0.303873
0.351225
-0.18977
-0.103448
0.161221
-2.48921e-05
-0.0624021
-0.30429
0.136043
0.16549
-0.382743
-0.995464
0.157528
-0.385564
-0.136223
-0.113141
0.225401
-0.0756959
-0.342655
-0.134431
0.0626736
-0.035039
0.0316128
0.245575
-0.224332
-0.221665
0.06386
0.0539416
0.178586
0.0324037
-0.17009
-0.418811
-0.0565355
0.330465
0.142222
-0.0404449
-0.370696
0.247758
-0.420348
0.341352
0.36403
-0.192361
0.121928
0.137496
-0.239185
0.362293
-0.0211819
-0.132406
2.3317
-0.300382
0.294645
-0.344959
0.195187
0.199977
-0.282534
-0.309657
-0.304028
0.218637
-0.526473
-0.0259494
0.365163
-0.376451
-0.179289
-0.410011
-0.127788
-0.277816
-0.297952
0.116259
-0.215369
-0.183458
-0.0169519
-0.449633
-0.178368
0.169074
-0.219633
-0.0546786
-0.17943
0.266243
0.367194
-0.231084
-0.332537
0.00104396
0.123199
-0.40753
-0.213683
0.0101456
0.085209
0.473709
-0.276335
0.245684
-0.195386
0.456544
-1.34311
0.151001
-0.0402077
-0.313852
0.111607
0.244147
-0.194155
0.246739
-0.184089
0.553833
0.717959
-0.030647
-0.360047
0.0969328
0.0503678
-0.136851
-0.163859
-0.336923
0.304314
0.359775
0.389639
-0.361192
-0.36257
-0.263596
-0.11077
-0.0220814
0.382437
-0.0510153
0.191943
-0.325171
-1.65712
0.324656
-0.14958
-0.0520149
-0.0370209
-0.240368
0.00455603
-0.837013
0.101776
0.0688479
-0.543687
-0.00361043
-0.142509
0.360576
-0.13834
0.262248
-0.458075
-0.456545
-0.445197
-0.0718972
-0.28868
0.040273
-0.0450824
-0.0409408
-0.229748
0.239801
-0.405414
-0.189107
-0.176925
-0.260955
0.221872
0.219123
0.150206
-0.101527
0.325051
-0.07555
0.0772185
-0.65277
-0.300047
-0.00057398
-0.0849411
-0.497777
-0.0659709
-0.139382
0.508814
-0.378005
-0.0219025
0.375395
0.0224583
0.458561
0.160932
0.328678
-0.00948475
0.0529361
0.231931
0.102769
0.422354
0.276107
-0.274612
0.221276
-0.241449
-0.150434
-0.316829
-0.205739
-0.30368
0.385889
0.359696
-0.237239
0.0885794
0.169851
-0.218888
-0.373761
0.00164736
-0.326017
0.561716
0.326611
0.420306
-0.24705
0.228466
0.313639
-0.257875
-0.906311
-0.18368
0.0376433
-0.0223052
-0.049274
0.0379055
-0.0412286
-0.0812889
0.0621389
-0.177995
-0.101746
0.101652
0.11335
-0.209007
-0.0381127
-0.0793334
0.167673
-0.165033
-0.0809202
-0.141822
-0.287658
0.1881
0.201729
-0.283446
0.244198
0.0336732
0.00544144
0.170161
-0.163202
-0.348179
-4.50842
-0.058291
0.173577
0.0154182
0.319614
0.104981
-0.195451
-0.161192
-0.118188
-0.194224
0.0818414
-0.136491
0.0134163
-0.215634
0.369812
-0.195667
-0.117037
-0.167481
0.0184417
-0.305831
-0.164773
0.0216589
0.164917
-0.119475
0.235823
-0.493051
0.208295
-0.0265606
0.237321
0.272707
-0.0953484
0.154879
-0.0436929
0.0589112
-0.123326
0.00735115
0.0320955
1.39946
0.171655
0.196806
-0.175388
-0.267441
0.0652592
0.224698
0.250723
0.14203
0.156155
-0.236089
0.47032
0.0548075
-0.487247
0.0660172
0.0618301
-0.162296
0.103983
-0.376315
-0.444433
-0.296704
0.33879
-0.338138
-0.119416
0.404313
0.107974
0.367224
0.192415
-0.296239
0.190109
0.412987
-0.0797171
0.0700157
-0.285098
-0.115758
-0.195407
-0.076609
-1.37562
-0.229559
-0.437688
0.302532
0.0601043
0.217215
-0.353324
1.34184
0.216368
0.436341
-0.420996
-0.134156
0.354484
0.551183
0.18686
0.0890658
0.268787
-0.244182
-0.243323
-0.115029
-0.169966
-0.332316
-0.204948
-0.0919254
-0.248688
0.233206
0.254856
0.404478
0.0539873
0.091114
-0.333949
0.0766254
-0.0430682
-0.0191341
0.176687
0.0625005
0.506974
0.569828
-0.478943
-0.332293
-0.0527736
-0.279928
-0.216194
0.276079
0.0699987
0.557709
0.266509
0.167698
0.107116
0.145228
0.103761
0.133175
0.0264414
0.240578
0.314163
0.156304
-0.347203
-0.291103
-0.339792
-0.337842
-0.0716684
-0.296863
0.204525
-0.371889
0.412836
-0.23227
-0.305591
0.495525
-0.223454
-0.387849
0.462944
0.0595324
0.213235
-0.100647
-0.198395
0.307178
-0.260031
-0.359949
-0.321769
0.105748
0.30495
-0.890709
-0.369214
0.0615345
0.0724202
-0.24929
-0.375948
0.307753
-0.489653
0.307407
-0.270763
0.243256
0.263808
0.255581
0.171536
-0.178669
-0.268523
0.132158
-0.00265343
-0.439496
-0.0485833
-0.500825
-0.08043
-0.376438
0.0841391
-0.261919
-0.373293
-0.0687307
0.227748
0.0497869
0.349568
0.081461
0.068725
0.311553
0.161586
0.0679042
-0.379207
0.0234127
0.794044
0.675043
-0.124542
0.208557
0.0232191
0.195392
-0.140294
-0.233212
-0.0659945
0.169668
0.127488
-0.311724
-0.126733
-0.10676
-0.286353
0.381494
-0.321589
0.139642
-0.384264
0.503343
0.127596
-0.293303
-0.00914374
-0.11931
0.112553
-0.425492
0.0957307
0.144336
0.179666
0.649398
-0.0681163
-0.0030579
-0.136605
0.238278
0.133861
-0.260324
0.144477
-0.147228
0.346335
0.0147636
0.00450191
-0.283853
-0.397101
0.212196
-0.030698
-0.184704
-0.333763
-0.454102
-0.0167142
-0.101381
-0.143536
0.0133352
-0.152784
-0.14833
-0.330895
0.023506
0.0752724
0.292726
-0.342627
-0.456924
-0.622272
0.196512
-0.000269737
-0.53301
0.431784
-0.501005
0.385054
0.0399341
0.180331
0.389256
-0.116391
-0.442618
-0.433364
-0.272909
-0.0262268
0.426409
-0.411252
-0.25595
-0.408736
0.302886
-0.0175835
-0.189485
0.498409
0.272397
0.278071
-0.382463
-0.111752
0.22652
-0.202865
0.421157
-0.059619
-0.173262
0.524493
0.284206
0.412915
-0.220674
0.0476737
-0.296463
-0.111675
0.355054
-0.324698
0.344791
0.26145
0.193672
0.181052
0.333755
0.137719
-0.181075
0.225771
0.172698
0.467018
-0.35806
-0.251626
-0.198372
0.268018
0.352059
-0.25282
-0.206903
-0.174875
-0.106376
-0.381342
0.269837
0.0909641
0.464889
0.181319
0.193834
-0.219826
-0.239877
0.119328
0.11754
0.358153
-0.224268
0.385187
-0.258862
0.0155609
-0.309937
-0.0948832
0.257803
0.293121
-0.0515035
0.0992469
-0.240227
0.0997776
-0.178667
-0.109624
-0.0388709
0.289699
0.11871
0.127457
-0.203566
-0.0655826
-0.363098
-0.0279066
-0.217488
-0.0667606
0.445534
0.150819
-0.271022
-0.0663179
0.0623028
-0.261087
-0.167173
-0.255601
-0.33771
0.153313
0.261068
-0.101331
0.269032
-0.576175
-0.467587
-0.291257
0.186579
-0.406098
0.428534
0.334459
-0.0955987
0.124634
-0.14338
0.267817
-0.291869
-0.477407
0.343114
-0.425766
-0.224631
-0.491054
0.529589
0.134964
-0.150087
0.104878
0.305174
0.200868
-0.347482
-0.320531
-0.273294
-0.148988
0.136096
-0.0253787
0.0631905
-0.434976
-0.488964
-0.211468
-0.46252
-0.241255
-0.394069
-0.115559
-0.142211
0.0348911
-0.240394
-0.364738
0.426079
-0.150933
0.13358
-0.260687
-0.272282
-0.0774121
-0.224226
-0.200089
-0.0130012
0.155982
0.338308
-0.0875436
0.0586201
-0.577371
-0.202137
0.0974282
-0.0916985
0.00132504
0.24018
0.181894
-0.438528
-0.266343
0.113322
-0.485982
-0.14469
0.0421652
-0.122441
0.0288792
-0.237734
-0.285439
-0.508603
0.51239
0.276139
0.32327
-0.450116
-0.24825
0.394743
0.342565
-0.55782
0.380336
-0.140208
-0.153097
-0.375091
-0.130674
0.15927
0.15237
-0.208248
-0.0441987
-0.435931
0.381114
0.204119
-0.488666
-0.221345
0.166603
-0.215404
-0.396226
0.424641
0.278125
-0.589373
0.25903
0.473058
-0.135723
0.288699
-0.0304738
0.309719
-0.449746
-0.283382
-0.00926921
-0.449997
-0.00309199
-0.164401
-0.163728
0.364833
-0.0852374
0.370342
-0.0262686
-0.464196
0.153071
0.154728
0.443839
-0.373015
0.0095243
-0.344928
-0.191189
0.138014
-0.405125
0.024769
0.085521
0.441042
0.201869
0.0112008
-0.368323
0.501457
-0.109141
-0.210952
0.391836
0.0573414
0.418703
0.453446
0.418582
0.259154
0.0573614
0.431927
0.426286
0.505283
0.356941
0.461844
0.164801
0.43538
0.455058
-0.432308
0.208021
-0.120089
-0.28465
0.439225
0.416242
0.346233
-0.080217
0.394409
0.448522
-0.247326
0.44744
-0.119098
-0.00100951
0.131933
-0.312893
-0.00748782
-0.47448
-0.26258
-0.336638
0.429592
0.128729
0.42527
0.247827
-0.359674
-0.194676
-0.133956
0.451964
-0.332995
0.237862
0.110882
-0.218677
0.184041
0.10641
-0.184483
0.269853
0.184157
-0.419889
-0.0742055
0.524148
0.0138573
0.341968
-0.00149637
0.0828136
-0.169048
0.43139
-0.141155
0.374191
-0.049424
0.32641
0.273335
-0.476976
0.150869
0.326689
-0.47015
-0.354974
-0.279886
-0.13147
0.113791
0.359126
-0.224222
-0.615883
-0.281561
0.302953
0.149231
-0.518082
-0.00288973
0.0952777
-0.125802
-0.277412
-0.176827
0.0962767
-0.223576
0.114129
-0.175818
0.0520727
-0.10791
-0.149845
-0.54616
-0.243532
-0.255562
0.0766534
0.496612
-0.414102
-0.0921239
0.556722
-0.418354
0.114228
-0.110236
-0.147768
0.197628
0.453607
0.250082
0.302094
-0.129719
-0.0486247
0.111317
-0.0958408
0.40053
0.287554
0.367946
0.272273
0.00952529
-0.257298
-0.260323
0.277796
-0.340779
0.56548
0.102642
-0.117149
0.381244
-0.0254597
-0.04018
0.483466
0.194718
0.148318
0.532457
-0.205972
0.295016
-0.345422
0.158539
-0.182756
0.241399
0.505046
0.257491
0.31334
-0.111678
0.249934
-0.39732
0.389698
0.0549941
-0.386372
0.215964
-0.327768
0.15924
0.33392
-1.07724
-0.597994
-0.535792
-0.56648
0.276644
-0.00364006
-0.659843
0.254733
-0.186585
0.0513409
-0.53746
0.494574
-0.0117622
-0.410868
0.124081
-0.389026
-0.341284
0.099577
-0.258057
0.446845
-0.548118
0.0801514
0.552146
0.114855
-0.571193
0.534862
-0.452814
-0.0387801
-0.460132
-0.240878
-0.0681264
-0.482677
0.221043
0.263788
0.3107
0.411216
-0.152175
-0.481312
-0.216203
0.204535
0.0842719
-0.270306
0.0806073
-0.299257
-0.10032
0.0219856
0.0274008
-0.397146
0.26269
0.238153
0.140861
-0.0731299
0.295039
0.394407
0.135011
0.104228
0.0107535
-0.284437
0.436835
-0.362331
0.126467
0.301755
-0.283001
0.178443
-0.327545
-0.505792
0.465578
0.311832
-0.431729
-0.290757
0.340244
0.42872
0.0625207
-0.210396
0.411512
-0.00436676
0.799607
0.636858
0.355209
0.0866865
-0.212291
0.406491
0.112107
0.0596605
0.306108
0.116282
-0.426891
-0.620922
0.17142
0.452134
0.0258153
-0.205828
-0.140256
-0.330652
0.379621
-0.579731
0.586281
0.551064
0.107791
0.151692
-0.0963741
-0.408736
0.046512
0.0239019
-0.0972427
-0.33375
-0.390598
0.04599
-0.120107
0.297506
-0.244611
0.0451549
0.237414
-0.379008
-0.509668
-0.400535
0.120579
0.368982
0.497127
0.138297
-0.228595
-0.145854
0.0146595
0.201808
-0.276158
-0.252763
-0.396768
-0.520162
0.20572
-0.308255
0.205163
-0.139346
0.196751
-0.0972195
-0.0333104
0.422837
-0.0411597
-0.417872
-0.294423
-0.476692
-0.384265
-0.417939
-0.423341
-0.438112
0.361524
0.0325825
-0.580738
-0.00513395
0.506039
-0.0583064
-0.326376
0.207909
0.461444
-0.446521
0.250039
0.236438
-0.00972925
0.272454
-0.220788
0.148958
-0.349117
-0.407517
-0.0219198
0.431781
0.27959
-0.31081
-0.051793
-0.285088
-0.487235
0.0859471
-0.0529672
-0.100039
-0.390592
0.0649105
-0.179847
0.0229033
-0.425463
-0.725053
-0.126767
-0.350821
-0.206906
0.249528
-0.467487
-0.302453
0.279493
-0.296801
0.0593547
-0.159519
-0.037506
-0.0756988
-0.0210259
0.137142
0.33397
-0.215733
0.00915496
0.0951593
-0.109114
0.443134
0.122524
0.522415
0.524823
-0.168166
0.456092
-0.162136
0.295392
0.0492488
0.161247
-0.355036
0.373252
0.117725
0.242782
-0.219963
0.202043
0.104524
0.281987
0.171063
0.506514
0.208138
0.535821
0.129727
0.0544847
0.509762
0.337659
0.181609
0.172366
0.317386
0.545395
-0.249017
-0.0230624
-0.416342
0.15368
0.587244
0.232075
0.300858
0.291063
0.644295
0.0999312
0.423249
0.46205
-0.43906
-0.140904
0.11581
0.683173
0.623292
0.586864
0.978659
0.0731554
-0.0382916
0.69731
0.215491
0.174456
0.237627
0.421794
-0.623544
0.757971
-0.536561
-0.144822
-0.657498
0.277534
-0.657806
-0.446637
-0.491345
0.438441
-0.448562
-0.567104
0.810216
-1.16177
-1.71467
-0.443514
-0.421971
0.310943
0.427419
0.0807577
0.0145472
-0.213722
-0.34521
-0.34394
1.25673
-0.0410835
-0.478271
0.0624266
-0.222865
-0.671817
0.0939122
-0.518317
0.183218
-1.16172
0.0683673
0.616639
0.316081
-0.282712
2.67334
-0.188389
0.315053
0.0992835
0.474167
-0.0511753
0.268086
-0.0200777
0.113919
0.184453
-0.0654248
-0.347094
-0.0208843
0.509044
-0.0247181
-0.360578
0.547453
0.0453093
0.128047
-0.293249
0.0832804
0.0941501
-0.390538
0.121259
-0.606071
-0.0685781
-0.105738
-0.221217
0.146364
0.143964
-0.131026
-0.213542
0.0198653
-0.0655035
0.19087
-0.451291
0.479933
-0.625849
-0.483497
0.420633
0.318614
0.0101727
0.371137
0.171176
0.0983501
-0.172776
-0.143823
-0.326776
-0.063395
-0.241405
0.202603
-0.136577
0.464295
-0.46149
0.410742
0.0480345
-0.0439851
-0.0768882
-0.160794
-0.3777
-0.0818797
-0.560173
0.340708
-0.0327401
0.338281
0.394022
0.108396
0.385216
-0.295078
-0.20228
0.453004
0.376176
-0.326846
0.0356588
0.392039
-0.488274
-0.285331
0.512407
-0.00300305
-0.467194
0.219247
-0.305577
0.0297734
-0.00287619
0.345832
0.0280899
-0.184693
0.0667261
-0.350863
-0.399314
0.00517653
-0.462528
-0.421691
0.013501
-0.376759
0.0232743
0.46454
0.146252
-0.0244687
-0.274787
-0.266582
0.360664
0.0526187
0.410419
-0.0801468
0.300133
-0.248393
-0.333357
0.405132
-0.397758
-0.201965
0.0960474
0.150026
0.130025
-0.643099
-0.483963
-0.416418
-0.626351
-0.0807223
-0.284715
-0.461047
-0.125889
0.114431
0.381657
-0.0196712
0.397389
0.0256773
0.337808
0.288515
0.412677
0.44682
0.162945
0.0680167
-0.482645
-0.23264
0.142596
0.405809
0.0880253
-0.0364993
0.253466
0.563925
0.275215
0.192222
0.464927
0.462078
-0.385164
0.39351
0.173716
-0.283389
-0.0428417
0.0756424
-0.292828
0.44358
-0.245918
0.255378
-0.469412
-0.0405302
-0.262998
0.438884
-0.369082
-0.247738
0.311891
0.0176206
0.174722
-0.194595
0.432978
0.0727494
0.285383
-0.476572
0.314498
-0.0466624
-0.399636
-0.18055
0.184378
-0.31586
-0.340893
-0.339626
-0.257397
0.524142
-0.15989
0.0591668
0.461684
-0.391291
-0.371867
-0.166469
-0.305528
0.45069
0.153142
0.0603291
0.240184
-0.0894208
-0.237535
0.426321
-0.460538
-0.2399
-0.127986
-0.19974
0.282771
0.4208
-0.169058
0.121132
0.284956
-0.263058
0.347123
0.513899
-0.0491721
0.0705748
-0.251638
0.526143
0.566942
0.197845
-0.225175
-0.100493
0.304737
-0.225131
-0.0512639
-0.348633
0.57977
-0.28196
0.522991
0.655872
-0.120438
0.101621
0.0829655
-0.0836768
-0.308179
-0.155283
0.330207
0.432638
-0.339706
-0.160078
0.298405
0.35382
-0.0455975
0.0369035
-0.196513
-0.471073
0.51111
0.260436
-0.36535
0.100912
0.106598
-0.166996
-0.428927
-0.200837
-0.236211
-0.337797
0.587195
0.443831
0.312451
0.304543
0.349448
0.0892292
0.240179
-0.410701
-0.172428
0.304908
0.193799
0.0909013
0.197135
-0.355947
-0.0452177
0.0832874
0.569594
-0.25806
-0.251505
-0.468699
-0.475438
-0.304079
-0.172491
0.189717
-0.333783
0.0518044
-0.192588
-0.135552
-0.00977593
-0.283051
0.129097
0.37049
0.0313372
-0.399482
0.0985635
-0.166787
0.193044
-0.120033
0.0637966
-0.283636
-0.331159
0.121174
-0.448006
-0.278237
-0.0138281
-0.0587441
0.191281
-0.392911
-0.469455
-0.496774
-0.376937
0.00349378
-0.177263
0.216231
-0.281909
0.357386
0.114043
-0.265673
-0.11606
-0.398731
-0.10214
0.438563
-0.385615
0.368462
0.0383522
0.430228
0.019081
-0.165236
0.422661
0.111103
0.696171
-0.188711
-0.0902017
-0.087716
0.317706
-0.391513
0.718024
-0.366724
0.0400531
0.38938
-0.117246
0.0265281
-0.0190626
0.518995
-0.0689852
-0.161499
-0.0905822
0.225221
0.650873
0.0742667
0.532078
0.236198
-0.236958
-0.306328
0.45802
-0.423625
0.458182
-0.370898
0.349037
-0.309844
0.10873
0.201158
0.085215
0.44401
0.245007
-0.389956
0.200992
0.330728
-0.129587
-0.209652
0.230044
-0.0027501
-0.0435672
-0.107093
0.17108
0.402776
-0.120926
-0.0611416
0.170705
-0.133514
-0.264748
0.578204
0.132086
0.393254
0.44162
0.0455825
0.521835
-0.249109
0.0659591
-0.0645621
0.0957152
-0.108417
0.0727544
0.354542
0.0671843
0.280934
0.11125
0.433476
0.160131
0.351267
0.484214
-0.222161
0.393476
-0.380842
0.518959
0.0957535
0.397256
0.64167
-0.283264
0.100716
-0.108838
0.0847889
-0.0851535
-0.0616446
-0.374579
0.345551
0.128608
0.221075
-0.370852
0.0389145
0.0301477
0.168878
-0.0322454
0.580603
0.0615402
0.46329
0.482096
0.106946
-0.0743967
0.5289
0.18374
-0.480216
0.366332
0.240367
0.248563
0.212675
0.0380723
0.420728
0.498847
-0.126633
0.244139
-0.0553293
0.279267
0.298756
0.481231
0.364781
-0.193339
0.510762
-0.0706991
-0.164327
0.0860704
-0.0416363
-0.428052
-0.0620581
0.160917
-0.0216865
-0.267621
0.137747
0.0859773
0.093789
0.39793
0.47144
0.257311
0.265011
-0.239157
0.233671
0.324463
0.0313103
-0.224148
0.178933
0.107478
-0.363245
-0.362381
0.139271
-0.390171
-0.179457
0.197546
-0.0930896
0.0628023
0.123135
0.442096
0.158102
0.281418
0.834479
0.182561
0.0836845
-0.282784
0.126756
0.137907
0.008756
0.38328
0.183255
0.353775
-0.454339
-0.0597995
-0.0855084
0.355507
-0.279512
0.350791
0.78874
-0.0065277
-0.433049
0.00846896
0.56385
-0.00238724
0.422955
0.36543
-0.330068
0.454513
-0.142387
0.172732
0.122717
-0.254498
0.23396
0.438922
0.200644
-0.0119114
0.488006
0.325342
-0.142333
0.54768
0.237621
0.0281833
0.156837
0.141571
0.495736
0.0552616
-0.0836736
-0.0357789
-0.314537
-0.325905
-0.0669589
0.0178097
0.00527377
-0.0731215
-0.220809
-0.259571
-0.408314
0.456823
0.596351
0.308034
-0.266119
0.312687
-0.195931
-0.267595
0.422663
0.35099
0.479139
0.418921
0.734421
-0.176331
-0.00179772
-0.181022
-0.334678
0.0797974
-0.232746
0.03862
-0.107541
0.397187
0.0875145
-0.140761
0.427324
0.142072
-0.084329
0.126043
-0.0125224
-0.0418863
0.0576614
-0.255266
-0.356408
0.227379
-0.19836
-0.255557
-0.301194
0.00791875
-0.110748
-0.0268145
0.19456
0.0142573
-0.263237
-0.417359
0.28925
-0.465651
0.0526301
0.156428
-0.000707884
-0.2446
-0.393006
-0.294857
-0.491011
-0.472833
-0.18382
0.377739
0.272414
0.389068
0.0882201
-0.220301
0.373245
-0.108601
-0.188915
-0.243764
0.039266
0.229897
0.283337
-0.0679768
-0.500062
-0.286615
-0.0847279
-0.222239
-0.503054
0.0780274
0.0549102
0.151563
0.0296725
0.352461
0.0255666
0.199603
0.464825
-0.147616
0.08179
-0.0502743
-0.00519873
0.610886
0.0599435
-0.234338
0.423055
0.411956
0.479065
0.143505
-0.479368
0.112916
-0.266831
-0.250466
-0.110143
0.0160697
-0.415759
-0.38539
-0.348296
0.221621
-0.125756
0.373038
0.381759
0.259008
-0.417627
0.154874
0.667783
-0.480433
0.138922
-0.0820999
-0.175042
-0.420636
0.189179
0.0697002
-0.124099
-0.550164
-0.158867
0.473368
0.317719
-0.298541
0.681639
-0.541823
-0.0195849
-0.130121
-0.29386
0.066576
0.0531446
-0.450723
0.166262
0.45039
0.207623
-0.248247
0.25127
-0.620583
-0.877634
0.249923
-0.378391
-0.168169
0.203682
0.327411
-0.210177
-0.481365
0.127413
-0.281511
0.766694
0.206505
-0.536237
-0.199446
0.170106
-0.158001
0.100876
-0.283187
0.0269811
-0.324406
0.0432859
0.0940324
0.0540356
-0.325325
0.838311
-0.356359
-0.0362433
0.0528178
-0.105916
-0.201007
-0.502453
0.062412
0.148734
0.161519
0.143718
0.0346725
0.203657
0.202489
-0.0228331
-0.155455
-0.0851547
0.175833
-0.314801
-0.188855
0.0934064
0.193778
-0.198448
0.0120311
-0.934026
1.38073
0.0215401
-0.107317
0.0928304
0.311578
0.0517274
0.230986
-0.0679623
-0.345113
0.0458774
0.0397606
-0.388307
0.307815
0.241457
-0.278325
0.0546332
-0.0554194
-0.0653759
-0.122104
