#input normalization
0.161116 0.272721
39.8608 48.0066
9.91437 36.0734
8.01388 31.0242
0.0109087 0.0422903
0.00886708 0.0335684
0.542988 1.36901
0.823511 1.27769
1.05267 1.47112
1.29982 1.67897
1.57855 1.87949
1.86027 2.06281
2.12999 2.22636
2.39629 2.3791
2.64341 2.50023
2.87854 2.5868
3.10222 2.64749
3.30893 2.68228
3.48879 2.68793
3.62724 2.6498
3.75209 2.59835
3.85097 2.5101
3.92847 2.41397
3.96982 2.29961
3.99745 2.165
4.00133 2.00093
38.1053 49.985
7187.57 4869.21
#output normalization
1 0
#neurons weights
0.128213
-0.0745899
-0.154584
-0.267701
-0.267242
-0.180488
-0.411554
-0.261467
-0.103353
-0.448564
-0.0362764
-0.240361
-0.224042
0.0831836
-0.347805
0.171453
-0.149045
-0.406535
0.371832
-0.366813
0.273356
0.442993
0.413492
-0.0186813
0.0266266
-0.35048
-0.459622
-0.365735
0.00428267
0.414205
0.349404
-0.620657
0.164695
-0.422256
0.288764
0.0429353
0.248969
-0.105181
-0.445877
-0.374874
0.91001
0.084238
0.147737
0.218268
0.187044
0.167335
0.469115
0.380271
3.28287
0.503654
-0.327332
-0.3671
0.334217
-0.549029
-0.200395
0.00330111
0.368992
-0.178625
0.284085
-0.0777148
-0.0879255
-0.130704
-0.624482
0.0503433
0.429925
-0.352522
-0.27383
0.284726
0.46606
0.385284
0.0990748
-0.424764
-0.171948
0.394814
-0.076272
-0.291564
0.534985
0.553763
0.535332
0.0218174
0.0981449
-0.251534
0.0537855
0.154345
-0.653346
0.792691
#synapses weights
0.262572
-0.243544
0.107201
-0.139797
0.243625
-0.0887113
-1.20232
-0.1618
-0.704031
-0.392279
-0.186089
-0.346629
0.326004
0.403125
-0.030372
-0.308926
-0.207854
0.318909
0.0632261
-0.0609221
0.221112
0.265633
0.346216
0.0566189
0.610695
-0.065819
-0.668292
-0.264994
-0.276224
0.442529
-0.529951
0.271394
0.326905
0.431101
0.057203
0.122123
-0.51827
-0.0588386
0.502526
-0.400356
-0.353659
0.0414394
-0.0195066
0.457922
-0.199137
0.088863
0.451566
0.505655
-0.039124
-0.23257
0.385397
0.189936
0.139944
0.280325
0.0283444
-0.500881
0.387255
0.0662941
-0.158421
0.0521726
0.269872
-0.120787
-0.420226
0.0966885
-0.451875
0.233521
-0.0855939
-0.0219878
-0.409267
0.0858744
-0.201566
-0.185742
-0.226911
0.164609
0.10739
-0.264009
0.212837
-0.422846
0.00883636
-0.120143
0.111627
-0.152497
-0.531642
-0.398409
-0.310255
-0.168895
0.546548
-0.420389
0.00875449
-0.137013
-1.66872
-0.833105
-0.377164
-0.280617
0.013289
-0.0741655
0.0749165
-0.335329
0.231246
-0.371603
-0.132584
-0.0754667
0.153641
-0.163933
0.031745
0.238143
0.206927
0.218495
0.0620051
-0.137234
0.30241
-0.935108
0.105854
-0.137536
0.0299707
0.0215421
0.219124
0.172519
0.94097
-0.364307
-0.0297841
-0.100185
0.166111
-0.456967
0.135743
-0.08081
-0.225948
-0.286599
0.103786
-0.164056
0.338283
-0.0754335
0.29313
-0.343802
-0.106316
-0.318781
0.423821
0.46863
0.0909595
0.847071
-0.169048
-0.234153
-0.114618
0.0286878
0.659149
-0.0501299
-0.887213
0.225597
0.187654
-0.0867455
0.0872385
-0.0135029
0.194523
-0.551283
0.124255
-0.279422
-0.121489
-0.180254
-0.135825
0.378799
-0.242674
-0.0232168
-0.0852164
-0.0550171
0.195987
0.259391
-0.860633
-1.85002
0.187591
0.315489
0.202778
-0.506958
0.129493
0.0301972
-0.145314
0.180997
0.188952
-0.426111
0.242103
0.362105
-0.293895
0.333201
-0.142951
-0.384792
-0.113432
0.1109
0.123557
-0.481165
-0.422181
0.24175
0.142598
0.00996336
0.203346
0.22492
-0.485413
-0.528719
-0.0808746
-0.505051
-0.0204886
-0.151574
-0.263309
0.254211
0.0725454
-0.386158
-0.295157
0.182041
0.0242104
0.000724089
0.0417923
-0.391017
-0.487113
0.23776
-0.258231
-0.435196
0.242661
-0.128147
0.138559
-0.257212
-0.0205054
0.434073
-0.467982
0.304915
-0.352893
-0.402963
0.101443
-0.032799
-0.288569
-0.393593
0.419834
-0.230437
-0.931519
-0.415401
-0.0124431
0.131285
0.0543568
0.221179
-0.0403311
0.0310391
0.282458
0.178183
0.178114
-0.610739
0.332693
-0.242045
0.228548
-0.2093
0.0321362
-0.451365
-0.328639
-0.122822
-0.418066
-0.538873
-0.381221
-0.375348
-0.244556
0.134118
0.282167
0.110246
-0.268353
-0.596738
-0.0172484
-0.488758
-0.153116
0.082467
0.0586962
-0.509247
-0.174078
-0.157525
-0.371525
-0.343454
0.47225
0.197789
0.374855
0.276522
0.391693
0.0431001
0.177935
-0.366231
0.290334
-0.217306
0.488878
0.0421732
0.0347291
-0.167049
0.171433
0.370244
0.73832
0.109344
0.547249
0.343249
-0.0526989
-0.0555776
-0.390086
0.117771
-0.0437963
-0.325839
-0.242639
-0.202831
0.314954
-0.0277032
0.176911
-0.275604
0.124327
0.275368
-0.434547
0.215839
-0.0980118
0.292184
-0.290388
-0.0966641
-0.197841
-0.234487
0.398796
0.301021
0.110053
0.546327
0.00763136
-0.0397976
-0.28897
0.287828
-0.248304
-0.173018
-0.361995
0.192507
0.287802
0.0145767
-0.273518
0.218856
-0.143577
0.194203
-0.196561
-0.102436
-0.367864
0.167543
0.2304
-0.996481
-0.0709379
0.29856
0.0735623
-0.139465
-0.0961988
0.279567
-0.402916
-0.0341965
0.0999256
0.324533
-0.179706
0.0746944
-0.151426
0.136497
0.00887844
0.0908184
-0.0994664
0.293244
0.124896
-0.271339
-0.112695
-0.0823949
0.182239
-0.293397
-0.13774
-0.0736143
0.308775
1.95936
-0.380459
0.20066
-0.277203
0.0500146
-0.375374
0.395797
-0.411769
0.319372
0.199011
-0.037475
0.117619
0.208069
0.140591
0.370075
0.363936
-0.0645261
0.100202
0.450583
-0.263211
0.278218
-0.329532
0.448903
-0.158568
0.0753052
-0.235459
-0.173812
0.296836
0.00954458
-0.0938345
-0.0172736
0.360937
-0.0809886
0.0788017
-0.253059
0.32368
-0.275165
0.0709301
0.0268857
-0.348422
-0.215128
-0.34358
0.0117674
0.32186
0.133987
0.146916
0.419
0.418028
0.234833
0.0813247
0.169692
0.396221
-0.27288
-0.322037
-0.0286433
-0.403568
-0.624976
0.155134
-0.178092
-0.307617
0.0741899
0.263445
-0.41007
-0.213824
-0.377768
0.372715
-0.064071
0.500678
-0.324939
-0.111811
0.101756
0.35071
0.260198
0.135791
0.30279
-0.181588
-0.0140594
0.414072
0.0471308
0.187958
0.0252619
-0.0376917
-0.471554
0.182245
-0.704196
0.250583
-0.0854932
-0.111698
0.590366
0.00102895
-0.272597
-0.356537
-0.338635
-0.208671
-0.433145
-0.418491
0.387398
0.222671
-0.0983633
-0.0117529
-0.281353
0.244061
-0.166325
-0.473547
-0.0787243
-0.408433
0.45157
0.160379
0.213534
0.167617
0.294177
-0.161939
0.514774
0.0165428
-0.160347
-0.222318
-0.132363
0.289606
0.0456094
0.661465
0.113444
-0.367773
0.451063
0.01809
0.0583614
0.026821
0.116213
0.340831
0.468145
0.27631
-0.0771186
0.165201
-0.412351
0.10993
-0.126607
-0.111852
0.448484
-0.408419
0.0584818
-0.00454762
1.41175
-0.168718
-0.314148
-0.143104
-0.0984819
0.138457
-0.0967733
0.555209
-0.0111101
-0.0894177
0.444952
-0.176296
0.526801
-0.258051
-0.324821
0.0134348
0.0390407
-0.363804
-0.212478
0.360338
-0.475118
-0.361289
0.202878
0.231298
-0.0396396
-0.0522516
-0.279547
0.550604
0.154813
0.112987
-0.188443
0.150893
-0.440128
0.331453
0.210012
-0.282881
-0.0937055
-0.239072
-0.341178
0.401575
0.384924
-0.261257
0.360903
-0.349677
-0.357489
0.127944
-0.30209
-0.24011
-0.369861
-0.222197
0.100911
-0.305305
-0.155724
0.0702085
-0.411937
-0.0152998
0.399899
-0.187475
0.195772
0.119332
-0.039943
-0.042381
-0.067067
1.83475
0.377214
0.108564
0.00421023
0.126427
-0.040991
-0.0487611
-0.0257592
0.0754836
-0.0257614
-0.0488402
0.012173
-0.0846252
0.0660425
-0.0325848
0.0141008
-0.114579
0.124351
-0.0432641
-0.166667
0.299379
6.87109
0.0560285
0.429517
0.180993
-0.211687
0.0205636
-0.0891743
-0.252113
-0.398832
-0.521051
-0.0155148
0.34154
0.216321
-0.223909
0.0367923
-0.105732
-0.0214266
-0.0935883
-0.319798
0.144578
-0.418602
0.0575136
0.413032
0.0148032
0.0443581
-0.357673
-0.203896
0.0913752
0.187661
0.0441366
0.191423
0.29794
0.0741547
0.0408449
-0.166395
-0.349712
-0.534138
0.00465637
-0.433931
0.175124
-0.0795985
0.216667
-0.350716
0.125453
0.252898
0.307591
-0.283435
0.350735
0.318381
-0.413186
0.0271712
0.22299
-0.297799
0.512878
0.188112
0.228805
-0.206955
0.466471
0.0715071
-0.0149468
0.423121
-0.095738
-0.22191
0.26376
0.361391
-0.18275
-0.0384174
0.296513
0.403531
-0.123352
-0.189258
0.219864
-0.130415
-0.286034
-0.428569
-0.11418
-0.304886
0.24071
0.389208
-0.460554
-0.301393
0.482618
-0.34357
0.528842
0.748128
-0.0683524
0.00520373
-0.492206
0.143354
0.185857
0.388326
0.361673
-0.232879
-0.307427
-0.380178
-0.35566
-0.325049
0.434374
-0.393521
0.000284951
0.0648745
0.0152904
0.149137
-0.368164
0.314692
-0.3059
0.435693
0.0480376
-0.0810436
-0.246964
0.5122
-0.0663137
0.720913
-0.34118
0.152737
-0.111667
0.0894955
-0.202657
-0.14392
-1.0817
-0.424983
-0.277546
-0.0957041
0.0134874
-0.0251801
0.170011
0.0848255
-0.0428641
0.0876309
-0.0770056
-0.351812
0.308605
-0.167732
0.281644
0.176916
-0.187103
-0.055616
-0.163861
0.207042
0.221769
-1.60773
0.445767
-0.0245781
0.0130926
-0.146038
-0.0764561
0.181513
-1.00189
-0.0137081
0.293312
-0.451408
-0.0883097
0.325025
-0.196235
-0.0435449
0.116153
-0.136559
-0.139969
-0.566877
0.0502404
0.257094
-0.0715204
-0.142047
0.0644693
-0.284014
0.00286409
-0.072307
0.0267659
-0.700002
0.0645425
-0.188354
0.0141952
-0.423903
0.000542545
0.26887
0.431155
-0.231723
-0.551888
-0.215245
-0.476908
0.150498
0.187509
0.324296
0.241194
0.487217
-0.21046
0.255098
-0.153661
0.193404
-0.153894
-0.149249
-0.277158
0.238523
0.0632527
0.499721
0.408783
-0.048333
0.321207
-0.0298583
0.089787
0.0912884
0.0687059
-0.210463
0.318753
-0.651131
-0.105845
-0.158933
-0.274247
0.246484
-0.0158958
0.0431334
-0.222628
-0.385686
-0.149588
0.471934
-0.0272623
0.169833
-0.113658
-0.0578436
0.246662
0.108699
-0.331904
-0.261249
0.0545072
-0.0833984
0.0209714
0.456003
-0.284575
0.35492
0.0229626
-0.442953
-0.0208228
0.366765
-0.177723
-0.303067
0.458768
0.196358
-0.137251
0.327184
-0.181974
0.262162
0.157921
-0.302823
0.308569
0.191037
1.32328
0.281485
0.146631
-0.230421
0.204236
-0.425823
-0.426941
0.479143
0.363839
-0.292091
-0.227879
-0.258775
-0.489141
-0.00835624
0.485685
-0.0933342
0.143915
-0.182439
0.135878
0.285777
0.375518
0.173295
-0.296842
0.234996
-0.125787
-0.173194
-0.150192
-0.283915
-0.403024
-0.0831501
0.255342
0.141896
0.3274
-0.0630046
0.199161
0.458334
0.322176
-0.204493
-0.0324459
0.42356
-0.233571
0.138846
-0.12837
-0.0335181
-0.469767
-0.0921373
0.187381
0.126456
0.36366
0.107672
-0.196759
0.193662
0.0556939
0.175787
-0.0847618
-0.304654
-0.175136
-0.0603627
-1.51186
-0.332903
0.132945
-0.157831
0.241348
-0.120045
0.227479
0.107335
0.35311
-0.230509
-0.485421
-0.16465
0.0791125
-0.397565
-0.269203
0.0123479
0.228212
0.540375
-0.319199
0.156818
0.0507203
-0.252147
-0.161488
0.0470251
-0.250622
-0.285262
-0.326608
-0.110222
0.243159
0.152964
-0.235963
-0.0794167
-0.0685981
-0.429811
0.0305838
0.380979
0.0327926
0.22113
0.224734
-0.0161389
-0.359587
-0.254845
-0.223756
0.0966956
-0.435582
-0.213215
-0.0656114
0.0607301
0.0502155
0.26814
-0.421111
-0.329347
0.274407
0.0528614
0.110658
0.12568
-0.23718
0.246228
-0.81565
0.306652
0.031052
0.484604
0.300602
-0.410287
0.309748
0.395102
0.199296
-0.762218
0.037839
-0.128875
-0.123125
-0.2185
0.312396
0.398579
-0.41198
-0.261473
-0.564056
0.557489
0.326624
-0.464793
-0.0200774
-0.118134
-0.218684
-0.329506
-0.386384
0.311896
-0.169336
-1.32864
0.120009
-0.0625544
0.0198077
-0.568424
-0.145613
-0.240449
-0.0919715
-0.31536
0.0101296
-0.194085
0.184851
-0.523003
0.171527
-0.226042
-0.183698
-0.18394
-0.325116
0.0507968
-0.456378
-0.131516
0.291085
0.0602175
0.453105
0.52157
0.0261903
0.0247599
0.286513
0.233387
0.380154
0.046346
0.367688
-0.226724
0.0473916
0.0409554
0.226358
-0.184476
0.253482
-0.21232
-0.342923
-0.0509526
0.00676427
-0.024235
-0.142809
-0.571534
-0.191382
0.299665
-0.173677
-0.186396
-0.493403
-0.209645
0.15309
-0.103567
0.221043
-0.0942378
0.248655
0.203687
0.405998
-0.538834
0.170423
-0.246347
0.0325867
-0.298924
0.0244151
0.22697
0.288677
-0.399128
0.0122135
0.26813
-0.00282743
0.367602
0.360446
-0.29
0.0866609
0.490909
-0.143483
0.296332
-0.0755657
-0.120541
-0.315394
-0.226435
0.213487
-0.424835
-0.0159301
0.17699
-0.114041
0.08194
-0.93189
0.0532945
0.0233705
-0.032594
-0.358978
-0.30733
-0.105284
0.408476
0.123775
-0.256088
-0.281913
0.277654
0.0814123
-0.0383783
0.406718
0.255715
-0.00286591
0.176859
0.331639
-0.35896
-0.138927
0.138368
-0.224902
0.240054
-0.0230234
-0.260235
-0.375176
-0.2266
-0.300537
0.277288
-0.0223761
-0.125433
-0.465797
-0.116141
0.211325
-0.450071
0.0551813
-0.527804
-0.460346
0.0549067
0.0430868
-0.0821235
-0.197228
0.19093
-0.161994
0.134027
-0.257403
-0.024048
0.0544088
0.227183
-0.0391528
-0.106351
0.66824
0.0473455
0.0486873
0.00209078
0.352283
0.0368405
0.673342
-0.184186
-0.373447
-0.304909
-0.259368
-0.135355
0.333395
0.298196
0.196411
-0.402805
-0.29072
-0.0955518
0.271178
0.48112
0.286359
-0.336001
-0.136898
-0.344726
0.412395
0.0446713
-0.0899646
-0.378049
0.313535
-0.21621
0.282924
0.191827
-0.495415
0.350276
0.321835
0.189312
-0.167656
-0.10548
0.0575134
-0.431487
0.0115906
-0.136079
-0.421162
-0.131562
0.0715003
-0.327174
-0.0120587
-0.148422
-0.349314
-0.0382072
0.279598
-0.0812719
0.140838
-0.115278
0.0619747
-0.4806
0.303788
-0.373618
-0.202271
0.143522
-0.127978
0.302836
0.19031
-0.0868271
0.225032
-0.371926
0.297536
-0.320262
0.268212
-0.280995
-0.0645841
-0.456065
-0.0518304
-0.111986
0.230696
-0.0953699
-0.029376
0.177293
-0.182845
0.253806
0.533646
0.280058
-0.0114834
0.115369
-0.246304
-0.0826482
0.365494
-0.347759
-0.061821
0.272037
-0.291557
0.264563
0.0058025
-0.0327273
0.0415967
0.120998
0.0115038
0.242616
0.315094
0.433569
-0.127708
-0.156672
-0.396092
-0.0143275
-0.0789038
0.106899
0.0747852
-0.337668
0.235711
0.304384
-0.494573
-0.322047
0.510599
0.559035
-1.13916
-0.27778
0.554086
0.0385014
-0.430754
0.122122
0.443945
-0.459666
-1.07328
-0.428826
-0.389284
0.0152426
-0.0467071
-0.559245
0.00428641
-0.0226528
0.124081
0.384486
-0.234567
0.308592
-0.0998332
-0.0902073
-0.266714
0.224164
-0.254608
-0.160311
-0.167378
-0.523811
-0.328081
0.269252
-0.521069
0.189053
0.407106
0.322062
0.375047
-0.297074
-0.0800668
-0.328256
0.288563
0.0198443
-0.37971
0.272322
-0.0254595
-0.477359
-0.084395
0.174966
-0.364886
-0.363975
0.0583934
-0.58788
-0.385635
0.0832801
0.437619
-0.284165
0.217031
-0.114449
0.28999
-0.229376
-0.160195
0.189501
0.0115936
0.124625
-0.133941
0.243674
-0.382718
0.284502
1.38685
-0.23327
-0.444798
0.40565
0.173099
-0.677323
0.114357
0.121674
0.237493
0.0684739
-0.419805
0.226115
-0.0770858
-0.212416
0.339513
-0.302013
-0.147587
0.177862
0.163194
0.525543
-0.166943
0.46131
0.269596
0.25691
0.113737
-0.314228
0.403133
0.591149
0.311559
-0.137256
-0.303423
0.299549
0.542621
0.279451
-0.378055
0.0727885
0.454558
0.0254151
-0.421217
-0.355766
-0.423744
-0.479548
0.0716082
0.033807
0.112381
-0.0475327
0.266286
-0.106226
-0.0679349
-0.285781
-0.471505
0.0714855
0.313925
-0.337555
-0.296151
-0.00765173
0.119713
0.17601
-0.224936
0.225469
-0.322483
-0.351952
0.451465
-0.177646
0.250033
-0.0164177
-0.00406177
0.407209
0.290102
0.243399
-0.277682
0.262202
-0.276262
0.0220304
0.265087
0.654682
-0.0868133
0.407963
-0.264284
0.135619
0.218789
0.389928
-0.0581433
0.402816
0.444844
0.588391
0.227593
1.68596
0.514605
0.288958
-0.236273
0.255744
-0.278398
-0.17875
0.556882
0.452504
-0.179846
-0.18972
0.00044086
0.560063
0.0815238
-0.314027
-0.175168
-0.108152
0.383684
-0.0236135
0.416724
0.247448
0.305508
0.344223
0.142549
-0.308141
-0.419858
0.0557289
-0.0142355
-0.133421
0.190927
0.222231
-0.353642
0.561007
0.185622
-0.192226
-0.233547
0.182194
0.311567
-0.0246656
0.0584732
-0.238841
0.355727
0.458458
0.43211
0.19952
-0.486118
-0.145468
0.132875
0.197343
0.0796276
-0.229935
0.274192
-0.196419
0.302924
0.0460237
-0.0266717
0.17425
0.030555
0.328225
0.40759
-0.193444
-0.314965
-0.235407
-0.0294577
-0.223706
-0.0601407
0.355401
-0.0465628
-0.00411352
-0.0123761
-0.0930413
0.5181
-0.201997
-0.306165
-0.290894
-0.00309768
-0.237301
0.0392199
0.134219
-0.731673
-0.335604
0.127701
-0.120235
0.0847163
-0.0439759
0.173853
-0.419379
1.95577
0.116323
0.170314
-0.0303641
0.325557
-0.0828965
0.0719291
0.183569
0.518306
-0.423993
0.397973
0.350368
-0.048629
0.0246735
0.120236
0.366191
-0.158669
-0.628683
-0.381088
-0.462935
0.18711
-0.656296
-0.380669
0.0617106
0.0720717
-0.0674868
-0.153961
-0.290891
-0.0749722
-0.607725
0.248076
0.259397
-0.549185
0.158162
-0.421856
0.206026
0.405857
0.168696
0.347623
0.479621
-0.372745
-0.330855
0.365073
0.653663
0.0362495
-0.502248
0.479926
-0.114443
0.0137536
-0.345247
0.412904
-0.328602
-0.359408
0.427123
-0.466236
-0.0626604
0.653382
0.122513
-0.0390533
0.421972
0.0222567
-0.396263
-0.450805
0.472555
-0.309187
0.288675
-0.248004
0.519574
-0.396358
0.341532
-0.173626
-0.412669
-0.172661
0.314327
0.204927
-0.225209
0.436546
-0.00131844
-0.310621
0.508497
-0.168577
-0.116191
-0.251392
0.080401
-0.0472556
-0.0700484
-0.437058
0.0424476
-0.489121
-0.335128
-0.368574
0.323242
0.0580427
0.0173117
0.166523
-0.131467
0.413532
-0.313108
-0.206471
-0.0140329
0.18452
0.16135
0.327729
0.181111
0.128799
0.192128
0.110087
0.330396
-0.136389
0.244753
0.465497
0.0278262
0.421714
0.346426
0.107762
0.322061
0.254698
0.275356
-0.0619146
0.512853
0.0182536
0.486457
-0.335742
-0.246401
0.342253
0.228183
-0.298299
-0.110995
0.416404
-0.379746
0.285235
-0.119871
-0.522198
0.267136
-0.127071
-0.108516
-0.270422
-0.172625
0.448073
-0.3864
-0.0908788
-0.0721231
-0.0414774
0.220134
0.0494721
-1.30793
0.260557
-0.123985
-0.287229
0.0445723
-0.000864933
0.173051
0.00972417
0.203505
-0.484867
-0.196239
0.548365
-0.139234
0.0998728
1.06599
0.0344406
0.221284
0.568126
-0.312572
-0.283688
-0.0196294
0.155722
0.191484
1.18363
0.216107
-0.275962
0.207164
0.073612
-0.391842
0.260356
-0.0807659
-0.667453
0.379291
-0.19585
-0.109988
0.163167
0.365207
