#input normalization
0.161352 0.272398
71.2983 68.552
9.61676 38.351
7.89599 31.7374
0.0108031 0.0447214
0.00865673 0.033806
0.550545 1.69875
0.876459 1.57571
1.13572 1.76836
1.42851 1.95693
1.7434 2.14751
2.04231 2.30767
2.32259 2.45389
2.606 2.59136
2.85666 2.68386
3.08958 2.74276
3.30867 2.77323
3.50594 2.77151
3.65859 2.73534
3.78138 2.67453
3.87485 2.5866
3.95675 2.4747
4.01612 2.35612
4.01637 2.21169
3.99213 2.04759
3.96566 1.88338
3.88333 1.71111
3.80185 1.52207
3.66345 1.31446
3.51088 1.10635
3.36914 0.915381
3.22422 0.742034
3.05232 0.566164
2.89772 0.405023
2.73413 0.25425
2.55988 0.109364
2.39988 -0.0209104
2.24748 -0.13491
2.07437 -0.244391
1.9271 -0.340727
1.77836 -0.434012
#output normalization
1 0
#neurons weights
-0.0692833
-0.0800183
0.0897734
-0.0380042
0.437383
0.0126927
0.0361439
0.0101656
-0.445011
-0.00684204
-0.401095
0.422734
0.43789
-0.0526531
0.376133
-0.427147
0.040943
-0.462291
0.00853851
0.0326861
-0.20123
0.363713
0.0828913
0.301593
-0.146894
0.187725
0.486555
0.260653
0.00314068
0.0933085
0.240174
-0.00206575
-0.0578691
0.0615621
0.0309741
-0.217033
-0.131242
0.488705
0.126129
0.0832025
0.377759
-0.0864621
-0.0477469
-1.48501
1.15963
-2.23083
-2.77045
0.916998
0.670233
0.742711
-1.31327
-0.498787
-0.838292
-0.763139
-0.195102
-0.679282
1.47507
-1.59671
-0.0742069
1.89651
-0.500908
-0.293065
-1.34848
1.00023
-1.65993
-0.267349
0.436255
0.619743
-1.94241
0.404799
1.61698
1.76521
-0.481791
1.92225
3.09734
2.08181
0.545354
0.32525
-0.589274
-1.64544
1.34871
0.441394
-0.502712
0.679242
0.202836
0.335558
-0.176655
-0.0736523
0.312333
0.0801111
0.193542
-0.884441
-0.424853
-0.128801
-0.262674
-0.642043
-0.597817
0.0637798
0.506316
0.205571
-0.911387
-0.246221
0.418254
0.00666165
0.711587
0.842485
-0.623977
0.0832564
0.54561
-0.0251992
0.756549
0.150092
-0.531118
0.0560034
0.418242
0.114098
-0.553409
-0.256019
-0.150053
-0.281011
0.592117
-0.13494
0.672113
-0.565275
1.4545
#synapses weights
-0.273934
0.19074
0.48113
-0.21266
-0.193737
0.0915136
-0.452945
0.0135002
-0.0710385
0.249064
-0.366389
-0.34732
0.229184
-0.403283
0.00654887
0.175671
-0.142199
0.410012
0.563631
0.194132
0.607264
0.819497
0.962087
0.823828
0.483254
0.691688
0.0834031
0.421845
0.128957
0.349014
0.3602
0.481248
-0.0313033
-0.154953
0.0620896
0.128769
0.236083
-0.0216
-0.0663439
0.498045
0.264763
0.505243
0.44533
0.129652
-0.197331
0.57818
0.352167
0.285877
-0.514462
0.257718
0.0548291
0.232592
-0.00734806
0.4813
1.04042
0.696969
1.177
1.09708
0.93706
0.319327
0.439462
-0.0866617
0.615307
0.368847
0.920012
0.716033
0.792131
0.621236
0.624164
0.0550439
0.409377
0.279039
0.654429
0.109144
1.01638
0.457928
0.773646
1.02879
0.989901
0.323231
0.746658
-0.0201171
0.333599
0.354108
0.49722
0.593072
-0.33826
-0.285252
0.378676
0.0158001
0.250494
-0.579641
-0.3322
-0.216338
-0.0478038
0.482307
0.241974
-0.346691
0.548078
0.346702
0.0268461
0.111486
-0.463497
0.483172
-0.342518
0.0480343
-0.643337
-0.0699812
0.303298
0.487158
-0.125408
-0.468846
-0.367428
0.018073
0.229213
0.191519
-0.279782
0.24471
0.28127
-0.0248477
-0.260841
0.23126
0.329371
-0.472886
-1.34764
-0.0715393
-0.120882
-0.329469
0.185957
0.0555883
-0.120586
-0.0999861
0.29669
0.095328
-0.659408
0.346117
-0.236757
0.41893
-0.111058
-0.240662
-0.173571
-0.0266613
0.498164
-0.120261
0.360376
0.0213801
0.00328015
-0.679016
0.288099
0.0680284
0.191316
-0.0718639
0.0844725
-0.0516072
-0.0979937
0.424841
-0.143591
0.302716
0.174041
-0.226777
-0.0463339
-0.124647
-0.151837
0.0167022
0.741545
0.729152
-1.14059
-0.341709
-0.67343
-0.642354
-0.229845
-0.136376
0.884154
0.637731
-0.537034
-0.171807
0.182054
-0.153353
0.0825711
0.185042
-0.195936
-0.189686
-0.0814201
-0.522057
-0.852004
0.153698
0.0609272
0.163949
0.400749
0.376011
-0.165778
-0.258106
-0.339253
-0.363016
-0.696306
-0.00896671
0.403561
-0.157213
-0.186345
-0.158474
0.38112
0.260955
-0.530015
0.514423
0.032657
-0.239091
1.76452
-2.09914
0.665782
0.291254
0.174991
-0.0394475
0.12802
0.103845
-0.103697
0.204097
-0.0864722
-0.079636
-0.1859
-0.296589
0.174667
-0.226997
0.170664
-0.191375
-0.161355
0.00951637
-0.323095
0.133514
-0.0868589
-0.265116
-0.114556
-0.128936
-0.18926
0.320116
-0.342529
0.140559
-0.283313
0.251829
-0.144654
0.0128845
0.0964736
-0.00773795
-0.464768
-0.19981
-0.084704
0.156036
-0.272407
-0.384728
-0.221733
0.147058
0.969582
-0.168067
-0.0830282
0.187218
0.293265
0.16416
-0.0215128
-0.272206
-0.517566
0.292148
-0.697662
0.509146
0.116127
0.551083
-0.299794
-0.710845
-0.320319
-0.355965
0.273899
-0.108215
-0.180258
-0.282793
-0.0602965
-0.18161
0.526811
-0.244233
-0.122838
-0.177166
-0.0373493
-0.0451005
-0.0186027
-0.111548
-0.0705647
-0.142664
-0.311937
0.264907
-0.412909
-1.50002
0.738355
-1.2821
0.0978262
0.822716
-0.144187
0.17001
0.204272
0.180505
-0.144384
-0.0941978
-0.177861
-0.0531585
-0.214821
-0.361801
-0.317514
-0.13795
0.168562
0.0926226
-0.289501
-0.757252
-0.049701
0.00960098
0.229642
-0.353671
0.189553
-0.0112473
-0.143518
-0.343363
0.127329
-0.0701043
-0.0638606
-0.0964121
-0.237939
-0.363534
0.0386596
-0.187567
-0.0743573
0.304018
-0.0967899
0.0744624
-0.79725
-0.213523
0.485451
-0.205765
0.157912
-0.631355
0.149943
0.396928
0.0629834
-0.234454
0.263185
-0.765991
-0.711694
-0.310972
0.047354
0.0801447
-0.487151
0.11762
-0.183084
-0.257017
-0.39708
0.259359
-0.200841
-0.419867
-0.585896
-0.318837
-0.111259
0.156926
-0.200629
0.169125
-0.43112
0.149228
-0.153525
-0.00347583
0.100537
0.0483434
-0.126557
-0.44522
-0.438983
0.267314
-0.114589
0.110421
1.04692
-0.0248333
0.0384308
-0.507163
0.340829
0.471506
-0.2557
-0.226395
0.593129
-0.244755
0.232982
-0.304432
-0.312841
0.342252
0.0794496
-0.0532366
0.0750869
0.0438702
0.0631194
0.0364898
0.426488
-0.320915
-0.0903378
0.113833
-0.585951
0.177097
-0.0238668
-0.649208
0.122823
-0.21378
-0.0896331
0.245885
-0.139258
0.445803
-0.128646
0.352963
-0.22961
-0.120469
-0.463612
0.46063
0.188179
-0.397521
-0.247276
-0.314462
-0.212943
0.140036
-0.314357
-0.152465
-0.427639
0.063594
0.409653
0.355073
0.262214
0.13361
-0.338106
-0.855717
-0.349926
-0.414931
-0.294337
-0.113748
-0.0539098
-0.315506
-0.37391
-0.0264564
-0.245471
-0.419314
0.138987
0.217172
-0.00657497
-0.29259
-0.0199236
0.375739
-0.279959
-0.265628
-0.415712
-0.404733
-0.371368
0.319778
-0.415242
0.231598
0.0753791
-0.112473
0.75358
0.114192
0.53314
-0.372629
-0.1585
-0.148774
-0.0536876
-0.166817
0.634822
0.314383
0.169768
-0.226132
0.102735
0.617643
0.0432731
0.501126
0.240148
0.157928
0.0832076
0.711683
0.425469
0.194508
0.788307
-0.245429
-0.0314888
0.482877
0.355486
0.416672
0.570537
0.633105
0.339255
-0.214918
0.417482
-0.0537932
0.259221
0.48698
0.283017
0.144009
-0.203592
0.121026
0.350364
0.850407
-0.339291
0.00892018
-0.458273
-0.121783
0.0167042
0.417718
-0.431628
-0.45809
0.556176
0.121868
0.274787
0.146887
0.0168889
0.0262125
-0.0789475
0.432432
0.383964
0.114984
0.404115
-0.188116
0.222794
0.135335
0.402021
0.512605
-0.287195
0.219013
0.774832
0.422147
-0.0272322
-0.0188125
0.332658
0.0462626
-0.00137841
0.556823
0.353145
0.229996
0.269677
0.362478
-0.195115
0.160257
-0.296304
-0.255288
-0.551503
-0.106963
0.190577
0.343776
-0.0674323
-0.354538
0.262839
-0.275441
0.0776886
-0.323208
0.133146
-0.446447
0.187152
-0.247554
-0.287985
0.223045
-0.43357
-0.725909
-0.456188
-0.300283
0.0739421
0.259155
0.255471
-0.245686
-0.529853
-0.461732
-0.785267
-0.242637
-0.202757
0.019717
-0.0114358
-0.792947
-0.206473
-0.348887
-0.545289
-0.037076
-0.568165
-0.160157
-0.811831
-0.957566
-0.136963
-0.00711014
0.657555
-0.352302
0.310808
0.408818
-0.365667
-0.695027
-0.569091
-0.916015
-0.928988
-0.0751281
0.119915
-0.475111
0.295163
0.256729
-0.314533
0.00383481
0.440294
-0.0286038
-0.102716
0.498907
-0.0200675
-0.159444
-0.456335
0.410819
-0.113809
-0.215887
0.272859
-0.447357
0.227115
-0.468203
-0.0406636
0.297709
0.264764
-0.418237
-0.281479
-0.188656
-0.476592
-0.277291
-1.23893
-0.172572
0.195931
0.165187
-0.341561
-0.198196
-0.357863
0.673551
-0.0446191
0.174169
0.233367
-0.346565
-0.168796
-0.499662
-0.125211
0.130796
0.155245
0.103844
0.111312
-0.0379568
0.19691
0.0205642
-0.304934
0.475943
-0.595992
0.339762
0.111487
0.0407454
0.249962
0.35925
-0.377955
-0.265577
0.628002
-0.237454
0.0750015
-0.454708
0.227778
-0.594925
0.513824
0.496132
0.140287
0.970289
-0.0976663
0.0440203
-0.529603
0.0948436
0.00270755
0.118396
0.0694419
0.153469
-0.117272
0.38109
0.242046
-0.359864
-0.228612
-0.0953616
0.263912
-0.190544
-0.274006
-0.129176
0.46917
0.0750405
-0.055015
-0.76666
0.423705
-0.00339004
0.00230355
-0.131826
0.0303956
0.548067
-0.382209
-0.599759
-1.09787
0.261816
0.106761
0.296325
-0.340691
0.108957
0.197792
0.162717
0.20185
-0.366035
-0.452665
-0.251254
0.0077956
0.331093
-0.303698
0.253971
0.0584322
0.235722
-0.0937765
-0.093043
-0.175708
0.20126
-0.375545
-0.218131
-0.403843
-0.212795
-0.625464
0.0315419
-0.11305
0.11868
-0.150761
0.0564889
0.287977
-0.143497
-0.327176
-0.076734
0.168556
-0.305857
0.309111
-0.156281
0.223622
-0.036568
-0.212242
-0.313913
0.180208
0.0964135
0.0641088
-0.208066
-0.336421
-0.139468
-1.18359
-0.504672
-0.481383
-1.03268
-0.389932
-0.262126
0.478441
-0.0473956
0.0839188
-0.480113
0.547311
-0.283329
0.0306531
-0.181143
0.429691
-0.948609
0.64985
0.204371
0.27106
0.412807
0.155064
-0.309425
-0.0596186
-0.076439
0.434181
-1.00271
0.011311
0.0035003
0.169558
-0.0889063
-0.273108
0.209004
0.392655
-0.169992
-0.548211
0.151393
0.718412
-0.604502
0.497526
-0.432241
-0.233998
-0.0825609
-0.131102
0.346126
-0.0206604
0.243284
-0.59857
-0.0218287
-0.42617
-0.289075
-0.477824
-0.448931
-0.213682
-0.296955
0.0154913
-0.137893
0.0267634
-0.336225
-0.864071
-0.546996
-0.669454
-0.0506541
-0.87221
-0.521916
-0.61318
0.219161
-0.0122696
-0.423698
-0.0828259
-0.0536013
-0.664504
-0.469177
0.0848075
-0.46631
-0.189002
0.185922
-0.208615
-0.177742
-0.295996
-0.448489
-0.0255693
-0.445753
-0.451754
0.814808
-0.399385
0.258594
-0.071033
-0.00447343
0.19769
0.483601
0.308041
0.0760618
0.0029872
-0.451182
-0.0466773
0.322286
0.29356
-0.258789
-0.366729
-0.116158
0.0789103
0.0244556
0.175482
0.0267
0.00541975
-0.243049
-0.328466
-0.183711
-0.10171
0.276188
0.107122
-0.219958
0.672886
0.336285
0.0568567
0.43293
-0.106804
0.086877
0.0833662
0.312224
-0.180525
0.253684
-0.151272
0.646053
1.41524
0.39731
-0.100561
-0.459319
0.372636
-0.0348327
0.0741757
-0.147282
0.102275
0.331122
0.0884039
-0.152527
-0.118671
0.262651
-0.132145
-0.557979
-0.243472
-0.254299
0.0685194
-0.381212
0.0102582
-0.561659
0.316583
0.454865
-0.442817
0.0430051
0.941359
0.182717
0.106582
0.229812
0.108332
0.0388773
-0.445547
0.204251
0.175808
-0.214433
-0.539577
0.247675
-0.327461
0.0978492
-0.219665
-0.49542
0.000620311
-0.457135
-0.238927
-0.35851
0.0406187
0.131647
0.539598
-0.662737
-0.355104
0.172181
0.112565
0.463757
0.290311
-0.0970211
-0.266375
-0.305389
-0.0515155
0.149893
0.332905
0.538707
-0.537169
-0.455366
-0.637446
0.124775
0.283768
0.566381
-0.318181
0.289444
-0.323148
-0.2884
-0.0800835
-0.184141
0.628259
0.233892
-0.14511
-0.166367
-0.0574889
0.0857882
0.0435421
0.422331
0.399232
0.216347
-0.261544
-0.581635
-0.157678
-0.119084
0.091894
0.250266
-0.319797
-0.0234681
-0.0613388
-0.0761975
-0.633464
0.108534
0.979492
0.0912115
0.132479
0.242196
-0.263102
0.460056
-0.143526
0.478184
-0.0525919
-0.0285838
0.0376714
-0.0494174
-0.407827
0.138926
0.320995
0.00824582
-0.372367
0.576268
-0.199589
-0.570983
0.729173
0.0932752
0.0501662
-0.0724565
0.111202
0.458371
0.405746
0.070162
-0.35574
-0.216543
0.552494
-0.0761626
0.459515
-0.395946
0.404383
-0.164442
0.623149
-0.282166
-0.364363
-0.265172
-0.185362
-0.0499705
0.253769
0.167425
0.737188
0.652514
-0.0182602
-0.357905
0.0684249
0.0355386
0.653533
0.502556
0.532797
0.443677
0.437137
-0.0565882
0.683252
0.541471
0.386692
0.161459
-0.0743598
0.182828
0.166015
0.721511
0.629571
0.685102
0.233638
0.121834
0.0926214
-0.109993
0.177011
0.237962
-0.422728
-0.167581
-0.548413
-0.262869
0.223642
-0.447318
0.180759
0.116237
-0.110442
0.178221
-0.778018
-0.167494
-0.196136
-0.404445
-0.328168
-0.0177949
-0.463674
-0.0189101
0.103516
-0.460033
0.0393475
-0.671766
-0.162834
-0.0192827
-0.52384
-0.0263607
-0.720887
-0.347741
0.131702
-0.496598
-0.6673
-0.84643
-0.748089
-0.698337
-0.739892
0.0275723
-0.608661
-0.5709
-0.0617293
-0.0425023
-0.161923
-0.328302
0.0370712
0.327431
-0.00906159
0.168655
-0.509104
0.345819
-0.289077
-0.244837
0.161309
0.0480949
-0.00584933
-0.0358305
0.19385
-0.146147
-0.543969
0.0437241
-0.190596
0.488829
-0.283712
-0.273119
-0.181626
-0.0148019
0.0207075
0.0044387
-0.397851
-0.243946
0.0222439
-0.401668
-0.0881748
0.00578592
0.347977
-0.153809
-0.0373615
-0.269802
-0.120582
0.443888
0.755822
0.0835252
0.0614212
0.0859523
-0.441028
-0.540293
-0.650861
0.393778
0.0987599
0.0497438
0.282996
0.305815
0.127626
0.476607
-0.0902314
0.178769
-0.434337
-0.0967653
0.0218896
0.277223
-0.164006
-0.394195
-0.323929
0.217627
0.0583686
0.205149
0.060255
-0.232296
0.262848
-0.0166482
-0.0785503
-0.09452
-0.136558
0.584782
0.117227
0.104985
0.0408246
-0.584084
-0.0110939
0.189181
0.361185
0.661038
0.302802
0.400159
0.100857
-0.187928
0.75166
0.00587239
0.265503
0.169923
-0.324424
0.334405
0.682487
0.0910153
0.389841
0.159706
-0.162148
0.687025
0.145031
-0.11699
-0.123271
-0.0734835
0.493783
0.748126
0.889419
0.33631
0.347626
0.514048
0.352996
0.0829271
-0.186425
-0.0207004
0.461637
0.121821
0.227786
0.15161
0.396126
0.662865
0.660134
0.175983
0.21594
-0.734646
-0.946138
-0.323918
-0.255982
0.247424
0.0187101
0.0834897
0.0406135
-0.249604
0.702765
-0.598865
0.319071
-0.235261
0.00307283
0.12788
0.018726
-0.223648
0.884511
0.274064
-0.00321182
-1.01834
-0.325014
-0.0379483
0.106458
-0.0978335
0.703756
0.35698
0.47776
0.483853
-0.836079
-0.275005
-0.358334
-0.261029
0.189379
0.0846524
0.103602
0.186986
0.236705
-0.156262
-0.316379
0.230905
-0.884122
-0.931259
-0.301174
0.0538727
0.182507
0.199103
0.0937233
-0.018174
0.0618159
-0.418798
-0.0107714
0.496607
-0.0881193
-0.291055
0.424418
0.280738
0.0698849
-0.388244
-0.0506094
-0.368121
0.543249
-0.392349
-0.630551
0.186232
0.867829
0.0550067
-0.0737621
-0.45779
-0.250734
0.689906
-0.357914
0.183403
-0.391241
-0.431954
-0.0214247
0.217897
0.326036
-0.434886
0.31864
-0.06801
0.230485
0.402581
0.427472
0.269841
-0.139503
-0.4113
0.486066
-0.249698
0.075493
-0.0260956
-0.119496
-0.628833
-0.451143
0.610856
0.669857
0.342382
0.488951
0.18501
-0.000528465
-0.0352352
-0.565723
0.3353
0.397128
0.0545638
0.160917
-0.205648
-0.0170981
0.287428
0.00172141
0.374532
0.329647
-0.290413
-0.146412
-0.156899
0.227704
0.317349
0.010139
0.309478
-0.0842341
0.0852006
0.603059
0.0599345
0.104795
-0.244176
2.07885
-0.154576
-0.20035
-0.910492
0.00703113
0.246897
-0.107362
-0.0284913
0.487205
0.0391181
-0.810872
0.075038
0.0321718
0.632054
-0.171076
0.54799
-0.23502
-0.273805
-0.0349116
-0.292637
0.354443
-0.0457475
0.219348
-0.0982911
-0.531698
0.130618
-0.00784768
-0.0375182
0.334701
-0.152458
0.22251
0.0674314
0.0670216
0.222594
-0.380293
-0.0687336
-0.0832912
-0.12414
0.374985
-1.44949
-0.697681
-0.391138
-0.832912
1.24955
0.0889401
-0.149877
0.164722
-0.0560628
0.0666609
-0.402239
-0.17161
-0.0377459
0.382691
-0.353018
0.114358
0.429599
-0.215905
0.0134988
0.0083931
0.451359
0.281283
-0.0636072
0.0117465
-0.0106893
0.464968
-0.250899
-0.488719
-0.196857
-0.486389
0.30116
-0.200563
0.241528
-0.177491
-0.568103
0.0300937
0.360876
0.120439
-0.00519383
0.806386
-0.0995313
-0.159741
-1.05719
0.678217
-0.39203
0.299121
-0.100558
0.0969961
-0.339471
0.545639
0.132115
-0.460154
0.0119481
0.501273
-0.179207
-0.206724
0.3002
0.01806
0.186211
-0.0846352
-0.330753
-0.0228449
0.589682
-0.0116809
-0.241136
-0.746859
0.260017
0.532607
0.521027
0.0047219
0.051298
-0.0327252
0.217713
0.245213
-0.226697
0.460169
-0.199499
0.264599
-0.333949
-0.30649
-0.115107
-0.335877
0.147395
0.911249
0.277431
-0.186186
0.104171
-0.214184
0.0393524
0.243011
0.611214
-0.0576628
-0.115458
0.411998
0.206159
0.304774
0.170313
0.671204
0.513957
0.060027
0.251797
0.238148
0.41378
-0.0677023
0.0128668
0.249101
0.942083
0.932338
0.209789
0.881013
0.608883
0.83184
0.326645
0.0712368
0.322448
0.228262
0.480302
0.556853
0.442428
0.503493
-0.0577048
-0.146874
0.389717
-0.581905
-0.78622
-0.143604
-0.0969277
-0.191719
0.195073
-0.00655906
0.438098
-0.43732
-0.0636487
-0.320737
0.408334
-0.11388
-0.236012
0.181923
0.181285
-0.416638
-0.380128
0.0130785
-0.656526
-0.218843
-0.434643
0.0736352
-0.420049
0.260432
-0.118573
-0.403155
0.24008
0.0827961
0.125082
0.301879
0.135166
-0.402237
0.0419132
-0.10212
0.139663
-0.0407807
0.00438883
-0.109539
-0.0873209
-0.420185
-0.29065
0.40851
-0.113154
0.26844
-0.0093061
0.278694
0.147582
0.286214
0.0838055
-0.332303
0.0293318
0.677991
-0.183657
-0.0767424
0.0899994
-0.107084
0.139868
0.30476
0.608583
0.470125
-0.216463
0.193221
0.342497
-0.0180186
-0.345554
0.119842
0.244675
0.212924
0.482524
-0.107407
-0.00954502
0.184746
0.106779
-0.41931
0.398136
0.257806
0.31008
0.0864492
-0.082828
0.129189
0.0556932
0.723498
0.587437
-1.07008
0.206157
-0.784265
-0.212875
0.268331
-0.0684819
0.0597016
-0.431243
0.502336
-0.24774
-0.794851
0.236001
-0.374257
0.222435
0.509653
0.784605
-0.0688863
-0.164194
-0.112417
-0.043373
-0.460222
0.296925
0.638832
-0.457585
-0.0770506
0.221924
-0.162135
0.284109
-0.585662
-0.0945195
-0.43597
0.508849
-0.441878
-0.15266
-0.306036
0.191235
-0.0818814
-0.179034
0.477312
0.0973869
-0.09288
1.53579
0.0630465
0.415742
-0.119986
-0.27229
-0.0172911
-0.188719
-0.0519672
0.592341
-0.308323
0.606436
-0.062066
-0.639465
0.403363
0.196717
-0.302985
-0.18661
-0.597057
0.291709
0.203025
0.270983
0.785105
0.148695
-0.670694
0.0321033
-0.44678
-0.102198
-0.019938
-0.0371308
-0.434698
0.21314
-0.0611927
0.158923
0.175815
-0.0951459
0.084622
-0.528588
-0.304897
0.32027
-0.735818
-0.0785143
1.92051
-0.566393
0.520132
-0.332177
-0.0883533
0.136144
0.396352
-0.175572
-0.239816
-0.294939
0.0691186
0.492217
-0.0525246
0.0409867
0.053555
-0.271834
-0.209862
0.229052
-0.249703
-0.37069
0.175589
-0.0718304
-0.0182539
0.394651
-0.242648
-0.118536
0.0184469
-0.213455
0.0522187
-0.591563
-0.121409
-0.0888918
-0.456607
-0.287575
0.0244205
-0.67598
-0.249615
-0.453552
-1.24008
-0.351525
0.521497
-0.11387
-0.333843
-0.123884
0.0558862
-0.182329
0.246171
-0.153171
0.00930065
-0.0746747
-0.0887937
-0.103009
0.729042
0.108806
-0.0857767
0.229095
0.89372
0.291412
0.530451
-0.056725
0.28327
0.635689
0.28469
0.0866758
0.221894
0.601396
0.000904725
0.621941
0.615161
-0.0447214
0.775286
0.397119
0.708995
-0.0153303
0.532304
0.225641
0.0510941
0.451866
0.192933
0.179968
0.237579
-0.270224
-0.247091
-0.192709
0.00463726
-0.16466
-0.395053
0.534579
-0.349555
0.333928
-0.103991
-0.0288406
0.444527
0.231054
-0.50849
-0.41369
-0.0976448
-0.538706
0.567551
-0.195136
0.700711
0.592169
0.485088
0.402963
0.336527
-0.227212
0.607092
0.237657
0.371996
-0.233275
-0.00794865
0.551947
0.724969
0.271141
-0.17963
0.47323
-0.568061
0.335757
-0.2249
0.0425
0.723463
0.570064
-0.0176043
0.0143192
1.00089
-0.345595
1.15564
1.28782
-0.82837
0.10041
0.0812757
0.580716
-0.487897
-0.0746054
0.331948
0.16519
0.293181
-0.748331
0.546135
-0.468667
-0.798388
-0.175688
-0.291457
0.358342
-0.207162
0.16636
-0.0575989
0.486334
-0.488866
0.192814
0.159404
-0.530074
-0.203827
0.0807097
-0.558673
-1.33304
-0.786622
0.474178
-0.157394
-0.163389
0.487419
-0.466712
0.794625
-0.153784
-0.587752
-0.350187
-0.183731
0.599532
-0.693623
-1.04748
-0.00474219
-0.298178
-0.127286
0.251214
0.223254
-0.417511
-0.562801
0.408987
-0.123805
0.355665
0.187201
-0.537179
0.615638
-0.317109
0.264706
0.063599
0.334756
0.168368
-0.0769077
0.238947
0.298972
0.418214
0.0580333
0.256848
0.349949
0.200806
0.81577
0.678827
0.565612
0.298192
0.3566
-0.345294
0.00160951
-0.0775398
-0.447822
-0.517654
0.481475
-0.0430386
-0.0477675
0.564893
-0.189128
-0.150275
-0.0366805
-0.448693
-0.130288
0.0289736
-0.494659
0.198782
0.32402
0.558883
0.272703
0.0423248
-0.549728
0.693697
0.285637
-0.157148
-0.0431111
-0.187104
0.174416
0.0882546
0.526512
-0.376389
-0.0261402
-0.730414
0.0560495
0.435337
0.263299
-0.547247
0.107188
-0.138911
0.651785
0.12
0.159986
-0.025244
-0.112028
0.393628
0.252191
-0.37222
-0.0813233
-0.101528
0.0898633
-0.0953705
0.335847
-0.271251
-0.354819
0.129957
-0.786096
-0.380256
0.0934513
0.292454
-0.0732857
-0.0756758
-0.510863
-0.0613004
0.36887
-0.642251
-0.396031
0.00448062
0.0965268
-0.0522712
-0.337769
0.467671
-0.565689
-0.642569
-0.637661
-0.0537818
-0.754599
-0.56279
-0.709545
0.158339
-0.792816
-0.563727
-0.721081
-0.521337
-0.344151
0.248754
-0.213285
-0.0618631
-0.712659
-0.0278054
0.332721
0.0234793
0.512151
-0.233602
-0.439886
0.46277
-0.437735
0.874952
-0.458956
0.679479
-0.480761
0.275976
0.522202
4.46433e-05
-0.756912
0.107852
0.129203
-0.420442
0.217748
0.206657
0.11437
0.146469
-0.226518
0.310723
-0.136217
0.197618
0.201552
0.201065
0.461332
-0.00317563
0.119716
0.65065
0.423375
0.279352
-0.242546
0.439006
-0.13088
0.808615
-0.164549
0.667827
0.706511
-0.0841601
-0.0630119
0.261416
0.1436
-0.44789
0.195197
0.840418
0.00282677
0.496556
-0.0389012
0.664791
0.0484229
-0.0356438
0.544628
-0.15737
-0.511181
0.0930161
0.183274
-0.0807332
-0.52605
-0.0834122
-0.378057
-0.104568
-0.368404
0.468488
-0.0502378
-0.542031
0.0562434
0.392217
-0.512256
-0.158003
-0.782223
-0.309547
-0.949938
-0.0237982
-0.0516974
-0.165432
-0.296672
0.0467419
0.573664
-0.64262
-0.261745
0.00793723
0.444138
-0.487306
0.363025
-0.670085
0.140037
0.680308
-0.0716738
-0.125903
-0.165304
0.275037
0.651972
0.3688
0.522571
-0.580451
-0.333116
-0.458193
0.673335
-0.419018
-0.350504
-0.422635
-0.293825
-0.179078
-0.416245
0.0623019
-0.513972
0.309194
-0.749407
0.133513
-0.699722
-0.106905
-0.0187582
0.383171
-0.0544953
0.214002
-0.796492
-0.721382
-0.221174
0.969185
0.888726
0.00618356
0.0713001
0.240768
-0.136017
-0.24238
0.174445
-0.234724
-0.395144
0.0039298
0.0628109
-0.113065
-0.294122
0.00438164
0.114273
-0.315347
0.316368
-0.407559
-0.270815
-0.0400688
0.28155
-0.647639
-0.875075
-0.446202
-0.11499
0.413079
-0.162202
-0.24952
-0.233216
-0.670352
-0.521171
0.476615
-0.0433294
-0.3493
-1.02941
0.0784228
-0.976185
-0.705072
-0.882054
-0.285361
-0.77652
0.116105
0.185768
-0.839125
-0.181797
-0.647976
-0.321255
0.445185
0.0243108
-0.4776
-0.261788
-0.224953
-0.427539
0.166222
-0.1805
0.0843462
-0.166702
0.185284
0.222344
0.307682
0.162104
-0.307742
-0.0169193
-0.191685
0.317309
-0.282242
-0.196124
-0.314015
0.196296
0.438875
-0.261994
0.129864
0.0736017
-0.239753
-0.276766
-0.252301
-0.331981
-0.233829
0.324998
0.0695961
0.298508
-0.255947
-0.557028
-0.442603
-0.473652
-0.230714
-0.416924
-0.400979
0.225653
0.439678
-0.296829
-0.508551
-0.380995
0.714036
-0.122742
0.673149
-0.221024
0.811616
-0.395643
0.08463
0.626411
0.0243071
-0.0794194
-0.403488
0.240568
-0.0381218
-0.332032
-0.251513
0.146203
0.517644
0.337651
0.442116
-0.0976038
0.149115
0.35515
0.856167
0.195108
-0.544134
-0.44093
0.461602
0.0116324
-0.178084
-0.348167
0.179801
-0.321404
0.23743
0.124232
-0.155892
0.357323
0.28398
0.126048
0.559089
-0.530444
0.143531
0.0854866
-0.700458
0.0600867
-0.349096
-0.104694
-0.149791
0.013397
-0.12596
0.482467
-0.403532
-0.947747
0.0949246
0.328641
-0.536729
-0.116454
-0.869396
-0.72978
-0.382888
0.387933
-0.30708
-0.340116
-0.652351
0.300042
-0.669127
0.014897
-0.15318
0.323767
0.00908808
0.291613
0.0102797
-0.396269
0.0370191
-0.376402
-0.377142
-0.528074
-0.342033
-0.0433574
0.203284
-0.168051
-0.399919
0.369127
-0.418456
-0.243201
0.595247
-0.682373
0.49469
-0.831072
0.276816
0.0692006
0.172803
0.231469
0.0297642
0.0986975
-0.279811
0.507469
-0.279738
-0.830149
0.110801
-0.0137203
0.625265
-0.380602
0.261696
-0.164675
0.109306
-0.383707
0.133546
-0.201512
-1.1352
-1.04711
-0.117786
-0.338129
-0.975213
-0.295515
0.14243
-0.569753
0.163373
0.457658
-0.888414
-0.541305
-0.0884178
-0.855767
-0.577511
-0.357674
-0.368886
-0.227467
-0.314381
-0.500023
-0.297671
-0.139975
-0.62538
-0.243302
0.0924291
-0.258127
0.010735
-0.519614
-0.678069
0.205469
-0.0775282
-0.179469
-0.483734
-0.707464
-0.100301
-0.523888
-0.446655
-0.252
-0.902433
-0.510324
-0.570563
-0.436906
-0.385776
-0.399764
-0.542023
-0.0999467
-0.734673
-0.335061
-0.671281
-0.836908
0.0611366
-0.304147
-0.240751
-0.424692
-0.727538
0.0130997
-0.445793
0.193344
-0.163429
0.312683
0.891068
-0.139044
0.490549
0.0435915
0.634949
0.40775
3.84863e-05
0.410926
0.311989
-0.23386
-0.671103
0.0778523
-0.630045
-0.11969
-0.184647
-0.110998
0.400421
-0.0480082
0.679514
-0.0570571
0.0284609
-0.0693695
0.365799
0.17859
-0.270679
-0.895661
0.463667
-0.230348
0.318486
-0.384665
-0.284575
-0.0684714
0.157973
-0.279339
-0.102669
0.217679
-0.73332
-0.0218815
0.248803
0.590073
-0.702437
0.394734
0.253326
-0.139588
0.275698
0.144965
0.175981
0.210339
0.159532
-0.261419
-0.0855116
0.182108
0.0923208
0.0162369
-0.27258
0.156721
0.309712
0.551697
0.42943
-0.397717
0.84786
0.0749819
-0.578794
-0.291867
0.26169
0.378442
-0.253828
-0.039246
0.594019
-0.153964
-0.276184
-0.690283
-0.074358
-0.331757
0.558935
0.481582
-0.107995
-0.63228
0.178279
-0.0981287
0.316275
0.0747843
0.573486
-0.348179
-0.915219
-0.366837
0.375337
-0.340528
-0.257842
0.264653
-0.333708
-0.276814
0.171479
0.511311
0.0094986
-0.694644
-0.186457
-0.129561
0.524247
-0.409883
0.167597
-0.233979
-0.0860783
0.438495
0.607844
-0.133442
-0.435362
0.282659
0.0173354
0.558699
0.205077
0.454615
0.0129014
0.189758
0.599232
0.648371
-0.308436
-0.263642
0.17019
0.221333
0.0610445
-0.825524
-1.10807
0.660861
-1.27999
0.929762
0.814037
-0.460454
-0.0282412
-0.659043
0.5142
-0.864238
-0.73837
-0.669902
0.354799
-0.41489
-1.24812
0.109928
-0.686018
-1.00813
0.186637
-0.0847209
1.08142
-1.33297
0.156576
-0.97887
-0.117142
-1.5239
1.10747
-0.663498
-1.51196
-0.966717
0.490086
-1.17481
-1.93646
-1.62593
-0.521374
-0.386041
0.189567
1.17143
-1.79744
0.0261236
-0.582584
-0.594136
0.335734
0.394951
0.126545
-0.0476644
-0.46006
0.296348
-0.446362
-0.370795
-0.258532
0.206957
0.362804
0.0838428
-0.130522
0.188549
0.43307
-0.336281
0.353866
0.226295
-0.327832
-0.599754
0.0953163
0.0855564
0.152096
-0.676649
-0.564685
0.317591
-0.487223
-0.619345
0.154945
-0.0324294
-0.0971643
-0.495138
-0.418657
0.0173447
-0.447598
-0.09165
-0.488611
-0.314848
-0.184317
-0.191997
0.140693
0.418678
-0.181129
0.444037
-0.0653978
0.0467777
0.0892552
0.254808
0.221617
0.390196
0.0551609
-0.274499
0.140473
0.10016
-0.208142
-0.309689
0.110528
-0.316576
0.432546
-0.261116
0.258585
0.00308791
-0.209466
-0.462228
0.109784
0.170258
0.680818
-0.0858789
-0.226071
-0.126423
-0.384772
-0.360226
-0.300722
0.173883
0.499815
0.165516
-0.214882
0.337718
0.215473
0.149811
0.0842987
-0.105734
-0.0144579
0.292896
0.574245
0.152772
-0.214535
0.228662
0.177909
0.0477081
0.118811
-0.383755
-0.109734
0.0728276
0.228066
-0.0432101
0.105748
-0.231893
0.336466
0.0300104
-0.432194
0.262996
-0.502698
-0.13308
0.330823
-0.0813863
0.179803
0.15985
-0.194136
0.307091
0.497047
0.479559
0.029425
-0.369768
0.0454634
-0.316962
0.110455
-0.303853
0.0970334
-0.290344
0.120287
0.412297
-0.307479
-0.106483
-0.31484
0.604563
-0.0640421
0.028559
0.25303
0.39345
0.536074
0.350582
0.232225
-0.225838
0.394749
0.372333
-0.317037
0.0501036
0.167777
0.108252
0.212248
0.175165
0.231592
-0.0585633
-0.180812
0.28283
0.451945
0.435057
-0.215793
-0.184723
0.656328
-0.426905
0.304929
0.364588
-0.0466553
-0.125624
0.33166
-0.257565
0.481936
0.591938
0.517128
0.128879
0.494709
0.0370601
-0.287819
0.474454
0.486248
-0.14863
-0.390812
-0.42206
0.532129
0.206507
0.183526
0.593228
0.47334
-0.028514
0.490698
-0.0106696
0.0725456
-0.02083
0.720282
-0.133761
0.152513
0.375595
-0.114394
0.434117
0.0131866
0.654728
0.555261
0.496832
0.048445
0.583334
1.08094
0.564788
0.271412
-0.0660369
0.270125
0.419992
0.0181697
-0.0725451
0.0410223
0.46795
0.758709
0.0868383
0.177675
0.637861
-0.179552
0.495062
0.615544
-0.424747
-0.427959
0.609648
-1.43716
0.825824
0.0846343
-1.12388
0.367212
-1.12519
0.368603
-0.537498
-0.662038
0.313144
-0.508437
0.259565
-0.66307
0.557842
-0.623181
-1.15955
-0.219417
-0.103593
0.804023
-0.898248
-0.0322519
-0.0488336
-0.549661
-0.549604
0.816519
-0.0192241
-1.03742
-1.14124
0.47149
-1.18767
-1.19565
-1.65491
-0.420138
-1.12938
-0.452518
1.00467
-1.72978
-0.720513
-0.225859
0.323116
-0.14005
-0.552192
0.233296
0.445601
0.161871
0.323652
0.229846
0.336069
-0.0601942
-0.286212
-0.0158519
-0.110566
0.335876
-0.130955
0.14774
0.0295574
0.681054
0.285914
-0.212329
0.0208742
-0.40651
0.192662
-0.352065
0.06726
0.0916431
-0.197472
-0.166034
-0.191708
0.3684
0.576832
-0.494082
0.591909
-0.125132
0.10437
0.516276
0.173543
-0.0320456
-0.211736
0.0550214
0.321664
-0.268103
-0.344092
0.142474
-0.206698
-0.143214
-0.0330792
-0.20298
-0.0817329
0.304306
0.191524
0.0147181
-0.113988
0.445475
0.316692
0.0398895
-0.410619
0.414105
-0.386675
-0.294706
-0.050992
0.438803
0.274183
-0.406755
-0.0994627
-0.41498
0.0959544
0.0219397
0.328912
-0.0428983
-0.365149
0.340618
-0.275963
-0.0878823
0.068159
0.115148
0.0137754
0.428346
-0.371939
0.407628
0.215928
0.506672
0.0939828
0.197035
-0.20308
-0.0699013
0.0808524
0.0869829
-0.59944
-0.289328
0.192328
0.0127139
0.407254
0.0624892
-0.210945
0.0751644
-0.32868
0.329084
0.284792
0.537994
0.234428
0.212431
0.695188
0.271443
-0.121813
-0.198164
0.10838
-0.411477
-0.137036
0.40674
0.359323
-0.194298
0.604421
0.399002
0.762735
0.0313885
0.227249
0.527441
0.852115
0.347654
-0.168661
-0.275458
-0.0687361
0.525489
-0.212524
-0.194196
0.464648
-0.742543
0.271866
-0.262055
-0.205087
1.38968
-0.713456
0.533281
0.186965
0.463634
0.0625191
0.356334
0.127954
0.372594
-0.274391
-0.824579
0.519657
-0.69621
-0.112205
0.810624
-0.0235889
0.831069
-0.291495
0.462805
-0.328391
0.172689
-0.53043
0.393461
-0.72223
-1.01334
-0.415604
0.126971
-0.244162
-0.431095
0.00741976
-0.455517
-0.96444
0.378896
0.844501
-0.594921
0.587823
-0.101852
0.443922
0.34618
0.538673
-0.394497
0.377221
0.39235
-0.144906
0.200892
0.0538636
-0.385043
-0.315886
0.651709
-0.128983
0.247629
0.476201
-0.262787
0.459819
-0.142025
-0.779193
-0.111883
0.0285165
-0.474832
-0.433467
0.0458041
-0.351251
-0.352896
-0.593298
0.100728
0.490694
-0.68368
-0.271902
-0.197894
-0.746026
-0.741368
-0.279166
0.473384
-0.0629226
0.0436662
-0.0819302
-0.315425
-0.381885
-0.139214
-0.0347386
-0.705261
0.0739706
-0.890482
1.21004
1.22714
-0.841317
-0.105507
-1.11061
0.399332
-0.424796
0.570604
0.679137
-0.383102
-0.245031
-0.437978
0.0849333
-0.517592
-1.44338
-0.484672
0.265251
0.753268
-0.768857
-0.101862
-0.0290364
-0.792538
-0.947074
0.385029
0.250548
-1.31987
-1.46142
-0.170517
-0.777734
-1.1459
-1.11385
-0.0788433
-0.278705
0.856351
0.432502
-1.28254
-0.766463
0.174052
-0.0637403
-0.246563
-0.0678848
-0.171329
0.186587
-0.23491
0.351447
0.383198
0.274533
0.111177
0.105441
-0.531984
-0.284543
0.0701007
0.417667
0.479689
0.0542081
0.71505
0.476244
-0.111497
-0.340498
0.0683934
-0.185375
-0.312847
0.515844
0.0889252
-0.168469
-0.528213
0.507613
0.0717932
0.106034
-0.0433286
0.56569
0.415479
0.0831877
0.310984
0.306469
-0.479352
0.234846
0.396461
0.360672
-0.112633
0.526597
0.0208355
0.362612
0.073751
0.0291372
0.232787
0.0981563
0.446629
-0.00328898
0.613407
-0.147544
-0.165831
-0.0548292
-0.462804
0.257168
-0.0531007
0.0674057
0.231911
0.291828
0.156296
0.410976
0.482467
-0.459302
-0.0843833
0.426647
-0.0467301
0.014938
0.158878
-0.271518
-0.1831
-0.110526
-0.0651909
-0.238098
0.302086
-0.385858
0.155641
-0.467733
0.0765206
0.221712
0.0999559
0.0129568
-0.219243
0.577467
0.266306
0.581637
0.115021
0.389145
0.405559
-0.109293
-0.0383472
0.313639
0.102287
-0.482662
-0.0923399
-0.26387
-0.302216
-0.211903
0.219722
0.322385
-0.146166
0.606794
-0.397262
0.0891693
0.507247
-0.181875
0.412151
0.470159
-0.13104
-0.176836
0.0465339
0.413162
-0.327773
0.316502
0.667911
-0.164088
0.554007
0.330352
-0.084225
-0.406979
0.721458
-0.277711
0.428507
0.54938
-0.0363996
0.266424
-0.286271
0.290988
0.044697
-0.140398
-0.141228
-0.191304
-0.229061
0.144179
-0.510765
-0.336783
-0.11393
0.034607
0.0638812
0.00540489
-0.377079
-0.0655101
0.116943
0.39144
0.0573883
-0.466983
0.346898
-0.31428
-0.313638
0.174983
-0.521501
-0.132534
0.395984
0.210611
-0.254223
-0.133576
-0.42206
0.311588
-0.233561
0.191654
-0.118893
0.21019
-0.482902
-0.220655
-0.193872
-0.250055
-0.398591
0.138655
0.0980407
0.0994277
-0.0865
-0.284125
0.572514
-0.275135
-0.188222
0.278832
0.647897
0.0663618
0.0932764
-0.459435
0.0590261
-0.342416
-0.254222
0.561864
-0.165288
-0.0445591
-0.244136
0.110757
0.625514
-0.462544
0.625919
-0.372734
0.418809
-0.0136999
0.41227
0.0528293
-0.678108
-0.609878
0.523888
0.0454828
-0.0231623
-0.283293
-0.0823378
-0.366074
0.264165
0.209616
-0.152853
-0.0253498
-0.23199
-0.00935938
0.184487
-0.0179255
0.677731
0.208359
-0.663245
0.487929
0.15421
0.550013
-0.182241
-0.213282
-0.0996807
0.0592596
-0.171827
-0.238834
0.0802812
-0.398525
0.0987898
0.0713784
0.452418
-0.167564
0.235234
0.384886
-0.00395935
-0.423008
0.123735
0.298234
-0.31074
-0.392931
0.553034
-0.154155
0.258314
0.532489
-0.338172
0.384061
-0.435344
-0.0735014
0.377016
0.15973
0.204194
-0.333692
0.377445
-0.062666
-0.432346
0.704581
-0.120536
0.162198
0.115442
-0.3686
0.477009
-0.506844
-0.120808
-0.213902
-0.259863
0.00971007
0.220609
-0.636985
0.0855627
0.562921
-0.601777
-0.884476
-0.392939
0.118902
0.977246
-0.765672
0.534349
-0.6914
0.175192
-0.830885
0.950379
-0.667765
-0.126084
-0.792564
0.432419
-0.360105
-0.773005
-0.302102
-0.408649
-0.625573
0.283984
0.678736
-0.376798
0.0512426
0.0295129
-0.459554
-0.0793616
-0.272903
-0.94297
-0.0240124
0.834508
0.227182
0.609169
-0.114482
0.602313
-0.352136
-0.0599131
-0.188115
0.119585
-0.249232
-0.713446
0.679126
-0.404834
-0.0523983
0.637599
0.63232
1.1028
-0.252622
0.693196
0.478045
0.386147
-0.511551
0.0113616
-0.401554
0.295231
-0.796278
-0.191495
-0.166748
0.166981
0.283446
0.0826073
-0.512811
0.452476
-0.312041
0.351174
0.0384848
-0.00859953
-0.0616043
0.301353
0.917531
0.111464
0.737626
0.12101
0.208724
0.0990982
-0.749324
0.220066
0.192467
0.678743
0.238657
-0.340124
0.275679
-0.422239
0.372243
0.13031
-0.184988
-0.560577
0.00677031
-0.171591
-0.568409
0.0318464
0.148399
-0.783736
0.105965
-0.0864346
0.0906776
-0.359479
0.0404261
0.696503
-0.0599348
-0.3923
-0.211436
-0.486071
-0.665226
0.471109
0.236919
0.181038
-0.115032
-0.0199333
-0.338141
-0.0831213
-0.832934
0.559569
-0.553138
-0.60422
0.718637
0.270625
0.620737
0.423532
0.962024
-0.276334
0.204637
0.146367
0.328981
0.90984
-0.483006
0.342946
0.684292
0.166943
-0.300357
-0.97746
0.843287
-0.0208473
0.0996234
-0.130597
-0.0140342
-0.353589
-0.199462
0.594511
0.282369
-0.597265
0.571266
1.22197
0.336691
0.447769
0.293578
0.451681
-0.944879
0.496277
0.523277
0.264089
-0.744659
-0.379378
0.884721
-1.12785
0.677624
1.15169
-0.587521
0.141781
-0.75861
0.527749
0.272345
0.119504
0.210601
-0.341461
-0.797516
-0.950908
0.527998
-1.02146
-0.58823
0.147356
0.0619521
0.442602
-1.3568
0.831139
-0.752915
-0.546336
-1.2627
1.18789
-0.296316
-0.465931
-1.09948
0.000197437
-1.1148
-0.496932
-0.739998
-0.209918
-0.752698
0.290727
0.845802
-0.69492
-0.895769
-0.219537
1.77514
3.85992
-1.7892
-0.898873
0.400957
1.75788
1.35631
1.45338
0.331312
0.197977
2.51681
-2.5089
1.65369
-1.73838
1.31917
0.274721
-1.12586
5.42562
-0.979314
0.321628
0.224309
1.2805
1.67372
3.55391
-0.311699
0.162511
-1.02707
3.29097
1.99681
3.49793
-0.491212
0.686546
1.05497
0.0518715
0.471232
-0.917169
1.88234
2.50644
-0.140114
-2.21175
2.91631
