#input normalization
0.160547 0.269438
66.0116 60.1248
10.4305 39.3916
8.39677 32.2227
0.0117812 0.0437256
0.00928692 0.0331924
0.52601 1.31785
0.823961 1.14631
1.01646 1.32786
1.23048 1.51654
1.47696 1.68552
1.73 1.83539
1.9743 1.96587
2.21076 2.0781
2.43718 2.17557
2.63908 2.23007
2.83415 2.26984
3.01462 2.27938
3.15896 2.26461
3.28283 2.21551
3.38211 2.15303
3.46272 2.06189
3.51676 1.96916
3.54752 1.85503
3.5578 1.72878
3.54351 1.58884
3.49301 1.43749
3.43716 1.27838
3.34482 1.10378
3.22632 0.928516
3.11153 0.763094
2.98535 0.603665
2.85542 0.455468
2.7088 0.310791
2.56201 0.17409
2.42284 0.0454989
2.26875 -0.0723995
2.13826 -0.178038
1.99733 -0.27396
1.8622 -0.364877
1.72921 -0.445283
1.62029 -0.512972
1.49571 -0.578128
1.37986 -0.637372
1.26655 -0.688599
1.1537 -0.734566
1.06369 -0.774337
0.970511 -0.808451
0.894084 -0.838709
0.814657 -0.864653
0.744145 -0.888867
38.6193 50.1293
1 -1
#output normalization
1 0
#neurons weights
-0.48276
0.0885295
-0.310102
-0.362592
0.00907809
0.170149
-0.396103
-0.252492
-0.0764536
0.399975
0.483046
-0.0433682
0.17606
-0.12867
0.102967
-0.256853
-0.184346
0.443147
0.155118
0.24993
0.000450188
0.221518
-0.491265
0.442935
0.409604
-0.293774
0.0604316
-0.324869
0.223576
-0.312227
-0.271751
-0.0333302
0.319253
-0.0573169
-0.348684
-0.111428
-0.147141
-0.262303
0.158609
-0.348904
-0.320944
-0.24255
-0.349034
-0.4335
-0.141519
0.457937
0.116022
-0.0433642
-0.0185666
-0.240603
-0.127798
0.202856
0.49239
-0.390152
-0.148104
0.456444
-0.014359
1.29153
0.258451
-0.290628
-0.347482
-0.27762
0.0514343
-0.227922
-0.163092
-0.174655
-0.404541
-0.0929752
-0.362142
-0.0198473
-0.467831
-0.582571
0.144752
-0.332788
-0.457959
0.227685
-0.435886
0.337469
0.563674
-0.473918
-0.0733195
0.280261
-0.197915
-0.439295
-0.294203
-0.253322
0.343103
0.184278
0.153243
-0.310123
-0.229632
-0.00817081
1.76386
0.590276
0.0261792
0.281681
0.0899337
0.375293
-0.173714
-1.01818
-0.471143
0.32029
0.509079
-0.042682
0.0945902
0.393134
0.0465566
0.444912
0.0683179
-0.348449
0.284952
0.105811
0.169558
0.459825
-0.460011
-0.56033
-0.0210631
0.271811
-0.402709
-0.442423
0.415307
-0.500325
0.165809
-0.171253
0.163876
-0.0481432
0.137213
0.17125
0.434174
0.264598
-0.381576
-0.122073
0.163934
0.392208
0.26084
-0.570707
0.4605
0.576811
-0.134008
-0.284429
-0.416573
-0.176432
-0.139904
0.253042
0.130475
0.144738
0.0667441
0.220801
0.04362
0.596305
-0.386273
0.0521314
0.506565
0.345371
-0.0186804
-0.177496
0.55106
0.159337
0.512579
0.245574
0.296349
#synapses weights
0.218999
-0.100164
-0.113845
-0.212431
-0.484919
-0.342653
0.719628
-0.390788
0.054867
0.101657
-0.0981299
-0.243563
0.368373
0.259324
0.188883
-0.229613
-0.221094
-0.315573
0.122424
-0.47362
-0.42503
0.150289
-0.520782
0.421566
0.101844
0.151324
-0.126957
0.293123
-0.0876472
0.314934
0.13569
0.260392
-0.456529
-0.286891
0.0386929
0.189662
0.46296
0.0233369
0.52191
0.172536
-0.424648
0.216191
-0.390464
0.0994342
0.506411
-0.194512
-0.449909
0.147998
-0.464585
-0.0122117
-0.20819
0.414342
0.160608
-0.549519
-0.0437666
-0.191771
-0.0629764
-0.186855
-0.0958763
0.224155
-0.022829
-0.00894907
-0.531337
-0.141972
0.133424
-0.377785
0.232809
-0.391168
0.548833
0.328547
0.0513406
-0.323159
-0.370049
0.153678
0.339233
0.479939
0.0618773
-0.283733
0.0510948
-0.270751
0.338886
0.262546
0.125734
0.401702
-0.100759
0.128108
-0.111198
-0.163076
0.544327
0.144413
-0.302658
0.0770197
-0.36099
-0.0982004
0.3999
-0.180693
-0.0957686
0.399577
-0.360884
0.112708
0.370531
0.369012
-0.515567
-0.177716
0.225795
0.207021
-0.494349
-0.54355
-0.0334711
-0.104863
-0.405376
0.148231
-0.628471
-0.409275
0.0481883
-0.0292786
-0.258773
0.0770314
-0.408166
0.515231
0.227222
0.14829
0.2341
-0.351388
0.481167
-0.0125469
0.346195
0.0102545
-0.141842
-0.157452
0.331667
0.131538
-0.410172
-0.334599
0.0405978
-0.543934
0.417279
0.276267
0.158256
-0.0536448
0.284662
0.351957
0.353721
-0.184942
0.0944998
0.373391
-0.00315441
-0.0215269
0.0927649
-0.466625
0.0834941
-0.338788
-0.266841
0.144747
-0.196976
0.457467
0.0326162
0.602177
-0.128889
0.392244
-0.288948
0.470814
-0.401151
-0.0726803
0.166537
0.407847
-0.302842
-0.00665244
0.467881
0.464556
-0.0163394
0.465109
-0.0342433
-0.100097
0.400534
0.0829409
0.124137
-0.151055
-0.39882
-0.112254
-0.399506
0.425205
-0.444219
-0.485714
-0.202944
0.140605
-0.0393654
0.0754966
0.0294833
-0.24186
0.0170153
-0.351153
-0.0568362
-0.397147
-0.39889
0.453152
0.130769
0.402816
-0.396666
-0.014565
-0.111964
-0.348273
-0.194303
-0.0937421
-0.0192686
-0.350852
0.0687933
0.213328
-0.159115
0.417096
-0.432157
-0.499149
-1.26058
-0.37771
-0.00907172
-0.0228642
-0.116627
-0.0742011
1.8532
0.813419
-0.0608067
0.0577212
0.120564
-0.142736
0.0695831
0.0707367
-0.156886
0.290843
-0.0656808
-0.09627
-0.233954
0.337964
0.149097
0.169365
0.0890875
-0.280663
-0.15073
0.263857
0.0203412
-0.382577
0.243193
-0.0678588
-0.230235
0.281876
0.0773404
0.0688102
-0.351466
-0.111955
-0.094097
0.117739
0.182185
-0.0608642
0.126295
0.0631432
0.0800337
0.0483502
-0.381268
0.0477346
-0.0319177
-0.264509
0.0178215
-0.117739
0.00954017
2.5992
0.00286637
-0.021321
0.211058
-0.472728
-0.214049
-0.0758766
0.176123
0.112361
0.202702
0.189406
-0.227217
0.161912
0.276384
0.240584
0.205784
0.389672
0.24151
-0.133259
-0.123462
0.542377
-0.386568
-0.232077
0.496503
-0.128639
0.271087
-0.331291
0.255396
0.44966
-0.356597
0.349778
-0.48908
-0.282572
-0.41713
-0.179282
0.0351112
-0.14412
-0.329597
0.41081
-0.216283
0.0363391
0.0334478
0.180855
-0.000708993
0.42456
0.0996279
0.0951103
0.329215
-0.0465178
-0.171109
-0.143392
0.0530502
-0.387472
-0.260534
-0.389192
0.508809
-0.166955
0.141511
0.278875
0.0671692
0.0159022
0.046873
0.236332
0.501174
-0.0594343
-0.210093
-0.103375
-0.495232
-0.375046
-0.500861
-0.27883
0.312943
-0.435386
-0.248995
-0.378209
0.00783183
-0.0464196
0.0361034
-0.364698
0.0759668
0.206979
-0.418404
-0.401245
-0.32449
0.043159
0.174451
-0.284303
0.161405
0.1576
0.383732
-0.468473
0.100799
0.11276
-0.128518
0.367916
-0.118703
0.353596
0.344441
0.269424
-0.113891
0.233577
0.164149
0.0807107
0.0706675
0.178147
-0.153406
-0.109992
0.325162
0.547209
-0.108457
0.0312476
0.106934
0.232958
-0.42769
-0.853872
-0.328907
0.308207
0.233586
-0.308097
-0.121603
0.326603
0.120747
0.163933
-0.0137131
-0.110564
0.406207
-0.392
0.175378
0.0443478
0.32303
-0.200137
-0.00631758
-0.203379
0.236896
0.000497669
-0.198524
0.367715
-0.181679
-0.0220989
0.272159
0.306983
0.460249
0.0940006
-0.303444
-0.102778
0.0454939
0.360262
-0.47675
-0.000482277
-0.160144
0.501219
0.0518654
0.236657
0.48737
0.245112
-0.145284
-0.204422
-0.0874207
-0.308968
-1.00706
0.292653
0.0109843
-0.133458
0.472104
-0.490523
0.040982
0.161288
-0.0350921
0.00260385
-0.0111939
0.270282
-0.19619
0.346839
-0.394525
-0.11417
0.457833
-0.0673559
-0.127867
-0.393457
-0.172746
-0.225257
-0.411754
-0.247447
-0.101102
-0.438794
-0.211309
-0.160556
0.0810898
0.137098
-0.181589
-0.407061
0.424216
0.133721
-0.208177
-0.178749
0.115575
-0.185489
-0.382944
-0.276782
0.426509
-0.168208
0.254929
0.0455313
0.0884196
-0.114522
-0.360268
-0.223415
0.00887539
0.27297
0.145338
0.0933196
0.0392162
-0.415698
0.048842
0.442321
-0.428016
-0.100998
-0.0492228
-0.322401
0.299574
-1.18821
0.307725
0.0952234
-0.0774038
-0.574035
0.114708
-0.365366
0.213101
0.0894478
0.0835982
0.368224
0.138125
-0.129191
-0.285346
-0.207147
0.193876
0.234125
0.150342
-0.283318
-0.00841235
-0.321372
0.402364
0.331106
-0.122264
-0.195164
-0.301931
0.0817715
-0.336293
-0.0595764
0.071652
-0.136602
-0.193268
0.310387
0.274678
0.480594
-0.0714475
0.312994
-0.181562
-0.0543547
-0.0811323
0.314238
0.312027
-0.183098
0.415298
0.431634
-1.18549
-0.343004
0.232304
0.0197207
0.101237
-0.229
-0.186198
0.504713
-0.265711
-0.368983
0.0364841
-0.408092
0.349532
-0.0152718
0.235543
0.240321
-0.467009
0.40001
-0.333952
0.314917
0.228245
-0.184765
-0.328336
-0.026294
0.114673
-0.155138
0.162388
0.455027
0.325956
-0.035341
-0.125434
-0.340423
0.198723
-0.317235
0.473183
0.0279666
-0.460466
-0.429269
-0.407859
-0.379929
0.401931
0.286428
-0.0960917
0.121678
-0.398152
0.0456203
0.279342
-0.265944
-0.28792
-0.33825
-0.0565969
0.111201
-0.100616
0.480527
0.229937
0.0454454
0.396515
-0.309603
0.297455
0.153871
-0.148996
-0.588097
-0.410074
0.271833
-0.319654
-0.221649
-0.33548
0.258157
0.417376
0.0301686
-0.431635
-0.301796
0.267044
-0.30514
-0.225622
-0.0501614
0.21578
-0.452723
0.32371
-0.244636
-0.110933
0.150855
-0.351939
-0.511668
-0.174943
-0.214118
0.261498
-0.36209
0.432634
-0.200153
-0.418489
-0.380798
-0.0749689
-0.326066
0.14072
-0.272413
-0.446922
0.463946
-0.133767
0.165277
0.0193344
0.447784
0.210004
-0.383543
-0.0562965
0.341867
0.27603
0.297703
0.623869
0.490279
0.20992
0.190354
0.309284
0.121884
-0.0498157
0.519759
0.377437
-0.274444
0.39396
0.106254
0.225383
0.0364946
0.182973
0.146802
-0.162241
0.0544541
-0.274454
-0.401663
0.455134
-0.146421
-0.384409
0.130954
0.408839
0.332983
-0.0393032
-0.0023068
0.258727
-0.0429321
0.189683
0.187144
0.362498
-0.370839
-0.441594
-0.0984639
0.227608
-0.40199
-0.0758272
0.482834
-0.428988
-0.272979
0.216817
0.225515
0.333293
0.0764123
0.123707
0.215776
-0.433784
0.149774
-0.241254
-0.100305
0.25994
-0.339664
-0.143734
-0.248622
0.0315453
0.505966
-0.0970373
-1.681
-1.48323
-0.813154
-0.429691
-0.318468
-0.0869543
-0.10778
0.146226
-0.387945
0.0205309
0.107026
-0.422053
0.345647
-0.193865
0.389024
0.0127547
0.118581
0.161523
-0.287036
0.0291476
-0.466818
0.209624
0.270268
0.033124
-0.224597
0.109415
-0.392603
-0.0339968
0.113301
-0.14788
0.24795
-0.160715
0.241863
0.163094
0.198705
0.00901388
-0.307364
0.286319
-0.300583
0.165488
-0.280564
0.113806
-0.253669
0.163648
0.152783
0.32952
-0.375304
-0.462211
0.0945974
-0.0798525
0.0098924
-0.350041
0.547246
-0.403713
0.275747
-0.647865
-0.404711
-0.142559
0.272348
0.0227612
-0.30246
0.114978
-0.0447506
-0.127676
0.404182
-0.380601
0.0652811
-0.277264
0.0357398
-0.406641
0.005874
0.353074
0.461869
0.433282
0.277518
-0.147617
0.228378
-0.0587755
-0.353284
0.25363
-0.322647
0.01458
-0.435867
0.116109
0.415301
0.437197
-0.533703
-0.150618
-0.272948
0.305568
0.0482448
-0.215712
0.470069
-0.25874
0.0149266
0.0839887
0.382685
-0.207266
0.135743
0.0397918
0.265121
-0.535057
-0.282478
0.115844
-0.18959
-0.176176
-0.617497
0.271734
0.353864
-0.648175
0.223508
-0.270477
-0.226236
-0.153179
-0.0944968
-0.328428
-0.271295
-0.620653
0.232287
0.00156489
-0.00335553
0.108791
-0.182182
0.142462
-0.277555
0.410066
-0.0307449
0.0922469
-0.37576
-0.357848
0.0290776
0.259755
-0.33585
-0.288393
0.13748
-0.192619
-0.246277
0.0519917
0.0600512
0.311498
-0.299263
0.293439
0.220696
-0.394639
-0.482409
-0.402369
0.114488
-0.279263
0.0352629
-0.00510789
0.0656046
0.0904213
0.241622
0.255306
-0.034183
-0.386716
0.0359979
0.511074
0.286545
-0.148195
0.286196
-7.71892e-05
0.502107
0.13401
-0.122419
0.28651
0.276954
0.493245
0.320948
-0.27699
-0.182414
-0.35659
0.000106802
-0.000471792
-0.29584
0.0541673
0.209921
-0.45684
0.130479
-0.0381446
-0.13991
0.0721944
-0.214626
0.0522288
0.274287
0.228551
0.148896
0.0447458
-0.0369617
-0.107743
0.404968
0.384132
0.264803
0.321987
-0.173909
0.262475
0.322625
-0.445159
-0.17143
-0.207688
-0.350414
-0.136058
-0.486417
-0.336549
-0.48954
0.342444
0.784546
-0.337435
0.268543
-0.228648
-0.390555
-0.315223
-0.375986
0.230604
-0.160519
0.205516
0.169815
0.231923
-0.240386
-0.103712
-0.348798
-0.104078
-0.23301
-0.237512
-0.364829
-0.230574
-0.184683
0.21271
0.382363
-0.101056
-0.224276
0.0118943
0.339534
-0.282414
-0.0958192
0.354545
0.180911
0.194064
-0.285349
0.412927
-0.342469
-0.259306
-0.400333
0.352859
0.291187
-0.0528536
0.441468
-0.398466
-0.240886
-0.348704
0.0850964
0.259663
0.296166
0.296923
0.0812128
-0.0034883
0.461267
-0.174053
0.498938
0.636796
0.484899
0.117255
-0.179
-0.326389
-0.106718
-1.10359
0.200391
-0.0713055
-0.223398
0.188806
-0.0948642
0.169796
0.248634
0.0866588
0.0141747
0.136979
-0.272895
0.215334
0.361982
-0.285388
-0.247639
-0.312128
0.351705
-0.112011
0.0558288
0.333528
-0.365132
0.114921
0.00805464
0.313506
0.245798
0.0107139
-0.23255
-0.291902
0.0278571
-0.215872
-0.13119
-0.347705
0.267658
0.379999
-0.3858
0.159193
-0.134869
0.394903
0.227607
0.135983
-0.0685177
-0.293561
0.0195702
-0.0829852
-1.27781
0.130327
-0.320477
0.210987
-0.0579454
0.362036
0.394955
-0.349178
1.25047
-0.302425
-0.0155211
-0.390942
-0.22576
0.379806
-0.332578
0.297895
0.347808
-0.319915
0.0846864
-0.336528
0.146544
0.242746
0.265952
0.420766
0.153239
-0.382732
0.136287
0.251664
-0.233435
-0.233775
-0.106412
0.389208
0.233421
0.127592
-0.108002
-0.302159
0.0134007
-0.381062
0.362637
-0.0945992
0.159399
-0.226248
-0.207767
-0.0457894
-0.127074
0.254266
0.514882
-0.295001
0.467684
0.522524
-0.218476
0.120483
0.252897
0.733292
-0.404688
-0.138673
0.346315
0.249919
0.230017
-0.0442015
-0.185349
0.88579
-0.437325
0.0433351
-0.282207
-0.0999144
-0.0237442
0.120938
-0.10365
0.36029
-0.40227
0.214848
0.0495357
-0.179121
0.223719
-0.406212
0.47764
0.398126
0.0825519
-0.3963
-0.0263653
-0.297639
0.123463
-0.00213326
-0.345189
0.431879
-0.190963
0.350265
0.088646
-0.433867
-0.130187
-0.0829956
0.0177127
0.374688
-0.0702165
-0.424679
-0.460545
-0.415819
0.179681
0.0475152
0.408712
0.232102
-0.106229
0.396817
-0.442921
0.436911
0.685575
-0.0970908
-0.286011
-0.381007
-0.123693
-0.213235
0.435564
0.351283
0.0464288
-0.387059
-0.0625719
0.410726
-0.396513
0.465063
-0.231282
0.119741
0.38532
-0.0205321
-0.146233
0.136117
0.521011
0.509121
-0.13408
0.557673
-0.404347
0.213371
0.331751
0.529691
0.484891
-0.0113898
0.478344
-0.0175081
0.27985
-0.226732
-0.23271
0.0931248
0.223936
-0.411448
0.427504
-0.354194
-0.209729
-0.418074
-0.424327
0.363658
0.371951
-0.340257
-0.285598
-0.291454
-0.131755
0.132507
-0.129342
-0.442914
0.475866
-0.382131
-0.308435
0.669148
0.421395
0.0135949
0.14703
-0.116348
0.101393
-0.830984
0.384044
0.0690378
0.353235
0.222296
-0.464346
0.397797
-0.367551
-0.39224
0.0878763
-0.166487
0.136141
0.0278795
-0.451744
0.242282
0.263148
-0.306388
0.0462041
0.434242
0.251353
0.0819613
-0.293515
-0.046744
0.0210418
-0.0186239
-0.0861249
-0.199751
-0.276672
-0.258691
0.318575
-0.411791
-0.0528197
0.456265
0.017097
-0.446036
0.100933
0.131685
-0.25058
-0.0623975
-0.162978
0.389612
0.238882
0.422217
-0.4663
-0.378846
-0.397451
0.439764
1.65582
0.10549
-0.0114509
-0.167144
0.0339248
-0.0816898
-2.50343
0.868594
-0.0708581
-0.156758
-0.0881222
-0.13091
0.185584
-0.00103585
0.171057
-0.00160424
-0.0485569
-0.267029
0.29946
-0.0371982
-0.113346
0.0221772
0.0184243
-0.443981
0.258751
0.142741
-0.0934765
-0.18952
0.315843
0.0663288
-0.107531
0.0202174
0.133016
0.0111919
-0.185048
0.193329
-0.278667
0.265697
0.0217441
0.122589
-0.113274
0.11066
-0.0621393
0.231531
-0.258632
-0.00874056
0.197231
-0.248851
-0.138112
0.201282
-0.161626
-3.02717
-0.293311
-0.202285
-0.483147
0.127827
0.0319472
0.0953482
0.288816
0.317581
0.0392443
0.472731
0.0496084
-0.0325468
0.120468
0.353203
0.0956004
-0.0478718
-0.0437185
0.191116
-0.0692783
-0.400652
0.176175
0.311257
-0.362701
-0.462873
0.307597
0.15067
-0.483451
0.231817
0.37057
0.0420393
-0.0837454
0.391187
0.305249
0.406528
0.428365
-0.0777637
0.0565937
0.195402
0.259616
0.222885
-0.0514124
0.21849
-0.251413
-0.396435
-0.0443383
0.0478562
0.270503
0.441907
-0.319448
-0.0671405
0.130919
0.148779
-0.249216
-0.464719
-0.0539942
-0.204117
0.256112
-0.295905
-0.376597
-0.222203
0.382181
-0.114871
0.0295449
0.256943
-0.205108
-0.421493
0.0954656
0.118641
-0.242548
0.348705
0.00661766
-0.306303
0.148686
0.116471
0.149433
0.428975
-0.242583
-0.469762
-0.493091
0.208089
0.253311
0.0986618
-0.477398
-0.0165395
-0.202749
-0.403421
-0.0126939
0.340017
-0.253
0.0832558
0.442003
0.396237
0.160792
0.275576
0.447415
0.174973
0.44039
0.414488
0.150038
-0.202552
-0.433805
-0.261371
-0.302877
0.179646
-0.166415
0.489737
-0.0979276
-0.216052
0.403475
0.120585
-0.403494
0.179574
-0.103444
0.137643
-0.687912
0.262061
0.30876
-0.458137
0.107293
-0.33955
0.0316511
0.192078
0.347284
0.453026
-0.363767
0.217221
0.180913
0.0857402
0.222563
-0.440905
0.0040198
-0.232765
0.110732
0.0924236
-0.469862
0.325697
-0.00234818
0.0159992
0.32397
0.432389
-0.465658
-0.0413204
0.053441
-0.158011
0.326523
-0.0295593
-0.0430061
0.143834
0.331778
0.0170618
-0.414644
-0.167236
-0.339535
0.265822
0.0962855
-0.180321
-0.0337399
0.344867
0.186186
0.299201
0.0826701
0.332929
0.239266
-0.19176
0.29994
-0.394648
-0.657706
-0.0734903
0.490814
0.434665
-0.462055
0.341518
-0.390779
-0.107722
0.0550251
0.457462
0.0660839
0.134582
0.0867122
0.15328
0.366849
0.287691
0.394875
-0.174536
0.295353
-0.51044
0.39176
-0.461074
0.350173
-0.286901
-0.053732
-0.108429
0.0381418
-0.0535827
0.359801
0.192845
0.458848
0.218451
-0.253754
-0.10073
-0.31398
0.0658247
0.251436
0.159374
0.37462
0.0198969
0.207202
0.226292
0.00633272
0.0697128
-0.0778223
-0.534135
0.233208
0.233573
-0.492028
0.403746
0.0211996
-0.381152
0.455142
0.0290151
-0.188311
-0.283434
-0.511027
-0.0354946
-0.227612
-0.0985676
0.390402
0.311416
-0.298259
0.145941
-0.474105
0.404732
-0.41665
-0.105239
-0.551593
-0.304624
0.22946
0.340449
-0.295053
-0.41641
0.256032
-0.343965
-0.126623
0.466821
-0.0769484
-0.31654
0.0329532
0.377227
0.0767486
-0.0362509
-0.0486247
-0.320293
-0.386746
0.267541
-0.397408
0.195884
0.366298
-0.0899102
-0.112977
0.348064
0.460523
-0.311648
0.412804
-0.294049
-0.0690788
0.32632
0.509025
-0.151305
-0.030264
0.373649
0.0738267
0.371107
-0.676722
-0.395734
-0.20913
-0.231582
-0.329968
0.131643
0.436108
0.0408044
0.126661
0.245433
-0.339123
0.175146
-0.434877
0.345047
-0.20215
0.0325718
-0.280916
0.104274
0.247544
0.0976588
0.161246
0.109067
-0.245719
-0.235145
-0.309408
-0.0627771
0.419593
0.343426
-0.0779978
-0.094326
-0.258134
0.114814
-0.262469
0.331445
-0.00204265
0.154317
-0.153832
0.334759
0.477698
0.0944275
0.365657
-0.0547677
-0.406799
-0.324299
-0.0267215
-0.210518
0.496246
-0.0408916
-0.182721
0.406117
-0.420065
0.230547
-0.415762
0.467655
0.277726
-0.21467
0.426061
0.140829
-0.347789
0.29842
0.374094
-0.536822
0.284345
-0.407668
0.422691
0.0418113
-0.154017
-0.0920562
-0.395325
0.292838
0.181251
0.488898
-0.453724
0.105649
0.326585
-0.0463153
0.251871
-0.206512
0.0545984
0.259453
0.310619
0.0105184
-0.373922
-0.104119
-0.15595
0.0282511
0.601169
-0.333489
0.451751
-0.386207
-0.300043
0.0799139
-0.302402
0.356837
-0.418254
0.210912
-0.392646
-0.123071
-0.767003
-0.179373
-0.347148
-0.367336
-0.207351
0.12042
-0.0615339
0.280845
0.391088
0.154823
0.128009
-0.12336
0.0823679
-0.413238
0.388444
0.215487
-0.194649
0.401481
0.496438
0.327607
0.392397
0.320114
-0.0211714
-0.0982115
-0.280367
0.218964
0.512344
0.12604
-0.142076
0.259004
0.173987
0.159167
-0.109579
0.0244515
-0.147479
-0.399571
0.263821
-0.182914
-0.448487
-0.367849
-0.536393
0.4391
0.0715172
0.379343
-0.0511478
-0.387884
0.407213
0.220121
-0.354649
-0.45016
-0.343774
0.111809
0.291214
0.333868
-0.0715298
-0.169627
-0.178604
-0.0962885
-0.509471
0.120196
0.144607
0.384525
-0.348371
0.0614072
-0.0999191
-0.190249
-0.122669
-0.374444
0.0354757
0.276497
-0.415247
0.0476237
0.306161
0.235122
-0.348957
0.387667
-0.375491
-0.427678
0.00958887
-0.175775
-0.269624
0.0756958
0.0481904
0.000571896
-0.287489
-0.240371
0.0281534
0.251673
0.0449722
-0.424019
-0.407377
-0.127456
0.431684
-0.366791
0.21718
0.104498
-0.430726
-0.497917
-0.29784
0.428519
0.146284
0.424238
-0.379149
-0.0133808
-0.444151
-0.459016
0.516559
-0.13613
0.417329
0.321783
-0.156862
-0.368406
0.465907
-0.205575
0.440102
-0.144217
0.00151459
0.185942
0.194163
-0.374188
-0.12754
-0.0885374
-0.13419
0.0399845
-0.150325
-0.00587187
-0.124815
-0.0362889
-0.245423
0.250135
0.429426
0.217935
0.354551
-0.513162
0.202792
-0.5027
0.434046
0.0372185
-0.449917
0.158341
0.0796685
-0.242199
-0.381133
-0.0198363
0.244032
-0.363958
-0.0728193
0.419923
-0.222659
0.406635
-0.157786
0.444332
0.0505391
0.136338
0.352246
0.436972
-0.156605
-0.0216107
0.148591
0.181257
0.370203
0.435622
-0.54748
-0.113057
-0.105063
-0.125256
-0.379786
-0.121409
-0.364539
-0.071129
-0.419757
0.201467
0.206194
0.221795
0.434389
-0.129593
0.094907
-0.153802
-0.0976228
-0.252083
-0.181556
0.254703
0.0133848
0.330393
-0.0201919
0.165218
-0.324207
-0.125654
0.0482659
-0.162184
-0.0205437
0.369861
-0.197674
-0.356547
-0.355786
0.0210171
-0.405241
-0.18438
0.420045
-0.33229
-0.16716
-0.392965
-0.254596
0.0816689
0.0589042
0.411182
0.14104
-0.232348
0.4171
0.158847
0.522032
-0.158252
-0.409154
-0.440397
-0.142479
0.302184
-0.313429
-0.22309
0.433642
0.247007
-0.195169
0.035735
-0.174487
0.509447
-0.227202
0.402759
-0.103233
0.11266
-0.516085
-0.474836
-0.110664
-0.186008
0.232979
-0.0413504
-0.278736
-0.223763
-0.471482
0.329133
0.0491322
-0.143455
0.240044
-0.438098
0.0490947
0.128633
-0.39673
0.0987335
-0.474694
0.259877
-0.2242
0.0259835
-0.348628
-0.379701
-0.00767439
-0.319429
-0.0664474
-0.39858
-0.24983
0.418668
-0.25492
0.381965
0.00832801
0.132716
-0.462804
-0.466763
-0.449638
0.22218
0.427553
0.98351
-0.422267
0.393305
-0.215359
-0.295678
-0.166887
-0.2256
0.785237
-0.0845076
0.150618
-0.132123
0.387558
-0.31151
0.517408
-0.366745
-0.364063
0.325755
-0.284065
-0.33019
0.414825
0.316293
0.0346075
-0.31967
0.455873
-0.263379
0.163168
-0.00386702
0.135734
0.420396
0.0451289
-0.385391
-0.104146
-0.0377905
-0.195947
-0.279014
0.374637
-0.201893
-0.538607
-0.0733606
-0.13738
-0.0790197
-0.149858
0.252102
0.0978421
-0.247167
-0.418208
0.404728
-0.36741
-0.424438
-0.493532
0.0089371
-1.20444
0.350191
0.164517
0.455591
0.189328
0.298536
0.234634
0.401782
0.368565
-0.156959
-0.202116
-0.0490461
-0.0351087
-0.426441
0.253617
0.309644
0.134713
0.0188693
-0.074519
-0.318426
0.0829265
0.451978
0.302207
0.143659
-0.109663
0.476716
0.368233
-0.155279
0.362689
-0.486472
0.149317
0.0138162
0.266549
0.252203
-0.194437
0.256958
-0.479687
-0.297088
0.077707
-0.285725
-0.19793
0.0806914
0.128421
0.045901
0.258174
-0.157043
0.0676624
0.431939
-0.30468
0.464746
-0.329991
-0.228345
0.356712
-0.081121
0.380029
-0.300285
0.179293
0.205282
0.125312
-0.491409
0.297077
1.01362
-0.225239
-0.0541943
-0.213219
0.138129
0.279996
0.449735
0.0620888
-0.24617
-0.0423847
-0.221722
-0.228194
-0.211335
-0.278744
-0.0172976
-0.100289
0.220942
0.0636254
-0.160496
-0.0900316
0.133668
-0.262738
0.402491
0.0731233
0.352465
-0.22204
-0.202017
0.532514
0.163941
-0.381071
-0.380518
-0.220962
-0.349845
0.00131797
0.450819
0.309915
0.23469
0.110782
-0.400317
0.22256
0.115718
0.0733194
-0.465923
0.265976
-0.347368
0.722983
-0.0977859
-1.24257
-0.242297
0.17949
0.121893
0.0449223
0.0568068
2.67719
3.51535
0.506356
-0.0538233
-0.0683147
-0.0228543
-0.128247
0.0311755
0.0875844
-0.0470992
0.0544892
0.0850717
-0.0329206
0.217244
-0.110563
-0.134087
0.0336118
0.163423
0.0937702
0.124665
-0.234679
0.158211
0.00871203
-0.0238948
-0.295193
0.0730779
0.188271
-0.162411
0.191149
0.104039
-0.317378
0.247963
0.0766461
0.0843671
-0.0648602
-0.0914303
0.215445
0.121659
-0.338295
0.159832
-0.0254758
-0.100361
0.160125
-0.00116587
-0.375561
2.36532
0.314448
0.0020461
-0.462203
-0.473273
0.376452
0.400418
-0.422112
0.14194
-0.206149
0.309907
-0.00281287
0.487904
0.342424
0.532747
0.335231
-0.107415
0.436007
-0.258542
0.0212614
0.269614
-0.303233
0.448423
-0.17056
-0.36377
0.387357
-0.272219
0.469595
-0.0730101
0.145605
-0.0825369
0.284952
-0.136337
0.431878
0.105824
0.0929512
0.178736
-0.182157
0.0753282
0.422387
0.0949803
0.171544
0.461162
-0.106629
-0.185442
0.314833
-0.0892416
-0.116242
0.229778
-0.0457056
0.199836
0.108634
-0.467388
-0.382144
-0.124872
0.432519
0.0696559
0.0939161
-0.468688
0.159803
-0.130446
-0.0335975
0.41182
0.201303
-0.128536
0.423926
-0.426174
0.00779228
0.199509
-0.00498617
-0.090258
0.386037
0.362195
0.137026
0.26669
-0.225538
0.242718
0.251761
-0.338591
0.164905
0.473475
0.126008
-0.203094
-0.326215
0.280537
-0.142257
-0.131641
0.18521
-0.336738
0.0699391
-0.139187
0.479993
0.360998
-0.155848
-0.229969
-0.0742546
0.542236
0.485452
-0.420294
0.179299
-0.0586114
-0.271567
0.0907174
-0.207048
0.156765
-0.0544644
-0.488951
0.264787
-0.437557
0.206537
0.544062
-0.236645
-0.0464099
0.228988
0.48203
0.102577
0.282344
-0.0885679
0.507437
0.300854
-0.00866992
0.0781713
0.237937
-0.582562
0.0128295
-0.397605
-0.39904
0.0500864
-0.321113
-0.319756
-0.232815
0.383511
0.0690628
0.255059
0.434908
0.0404079
-0.245438
-0.384527
-0.166171
-0.407328
0.421127
-0.0977534
0.0920573
-0.0382756
0.318892
-0.2864
-0.390216
0.432048
0.0474042
-0.17394
-0.199427
0.0579333
-0.393499
-0.0746282
0.189239
-0.458883
-0.469719
0.385341
0.0325367
-0.253124
-0.464618
0.330923
-0.342479
0.15672
0.291588
-0.0200515
-0.334031
1.04798
0.364232
0.352287
0.302358
0.422826
-0.260546
-0.351442
-0.449384
0.0553771
-0.266886
0.0623317
0.276497
0.293777
0.333642
0.145669
-0.0687996
-0.430707
-0.0464022
0.00341193
0.162238
-0.182491
-0.0786264
-0.471987
0.126865
0.0685248
0.534475
0.407744
-0.00591064
-0.0918421
-0.327734
-0.0815031
-0.273214
-0.31816
-0.263878
0.328227
-0.134963
0.400356
-0.279431
0.103895
-0.268385
0.460785
0.290956
0.153069
0.31544
0.00394888
0.695308
0.226913
0.755712
0.124813
-0.0299665
0.140735
0.117843
0.131386
0.838391
0.568821
0.298425
0.0469676
-0.407385
-0.308152
-0.295404
0.136061
0.033061
0.0903595
0.170222
0.321739
0.218928
-0.144345
-0.384021
-0.357519
-0.327008
-0.0922166
0.170491
0.29423
0.215205
0.337767
0.0822315
-0.399242
-0.165447
-0.216271
-0.276329
0.0749779
-0.36082
0.37445
0.378064
0.386091
0.507909
0.302895
-0.25948
0.00319316
-0.383402
-0.168286
0.33635
-0.245724
-0.299185
-0.362913
-0.12688
-0.159316
-0.187275
-0.883068
-0.0458568
-0.261461
0.336368
0.219985
0.0334699
-0.156454
-0.136724
0.671113
-0.0318511
0.188514
0.121458
-0.422486
-0.102797
0.146967
-0.0721106
0.416339
-0.0254385
0.04362
0.229749
-0.263504
-0.407212
0.368903
-0.502914
0.0377024
0.00197361
0.0177751
0.347195
-0.354039
0.19192
0.381954
-0.121726
-0.494062
-0.106534
-0.0600331
-0.190289
0.269222
-0.0541154
-0.170672
0.0546086
0.374318
-0.356131
0.349591
-0.458969
0.152727
0.153977
0.349703
0.313113
-0.0268792
0.0332756
0.252026
-0.154601
-0.348858
0.809507
-0.0164646
1.2557
-0.458385
-0.0499618
0.123935
0.0939076
-0.256379
-1.75461
-1.0105
0.246817
-0.142329
-0.0992431
0.0397015
0.00412868
-0.00738468
0.241129
0.262231
-0.0923605
-0.163446
-0.22081
0.14411
0.0533118
-0.106664
0.0305891
-0.25623
0.423149
-0.0310198
-0.170195
0.342412
-0.194416
-0.111525
-0.0401441
0.181784
0.238151
-0.287477
-0.100695
0.234792
0.078537
0.166399
0.168281
-0.190318
0.246034
-0.264888
0.119949
0.292864
-0.294127
-0.00273447
-0.38649
0.404979
0.109339
-0.084029
0.0627716
-2.39669
-0.131053
-0.142911
-0.175078
0.336515
0.165374
-0.276847
-0.532868
0.132584
-0.108992
-0.115537
-0.26077
-0.29514
0.00316379
-0.357119
-0.52078
-0.282328
-0.472483
0.211254
0.139309
0.112155
-0.238799
-0.178522
-0.185305
-0.0942081
-0.0159975
0.210051
-0.115067
-0.522127
0.0974733
-0.423076
0.247459
-0.0855138
0.378037
-0.397491
-0.547298
0.373569
0.405465
-0.522251
0.334393
-0.110586
-0.370037
0.0926091
-0.00834464
-0.30259
-0.0255491
-0.209198
0.231517
0.195455
0.201213
-0.21651
-0.422966
-0.180198
0.571413
-0.43148
-0.672883
-0.159129
0.147372
-0.224389
-0.130781
0.438309
0.788564
-0.268714
0.0948096
0.428366
0.422395
0.322261
0.292507
-0.0578789
-0.471886
0.3409
-0.106451
0.107862
-0.14081
-0.390595
-0.0031245
-0.341325
-0.0125416
0.0184975
0.318549
0.144178
-0.0271104
-0.0569411
0.0525057
-0.379659
0.461382
-0.319055
-0.357916
-0.398842
-0.0105812
-0.327099
0.154602
-0.392799
-0.269388
0.0246805
0.118567
-0.0223969
0.0761865
-0.180044
0.0703529
-0.307732
0.207414
-0.00603876
-0.063667
-0.161878
0.0801676
0.79589
-0.393057
-0.167398
-0.320744
0.438793
0.25073
-0.220594
-0.171922
-0.801296
-0.416501
-0.322655
0.0375476
-0.156631
-0.25392
-0.354543
0.116243
-0.109437
-0.409534
0.472749
0.278472
0.21908
-0.184963
-0.336868
-0.161499
-0.336062
-0.36784
-0.288054
0.555467
-0.0426648
0.530646
0.105031
0.256915
-0.219017
-0.36079
-0.261415
-0.205318
-0.337687
-0.341795
0.080897
-0.0762797
-0.271906
0.378363
0.147691
-0.145286
0.0711369
0.305461
-0.416539
0.403941
-0.182489
0.0552641
0.248491
0.166073
-0.217019
0.172909
0.0347377
-0.763195
0.114775
-0.0773676
-0.305357
-0.594172
0.0199671
-0.258909
-0.348695
-0.460032
0.120783
-0.159481
-0.305489
-0.0144355
0.304376
-0.0941498
0.352688
-0.27828
0.022183
0.0301687
0.294027
-0.198331
-0.0014777
-0.362155
0.291177
0.0651039
0.317019
-0.118636
0.386428
-0.0540625
-0.187442
-0.418368
0.417992
-0.521638
0.418294
0.252423
-0.305112
-0.191547
-0.10076
0.4311
0.0288415
0.218107
-0.225119
0.308613
0.274732
-0.335237
0.241358
0.0841438
-0.254291
-0.443669
0.31214
-0.0888557
0.629936
-0.203374
0.198232
-0.236609
-0.130361
-0.415559
-0.555731
0.0145687
-0.0544901
-0.131965
-0.00356126
0.119897
-0.0379942
-0.229047
-0.203281
-0.311027
0.324865
-0.219056
0.275068
-0.558276
-0.648193
0.293556
0.214696
-0.103235
-0.0761732
0.216271
-0.172876
-0.0128397
0.355988
0.440315
0.353271
0.16353
-0.267597
-0.0328397
-0.16113
-0.0840895
0.0466604
-0.0795162
0.102021
0.375482
-0.280182
-0.14584
0.202422
0.0766806
-0.0374628
0.233531
-0.411265
-0.360256
0.133867
-0.316661
0.334993
-0.456637
-0.395536
0.253504
-0.120684
-0.28094
-0.371819
-0.290574
0.209565
-0.372494
0.0144989
0.941359
-0.441342
0.394391
0.299214
-0.211915
0.272932
0.213949
0.16622
0.209092
0.277298
-0.398894
0.191767
-0.203002
-0.14296
-0.315457
-0.450958
-0.380882
0.181998
-0.118134
0.337747
0.10421
0.0856352
-0.0445821
0.312761
-0.505864
-0.299017
0.225528
0.327017
-0.120029
-0.206523
0.0666844
-0.25785
0.371137
-0.0583052
0.170617
0.376051
0.355365
0.158741
-0.291934
-0.1487
-0.297578
0.293946
0.302632
-0.330403
-0.398868
0.922906
-0.300752
0.508145
0.239979
0.265226
0.159702
-0.0270105
-0.277993
-0.945327
-0.923485
-0.537245
-0.223236
-0.29074
0.0253788
-0.459293
0.0133608
0.120451
-0.25391
-0.44728
-0.202592
0.207074
0.325226
-0.324244
-0.443865
-0.297279
-0.233896
-0.0575166
-0.0727912
0.456353
0.304306
-0.133473
-0.286126
0.0988044
0.161114
0.149238
0.248558
0.21645
-0.197014
-0.279894
-0.112146
-0.260925
-0.277099
0.267471
0.346355
-0.0033392
0.116364
-0.0136875
-0.125145
-0.242937
-0.0100097
-0.0285425
0.187502
0.195096
-1.07175
0.31579
0.376438
0.370546
0.461089
-0.0192775
1.82685
0.0578452
-0.461767
-0.650318
-0.212345
-0.967176
0.195255
0.0314691
-0.485954
0.0957771
0.117088
-0.383465
-0.430244
-0.481553
-1.25082
0.900723
0.513318
0.00524742
-0.779334
-2.41397
-0.0484842
0.455572
0.432638
-0.505066
-0.0823272
0.190201
-0.150644
0.393301
0.486214
0.169865
0.0301065
-0.00572712
-1.2441
0.253257
0.665781
2.37415
0.0916721
-0.330844
0.154835
0.424075
-0.593992
0.744424
-1.65277
0.355776
0.835386
0.195857
0.687106
0.443843
0.974528
-0.501911
-0.142337
0.370886
-0.275009
-0.0737372
0.150072
-0.350323
0.0889484
-0.21033
0.100971
-0.354102
0.453573
-0.452326
0.0493745
0.389394
0.410955
0.270945
0.31573
-0.37054
0.299479
0.317281
-0.0751789
-0.451496
0.447818
-0.443288
-0.241602
-0.199633
0.0305317
-0.138283
0.381391
0.0740619
0.170542
-0.128425
0.46114
-0.225053
0.281489
0.0965174
0.402576
-0.0749013
-0.396131
0.207444
0.0369894
0.0272532
-0.228824
-0.240528
-0.0195037
-0.169074
-0.238265
0.0179743
-0.031549
-0.0145989
0.296304
0.0257444
0.333398
-0.342266
0.0164823
-0.428637
-0.029366
0.0498748
0.0869464
0.231123
0.245882
0.461352
0.127201
-0.0350574
-0.0703648
-0.414072
-0.104084
0.432791
-0.185322
-0.309012
0.0769463
-0.220537
0.0839338
-0.425277
-0.254755
0.0556135
-0.489452
0.332241
-0.205829
-0.0677904
0.0195377
0.12841
-0.325524
-0.0304919
0.174987
-0.215688
-0.113551
-0.251089
-0.428279
0.190815
-0.444775
-0.492302
-0.316317
0.0576701
0.180869
0.0646571
0.32797
-0.0450657
0.399122
0.145691
-0.355822
0.330299
0.376763
-0.427169
0.288994
-0.290836
0.260764
-0.281888
0.257414
0.148412
-0.436554
0.337817
-0.311029
0.343271
0.14887
-0.0427873
0.0760764
-0.208458
-0.368424
-0.505263
-0.0398229
0.394895
0.415437
0.113301
-0.276898
0.426299
0.370538
-0.288135
-0.0563288
-0.495455
0.120344
-0.552221
0.184349
0.0879512
0.0399276
-0.32605
0.0392779
0.051616
-0.293334
-0.319973
0.302373
0.399935
-0.381833
-0.0291995
-0.105184
-0.0447404
-0.0518528
-0.176393
-0.0404963
-0.446779
0.302587
-0.271829
-0.441985
-0.327181
-0.467313
-0.260298
-0.466341
-0.12857
-0.197061
-0.314815
0.439565
-0.0811249
-0.219107
0.511309
-0.253349
-0.323073
0.146367
-0.200774
0.39119
-0.578072
-0.257191
-0.311078
0.0658533
0.255288
0.363508
0.328781
0.410804
0.283903
-0.116204
0.00421754
-0.075097
-0.232231
0.244637
0.309256
-0.0298441
-0.377401
0.371345
-0.0289042
-0.342268
0.490531
-0.326911
-0.44154
0.42775
-0.320427
0.241049
0.359525
0.02041
0.44858
-0.170965
0.0731241
0.36731
-0.516952
-0.106826
-0.0820674
0.0647908
0.272718
0.0906579
0.0921806
-0.424869
-0.211366
0.231247
-0.2649
0.548113
0.206496
0.16956
0.0209933
0.415539
0.24704
-0.358305
-0.306399
-0.158802
-0.524876
-0.169821
-0.341627
-0.380667
0.0460827
-0.153299
0.157714
0.390232
0.0754407
0.169028
-0.138302
-0.285219
0.015393
0.0951952
-0.461444
-0.0904318
-0.407917
-0.378314
-0.15381
0.34417
0.276237
0.0414927
-0.326641
-0.195368
0.1136
-0.0716393
-0.523983
-0.525817
0.342396
0.505713
-0.342856
-0.389287
0.43335
0.0156884
-0.348481
0.264657
0.050633
-0.447058
-0.0799102
-0.0878762
0.172872
-0.330851
-0.17488
-0.414888
0.0220075
-0.259017
-0.263441
0.0356088
-0.446011
0.290677
0.41387
0.160967
0.0834388
0.256094
0.187237
0.036623
0.303694
0.386608
-0.192422
0.354206
0.0717842
0.0177592
-0.22079
0.343673
-0.279818
0.328725
0.0420511
-0.458504
0.00316109
0.208687
-0.0411989
-0.510407
0.173535
0.301478
-0.00771819
-0.138893
0.428736
-0.195338
-0.398424
-0.185543
-0.313746
0.0381057
0.281523
-0.174587
0.249437
-0.169972
-0.223559
0.390455
0.561508
0.0884241
0.0172559
-0.359815
-0.0582214
0.0785686
0.269863
-0.568517
0.177926
0.035156
0.495329
-0.325605
-0.231005
-0.232245
0.099836
-0.461297
0.249819
0.24572
-0.396263
0.21293
0.187478
0.164286
-0.121303
0.0522736
-0.499735
0.409915
-0.438475
0.0480996
0.303637
-0.499764
0.325457
-0.356604
0.428475
0.29111
-0.261771
0.310439
0.194487
-0.284772
-0.168885
0.0372706
-0.37452
-0.242588
-0.149243
0.272414
0.143338
-0.131373
-0.439757
-0.166877
0.160935
-0.369129
0.13119
-0.343625
-0.196635
-0.0905972
0.133754
-0.155266
0.0910953
0.226103
-0.0906341
0.142536
-0.192845
-0.458756
0.391565
0.34227
0.091274
0.373254
0.406769
-0.449621
-0.318965
0.209071
0.272769
-0.00258387
0.251868
-0.620955
0.103215
0.220098
-0.254468
-0.423454
0.0746083
0.327641
-0.131565
-0.347249
0.133927
-0.392055
0.0157588
0.116452
0.241388
0.373214
-0.0729152
-0.231989
-0.25613
-0.0647947
-0.012276
0.347127
-0.516342
0.21029
-0.359343
0.0696743
0.326983
0.201048
-0.403036
0.403446
-0.441648
0.253661
0.0216331
-0.00489666
0.377716
-0.5121
-0.756485
0.0311763
-0.371097
-0.130999
-0.400293
-0.439278
-0.12798
-0.182506
0.347127
-0.238456
-0.274633
-0.382795
-0.443363
-0.467721
0.32612
0.285675
-0.328029
-0.489118
0.0552079
-0.917647
-0.23713
0.018378
0.0960112
0.4694
0.172117
-0.0431246
-0.220379
0.32444
-0.188096
0.101705
-0.185097
-0.288222
-0.00647855
0.36069
-0.174114
-0.574744
-0.242266
-0.391984
0.229701
0.366828
-0.0286333
-0.0287892
0.285743
-0.145597
0.0472728
-0.18754
-0.586411
-0.0593251
-0.144377
0.437684
0.027663
0.223859
0.15975
-0.370644
0.156716
-0.496733
0.260512
-0.102517
-0.192704
-0.0260903
-0.583212
0.771036
-0.352917
-0.429858
0.194555
-0.120025
-0.0923287
-0.285913
0.0738397
0.0475917
-0.459958
-0.1191
-0.345272
-0.502381
0.453964
-0.0987676
0.221057
0.101631
-0.178876
-0.391356
0.259114
-0.0479941
-0.272894
-0.138582
-0.508513
-0.181786
-0.0447336
-0.0560167
0.070206
-0.504629
0.289334
-0.0381459
-0.127985
0.435939
-0.264852
-0.299219
0.530978
-0.239556
-0.0185948
0.076287
-0.536442
-0.308722
0.383232
0.451261
-0.148035
0.350099
-0.483494
-0.321614
-0.386729
-0.492478
0.215438
0.224496
-0.435746
-0.338394
0.272402
-0.233537
-0.25345
-0.233858
-0.0282052
0.467409
0.178313
0.252647
0.414142
0.309021
0.0236447
0.363009
-0.543008
0.0953881
-0.0224256
-0.148543
-0.275593
-0.248675
0.33148
-0.434515
0.386334
-0.391549
-0.0554426
-0.00915984
0.172582
-0.267112
-0.585892
0.116244
0.0772623
0.277598
-0.153817
0.339139
0.49178
-0.0731925
0.261382
0.0484754
0.457496
-0.0412594
0.208871
-0.218554
-0.159394
-0.296934
0.049909
-0.474903
0.00251922
-0.213907
0.0914538
-0.227132
-0.545586
0.206413
-0.325344
-0.16066
0.0317375
0.101338
0.173902
0.538624
-0.348132
-0.428627
-0.545572
0.113299
0.143149
0.270448
0.0467043
0.387969
0.283737
-0.120798
0.117581
-0.148707
-0.442216
-0.508715
-0.15633
0.325148
0.246377
0.161744
0.358783
0.189219
0.257924
0.0437229
-0.441041
0.315632
0.344595
-0.0149921
-0.200342
-0.233459
-0.427234
0.439728
-0.385991
0.47625
0.248641
-0.013876
-0.163728
0.327716
0.163668
-0.0972388
0.323242
0.102778
-0.343182
-0.0381216
0.100448
-0.0221114
-0.508823
0.405638
-0.113426
0.285554
0.154899
-0.200972
-0.10736
-0.0768115
-0.314456
-0.105466
0.440516
0.383388
0.259788
-0.235738
-0.391015
0.279787
-0.0783704
0.337604
0.518791
0.239312
-0.352947
0.47838
-0.241842
0.220726
-0.579468
-0.101818
-0.627329
0.585543
0.37211
-0.231607
0.316784
0.495096
-0.300401
0.0997001
-0.143894
-0.639071
0.144682
0.503746
0.300136
-0.509584
-0.816711
0.291974
0.263171
0.567706
0.198175
-0.200986
0.0200225
-0.182901
0.362954
0.242467
-0.00265188
-0.00144444
0.0875897
-0.715673
0.197768
0.391167
0.689885
-0.0499701
0.284059
0.252389
0.335881
-0.551798
0.587139
-0.418945
0.478278
0.291468
0.182575
0.356681
0.0437436
0.38224
0.263455
-0.289594
0.185523
0.219128
-0.410942
0.0670929
0.01639
-0.0768965
-0.068279
0.223757
-0.227225
0.101091
0.193609
0.0700391
-0.149025
-0.153487
0.0354336
-0.384727
0.456334
-0.334646
-0.399622
-0.161826
-0.454293
-0.223171
0.16313
-0.505158
-0.302586
-0.101168
-0.646206
-0.447396
-0.366114
0.14214
-0.213784
0.268192
-0.538495
0.0850058
-0.246919
0.274
-0.355181
0.221042
0.156196
-0.207585
-0.00498282
-0.0258671
-0.461499
-0.417147
-0.0813729
0.168966
0.123723
0.228077
0.223696
0.0265267
-0.124739
0.167476
0.246541
-0.203552
0.0461272
-0.337628
0.0997519
0.0747094
0.240511
0.124192
-0.381325
-0.265414
-0.128677
-0.292321
0.213045
0.144472
0.142813
0.303025
0.100727
-0.113835
0.115497
0.00819366
0.431903
0.23613
0.1874
0.390212
0.49216
0.103652
-0.391145
0.14089
0.440206
0.468148
0.186505
0.302523
-0.0414731
-0.152712
0.26293
-0.312596
-0.0499521
0.113926
-0.0121386
-0.298434
0.182616
0.419808
0.266811
-0.0538465
-0.107812
0.213256
-0.199108
-0.19795
-0.197472
0.0539054
-0.157231
-0.332017
-0.321822
0.0329378
0.249098
-0.385075
0.273822
-0.5886
-0.138397
-0.515615
-0.0925623
0.162821
-0.139877
0.389308
-0.338754
-0.275078
0.482778
-0.384471
0.442679
-0.475937
-0.544425
0.112178
0.183179
0.419695
-0.462631
0.106088
0.418677
0.409362
0.352266
-0.408158
-0.435076
0.331645
-0.269308
0.117402
-0.328576
-0.146991
-0.0805347
0.249551
-0.572434
0.385278
-0.483884
0.3176
-0.299385
-0.270764
-0.0296171
0.340643
0.297617
-0.475338
-0.407075
-0.10745
0.282485
-0.166056
-0.0254125
-0.171193
0.0114979
0.321165
0.149549
-0.561103
-0.122687
-0.157935
0.419113
0.154705
0.0686448
-0.405597
-0.0715639
-0.253078
-0.206173
0.0471424
-0.318263
-0.350323
0.506645
-0.373634
-0.1041
0.0494421
0.307999
0.335161
0.19237
-0.167198
-0.351348
-0.402471
-0.257878
-0.111362
-0.0333995
-0.35086
0.146306
0.101409
0.356643
0.433382
0.106844
-0.594052
-0.129372
-0.224057
0.136372
-0.507688
-0.177275
0.303543
0.389686
-0.168252
-0.490752
-0.236587
-0.0075938
-0.111631
-0.383196
-0.286295
-0.193516
0.10703
-0.321356
-0.285251
0.240226
0.00910588
0.319211
-0.0116484
-0.447004
-0.00313729
-0.40077
-0.259309
-0.524724
-0.292347
0.037048
-0.121879
0.24239
-0.0766755
-0.128576
-0.564719
-0.440151
0.157997
0.10838
-0.384801
-0.60809
0.0321338
0.364308
-0.195131
0.0990891
-0.0375043
0.507613
-0.10562
0.186208
-0.394576
0.171987
0.0664082
-0.0414799
-0.416083
0.114546
0.281277
0.0447523
0.0957059
-0.297057
-0.334474
0.470068
0.312081
0.342886
0.244518
0.285381
-0.396368
-0.383678
-0.0901224
0.304207
-0.26804
-0.0928304
-0.321301
0.175987
0.376772
-0.400256
-0.0643296
-0.050177
-0.0986956
-0.195081
-0.133989
-0.0383527
-0.196254
-0.0803605
0.385984
-0.199026
0.140818
0.3881
-0.414245
-0.273321
-0.385945
0.227247
0.393287
0.191394
-0.00982411
-0.108023
-0.0600763
0.0720193
0.550189
-0.359194
0.0460541
-0.456345
0.212676
-0.375638
-0.205105
-0.0299572
-0.0707018
0.154864
0.320433
0.348117
0.390114
-0.514607
0.240014
-0.0403858
0.195476
-0.0443694
0.246065
-0.0960996
0.495123
-0.25898
-0.185122
0.426308
-0.214216
-0.254033
0.315527
0.29341
0.0162574
-0.0435335
0.343044
-0.443147
0.34929
0.394594
-0.149289
0.425358
-0.308144
0.371765
-0.266313
-0.309375
0.185578
-0.215113
-0.246585
0.364817
-0.0711261
0.505706
0.539382
0.263245
0.325221
-0.540013
0.349069
0.550793
0.13506
0.377833
0.673013
0.128548
-0.209648
-0.368038
-0.149569
-0.176961
0.0569014
0.0470373
-0.100217
0.391046
0.0647368
0.174581
0.0782307
0.127303
0.0590783
-0.424058
0.0930185
0.411404
-0.291599
0.484699
-0.0839096
0.17445
0.105207
-0.0851945
-0.36509
0.0634167
-0.232294
-0.191774
-0.0463314
0.0859095
-0.031439
0.286079
0.324124
-0.266129
0.322184
-0.357426
-0.408469
-0.241377
0.240284
0.342478
-0.143144
0.0246467
-0.417357
0.263178
0.193758
-0.373959
-0.199112
0.0974488
-0.255617
-0.20584
-0.331255
0.196515
-0.446129
0.0334102
0.122585
-0.344657
0.158811
0.346815
-0.323225
0.248323
-0.0107469
-0.45399
-0.219384
0.272285
0.384645
-0.025816
-0.0462635
-0.45075
0.343528
-0.0643845
-0.317524
-0.447004
-0.279428
-0.169355
0.470398
0.294005
0.47193
0.00101872
-0.378095
0.190694
0.0751827
0.268391
-0.26063
-0.434262
-0.350587
0.468724
-0.478421
-0.159264
0.0998136
0.128488
-0.397663
-0.380477
-0.151676
-0.288273
0.245285
0.541207
0.366186
0.0781975
-0.141722
-0.292141
0.317093
0.362117
0.204624
0.414647
0.0888198
-0.422116
0.458361
-0.435665
-0.302471
-0.336065
0.26335
-0.278628
0.486196
-0.225705
-0.0231701
0.215395
-0.291778
0.026259
0.394909
-0.343505
-0.0791771
0.180632
0.0206124
-0.149584
0.103987
0.0795153
0.309716
0.113874
0.0801172
-0.173345
0.180976
-0.19811
0.390984
0.241786
-0.376746
-0.438329
-0.242356
0.247817
-0.0782267
-0.125691
0.099772
0.0726854
-0.362592
0.0609125
-0.125523
0.310562
0.112665
0.168904
-0.501627
0.015378
0.0788603
-0.334669
0.316944
-0.211164
-0.112937
-0.145694
0.251959
0.372242
0.0712353
-0.433666
-0.313062
0.3895
0.0256571
-0.442235
0.166725
-0.41159
-0.0905071
0.105992
-0.213884
-0.150466
0.407458
0.275555
-0.283324
-0.413464
0.338198
0.32864
0.0421441
0.161101
-0.0097099
-0.164093
-0.410876
-0.184266
-0.487015
-0.0738369
0.358835
0.211052
-0.361863
-0.189825
-0.368668
-0.0782868
0.471464
-0.346151
0.0900094
0.295251
-0.450665
0.0677655
-0.24293
-0.221606
-0.132201
-0.220463
-0.00495149
0.407244
0.313351
0.203973
-0.306393
-0.222653
-0.439983
-0.272693
-0.244854
0.320187
0.119575
-0.278213
0.193235
0.403018
-0.323574
-0.416135
-0.027064
-0.430921
0.444419
0.305448
-0.184786
0.25518
0.18355
0.318244
0.510295
-0.329869
0.409601
-0.549707
0.351065
-0.380643
-0.0743893
-0.409465
-0.290537
-0.384258
0.189153
0.185659
0.182529
0.193358
0.261405
-0.170918
0.402196
0.114802
-0.484447
-0.409292
-0.656261
0.266374
-0.478445
-0.308537
0.20568
-0.0939045
0.345053
0.0925518
-0.0732405
-0.46771
-0.340834
-0.378126
0.119386
-0.426544
-0.233997
0.125076
-0.524389
-0.42914
0.123991
0.168219
0.10379
-0.0255679
0.302682
0.117702
0.265491
-0.100335
0.0274214
-0.0804223
0.0925723
0.413939
0.421029
0.123613
-0.475153
0.043378
-0.200295
0.303478
0.413467
0.0750757
0.402777
-0.416887
-0.209838
-0.423304
0.0741948
-0.512163
-0.479353
-0.330981
0.398968
0.399073
-0.268562
0.265415
-0.293716
-0.217166
0.408772
-0.147094
0.483437
-0.146027
0.382208
-0.283272
0.131063
-0.375183
-0.122885
-0.158572
0.252984
-0.0182927
0.198102
-0.411147
0.166806
0.131599
-0.275757
-0.126353
0.366292
-0.543059
-0.405239
-0.452881
-0.183317
-0.221876
0.343689
0.274612
-0.398844
-0.294426
0.326907
-0.111651
-0.343683
-0.336958
-0.516733
-0.421751
0.00643036
-0.0200578
0.293832
-0.0293523
-0.196315
-0.210025
-0.346807
-0.0733397
-0.27907
0.173227
-0.137924
-0.160033
-0.404193
-0.20209
-0.292799
-0.2503
-0.305471
-0.105406
0.374341
0.387412
0.422504
0.414781
0.302812
0.0845079
-0.305204
-0.259649
-0.3689
-0.0841212
-0.374403
0.14285
0.210193
-0.480244
0.149036
-0.192623
-0.193439
-0.472733
-0.213715
0.159066
0.0241827
-0.0576868
-0.363501
-0.433386
0.0938518
-0.071784
0.058556
0.412837
-0.120139
0.408334
-0.156675
-0.36209
-0.000988507
-0.201276
-0.0976583
0.419659
0.00818684
-0.163063
0.431582
0.235745
0.147421
-0.428374
-0.335388
0.414604
0.339129
-0.538369
-0.265505
-0.0101892
-0.493018
-0.0795428
-0.171848
0.153567
0.00597846
0.0313358
-0.10051
0.251027
0.117812
0.297635
-0.460031
-0.411911
-0.364603
0.115595
0.207688
0.0704962
0.0508733
0.434903
0.134185
-0.12715
-0.119981
-0.495283
-0.270529
-0.0430216
0.43386
-0.299471
0.381135
0.0057843
-0.234654
-0.497008
-0.412056
-0.334274
0.40068
-0.345631
-0.136495
-0.363021
0.17722
0.39508
0.0299431
0.107268
0.170392
-0.0522748
-0.323353
-0.509576
-0.235349
0.0485525
-0.472528
0.0322353
-0.139627
0.466444
-0.402632
0.442573
0.0115876
-0.424714
0.341598
-0.262838
0.169455
0.38977
-0.245476
-0.146266
-0.118054
-0.379956
0.182398
0.234517
-0.463209
-0.00237568
0.145605
-0.154786
-0.184188
-0.0699994
0.194055
0.410366
0.417103
0.465699
-0.326219
-0.078209
-0.329859
-0.455172
-0.391664
0.427563
0.350444
-0.0252615
-0.196529
-0.452981
0.0970464
-0.00375237
-0.430294
-0.249018
-0.0515139
-0.304848
-0.47335
0.320016
0.0803524
-0.197308
0.0990081
0.194911
-0.451619
-0.11827
0.483841
0.391049
0.0103103
-0.386366
0.212199
0.14131
0.00932862
-0.208577
0.131971
-0.338809
-0.38688
0.417891
-0.0576073
0.35248
-0.144261
-0.155557
0.233993
0.173109
-0.32108
-0.103943
0.431853
0.122229
0.0480099
-0.159921
-0.124155
-0.314792
-0.0166101
0.171833
0.0981057
0.119324
-0.0529686
0.270927
0.408582
0.0278075
-0.132934
-0.125571
0.236643
-0.264874
-0.276302
-0.13254
-0.490755
0.329394
0.110598
0.460598
0.213402
-0.333407
0.000804629
-0.125751
0.00876287
0.215155
0.244443
-0.318938
0.0954378
0.498212
-0.256267
0.366251
-0.393041
0.309098
0.389428
-0.290402
0.120793
-0.208365
0.338318
0.472962
0.0956126
-0.224266
-0.355653
-0.120403
0.0859331
-0.210113
-0.274119
-0.491129
0.178409
0.0935018
0.0800397
0.163078
-0.483659
-0.355414
0.37078
0.384484
0.618043
-0.263922
-0.433456
-0.203926
-0.489832
0.297582
-0.550547
-0.369597
-0.230107
0.0382437
-0.0249149
-0.130684
0.152974
-0.381694
-0.329281
0.360626
-0.0868495
0.136476
-0.123904
0.160463
-0.0121956
0.064301
0.33775
0.402341
-0.402299
-0.310963
0.183377
0.220849
-0.434446
-0.395296
-0.0379267
0.324637
-0.286739
-0.459915
0.207193
-0.418471
-0.554238
-0.41523
-0.0973753
0.0337668
0.0462671
-0.36099
0.154184
0.288026
-0.286711
-0.466473
0.11435
0.368553
-0.340351
0.044177
0.364882
-0.590926
-0.366254
-0.239124
-0.284577
0.240615
-0.134478
0.134485
0.0545185
-0.158444
0.206379
-0.348074
0.335368
-0.239211
-0.307495
0.305735
0.338733
-0.375185
-0.240076
-0.405966
0.446627
0.328471
0.23585
-0.368931
0.181115
0.513027
0.37128
0.411919
0.294656
0.315676
0.477091
0.247972
-0.402246
0.351535
0.163178
0.346172
0.372
0.0106924
0.168091
0.19423
0.0840294
0.410437
0.00400984
0.394371
-0.114271
0.185603
-0.0133104
-0.120168
0.269597
-0.0159663
-0.407869
-0.201716
0.434694
0.0888754
0.0576658
-0.0158752
0.388017
0.11061
0.276476
-0.395326
0.225831
0.131705
-0.173856
-0.152229
0.0964066
0.252031
-0.277579
-0.294042
-0.266408
-0.114773
0.195439
0.102111
-0.379178
-0.380132
0.26082
0.0148932
-0.236071
0.0198494
-0.0584893
0.242242
-0.50452
0.0802407
0.49744
-0.170822
-0.284216
0.501841
0.010503
-0.232082
0.176612
-0.253995
0.262661
-0.0502814
-0.239807
-0.480513
-0.0847005
-0.420465
0.136658
-0.37465
-0.491334
0.197127
0.0670288
-0.488774
-0.462472
-0.170513
-0.277388
0.0695665
0.0716599
-0.159101
0.168075
0.398561
-0.0395623
0.411342
0.176098
-0.204411
0.312109
-0.127114
0.194487
0.175961
0.107739
-0.382501
0.427213
0.351293
-0.0903418
0.0827799
0.265564
0.453149
0.354716
-0.502766
0.217001
-0.16813
-0.305521
-0.599214
0.214833
0.065735
0.457834
0.426993
-0.295255
-0.350973
-0.451019
-0.0457062
-0.314394
-0.396592
-0.0144731
-0.299567
-0.318743
-0.261115
0.214141
0.146296
-0.352552
-0.0998121
-0.0726505
-0.335986
-0.299404
0.514858
-0.250904
-0.236743
-0.0479297
-0.0283278
-0.457042
-0.127159
0.0200978
0.0332813
0.241492
-0.270981
0.132991
0.335604
-0.175232
0.355046
-0.209987
0.427902
-0.119712
-0.0890327
-0.200526
-0.38075
-0.371212
0.107895
-0.0227075
0.264822
0.269173
0.454911
-0.517592
0.137377
-0.441009
-0.0939436
-0.371137
-0.150946
0.422738
-0.17382
-0.227532
0.390706
0.0470623
-0.389664
0.253897
0.287445
0.350424
-0.270543
0.218373
0.190015
-0.284114
-0.378833
-0.368415
-0.459584
-0.172255
-0.49633
-0.492257
-0.0423516
0.423848
-0.197281
-0.361405
-0.0185708
0.0939718
-0.251411
0.131071
0.139968
-0.127794
-0.297218
-0.10389
-0.230488
-0.495128
-0.0148197
-0.105545
0.122804
0.0968734
-0.0784696
-0.376146
0.383579
0.321199
0.0526232
0.215805
-0.0750552
-0.354417
-0.102429
-0.166369
0.435917
-0.193251
0.550076
-0.0367003
0.0281669
-0.253343
-0.186477
-0.363886
0.579858
0.0149447
0.0795225
0.0934711
-0.60701
0.281678
0.0741741
0.158734
0.397298
0.476914
0.487968
0.530255
-0.2595
0.0291653
-0.0482215
-0.0573479
-0.282559
-0.235951
-0.506958
0.239518
-0.0610755
-0.251679
0.50725
-0.197848
-0.219238
0.113233
0.166045
-0.180928
0.331019
0.464731
0.0429292
-0.441259
-0.0881824
0.06668
-0.0892067
-0.0943844
-0.456194
0.149414
0.252982
0.0347746
0.257827
-0.418216
-0.11276
-0.483539
-0.0572847
-0.420947
-0.311208
-0.244974
-0.259448
-0.1393
-0.239177
-0.357765
-0.455791
-0.251206
-0.437921
-0.466411
0.344567
0.0631423
0.225903
-0.162094
-0.15967
-0.527001
0.512276
-0.540469
0.463908
0.314152
0.450392
-0.273827
0.00100397
0.151333
-0.0652235
0.194827
-0.332255
0.0533461
0.488918
0.32529
-0.229777
-0.703847
-0.531378
-0.311882
-0.348118
0.211592
-0.194786
-0.607413
0.373995
-0.416097
0.426617
-0.0337191
0.168766
-0.0411967
0.29633
-0.354778
-0.416894
-0.509937
0.468195
0.496807
-0.18232
0.376023
-0.0225016
0.305242
0.221859
0.0330962
0.450311
0.198679
-0.0264875
-0.0335667
0.149539
0.143409
0.394151
0.464241
-0.051812
-0.00703791
-0.0227578
0.0613485
0.100401
-0.240588
-0.301115
0.334971
-0.0235531
0.146977
0.250529
0.409951
0.213954
-0.250713
0.327618
0.0774936
-0.252103
-0.286616
0.263468
0.0777523
-0.487678
0.446981
-0.27369
-0.12962
0.204544
-0.208308
-0.163088
-0.329213
-0.344126
0.149248
0.057734
0.254172
0.580794
0.129664
-0.307229
0.45543
0.229036
0.631025
-0.451436
-0.444132
-0.222049
-0.142664
-0.506291
-0.182926
0.287398
0.433063
0.30292
0.101923
0.428616
0.13558
-0.40223
0.0850672
0.392563
0.526376
-0.232886
-0.236103
-0.177061
0.365647
0.24332
-0.431084
0.357448
-0.343623
0.193099
0.33974
-0.191412
0.17777
-0.095145
0.343766
0.20084
-0.134862
0.181936
0.341047
0.0715206
-0.121871
-0.193302
-0.158585
0.356379
-0.479769
-0.0230729
-0.225365
0.195765
0.49689
0.113165
-0.245328
0.160783
0.291778
0.164065
-0.10993
0.0697127
-0.596817
0.0411818
0.0521406
-0.0539147
0.0269746
-0.0286208
0.220056
-0.386449
0.105872
0.087032
-0.339591
-0.34935
0.339097
-0.474002
0.491034
0.347164
-0.22961
0.280116
0.305625
-0.367658
-0.013512
-0.264613
-0.371444
0.159477
0.131637
0.187169
-0.181781
0.403465
0.511779
-0.210645
0.365154
0.209873
0.604944
0.0834393
0.53874
0.519042
-0.0686998
0.828442
0.0603111
0.302962
0.16095
0.442806
-0.244215
0.233472
-0.557785
-0.23205
0.247042
-0.305703
-0.258726
-0.328308
0.266998
0.417195
-0.189024
-0.0560991
-0.149757
-0.268492
-0.522367
0.383349
0.184685
0.365557
-0.482854
0.303621
0.369797
-0.406869
-0.375422
0.12884
0.118583
0.314172
-0.261177
-0.155302
0.206977
-0.478362
-0.138511
-0.226588
0.355588
0.216392
-0.299297
-0.384942
-0.223565
0.410721
-0.14289
0.343152
-0.260592
-0.302505
-0.03126
-0.182218
-0.170914
-0.0521893
0.103547
-0.378744
-0.460039
-0.659708
-0.355113
0.0628235
0.0437548
-0.0917282
-0.104508
0.234739
-0.321959
0.222416
-0.0546933
0.117592
-0.17065
0.260149
-0.209028
-0.0860715
0.404288
-0.0971169
-0.150786
0.435583
0.377244
0.203807
0.454424
0.186082
-0.290003
0.435471
0.197168
-0.109793
-0.136906
0.291808
-0.208431
0.109358
-0.336231
0.720898
0.274949
0.0743721
-0.216456
-0.268669
-0.0550618
-0.344645
0.535522
0.410767
-0.156821
-0.159392
0.492227
0.0120225
0.559504
0.169741
-0.476493
0.214124
-0.174862
-0.262608
-0.0635573
0.42382
0.250315
0.172653
-0.189865
0.575836
0.246849
0.686646
0.621784
0.542151
-0.523476
0.2014
-0.549519
-0.2838
-0.201014
0.543671
0.0684763
-0.303743
-0.308655
0.188268
0.71126
-0.159923
-0.147984
0.282435
-0.710014
-0.298546
0.0780909
0.126761
0.226421
0.207219
-0.464538
0.6423
0.576439
0.0823026
-0.303341
-0.108386
0.254545
-0.145628
-0.0138816
0.125335
-0.0389756
0.563341
-0.154109
0.000109858
-0.255467
-0.368117
0.156533
-0.0471958
-0.0800121
0.111866
0.0658986
-0.548198
-0.105971
0.103871
-0.238763
0.213911
-0.134226
-0.938896
-0.731376
-0.545516
-0.415719
-0.153503
-0.586523
0.00939751
0.369767
0.0486688
0.0237274
0.23151
0.664878
0.0114086
-0.0160432
0.158351
-0.517865
0.184289
-0.376418
0.312678
-0.59691
-0.136313
-0.0523212
0.445935
-0.108227
-0.32397
0.159273
0.392167
0.175425
-0.108731
-0.26736
-0.138135
0.16461
0.358435
-0.267014
-0.291074
-0.000648421
0.335242
0.476977
-0.0695225
-0.290718
-0.348994
0.0602057
0.247458
-0.406727
-0.0270597
0.470595
0.146273
-0.0107756
-0.355452
-0.207378
0.175221
-0.164627
-0.415096
0.410603
-0.518426
-0.232837
0.125742
-0.24753
-0.32173
-0.112639
0.259309
-0.164666
0.0458758
-0.292695
-0.050374
-0.0582991
-0.472637
-0.285568
0.0734526
-0.119227
-0.256353
0.181977
-0.201186
-0.199218
-0.48676
0.472491
-0.188227
0.197402
0.0484257
0.481938
-0.24422
0.362726
-0.420898
-0.415633
0.28301
0.502644
-0.208446
0.463855
-0.297872
-0.135069
-0.310732
0.141666
-0.336865
0.422924
0.256832
0.314209
0.29711
0.442696
0.0984499
0.34095
-0.118553
0.21096
0.253666
0.457843
0.116286
-0.0219265
-0.397915
-0.159946
0.536641
-0.428583
-0.403205
-0.185594
0.167001
0.483468
0.380864
-0.172731
-0.383471
0.360934
-0.416435
0.119025
0.354335
0.42522
-0.0652355
0.132756
0.170458
-0.065247
-0.0368866
-0.260501
-0.270902
-0.27154
0.428657
0.380041
0.482536
-0.0126185
0.236034
0.176634
-0.403092
-0.119907
0.0703899
0.0260934
-0.165516
0.131294
0.211388
0.17933
0.405894
0.318896
0.508677
-0.439596
-0.0766253
-0.443895
0.0631102
0.386102
0.237864
0.429653
-0.447091
-0.546647
0.242419
0.412032
0.0645124
0.447684
0.303586
-0.59594
0.308728
-0.366787
0.429542
-0.154375
0.0384687
0.470776
0.325838
0.375261
-0.483739
0.138511
-0.427427
-0.464975
-0.330933
-0.0713691
0.445889
-0.438426
0.201789
-0.170137
-0.181936
-0.0186098
-0.11316
-0.328116
-0.368341
0.193276
0.147925
0.235278
-0.121907
0.253297
0.412164
0.442565
-0.0387929
0.147528
0.500226
0.47562
-0.111014
-0.42145
0.416135
0.493702
0.320711
0.227089
0.0475677
-0.325771
-0.239638
-0.225738
-0.324153
0.369232
-0.0407431
0.360745
0.0974333
0.481815
-0.373417
-0.0156897
-0.0894058
0.500373
-0.38636
0.417657
-0.170893
0.435766
0.371
0.138405
0.0840542
0.059223
0.415189
-0.285819
0.455273
-0.436396
0.178148
0.102056
-0.413005
-0.00531755
0.346717
0.0698701
0.391323
-0.446892
-0.430842
0.0489639
-0.192646
0.0528591
0.184709
-0.0677607
-0.165482
-0.405121
0.0486309
0.272464
-0.440527
0.316086
0.411402
-0.160575
-0.423853
0.273854
0.0727682
-0.397318
-0.37502
-0.0320172
0.040333
0.03729
0.36854
-0.109513
0.0565855
0.319088
0.287011
0.113835
-0.180181
0.045123
0.162436
-0.294687
0.429423
-0.403967
-0.466192
0.427893
-0.490758
-0.265689
0.207845
-0.143273
-0.276495
-0.0571085
0.477337
-0.118078
0.0556122
-0.0369837
0.0331322
0.0384587
0.165902
0.493748
0.155965
-0.360875
0.0906642
-0.260222
0.200591
-0.316066
-0.246734
0.125141
0.371907
0.0686729
-0.245141
0.137539
0.424141
-0.34306
0.0824504
-0.205333
0.104928
0.0176834
0.564886
0.244948
-0.260531
0.164257
0.234453
0.119858
0.339539
0.183399
-0.362354
-0.0637965
0.179638
-0.207638
0.306137
-0.0361238
-0.350761
0.0990286
-0.397017
0.173016
0.0322475
0.341498
-0.29028
0.321308
0.178117
0.477077
0.350546
0.132574
-0.193172
0.00827602
0.226736
0.436183
0.157213
-0.437903
-0.34043
-0.354383
0.2286
0.0588769
-0.445477
0.312089
-0.153608
-0.484228
-0.142253
-0.265989
0.401758
-0.155992
0.0178208
-0.404788
0.134935
-0.116399
0.461718
0.159614
0.0791223
-0.153368
0.109914
-0.345395
-0.338984
-0.0951725
0.293556
-0.0898007
0.0738762
0.157444
-0.398051
-0.331765
0.138603
-0.136707
0.0591796
0.0770095
0.300322
-0.0337541
0.0942305
0.0452778
-0.246485
-0.210198
-0.203025
0.445045
0.191937
-0.37946
-0.180247
-0.357997
-0.485564
-0.461872
-0.308883
0.290876
0.136045
-0.3067
-0.0751672
0.231783
-0.492753
0.381074
0.473727
-0.397629
0.472517
0.23305
-0.329769
-0.150934
-0.341601
0.201983
0.116725
0.467427
-0.0498949
0.479663
-0.237444
-0.233088
-0.427312
0.184789
-0.191668
0.293256
-0.240194
0.279362
0.324097
-0.322076
0.0770391
0.208985
0.0286915
-0.291588
-0.440958
0.480877
0.361058
-0.157595
0.156741
-0.0555124
0.0756325
0.111901
0.247463
-0.301506
0.248163
0.39713
-0.0549129
-0.174274
-0.14672
-0.431971
-0.109554
0.474032
0.210251
-0.447848
-0.322769
0.12858
0.265313
0.133341
0.475581
0.305283
-0.345182
-0.10278
0.27758
0.275145
0.340904
-0.415632
0.0382335
0.179398
-0.0316667
0.255829
-0.0168112
-0.289008
0.361637
-0.195754
0.25575
0.23427
0.101194
-0.361079
-0.233043
-0.186544
-0.306921
0.397858
-0.352649
-0.366793
-0.476268
0.237613
0.227158
0.0879925
0.493337
-0.271987
-0.178098
0.0206715
-0.052564
0.100952
-0.150143
-0.124944
-0.119743
-0.282811
0.412786
-0.508037
0.130499
0.0706
-0.270493
-0.10432
0.419862
-0.123667
0.224481
0.0757192
0.41222
-0.219947
-0.12582
-0.086204
-0.119506
0.250594
0.451871
0.310716
-0.0578209
-1.46892
0.100508
0.279726
0.187284
0.144999
0.197949
0.223559
0.0300948
-0.526948
-0.83209
-0.127159
0.0761814
-0.0596656
1.32171
0.136458
0.152424
-0.209975
0.14292
0.066682
0.139826
-0.258887
0.00821844
0.0636021
0.0386383
0.010946
-0.42046
-0.0112169
0.183949
0.143606
-0.170733
-0.0827504
0.0337959
-0.275153
-0.119282
-0.215104
0.0416686
0.215503
-0.0742543
-0.210604
0.37713
-0.075366
-0.123007
-0.361773
0.341358
-0.218185
-0.165102
0.519415
0.126598
-0.0765234
-0.154572
-0.0680952
-0.175959
-0.0225951
