#input normalization
0.160547 0.269439
54.0026 54.573
10.4738 38.9141
8.39575 32.0298
0.0116639 0.0433932
0.00930806 0.0331897
0.52601 1.31785
0.823961 1.14631
1.01646 1.32786
1.23048 1.51654
1.47696 1.68552
1.73 1.83539
1.9743 1.96587
2.21076 2.0781
2.43718 2.17557
2.63908 2.23007
2.83415 2.26984
3.01462 2.27938
3.15896 2.26461
3.28283 2.21551
3.38211 2.15303
3.46272 2.06189
3.51676 1.96916
3.54752 1.85503
3.5578 1.72878
3.54351 1.58884
3.49301 1.43749
3.43716 1.27838
3.34482 1.10378
3.22632 0.928516
3.11153 0.763094
2.98535 0.603665
2.85542 0.455468
2.70944 0.308644
2.56595 0.158931
38.6193 50.1293
1 -1
#output normalization
1 0
#neurons weights
0.460488
-0.269689
-0.133821
-0.245729
0.0901667
-0.457497
0.0357223
0.33128
0.25085
0.0329984
-0.346961
-0.350157
0.23448
-0.0939425
0.492931
0.43858
-0.187365
-0.0648637
0.254948
0.336834
-0.0976644
0.426864
-0.223604
0.442866
0.492889
0.123744
0.145926
-0.125329
-0.379775
-0.39164
0.128395
0.38855
-0.374533
-0.1791
0.379203
0.130809
-0.323766
-0.346206
-0.00767236
0.124248
0.20964
0.0545542
-0.80077
-0.528667
-0.479235
0.380449
-0.276729
0.325353
-0.183835
0.0543256
-0.316161
0.53646
0.203801
0.0107625
-0.163293
0.300376
2.12614
-0.527343
-0.561967
0.240492
0.420344
0.44813
0.332607
-0.00334328
-0.298519
-0.218519
0.755656
0.527565
-0.240679
0.0401924
-0.419572
0.132738
-0.279991
-0.561874
0.453216
-0.331134
-0.0850149
0.0541723
0.187415
0.187667
0.137397
0.142705
0.654435
-0.217362
0.214223
0.409107
0.344429
-0.239943
-0.20561
-0.347948
-0.148229
-0.153585
-0.38858
0.170048
-0.0749131
0.372307
-0.501913
-0.395758
0.0796726
-0.18483
0.159775
0.234368
-0.446068
0.269247
0.282693
-0.0407288
-0.449436
0.489044
0.629694
-0.339107
0.0627786
-0.105393
-0.041675
#synapses weights
0.00431335
-0.35761
0.559225
-0.168607
0.212553
0.111965
1.39093
-0.0736449
0.31196
-0.161957
0.164811
0.0653163
0.514409
-0.32686
0.337085
0.44417
-0.0571582
-0.228384
-0.400404
-0.123991
-0.237911
0.0672927
-0.00243007
0.348909
-0.0326371
-0.241939
0.0668104
0.0593648
-0.364852
0.0657869
0.356268
0.256773
-0.16043
0.410865
0.191014
0.607013
-0.233334
0.856913
-0.181313
0.35355
-0.284348
0.294334
0.0522712
-0.0814389
-0.326392
0.0869827
-0.0869666
0.114317
-0.036905
0.192097
0.302326
-0.309784
-0.0551302
-0.0409141
-0.463264
-0.391636
0.401325
0.405073
0.31733
0.369292
-0.471009
0.377031
-0.230041
0.145964
-0.201293
-0.0920295
-0.115126
-0.366445
-0.109628
0.0982029
-0.144663
-0.298088
0.0315066
0.204959
-0.512075
0.352893
0.314811
-0.023323
-0.167294
-0.407309
1.05111
0.208976
0.294409
0.227735
-0.403443
0.225361
-0.225002
-0.0165198
-0.0274905
0.041423
0.18297
-0.110996
-0.0680065
-0.293511
0.0654828
-0.0113088
0.19247
0.0956456
-0.195167
0.140945
0.0213227
-0.00559988
-0.197878
-0.328425
-0.12103
0.229922
0.178314
-0.0662088
-0.239605
1.23545
-0.487417
-0.828472
0.142165
0.291191
-0.0656351
-0.264975
0.472137
1.50539
0.929045
0.302362
0.0861551
-0.0608505
0.12994
-0.254899
-0.0822217
0.132972
-0.246474
0.0761426
-0.0270898
-0.206299
-0.178663
-0.0691331
-0.114476
0.164811
-0.111283
0.306675
-0.339978
0.0800649
-0.0978699
-0.148672
0.256653
0.0428549
0.274202
-0.0283701
0.114708
-0.364953
1.1528
0.339091
-0.867477
-0.0847674
0.209585
0.322857
-0.185058
0.0836365
1.32802
0.456437
0.291059
0.360321
-0.086689
-0.391392
0.514394
0.0814773
-0.377883
0.530475
0.346913
0.142348
0.0764993
-0.275419
0.523694
-0.0220506
-0.0311028
0.3496
0.209172
-0.319825
-0.209078
0.175279
0.310243
0.151048
0.0766256
-0.370478
-0.026678
0.426857
0.0681885
0.0976712
-0.0983747
0.0184371
-0.229904
-0.238216
-0.125528
0.0629022
-0.331923
0.750703
-0.234074
-0.39416
0.0913528
-0.09169
-0.103146
0.0219173
0.0654483
-0.0255733
-0.047097
0.0604833
0.261891
-0.0594975
0.186597
0.013318
-0.022934
-0.0140521
-0.277338
0.388039
0.197394
0.099809
-0.301804
0.203764
0.293659
-0.200806
0.222968
-0.205615
0.0938763
-0.146329
-0.532151
-0.208186
0.976528
-0.444017
-0.0995319
-0.418514
0.042208
-0.146228
-2.49567
-0.198578
0.37299
-0.285654
-0.0134781
-0.177072
-0.202374
0.204785
-0.269164
0.272025
0.031999
-0.247362
0.0579645
0.170797
-0.0125004
-0.463633
0.16775
-0.0618211
0.287908
-0.0145528
-0.12553
-0.253466
0.108868
0.128865
-0.107681
0.0701763
0.151279
-0.0599858
0.109323
-1.99035
-0.33479
0.0826642
0.160819
-0.222378
0.175264
0.26329
0.214331
0.0454794
0.040248
0.0620115
0.0426967
0.0753739
0.0119265
0.272773
0.0436069
-0.0728073
0.29723
0.178813
0.218896
0.3271
-0.57189
0.20816
0.0020725
-0.22246
-0.303499
-0.526059
-0.380926
-0.15426
-0.325432
0.139154
0.323292
-0.257098
-0.487512
0.311282
-0.143914
-0.383635
-0.740515
-0.385025
0.892046
0.381906
0.195937
0.101698
-0.263682
0.167042
0.202461
-0.161241
0.384479
0.111188
0.180644
0.0670553
0.18802
-0.27754
-0.13853
-0.508677
0.174416
-0.117991
-0.136156
-0.0445149
0.102439
0.306865
-0.202558
0.106247
0.184784
0.229145
-0.0188811
0.232215
-0.129346
0.313123
-0.0282943
0.174359
0.390782
-0.199019
-0.2034
-0.557684
0.210634
-0.132603
0.415783
-0.446803
-0.420091
-0.147494
-0.102145
0.369893
0.64629
0.105184
0.226406
-0.291918
-0.060668
0.342881
0.203431
0.31894
0.433938
-0.391168
-0.257574
0.30023
0.343961
0.228687
0.269008
0.055346
-0.14572
-0.0241171
0.445531
0.151986
0.180842
-0.201454
0.490132
-0.298371
-0.20608
-0.300747
-0.298474
-0.239955
-0.106533
-0.388916
-0.116957
0.307186
-0.0193499
0.306491
0.690695
0.285037
-0.269936
-0.27165
0.377754
-0.241599
0.162623
0.0378613
0.205831
0.11611
0.073436
-0.352491
0.0490328
-0.0724303
-0.164569
0.285155
0.0056283
-0.151714
0.0124244
0.364541
0.24234
-0.0200408
-0.356605
0.393719
0.327888
-0.313487
0.024443
0.287465
-0.0607112
0.0363081
0.09465
-0.274671
-0.021578
-0.131007
-0.267441
0.10688
-0.322887
-0.00642077
-0.373008
-0.485688
-0.407541
0.278519
-0.0213242
-0.521994
0.267965
-0.442354
0.358057
0.222746
-0.161993
0.415309
0.0655804
-0.429142
-0.0177237
-0.428456
-0.278968
-0.380149
-0.116704
0.026007
-0.344327
0.0808564
0.321255
0.385781
0.0313732
0.532428
-0.227636
0.0762333
-0.0540293
-0.123065
-0.0966805
-0.0678672
0.490143
0.0319614
-0.196262
0.0414993
0.299743
-0.174348
-0.0895988
0.149488
0.458464
0.435463
-0.00663662
0.204181
-0.266514
0.0808773
0.0285437
-0.392932
0.50629
-0.303329
-0.139699
-0.219273
0.312757
0.0364017
-0.505748
0.259327
-0.416831
-0.213606
-0.221695
0.0481762
0.168502
-0.301836
0.502059
0.0537746
-0.329965
0.367391
0.209748
-0.789411
0.32933
-0.345066
-0.173065
-0.219492
0.0646194
-0.228074
-0.397291
0.0385018
0.187866
0.000677789
0.148681
0.0360107
-0.145274
-0.0944193
0.161658
0.300645
0.0458818
0.272234
-0.153635
0.392155
0.0540584
0.209112
0.220545
-0.0693008
-0.414409
-0.259905
0.0967929
-0.301177
0.442418
0.018247
-0.397235
0.305014
0.406741
-0.217283
0.400072
0.260382
-0.143787
0.112531
-0.396741
-0.376176
-0.377052
0.293173
-0.296193
0.347957
-0.220085
-0.630656
0.212934
0.250665
0.11523
-0.201167
-0.373938
-0.356443
-0.236316
0.15684
0.428455
0.330201
0.521797
-0.0650104
0.477235
0.335831
0.341503
-0.232967
0.449893
-0.42633
-0.209096
-0.000391434
0.135674
0.411533
0.138536
0.489
0.230799
-0.142243
-0.443789
-0.234159
-0.348604
-0.24752
-0.362832
0.431539
0.0376811
0.468862
0.142757
-0.970383
-0.189757
0.365006
0.222655
-0.381265
-0.0534752
0.00578098
0.412916
0.099484
0.0562134
0.350191
0.176419
-0.119463
-0.268444
0.14853
0.209115
0.286088
0.210637
-0.295262
-0.329728
-0.0469111
-0.446807
0.317804
-0.35531
-0.0745678
-0.221091
0.12267
-0.337132
-0.192864
-0.436466
0.17586
0.162326
-0.483407
-0.294637
0.162679
-0.234501
-0.254579
-0.229613
-0.621171
0.304017
-0.202321
0.461866
-0.191541
-0.428482
-0.353639
0.184491
0.122056
0.24076
0.198524
0.428782
-0.454887
0.183064
0.257721
-0.140334
0.275511
0.375459
-0.585949
0.255457
-0.0626515
-0.230835
-0.14158
-0.197731
0.403114
0.11536
0.0573138
-0.28123
-0.303279
-0.121345
-0.69223
-0.0237374
0.116488
-0.239866
-0.00887404
0.387609
0.450597
-0.315195
-0.285392
-0.122584
0.207781
-0.210234
0.312695
0.421763
-0.385167
-0.315866
-0.163979
0.342031
0.255007
-0.0612095
-0.291863
0.22928
-0.527047
0.222498
-0.030666
-0.193489
0.352522
-0.152795
-0.254529
0.186913
0.373505
-0.194326
0.117329
-0.113433
-0.261883
1.50425
0.462192
0.584568
-0.259433
0.287688
-0.168933
0.34051
-0.426596
-0.0615289
0.127665
-0.0957
0.0103776
0.203185
-0.200355
-0.230742
0.00649413
-0.122678
-0.217936
-0.293307
-0.0466406
0.142334
0.364379
0.184962
0.0633797
0.491771
0.0406445
0.127166
-0.184355
0.0772944
-0.300707
-0.0819688
0.117843
0.262258
0.196812
-0.0190188
-0.0971693
-0.351214
-0.540681
-0.306183
-2.95181
-0.320121
-0.0540213
0.025341
-0.072685
0.119278
3.49661
-0.137873
0.122415
-0.0302046
0.0117755
0.0958574
-0.0592859
-0.028595
0.0354083
-0.0385308
-0.0912345
0.115214
-0.0460531
0.174007
-0.150483
0.00579335
-0.0548616
0.111594
-0.0933785
0.139958
-0.122775
0.135889
0.153284
-0.0950727
0.00433607
-0.120262
0.00759446
0.0377907
0.127346
5.29454
-0.477477
0.0800526
-0.318189
-0.378891
0.133514
0.102472
-0.0334779
-2.35745
-3.58154
-0.333652
-0.00566915
0.0406225
-0.000948424
0.0418365
-0.0117061
-0.221348
0.10558
0.041186
-0.0998415
0.115351
-0.0535358
-0.0303667
0.122927
-0.1114
-0.281373
0.27604
0.183862
0.131392
-0.137872
-0.0616609
-0.0403166
0.350128
-0.159938
0.0733958
0.0721773
0.0241729
-0.208687
0.461229
-0.0230803
0.476874
0.423306
-0.19815
0.461762
0.0776018
0.228822
-0.134345
-0.0894796
-0.358367
0.330604
-0.275818
-0.227075
-0.433161
0.225301
-0.211862
-0.435711
-0.224443
-0.337105
0.0782213
-0.231266
-0.0218789
0.192771
-0.335347
0.215533
-0.44698
-0.0450952
-0.461244
0.490645
-0.30921
-0.315713
0.361201
-0.434968
-0.349371
0.209059
0.49107
-0.297902
-0.623424
0.140635
0.211543
0.00607811
-0.267187
0.0950436
0.987635
-0.00237707
0.0317633
-0.0458504
0.232481
-0.267985
0.186404
-0.363087
0.00956148
0.200363
0.0412892
-0.136095
0.141945
0.161791
0.205395
0.301228
0.0730058
-0.334427
-0.146613
0.242116
-0.327185
-0.22062
0.129191
0.136097
0.335071
-0.101566
-0.218284
0.130968
0.087538
1.69443
0.0903042
-0.60736
0.356019
-0.259079
-0.0278145
-0.0179929
-0.369418
-0.889833
-0.339281
-0.0459185
-0.306797
0.132337
0.116649
-0.0629622
-0.294344
0.192394
-0.314169
0.0424697
-0.179418
-0.0222593
-0.278141
-0.137035
-0.181634
-0.205149
0.359781
-0.116935
-0.309913
0.563271
-0.363877
0.522727
-0.303016
0.551401
-0.203004
0.395644
0.32934
-0.514842
0.632113
0.410931
0.305008
-0.272328
-0.116524
0.444456
0.451235
0.321625
-0.353677
-0.235978
0.037831
0.121506
-0.125692
-0.0703353
0.313243
0.088411
0.234334
0.106106
0.392003
0.117618
-0.250504
-0.463494
-0.333192
0.358539
-0.157402
0.29751
-0.150922
-0.400431
-0.462157
-0.0206659
-0.243958
-0.436194
-0.289987
0.481285
0.324106
-0.252903
-0.118048
-0.528613
0.318861
0.237053
0.0175729
-0.533659
0.448244
-0.097432
0.0649159
0.0912135
-0.167599
-0.372296
-0.296792
0.119953
0.194528
-0.1962
-0.414995
0.362825
0.236483
-0.116819
0.20528
0.233216
0.0896006
0.249073
0.537516
0.309223
-0.36371
-0.1922
-0.376381
-0.146056
0.440547
0.0202213
-0.110781
0.302493
0.51112
0.00227762
0.075844
0.213347
0.465847
0.386284
-0.323443
0.408562
0.359569
0.337243
-0.0047028
0.378464
-0.665665
-0.510634
0.187225
0.380432
-0.176004
-0.29428
0.256105
0.459853
-0.347464
-0.230584
-0.366001
0.241744
-0.103336
0.123248
-0.0177595
-0.301913
0.133836
0.0792519
0.102668
-0.0511672
0.421864
0.465457
0.046874
0.406852
-0.223588
0.284864
-0.170136
-0.0274888
-0.34248
0.295191
-0.469379
-0.379959
-0.0780698
0.247404
-0.383585
-0.173767
-0.125894
0.868137
0.212891
-0.173794
0.472098
-0.225635
-0.0374314
0.265571
0.00722363
0.0445667
0.456086
0.120584
-0.0653887
-0.473693
0.289226
0.215111
0.0403881
-0.00582745
-0.0449539
-0.242628
-0.225574
-0.52693
0.251338
0.10404
-0.456184
-0.375453
-0.114041
0.11935
-0.443202
-0.294464
1.10959
-0.471297
0.920715
0.0522039
0.0358185
0.245045
-0.168711
0.148119
0.335791
-0.314687
0.0389912
0.195772
-0.278557
-0.138463
0.325232
0.309517
-0.435743
-0.411129
0.240493
0.308305
-0.2601
-0.320545
-0.0126637
-0.312385
0.0492555
-0.333298
0.204693
0.103221
0.0483436
0.19829
0.189431
-0.236406
0.414565
0.384389
-0.430103
-0.235897
-0.2634
-0.98728
-0.370374
-0.0360345
-0.174566
0.10029
-0.228919
0.216951
0.255328
2.09998
2.14765
0.432057
-0.0946818
0.15063
0.197757
-0.177527
0.306877
-0.329692
-0.245245
0.00875882
-0.176869
-0.325682
0.273657
0.600844
-0.16225
0.0317509
0.338711
0.0407953
0.135905
-0.293743
-0.214894
-0.269333
-0.271124
0.267701
-0.277698
0.398632
-0.348835
0.424527
0.414285
0.0968627
-0.221253
-0.244876
-0.214205
0.0977681
0.292459
-0.039896
0.638714
0.539755
0.510523
-0.305114
0.493291
0.0556862
-0.299573
0.412072
-0.42587
0.429108
0.103243
-0.000781332
0.07464
0.0948654
-0.0404085
-0.161247
-0.2452
0.0284822
0.335357
-0.12379
0.486531
-0.0373647
0.357938
-0.0209755
-0.0865367
0.224453
0.0906908
0.198827
0.409368
-0.0839272
-0.464642
0.31726
-0.046599
0.445769
-0.124601
-0.203032
-0.20341
-0.848056
0.0131674
0.0699492
-0.0640202
0.0992126
-0.0139149
-0.296715
-0.022711
0.316944
0.307141
-0.05192
-0.325149
0.194508
0.206437
0.00677591
-0.127083
-0.0530358
-0.0461555
0.195324
-0.288846
0.215672
-0.076159
0.0932879
0.273296
0.294542
0.113056
-0.365601
-0.0793132
0.091876
-1.40507
-0.185494
0.108435
-0.103795
0.126171
0.24026
0.0959539
-0.534693
-1.04943
-0.0113603
-0.00142556
-0.0600168
-0.22176
-0.0795375
-0.229488
-0.184938
0.278832
0.0769396
0.271345
0.380591
0.542569
0.075756
-0.530089
-0.549844
-0.481965
0.428664
-0.363901
0.329296
-0.49615
0.0490972
0.228722
0.209081
-0.0220147
0.311942
-0.216633
-0.163007
0.324613
-1.04208
-0.134509
0.661214
0.000451314
-0.0662778
0.0684379
-0.39599
0.212081
-0.874125
-0.631885
-0.41852
-0.319671
0.436273
0.503367
0.396908
-0.422761
0.265633
-0.193781
-0.107707
0.274873
0.202031
-0.326431
0.0431709
-0.235407
0.367518
-0.332775
-0.285545
-0.102368
0.31152
-0.394699
0.174808
0.109656
0.444088
0.421219
0.13382
0.361713
-0.213616
-1.28216
0.0664083
0.253961
-0.00517222
-0.149039
0.449321
0.360682
-0.437351
0.520479
0.420522
0.0125385
0.082211
0.319811
0.300045
0.440191
0.323013
0.122019
0.378802
-0.3384
0.290326
-0.3097
-0.174122
-0.223165
-0.163979
0.184061
0.148425
0.162614
0.468627
0.289558
0.307154
-0.087338
-0.0851816
-0.257942
0.135492
-0.136038
0.488572
-0.375923
-0.298873
-0.271433
1.00615
-0.30395
0.0142658
-0.232134
0.455443
-0.235716
-0.454296
0.360229
0.00490603
0.0934029
-0.0544899
-0.0275849
-0.0826115
0.171606
0.0365198
0.236921
-0.14965
0.257064
0.138774
-0.132421
-0.366017
0.202425
0.0669331
-0.0389968
0.159847
0.305538
0.382868
-0.383276
-0.286023
-0.229313
0.00697796
0.149809
-0.13073
0.261664
0.0308632
-1.30212
-0.341218
0.638184
0.296091
0.0500989
-0.0208887
-0.0928718
-0.0272838
-0.791056
-0.154058
0.130268
0.258876
0.160737
-0.323386
0.0527702
0.15871
-0.335749
-0.151127
0.205616
-0.152218
-0.0155999
-0.0719606
0.16792
0.224398
-0.256283
-0.0128123
0.0987546
-0.201612
-0.157347
-0.112026
0.0204328
-0.172227
0.406901
-0.00397558
0.228482
0.111946
-0.383107
-1.66806
-0.30604
-0.237294
-0.146904
0.0935206
0.217123
-0.257749
0.0394905
-0.262041
-0.172834
-0.11106
0.469937
0.271207
0.360118
0.264111
-0.581538
-0.551581
-0.0541125
0.267481
0.214243
0.340654
-0.0610159
-0.112713
0.321569
0.0469723
-0.416135
-0.466198
-0.195543
-0.424183
0.423465
-0.307793
-0.454766
-0.27196
-0.116749
-0.502556
-0.118135
-0.353363
0.412327
0.174416
-0.142338
-0.044993
-0.00768582
-0.36356
0.0265508
0.197116
-0.260705
0.14407
-0.520972
-0.265943
0.358859
-0.16519
-0.0152177
0.258957
0.260286
-0.325623
0.376064
-0.0821381
-0.106564
-0.632826
-0.0428944
-0.33387
-0.0473742
0.408141
-0.447104
-0.187538
-0.480833
-0.0806991
0.232446
0.073203
-0.259986
-0.311674
-0.373669
0.33034
0.325299
-0.533427
-0.173415
-0.232506
-0.730954
-0.676019
-0.648818
-0.354324
0.0166905
-0.571395
0.208169
0.011858
-0.730967
0.00707664
-0.442502
-0.297379
-0.243026
-0.112743
0.0643412
-0.330325
0.115133
-0.100402
0.0849474
-1.59185
0.577467
-0.114262
-0.419362
0.364598
-0.460358
-0.0281025
-0.152882
-0.788936
-0.349349
-0.825665
-0.916367
0.00767714
-0.221225
-0.10002
-0.130425
-0.0986468
-0.0405771
-0.18442
0.260829
-0.161888
-0.221272
0.0112648
0.355922
-0.0746531
0.000714187
0.396385
0.362972
0.0049778
0.1821
-0.319714
-0.0437974
-0.343251
0.358209
-0.125459
-0.360132
-0.0479473
-0.540356
-0.111727
-0.254243
0.314652
0.451096
0.264226
0.454712
-0.437306
0.179588
-0.122711
-0.376089
0.316862
0.196791
-0.486912
-0.0584507
-0.460167
-0.299502
-0.0975384
-0.196351
-0.120133
0.287282
0.484505
0.332978
-0.0888684
0.108277
0.439336
0.00530158
-0.227375
0.445622
0.122973
0.525148
0.476971
0.657349
0.371498
0.453169
0.428301
-0.274447
0.426013
0.189129
-0.379161
0.497026
0.189492
0.391811
0.252359
0.530451
-0.107317
0.658298
-0.214348
-0.120359
-0.126487
0.460141
0.230117
0.541959
-0.176293
-0.126053
0.0311514
0.199299
0.430626
0.475896
0.3012
-0.090134
-0.29996
-0.396328
-0.295233
0.410606
0.169345
0.417596
-0.271725
-0.148891
0.15919
0.193625
0.109522
-0.350231
0.180414
-0.0223603
0.174724
0.0258275
0.018534
0.0558312
0.352725
-0.306231
-0.194201
-0.399044
-0.131535
-0.432268
-0.311012
-0.0752211
-0.324453
-0.38278
-0.285008
-0.506134
0.272564
-0.226104
0.410532
0.326943
-0.325364
-0.149221
-0.356024
0.526671
0.433929
-0.360185
0.430188
0.442998
0.263753
-0.333785
0.0787649
-0.378241
0.355438
0.0371979
-0.141002
-0.0645776
0.167501
-0.383532
0.416626
-0.140844
-0.280834
0.119561
-0.205469
0.253941
0.365765
-0.150222
0.368232
-0.442923
-0.332506
0.509593
0.35702
0.226278
-0.355345
0.160577
-0.279563
-0.218549
-0.418193
-0.0901274
0.0707339
0.348104
0.435458
0.601451
0.327435
0.0537605
-0.243847
-0.31651
0.495372
-0.327562
-0.13116
0.0372319
-0.124192
-0.221512
0.0940161
-0.377866
-0.257827
-0.177124
0.235319
0.331968
0.153439
-0.110286
-0.517295
-0.177006
0.174928
0.0591783
-0.147134
0.368219
0.326878
-0.0760157
0.130684
0.34314
-0.49837
-0.253762
0.00010005
0.160967
0.159403
0.194559
0.363504
0.113052
-0.212368
0.194441
0.493134
0.176962
-0.165286
-0.373604
-0.397179
-0.0676655
-0.0155811
-0.0302144
0.0914732
-0.318894
0.334456
0.24229
-0.0250251
0.0900127
0.981982
-0.207943
0.249669
0.286911
0.0693311
0.664446
0.49813
-0.0378013
0.367212
-0.0622949
0.723863
-0.266141
0.659363
0.121044
-0.303609
-0.0306761
-0.58234
0.142999
-0.610121
-0.896533
0.361313
0.365833
-0.383366
-0.276844
-0.0406568
0.2747
0.450771
0.54927
-0.0668946
0.0269774
-0.133215
0.361986
0.379099
-0.1461
0.260833
0.321606
0.058121
0.112694
-0.154469
-0.301024
0.394367
-0.297385
-0.200082
0.157186
0.0437416
-0.273677
0.317212
-0.210578
-0.283715
0.633461
0.137683
0.327583
-0.36894
-0.194295
0.0564031
0.205239
0.28565
0.333264
0.000449467
-0.57415
-0.0470621
-0.532773
-0.215449
-0.543027
-0.0771494
0.451302
-0.0810062
-0.455479
-0.0507785
0.249221
0.1617
-0.152229
-0.0813289
0.100905
0.0501169
-0.00439038
-0.159472
0.150898
-1.32215
1.14102
0.597687
-0.333256
0.141713
-0.0725343
-0.282897
0.0905957
-0.130713
0.530475
-0.853726
-0.197343
0.368241
-0.0217614
0.241885
-0.252665
-0.32567
0.249266
-0.0826438
0.302024
-0.338746
0.0657891
0.346394
0.341901
0.0880652
-0.486607
0.443731
0.187674
-0.0844866
0.277034
0.55001
-0.552915
0.385985
-0.254582
-0.222624
-0.0676641
0.210136
0.143584
0.152847
0.0682712
-0.4968
0.689938
0.231972
0.177357
0.414224
0.358504
-0.120014
-0.513668
0.402431
0.245866
-0.371405
-0.298256
-0.102265
0.324081
0.258986
-0.0718158
0.0127377
-0.108046
-0.515257
-0.538333
-0.0311316
0.436205
-0.374867
0.208995
-0.0378364
-0.151114
-0.227835
0.011492
-0.274365
-0.555929
-0.0124251
0.241151
0.260616
-0.51597
0.322218
-0.0636681
0.885834
-0.351324
-0.126976
0.276409
0.219155
-0.05373
0.539813
-0.217848
0.189329
-0.314542
-0.39552
-0.260075
0.124043
-0.612331
-0.275773
0.233703
-0.0958604
-0.200775
0.259937
-0.445672
0.111619
-0.521011
-0.231704
-0.0724443
0.0768688
-0.215242
-0.183775
-0.2492
-0.26861
-0.0791891
0.0503992
0.0681353
-0.37129
-0.0235254
-0.209386
0.267131
-0.26263
0.171309
0.591572
-0.330252
-0.49666
-0.57641
0.39196
0.505199
0.246042
-0.182407
-0.000662776
0.544621
0.255499
-0.0565057
0.331086
0.465418
0.16105
-0.241788
-0.102917
0.570798
-0.445435
0.0922393
-0.00481884
0.183891
0.247987
-0.476349
0.36597
0.14016
0.373133
0.311506
-0.271697
0.460918
-0.252557
-0.336203
-0.136717
-0.252738
0.121261
-0.25536
-0.366665
0.47765
0.0390389
-0.0473718
0.000503295
0.199735
-0.387289
0.302695
-0.340097
-0.0287409
0.195161
0.202749
0.400208
-0.146778
-0.184593
0.315425
-0.284206
0.416141
-0.311413
0.19158
0.0411823
0.134581
-0.0289992
-0.309253
-0.281674
0.340073
-0.0243935
0.333076
0.245206
-0.505691
0.229396
0.152302
-0.400895
-0.352032
0.322514
-0.17884
-0.207028
-0.123743
0.0911233
0.0958437
-0.280911
-0.0517647
0.254663
0.335169
-0.367871
0.0664713
0.314611
-0.203294
0.598471
-0.347203
-0.0140551
0.232845
-0.275096
0.0388935
0.106182
0.334741
-0.0494506
-0.284651
-0.0764511
0.111294
-0.123337
0.127882
0.310708
0.146066
-0.15669
0.113663
0.272094
-0.0180759
0.324042
0.0721548
-0.264972
-0.238671
0.295791
0.475018
0.0219938
-0.250984
-0.319523
-0.284171
0.205049
0.310894
-0.0423897
0.155393
0.164278
0.464128
-0.253223
0.0098718
-0.00764814
-0.392945
0.301234
0.424741
-0.223542
-0.103761
0.0926055
-0.356212
-0.0416793
-0.385376
-0.0766095
0.162708
-0.394169
0.338657
0.406992
0.172181
-0.439954
-0.681109
-0.363243
-0.492735
-0.0485607
-0.338008
0.0255148
-0.197934
-0.468294
0.193197
0.0552858
0.157045
0.521832
-0.700707
0.836215
0.32729
-0.00896164
0.508104
0.0206333
-0.140699
0.183402
0.567838
0.0687392
-0.666862
-0.000737043
0.155344
-0.837962
-0.364435
-0.499428
-0.48106
-0.713677
-0.322414
0.125976
-0.379515
0.0231948
-0.273981
-0.296429
0.17834
0.283516
0.111364
-0.225637
0.238423
0.269182
-0.0969207
0.112346
0.250336
-0.109542
-0.42515
-0.0888825
0.366795
0.282853
0.236852
0.41179
0.0255241
0.124637
0.0259637
-0.204205
-0.0170333
-0.269379
0.023865
0.27145
-0.286613
-0.123495
-0.295356
-0.301147
-0.0188927
-0.0655481
-0.14924
-0.520405
-0.371624
0.168268
-0.490516
0.292954
-0.631742
-0.537241
-0.156472
-0.447835
0.932456
-0.238467
0.300213
-0.032833
0.223206
0.0445961
0.497783
-0.201459
-0.270009
0.360734
-0.247214
-0.994743
0.330439
-2.88528
0.732567
-0.231304
-0.979628
-0.253199
0.0477541
-0.036762
-0.164677
-0.95067
0.237269
-0.703757
0.0539332
0.0744031
0.497706
0.281787
0.0607321
0.823975
0.613147
0.0572224
0.298648
0.244067
0.28654
-0.10633
-0.000789753
0.407665
-0.66476
-0.376073
-0.149173
-0.490408
-0.148596
0.433295
0.145041
-0.340021
0.171681
0.387115
0.405089
0.630167
0.011769
-0.0194654
0.490894
0.421319
0.658236
0.445412
0.0527211
-0.117737
0.172205
-0.00259792
0.0823479
-0.305446
-0.421064
0.152751
-0.554772
-0.431753
0.318346
-0.38051
-0.179335
0.159215
-0.0114342
-0.0501317
0.114375
0.0784643
0.224377
0.540339
0.305339
0.482246
0.597177
0.0574408
-0.10753
-0.0862635
-0.17928
0.618973
-0.252525
0.124828
0.379543
0.0859906
-0.0765541
0.250507
0.390361
-0.0166459
0.208591
0.297774
0.296309
-0.00971422
0.309066
0.118697
0.296969
0.352731
-0.0986258
0.590207
0.0917427
0.0164293
0.661187
-0.0418135
0.315881
0.565822
-0.337075
-0.204346
-0.145346
-0.707185
-0.148447
0.173174
-0.0929054
-0.189368
-0.469263
-0.205119
-0.0361947
-0.063379
-0.613001
-0.495296
0.178095
-0.330626
-0.201481
0.405283
0.10502
-0.32223
0.452545
-0.458565
0.188091
0.133756
0.33002
0.368907
-0.0517017
-0.0334209
-0.0483766
-0.0755976
-0.154154
-0.511748
0.34092
0.0404674
-0.0256527
0.077997
-0.275545
-0.420219
-0.331123
0.441284
0.509858
0.0200805
-0.285807
0.164728
-0.186066
-0.0198461
0.117949
-0.193079
-0.397957
-0.116522
-0.53273
-0.250365
-0.280538
-0.12019
0.28376
-0.389092
0.0637422
0.533053
0.322701
-0.144046
0.181191
0.418024
0.221469
0.418413
-0.331335
-0.326163
0.0149308
-0.154575
0.164477
0.0134679
-0.191764
-0.355149
0.235039
-0.19833
-0.370903
-0.201049
-0.56141
-0.206073
-0.0301748
0.00517774
0.00533972
-0.469784
0.0354362
-0.165982
0.0358926
-0.505563
0.408971
0.0899647
-0.456601
-0.0443339
-0.0598242
-0.136479
0.0376039
0.197284
-0.0536492
0.11053
-0.238691
-0.354786
-0.368199
-0.446228
-0.311331
-0.0947222
-0.0813833
0.0301347
-0.162317
-0.166077
-0.406284
0.201654
0.309616
0.424205
0.171127
0.454369
0.204428
-0.246498
0.0239311
0.0819111
0.0450755
0.162035
-0.345183
0.0554091
-0.0781432
0.188954
-0.207989
0.259055
0.314636
-0.215852
-0.332439
0.49271
0.131036
-0.0565877
-0.422715
-0.114308
-0.546245
0.274094
0.200493
0.447211
0.605885
0.486687
-0.314969
-0.172399
-0.325866
0.546368
0.297824
0.543548
0.129171
0.356174
0.26763
0.325831
0.386909
-0.230032
-0.577347
0.103526
0.208522
0.30385
-0.323734
-0.355265
0.129494
0.22559
0.185019
-0.213554
-0.0981319
-0.10369
0.422273
-0.0527349
0.0296709
-0.0816719
0.0165681
-0.400891
0.250119
-0.40961
-0.29252
0.725365
-0.0322123
0.463929
-0.063885
0.0229446
-0.0789669
-0.0576377
-0.235408
0.565536
0.0528661
0.364011
0.537056
0.445704
0.0127282
-0.344426
0.477761
0.436414
0.13953
-0.0824254
-0.363729
-0.121981
0.429245
0.670026
0.485337
0.206897
-0.0292927
-0.468615
-0.20923
0.0650699
0.241434
0.468604
0.267377
0.0063933
-0.422074
-0.176629
-0.0330833
0.475277
0.137888
0.256576
0.197111
0.196922
0.584097
0.386965
-0.095551
0.261659
0.52379
0.40765
-0.189071
-0.184437
0.0257498
-0.316576
-0.345179
-0.112202
-0.0289503
-0.181197
-0.540824
-0.0185122
0.118676
-0.171662
0.0282765
0.141635
-0.196261
0.00304416
-0.0885098
0.134472
0.440279
-0.376022
-0.0115536
-0.287654
0.282691
-0.403291
0.138868
-0.462295
-0.0821056
0.130408
0.0695358
-0.198687
-0.423533
0.168395
0.158063
-0.564029
-0.27223
-0.0479073
0.125721
-0.197476
-0.00855711
0.336538
0.30214
-0.392695
-0.0963537
-0.0612861
-0.236666
0.325707
-0.427604
-0.472207
0.172397
0.103865
0.420503
-0.330778
0.111328
0.0739104
0.196736
0.164385
0.429424
0.329033
-0.196812
0.109621
-0.0559814
-0.209475
-0.378875
-0.473087
-0.058304
0.288095
0.288896
0.693041
-0.519258
0.201957
-0.371433
-0.231595
0.0356749
0.0728382
-0.0856569
-0.0602294
0.188166
0.0848945
-0.0367443
0.513075
0.147518
0.498971
0.0768385
0.294077
-0.31983
0.228108
-0.35628
-0.0626886
-0.25859
0.0996849
-0.176743
0.167122
-0.366082
-0.000735197
0.181069
-0.100609
0.388862
-0.0209509
0.436188
0.150145
0.187736
0.0962906
0.208681
0.109277
-0.0719165
-0.519317
0.126744
-0.457896
-0.159401
-0.271643
0.0362124
0.325085
-0.246344
-0.309252
-0.398127
0.360903
0.286815
-0.316316
-0.396314
-0.515393
-0.0669587
0.0409609
0.0607261
0.22193
-0.440921
0.370235
0.215668
0.40205
0.443448
0.36653
0.184548
-0.127075
0.346051
0.139445
0.0902908
0.0743427
0.121363
0.0907885
0.377957
-0.0905526
0.0400807
-0.210727
0.14492
0.352815
0.121028
-0.0310184
0.274708
0.446988
-0.162715
-0.0789831
-0.397973
0.463008
0.337177
0.205399
-0.00189269
-0.00325038
-0.13009
-0.17312
-0.424409
0.395446
-0.42214
-0.258193
0.265897
0.254455
0.393597
-0.690827
-0.305545
-0.0308787
0.277685
-0.0352646
-0.400916
0.198675
0.326214
-0.213574
-0.210467
0.408623
-0.511712
0.114705
0.40412
-0.271736
-0.193302
0.0236496
-0.505275
-0.258818
-0.00706742
-0.0605767
-0.0777892
0.068816
-0.266242
-0.2431
-0.390706
0.064775
-0.503439
0.242534
0.0346548
0.0115207
0.0337482
-0.137784
-0.324884
-0.0536826
-0.267045
0.582476
-0.00761814
0.173186
-0.0910326
0.2873
-0.246125
0.453678
0.277713
-0.108771
0.533951
0.372472
0.290792
-0.354092
-0.291571
-0.00160389
0.315767
-0.0676496
0.133308
0.827392
-0.690062
0.0128986
0.278746
0.264719
-0.239075
-0.0897939
0.319785
-0.175619
0.491327
0.491721
-0.231791
-0.316157
0.00182997
0.36586
0.33112
0.0194142
-0.223401
-0.460819
0.684702
-0.235249
0.41178
0.375246
-0.150728
0.190829
0.384407
0.375307
-0.381329
-0.161406
0.293241
-0.09455
0.432442
-0.0382799
-0.140347
-0.0798018
0.26467
-0.0443983
0.0490054
-0.0305162
0.47582
-0.223169
0.0584153
0.274359
-0.106835
0.185116
-0.170725
0.480317
0.257037
0.466395
-0.344261
0.561577
0.374367
-0.0111705
0.40717
0.321558
0.325274
0.51144
-0.0697044
0.0367975
-0.0786208
0.148718
-0.334075
-0.0263447
0.0173721
0.181057
0.175634
-0.284812
0.0533673
0.22787
-0.246727
-0.295278
-0.136232
0.374865
-0.218669
-0.326886
0.180944
-0.293
-0.431665
0.0717755
0.0279877
-0.272705
0.0809787
-0.425836
-0.153631
0.197527
-0.651438
-0.443153
0.146332
0.0407368
0.0710203
-0.457089
0.234585
-0.278241
0.205394
0.0363592
-0.0377583
-0.428594
0.224133
-0.0403508
0.145681
-0.37966
0.456243
-0.16908
0.362598
-0.239554
-0.307422
-0.482043
-0.22327
-0.184314
0.148141
-0.319051
0.461894
0.00800502
-0.293944
-0.532294
-0.451718
0.274371
0.149125
-0.225293
-0.201964
0.119847
-0.532903
-0.00161899
0.0153355
0.0590083
-0.164598
-0.210845
-0.0628951
-0.283818
0.362359
-0.212933
-0.389516
-0.182333
-0.19341
-0.231897
-0.444006
-0.328986
0.512092
0.403963
-0.15936
0.156055
0.215262
0.169246
-0.104602
-0.112172
0.0760734
0.0191504
0.51566
-0.382276
-0.428481
0.400711
-0.124926
0.770333
-0.497912
-0.191562
-0.0297433
-0.368326
-0.0175104
0.333728
-0.175749
-0.0974585
-0.511381
0.369847
0.55616
0.18298
-0.385059
0.33132
0.520176
-0.0573904
0.308259
0.540846
0.303352
0.565434
0.414259
-0.674931
-0.47082
0.415304
0.0109551
1.36324
-0.167518
0.336646
0.449514
-0.260259
-0.573861
-0.21359
0.193419
0.157131
-1.36351
0.0180627
1.20446
0.527171
-0.691251
0.459605
0.00858081
-0.226638
0.209677
-0.525948
0.721164
0.553737
-0.363168
0.0964871
-0.277586
0.0208224
-0.204753
0.263573
-0.0236718
0.386405
-0.35
