#input normalization
0.160566 0.269469
19.718 28.0446
11.3987 34.319
8.95719 30.128
0.0117644 0.0384007
0.0096865 0.031547
0.52601 1.31785
0.823961 1.14631
1.01646 1.32786
1.23048 1.51654
1.47696 1.68552
1.73 1.83539
1.9743 1.96587
2.21076 2.0781
2.43718 2.17557
2.63908 2.23007
2.83415 2.26984
3.01462 2.27938
3.1636 2.25929
3.31178 2.18013
38.6193 50.1293
1 -1
#output normalization
1 0
#neurons weights
0.0991374
0.256346
-0.472568
-0.105013
-0.319656
0.0880779
-0.114489
0.471183
0.337363
0.0635751
0.420065
-0.345423
0.102013
-0.456594
-0.374607
-0.386357
0.125841
-0.147706
-0.120419
-0.0587977
0.110138
0.149623
0.377678
0.686722
-2.66041
-0.553832
-0.0237651
0.0131908
-0.228115
0.624932
-0.437817
0.332224
-0.408107
-1.30443
0.443842
-0.0274678
0.00400632
-3.63778
-0.185797
-1.47012
-0.00968944
-0.768889
-0.479238
0.646673
-0.579678
0.0112496
-0.661361
-0.198684
0.121485
-0.623529
-0.344362
0.351245
-0.0379604
-0.536325
0.111038
0.134896
-0.230983
-0.0787443
-0.746312
0.0214608
-0.565203
-0.270985
-0.293443
0.513281
0.493037
-0.231557
-0.26246
0.470404
#synapses weights
0.0586298
0.103092
-0.261732
0.433816
0.599082
0.0208905
0.47504
0.314015
-0.179842
-0.00852683
-0.103347
0.241242
-0.313638
-0.254004
0.0173841
0.229892
-0.0697248
0.225717
0.134178
0.0905076
-0.0740204
-0.196479
0.143469
0.469229
0.232453
-0.142407
0.0387402
-0.211097
1.58194
-0.206976
0.0543927
0.302937
-0.131946
0.478192
0.217043
0.242424
-0.0903784
-0.254464
-0.196721
-0.355483
0.0335002
-0.0423035
0.843619
0.0251319
2.82097
-0.320336
-0.226035
0.124411
0.279591
-0.17205
-4.31823
0.288267
-0.0372831
-0.0524921
-0.0458193
0.0225886
0.0434986
-0.0418693
0.0307765
0.0868413
-0.0225199
0.0117864
0.103596
0.0468428
-5.25343
-0.388626
-0.153563
-0.227798
-0.237683
0.0018247
-0.266329
0.0427683
0.935498
-0.556683
0.122581
0.0738421
0.10021
-0.0285285
0.00836904
0.384314
-0.105752
-0.10649
0.365833
0.117929
0.136023
0.423857
-0.409176
0.236044
-0.454786
-0.437455
-0.3305
0.135443
0.0778617
0.250647
0.393135
-0.726158
-0.208509
-0.61974
-0.353234
0.167061
0.164356
-0.353848
0.245002
0.345923
-0.0633274
-0.481701
0.0225126
0.42123
1.01853
-0.402824
0.300644
0.297058
0.411623
-0.425424
-0.136134
-0.195888
0.331017
-0.0493974
0.124948
0.21516
0.296433
-0.369912
0.0641062
-0.48193
0.0290485
-0.274782
-0.257859
-0.350672
-0.384631
0.267066
0.254294
-0.0961159
0.405105
0.186667
-0.37831
0.335331
-0.0598472
0.252754
-1.05396
-0.389022
-0.332176
-0.369343
0.123851
-0.1929
-0.00475785
-0.0305022
0.170892
-0.139717
0.0473344
-0.0475153
-0.0390677
0.229161
-1.11174
-0.214748
-1.09174
0.164658
-0.36067
0.116718
0.245451
0.234895
0.364298
-0.130608
0.0211034
-0.0405719
-0.17983
-0.109173
0.11659
-0.448026
0.162531
-0.198071
-0.0335224
0.00650014
-0.144449
0.172383
1.14214
-0.0809211
-0.261021
0.184828
-0.278093
0.104458
-0.129432
-0.167893
-0.690162
-0.213783
0.0411588
0.0429128
0.145638
-0.155141
-0.0820432
0.067535
0.251937
-0.484946
-0.379881
0.0666826
0.431473
-0.130212
-0.0545893
0.422362
-0.94077
-0.173954
0.227212
-0.229744
0.0151725
0.12907
-0.599905
0.0847768
-0.192538
0.243245
0.147603
-0.106673
0.0778331
0.241782
-0.468302
0.4925
0.0507519
-0.24492
-0.344153
0.225116
1.60331
0.0595608
0.959325
0.439753
-0.00141006
0.188739
0.293343
-0.0888181
0.345353
0.0851098
0.71674
0.227393
-0.236735
0.0190236
0.18903
0.259755
-0.31428
0.0598158
-0.426584
0.0122234
-0.305711
0.0784478
-1.17817
-0.278004
0.469259
-0.679463
0.0214045
-0.0281361
-0.138965
0.562791
-3.22093
-1.47156
-0.833276
-0.643658
0.0278541
-0.066496
0.0334541
-0.448007
-0.259596
0.0817403
-0.243157
0.113005
0.171568
0.0528616
-1.28365
0.307532
-0.474108
0.314079
0.204064
0.255562
-0.00838492
0.0167146
-0.0346778
-0.16202
0.0438912
0.00304443
-0.3508
-0.117978
-0.328553
0.332069
0.023665
0.0125943
-0.277629
0.0204806
0.215093
-0.390187
1.08925
0.328735
0.373434
-0.451893
0.0438247
-0.137254
0.273419
-0.318667
0.430591
-0.130571
-0.0256589
-0.218516
-0.321482
-0.119695
-0.033086
0.0606335
0.0118674
0.453735
-0.12377
0.189622
0.0782602
-0.342178
-1.20842
0.153335
0.271168
-0.14679
-0.345603
0.140399
-0.0875759
-0.158322
-0.500422
-0.459627
-0.590383
-0.303986
0.0840796
-0.0127565
-0.0471539
0.454085
-0.221728
0.320164
0.241437
-0.38396
-0.175637
-0.0382781
-0.586781
-0.430844
2.1333
-0.324352
-0.283736
0.0358606
-0.100334
0.0210704
-5.43695
-3.92556
-0.164504
0.0299892
-0.00834133
0.0152815
0.0473281
0.0299587
-0.00824261
0.167751
-0.061451
-0.0771714
-0.0741598
-0.0403367
-3.94731
-0.0577699
0.744101
-0.147804
0.223117
0.337766
0.0366403
0.291377
0.546755
-0.0157717
0.202453
-0.386506
-0.00159405
0.204372
-0.279538
0.309925
0.280326
-0.511412
-0.435917
0.194367
-0.0663362
-0.026557
-0.91503
0.275608
1.07476
-0.216827
-0.0328035
0.0603504
0.00520777
0.0594471
-0.888972
-0.280862
0.115291
-0.0410091
-0.0658762
0.0763247
0.079069
-0.112156
-0.0435979
0.189102
-0.220764
0.094318
-0.097734
0.0646294
-2.28347
-0.24026
-0.525333
-0.230812
-0.318927
0.104037
0.306049
-0.252465
0.0146356
0.0256988
-0.0577152
-0.239886
0.332023
-0.28761
0.209593
-0.226602
0.247429
-0.316303
-0.4381
0.122624
-0.0318366
0.0509735
0.626756
-0.200889
1.41149
-0.0532107
-0.205247
-0.00409692
0.229636
-0.237052
-0.267116
0.396994
-0.363
0.067473
0.260955
-0.284612
0.0661188
-0.0786617
0.0679971
-0.133805
0.0783769
-0.129652
0.0877955
0.108325
-2.56457
-0.0637533
-0.248351
0.0623418
-0.271096
0.363676
-0.387328
0.265262
-0.854031
0.373249
-0.33489
-0.340203
0.202418
-0.574016
0.528629
0.00203765
-0.206105
-0.139146
-0.435694
0.332789
-0.301149
0.0696268
-0.24621
0.439904
-0.401881
0.134202
0.551506
0.0960372
0.0719489
0.108456
-0.680913
0.420169
0.285189
-0.220288
-0.191164
-0.099922
-0.201451
-0.237527
-0.032552
0.103392
0.0713141
-0.0366018
-0.509569
-0.444137
0.0143668
0.0630095
0.217696
0.363501
0.143681
0.284291
0.261914
0.129749
-0.378163
0.209502
-0.472825
0.279702
-0.28115
-0.0949701
-0.269378
-0.389532
0.295536
0.14568
-0.00187529
-0.184427
-0.0199305
0.191487
-0.632244
0.411658
-0.589457
-0.538438
0.351534
0.0969433
0.402771
-0.28398
-0.0534037
0.340815
0.221365
0.448634
-0.0476173
-0.0377031
-0.0760039
0.217408
-0.0673156
0.527164
-0.443221
-0.237391
0.25514
-0.484855
0.171087
-0.209721
0.0869756
-0.287785
-0.450672
-0.43818
-0.427008
-0.0742083
-0.471881
0.157288
-0.25053
0.0783263
0.262046
0.174815
0.901166
-0.142069
-0.164214
0.248793
-0.504718
0.0371868
-0.459417
-0.124616
0.161407
0.291499
-0.138777
-0.198349
-0.247155
-0.39583
-0.323443
-0.0614095
0.0481033
-0.0261335
-0.324265
-0.0688233
0.180355
-0.42686
0.378184
-0.126094
0.175363
-0.313745
0.141416
0.294616
0.386772
0.727994
0.00456847
0.27994
-0.407392
0.203809
-0.206176
0.277386
0.399741
-0.595867
-0.2391
0.236716
0.287696
0.227
0.212549
-0.121985
-0.372349
-0.341629
0.164017
-0.132944
-0.0767802
0.032618
0.0261595
0.383889
0.421175
0.384799
0.226513
-0.408411
0.140483
-0.371742
-0.319815
-0.489975
1.39683
-0.447049
-0.253426
-0.0266987
-0.317899
-0.207965
0.0434169
-0.150005
-0.0991623
0.283695
-0.0260371
-0.00654208
-0.501533
0.862784
0.377772
-0.660547
0.044603
0.182026
0.137932
0.241513
0.393857
-0.175031
0.272075
0.0969099
-0.105171
-0.520498
-0.0573755
0.252665
-0.0776052
-0.176485
-0.0266991
-0.297419
-0.345329
-0.181694
-0.0325454
-0.15585
0.0459174
-0.136617
-0.265776
-0.49834
-0.235781
-0.370323
0.233968
0.270615
0.115239
0.320742
-0.526995
0.116272
-0.644556
0.00500186
-0.0419157
-0.479656
0.0647404
-0.0541961
-0.156923
-0.271889
-0.0890183
-0.158358
0.380971
-0.783646
0.217684
-0.235333
-0.146115
-0.0783474
-0.0287392
0.324462
0.219395
0.241993
0.0755208
-0.179617
0.286454
0.0741854
-0.0900639
0.501927
0.242438
-0.232538
0.49209
-0.0724467
0.570147
-0.0645551
0.0782365
0.333912
0.115751
-0.609148
0.0910408
0.0781048
0.336138
0.481208
-0.083045
-0.0771149
-0.0824981
-0.590734
1.28553
-0.00231597
0.364041
-0.434321
-0.202577
-0.169134
-0.35367
-0.349937
-0.0624411
0.267886
-0.0070809
-0.130586
-0.130507
0.965283
0.56248
0.11555
0.0885524
0.811265
0.119073
0.435921
-0.0646137
0.121661
0.354329
-0.404282
-0.0474422
0.279021
0.16331
-0.0918821
0.0520836
0.00984432
-0.0129836
-0.0277773
0.385871
0.0283655
-0.250722
-0.138224
0.357153
0.217264
-0.14714
-0.429665
0.0304449
0.204327
0.224336
-0.394967
-0.473907
-0.582112
-0.105127
-0.450492
-0.0221414
-0.162126
-0.249583
-0.275295
0.437136
-0.885011
0.477728
-0.156705
0.169974
0.0756445
0.168348
-0.384039
-0.145716
0.56209
-0.580436
0.802947
0.0914227
-0.396865
0.540812
0.133688
0.370501
0.0775453
0.159758
0.221983
-0.63863
0.285624
0.101458
0.0915663
-0.00245518
-0.160108
0.0432354
0.251623
0.41364
0.464166
-0.667504
-0.136265
-0.154671
-0.327457
-0.152135
-0.346532
0.388638
0.452363
0.25505
-0.229568
0.174049
0.0179768
0.0444859
0.205194
-0.15677
0.142302
0.556469
-0.0688561
-0.458935
0.228281
-0.491051
0.350714
0.184336
0.133462
0.254556
-0.26198
0.194001
0.0888334
-0.274016
-0.0329721
-0.183571
0.146543
-0.226195
1.57234
0.22196
-0.33665
0.522776
0.112258
-0.674118
-0.589492
-1.05354
0.791429
0.0457906
-0.713949
0.907231
0.410017
1.18849
0.569979
0.240864
-0.461811
1.27326
-0.378558
-0.381599
0.1684
-0.505186
-0.0873841
-0.475643
-0.122957
-0.252996
-0.563981
0.493971
-0.824263
-0.232062
-0.290156
0.447619
0.277479
-0.0739269
0.305954
0.10837
-0.351389
-0.288182
0.954967
-0.352191
0.459141
-0.29981
-0.044496
0.164005
-0.227325
-0.835901
0.387992
-0.493072
-0.62658
-0.321915
-0.507251
-0.700375
-0.600863
-0.389984
0.419211
-0.0240477
-1.22772
0.0838494
0.143269
1.20195
0.175419
0.147125
-0.0839582
0.794058
0.242912
-0.082588
0.190197
-0.0599273
-0.292974
-0.311058
0.179633
-0.23429
-0.174935
0.374976
-0.434952
-0.199502
-0.104802
-0.345875
-0.431014
-0.419025
-0.0272642
-0.115876
-0.210336
0.390478
0.733184
-0.275027
1.00432
-0.472522
0.178148
0.207729
0.363109
0.142532
0.135068
-0.179901
0.387915
0.0562186
-0.0549455
-0.177267
0.366328
-0.0982881
-0.326651
-0.223341
0.131185
0.379605
-0.306404
0.400646
0.324015
-0.641586
-0.444246
-0.0487881
-0.408645
-0.360224
-0.504394
0.203056
0.720253
-0.998646
0.362524
0.485124
0.460737
0.0543484
-0.6563
0.334293
-0.1521
0.0296163
-0.144705
0.173769
0.504653
0.142044
-0.79096
0.588981
0.0536599
0.152149
0.431575
-0.0551688
0.352435
0.425341
0.407834
0.39278
0.239507
-0.118198
0.12875
0.111285
0.447008
-0.0213207
0.266125
-0.392239
-0.40037
0.301909
0.244449
0.143531
0.113076
0.104649
-0.259567
0.293804
0.150279
0.0327179
-0.346929
-0.0740632
-0.0153539
-0.221425
0.0464755
-0.282739
-0.267547
-0.431046
-0.287539
0.520655
-0.618221
-0.262
0.123973
0.469828
0.409631
-0.220418
0.579397
0.0423589
-0.127009
-0.0442253
0.557272
-0.149571
0.19651
-0.0406647
-0.12889
-0.319985
0.141823
-0.0463935
-0.500845
-0.0284051
-0.321172
-0.0396506
0.142254
-0.161554
-0.213129
0.407981
-0.035028
-0.0873312
0.0498694
-0.381139
-0.279731
-0.0716595
-0.080858
-0.333908
-0.332598
-0.255832
-0.375044
0.27503
-0.0166795
0.330805
0.738884
-0.551671
-0.367389
0.646916
0.265455
0.346163
-0.314634
0.00158023
0.190238
-0.700051
0.239317
0.292544
1.5909
-0.750583
-0.83993
-0.772506
0.255806
-0.702481
-0.130687
-0.25611
0.121897
