#input normalization
0.160555 0.269453
29.8896 37.61
10.8736 36.4884
8.53894 31.0982
0.0114553 0.0410329
0.00938685 0.0326435
0.52601 1.31785
0.823961 1.14631
1.01646 1.32786
1.23048 1.51654
1.47696 1.68552
1.73 1.83539
1.9743 1.96587
2.21076 2.0781
2.43718 2.17557
2.63908 2.23007
2.83415 2.26984
3.01462 2.27938
3.15896 2.26461
3.28283 2.21551
3.38211 2.15303
3.46272 2.06189
3.51946 1.96532
3.56542 1.82784
38.6193 50.1293
1 -1
#output normalization
1 0
#neurons weights
-0.246102
-0.0150443
-0.331018
-0.23174
0.440779
0.102126
0.386098
0.236772
-0.168697
-0.316607
-0.386644
-0.486641
-0.494327
-0.440345
-0.0347999
0.0372723
-0.397697
0.453497
-0.329791
0.454303
0.456016
-0.468134
0.0266702
0.321357
-0.00919971
0.0065866
0.16767
1.06367
0.249023
-0.516917
0.490467
0.119686
0.335492
-0.082596
0.178901
0.278274
-0.360141
-0.529984
2.88583
0.235036
0.0947365
-0.083793
-0.263559
0.50984
-0.283686
-0.268848
0.195849
0.293615
-0.427756
0.0768076
-0.0859802
-0.413185
0.0829476
0.436482
-0.0817293
0.289255
-0.071172
-0.398535
-0.246507
-0.274686
0.581061
-0.082649
0.529872
0.221601
-0.223679
-0.416765
-0.0257573
0.32384
-0.184093
-0.180002
0.0548139
0.670661
0.386922
-0.285245
0.0983116
-0.223598
-0.114301
-0.575758
-0.155073
0.000792287
#synapses weights
0.716031
-0.343872
-0.131412
0.234169
0.313368
-0.415583
0.554008
-0.0243813
0.30405
-0.120366
-0.00359935
0.0955334
0.439177
0.0628963
-0.159145
0.345434
0.459138
0.140091
0.24043
0.354257
-0.36016
-0.102642
0.137924
-0.243468
-1.824
-0.0546667
1.85619
-0.241648
0.0407142
-0.228824
0.0639149
-0.0878256
0.329792
-0.0741673
0.0229878
-0.0563296
0.0682416
-0.0945198
0.111182
-0.178058
0.186762
0.0720862
0.113205
-0.135507
0.0698
-0.108195
0.000622092
0.340608
-0.230079
0.0791758
-3.51172
-0.323213
-0.434684
-0.123518
0.201312
0.02219
0.119126
-0.466507
1.26322
0.661044
0.173694
-0.210904
0.158157
-0.284577
0.255631
-0.29849
0.226691
-0.0423941
-0.0203586
0.191043
-0.251734
-0.167277
0.216573
-0.00146297
-0.143374
0.0489362
0.938154
0.157743
-0.0351646
0.386083
0.300548
0.116004
-0.269026
0.237841
0.687498
0.0924804
-0.259717
0.0872154
-0.450991
-0.109572
-0.057624
0.199877
0.0528984
-0.293899
0.137072
-0.0851215
0.285272
-0.0684335
-0.354255
0.0832407
-0.102559
0.0993476
0.29793
0.37392
-1.72726
-0.0438866
-0.0291571
0.0645989
-0.0890679
0.105866
2.33642
0.0415117
0.20789
-0.0478665
-0.088676
-0.00848068
0.0299774
-0.0461913
-0.0273799
0.0815613
0.016575
-0.0485177
-0.0775506
0.121554
0.074863
-0.0451369
0.0065709
-0.0905764
3.02197
0.0658206
-0.581501
-0.132741
-0.136272
-0.039824
0.38646
0.0553023
0.119778
0.288252
-0.413941
-0.261226
0.0715141
0.345576
-0.31628
-0.00678367
-0.317032
0.203498
0.338371
-0.188614
0.669784
0.0641617
-0.177073
0.0626755
-0.320318
-0.330535
1.06212
0.0675527
-0.0255733
0.304597
-0.294743
-0.282297
-0.0149546
-0.301549
0.215136
-0.0909591
-0.500336
0.208426
0.313907
0.291138
0.331135
0.00371861
0.00366299
-0.214005
-0.191938
0.150667
0.252478
-0.0229258
0.343737
0.377394
-0.0298631
0.162604
-0.14829
0.457592
1.15521
0.194148
0.372294
-0.347507
0.340552
-0.293475
0.231423
0.0253579
-0.115769
0.234576
-0.00624364
0.127546
-0.311268
-0.223778
-0.150372
0.00993509
-0.0891847
-0.19827
0.0973491
-0.0803475
0.19123
-0.180925
0.105314
0.0480804
-0.758548
0.145459
-0.354625
-0.200047
0.118446
-0.311254
0.151012
-0.266568
1.19997
0.578545
0.6676
0.205288
0.02476
0.0317484
-0.0683905
0.0944466
0.127667
0.161969
0.156869
-0.548724
-0.232495
0.220677
0.312112
-0.304935
-0.284094
0.302696
0.758226
0.360207
-0.463874
0.132003
0.203071
0.302714
-0.446669
-0.130481
0.546583
0.610188
0.0871297
0.196239
-0.310824
0.0598023
-0.217925
0.274685
0.15657
-0.43462
0.362845
-0.164783
-0.161793
0.468752
-0.0679648
-0.27453
-0.058034
0.372953
0.999021
0.307055
-0.902954
0.020832
0.0881347
0.0304986
0.177625
-0.114665
3.12672
-0.632827
0.122484
-0.266061
-0.0876756
-0.0875989
-0.448642
0.596359
-0.24995
0.230023
-0.06509
-0.0849178
-0.333252
0.0216292
0.108275
0.225248
-0.162853
-0.0100264
1.04787
-0.140958
1.12803
0.268283
-0.0380414
0.0624968
-0.199868
-0.0403828
-0.237153
0.568434
0.0561426
-0.230764
0.298511
0.0758029
0.0148491
-0.0737659
0.178559
-0.0774114
-0.0580074
0.116575
-0.129964
0.207188
0.0770974
-0.272726
-0.333263
-0.1706
-1.00578
-0.0818602
-2.11117
0.0990578
0.0873823
-0.0717989
0.146294
-0.125741
4.00068
5.03369
-0.163277
-0.131969
-0.00369644
0.0895588
-0.236371
0.200238
-0.129865
0.208762
0.106378
0.0709874
-0.233277
-0.00360855
0.110438
-0.0191397
-0.163354
0.0135464
4.10512
0.272869
0.630479
-0.15574
0.285
0.117863
0.289136
-0.151397
-0.822515
0.432791
0.286084
0.241983
-0.0903435
-0.225063
-0.419466
0.187069
-0.20478
0.18389
-0.321029
0.107131
0.0211988
-0.319037
-0.0283084
-0.318257
0.0570342
0.251559
-0.0951698
-0.497154
0.674852
-0.288973
-0.3879
0.508906
-0.0733746
0.0423412
-0.766195
0.338228
0.0440918
0.0779899
-0.477945
-0.0123103
-0.20735
-0.263527
-0.43809
0.216399
0.021288
-0.0112482
-0.212237
0.187138
-0.254983
-0.429004
-0.327059
0.0762897
-0.620273
0.0560784
-0.0894678
0.122318
-0.205884
-0.215664
0.0945344
-0.10698
0.74521
0.177299
0.24951
0.00838609
-0.258673
-0.0920819
-0.0229365
-0.246395
0.365651
-0.103869
-0.0969562
0.324281
-0.552296
-0.0802129
0.231752
0.0378683
0.370554
-0.0277537
1.06706
0.0836581
-0.444108
0.113756
0.185206
-0.185215
0.074601
0.0377913
0.700493
0.661031
-0.0317459
-0.100903
0.508721
-0.275047
-0.0265088
-0.145794
-0.444135
0.110233
0.118498
0.250767
-0.129887
-0.0837103
-0.0316704
-0.129677
0.182627
0.282365
0.977923
0.459567
0.0388459
-0.679036
0.185363
-0.00748869
0.309761
-0.562102
0.664412
-0.267435
-0.483779
-0.165595
0.0072255
0.303763
0.155461
-0.155731
-0.344747
-0.044554
0.00340652
0.0273313
0.187984
0.0977311
0.151018
0.114118
0.111011
0.154094
0.934642
-0.271103
-0.631113
-0.1557
0.270648
0.101087
0.0722914
-0.287887
2.6914
-0.190442
-0.0223328
0.0885425
0.150648
-0.0647874
0.102272
-0.057074
0.208683
0.304782
-0.2714
0.519339
-0.201374
-0.234512
-0.175149
0.20469
0.159912
0.204793
1.3392
-0.260255
-0.154403
0.543399
0.437135
-0.411696
-0.248262
-0.0461364
1.95963
-0.269269
0.303898
0.0600226
-0.294463
0.253622
-0.145805
0.193564
-0.224131
0.165731
0.154523
0.320679
0.0135102
-0.13885
0.160165
0.304999
-0.323602
-0.287261
0.624809
-0.0197701
-0.361817
0.0882825
-0.390852
-0.265389
-0.439458
-0.386619
0.147883
0.545446
0.399228
0.488618
-0.312818
0.439105
-0.126097
-0.263043
0.339639
-0.275694
0.0375716
-0.290327
-0.0918528
-0.35183
-0.0623401
0.23491
-0.335126
0.255725
0.144834
0.250693
-0.0333115
-0.533749
-0.197851
-0.106045
-0.159986
0.0805879
-0.596142
0.0382852
-0.399743
-0.575004
0.320389
0.0592786
0.0617885
-0.200803
-0.305049
0.44421
0.531787
0.428759
-0.259625
0.418734
0.426349
0.25355
0.0624731
-0.0459727
-0.298808
-0.393973
-0.927423
0.393314
0.0196276
0.0447119
0.234508
-0.153971
1.32896
-0.208513
0.44201
0.0345435
-0.00230217
0.0493543
0.144108
-0.0798541
-0.167846
0.31209
0.0951317
0.108768
-0.282272
0.55462
-0.123749
-0.160347
0.276177
0.307674
1.41061
-0.416329
0.693455
-0.120298
-0.0963163
-0.0246296
-0.169634
-0.239156
0.49131
-0.293629
-0.0247955
0.331584
0.354503
0.102304
0.0816449
-0.0395478
-0.165546
-0.359265
0.146013
-0.0823594
0.231357
-0.0203834
0.257499
-0.0185013
0.26741
-0.127266
-0.67142
0.334817
0.142827
0.251708
0.178169
-0.109438
0.218295
0.160948
-1.25782
0.422997
0.199686
-0.0633937
-0.420169
-0.264133
0.151111
-0.407479
-0.0781523
-0.128272
0.218176
0.0343198
-0.271985
0.128883
-0.286372
0.336464
-0.105543
0.156937
-0.966283
0.265573
-0.0167494
0.220757
-0.217968
-0.420414
-0.335124
-0.365789
0.342452
0.104476
-0.398479
0.0635744
-0.422866
-0.429937
0.392652
-0.257154
0.0974064
-0.00330316
0.136841
-0.117074
0.56302
-0.122535
0.19451
0.31169
0.390917
-0.0604857
0.0924075
-0.355464
0.265043
-0.173509
0.224941
0.0599023
-0.156471
-0.0314263
0.451005
0.194798
0.402895
-0.20483
0.185526
-0.0688241
-0.255683
-0.0878928
0.10918
-0.164781
0.0722333
0.306561
-0.195584
-0.0951864
-0.318004
-0.226549
0.00404398
0.0425275
-0.787742
0.467019
0.366418
0.0251509
0.0512127
0.305126
-0.254309
0.171515
-0.333656
0.210067
0.368846
0.175289
0.258139
0.345953
-0.312823
-0.357584
-0.351988
-0.389481
0.415623
-0.17954
-0.482412
0.113362
-0.352738
-0.205626
0.34127
-0.261142
-0.328678
-0.0451204
-0.37842
-0.377332
-0.301081
0.129719
-0.153116
0.218509
-0.466822
-0.128962
-0.291704
-0.52175
0.279773
0.0544363
-0.479064
0.0605623
0.00554422
-0.411735
-0.228433
-0.5136
-0.198105
-0.605611
0.214612
0.256945
-0.259776
-0.451579
0.0283308
-0.215777
-0.26669
-0.509115
0.450994
-0.25412
0.318002
-0.0998813
0.00829201
0.262003
-0.0441567
0.302393
0.367762
0.104595
0.356669
0.0554254
0.053631
0.151678
-0.0784427
0.163935
0.217441
-0.252015
0.259447
0.43377
-0.0580682
-0.347035
0.329942
0.469096
-0.256545
-0.0402662
0.362716
0.294534
-1.02394
0.322564
0.628494
1.14598
-0.650156
0.0496039
0.18994
-0.269393
-0.028213
0.577541
0.537625
1.20255
-0.478491
-0.705263
0.120198
-0.635673
-0.0833384
0.717609
0.835952
-0.179055
-0.0975737
0.357996
0.450988
-0.302693
0.260505
-0.0963749
0.441841
-0.343612
-0.238923
0.293683
-0.187524
-0.204521
0.262654
-0.318972
0.429973
-0.424003
0.223235
-0.440562
-0.135791
-0.350832
-0.22182
-0.248796
0.44946
-0.0636
0.220876
0.07885
-0.0283426
-0.473146
0.0344768
0.30134
0.00831906
-0.415783
-0.0105607
-0.0229296
-0.779256
-0.116012
0.376974
0.308069
-0.0982944
0.232176
-0.0724847
-0.37535
-0.343182
-0.0884974
-0.0339335
0.260921
-0.357692
-0.202923
-0.0401816
0.227679
-0.0859659
0.306128
-0.452196
-0.0896726
0.329495
0.0574402
-0.00674209
0.421041
-0.610986
-0.159107
-0.392829
0.607436
0.311881
0.0770907
-0.312587
0.365151
0.0934741
0.117148
0.274565
0.0878148
-0.140519
-0.212857
-0.568149
-0.0341261
-0.00490072
0.593719
0.647627
0.0691889
0.451251
0.626388
0.518489
-0.104773
0.684877
0.234735
-0.305847
-0.261442
0.277995
0.0810517
0.105562
0.229136
-0.000360518
0.025724
0.0523928
0.187252
-0.289283
-0.466667
-0.24184
-0.240078
-0.245227
0.0865005
-0.241236
-6.26331e-05
0.552196
-0.223296
0.245501
-0.151967
0.333231
0.27206
-0.0716843
0.335492
-0.0283839
-0.19468
-0.118116
-0.102366
-0.401783
0.170629
0.309492
0.363825
0.168149
0.363393
0.0912162
-0.346402
0.170451
0.465586
-0.511056
-0.037627
0.0738686
0.138155
-0.22401
0.149092
-0.00282494
-0.130049
0.284253
-0.11327
-0.0834567
0.333664
-0.15384
0.119849
-0.614545
0.083737
0.0863922
-0.567884
-0.063198
-0.0250758
-0.334616
-0.333304
0.430013
-0.00610632
-0.473296
-0.727847
0.127397
-0.728052
0.112637
-1.42805
-0.579179
0.220814
0.0924134
-0.149235
0.19384
-0.574997
0.0253355
-0.231099
0.364129
-0.603408
-0.107289
-0.979118
0.368204
-0.567541
0.53237
0.533246
0.529381
0.394861
-0.607661
0.145394
-0.0552044
0.261801
0.487412
0.294438
0.378921
-0.280626
-0.241794
-0.337406
-0.351081
-0.307352
0.194373
0.524821
-0.109057
-0.310647
-0.318967
0.0532964
-0.221691
0.317778
0.0592749
0.0532124
0.0286287
0.436183
0.0272442
0.0681122
0.148425
0.234851
0.346377
0.371369
-0.163886
0.495389
-0.297213
-0.328563
-0.0633729
-0.206359
0.344149
0.162327
0.442622
0.0860049
0.309648
0.12774
0.193827
-0.0435817
0.585945
0.251474
0.200325
0.0417031
0.355683
0.251706
-0.275268
-0.028317
-0.555363
0.170189
-0.0053339
-0.196152
-0.260882
0.51603
-0.517053
-0.100439
-0.30097
0.0539611
0.0333315
0.210757
-0.177516
0.226875
-0.0213227
-0.317429
-0.165487
0.284985
-0.134333
0.25276
0.32334
-0.36014
0.638894
-0.0652557
0.13023
0.392918
-0.197665
-0.335804
-0.247145
-0.100261
-0.455429
0.0244165
0.343092
-0.494333
-0.203188
-0.499241
0.600719
-0.649526
-0.603825
0.0096211
-0.0488197
-0.234022
-0.0154068
-0.6747
-0.68179
0.166273
-0.41265
-0.522304
0.204462
0.0849373
-0.00552303
-0.0329251
0.75535
0.928931
0.382817
0.0132003
-0.681492
-0.023279
-0.724291
0.388801
0.0122461
-0.25605
-0.220522
-0.355715
-0.505894
0.329013
-0.0556646
-0.0756863
-0.0900217
-0.170676
-0.108555
0.259576
-0.0312355
-0.285262
-0.268428
0.246791
-0.693728
-0.425891
0.0749888
0.0637748
-0.0763402
0.282894
0.00737541
0.727757
-0.284758
0.389903
-0.328519
-0.484313
-0.318915
0.497238
0.394672
0.621717
0.310365
-0.265649
0.130325
-0.312966
0.172506
-0.0117808
0.0138542
0.400427
0.248805
-0.507483
-0.0988831
-0.37258
0.201213
-0.209327
0.33016
0.214716
0.581878
-0.271993
-0.532155
-0.432831
0.129232
-0.180864
0.190715
0.269564
-0.406595
-0.410957
0.772338
-0.456604
-0.263103
0.555919
0.480322
0.157633
-0.172362
0.0425851
-0.136049
-0.388127
0.376247
0.309971
-0.495489
0.228487
0.246232
-0.371787
0.0107924
-0.304747
0.125903
-0.370168
-0.447215
0.149247
0.344611
-0.533132
-0.320437
0.0953868
-0.030039
0.459603
-0.00258823
-0.42214
0.0546835
0.283169
-0.460534
-0.00343721
0.247831
-0.478565
0.00079247
-0.386354
-0.156929
-0.351383
-0.350403
-0.209974
-0.508434
0.00229819
0.165068
0.313964
0.2823
0.597765
0.250989
-0.616209
0.529086
0.820452
-0.0151912
-0.328804
-0.0925876
0.251387
-0.207721
0.413426
0.28782
0.645176
0.0571628
-0.170292
0.0296115
-0.307316
0.792576
-0.334071
-0.313873
0.43925
-0.603042
0.0883227
0.480184
-0.621415
-0.446645
-0.0577082
-0.0783999
-0.143133
0.101484
0.21261
0.467411
-0.324383
0.053236
-0.51973
0.224917
-0.178111
-0.266703
-0.0603883
0.087252
-0.107388
-0.596767
-0.103497
-0.223812
-0.306071
-0.073587
-0.0615982
-0.330669
0.122527
0.046047
0.359751
-0.151638
-0.0968678
0.132059
0.261936
-0.6193
-0.594789
-0.256759
0.0117333
-0.653113
-0.17054
-0.799609
0.00836193
-0.0856196
0.0969054
-0.259957
0.0573287
-0.192617
0.338234
-0.0562903
0.541024
-0.354735
-0.197774
-0.233013
-0.139576
-0.765654
0.185882
0.563788
0.111598
-0.585629
-0.207769
-0.0724137
-0.209884
0.169666
-0.32252
0.259349
-0.0381055
-0.482327
-0.725179
-0.126527
-0.372331
0.272409
0.238267
-0.459023
-0.268593
-0.592968
0.288377
0.315468
-0.324825
-0.157508
0.0894388
-0.452681
0.0284074
0.0544904
-0.592096
-0.184658
-0.214776
0.663397
-0.102271
0.273551
0.618451
0.507422
-0.0490113
0.746775
0.207975
0.952135
0.0867106
-0.0853447
-0.16987
-0.14149
-0.00882364
0.870706
-0.131952
0.0478198
-0.48003
0.450264
0.517254
-0.334615
0.0934226
-0.203062
-0.489393
-0.806493
0.132938
-0.44628
0.857919
0.0715631
0.00621364
0.249692
0.304602
-0.0956053
0.631208
-0.391344
1.13312
-0.213772
0.0511414
-0.645434
0.294003
0.399892
0.682324
0.499813
-0.535462
0.243229
-0.0728722
0.0283285
-0.559811
-0.0428424
0.0303184
0.151178
-0.606396
-0.0034429
-0.307903
0.122044
-0.0886045
0.0742384
0.263539
0.21848
-0.0488631
0.103002
0.254694
-0.214141
0.383133
-0.0691234
-0.545683
-0.422008
-0.468089
-0.35201
-0.233948
0.0259821
0.284626
-0.850589
0.222548
0.0604377
0.576311
0.542094
-0.418858
-0.407845
-0.315189
0.540506
-0.0627683
0.244148
0.24329
0.196906
-0.317816
-0.461137
-0.130726
-0.527386
0.400874
-0.281415
0.0919611
0.126577
-0.386062
-0.149975
-0.290841
0.164259
0.271522
-0.449029
-0.204117
-0.0996232
0.320205
-0.100903
-0.261902
-0.0124763
0.0487532
0.0455163
-1.23064
-0.239849
-0.461263
0.267825
0.523804
0.303148
0.999223
0.0722785
-0.353382
-0.0938494
-0.952975
0.834605
0.0854861
0.677172
0.279076
1.13085
-0.140171
0.355715
0.166318
-0.763014
-0.281488
-0.72029
-0.200922
