#input normalization
0.161125 0.272734
27.9287 37.4648
10.2988 34.3209
8.2407 30.319
0.0110476 0.0402642
0.00901466 0.0329023
0.542988 1.36901
0.823511 1.27769
1.05267 1.47112
1.29982 1.67897
1.57855 1.87949
1.86027 2.06281
2.12999 2.22636
2.39629 2.3791
2.64341 2.50023
2.87854 2.5868
3.10222 2.64749
3.30893 2.68228
3.48879 2.68793
3.62724 2.6498
3.75444 2.5955
3.86786 2.48837
1 -1
1 -1
#output normalization
1 0
#neurons weights
-0.0161042
-0.308724
-0.331467
0.430166
0.0811195
-0.210227
-0.0322612
-0.0345881
0.224625
-0.302652
-0.491402
0.290764
-0.12214
0.473798
0.400882
-0.0649357
-0.499249
-0.000894492
-0.349363
0.322947
0.156133
0.123369
0.16191
-0.377263
0.243006
0.189726
-0.137316
-1.37399
-0.401855
0.244604
-0.439262
0.113676
0.109545
-0.121208
-0.173326
0.0704933
-0.314789
0.16192
0.488546
-0.252857
-0.308015
0.142637
0.528773
-0.0530271
0.926924
-0.139586
-0.0379551
0.316619
0.18954
-0.289633
0.343988
-0.441806
-0.28033
-0.20041
-0.0419368
0.378677
-0.288179
-0.225037
-0.480153
-0.11752
-0.292803
-0.548209
-0.110302
0.215481
0.00322303
0.345115
0.641136
0.235146
-0.272323
0.341914
0.374092
0.515544
-0.0596887
0.0295925
#synapses weights
0.0448892
-0.317074
0.378067
-0.21797
0.393026
-0.109778
-0.505815
0.0570558
0.0155111
0.460242
0.329148
-0.0690835
-0.315663
0.215286
-0.325652
-0.28203
-0.199422
-0.398863
0.317074
-0.0967284
0.400494
-0.183264
0.399681
-0.323014
0.0820705
0.223384
-0.416558
0.133706
0.0310654
0.285032
-0.217164
-0.4687
0.283286
0.109184
-0.144367
-0.0513157
0.0655603
-0.542041
0.346268
-0.205494
-0.335815
-0.442328
0.291518
-0.203036
0.161434
0.384759
-0.484924
0.442485
0.312873
0.435909
0.114345
0.0609901
0.0784805
-0.215212
1.15563
-0.0998884
0.305559
0.277338
-0.1124
-0.0822359
0.0587577
0.166297
-0.0505677
0.0309387
-0.199871
0.193722
-0.47977
0.268736
0.322837
-0.533592
0.297029
-0.374346
-0.201268
-0.0737409
-0.331693
-0.0380042
0.209958
0.244216
-2.49285
-2.22376
-0.491306
-0.33131
-0.0149251
-0.172574
-0.111184
-0.00570385
-0.306887
-0.1928
0.0258009
-0.22879
0.164556
-0.158591
-0.0696713
0.254937
-0.0323223
0.400255
-0.0457837
0.0468344
-0.223849
0.056748
0.247427
-0.139585
-2.71984
0.34863
0.0708015
0.0730939
0.00577127
0.0362658
0.095504
-0.0635585
-0.0591085
0.00802919
-0.0447596
0.204152
-0.358654
0.167475
0.0246468
-0.242052
-0.0159605
-0.0560813
-0.134557
-0.469283
0.271323
-0.0362847
0.231844
0.450204
0.0745491
-0.0160932
-0.152659
0.29122
0.295103
-0.0653853
-0.30168
0.273193
0.00307624
-0.31841
0.0295884
-0.0653689
-0.248744
-0.341675
-0.247736
-0.419893
-0.321971
0.309268
0.182786
0.230556
-0.197111
-0.280375
-0.362627
-0.503208
0.131532
-0.833578
-0.0676021
0.16376
-0.258862
-0.0219496
0.135733
0.355943
-0.397945
0.0806908
-0.385841
-0.123912
-0.317447
0.286266
-0.0607374
-0.446389
0.31126
0.00371586
0.205281
0.124722
-0.28858
-0.344148
-0.298744
-0.0947611
-0.126252
-0.738524
0.07374
-0.0982086
0.288564
0.264681
-0.19933
-0.281546
-0.174969
0.0966685
-0.278427
0.160741
0.210247
0.033112
-0.344003
0.18393
-0.107763
-0.214798
0.178174
0.390439
0.2333
-0.0929695
0.153885
0.302385
0.745428
-0.677981
-0.404724
0.326536
-0.0389313
-0.134876
0.189923
0.556635
-0.246497
-0.124941
-0.160226
0.330073
-0.257526
-0.103877
0.0246114
-0.222126
0.22577
0.111063
-0.355251
-0.369372
0.148405
0.422868
0.351736
-0.218607
-0.61251
-0.576757
-0.181239
-0.0292825
0.0608621
0.437005
-0.349776
0.0616411
-0.0209058
0.375437
-0.407016
0.0934185
-0.0863551
0.21716
0.00784876
-0.0353708
-0.337349
-0.180362
-0.100735
0.299985
-0.337501
0.0482128
0.0134441
0.308953
-0.292707
-0.641005
0.108413
0.130342
0.0194682
0.241925
0.0112515
-0.459497
0.0314567
0.516982
-0.285634
-0.268241
-0.0324409
-0.0722947
0.334834
-0.0824977
0.125511
-0.352045
0.392973
-0.341075
0.167439
-0.118808
-0.205504
0.0400862
0.26526
-0.252125
-0.368536
-0.375019
0.0411943
0.0649181
-0.489435
-0.0907777
0.378273
0.0754957
0.00144973
-0.124095
-0.00275208
-0.0941534
-0.094816
0.440754
-0.114344
0.402771
-0.191676
0.333351
-0.236404
0.0170502
0.17362
-0.299595
0.867113
-0.536817
0.157653
-0.187967
0.176272
0.223342
0.379426
-0.402645
-0.238165
0.125851
0.135146
-0.353663
0.00814392
0.0146503
0.334658
0.181919
0.429816
0.158798
-0.29433
0.123778
-0.151955
-0.229198
0.422565
0.125279
0.275892
0.45767
-0.146214
-0.00618937
0.277058
-0.380162
0.397427
-0.27241
0.139355
0.244231
0.0162891
0.191926
-0.389552
0.000152523
-0.419953
-0.300586
0.487669
0.482244
0.236392
0.133107
-0.112228
-0.215217
0.0663998
0.375595
1.03354
1.21232
-0.00817004
-0.221919
-0.219346
0.251701
0.0710058
-0.358839
0.108003
0.168796
0.245997
-0.471332
-0.308519
-0.161818
0.0508506
0.220643
0.0964201
0.407199
0.152582
0.179851
0.646593
-0.176579
-0.322019
-0.0840449
1.45088
0.279008
-0.0180015
-0.237979
0.369162
0.267232
-0.413591
-0.202
0.114832
-0.379693
0.0816118
-0.375773
0.125605
0.122887
-0.16512
-0.21544
-0.355646
-0.493259
-0.0290458
0.103161
-0.0582269
0.186342
-0.169511
0.372643
-2.50692
-0.153583
-0.0781195
0.0350789
-0.149701
0.089687
-0.10345
0.0548709
0.00939443
-0.0110443
-0.210942
0.00423368
0.250689
0.084075
-0.123597
0.179064
-0.462866
-0.107466
-0.0219397
-0.199177
0.157532
-0.108952
-0.0269382
0.115037
-1.60694
0.169086
-0.261242
0.158567
0.244291
-0.210498
-0.0904525
0.133027
-0.209519
0.389601
0.469603
-0.390957
-0.262697
-0.33221
0.285899
-0.0646219
-0.366735
-0.414815
-0.257227
-0.0380964
0.103931
0.467834
0.346365
0.209523
0.589069
0.861474
0.848162
0.292155
-0.287167
0.370489
0.0745841
-0.0705171
-0.271316
0.27859
-0.19239
-0.365159
-0.0804866
-0.361993
0.0799213
0.200924
0.217321
0.0899748
0.519861
-0.00286268
0.463373
-0.373377
-0.118817
-0.344977
-0.300688
0.303846
-0.0808592
-0.0711336
-0.010609
0.0636975
-0.191738
-0.248396
-0.416241
-0.27228
-0.494645
-0.214109
0.118787
-0.0294969
0.189265
0.08857
0.393646
0.356377
-0.0176805
0.101704
0.0384439
-0.0192266
0.160607
-0.106385
1.41202
4.43432
0.0271805
-0.0813671
-0.11416
-0.116422
-0.0544652
0.0497592
0.00347547
-0.117748
-0.0314625
-0.0458733
-0.00388727
-0.00545169
0.0660152
0.0947764
0.171537
0.0588064
-0.217217
0.0824572
-0.24279
-0.298295
0.302017
-0.195991
0.774158
0.41437
0.0789172
-0.00374625
0.352264
0.194762
-0.169226
-0.212817
-0.30029
-0.125988
-0.0227762
-0.0960635
0.172637
-0.475497
0.06293
-0.0525346
0.114522
0.186081
0.0756142
-0.51777
-0.0423829
-0.0718232
0.0213871
0.245357
-0.871746
-1.04903
-0.0369143
-0.144859
0.117467
0.418482
0.135554
-0.102852
0.0738264
0.100679
0.160312
0.270078
-0.425957
0.0053479
0.00429709
-0.0583814
-0.107215
0.385233
-0.121554
0.413551
0.237844
0.0376877
0.22055
0.199801
1.0415
-0.0385349
-0.0724701
-0.0806662
0.148086
-0.0719388
-0.333536
-0.22314
-0.196633
0.167735
-0.0929436
0.237853
0.0153305
-0.0337318
-0.469122
-0.00991383
0.325495
-0.198223
-0.177194
0.440882
0.079767
0.0237091
-0.432387
0.392574
0.96209
-0.30719
0.198514
0.0475515
-0.00695933
-0.0127756
0.0529384
-0.0406917
0.0825021
-0.103104
0.264937
-0.110063
-0.329345
0.11328
-0.102695
0.0882901
0.292265
-0.260001
-0.0907717
-0.0171378
0.230487
0.571459
0.112749
-0.504523
0.180326
0.121523
-0.0518028
-0.0604877
0.0813205
-0.0471938
-0.256339
-0.174614
0.35583
-0.205113
-0.0518384
-0.229393
-0.1729
-0.2135
-0.225711
-0.15941
0.0303108
-0.0522629
-0.367678
-0.218557
0.194829
0.707661
-0.529689
-0.756607
0.020182
0.707713
0.556659
0.281109
-0.213199
0.366188
0.00565365
0.457425
-0.185313
0.51243
-0.0289484
-0.410604
-0.506303
0.12616
-0.308264
0.741366
-0.0773725
-0.10427
0.296759
0.402755
0.238113
-0.241247
0.312543
-0.0748846
-0.136765
0.157856
0.266732
-0.118941
0.367565
-0.01319
-0.0327911
-0.0130325
0.360213
-0.540832
-0.476282
-0.565598
0.275692
0.342648
0.0424203
-0.0247353
-0.0335557
-0.142445
0.329535
-0.381358
0.185055
-0.204676
-0.0899239
-0.45585
0.188706
0.384366
-0.471413
-0.389981
0.251774
0.333988
0.146596
0.258719
0.0916325
-0.225779
0.147757
-0.287083
0.0495376
0.0283024
-0.382559
0.2413
-0.307852
-0.249969
-0.265027
0.0407914
-0.422188
-0.0232955
-0.436704
0.176907
-0.212544
0.0352303
-0.02083
-0.629598
-0.0805647
0.176629
-0.23093
-0.248106
-0.442105
-0.105032
0.13526
-0.0391727
0.0343113
-0.285091
-0.0839718
0.416863
0.181744
0.369911
-0.629151
-0.388927
-0.0876801
0.139326
-0.1737
-0.0291517
0.228295
0.053005
-0.450563
0.259298
-0.439137
-0.276817
-0.26156
0.411795
0.0388384
-0.472261
-0.310987
-0.0657449
0.252181
0.364444
-0.0484623
-0.420603
0.357527
0.19696
-0.00510027
0.341743
-0.288231
-0.089359
0.109106
-0.546493
0.386168
-0.0346516
0.443299
0.0466235
0.357051
0.257263
-0.392971
-0.307523
0.175731
0.076048
0.0552644
0.296022
-0.119248
0.0795603
0.231602
-0.23611
-0.00593255
-0.453604
-0.0728732
-0.362087
0.488309
-0.197511
0.30882
-0.384444
0.355783
-0.307017
-0.118874
-0.0224701
-0.688182
0.201272
-0.0870728
-0.0427041
-0.142656
-0.0108348
-0.0574959
-0.421976
-0.291264
-0.312944
0.240674
-0.472461
0.0243298
0.0834611
-0.492461
0.283718
-0.250674
-0.156335
-0.367927
0.452874
0.277443
-0.176685
-0.108286
-0.272971
-0.431355
0.557351
0.380372
-0.56261
-0.290789
-0.0615767
-0.0361013
-0.137733
-0.00278082
-0.25802
-0.186103
0.21646
-0.0623348
-0.571398
0.228997
0.328159
-0.0814839
0.641799
-1.14514
-0.491549
-0.207175
-0.723158
0.0290999
0.350101
-0.191981
-0.143225
0.0727453
0.426701
0.28751
-0.0974295
0.281549
-0.543534
0.178209
-0.281488
-0.442128
-0.0291729
0.139136
0.417187
-0.0909842
-0.207602
0.398177
-0.106274
-0.341136
-0.64698
-0.518543
-0.222369
0.148133
-0.281207
0.0715225
0.0784098
-0.0780302
-0.44526
0.294545
0.0209449
-0.142865
-0.0274971
0.414441
-0.0872445
0.0658168
0.0991181
-0.0330026
-0.293194
0.191098
-0.000990364
-0.397497
-0.15717
0.217228
-0.161416
-0.137343
0.37166
-0.195783
0.647851
0.410913
-0.393183
0.0464625
0.151964
0.142593
0.174001
-0.38837
-0.218626
-0.273164
0.341152
-0.366921
-0.375147
-0.0477402
-0.00688725
0.309738
0.127156
0.47978
0.0984248
-0.411659
-0.181387
0.192075
0.355166
-0.0257207
-0.0401718
0.429817
-0.0145375
-0.0982129
-0.263343
-0.413612
1.00606
0.189271
-0.177647
0.0255558
-0.382536
-0.208372
0.106383
0.367748
-0.0915296
0.0801931
-0.302407
-0.689526
-0.486165
0.91893
0.273295
-0.436647
-0.0503998
-1.74377
0.281776
0.410059
-0.83183
-0.328325
-0.180123
0.2043
0.43401
-0.0809633
0.711243
-0.0684554
0.528279
0.519273
0.216356
0.636207
0.162829
0.217832
0.0486952
-0.0747627
-0.0957652
-0.220222
0.364763
0.37147
0.169652
0.459715
0.0998269
-0.107017
-0.346921
0.0338449
0.21298
-0.242753
0.290067
0.325653
0.103593
0.526645
0.125689
0.285591
0.139952
0.161311
0.0333219
-0.10784
-0.340072
0.367446
-0.289988
0.411268
0.430299
-0.0033711
0.0152906
-0.137823
0.359191
-0.0829162
-0.0760551
-0.126982
0.153037
0.171556
-0.454242
0.304914
0.0403951
-0.201408
-0.237077
-0.107157
-0.290776
-0.0293342
-0.195674
-0.179528
0.125541
0.473679
0.0292583
0.292549
0.119962
0.42115
-0.415576
-0.424188
0.267576
0.323009
0.396864
0.126838
0.211354
0.0143118
0.0663901
0.276675
0.147576
-0.379483
0.229173
-0.507888
0.495603
-0.449594
-0.290856
0.548204
-0.410653
0.445313
-0.362718
0.00535762
0.455732
-0.351241
0.173629
0.0374178
0.0479486
0.174742
0.479078
0.368075
0.198035
0.121493
0.11133
0.384695
0.239889
0.0797943
0.174673
-0.00647809
-0.0609226
0.208592
0.0398825
0.238688
-0.450058
0.333128
0.292257
-0.398855
-0.691949
-0.0959223
-0.533079
0.311445
0.59052
0.515755
0.127447
-0.0215425
-0.162005
-0.346938
0.504402
0.256334
-0.0770728
-0.0888013
0.0203262
0.298212
0.0681473
0.401373
-0.366473
-0.313411
-0.185301
0.209028
-0.0665413
0.137338
0.15636
0.12772
-0.0515974
0.246748
0.591089
0.322223
-0.210266
-0.33064
0.05277
-0.564712
0.418425
-0.18808
-0.207031
0.203453
0.0990948
0.0165518
0.180951
0.930056
-0.544976
-0.00227965
-0.322964
0.0450628
-0.383232
0.350525
-0.0174571
-0.339253
-0.422089
0.0422609
-0.1955
-0.141598
0.296523
-0.260818
0.332687
0.616361
-0.0750606
-0.230271
0.358332
-0.323611
-0.0890559
-0.286127
0.0388548
0.206505
-0.242379
-0.48231
0.156198
-0.26714
-0.100358
-0.166603
0.00734151
0.437446
0.09944
0.289142
-0.509097
-0.17245
0.526573
-0.386302
-0.324967
-0.0347323
0.267057
0.15638
0.287878
-0.280875
-0.281917
-0.112913
-0.16601
-0.185202
0.75755
-0.240193
-0.8187
-1.827e-05
0.395331
0.123217
0.564953
-0.112566
0.690028
-0.00832358
0.350369
0.175544
-0.572282
0.616951
-0.727452
-0.427852
-0.456522
-0.268456
1.15286
0.00195828
0.311005
0.196457
0.552943
0.191265
0.297172
-0.375065
0.104575
0.0703377
-0.305703
0.514429
-0.13386
-0.5934
-0.00937943
-0.126917
0.404896
0.101359
-0.286264
0.0661131
0.338358
-0.340758
0.471188
-0.143452
-0.293506
0.29808
0.0389077
0.449804
-0.264779
-0.361278
-0.397566
0.346995
-0.42296
0.217353
-0.488515
-0.206256
-0.459394
-0.200501
0.00268164
-0.0600313
-0.343043
-0.269913
0.319571
-0.229014
-0.0524269
-0.161456
-0.460851
0.52927
0.148043
0.419412
0.239473
-0.144001
0.445866
0.073841
-0.189926
-0.177941
-0.562053
-0.267852
0.0114492
-0.119231
-0.0280888
0.396319
0.106492
0.939889
0.217214
0.639278
0.173906
1.13757
0.689183
0.932733
0.276692
-0.361902
-0.256983
0.22436
-0.59817
0.271403
-1.10509
-0.468673
-0.643484
