#input normalization
0.16111 0.272711
66.982 66.1291
9.60545 38.0667
7.92603 31.7834
0.0111326 0.0441383
0.00880646 0.0338865
0.542988 1.36901
0.823511 1.27769
1.05267 1.47112
1.29982 1.67897
1.57855 1.87949
1.86027 2.06281
2.12999 2.22636
2.39629 2.3791
2.64341 2.50023
2.87854 2.5868
3.10222 2.64749
3.30893 2.68228
3.48879 2.68793
3.62724 2.6498
3.75209 2.59835
3.85097 2.5101
3.92847 2.41397
3.96982 2.29961
3.99558 2.16779
3.98964 2.01953
3.9519 1.86013
3.89572 1.68228
3.7862 1.48252
3.65921 1.28429
3.54363 1.09712
3.41767 0.920599
3.26231 0.743118
3.10185 0.573586
2.93657 0.413281
2.78635 0.266603
2.61856 0.126943
2.47692 -0.00378979
1 -1
1 -1
#output normalization
1 0
#neurons weights
-0.144811
0.134193
0.478099
0.435278
-0.309507
-0.0348444
0.435082
0.473255
0.306792
0.219212
0.0694507
-0.467276
-0.473553
0.287178
-0.36378
-0.203378
-0.268843
-0.198298
0.0255726
-0.430169
-0.488854
0.340395
-0.479525
-0.0775777
-0.0407697
0.363429
-0.31448
0.0758499
0.351976
-0.0295701
-0.406554
-0.0579017
0.409965
-0.0436245
-0.136806
-0.057008
0.348714
0.110605
0.220317
-0.122863
-0.306534
0.157027
0.425056
0.238292
-0.0117011
-1.30832
0.364989
0.0545695
0.0465432
-0.0517286
-0.589048
-0.20627
0.00261857
-0.513091
0.14581
-0.0700462
-0.0187679
0.182123
0.462183
0.0696981
0.045542
0.112195
1.10798
0.107368
0.0609965
0.0692606
0.322838
-0.253256
-0.306812
-0.538261
-0.799581
-0.276363
0.412256
-0.166705
0.365822
-0.404072
-0.193028
0.065534
-0.20792
0.294507
0.385439
0.37637
-0.335542
0.122254
-0.323035
0.468183
0.423729
0.272821
-0.511117
0.0292483
-0.565639
0.28851
0.364153
-0.396021
0.406529
-0.299476
-0.194631
-0.103154
0.429208
0.12723
-0.457793
0.411407
-0.414327
0.229956
-0.547083
-0.399541
0.193567
-0.251741
-0.358088
-0.450722
-0.310723
0.377484
-0.448553
-0.424245
-0.533422
-0.519459
-0.313569
0.197931
0.0764316
0.379885
-0.510565
-0.0343705
#synapses weights
-0.189702
-0.290161
-0.144638
0.129323
0.157428
-0.188668
-1.29417
0.469005
-0.0633221
-0.403508
-0.263704
-0.259931
-0.236038
0.225175
-0.101975
0.0492858
0.25908
-0.098571
0.320485
-0.0143256
-0.559799
0.232334
0.0269669
0.206225
-0.157676
-0.143586
-0.123328
0.252234
-0.0150667
-0.31181
0.19967
-0.22037
0.260363
0.424872
-0.526564
0.275311
-0.163914
0.289397
-0.24643
0.0618582
0.0379926
-0.235106
0.117336
0.193492
-0.401359
0.0748984
-0.958559
-0.482537
-0.104024
-0.211671
0.2651
0.181541
-0.000190234
0.152743
0.32414
-0.389388
-0.386819
-0.382962
-0.422428
-0.220837
-0.0267901
-0.451681
0.474765
0.16388
0.236181
0.385763
0.213739
-0.0982305
0.377802
-0.0161366
0.12934
0.143135
0.243693
0.22274
0.190301
-0.0277858
0.344948
0.2729
0.149107
-0.36577
-0.034011
0.129899
0.383798
-0.00308695
-0.247009
0.370855
-0.506991
0.351072
0.194727
0.0111465
0.26098
-0.211861
-0.362218
0.297855
0.420062
0.424946
0.166987
-0.137474
0.300126
0.134028
-0.099374
0.425932
0.308248
0.147075
-0.167928
0.45869
0.303625
-0.0125505
-0.200415
-0.292859
0.318139
0.0135015
0.392561
-0.399155
0.0214929
-0.438187
-0.410915
0.396483
-0.463636
0.416593
-0.455046
-0.0600501
0.0655585
-0.179396
-0.503056
0.378146
-0.0476626
-0.635847
0.197821
-0.454248
-0.122436
-0.331986
-0.161255
-0.305362
0.269768
0.254839
-0.413777
-0.104889
-0.360124
0.202902
0.129871
0.142245
0.430639
0.419975
0.13123
0.384114
0.328879
-0.277154
-0.178851
-0.335965
0.329064
-0.37797
0.388389
0.400884
-0.126438
0.149476
-0.583247
0.0356901
-0.268962
0.0566394
0.0899049
0.0346628
0.193443
0.178242
-0.146395
-0.436308
0.817092
-0.555916
-0.292736
0.34461
0.111587
0.104023
-0.285594
0.243291
0.257009
0.030372
-0.166976
-0.340019
-0.092157
-0.262061
-0.13829
-0.0187145
0.0454631
0.436365
0.208745
0.459079
-0.0841696
-0.228048
-0.277221
-0.103193
-0.304521
0.430563
0.258509
-0.379588
0.0909365
0.0989017
-0.324636
-0.164016
0.209729
0.281423
-0.0292059
0.361587
-0.0632243
0.109129
0.177234
-0.232902
-1.88437
-3.30294
-0.0619994
0.000759544
0.0525159
0.175622
-0.132534
0.0527697
0.0433521
0.0223833
-0.0796033
0.00653913
0.031286
0.0275696
-0.314813
0.128849
0.219124
-0.211214
-0.351336
0.116787
0.0782414
0.183725
-0.239262
-0.116459
-0.157489
0.0531722
0.310394
-0.428255
0.400638
-0.0276761
-0.0801757
-0.0226914
-0.166751
0.0123631
-0.0837462
-0.0324541
-0.00354883
-0.124118
0.114042
-0.186852
-1.11994
0.494331
-0.155108
0.358205
-0.433375
-0.334055
0.246698
0.168503
-0.0112043
0.0964296
0.332422
0.170012
-0.391883
0.142587
0.298587
0.197358
0.399267
-0.47537
-0.167376
-0.084663
0.02342
-0.398363
-0.260716
0.261709
0.285136
-0.177553
0.127001
0.402048
0.0598883
0.0503776
-0.269961
-0.399508
0.178685
-0.454589
-0.0183621
0.304942
0.398214
0.315465
0.190941
0.281894
-0.848289
-0.269727
-0.439824
-0.197348
-0.326711
-0.276324
0.199729
-0.463075
0.299809
0.258162
0.366558
-0.072285
-0.223479
0.0674872
0.348717
0.259879
0.0940247
0.251408
-0.361194
0.418453
-0.0639204
-0.294998
-0.254908
0.139528
-0.30459
-0.303727
-0.16041
0.247366
0.233076
0.225366
0.27988
0.0257543
0.112137
0.037292
0.000710102
0.307482
0.456215
-0.380731
0.499636
0.0477871
0.413658
0.574745
0.124629
-0.341804
-0.165365
-0.577197
-0.260413
0.477248
0.284714
-0.436291
-0.281748
0.318294
-0.300068
-0.164707
0.233988
-0.190616
0.249419
-0.114326
-0.0297148
-0.105664
0.357697
-0.522935
-0.272232
-0.120218
-0.265423
0.507663
0.163352
-0.354926
0.495992
-0.0339396
-0.136378
-0.272586
-0.0487576
0.077527
-0.0843999
0.470591
0.0477118
-0.172416
0.121816
-0.0151173
0.506501
-0.0886625
-0.0326733
-0.37859
-0.113552
0.0978375
-0.279093
-0.292015
-0.131154
-0.111481
-0.221205
-0.384041
-0.096709
-0.117899
-0.269132
-0.475864
0.0991645
0.405127
-0.387481
0.198843
0.0139137
-0.46757
0.425186
0.143338
-0.307801
0.0491453
-0.369088
0.492477
0.0323557
0.406744
-0.325132
-0.113525
0.0463316
0.00537455
0.0094813
0.198723
-0.410844
0.126096
-0.21153
0.0255849
-1.02912
-1.24712
-0.107568
0.124898
0.0273822
-0.316764
0.319393
-0.0684043
0.463107
0.338883
-0.287267
0.408184
-0.250542
0.327419
0.0900067
-0.280584
0.0588288
-0.157814
-0.0497337
-0.0646617
-0.247355
-0.356993
-0.197046
0.0178212
0.462458
0.297236
0.475101
-0.319029
-0.414659
0.147602
-0.044588
-0.10106
0.233556
-0.113011
0.285459
-0.521131
-0.325299
0.245229
0.133401
0.0620243
-0.124066
-0.330923
-0.160312
-0.0464033
-0.403021
0.271815
-0.0109457
-0.269889
0.214818
0.296507
0.239861
-0.0239964
0.161086
-0.0248151
-0.0358937
0.404388
-0.390059
0.459143
0.145416
0.089228
-0.0701297
0.371074
-0.471035
0.0212792
-0.0315106
-0.136748
-0.192029
0.1358
0.299258
-0.0997731
-0.124256
-0.369378
-0.408562
0.400173
-0.394472
0.435684
0.164726
-0.0799471
0.091562
0.105606
0.170004
0.233558
-0.216268
0.455437
0.404607
0.0810283
-0.409651
0.313676
0.540377
-0.18928
0.111337
0.274346
0.216286
-0.24523
-0.342409
-0.0443549
0.290525
0.336016
0.210558
-0.139247
0.414813
-0.119835
-0.445991
-0.107951
-0.073207
-0.254971
-0.213862
-0.373632
-0.46909
-0.0632132
-0.175423
0.196418
-0.261711
0.468362
0.446256
-0.550226
0.290712
0.285673
0.431352
0.179363
-0.689633
-0.0173601
0.135828
-0.36799
0.160791
0.13505
-0.410651
0.150938
-0.050487
-0.390632
0.135942
0.169599
-0.480741
0.181024
0.00466043
-0.308426
0.00692438
0.120562
-0.00382086
0.085199
0.315913
-0.175187
-0.507756
-0.136351
0.170552
0.0849796
-0.171787
-0.25898
0.099931
0.197201
0.281189
0.286969
0.426434
0.477952
0.363158
0.31822
0.047022
0.154562
-0.335187
0.473986
0.73119
-0.148231
0.412679
-0.213814
-0.369086
-0.0827313
-0.0175543
-0.240903
0.233548
-0.0536727
-0.127473
0.198601
0.0697523
0.311016
-0.118048
-0.183797
-0.276231
-0.358554
-0.206507
0.438998
0.162645
0.13532
0.212623
-0.0656178
-0.112561
0.367198
-0.122176
0.404844
0.0471624
0.549538
0.474351
-0.078721
-0.207142
0.0538203
-0.371848
-0.110251
-0.320535
0.103046
0.439572
0.140088
0.489225
-0.316578
0.310297
-0.113295
-0.153057
0.31386
0.314734
-0.109107
0.238927
0.390177
0.469471
0.310645
0.0780116
-0.363702
0.395404
-0.127496
-0.502003
-0.34563
0.364564
0.281304
0.043534
0.417059
-0.208886
-0.169338
-0.177192
-0.305771
0.0384446
0.227122
-0.0238358
-0.0219471
-0.142196
0.562572
0.343705
0.369139
-0.42885
0.259114
-0.237407
-0.318113
0.102293
0.0543521
-0.635546
0.541588
-0.1125
0.244674
-0.0247367
-0.155549
-0.129482
0.223141
-0.12708
0.063269
0.291793
-0.0654912
0.403683
0.0159017
-0.103125
-0.177229
-0.317307
-0.151271
-0.191252
0.508497
-0.426306
-0.362322
0.202931
-0.262159
-0.229748
-0.202121
-0.418753
-0.0722709
0.109304
-0.122297
0.207396
-0.512224
0.181752
-0.231304
0.0194058
-0.195845
-0.267828
-0.0541339
0.00795791
0.00190726
0.174101
-0.138856
0.0797058
0.587634
0.333667
0.0611216
-0.0478291
0.182301
0.174849
0.452864
-0.238882
-0.363796
-0.297532
-0.0565548
-0.00586729
-0.308178
0.180038
-0.423322
0.284032
-0.0999518
0.445548
0.424586
-0.0712276
-0.0533006
-0.47952
0.183372
-0.542686
-0.262765
-0.336297
-0.543141
-0.204264
-0.281167
-0.228791
-0.205785
0.229751
0.21923
-0.301897
0.492742
-0.0439391
-0.573668
-0.410271
-0.282951
-0.324101
-0.0339918
0.0361726
0.43242
0.205614
0.0563932
-0.208252
-0.35859
0.320206
0.046852
0.0332611
0.212954
0.014321
-0.30412
0.0674564
-0.306574
-0.0165635
0.0462879
-0.156954
0.0865868
-0.26825
-0.267762
-0.190895
0.406466
0.0469864
0.493332
-0.0672872
-0.163386
-0.128391
-0.457314
-0.258081
0.127004
0.204985
0.382801
0.11099
0.118334
0.082433
0.465182
0.80857
0.863431
-0.34754
-0.189865
-0.0608577
-0.113363
0.317226
-0.000149305
0.208125
-0.427411
-0.119695
-0.0676091
0.0656056
-0.173463
-0.155928
-0.00737388
0.140521
-0.228334
0.159132
0.247743
0.107072
0.013414
-0.0862161
0.206532
0.271913
-0.15849
-0.352788
-0.280644
0.119571
-0.358489
0.0804551
-0.308198
-0.38824
0.0148685
-0.153322
-0.279067
-0.184547
0.380646
-0.24011
0.048702
0.0626308
0.150687
0.208683
-0.34831
0.0845409
0.181103
-0.102723
-0.179064
-0.157007
-0.363457
0.394402
0.133768
0.264551
0.22127
-0.261914
0.0310837
-0.219279
-0.261608
-0.214403
0.445504
0.196445
0.0116425
-0.420163
0.0233987
-0.159503
-0.0956452
-0.241579
-0.29882
0.0689287
0.347085
-0.157379
0.357592
0.132175
-0.00197965
-0.00840636
0.129216
-0.160762
0.136601
-0.294427
0.509015
-1.02318
0.147881
0.204136
-0.487757
0.354895
-0.325451
0.3334
0.0508716
-0.296091
-0.278264
0.0365316
-0.0653651
-0.252548
0.0866016
0.3231
-0.31265
-1.93741e-05
0.551807
0.43521
-0.140134
-0.339815
0.274694
0.212073
-0.20417
0.297372
-0.306401
0.123928
-0.0565369
0.123226
-0.395347
-0.104676
0.0941841
0.166151
-0.369896
-0.041672
0.256954
0.0958405
-0.0196962
0.284377
-0.179546
1.55353
3.73437
0.258854
-0.104562
-0.100455
-0.0980554
-0.0551297
-0.0388118
0.0686654
-0.013215
-0.116442
0.0585336
0.0164178
-0.143837
0.040482
0.0350489
-0.0538035
-0.0504477
-0.0647325
-0.102824
0.0688895
-0.0187824
-0.144175
0.241471
-0.0473105
-0.243155
0.127346
-0.294805
0.335327
-0.142869
-0.0654999
0.0156529
-0.400272
-0.112502
-0.240502
0.245654
-0.0137194
0.301674
0.3135
0.221802
-0.596402
-0.531368
-0.074637
-0.0694888
-0.0381022
0.18365
0.0041485
-0.316647
-0.037621
-0.53967
0.134232
0.184135
0.177633
-0.288845
-0.150004
-0.271234
-0.221112
-0.402823
-0.00357579
0.451803
-0.224816
-0.303373
0.0595809
-0.154555
-0.0750466
-0.265108
0.254033
0.434942
-0.260828
0.0131394
-0.228938
0.197725
-0.379405
-0.110115
0.0327134
-0.413555
-0.149403
0.366556
-0.174383
-0.103863
0.553487
0.891694
0.579439
0.130392
0.407949
-0.376025
0.0231082
-0.111569
-0.151666
0.0814318
-0.112642
0.0644168
0.475942
0.285995
-0.357647
-0.0562496
-0.0252826
0.452289
0.215524
0.161288
-0.392112
0.300642
-0.12928
0.129498
0.00633254
0.204744
0.229128
0.353305
-0.355496
0.301055
0.0508113
-0.0592931
-0.242722
-0.448918
0.493893
-0.462342
-0.293665
0.403967
-0.390114
-0.319419
1.01226
0.311428
0.301351
-0.176977
-0.20904
0.343284
0.365865
0.199849
-0.0959374
0.319159
0.175109
0.269652
0.0950313
0.36418
-0.37175
-0.216427
0.2434
0.257683
0.190693
-0.576109
0.356742
-0.219885
-0.190542
-0.142092
-0.225797
-0.438681
0.285829
0.430073
0.157972
-0.0533811
-0.334799
0.228228
0.121759
-0.178635
0.0379342
0.450401
0.238205
-0.28841
-0.0410615
0.401647
1.70399
-0.373925
0.101772
-0.0253916
0.0923378
-0.170215
0.284348
-0.287635
0.0985946
-0.263543
0.296338
-0.13281
0.0982375
-0.0620447
-0.365933
0.02705
0.310447
0.130525
-0.315252
0.209524
-0.456624
-0.320632
0.157961
0.0815156
0.0369123
-0.100103
0.127018
0.288751
-0.169738
0.167153
-0.0510278
-0.126332
-0.317911
0.131104
-0.00761462
-0.0360759
0.288925
-0.22675
0.506773
-0.196586
0.727538
0.438666
-0.169813
0.39508
0.422162
0.239175
-0.3471
-0.296151
0.0485717
-0.413526
-0.251283
-0.214993
0.0164272
0.539103
-0.0443577
0.0145081
-0.371607
-0.0789304
0.0215857
-0.263388
-0.292396
-0.11237
-0.167957
-0.0153503
-0.156272
-0.194395
0.235227
-0.229316
-0.376985
-0.366156
0.178255
0.00440516
0.308552
0.00830859
0.109676
0.276483
0.0691513
-0.398192
-0.157834
-0.411782
0.024725
-0.464703
-0.382349
0.142247
0.21094
-0.311319
0.0556443
0.0565561
0.297939
-0.18996
-0.390401
0.234528
-0.166296
0.0848177
-0.0298766
0.222032
-0.203377
-0.396682
0.0400518
0.0641803
-0.184008
-0.205448
0.148591
-0.304886
-0.443361
-0.249839
-0.344627
-0.34694
0.0636227
0.389717
-0.0740062
-0.188341
0.276805
0.254689
-0.179285
-0.197977
0.435069
-0.306313
0.566155
0.0228104
-0.329446
0.407362
0.338244
-0.3385
-0.394044
-0.497036
-0.158053
0.30823
-0.391021
-0.399222
0.280718
-0.183039
0.295675
0.209932
-0.410876
-0.48113
0.0818201
-0.105246
0.267168
0.121287
0.286806
0.157008
0.138588
-0.0472391
0.3523
-0.309395
0.173863
-0.185303
-0.380914
0.117289
-0.30225
-0.0312867
-0.195228
0.0132122
0.0179594
-0.0947712
-0.27623
-0.125035
0.272832
-0.0102109
-3.1947
-0.0342379
0.185884
-0.265238
-0.110247
0.256524
-0.252386
-0.43458
0.443465
-0.0884333
-0.357123
0.0645789
0.0587032
0.0770383
0.0925628
-0.0845589
0.0400587
-0.188718
-0.0575891
-0.0650201
0.0282748
0.116606
0.0296657
0.290984
-0.0660748
0.319505
0.464126
-0.200308
0.062976
0.279338
-0.021391
-0.285889
-0.0381429
-0.152173
0.193827
-0.478323
0.0401015
0.239574
-0.0540136
0.127098
-0.646088
0.473777
0.046828
0.134366
-0.0506248
-0.169429
0.419293
0.347503
0.109457
-0.311708
0.347551
-0.201664
-0.0101604
-0.360687
0.132977
0.1384
-0.452336
0.303148
0.473277
0.199717
-0.147614
-0.168965
-0.169545
0.346577
0.316432
-0.0779537
-0.0379765
-0.106606
0.406009
-0.268722
0.115337
-0.24743
-0.160868
0.120494
0.322587
-0.155779
0.0444688
-0.462185
0.280609
-0.31671
-0.336754
0.598281
0.47199
-0.304258
0.393395
0.291602
-0.376331
-0.248571
-0.167243
0.112035
0.0868231
-0.319495
-0.315877
-0.480949
0.431173
-0.454536
0.313753
0.391535
-0.228099
-0.102985
-0.112798
0.180059
-0.110008
0.172514
-0.44433
0.232933
0.150424
0.389522
-0.38136
0.383186
0.298427
0.105669
-0.061788
0.0364194
0.301449
-0.181976
-0.386135
0.0655938
-0.143923
-0.0123115
0.0541221
0.583366
0.208727
-0.0479358
0.314417
0.283979
-0.161768
-0.360162
0.226424
0.261001
-0.0252941
0.335775
0.230284
0.292922
-0.438549
-0.34897
0.164549
0.195198
-0.220517
0.0463219
0.0648624
-0.621967
-0.146318
0.344295
-0.171649
-0.497429
0.482384
0.213108
0.0181227
-0.348906
0.40227
-0.171145
-0.314409
0.11882
0.00116176
0.0599782
0.1881
-0.132073
-0.0705432
0.143942
2.20965
-0.432814
0.292933
-0.0392035
-0.0849736
-0.117496
-0.146329
0.152803
-0.0403444
0.182664
0.331298
-0.442845
-0.239338
0.160571
0.191693
0.298827
0.111515
-0.0995017
-0.282137
-0.00493363
0.0591883
0.0890644
-0.071242
-0.236659
0.0744827
0.258957
-0.00621843
-0.391819
0.204598
-0.237598
0.0936871
0.109426
0.300703
-0.243681
0.127095
-0.282373
-0.212093
-0.233562
0.40209
-0.299846
0.977471
-0.0239198
-0.130813
0.0583743
0.18231
0.110867
-0.0440803
0.470666
0.0874897
-0.0724344
-0.346867
0.270556
-0.0992058
0.199176
-0.2457
0.197208
0.039096
-0.0249037
0.1748
-0.298597
0.119911
0.196049
0.231572
-0.416195
0.237348
0.345846
0.451882
0.128223
-0.324112
0.100646
0.0633922
-0.13282
-0.419374
-0.0827755
0.234095
-0.0831708
0.363647
0.0441819
0.406179
0.423305
0.403018
0.264677
-0.288861
-0.150441
0.435401
0.0765094
0.391113
-0.364316
-0.296297
-0.0386783
-0.092526
0.453624
0.360162
0.307251
-0.415503
0.33769
0.303653
-0.245441
-0.188202
0.0848231
-0.0673571
0.315612
0.447014
-0.256405
-0.0419454
-0.400226
-0.061511
0.430809
-0.171568
0.138004
-0.0228871
-0.241832
0.473186
-0.43549
-0.273338
-0.234789
0.0219836
-0.315019
-0.393128
-0.0773278
0.367936
-0.661832
0.038627
-0.128793
0.222438
-0.216449
-0.354792
0.435085
-0.281616
-0.0720338
-0.274513
0.492894
0.219174
-0.0277425
-0.118597
-0.273968
0.151835
-0.0346531
0.0365844
-0.460572
0.102046
-0.316878
0.0947745
0.31146
0.324391
-0.47346
-0.0057321
0.301486
-0.269513
0.368653
-0.156033
-0.162518
-0.337493
0.152172
0.395694
0.190605
0.0556246
0.149826
0.381902
-0.363303
-0.551184
0.00860088
-0.143015
-0.169692
-0.0189341
-0.0488095
0.321135
0.122413
-0.451764
-0.271306
-0.510805
-0.368689
-0.0342839
0.355501
-0.177575
-0.299569
0.0821403
0.177445
0.12459
-0.0341629
0.123939
0.061102
0.328379
-0.133712
-0.510679
-0.528441
0.309413
-0.0867818
0.344334
0.0173352
0.119984
0.39781
-0.153255
0.394996
-0.130369
-0.329036
0.451634
0.218249
0.00653524
-0.221667
0.519584
-0.20917
0.116995
0.0410169
-0.0586111
0.0307207
0.00244348
-0.513621
0.363973
-0.251306
-0.0211913
-0.37374
-0.420898
-0.240098
-0.420705
-0.136365
0.436036
0.318678
-0.351635
0.367774
0.496466
-0.0986719
0.514972
0.247337
-0.144748
-0.365163
0.113963
0.0352224
-0.378914
-0.460553
0.175174
-0.388943
0.198749
0.00634296
0.172919
0.40343
-0.04025
-0.538377
0.234529
-0.151211
-0.159634
0.229446
0.0743203
-0.291613
0.115152
-0.36812
-0.404668
-0.600285
0.0267069
-0.311568
0.251588
-0.306914
0.0846058
-0.254677
-0.30273
0.168784
0.27703
0.303349
-0.307295
-0.202558
-0.499777
0.209871
-0.580004
-0.245387
-0.244416
0.501655
0.154198
-0.415002
-0.36485
0.38362
0.295156
0.448455
-0.145844
0.0548839
0.137499
0.252604
-0.202512
-0.568646
-0.453788
0.256492
-0.122688
-0.205631
0.466544
-0.321009
0.386795
-0.112204
0.173419
0.180001
-0.421075
-0.306952
-0.475564
-0.266939
0.424527
-0.252542
0.221008
-0.418351
0.356103
0.144334
0.353231
-0.310562
0.437393
0.188765
0.245532
0.176818
0.468141
0.293994
-0.060743
0.149702
-0.398789
-0.110104
-0.5255
-0.410009
-0.0567771
-0.155971
0.330162
0.000577486
0.331032
-0.45435
-0.0798528
-0.124896
-0.119396
0.00499585
0.342945
-0.0343723
-0.340704
-0.154752
0.124851
-0.335527
-0.0729164
0.248343
0.152098
-0.308679
-0.0869455
0.328337
-0.746989
-0.24055
0.265073
-0.351276
-0.240598
-0.569394
-0.572795
-0.0184149
0.0810317
0.383555
0.523056
-0.20364
-0.485566
-0.102543
0.183245
0.151806
-0.596835
-0.496482
0.150871
0.0685221
-0.151207
-0.212815
-0.0355773
-0.142472
-0.414313
-0.418765
-0.490272
-0.0739709
0.111147
0.0548543
0.183639
-0.087931
0.414512
0.336746
-0.271452
-0.0767774
0.0713021
-0.352386
0.314514
-0.436625
0.216806
-0.336097
0.139705
-0.198244
0.25543
-0.44351
-0.475413
0.0825467
0.414769
0.277017
-0.348525
0.247538
0.0138923
-0.407882
-0.451033
0.236278
-0.169624
-0.222197
0.502871
-0.202654
0.209984
0.201323
-0.185911
0.255156
0.0985966
0.279853
0.00888962
0.49111
0.215312
0.258781
-0.112709
-0.345717
-0.317821
-0.245369
0.362801
0.417584
0.0448025
0.464439
0.212274
0.100349
0.420056
-0.151452
-0.0991548
0.311298
0.200722
0.342896
0.0749994
-0.459263
0.179592
0.122412
0.145843
0.325351
-0.0566916
0.459689
-0.394264
0.0724429
-0.208599
-0.118854
0.124564
-0.28464
-0.0214717
-0.236691
-0.0544397
-0.384545
-0.0306174
0.256392
0.0297356
0.274549
0.355094
-0.0547816
-0.233231
0.287241
0.292897
0.240595
-0.448799
0.120449
-0.254255
0.167483
0.39855
0.160704
0.437027
-0.415922
-0.192461
-0.251695
0.239824
0.436363
0.572967
0.134429
-0.0691375
-0.096168
-0.156635
0.106625
0.202468
0.295784
-0.421794
-0.378158
0.100935
-0.0445682
0.355757
0.184753
0.204195
-0.0608899
0.530075
-0.475841
-0.414779
0.486916
-0.253374
0.274419
0.228523
-0.363935
0.253662
0.284913
0.466755
0.325484
0.507714
0.329977
0.0622087
-0.166503
0.281184
0.167741
0.0073633
-0.0672679
0.153583
0.243648
0.0208962
0.0721969
0.408377
-0.299138
-0.181497
-0.0790912
-0.0375744
-0.131447
0.115273
0.261803
0.426834
-0.331655
0.339954
0.396598
0.10202
-0.304493
0.089386
0.0981767
0.301758
0.241998
-0.0977797
-0.302706
-0.073919
-0.0413091
0.128441
-0.215279
0.519933
0.396353
0.316434
-0.512296
0.559924
0.514894
-0.343236
-0.1406
-0.402061
0.0167479
-0.273653
0.105865
-0.285158
0.332278
0.119215
-0.286021
-0.175739
-0.173544
-0.0226286
-0.0536988
-0.166344
0.0227529
0.475361
0.178838
-0.0378913
0.208856
0.0346624
0.133872
0.112661
0.416546
-0.130136
0.247597
0.436071
0.258486
0.0319768
0.512042
0.3028
-0.226598
0.233028
-0.171454
0.0116218
-0.124718
0.436392
-0.166715
-0.124794
0.178604
-0.420601
0.0588322
0.140367
-0.383007
0.138445
0.175097
-0.138022
0.38576
0.0264875
-0.25069
-0.627519
-0.00768038
-0.380154
-0.0871138
-0.0516755
-0.292722
0.0796156
-0.369475
0.106724
-0.187269
0.0117308
-0.298603
-0.161817
-0.12352
-0.594323
-0.0919203
-0.0877119
0.24384
0.408314
0.601261
0.0795127
-0.163713
-0.32925
0.352041
-0.158639
0.139307
-0.161319
-0.191292
0.114002
-0.168093
0.515465
0.201904
0.400748
-0.432485
0.110939
0.0824985
-0.237328
0.443896
0.495573
-0.176443
-0.148474
-0.423752
-0.231538
-0.153926
-0.462352
0.102242
-0.0160802
0.467756
0.277756
0.16785
0.234356
0.505075
0.390005
-0.279035
0.36697
0.245978
0.156251
0.185121
-0.175706
0.143477
0.35791
0.234893
0.43667
0.123312
0.139004
0.043812
0.187227
0.00389179
1.22605
0.20602
0.189897
-0.331848
-0.0280573
0.546509
-0.247941
-0.151485
0.168597
-0.217666
-0.339628
0.206159
-0.00655185
0.0365275
-0.302941
0.0852253
0.364553
-1.17664
-0.0819999
-0.376377
-0.350787
-0.563924
-0.196098
-0.241727
0.422421
0.579159
-0.00481177
-0.210684
0.00559527
-0.868577
-0.555984
-0.0107356
-0.137147
0.187356
-0.115032
-0.0307798
-0.189068
0.0964817
-0.074068
0.32081
-0.204704
0.168716
0.41439
-0.195475
-0.0826869
0.0281498
-0.350571
0.163015
-0.291191
0.0420442
-0.508365
-0.272649
-0.352089
-0.299128
-0.216783
-0.233153
-0.353395
0.330587
0.014913
0.333524
0.0751655
-0.306279
0.296328
-0.471836
0.330132
-0.317693
-0.50312
-0.165362
-0.346938
0.466843
0.453523
0.0392394
0.00290601
-0.00389017
-0.156947
0.378606
-0.172077
0.438327
0.592198
0.133582
-0.308605
-0.066848
-0.298933
-0.1228
0.535201
-0.364692
0.0343778
0.134059
0.107265
0.247709
0.0768723
-0.412321
-0.290813
-0.428389
0.499875
-0.195654
-0.316208
-0.34124
-0.029095
0.156905
-0.0408115
0.159605
0.395978
-0.126484
0.27456
0.239509
0.0690551
0.399262
0.287493
0.401886
-0.217225
0.181468
-0.0738392
0.402793
0.224601
-0.351328
-0.168633
0.117983
-0.16788
0.464819
0.103958
-0.025354
0.454644
0.108948
0.131732
-0.251497
-0.208026
0.118445
0.423771
-0.323492
0.0309516
0.0664169
-0.381191
-0.229495
0.0748722
-0.0504687
0.114879
-0.120651
-0.0561579
0.465937
0.0502306
-0.0542846
-0.240408
0.140787
0.216112
-0.00261884
-0.0551279
0.284604
0.242268
0.312635
0.472536
-0.0756335
0.478958
-0.540664
0.0499053
-0.0554838
-0.361516
-0.242555
0.478881
0.357224
-0.345366
-0.408552
-0.13446
-0.164037
-0.160083
-0.281207
-0.097784
-0.480418
-0.088906
0.449173
-0.480401
-0.504808
-0.497088
-0.179791
0.0960324
-0.473753
-0.323133
0.274703
-0.00444153
0.182007
0.473931
0.177999
0.376537
-0.342506
0.060561
-0.135842
-0.216313
0.345686
-0.0208347
0.476835
0.0494047
0.0961494
-0.265388
0.420944
-0.348863
0.161268
0.255095
-0.327587
-0.0525448
-0.0981787
0.145642
0.144837
0.27565
0.194529
0.00344899
0.660029
-0.465054
-0.071562
-0.265619
-0.49137
-0.0593677
-0.25226
0.176804
-0.0405391
0.313255
-0.0456209
-0.0203008
-0.400453
0.248417
-0.300998
-0.104176
0.30022
-0.588401
0.323759
-0.413719
0.385904
-0.369939
-0.542678
0.367523
-0.102701
0.402454
-0.0450411
0.282896
0.398004
-0.506854
0.0188603
-0.261737
0.0260632
-0.511583
-0.359221
-0.255014
0.22466
-0.227825
0.100235
-0.244083
-0.391488
0.222717
-0.160482
-0.315961
0.0982615
0.511761
-0.169826
-0.264977
0.444572
0.0406552
-0.13788
0.0718013
0.148069
0.176091
-0.249719
0.319283
0.27817
0.0331471
-0.358942
-0.0963633
-0.177193
0.597112
-0.0619369
0.492533
0.0184934
0.0157288
-0.0715429
0.0940942
0.479971
0.349979
0.43745
0.629114
0.165494
-0.207636
0.147357
-0.319334
0.278405
0.340412
-0.325161
-0.369811
-0.418356
-0.0238337
0.313876
0.386064
0.038056
0.102412
0.160717
-0.254846
0.348202
-0.579005
-0.271953
0.144564
0.107653
0.449083
-0.017652
-0.319085
-0.0417214
0.100902
0.389168
-0.338979
-0.031279
-0.114689
-0.195206
-0.197424
-0.282053
-0.00732643
-0.0566738
0.111459
0.350385
0.333859
-0.480444
-0.563942
-0.500679
0.185729
0.204178
-0.383794
0.266876
0.00798513
-0.334471
-0.111872
-0.0888904
0.377226
-0.127232
-0.0818203
-0.0145319
0.202956
0.0967454
0.186448
0.410998
0.307912
-0.247983
0.202166
0.0773406
0.0790055
0.387483
0.367122
0.165352
0.407274
-0.395764
0.334839
-0.216338
0.0191825
-0.0102537
0.0772789
-0.024606
0.519539
-0.507883
-0.476006
0.214278
-0.203151
-0.244958
0.293185
0.216515
-0.308959
0.190206
-0.182282
0.105067
0.29332
-0.429807
0.0169164
0.0658665
-0.226766
0.0164624
-0.0676912
0.0880021
-0.0290691
0.509298
0.287375
0.429324
-0.179667
0.053306
0.285437
-0.006759
-0.434311
-0.514302
-0.187371
0.122963
0.270731
0.0646366
0.653689
0.364609
0.487267
-0.0547375
-0.39701
0.365186
0.197083
-0.503202
0.0307289
-0.0532678
-0.599532
-0.112324
-0.161981
-0.38332
-0.10365
0.162872
-0.0892557
0.365872
-0.287669
0.390275
-0.0791991
0.0433669
-0.211021
-0.0828736
-0.484251
0.0442833
-0.0096261
-0.132468
-0.332308
-0.121603
0.00900392
0.072884
0.252336
-0.500442
-0.221843
0.286188
0.157317
0.343725
0.190078
0.215168
-0.317581
-0.2953
-0.368321
-0.0185337
0.426437
-0.417849
-0.299416
0.238652
-0.1809
0.19921
-0.479104
0.458242
-0.194392
-0.0912082
0.0581236
-0.59137
-0.415111
0.202672
0.164559
0.148175
-0.455166
0.232944
0.39373
-0.239224
0.108274
-0.0761324
0.228262
-0.156737
-0.0288995
-0.0878348
-0.359006
0.0789414
-0.478785
0.315624
-0.204711
0.305292
0.0128594
-0.244967
-0.174547
0.463884
0.209092
0.021432
0.25055
-0.302393
0.258525
0.141424
-0.232756
0.172306
0.485339
0.141295
-0.0399322
-0.356279
-0.383622
0.251822
0.036121
0.132559
0.156168
0.221917
-0.0373425
-0.344483
0.234644
-0.411098
0.270846
-0.0103746
0.181895
0.350065
-0.354072
-0.368496
-0.36684
-0.427176
0.292804
-0.0755484
0.279353
-0.408328
-0.287554
-0.054115
-0.218443
0.224911
-0.376642
-0.115836
-0.346514
-0.178762
0.0717732
-0.0315943
0.148989
-0.564222
0.407805
-0.571901
-0.301929
-0.350123
-0.141723
-0.374789
0.120376
-0.393968
-0.452487
-0.393695
-0.382509
0.326796
-0.481763
0.411884
0.076864
-0.218049
-0.262181
-0.304832
-0.25349
0.243119
0.528956
0.288936
0.0350818
-0.0462894
0.461477
0.183688
0.0470521
0.135796
-0.0814036
0.0340282
-0.392326
-0.326027
0.0153241
-0.389429
0.297587
0.493463
0.330172
0.346533
0.010699
0.408005
0.446263
-0.388354
0.154045
-0.409784
0.367338
0.236735
-0.0720975
-0.399391
0.426225
0.15959
0.143879
0.0774612
0.269996
0.209985
0.301207
0.187765
0.00992848
-0.103795
0.367477
0.791391
0.132111
0.420126
0.0313162
-0.526179
0.829465
0.520499
0.161738
-0.263545
-0.233986
-0.190226
0.169001
0.285778
0.180036
-0.353201
-0.320809
0.138094
-0.113355
-0.165965
-0.139888
0.0209414
0.488143
-0.650786
-0.130102
-0.359921
-0.417736
-0.126108
-0.411973
0.0993464
-0.23698
0.33471
-0.066447
0.145841
0.0574522
-0.0367208
-0.553041
0.0237011
-0.484329
0.0671642
0.0296847
-0.079884
-0.283223
0.260687
-0.332278
-0.510366
-0.534145
-0.0996486
0.148618
-0.0606023
0.157384
0.163083
-0.508928
0.294583
0.271882
-0.17289
0.0434307
0.126362
-0.0402512
-0.226707
0.120232
-0.117975
-0.418645
0.0485234
-0.338406
0.322906
0.0869861
-0.408407
0.0744702
0.523107
-0.458838
0.376274
-0.0114911
-0.071394
-0.394781
-0.077039
-0.324968
0.135874
0.308574
-0.149772
0.230371
-0.1092
-0.0876495
-0.408296
0.429196
0.0428765
-0.133587
-0.471052
0.183383
-0.214972
-0.0514385
-0.410849
-0.312615
-0.309534
0.173587
0.3815
-0.130044
-0.0291547
-0.252056
-0.2486
-0.372667
0.173222
-0.215119
-0.458888
0.0977572
0.452853
0.189726
-0.539202
-0.370222
0.40877
-0.237928
0.3005
0.303831
0.249797
0.469256
-0.397513
0.417031
0.414349
0.0889326
0.204865
-0.0377377
-0.43913
-0.146883
0.149533
-0.249196
0.159685
-0.0842069
-0.249731
-0.362149
-0.0582741
-0.350921
0.0965082
-0.085991
0.0292691
-0.210962
-0.265419
-0.158286
0.0163507
0.0468832
0.19836
-0.500884
-0.441935
0.157459
-0.271422
-0.483934
-0.451628
-0.490446
0.502708
-0.0547948
-0.0721504
-0.553865
0.326603
-0.0311537
-0.45029
-0.320042
-0.429379
0.187788
0.304786
0.0657742
-0.488549
-0.445126
-0.0165797
0.314283
0.0224123
0.144021
-0.0517307
0.314142
0.498759
-0.196451
-0.0400108
0.576429
-0.0660506
-0.421932
0.074578
-0.26712
0.220983
0.327343
-0.0779336
-0.157997
0.106391
0.374825
0.0472072
0.245769
-0.409043
-0.347456
0.116438
0.127849
-0.32885
-0.516527
0.395972
-0.356426
-0.533681
-0.347154
-0.324438
0.373231
-0.0181854
0.435801
-0.365192
0.291765
0.0164126
0.0750738
-0.456332
0.139149
0.197527
0.1613
-0.174173
-0.212547
-0.220151
0.259615
-0.131719
-0.0889446
-0.0709559
0.257703
-0.204354
0.380613
0.127068
-0.235144
-0.0481551
-0.361259
0.318244
-0.327037
-0.22444
0.049087
0.289464
0.0777356
-0.426323
-0.216377
0.0172795
-0.182756
-0.335321
-0.578956
-0.503914
-0.590484
0.117746
0.158736
0.06022
-0.177953
-0.33763
0.377232
-0.512092
-0.0203839
0.00433667
0.11754
-0.227952
0.543581
-0.422049
0.030055
0.0938739
0.311555
-0.362289
-0.240922
0.0778969
-0.164357
0.223411
0.387673
-0.289268
0.396522
-0.536379
-0.424829
-0.357439
0.191263
0.132805
-0.173254
-0.30713
0.0560812
-0.176536
0.0367683
-0.579527
-0.109152
-0.134316
0.096583
0.172041
0.444033
0.062773
-0.274975
0.463262
-0.00183048
0.342436
0.123654
-0.190234
0.0821395
-0.113505
0.28995
0.365408
-0.609205
-0.21951
0.401986
-0.362014
-0.376069
-0.151418
-0.0344327
0.328906
0.412302
-0.574556
-0.0104542
-0.10982
-0.131634
0.340713
0.0940711
0.0011051
0.572092
0.298782
0.554734
0.118082
-0.480228
-0.0765497
0.099092
-0.168311
0.569482
0.312377
0.507518
0.154102
0.575904
0.243723
0.768163
-0.0562839
0.582052
-0.0482046
-0.540318
0.257216
-0.0567204
-0.376583
0.323102
0.363124
-0.0656989
-0.00697749
-0.0383813
0.382955
0.237867
0.267681
0.376325
-0.19757
-0.385286
-0.511492
0.137998
-0.195393
-0.301948
0.209151
0.0106328
0.437115
0.106507
0.225061
-0.299724
0.0712278
-0.446568
-0.139111
0.0588695
0.173977
0.347689
-0.391176
-0.109723
-0.426651
-0.111289
0.0396317
-0.0193943
0.21733
-0.227516
-0.260433
0.130798
-0.457739
0.226429
0.473131
0.341291
0.0152521
-0.426924
-0.0649857
0.0635641
0.358225
-0.318885
0.403723
0.5126
0.0309345
0.255334
0.203062
0.0141293
0.0032849
0.136765
0.445099
0.0436427
-0.0900872
0.120292
0.0722561
0.132201
-0.222152
-0.377004
-0.13108
-0.0352219
-0.060814
-0.36493
-0.386353
0.324876
0.387106
-0.47971
-0.231598
-0.160305
-0.284308
-0.459679
0.319414
0.27568
-0.223053
0.33853
-0.0885302
-0.181017
-0.454482
-0.591289
0.372901
-0.159918
-0.224201
-0.387413
-0.42955
0.402165
0.0204296
-0.100676
-0.287215
0.350789
-0.158092
0.157399
-0.405978
-0.177922
0.118022
0.394341
-0.0175849
-0.413038
0.176471
-0.0272861
0.270385
-0.145639
0.126763
0.127557
-0.12505
0.471516
-0.121144
-0.157166
-0.507434
0.25059
0.460752
0.170075
-0.0648746
-0.469973
0.209292
-0.330353
-0.151405
0.162608
-0.511719
0.372743
-0.503122
0.0876616
-0.511819
-0.131219
-0.347649
0.110183
0.0702088
-0.0871726
0.145102
-0.193751
-0.270842
-0.274149
-0.0413546
0.295862
0.144473
0.304612
-0.021492
-0.55665
-0.126752
-0.280546
0.414118
-0.114816
-0.393159
0.468812
-0.277511
-0.0578262
0.369039
0.188149
0.45467
-0.491126
0.00219044
-0.0304547
-0.196434
-0.396111
0.0118562
-0.145778
0.383457
-0.106545
0.10947
-0.122038
0.371402
-0.470591
0.0478655
-0.11808
-0.546271
0.203957
0.0134779
-0.391323
0.352546
-0.147424
-0.190701
0.194347
0.154587
-0.141755
-0.523322
-0.35504
0.319352
0.210502
-0.452492
0.0531227
0.240084
0.127499
0.471901
-0.24295
-0.422086
0.18384
-0.354251
0.309512
0.174814
0.0439751
0.500112
0.397516
-0.189328
0.25522
0.494015
0.212348
-0.269229
0.275083
0.309404
0.12901
0.446988
0.162381
0.496977
0.288976
0.491116
0.444082
-0.330809
0.338725
-0.416581
-0.0760995
0.212482
0.305898
-0.14267
-0.0577545
-0.348496
0.386176
0.485306
-0.177218
0.0522439
-0.126493
0.0582346
0.345172
-0.172531
0.186869
0.143344
-0.020292
0.333519
-0.247291
-0.531347
-0.362653
-0.00778026
0.607649
0.326013
-0.431913
-0.315526
0.42046
0.0969956
0.193506
-0.00342706
-0.572252
-0.461672
0.228925
0.0604371
-0.253975
0.457772
-0.155816
0.465578
0.135934
-0.144597
-0.270863
0.318677
0.0465449
-0.148026
-0.386545
0.0336123
-0.0983936
-0.0832428
-0.137083
0.482539
-0.129515
0.150963
0.292601
-0.036446
-0.296888
-0.371139
0.00101905
-0.331314
0.278831
-0.325199
0.2211
0.102896
-0.120652
-0.238062
0.224659
-0.0547809
-0.0598443
-0.158841
0.48597
-0.298287
0.312487
0.379459
-0.401962
0.346466
0.216435
0.0219759
0.363598
0.0805651
0.48527
0.377384
0.407026
0.132932
-0.205162
0.473336
-0.0685185
0.0567916
-0.396233
0.286763
0.27452
0.144054
-0.0105133
0.00426668
0.262468
-0.234862
0.269943
-0.325342
-0.167597
-0.283713
0.00228576
-0.127484
0.238381
0.0604962
-0.315112
-0.20103
-0.0271793
0.172301
0.521185
0.215781
-0.424838
-0.471142
0.431168
-0.163128
0.180891
-0.272295
-0.310727
0.42717
0.443989
0.089812
0.418217
-0.2891
-0.472878
0.0870778
0.317912
-0.475843
-0.485537
-0.420566
0.376008
0.639938
-0.309715
-0.599117
-0.16233
0.0741497
0.0515751
-0.401392
0.117884
-0.392481
-0.446213
0.415775
0.42737
-0.471275
-0.304965
-0.241489
0.244032
-0.0333905
-0.249113
0.422291
-0.337733
-0.34735
0.239742
-0.03282
0.206422
0.228911
-0.221856
-0.262352
-0.520588
-0.605584
-0.116115
0.0259869
0.271298
0.309791
0.582375
-0.202645
0.129479
0.0853576
0.146909
-0.477695
-0.14294
-0.097602
-0.131756
-0.18345
0.184683
-0.31012
0.150131
0.911432
-0.184846
0.325322
-0.165889
-0.144852
0.384678
0.107423
0.345334
-0.134677
-0.226576
-0.0525332
0.00898799
-0.247949
0.207036
0.590879
0.205681
-0.214675
-0.254835
0.0186959
0.0336664
0.220001
-0.229038
0.00372533
0.169258
0.0963935
0.65043
-0.176309
0.00543048
-0.115558
-0.0414945
0.868619
