#input normalization
0.161111 0.272713
55.8776 59.6663
9.67791 37.4879
7.93437 31.5603
0.0110227 0.0436671
0.00882482 0.0338465
0.542988 1.36901
0.823511 1.27769
1.05267 1.47112
1.29982 1.67897
1.57855 1.87949
1.86027 2.06281
2.12999 2.22636
2.39629 2.3791
2.64341 2.50023
2.87854 2.5868
3.10222 2.64749
3.30893 2.68228
3.48879 2.68793
3.62724 2.6498
3.75209 2.59835
3.85097 2.5101
3.92847 2.41397
3.96982 2.29961
3.99558 2.16779
3.98964 2.01953
3.9519 1.86013
3.89572 1.68228
3.7862 1.48252
3.65921 1.28429
3.54441 1.09538
3.42333 0.906903
1 -1
1 -1
#output normalization
1 0
#neurons weights
-0.0264074
-0.0751595
0.0281633
-0.26082
0.495957
0.0525852
-0.469689
0.0260234
0.489307
0.0987025
0.114701
0.173952
0.496519
0.248544
-0.225012
-0.144067
0.455229
-0.366611
-0.328082
0.157061
0.305339
-0.264819
-0.0454567
-0.0299045
-0.371159
0.129336
-0.340192
-0.145384
0.234141
-0.160739
-0.412263
0.0800169
0.204747
0.147029
-0.182165
0.326548
-0.290769
0.10009
0.484691
0.411817
0.11507
-0.389243
-0.416603
-0.95466
0.267761
-0.0447256
-0.427514
-0.286198
-0.00239129
0.577289
0.0979809
-0.33494
-0.337043
-0.345874
-0.394136
-0.0242785
-0.501505
-0.444918
1.28093
0.252072
0.160623
-0.538981
0.554208
0.0702835
-0.316993
-0.196581
-0.0962805
0.289083
1.12267
0.169778
-0.298186
-0.238898
0.441517
-0.384055
0.058422
-0.223214
-0.314344
-0.439537
-0.169254
-0.207781
-0.330445
-0.0673063
0.112804
0.509444
0.355468
0.306031
-0.528353
0.471538
-0.18234
-0.39748
-0.215163
0.271457
0.264228
0.356166
-0.364921
0.0367618
-0.279009
0.439999
0.29062
-0.459863
-0.120072
0.103163
0.0248165
0.715539
#synapses weights
-0.180793
-0.0490827
0.227937
-0.298141
-0.483849
-0.640282
0.698097
0.372761
0.200514
0.0282915
0.0271428
0.051732
-0.0915291
0.250319
-0.439087
-0.672085
0.248986
-0.250136
0.193959
0.314795
-0.20302
-0.491251
-0.209822
-0.133425
-0.0703282
0.101874
-0.0706398
0.320558
-0.24443
0.016558
-0.350313
-0.137052
0.0864344
-0.160992
0.2079
0.0519616
0.224662
0.0907035
0.369287
0.109694
0.218758
-0.438307
-0.254039
-0.191413
-0.223747
0.248808
0.208148
-0.360723
-0.0927025
-0.417033
0.416827
0.565801
0.0908729
0.162021
-0.0609462
-0.086488
0.0985204
-0.157203
-0.17675
-0.454959
-0.0679491
-0.209469
-0.147284
-0.0155404
0.215579
-0.281799
0.223117
-0.271015
-0.0990704
0.355625
-0.17908
-0.248521
0.384841
-0.158874
1.03753
0.342148
0.0166173
-0.296326
-0.148498
-0.329834
-0.13298
-0.0377064
-0.0101012
-0.670639
0.0690281
0.320938
0.286026
-0.323704
-0.365686
-0.0594681
0.0875453
-0.00909444
0.371977
0.372612
-0.0108032
0.191357
-0.0455695
-0.0151377
-0.359905
0.313212
0.462277
0.340178
-0.464031
-0.324283
-0.191066
0.372688
0.027302
-0.0385944
-0.314541
0.243585
0.270893
0.0266323
0.157791
0.284926
0.253286
-0.22023
-0.0435098
0.557026
0.302663
-0.242936
0.0778316
-0.335026
-0.298586
0.306997
0.188652
0.182221
-0.172305
-0.352568
0.19202
0.230418
-0.197858
-0.272031
-0.179008
0.132907
-0.291517
-0.201548
0.411214
-0.00895016
-0.269624
-0.168767
0.0615451
-0.600395
-0.138781
-0.466337
0.318798
0.386899
0.116393
-0.14514
-0.368605
-0.284115
0.113747
-0.0841627
0.322667
0.202494
-0.109541
0.224404
-0.462593
0.0596691
0.0710198
0.256661
0.199569
0.0630744
-0.206984
-0.190067
-0.0668677
-0.0860369
0.274885
0.192768
0.283002
0.356431
-0.259286
0.183487
0.325648
-0.26324
0.0146743
-0.128538
1.39905
-0.196672
0.466531
0.166575
0.0882824
0.0576973
0.159467
0.332433
0.263873
0.327236
-0.221805
0.383919
0.227324
-0.404124
-0.274573
-0.320785
0.220943
-0.155433
0.41911
-0.323277
0.579938
0.42728
-0.226159
-0.42431
-0.38322
0.210108
0.00882974
-0.0942117
-0.253814
-0.545439
-0.449549
0.0193592
0.190862
0.351324
-0.717275
0.0477292
-0.0737788
-0.327725
-0.685412
-0.226715
0.285555
0.206708
-0.00874839
-0.00251007
0.191914
0.140664
0.118466
-0.43536
-0.528618
-0.0264079
-0.382174
0.239372
-0.287889
-0.272216
0.0784699
0.181953
-0.108397
0.0298593
-0.0361064
-0.300284
-0.0370882
0.0937762
-0.0851898
-0.534808
0.253266
0.291679
0.0289326
-0.417566
1.30907
0.951609
0.5907
0.428944
-0.0213505
0.345289
0.162514
0.0768594
-0.0198714
-0.00565045
-0.198069
-0.481565
-0.27178
0.255553
0.248996
0.189417
-0.531955
0.214202
0.145777
0.028272
0.41094
0.276
-0.395597
-0.240678
0.145765
-0.141101
-0.207106
0.10163
0.329581
-0.0106257
0.183944
-0.319749
0.432896
0.354908
0.553986
-0.0577908
-0.20238
0.353751
0.0540484
-0.266072
0.00912282
0.177408
-0.475626
0.134425
0.139958
-0.36798
-0.350406
-0.0444133
-0.117116
-0.126744
-0.435059
0.159345
-0.426033
0.0245532
-0.40121
0.3802
-0.414502
0.316713
0.144266
-0.149707
0.193169
0.23892
-0.268836
-0.0515831
-0.503537
0.345288
0.039741
0.648129
-2.4039
-1.64389
-0.259209
-0.354305
-0.0371723
-0.0993632
-0.142334
0.0292843
0.170393
-0.172113
-0.1458
0.150407
-0.190534
0.0800767
-0.228638
-0.0158146
-0.238149
-0.0160877
0.145784
0.288646
-0.048917
0.218066
-0.108134
-0.213277
-0.0382991
0.116795
-0.0643949
0.288576
-0.169961
-0.343572
0.183736
0.330682
0.252835
-0.138305
-0.598952
-0.439754
-0.0715301
-0.287136
-0.0826561
0.41394
-0.00720947
0.299259
-0.0616535
-0.325819
-0.423847
-0.0322043
-0.193067
0.130052
-0.33811
-0.38566
0.165268
-0.475953
-0.0216016
-0.179645
-0.29097
0.412261
-0.232599
0.477708
0.294796
0.198814
-0.408397
0.410496
0.371958
0.480495
0.417792
0.0691758
0.25274
0.091972
0.724157
-0.0445564
0.469906
-0.429975
0.102208
-0.083832
-0.375851
0.227744
-0.353554
0.1134
-0.420182
-0.107018
-0.189388
0.206986
-0.161563
-0.331565
0.45053
0.165182
0.264004
0.0319436
-0.0675738
-0.400246
-0.34451
-0.079835
-0.131661
0.0314166
0.415568
0.28377
0.184668
0.276995
0.0674408
0.398692
-0.261031
-0.13042
-0.54773
0.008698
0.286591
-0.251258
-0.469274
-0.369948
0.238451
-0.431682
0.374502
0.350555
-0.130373
-0.0194509
-0.102073
-0.402473
0.0436613
0.183736
-0.134478
0.109602
-0.0731907
0.298523
-0.370821
0.205652
-0.339497
0.13952
0.569461
0.493933
-0.170005
-0.214565
0.222172
0.302508
0.322726
0.0646097
-0.355513
0.0872674
3.0856
-0.0205157
0.261271
0.00919823
0.266222
-0.0270973
0.27448
-3.35326e-05
0.0603341
-0.367762
-0.272243
0.171603
-0.149923
-0.0974606
0.124164
0.182384
0.226817
-0.0625834
0.32424
-0.0384342
-0.0073215
0.0836594
-0.333268
-0.129854
-0.146818
-0.156196
-0.360714
0.253375
-0.300327
0.323301
0.259084
0.225651
0.136823
-0.454766
0.177152
0.119394
0.175351
0.153274
0.399617
0.0830916
0.149469
-0.0245763
-0.489754
0.331742
0.0195926
-0.258535
0.176419
-0.313906
0.332363
0.171915
0.108268
-0.482944
-0.0851182
-0.428693
0.462125
0.402804
0.329606
0.0265633
0.347725
0.139494
0.281974
0.184516
0.0245696
0.0926847
-0.213418
0.175926
0.117361
-0.0467973
1.85572
-0.19471
0.199801
-0.00836005
-0.0539822
0.239119
-0.248656
-0.371479
0.18643
0.347903
-0.362915
-0.0576395
0.131617
-0.0197644
0.194235
0.41184
-0.325914
-0.283259
-0.366607
0.0634307
-0.285063
-0.175637
0.743035
-0.0653785
0.0402946
-0.0604833
-0.41583
0.438083
0.422771
-0.305134
0.149172
-0.361384
0.117667
-0.277384
0.828208
0.109512
-0.371635
0.350845
0.100672
0.446121
-0.0948878
-0.319417
0.345156
0.0172343
-0.171575
-0.108297
-0.419558
0.310067
-0.445262
-0.117253
-0.14584
0.116953
-0.499473
0.00611723
0.331461
-0.191039
-0.134711
-0.137319
0.304989
-0.425494
-0.004576
-0.217468
0.147617
0.399869
-0.118521
0.130993
0.314367
0.11497
0.52766
0.730181
-0.145119
0.218157
-0.287911
0.495578
-0.00296761
-0.389287
0.0876836
0.127073
-0.209369
0.37237
-0.0501247
-0.612696
-0.318156
0.215153
0.119667
0.193409
-0.328317
-0.121288
0.172251
0.213298
-0.120151
0.0681318
-0.372963
0.227615
-0.0226242
0.497972
-0.0604304
0.230649
-0.220515
-0.0283142
-0.220704
0.411005
-1.73522
-1.059
-0.313489
0.155412
-0.0315525
0.247331
0.344722
-0.295498
0.178514
0.108832
-0.173736
-0.228616
-0.0714806
-0.261519
-0.0518118
0.402339
0.257152
-0.0177576
0.141475
0.121356
-0.633282
-0.309195
-0.198605
-0.164758
0.129717
0.225953
0.078111
-0.450249
-0.0874859
0.0205917
-0.227263
-0.461563
0.0235223
0.454719
0.463191
-0.743371
-0.187722
0.408237
-0.247655
-0.278979
0.297863
0.153689
0.236521
-0.198331
-0.0915734
-0.335507
0.0554171
0.0178845
0.203709
-0.435668
0.31386
0.106606
0.240476
-0.175414
-0.100241
0.120295
0.0671657
0.0202372
0.183899
-0.309275
-0.260828
0.101279
0.230413
0.309694
-0.302964
0.0798664
-0.536192
0.162153
0.73926
-0.420238
-0.128583
-0.454338
0.00970129
-0.0586337
0.474004
0.182529
0.373225
0.280866
0.346362
-0.324996
0.296464
-0.164301
-0.311319
-0.112114
0.0911179
0.164006
-0.0902025
-0.162517
-0.275189
-0.324544
0.537482
0.285526
-0.375158
-0.0314181
-0.48601
0.241674
-0.210191
0.239705
-0.28758
0.226889
0.0957307
-0.00368425
0.172227
-0.648646
-0.244315
-0.361195
-0.461769
-0.389407
-0.0833032
-0.0117748
-0.342048
-0.360282
-0.143072
-0.0339771
-0.323464
0.0117031
0.106413
0.499878
0.13541
0.254519
0.120907
-0.447508
-0.321461
-0.182925
0.0104762
0.171859
-0.126387
-0.0381244
0.266796
-0.0406815
0.106278
-0.407451
-0.299731
0.495611
-0.280102
-0.0379073
0.042996
-0.13429
-0.31696
-0.202787
-0.053874
0.191972
-0.272593
-0.183278
0.142822
0.465565
0.305799
-0.221645
0.531897
0.503784
-0.0120114
0.425492
-0.246384
-0.319914
0.430664
0.456685
0.182491
-0.0296059
0.351396
0.278047
0.0657845
0.143884
0.297497
0.418199
0.253336
-0.0776163
-0.0718549
0.0310844
0.48745
0.119884
0.0432949
0.322022
0.322342
0.13831
0.214147
0.29598
0.105071
0.346775
0.255761
0.345451
-0.38726
0.478995
0.412975
-0.30767
-0.463351
0.108052
0.0842467
-0.296463
-0.420982
0.113085
-0.0127618
-0.236393
-0.285117
0.353628
-0.118799
-0.0872796
0.387683
-0.457403
0.0471275
0.367539
0.219538
-0.0958773
0.0534031
-0.154058
2.35743
4.95014
-0.0110989
-0.111658
-0.115344
-0.0689731
-0.00586912
0.0428196
-0.0122848
-0.149946
0.0901212
0.0739193
-0.155873
0.0687143
-0.250894
0.0963965
-0.0726019
0.283788
-0.223278
0.0885745
0.017029
-0.189294
-0.0898176
0.264233
-0.327175
0.0673623
0.458491
-0.296041
-0.190103
0.200285
0.234542
-0.329025
-0.371049
-0.112364
0.52435
0.191129
0.19256
-0.178956
0.468055
-0.04147
-0.248182
0.13294
-0.208993
0.378209
0.108749
0.00087456
-0.190418
-0.0804317
-0.409487
0.179382
0.368356
-0.144898
-0.361951
0.479869
-0.423174
-0.0299486
0.213137
0.407648
0.342455
0.280406
-0.0607232
0.369987
-0.0358851
-0.353031
0.0383341
-0.398516
-0.116435
-0.122471
0.123282
0.40613
0.31383
-0.0450987
0.207957
-0.415184
-0.0670871
0.0284794
-0.00954126
0.107425
0.270422
-0.170157
0.330899
0.213331
0.1874
0.174084
-0.372596
0.0295081
-0.0184142
-0.473829
-0.21151
-0.532315
0.100174
0.412312
-0.168259
0.272559
-0.363309
-0.116938
-0.0855932
0.00867736
-0.170282
0.216541
0.407585
-0.166054
-2.81229
0.27326
-0.211091
0.0276769
-0.145191
-0.110427
-0.0348977
-0.153887
0.203402
0.0382636
-0.213245
0.0037419
0.102553
0.0691236
0.122556
0.122246
-0.224939
0.0472446
-0.25314
0.197147
-0.0696489
0.0172571
4.08815e-05
0.170903
0.0758093
-0.101385
-0.111664
0.272024
0.128192
0.375841
0.117268
0.10753
0.35225
-0.0589414
-0.375476
0.0667124
-0.221255
0.134691
-0.0726644
-0.322429
-0.0217011
-0.19013
0.136968
-0.0977761
0.257074
-0.273738
-0.142156
-0.215365
0.0158497
-0.329794
0.0248131
0.524942
-0.209477
-0.258559
0.414181
-0.361647
-0.308168
0.356396
-0.0034013
-0.188394
0.229493
0.0836793
0.319403
-0.210287
-0.0636957
-0.355078
0.0882383
0.29358
-1.07372
-0.95074
-0.290006
-0.0712539
-0.0788003
0.113006
0.055763
0.543488
-0.340419
-0.12552
-0.182081
0.134279
0.299038
0.0476467
-0.27959
-0.00721785
-0.162236
-0.0937215
0.303696
-0.0642539
0.244777
0.237167
-0.463425
0.350894
-0.17338
0.0884897
0.285786
0.00943295
0.532766
0.162272
-0.304497
0.311921
0.248832
-0.41747
0.265801
0.37728
0.537197
0.36124
-0.191447
-0.305195
0.337722
0.263415
-0.239568
0.048209
-0.3021
-0.116898
0.237859
0.0535407
0.280081
-0.211051
-0.190103
0.32745
0.0946585
-0.317235
0.100425
-0.291569
-0.103681
-0.0729279
-0.0390252
0.260741
0.0404749
-0.389815
-0.399383
0.356762
-0.108053
0.443013
0.145343
0.519507
0.0229696
-0.102457
-0.430508
-0.364656
-0.444859
0.0238474
0.429115
0.446052
0.177359
0.47838
0.17945
0.514182
0.448792
0.129428
0.528473
-0.154864
0.018001
-0.403474
0.181051
0.281584
-0.218067
-0.330121
0.141582
-0.224705
0.140886
-0.177199
-0.107752
-0.354018
-0.212082
-0.0991823
0.399316
0.131321
0.00309369
0.0540762
0.976343
-0.349568
0.558387
-0.327957
0.384267
-0.072746
0.341504
-0.201599
-0.405063
0.371103
-0.114401
-0.0508455
-0.0893025
-0.449529
-0.404193
-0.0442305
-0.246852
0.21438
-0.242314
-0.297533
-0.416485
-0.126195
0.102883
0.160646
0.171078
-0.292839
0.480685
-0.494212
0.0322947
0.0788028
0.197315
0.00950541
-0.352449
-0.35181
0.0658751
0.702734
-0.00735525
-0.397141
0.367243
0.417493
0.420558
0.307258
-0.42486
-0.359617
-0.084903
0.42221
-0.361698
-0.264874
-0.391346
0.278212
0.365134
0.0170108
0.331166
0.378831
-0.218312
-0.441431
-0.213793
-0.489735
0.171636
-0.265894
0.30553
0.267553
0.187438
0.423457
-0.125156
0.160237
-0.221493
-0.00909336
2.37746
2.21629
0.15132
0.16629
0.174339
-0.0206668
0.0899901
0.0723793
-0.0445107
0.326221
0.0678366
-0.140207
0.0172977
0.0852919
-0.215278
0.225937
0.272306
-0.0901418
-0.0638841
-0.345457
-0.0337969
-0.191142
0.0693359
0.108923
-0.211428
-0.129399
-0.198598
-0.28146
0.480047
0.358747
0.573864
-0.0582315
-0.474458
0.34026
0.0886552
0.427928
0.512497
-0.841777
0.0344879
0.449892
0.193448
0.612086
-0.166845
0.279495
0.108344
0.0522659
-0.744982
0.0220076
-0.346317
-0.117792
0.249307
-0.164952
1.51142
0.0265361
-0.213194
0.0211313
-0.0898413
-0.347918
-0.135566
0.231546
0.0249188
0.0275199
0.896803
-0.0907008
-0.217391
0.19456
-0.144038
-0.406029
-0.154631
-0.0682445
0.18681
0.00613867
-0.497559
-0.411373
-0.379828
-0.21673
-0.0369753
-0.203874
0.0843809
0.448753
-0.398811
-0.486273
0.193871
0.194185
0.190608
0.0285679
0.111747
-0.082336
-0.304994
-0.116879
0.42602
-0.242926
0.31374
0.145794
-0.145134
0.312966
0.165239
-0.216515
0.318387
-0.154578
-0.174821
-0.262818
0.0670368
0.494239
-0.558512
0.525957
0.474749
0.113916
-0.140449
0.45729
-0.123654
0.470441
0.543342
0.481249
0.447391
0.0521848
-0.0690965
0.133818
0.328076
-0.269296
-0.327807
-0.0843147
0.503761
0.121397
-0.163566
-0.358373
0.0915863
-0.534818
0.218535
0.0830884
0.455352
0.0814149
0.501232
-0.0182493
-0.629224
0.260221
-0.29983
0.308699
-0.359733
-0.139869
-0.430269
0.0102088
0.853488
-0.0431765
0.493866
0.297716
0.42515
-0.533844
0.0953804
-0.168579
-0.37584
-0.236292
-0.162396
0.250084
0.448968
0.191123
-0.207132
0.0317654
-0.155663
-0.280944
-0.127082
0.0465878
0.269862
0.153937
0.282335
-0.504419
0.51572
0.123663
0.428126
-0.101689
0.334829
-0.0994945
0.1041
0.254899
0.515478
-0.266831
-0.334851
0.621467
0.367784
0.531691
0.0290611
-0.045431
0.106017
-0.0385223
-0.14116
0.107947
0.389262
0.0756054
-0.350087
-0.213315
0.183617
-0.173734
0.372442
0.000359624
0.106059
0.264913
0.168982
-0.333014
0.180636
-0.0867012
-0.0247243
-0.308089
0.0317627
-0.110061
0.135727
0.254388
-0.227379
0.154365
0.266527
0.0630301
-0.462503
0.201354
-0.33985
0.557117
-0.028273
-0.300429
0.673184
-0.15079
0.198611
0.457622
-0.53498
-0.441204
0.645749
0.167716
0.436507
0.427143
-0.0240702
1.21771
0.11968
-0.0654053
-0.498281
0.22694
0.0392019
-0.417869
0.28589
-0.146475
-0.00772429
0.668161
0.395701
-0.178845
-0.0341088
0.249112
0.256301
0.112154
0.015625
0.284516
0.293756
0.146881
-0.0359135
-0.192339
0.33856
0.0424564
0.576428
0.220059
0.284918
0.256385
-0.345113
-0.177406
0.554909
0.121481
0.245568
-0.132969
-0.162991
0.233194
-0.0229767
0.594044
0.130002
0.428678
-0.125825
0.50262
-0.296406
0.0253738
0.0289773
0.355694
-0.162792
0.370429
0.23222
0.364908
0.0623934
0.179046
-0.057306
-0.0658981
0.265543
0.442504
0.262805
0.517656
-0.237783
-0.308978
0.152572
-0.141462
0.288648
-0.479301
0.280811
-0.0578462
0.226048
-0.107981
-0.13793
0.499408
0.0651586
-0.14512
0.396713
-0.20747
-0.193525
-0.182638
0.321456
0.313757
0.493741
-0.0272308
-0.00666552
0.14374
0.310803
-0.364522
-0.272485
-0.118639
-0.346171
-0.203038
-0.183595
-0.00795315
-0.2691
-0.0722808
0.0124886
0.0655772
-0.170138
0.24608
0.15496
0.21045
-0.245989
0.116565
-0.109494
-0.102351
-0.133234
0.312712
-0.086808
-0.131445
-0.268218
0.203831
-0.0621453
-0.214998
0.242227
-0.439909
0.22429
-0.15286
0.327762
-0.272334
-0.021236
0.26585
0.117877
0.365906
-0.215582
0.0369867
0.142272
0.138916
0.335754
0.403199
0.480011
-0.462401
-0.0140764
-0.239981
0.287533
-0.383021
-0.133557
0.131194
0.23784
0.0561807
-0.502616
0.46765
0.327262
0.065605
0.243406
-0.0466789
0.0508087
0.490765
-0.219921
0.0390767
-0.0404515
0.0336443
0.292161
0.101503
0.311557
-0.351974
-0.291483
0.018631
-0.230311
-0.386552
-0.170101
-0.152856
-0.266966
0.231649
-0.172584
0.168935
0.224755
-0.198365
-0.466039
-0.323689
-0.0638919
0.183995
-0.227782
-0.183613
-0.0875296
0.514994
-0.490009
0.065497
0.0154522
-0.296318
0.0459016
0.27278
-0.373179
-0.42183
0.459462
-0.50727
-0.503986
-0.0924234
0.141927
0.222015
0.502553
-0.0998737
0.341043
-0.549778
-0.0789954
-0.0191453
0.0613516
0.0987424
-0.0331953
0.227977
0.29261
0.00634473
-0.300466
-0.481373
-0.489735
-0.135809
0.00203456
-0.392033
0.108957
-0.342309
0.00662149
0.199017
0.28939
-0.420254
-0.19383
-0.107096
0.579851
-0.193621
-0.743351
-0.116935
-0.00635888
-0.10043
-0.0463836
-0.208921
-0.110385
0.229071
-0.369646
-0.49636
0.371074
0.0300629
0.331153
-0.505758
-0.0577906
-0.135848
0.108143
-0.0636867
0.0658572
-0.499115
-0.616539
-0.617943
0.292109
-0.00251937
0.425213
0.261006
0.215213
0.0867945
-0.243415
-0.264016
0.301952
0.438945
-0.230135
0.251869
-0.233527
-0.0612527
0.0298434
0.21585
-0.544725
-0.352369
-0.642777
-0.49636
-0.14337
-0.4691
0.240165
-0.430453
-0.196716
-0.226117
-0.179684
-0.42273
-0.142401
0.0393876
-0.122996
0.370615
-0.165011
0.31648
0.192312
-0.417417
-0.0538487
0.51924
-0.135594
0.354872
-0.353797
-0.386232
-0.285225
-0.140851
-0.200943
0.299905
-0.419051
-0.145521
0.12543
-0.356281
0.146801
0.334725
-0.0828605
0.102231
-0.265272
0.49895
-0.25354
0.0553286
0.545904
-0.11358
0.418544
0.39017
0.0671739
-0.0830292
0.0699075
0.521519
0.162244
0.329781
0.101893
-0.181407
-0.0178841
-0.268157
0.430156
-0.244606
0.533579
-0.30005
0.169304
0.324505
-0.285795
-0.315382
-0.194443
-0.00341508
0.394846
0.349584
-0.414057
0.32918
0.290196
-0.0653749
0.486641
0.217059
0.0327721
0.418688
-0.307242
0.168175
0.595265
-0.38571
0.491755
-0.266666
-0.139741
0.158792
0.536137
-0.252118
0.440365
-0.272355
0.697496
-0.375092
-0.00743195
-0.34845
-0.0593062
0.549184
0.29372
-0.183588
-0.215337
0.813285
0.237072
-0.250943
0.402059
0.166252
0.334475
-0.477224
-0.267341
0.0378262
-0.250213
0.426563
-0.305923
0.440915
-0.114788
-0.442827
-0.0834003
0.0354406
0.0867858
-0.13486
-0.27897
0.00646608
0.529012
-0.408965
0.43057
0.223035
0.0915627
-0.322131
0.241957
0.194159
0.218974
0.506523
0.203794
-0.213342
-0.0849726
-0.23193
0.417226
0.253706
-0.283374
0.479466
0.388932
-0.0194215
-0.073883
0.350327
-0.0550461
-0.327609
-0.199173
0.304614
0.10642
-0.226739
0.0757499
-0.162094
0.0710915
0.457135
0.23257
0.024929
-0.0836357
0.158599
-0.337267
0.299064
-0.0425652
-0.325106
-0.596086
-0.109294
0.0893394
0.432711
-0.516496
0.0658492
-0.327027
0.336236
-0.256584
-0.403224
-0.380003
-0.39727
-0.408792
0.315336
-0.288264
0.131197
0.238999
0.114244
-0.165825
-0.461183
-0.0738563
-0.364295
0.219203
-0.198971
0.369234
-0.204095
-0.386048
0.462821
0.217947
-0.411425
0.126583
0.198818
0.387747
0.527212
0.254984
0.484091
0.288326
-0.386851
0.0403682
0.209937
-0.345968
-0.456543
-0.426395
0.605466
0.862213
0.153661
-0.226494
-0.172407
-0.401634
-0.211578
0.264527
0.259192
0.324919
0.322433
0.158023
-0.134393
0.0321506
0.496974
0.471457
0.133132
-0.0446402
0.265226
0.215616
-0.367289
0.105096
-0.256012
0.190322
0.280884
-0.199347
0.014379
0.391745
0.32225
-0.174962
0.172119
0.00474587
0.358232
0.143131
-0.221513
0.334023
0.469913
0.282584
0.413266
0.399985
0.207756
0.0627395
-0.00237866
0.33157
-0.0733875
0.0876973
0.178057
0.155589
0.108118
-0.154895
0.330522
0.432082
-0.200551
0.142466
-0.21085
-0.500761
0.285041
0.161824
-0.00723755
-0.494079
-0.0417035
0.397274
0.196517
-0.464227
0.15529
-0.170651
0.369328
0.128553
0.361802
0.17874
0.603568
0.39751
-0.294201
0.0727413
-0.59075
-0.27659
0.124105
-0.205404
0.365597
-0.11271
-0.355126
-0.0281047
-0.43237
-0.0835962
-0.0900251
-0.361471
0.132892
-0.43269
-0.28555
0.00570493
-0.228556
0.0672436
-0.217208
0.0783962
-0.432407
-0.54049
-0.26574
0.457325
-0.165114
0.331773
-0.333387
0.387763
-0.341851
-0.441775
0.421473
-0.448363
0.0271922
-0.228466
0.301508
-0.289973
-0.336284
-0.36016
0.435657
-0.309679
-0.405541
0.458868
0.457134
0.063318
-0.461873
0.429821
0.31236
0.00592917
0.0405082
-0.129409
0.491914
0.311344
-0.214918
0.509033
0.07464
-0.191855
0.0616441
0.244652
-0.0703753
-0.173125
0.262382
-0.162491
-0.210006
-0.109761
0.276295
0.423917
0.228674
0.366887
0.412044
0.348579
0.473565
-0.545911
0.341672
-0.0189251
-0.141457
0.410079
-0.274284
0.0176964
-0.419863
-0.373522
-0.485892
0.10732
0.0144833
0.403062
0.412516
-0.178241
-0.42859
-0.366002
-0.522824
-0.273002
-0.293442
0.403501
-0.161606
0.229317
0.0661375
0.282421
-0.222978
-0.322781
-0.174195
-0.3989
-0.401135
-0.333652
0.130579
0.218546
0.253587
-0.128518
0.02247
-0.452183
-0.502328
0.420689
-0.256261
0.485539
-0.150957
-0.262441
0.0814255
-0.185904
-0.176235
0.216401
-0.0937701
0.14636
0.36982
0.0185106
-0.450315
-0.409003
0.23793
0.0247791
-0.209631
-0.414069
-0.255169
-0.125013
-0.0610878
-0.0282455
0.527282
0.371357
0.0942607
0.219876
-0.0379427
0.0680144
0.298097
0.245591
0.437324
-0.36498
-0.343278
-0.321235
0.193284
0.117977
0.23098
0.517185
-0.123614
-0.433
0.278468
-0.32229
0.0439907
-0.313492
0.542452
-0.272552
0.266679
0.266448
-0.0110707
0.18474
-0.253658
-0.660016
0.135626
-0.520719
0.212071
-0.169747
0.217656
-0.577007
-0.438233
-0.430814
0.243315
-0.252357
-0.661679
-0.282235
0.18316
0.532969
0.234418
0.282302
-0.182856
0.142886
-0.470382
-0.211749
0.23115
-0.480377
0.1237
-0.29879
-0.262418
0.17328
-0.068447
-0.0840292
-0.430844
0.170649
0.415761
0.245651
-0.219154
-0.235483
-0.617338
-0.375862
-0.121945
-0.509737
-0.134782
0.625238
0.320872
-0.24565
0.00714843
-0.38837
-0.0989618
-0.306221
0.360974
-0.425498
0.391514
-0.0336678
0.288528
0.0921552
0.210993
-0.682019
-0.164365
-0.565785
0.282021
0.00594119
-0.000462315
0.268513
0.140557
-0.2052
-0.346218
0.0774441
-0.410836
0.486026
-0.270248
-0.142195
0.205628
0.38817
0.311005
0.384906
-0.192252
0.234252
-0.217405
0.240742
0.0436007
-0.339113
-0.290667
-0.0233867
-0.451427
0.0186882
0.322975
0.382289
0.409003
-0.0782985
0.303869
0.153504
0.22239
0.469734
-0.443924
0.0320515
-0.160153
0.466865
-0.404398
0.224496
0.390889
-0.252618
-0.0851554
0.21451
-0.277054
0.134892
0.392682
-0.204887
-0.00569251
0.37289
0.568481
0.0245251
-0.029483
-0.489175
-0.0764143
-0.341775
0.476113
-0.416926
-0.126374
-0.337217
0.370885
0.333549
0.134286
0.233591
0.234915
0.308732
0.13575
0.23158
0.394497
-0.0473146
-0.297415
0.00878334
0.36276
-0.270151
0.387086
0.219808
-0.371488
0.0920203
0.0711172
-0.519208
-0.399528
0.0888503
-0.390982
-0.246488
0.228189
-0.327108
0.628457
0.117792
-0.433509
-0.185173
0.763969
0.322638
-0.111022
-0.298584
-0.10745
0.111508
-0.0309832
0.192073
-0.141951
-0.0375567
-0.284215
0.226826
-0.122052
-0.278129
0.0468459
-0.10184
0.240901
0.0724624
-0.453462
-0.161746
0.125659
-0.288387
0.0132125
-0.276946
0.628393
-0.226515
-0.148073
0.102963
-0.442294
0.122737
-0.164257
0.415122
-0.318166
0.179384
-0.0683524
0.324367
-0.179168
-0.128644
0.219484
-0.778098
0.138851
-0.23231
0.587073
-0.412739
-0.574868
0.419862
-0.431928
-0.48441
-0.0548584
-0.130967
0.320714
0.31469
0.462281
-0.310204
0.362662
0.080558
-0.546012
0.490899
0.287723
0.0824312
-0.535788
0.06954
-0.250461
0.293964
0.520109
0.218537
0.299285
0.173642
0.22205
0.140093
0.297574
0.11905
0.182327
0.0316565
0.936877
0.0884546
0.220673
-0.689722
0.0533966
-0.597076
0.260255
-0.274526
0.569275
-0.597895
0.224905
0.125114
-0.231801
0.362004
-0.207194
-0.237575
-0.30004
-0.416185
0.0495882
0.179173
0.0606914
0.334688
0.453316
-0.000196295
0.00451929
0.425963
-0.123524
-0.241008
0.693029
-0.539286
0.517321
0.330522
0.0133901
0.347295
-0.0528502
-0.165797
0.00141645
0.0102704
0.0970835
-0.373626
-0.527792
0.0739167
-0.165811
0.181611
0.430286
0.345273
0.277143
-0.238476
0.455766
0.284687
-0.191711
0.0383675
-0.406865
-0.424908
-0.0019207
-0.202127
0.0333095
-0.0156267
-0.000958961
-0.44406
0.129905
-0.228382
-0.183012
0.0664107
0.173634
-0.251111
-0.418344
0.335369
0.375798
-0.113649
0.264702
0.369695
0.476557
0.118509
-0.0237172
0.0610625
-0.194154
-0.0984582
0.314256
-0.02153
-0.2327
-0.809236
0.0520037
-0.1487
-0.528962
0.0204589
-0.82921
0.268704
0.446287
0.22113
-0.072323
0.380785
0.363751
-0.158612
-0.0704889
0.205488
-0.356836
0.100662
-0.0174087
-0.309661
0.170304
0.0514408
0.246138
-0.229928
-0.229942
0.650171
0.595741
-0.260441
-0.40054
0.625486
0.501089
0.468135
-0.642612
0.768895
-0.00412777
