#input normalization
0.16111 0.272712
62.0941 63.4481
9.63197 37.843
7.92802 31.6947
0.0110841 0.0439661
0.00881468 0.0338775
0.542988 1.36901
0.823511 1.27769
1.05267 1.47112
1.29982 1.67897
1.57855 1.87949
1.86027 2.06281
2.12999 2.22636
2.39629 2.3791
2.64341 2.50023
2.87854 2.5868
3.10222 2.64749
3.30893 2.68228
3.48879 2.68793
3.62724 2.6498
3.75209 2.59835
3.85097 2.5101
3.92847 2.41397
3.96982 2.29961
3.99558 2.16779
3.98964 2.01953
3.9519 1.86013
3.89572 1.68228
3.7862 1.48252
3.65921 1.28429
3.54363 1.09712
3.41767 0.920599
3.26231 0.743118
3.10243 0.571919
2.94038 0.400932
1 -1
1 -1
#output normalization
1 0
#neurons weights
-0.488945
0.16621
0.126128
-0.026427
-0.484678
0.441999
-0.261395
0.221006
0.258678
-0.325343
-0.256318
-0.258499
-0.298864
0.0598582
0.37595
0.313566
0.103167
-0.0616003
0.357831
-0.201514
0.0746843
-0.405032
0.140161
-0.0815551
-0.273726
-0.461295
-0.0401419
-0.480213
0.00766899
-0.293357
0.207239
0.442051
0.235115
0.319953
-0.151065
0.102722
-0.0594877
0.345858
0.0570631
-0.224176
-0.10589
0.422948
0.198032
-0.293339
-0.271661
-0.216392
-0.344885
-0.841838
-2.12352
0.431968
-0.157127
0.553931
-0.169069
0.143692
-0.277707
0.0164235
-0.00879313
0.0707617
-0.241304
0.0442285
-0.166321
-0.0829262
-0.291905
0.146329
0.127025
-0.0643524
-0.408998
0.241614
-0.306013
-0.129644
-0.265469
0.0709669
0.176399
0.10252
0.066983
-0.207685
0.0633878
0.173513
-0.203957
-0.128394
-0.0854646
-0.430862
0.228184
-0.0326569
0.462352
0.468367
-0.368067
-0.571208
-0.50767
-0.518027
-0.440284
0.584635
-0.0698501
0.470146
0.414072
0.64238
-0.502455
0.175767
0.297198
-0.527222
0.540275
0.224454
0.500485
-0.0397633
-0.400828
0.31358
-0.726699
-0.353245
0.0690373
-0.435516
-0.600973
0.226283
-0.273871
#synapses weights
0.0972729
-0.219716
0.233945
-0.0202885
-0.252118
0.0688162
1.62585
0.804551
0.333243
-0.210229
0.352983
0.233902
-0.164217
-0.0785209
-0.0542451
-0.151416
-0.183419
0.0495785
0.185902
0.219158
-0.310378
0.0318625
0.360748
0.362961
-0.420635
-0.420052
0.449339
0.247838
-0.374662
-0.117141
-0.366448
0.0697235
-0.203272
-0.237574
0.419316
-0.239028
0.436694
0.333045
0.133501
0.0455519
0.0897063
-0.622399
-0.258996
-0.371298
-0.42935
-0.230149
-0.562706
0.093489
-0.367142
-0.475915
0.0767004
-0.0292655
0.34394
0.269181
-0.529155
0.384681
-0.234516
0.43159
0.172565
0.362767
-0.262813
-0.126078
0.384384
-0.294803
-0.434984
-0.0365971
0.0939021
-0.309914
-0.509737
0.109275
-0.463817
0.224556
-0.47922
-0.059823
0.466076
-0.247381
0.0411415
-0.256609
0.0594144
-0.107849
0.418209
0.294813
-0.328041
0.411124
0.0902149
-0.0160055
0.15631
-0.0992023
-0.26088
-0.251987
-0.145894
-0.361591
-0.465696
0.339238
-0.0299727
0.295017
-0.0113412
-0.0184124
-0.100477
-0.133622
-0.495921
-0.514998
0.449312
0.0217834
0.0182284
-0.129078
-0.0079927
-0.38026
-0.212656
-0.148799
-0.175406
0.301776
0.0421457
0.550895
0.329348
-0.413394
0.170893
0.94178
0.0113658
0.490434
0.200013
0.107434
0.184894
-0.133242
0.121111
-0.285764
-0.282014
0.0851534
-0.251248
0.252012
-0.00020082
0.393931
0.0763159
-0.493487
-0.259816
-0.184062
-0.329048
-0.130817
-0.326361
0.0334
0.187663
-0.211616
-0.464351
-0.408134
-0.148515
-0.242702
0.366245
0.375176
0.502793
0.247565
-0.575718
0.410841
-0.153794
-0.355604
-0.153103
-0.37898
-0.25526
-0.0676881
0.44028
0.446582
0.0184485
0.472748
-0.0175405
0.453689
-0.0928641
0.0101203
-0.138972
-0.269012
0.29397
-0.259165
-0.335917
-0.313586
-0.431735
0.102343
-0.308012
0.217728
-0.250614
0.434309
-0.161038
-0.460154
-0.288483
0.199998
-0.482059
0.208682
0.30113
0.248969
0.185515
0.545188
0.167946
0.0495612
-0.386668
0.760666
-0.232578
-0.174349
-0.17481
-0.308031
0.257639
0.555581
0.0782116
0.347768
-0.201335
0.346145
-0.124384
-0.381371
0.178679
-0.0286131
0.424147
0.331787
0.156722
0.14627
-0.241101
-0.181312
-0.0724571
0.452366
0.0641212
0.295076
-0.0246865
0.421907
-0.45976
-0.27114
-0.356114
-0.301159
0.0416221
0.0826884
-0.303729
-0.00402452
0.216349
0.0167524
-1.15134
0.284505
-0.486505
-0.296552
0.255145
-0.0499739
0.305819
0.104875
-0.256605
0.032347
-0.368187
0.128027
-0.384193
-0.10948
0.201427
-0.124038
-0.457386
-0.527428
0.0756128
0.165747
0.375408
-0.092816
0.0882359
0.316197
-0.172048
-0.142502
0.0415455
-0.299436
-0.317447
-0.323531
0.0980421
0.373329
0.298953
-0.497764
0.344264
0.0715626
0.0704514
-1.30544
-0.127718
0.325792
-0.479014
-0.0616145
0.4262
-0.43333
-0.272856
-0.0913699
0.103168
-0.0274789
0.0870054
-0.0486009
-0.412959
0.0498303
-0.0843795
0.0842909
-0.218594
0.31004
0.00853067
-0.495423
-0.115034
-0.264575
0.343897
-0.210342
0.501901
-0.13806
-0.144167
-0.0394228
-0.0534001
0.355674
-0.341966
0.0797934
0.444819
0.12683
-0.242056
-0.0449303
0.310126
-0.127479
-0.524079
-0.45837
-0.00848395
-0.366974
-0.31457
-0.45096
-0.17732
-0.289213
0.259372
0.121133
-0.432138
-0.143534
0.545095
0.416539
-0.224369
-0.0429252
0.440719
0.499084
-0.123937
-0.37199
0.174644
-0.221673
-0.0678945
0.330929
-0.00829236
-0.0180302
0.155606
0.0109748
-0.130892
0.235634
-0.446879
-0.414889
0.0476453
-0.243001
0.113857
-1.14011
0.566301
0.225645
-0.38526
0.372756
0.159343
-0.331365
0.264888
0.0462982
0.129853
-0.415503
0.121686
0.0924822
-0.00188152
0.0463336
0.377305
0.304135
-0.479646
0.20625
-0.380351
0.397732
-0.0908474
-0.0648921
-0.28471
-0.37686
-0.140744
0.180462
0.157584
0.0376542
0.123923
-0.017458
-0.202981
-0.131228
-0.455333
-0.00823677
0.430778
0.289523
-1.98728
-0.435173
-1.09258
-0.597119
-0.171199
-0.258833
0.0989576
-0.211441
-0.203037
-0.275831
-0.230195
-0.0177874
-0.129544
0.325235
-0.313673
0.203258
-0.219855
-0.249372
-0.323588
0.429777
0.291852
0.358038
-0.40218
-0.160222
0.0335842
0.327914
0.243573
-0.0908211
0.10543
-0.290035
0.40917
-0.00888385
-0.438441
-0.0593491
0.0365684
-0.285444
0.303715
-3.08699
-4.24269
-0.155288
-0.00116993
0.124916
0.0823737
0.00325154
-0.138829
0.0369616
0.114711
0.0246132
-0.043844
0.184201
-0.123046
0.0754753
-0.0514851
0.188613
-0.125702
0.0114437
0.169917
-0.245816
0.1732
0.0361442
0.12054
0.161706
-0.00589129
-0.0719235
0.0468725
-0.127989
-0.291262
-0.378885
0.357544
0.0689574
0.162593
0.302815
0.0591087
0.577993
-0.891165
-0.0526572
-0.0910681
-0.13624
0.147233
-0.0247657
-0.0315497
-0.395835
-0.070436
-0.224321
0.113529
0.0225846
-0.072637
-0.204268
0.104716
-0.0510361
-0.122435
-0.0237068
-0.209868
0.104584
0.0014623
0.218259
-0.0670984
-0.230426
0.0971072
-0.149353
0.0777905
0.154235
0.300667
0.275434
-0.369089
0.0130172
0.412982
0.0459917
0.178253
-0.347969
-0.399215
0.682549
-0.206181
0.655111
-0.00455002
0.349622
-0.271017
-0.173396
0.180439
0.0416408
0.442493
-0.38605
-0.325004
-0.340046
-0.428401
0.0290942
-0.257812
-0.426392
-0.179738
-0.0810605
-0.494131
-0.175996
-0.338622
0.379414
0.332425
0.113197
0.0586343
0.3813
-0.221543
0.0794498
0.473349
-0.0599844
-0.53323
-0.20377
-0.470449
0.134035
-0.155082
0.338553
0.129332
0.0199302
0.487151
0.335051
0.31635
0.454288
-0.0155326
0.233885
-0.356833
0.449602
-0.0529147
0.298145
-0.394832
0.456665
0.24194
-0.056903
-0.17518
-0.314913
0.0634575
-0.012417
-0.126553
-0.149931
0.166699
0.0896474
0.20375
0.451826
0.148734
-0.0693576
0.162934
0.160476
-0.259758
-0.213179
-0.379126
-0.149476
-0.355257
-0.406602
0.103403
1.18082
-0.221314
-0.0530296
-0.228769
0.204979
-0.451628
0.018894
0.134002
0.0587097
0.165431
-0.0449539
-0.126386
0.0280756
-0.110627
-0.341218
0.320189
0.0530596
-0.394747
0.428162
-0.264122
-0.284719
0.448024
0.153826
-0.0430338
0.127709
0.203101
-0.249989
-0.279407
-0.0428288
-0.28499
-0.0372496
-0.0555379
-0.361966
-0.331236
0.24937
0.060656
0.0848188
0.766154
0.42317
0.278365
0.107721
-0.192838
0.33562
0.347713
0.526206
-0.112051
-0.206086
0.251028
0.384173
0.250993
-0.347764
0.405809
0.286782
0.311994
0.0684503
0.494559
0.480855
-0.223242
-0.0721072
-0.0446321
0.651925
-0.365804
-0.474933
0.373425
-0.050196
-0.208611
0.0387567
0.121516
-0.0487206
-0.0717203
0.156183
-0.124789
0.56659
0.105728
-0.0666051
-0.306475
-0.181783
-0.375612
-0.348441
0.419649
0.167084
-0.176825
0.268454
-0.200697
-0.358049
-0.439577
-0.320483
-0.344989
0.341689
0.46139
-0.245539
-0.432349
0.179635
0.249613
0.480135
-0.379637
0.0581181
-0.160079
-0.0971422
-0.212676
-0.0485977
-0.0304372
-0.287245
-0.412397
-0.158822
0.402956
-0.110796
0.0579415
0.093656
0.436179
-0.206156
0.025944
0.381704
0.295295
0.109329
0.36168
-0.12959
-0.262174
-0.295226
-0.00372613
-0.000832395
0.190401
-0.412091
-0.0939233
-0.513868
-0.175136
0.37995
0.0678636
-0.443568
-0.0945193
0.422804
-0.0488925
-0.0121568
-0.0251309
-0.408024
0.0818346
0.199418
0.314866
-0.182895
0.236265
0.0826654
0.131531
0.00946658
-0.275421
0.242005
-0.310442
0.266144
0.135476
1.69196
1.30259
0.497155
-0.243329
-0.120551
0.00464244
-0.0700647
0.120604
-0.345303
0.344089
-0.0610386
-0.137308
-0.1449
-0.147671
0.138919
0.141504
-0.177145
0.0590177
-0.126716
-0.185442
0.553802
0.121367
-0.0296958
-0.201861
0.410684
-0.116829
0.281887
-0.231554
0.348967
-0.091042
-0.303345
0.180268
0.33081
-0.170778
-0.137227
-0.42
0.443308
1.02433
0.690648
0.296908
-0.0460451
0.33385
-0.363498
0.0126935
-0.384786
0.120863
0.41497
0.296399
0.306092
-0.202201
0.00152358
-0.514783
0.235309
0.325513
-0.388416
-0.505386
-0.116856
-0.180078
-0.336625
-0.0752096
0.246039
0.249993
-0.0546039
-0.427079
0.366173
0.114265
0.125993
0.436982
-0.155217
-0.253199
-0.282672
-0.292593
-0.317246
-0.400321
-0.00739934
0.12213
-0.247879
-0.472257
-0.128281
-0.284839
-0.0492245
-0.19918
-0.465662
0.254021
0.0551672
-0.141592
0.497119
-0.337353
-0.0796621
0.27449
0.112477
-0.277779
-0.076129
0.0433698
0.490526
0.247246
0.230197
0.50324
-0.27907
0.458055
0.373695
-0.46047
0.428212
-0.168316
0.0856528
0.0112949
0.183428
0.186064
0.0543284
0.112156
-0.354544
1.36852
0.0798348
0.301451
0.248872
0.179085
-0.111819
0.283999
-0.358523
0.256177
-0.241913
-0.428933
0.254957
0.312616
0.442029
0.501006
-0.360131
-0.203563
-0.284861
0.224023
0.21418
-0.361315
-0.181394
0.108919
0.0291868
-0.0691667
0.0303516
0.247689
0.623827
0.183839
0.0597284
-0.33702
-0.086722
0.277833
0.0570979
-0.310127
0.273722
0.0738609
0.219997
-0.226006
-0.0423297
-0.175729
0.299443
0.0132763
0.0014949
-0.193279
-0.282554
0.198617
-0.429159
0.450133
0.214858
0.181271
-0.295892
-0.470452
0.261833
0.0128322
-0.423704
-0.239618
0.269821
0.0209843
-0.0902898
0.110368
0.488452
0.365761
0.30896
0.157274
-0.244967
-0.227653
0.491012
0.268437
0.278684
0.0949735
-0.179095
0.240487
-0.478845
0.354926
-0.155704
-0.544169
0.0741547
-0.116326
0.103266
0.145457
-0.283308
0.0967603
0.225737
-0.0361478
-0.131517
0.439567
-0.292838
0.308199
0.1577
-0.0705935
-0.315992
0.022665
0.170022
0.258613
0.124484
-0.505131
0.0149282
0.260916
0.113663
-0.09227
-0.173989
0.160324
0.289461
0.0667866
0.221077
0.142102
0.454478
0.0853249
-0.377665
-0.0297131
1.14601
-0.305935
-0.30975
0.204518
-0.0897385
-0.245093
-0.0432281
-0.341612
-0.0682417
0.0706384
-0.0920775
-0.0409042
0.267361
-0.222149
0.121744
-0.361539
0.0502439
-0.456344
0.299804
0.112182
0.167755
0.289075
-0.116496
-0.335163
0.0943716
0.0996303
-0.494697
0.539106
-0.224448
-0.0718402
0.0125108
-0.00268385
-0.417228
0.165324
0.169725
-0.000334719
-0.157262
0.390037
0.198783
0.456616
0.396812
0.550093
0.193288
-0.305479
-0.12164
0.400859
-0.167244
-0.0464716
0.401876
0.0786501
0.30687
-0.362164
-0.0770115
-0.0592121
-0.367412
0.421051
-0.27439
-0.209152
-0.000294171
-0.0741773
0.0417429
-0.354851
0.263192
-0.105272
-0.303041
-0.210084
-0.116809
0.278104
0.223678
-0.441419
0.280875
-0.321119
-0.289079
-0.0252298
0.0879495
0.519702
-0.408518
-0.198269
-0.147626
-0.31047
0.0822623
-0.316375
-0.241053
-0.495498
-0.0538879
0.074523
0.0141253
-0.109234
0.266785
-0.455396
-0.458692
-0.146081
-0.282445
-0.0685574
0.234694
-0.453037
-0.46082
0.38069
0.0297835
-0.106391
-0.109794
-0.32907
-0.349043
-0.437437
0.0626633
-0.0502036
-0.302333
0.108753
0.44228
-0.299702
-0.187508
-1.83329
0.13413
-0.384218
0.12864
0.0284425
-0.0553775
-0.0904439
-0.361926
0.242892
-0.296851
0.00776726
-0.00128002
-0.00203794
0.0461507
0.305226
0.1946
-0.418223
0.03443
-0.0929887
0.301011
0.0930033
-0.278808
0.388447
-0.360864
-0.423248
0.452783
0.259519
0.226435
-0.214702
-0.24748
0.0933143
-0.0144193
0.219864
0.132574
-0.0173864
0.24202
-0.266113
-0.272541
0.290123
0.131923
0.0625696
0.280824
0.470354
-0.303326
0.356652
-0.551399
-0.0158961
0.269254
0.236752
-0.170353
-0.156116
0.374504
0.328403
0.40811
0.224773
-0.20074
0.213481
-0.208343
-0.0228417
-0.122013
0.043359
0.0847258
-0.425629
-0.482725
0.0771215
-0.280122
0.484152
-0.241992
-0.0744805
-0.272317
-0.0495494
0.299941
0.063086
-0.463865
-1.32337
0.501837
-0.102345
0.283421
-0.0399987
-0.154609
0.103754
-0.258784
0.0251569
0.121837
0.0375182
0.159688
-0.0623312
-0.306819
0.445541
-0.0931929
0.412554
-0.229234
-0.314307
-0.320121
0.196829
0.0894246
-0.224429
0.218433
0.447179
-0.0785038
0.00831345
-0.211701
0.134063
0.479633
-0.431551
-0.175939
-0.440708
-0.38588
-0.0240723
0.0582115
0.35292
-0.539579
-0.532456
0.186259
-0.28037
-0.151945
0.211023
-0.228735
0.0856297
-0.39339
0.207817
-0.224532
0.370573
0.17159
-0.321914
-0.247694
-0.156917
0.0253059
-0.459645
0.385983
0.0794953
-0.113496
-0.242677
-0.0467526
0.27783
-0.440404
-0.298768
0.433949
0.428209
0.365152
-0.341755
0.474477
0.2133
0.403646
-0.410989
0.276326
-0.312429
0.156036
0.608371
0.47025
-0.238326
0.22472
-0.0472935
0.426086
-0.10716
0.248901
0.377295
-0.233753
-0.445566
0.307374
0.284435
-0.176096
0.142292
-0.0823037
0.0806093
-0.166541
-0.165814
-0.34742
-0.247108
-0.285625
0.0708535
-0.110026
0.126116
0.229725
0.300511
-0.116595
0.252363
0.307018
0.279114
0.219378
-0.177512
-0.0597963
0.143243
0.167837
0.110109
1.02598
0.552175
-0.451256
0.219534
-0.280968
0.317014
-0.254885
-0.373816
-0.141303
-0.313239
0.0432639
0.0554782
-0.257187
0.130275
0.0605081
-0.173758
0.383385
0.232152
0.0199932
0.445296
-0.284479
0.333165
0.381572
0.0849828
-0.402294
-0.0842384
-0.358032
0.319971
-0.201578
0.121482
0.0108799
0.206255
-0.0592667
0.182954
-0.0502104
0.172168
0.0125014
-0.852723
-0.0485194
-0.012327
0.432339
-0.203588
0.0608794
0.340325
0.400511
-0.134711
-0.700105
0.408294
0.00489413
-0.345581
0.277148
0.210508
0.237311
-0.16
0.197242
0.222117
0.233065
-0.135802
0.436285
-0.527866
-0.364445
-0.0709549
-0.253593
0.359743
0.325652
0.163584
0.159631
-0.317624
0.15772
-0.302979
-0.128195
-0.437838
-0.062261
0.420997
0.472301
-0.763226
0.116467
0.263777
0.0538639
0.293699
-0.395573
-0.210778
-0.0835165
-0.208398
0.0910703
0.154999
-0.13127
-0.295078
-0.258658
0.418348
-0.103722
0.448549
-0.317365
-0.0598951
0.219719
0.140137
-0.0235194
-0.188795
-0.00475901
-0.245858
0.162443
-0.336677
-0.351968
0.0760574
0.134718
-0.281122
-0.183055
-0.17491
0.377674
-0.193974
-0.243632
-0.943972
0.0533505
0.0170587
0.520837
0.0509993
0.210731
0.0656992
0.278659
0.0321117
0.329264
0.0155122
0.00941258
0.226685
-0.371927
0.104441
-0.355671
-0.0957849
-0.140538
0.287073
0.0636599
-0.0623191
0.032167
0.380606
0.272144
-0.153313
-0.138501
-0.396907
-0.228654
0.0342129
-0.000989646
-0.218259
-0.0731553
-0.173815
0.0611813
-0.198847
-0.057291
0.075347
-2.58237
0.344447
0.0253037
-0.0967845
-0.0416378
-0.0499498
-0.240381
-0.160113
-0.0219918
0.143085
0.188184
0.295401
0.424882
-0.226104
-0.227861
-0.0422163
-0.43729
0.270599
0.344183
-0.149646
-0.301852
-0.185031
0.265797
0.205755
0.092898
-0.169582
-0.0918636
0.170087
-0.146166
0.445209
-0.357584
0.572213
0.212522
0.137353
0.227901
0.430453
0.354328
-0.820564
-0.748094
0.569914
-0.522121
-0.6447
-0.537598
-0.00167842
0.357045
0.310668
0.501471
0.403853
0.315461
-0.349837
-0.0491169
0.521361
-0.0400736
0.02405
0.0299759
0.0359911
0.600667
-0.155176
-0.0301593
-0.348228
-0.254948
-0.499676
-0.100789
0.549505
0.377803
-0.46125
0.552263
-0.473166
-0.984088
-0.422414
-0.225362
0.19646
0.155703
-0.115546
-0.0839993
-0.474669
-0.318325
-0.156066
-0.126658
-0.247559
-0.35625
-0.463008
-0.452745
-0.23824
-0.4338
0.102129
0.018954
-0.0719336
-0.210745
0.43082
-0.243205
-0.149842
-0.101862
-0.433219
0.0880442
0.050917
0.430296
-0.591458
0.392846
-0.141668
0.148183
-0.366211
0.298609
0.0489698
-0.0369534
0.256771
-0.168118
0.106805
-0.253558
-0.356966
-0.285553
0.131233
-0.0783156
0.00107168
-0.106237
-0.108394
0.344476
0.275925
-0.488734
0.551048
-0.363893
-0.225476
-0.177868
-0.268265
-0.344701
-0.121255
-0.347155
0.359135
-0.371667
0.0299039
0.325387
0.0895639
0.201571
0.304592
-0.240299
-0.130853
0.0599309
0.543355
0.1325
0.134313
-0.501187
-0.263952
-0.404159
-0.350529
0.0233085
0.288797
-0.338806
-0.33033
0.168042
0.321071
-0.197582
0.312828
-0.184713
-0.236195
-0.0429349
0.102504
-0.173044
-0.382167
-0.271366
-0.250282
0.0585928
-0.416758
0.0233291
-0.289302
0.529062
0.00597628
0.112091
0.592036
-0.373648
-0.11612
0.369824
0.33594
0.464774
0.446592
-0.00594043
-0.479785
-0.193376
0.517626
0.26495
0.0878709
0.338321
-0.2348
0.243573
-0.179381
-0.1168
0.311051
-0.324143
-0.308165
0.305871
0.3819
0.339413
-0.155995
-0.387465
0.0822796
-0.546869
0.347358
-0.18132
-0.331737
0.162267
-0.455642
-0.198619
-0.355386
0.366751
0.304161
-0.464488
0.167765
0.0993365
0.407154
-0.0807758
0.206733
0.0849063
-0.380086
-0.295348
-0.401632
0.20183
0.24458
-0.148783
-0.283075
-0.320376
-0.012622
-0.0856201
-0.254826
0.319079
0.412014
0.391736
-0.3983
-0.157986
-0.224577
0.247911
-0.49683
0.478731
0.299203
0.0429351
0.114775
0.0380553
-0.183428
0.243858
0.321749
-0.11333
0.510095
-0.223713
-0.132146
0.22321
0.0488645
-0.321791
0.0923309
-0.400712
-0.334218
-0.112361
-0.100028
-0.348164
-0.34859
-0.158324
0.496401
-0.239719
0.225512
0.298738
0.303645
-0.0083267
0.0511619
-0.421169
0.350704
0.491891
0.00895187
-0.145424
0.265535
-0.254905
-0.342638
-0.21803
-0.240262
-0.237656
0.36423
0.318182
0.212987
-0.415003
0.479507
0.0714668
-0.398448
0.49468
0.0608239
-0.128975
0.58905
0.462011
0.119817
0.411819
0.405743
0.497861
0.0680099
-0.16975
-0.352945
0.133115
-0.315305
0.256134
-0.0951489
-0.356427
-0.0603172
0.0816747
-0.266385
0.047932
-0.0716258
0.18582
0.0730585
-0.289697
0.32856
-0.523862
0.387923
-0.305294
0.121183
-0.121728
-0.160644
-0.119805
-0.0218983
0.434051
-0.0744506
-0.367828
0.0701367
0.393264
-0.293551
0.395926
0.258874
-0.0136095
-0.37521
0.178308
-0.345037
-0.0654941
0.161415
-0.00692334
0.286837
-0.274602
-0.385878
0.154411
-0.196068
-0.143639
0.0387035
-0.452137
-0.148378
0.038322
-0.0306288
-0.16009
-0.526309
-0.237439
0.000846318
0.339228
0.156837
0.242154
0.0622118
0.897209
-0.122836
0.0999028
0.158936
-0.563166
-0.160604
-0.135497
-0.0362385
-0.212679
-0.510644
-0.195267
-0.733632
-0.44853
-0.392214
0.184017
0.366379
-0.436985
0.302774
0.0964072
-0.341
0.147531
0.183375
0.0950197
0.0226207
-0.498479
0.0247144
0.712368
-0.0389639
0.285488
-0.360705
-0.190473
0.0393038
-0.0287459
0.002343
0.442658
0.0754828
-0.0759751
0.465401
-0.474301
0.0765584
-0.259371
-0.264721
-0.604976
-0.134267
-0.272201
0.323508
-0.549345
-0.583277
0.0130136
0.0296636
0.305136
-0.135572
0.191494
0.0364869
-0.313203
-0.288638
-0.411823
0.199396
-0.449595
-0.555982
-0.593016
0.383339
0.137043
0.166953
0.132949
0.270476
0.402971
0.517289
0.216463
-0.136252
-0.0288183
-0.464122
-0.582935
0.114891
0.153046
-0.100262
-0.00641664
-0.045519
0.3241
0.677316
-0.0638857
-0.18083
-0.400892
0.0271103
0.564381
0.531848
-0.419631
0.427256
-0.0190978
0.129303
0.192628
0.371694
0.472522
-0.446114
0.0198496
-0.412442
-0.373397
0.510957
-0.164629
0.285096
-0.0795405
0.0160266
0.025568
0.541234
0.41512
0.239612
0.153494
0.182362
-0.368604
-0.532943
-0.398199
-0.109078
-0.561327
-0.18908
-0.481284
0.167225
-0.291932
-0.0646879
-0.346339
0.026344
-0.106792
0.305239
0.615618
-0.0613939
0.128312
-0.0078676
0.205542
-0.0449877
0.286502
-0.338259
-0.0272257
-0.0485424
0.259106
-0.499531
-0.0187075
0.392604
0.00389047
0.25934
-0.265333
0.120268
-0.172025
-0.0601841
0.508558
0.0737831
-0.212786
0.178155
0.0898013
0.605988
-0.0756924
0.243865
0.0655013
0.155184
0.552823
-0.235661
0.0535909
-0.428655
-0.261878
-0.14223
-0.0712623
-0.224693
-0.472752
-0.125537
-0.380601
-0.254367
0.207139
0.321366
0.048185
-0.459215
-0.521205
-0.278213
-0.225752
0.156522
-0.185479
0.209002
-0.446292
-0.359903
-0.538989
0.131414
0.272892
0.129899
-0.13034
-0.268614
0.340025
-0.4031
0.265263
-0.519724
-0.545368
0.364444
0.232307
-0.715657
0.00957282
0.12156
-0.0210505
-0.265578
0.253398
0.10338
0.0105422
0.441944
0.608293
0.6017
0.360397
0.629492
-0.262023
-0.249523
0.439141
0.439012
0.110182
-0.617579
0.431107
0.409167
0.109378
-0.0562302
0.31348
0.338403
0.109985
-0.468622
-0.0532111
-0.0807644
0.350313
0.354966
-0.343606
-0.443641
-0.0305225
0.222095
-0.386484
0.405031
-0.0926306
-0.539642
-0.348139
-0.321727
0.115059
0.198961
-0.233452
0.0881027
-0.185506
-0.402834
-0.468929
-0.267084
-0.251304
0.333756
-0.101115
-0.178
0.128323
-0.151677
-0.325163
0.26013
-0.330582
0.0172888
0.304619
-0.309646
-0.0180703
0.421096
0.247079
0.34972
-0.189204
-0.0509961
-0.387288
-0.289319
-0.478498
0.0281153
-0.470343
-0.265971
0.412206
-0.43047
0.414655
0.02824
1.26452
-0.152422
-0.364025
0.0489084
-0.520835
-0.422949
-0.0716527
0.1448
-0.349179
-0.0870883
0.255276
0.231268
0.0771983
-0.124552
-0.496047
-0.387069
0.10693
0.0987746
-0.183134
0.5115
-0.239051
-0.134894
0.112376
0.23948
-0.365038
0.455791
0.703856
0.227504
0.00356722
0.0950987
0.346336
-0.100066
0.518896
0.163736
0.0659086
0.365117
-0.176229
0.0475074
-0.762134
0.095936
-0.00457505
0.299145
0.206489
0.387603
0.160141
-0.193825
-0.230574
0.538966
-0.16099
0.483544
0.392249
0.0612053
0.524145
-0.441401
0.163403
0.334248
-0.356081
-0.372609
0.291581
-0.252608
0.319688
0.43677
0.232192
-0.426744
-0.0579919
0.566663
-0.144641
-0.287844
0.281209
0.304392
0.029749
0.350785
0.353746
0.369948
0.111063
-0.200733
0.418425
0.179866
0.0471361
-0.285856
0.169558
0.354351
-0.335527
-0.419132
0.399985
0.303121
-0.318844
-0.256022
0.210771
0.497533
0.0198273
-0.0188776
-0.483208
0.110276
-0.341953
-0.333308
-0.287046
-0.00801629
-0.281841
0.0554634
0.54372
-0.329149
0.0572884
-0.159304
0.00702385
0.130857
0.0262661
-0.128037
-0.0805164
0.392679
-0.538724
-0.0984169
0.182237
-0.632813
-0.122205
-0.301719
-0.176797
-0.262257
-0.335175
0.259331
-0.201053
0.187657
0.306488
-0.424486
-0.231384
-0.264272
-0.305231
-0.0280144
-0.0786035
-0.417225
0.639908
0.35669
-0.0717595
-0.211269
0.01099
0.0803579
-0.294961
-0.235603
0.508262
-0.446014
-0.200343
0.295021
-0.360951
0.472692
-0.159284
0.18366
0.252047
0.226973
0.176359
-0.0363396
0.130692
-0.445004
-0.167478
0.190779
0.371005
-0.0634468
-0.245689
-0.0444571
-0.0148164
0.466737
-0.387602
-0.458496
-0.114052
0.298467
-0.215573
0.192721
0.184076
0.239128
0.307188
-0.413783
-0.418422
-0.344901
-0.326496
0.314129
-0.196387
0.364315
0.217569
0.220201
0.290911
0.643111
0.208016
-0.0619735
0.480582
-0.141797
-0.318417
-0.512314
0.099688
-0.334011
-0.503247
-0.837273
-0.930772
-0.143154
0.519851
0.442011
0.630816
-0.423164
0.23625
-0.333363
-0.23363
0.0767929
0.296207
0.742395
0.368175
0.438042
0.257574
0.568954
-0.13496
-0.200977
0.456021
-0.439131
0.099761
-0.147584
-0.180195
-0.164667
0.490315
0.137164
-0.270601
-0.290816
-0.0648899
-0.220641
-0.243619
-0.128124
-0.334849
0.581053
-0.390491
-0.416635
-0.20129
-0.239004
0.253132
0.336264
-0.22403
-0.78592
0.174741
0.277077
0.232398
-0.00507964
-0.428489
-0.377154
0.377846
-0.377478
-0.337902
0.168378
0.0985825
0.283689
-0.611082
-0.0109071
0.055496
-0.190879
0.371781
-0.251665
0.0319599
0.361041
0.231875
-0.0497063
0.116393
0.0887521
0.0942469
-0.219337
0.517827
0.459995
0.0204041
-0.0442817
0.254633
-0.361057
-0.257017
0.696685
0.0622975
0.0198332
0.154564
-0.557581
0.0622243
-0.13179
-0.228378
0.367195
0.514667
-0.0935822
0.321778
0.123559
0.119966
-0.54295
0.397554
-0.166797
0.151448
-0.0348116
0.239023
-0.147363
0.554968
0.308764
-0.0579283
0.30226
0.386155
-0.43953
0.441889
-0.617912
0.261225
-0.448775
-0.180247
0.354113
-0.246779
0.275574
-0.314127
0.24295
0.167869
-0.257252
-0.646886
0.475327
-0.357816
0.152675
-0.657444
0.198952
0.03237
-0.189402
-0.19264
-0.237957
-0.300599
-0.449007
-0.525788
-0.334279
-0.175586
-0.336314
0.19328
-0.272231
0.335827
-0.00652088
0.443809
0.0378094
-0.395211
-0.243561
-0.403993
0.204133
0.154797
0.068988
-0.298799
-0.39109
-0.213041
0.0427013
0.139501
-0.302535
0.136397
0.365156
-0.491225
0.146866
-0.552901
-0.295202
0.294012
-0.353742
0.0540863
0.0611019
-0.00932373
0.16545
0.311519
-0.364352
-0.4238
-0.190257
-0.131741
0.100228
-0.322993
-0.036292
-0.312894
0.0791131
-0.0972794
-0.527329
-0.0154652
0.437396
-0.235403
-0.649625
0.651923
-0.0184564
-0.387139
-0.242574
0.330451
0.148755
-0.256049
-0.312406
0.0245388
0.0587829
0.21868
0.073218
0.485122
-0.107225
0.377472
0.0545963
-0.110644
-0.542498
0.39358
-0.139466
-0.313771
0.317611
-0.428012
0.312651
0.209415
0.00175567
-0.27741
0.251406
-0.306287
-0.124529
-0.0224613
0.404376
-0.022801
-0.208228
-0.260232
-0.0116474
0.201813
0.122925
0.250594
0.33907
-0.191653
-0.187287
0.0262374
-0.0572119
0.0853734
-0.463412
-0.340975
0.319977
0.347861
0.0879549
0.155532
0.174202
-0.445235
-0.181724
-0.226879
-0.39378
0.254784
0.0305121
0.18416
-0.321952
0.382893
-0.286424
0.3471
0.242408
-0.0325394
-0.381915
-0.278702
-0.0402462
-0.118776
0.0321399
0.278308
-0.245031
-0.277764
0.284355
-0.432323
-0.286462
-0.0491495
0.102098
-0.522086
0.516662
-0.49291
-0.057061
-0.36013
0.384356
0.443955
0.253063
0.481354
0.309789
-0.233871
0.363887
0.389733
-0.232901
0.240897
0.300553
0.214131
0.0906146
0.0255135
-0.280814
-0.143055
0.617253
-0.203873
0.300019
0.532351
-0.012014
0.541577
0.511721
0.122236
-0.0852996
-0.157337
0.0158479
-0.258662
-0.0493486
0.227983
0.289349
-0.504921
0.271238
0.161744
0.328828
0.528463
0.371132
-0.473406
-0.177237
0.390213
0.166461
-0.389394
-0.40998
0.0159476
0.330668
-0.304516
-0.402474
-0.446865
-0.280273
-0.271263
0.058545
-0.0763126
-0.18166
0.244721
-0.0636821
-0.478498
0.253858
-0.348265
-0.344729
-0.286892
0.154542
0.364199
-0.179745
-0.264466
-0.0122887
-0.49873
0.110868
-0.187656
-0.479422
0.304463
-0.310466
-0.505836
-0.669336
-0.0399241
-0.210738
-0.434161
-0.36184
0.00397069
-0.116323
-0.0955086
-0.318859
-0.0259565
0.504229
1.05596
-0.158501
0.118499
-0.262465
-0.36407
-0.157275
-0.0404524
-0.168437
-0.361305
0.0811413
-0.0720208
-0.574821
-0.375562
-0.595077
-0.341744
0.332712
0.0248119
0.569968
0.270619
-0.160678
0.339745
-0.0617395
-0.379312
0.0686243
-0.114223
0.697412
0.204805
0.188258
-0.342584
0.327818
-0.0290803
-0.215637
0.136592
-0.101877
-0.405438
-0.414478
-0.282329
0.523187
0.356954
0.109244
-0.229056
-0.451395
-0.292195
-0.349226
0.0194014
-0.116408
-0.0907404
-0.301578
0.0182633
0.213847
0.0870459
0.0845039
-0.140698
0.0329165
-0.114368
0.239745
0.291918
0.373633
0.229702
0.239814
0.287091
-0.545289
0.376054
0.166297
-0.144143
-0.608936
-0.191139
-0.107339
0.226878
-0.232635
-0.105845
0.167932
-0.298953
-0.0172768
0.512409
0.431212
1.19993
-0.0191899
0.0731203
-0.0862899
-0.851604
0.293336
0.261543
-0.480084
-0.65859
-0.381216
-0.0869928
-0.338422
-0.456874
0.169129
-0.456304
-0.158868
-0.142214
-0.0306371
0.220353
0.357198
0.257256
-0.638431
-0.718457
-0.348814
-0.049494
0.137381
0.277951
-0.0605037
0.324778
0.0468063
0.212886
0.179128
-0.264598
-0.52423
0.345218
-0.00916115
0.101163
0.0594233
0.0277567
-0.514032
0.343089
-0.210705
0.324957
0.225089
-0.235974
-0.0797127
-0.47175
0.21458
0.0420472
0.315975
-0.147377
0.331334
-0.220009
-0.51915
-0.288948
-0.469614
0.0789145
0.132148
-0.290797
-0.162401
-0.317012
0.281738
-0.186367
0.108167
0.120357
0.363042
0.2781
0.351927
-0.115196
0.356267
0.646571
0.419775
-0.0814726
-0.145748
-0.00935033
0.142466
0.398213
0.454604
0.203215
0.282335
0.184015
0.259461
-0.292279
0.493816
0.280253
0.610802
0.31537
-0.416074
0.326521
-0.0698105
0.478461
0.228049
-0.288438
0.650422
0.364336
-0.247526
0.166472
-0.190335
-0.29497
-0.112552
-0.200388
-0.140038
-0.0810733
0.16348
-0.133924
0.202441
0.0321339
0.0671871
-0.46479
-0.038693
0.212388
0.330488
-0.102536
0.0802444
0.164902
0.346898
0.0373443
0.0703561
0.345721
-0.137037
0.252608
0.0223162
-0.150193
0.32137
0.129602
0.0883971
0.0556535
0.558714
0.137018
0.250357
-0.114917
-0.0222448
-0.133882
-0.365655
0.0542624
-0.202682
-0.0298608
-0.403201
0.397114
-0.0346696
-0.633803
-0.501637
0.254521
-0.184628
-0.493185
-0.140169
0.416938
-0.396054
-0.0924272
-0.0171285
-0.100531
0.302083
-0.229918
0.0386126
-0.413907
0.0197504
0.263555
0.160107
-0.259758
0.0662894
-0.591556
-0.206907
0.0920299
0.0544417
-0.0315857
0.245576
0.458405
0.232594
-0.261689
-0.39478
-0.337236
-0.451295
-0.196224
0.270705
0.305714
-0.134554
-0.138911
-0.450339
-0.564929
0.425982
-0.444315
-0.462035
-0.0154001
-0.481309
-0.129487
-0.244697
0.152785
-0.1094
0.218879
-0.122765
0.107257
-0.478077
-0.403435
0.417798
-0.349494
-0.502503
-0.342526
-0.366379
-0.249712
-0.0815988
-0.25375
0.0360642
-0.317565
-0.035147
-0.38597
-0.273414
-0.369624
0.0681412
-0.0287867
0.245876
0.432707
0.340531
0.245756
-0.441806
0.0325469
-0.118941
-0.114303
-0.847795
0.0912735
-0.429731
0.329715
0.112133
-0.167992
-0.0701295
0.0629224
0.263556
-0.661509
0.235022
0.458647
0.50745
0.502048
0.147543
0.738154
-0.468716
0.471158
-0.139111
-0.179637
-0.741851
-0.271574
0.319782
-0.617113
0.541159
-0.271665
-0.0292143
0.395967
0.129254
0.284938
0.0563938
0.567938
0.150152
0.235931
0.22757
0.335509
-0.336708
