#input normalization
0.16112 0.272727
33.8788 42.9433
10.0775 35.2985
8.09743 30.7232
0.0109326 0.0414308
0.00891823 0.0333223
0.542988 1.36901
0.823511 1.27769
1.05267 1.47112
1.29982 1.67897
1.57855 1.87949
1.86027 2.06281
2.12999 2.22636
2.39629 2.3791
2.64341 2.50023
2.87854 2.5868
3.10222 2.64749
3.30893 2.68228
3.48879 2.68793
3.62724 2.6498
3.75209 2.59835
3.85097 2.5101
3.93057 2.41113
3.98379 2.27969
1 -1
1 -1
#output normalization
1 0
#neurons weights
0.498447
0.137603
0.309477
0.271858
0.0720864
-0.432285
0.388482
0.0558239
-0.126197
-0.163388
0.260083
-0.136895
0.471617
0.250569
0.0922603
-0.140015
0.0265539
0.330865
0.367768
0.460743
0.0345849
-0.260929
-0.418203
0.00375689
-0.154646
0.0920995
0.0186288
0.0246956
0.145865
-0.232927
0.223807
-0.0219233
0.435669
-0.619168
-0.393411
0.679876
-0.401235
-1.61764
0.412709
0.382369
-0.223331
0.472803
0.069431
-0.235533
-0.459499
-0.257741
-0.217695
-0.027654
-0.128302
-0.491193
0.560848
0.710489
-0.300972
0.0303194
0.197745
0.304041
0.100388
-0.47786
-0.465927
-0.210837
0.341526
-0.252326
0.347916
0.447074
-0.456005
-0.391443
-0.225485
-0.0638799
-0.196278
0.325841
0.0820283
0.103542
0.374175
-0.0703901
0.370126
-0.43391
-0.145789
0.57552
0.0447661
-0.152757
#synapses weights
0.113097
0.402271
0.0145829
0.126081
-0.0191585
-0.134249
2.75111
-0.0586765
-0.0760164
-0.0329942
0.0801462
0.12246
-0.0588733
0.2017
-0.110318
0.204386
-0.24706
-0.318908
0.00449096
0.147055
-0.245178
-0.0543033
0.138363
-0.0439924
-0.00664222
-0.496519
-0.100285
0.617849
-0.196022
-0.0791663
-0.0151999
0.319682
1.19308
0.00208281
-0.116187
0.00422889
-0.167688
-0.289649
0.525146
-0.161999
0.198965
-0.102765
0.292318
-0.479543
0.145743
-0.0214966
-0.305891
-0.308774
-0.29579
-0.205353
-0.234988
-0.0816407
0.0681591
-0.461743
-0.465613
0.147307
0.0746124
-0.269578
-1.44149
-0.633798
-0.0579686
-0.279689
-0.00392708
0.0142985
-0.514349
-0.643656
-0.588822
-0.485921
-0.430254
-0.344291
-0.0179967
0.304473
-0.147782
0.281738
-0.616104
0.172151
0.288309
0.0599654
-0.220802
0.412588
-0.280802
0.232384
0.0256509
-0.222522
-0.110463
0.234549
0.377473
-0.40717
0.509806
-0.312552
-0.177365
-0.327147
-0.183555
-0.0382163
0.284186
0.0340251
0.0201592
0.544025
-0.35992
-0.416358
-0.387752
0.220645
0.499691
-0.0606661
0.334785
-0.333455
-0.140235
0.150716
0.326769
-0.372923
-0.0149593
-0.188043
-0.594927
-0.460814
-0.564663
-0.288548
-0.0515698
-0.471461
0.045327
-0.179978
-0.398687
-0.193371
0.170182
-0.286312
-0.432766
-0.245317
-0.426867
-0.135738
0.088961
-0.474783
0.407376
-0.09337
-0.0633099
-0.199107
-0.187338
-0.0617399
-1.15947
-1.08266
0.0788798
0.256124
-0.091693
-0.345081
0.112902
0.0592537
-0.361702
0.147706
-0.0512118
0.232382
0.0159762
0.441345
0.140293
0.172037
-0.395777
-0.32969
0.113215
0.0287755
0.276973
-0.378243
0.165794
0.135369
0.39682
-0.254247
0.454263
0.454842
0.714308
0.622163
0.15468
-0.127544
-0.40722
-0.123531
-0.303657
0.514556
0.221275
0.143516
-0.249112
0.497845
-0.0406398
-0.33137
0.232333
-0.111023
0.438246
-0.112571
-0.0554045
-0.253616
-0.0576445
0.526972
0.453223
-0.381579
0.666405
0.22827
-0.0896156
-0.207729
0.0475684
0.644864
0.243999
-0.143322
0.156377
-0.378585
0.14744
-0.439404
-0.107379
-0.143939
0.236148
0.216487
-0.226911
0.378598
-0.275125
0.40304
-0.0301911
-0.0798633
-0.379024
0.122553
-0.063101
-0.0858517
-1.01942
-0.442847
-0.735761
0.104336
0.30326
0.0218923
-0.0935807
0.250877
-0.297433
0.432932
0.239509
-0.44348
0.308651
-0.486185
-0.292817
-0.216164
0.304499
0.393019
0.157887
0.0697944
0.106163
-0.166376
0.208997
-0.199345
-0.130199
0.140622
2.393
0.0359194
0.654802
0.158485
-0.114473
0.00877844
0.0881947
0.101624
0.233773
-0.126735
0.127932
0.0269513
0.178394
-0.114798
0.12947
-0.211246
0.0143157
0.0664975
0.443093
0.380165
-0.35156
-0.494136
0.263533
-0.40382
0.0302917
-0.223592
0.471578
-0.445631
-0.00811307
0.20313
0.278349
0.452904
-0.480483
0.446324
0.224431
0.138092
0.058356
0.306967
0.229383
-0.111569
0.167435
0.284054
-0.0563313
0.185987
0.260829
0.430244
0.0234178
-0.480741
0.0890203
-0.143377
-0.00350092
0.0220303
-2.62069
-3.54424
0.0278749
0.0298417
0.16244
0.14676
0.0482559
0.124108
-0.123112
0.263574
-0.0909198
0.143906
-0.00902309
-0.0986015
0.0553437
0.197595
0.0470094
-0.118906
0.189025
0.120542
-0.0525222
-0.0341258
-0.412849
0.194505
0.221438
-0.0456386
-0.833327
0.472894
-0.0975353
0.470134
-0.316444
-0.054293
0.0586205
-0.160531
-0.330749
0.126353
-0.198194
-0.0846853
0.451383
0.0725415
-0.388861
0.229195
0.294397
-0.307558
-0.289628
-0.180758
-0.140004
0.13596
-0.212652
-0.253482
0.128963
0.38143
0.428478
0.704842
0.390512
-0.00305713
-0.123558
0.300045
0.650127
0.157612
0.380809
0.584507
-0.287352
-0.267779
-0.154489
0.0885115
-0.209519
-0.184095
-0.374069
-0.0300971
0.342199
-0.127449
-0.0324915
-0.125422
-0.584018
0.309217
0.257476
0.0765586
-2.78089
0.216743
0.189996
-0.259235
-0.108603
-0.146063
-0.0178808
0.135804
-0.0426672
-0.14045
0.260465
-0.33175
0.15961
0.0867656
0.0175599
-0.192356
0.0357106
0.098454
0.196109
0.364897
0.0220419
-0.356246
0.0146896
0.0111382
0.284024
0.067982
0.725331
0.416241
1.29229
0.312174
0.376342
0.0283931
0.105311
0.122665
-0.39221
-0.0920493
0.379317
-0.410327
0.172277
0.185612
-0.187312
-0.0322734
-0.266502
-0.111977
-0.413386
0.380838
-0.303963
0.252166
0.192354
0.368572
0.464515
-0.341416
0.740889
0.0966175
0.840056
0.399414
0.452448
0.0654755
0.362485
0.559157
-0.236608
0.362017
0.457473
-0.346642
-0.196768
-0.381262
-0.0875406
0.24504
0.189794
-0.179201
-0.382181
0.274822
0.0774071
0.0405583
0.0787257
0.0456943
0.505312
-0.0446225
0.708918
0.0722808
-0.126917
-0.0114056
-0.204404
0.317489
0.0400312
-0.373961
-0.510598
-0.311827
-0.374804
-0.512988
-0.245447
0.222314
0.237817
0.227556
-0.277105
0.368016
-0.276714
-0.082523
-0.00514984
-0.218248
-0.308883
0.220916
0.279799
-0.120732
-0.482513
0.193623
-0.483658
-0.218489
-0.607156
0.117551
0.245706
-0.227312
-0.384577
-0.072663
-0.0239354
-0.305036
-0.00188967
0.317278
0.317333
-0.44714
0.475148
-0.212763
0.392199
0.00110982
0.0775182
-0.308954
-0.474798
-0.290636
-0.0694429
0.227293
0.542741
-0.506105
-0.371507
0.0541834
0.365196
0.117727
-0.0127327
-0.270171
-0.260802
-0.2714
-0.285381
-0.0555795
0.328497
-0.42502
0.210426
-0.255699
0.263107
-0.420142
0.0343752
-0.223381
-0.321387
0.322781
-0.47172
0.281319
0.216135
0.207427
-0.407941
-0.190352
0.282631
-0.124582
0.319726
0.0792524
-0.184156
0.372134
0.124185
-0.357931
0.373311
-0.49104
0.017215
-0.0446482
0.320382
-0.403151
-0.302322
-0.126781
0.00558955
-0.311905
0.068084
0.503625
0.131647
-0.179485
0.175567
-0.0679373
0.516552
3.39074
0.326659
-0.0133342
0.0232038
-0.0622662
0.093939
0.0117947
-0.11385
0.123578
-0.113885
0.162928
-0.365098
-0.136551
0.105691
0.0597118
-0.276085
-0.178237
-0.337526
0.341999
-0.163429
-0.0678933
0.122751
0.0466507
0.118239
-0.301303
-0.971202
-1.03198
-0.544577
-0.020351
0.0608374
0.31576
-0.0152821
-0.145858
0.448222
-0.388716
0.376879
-0.203781
-0.203472
0.387086
-0.222996
0.100025
0.255448
-0.262436
-0.411071
0.440523
-0.139841
-0.178807
0.190031
-0.166366
-0.12861
0.315423
-0.829545
-0.982219
0.0705171
0.0831847
-0.0456323
0.111425
-0.222451
0.144745
-0.012278
0.0182857
-0.0837422
0.246364
0.0375469
-0.572093
0.307153
0.161268
-0.121205
0.292554
0.314307
0.299267
-0.146625
0.155198
0.011019
0.072098
-0.492025
-0.224882
-0.364369
-0.366356
-0.638709
-0.627739
0.175441
-0.115756
-0.0250227
-0.381242
0.142116
0.268899
-0.242685
0.448322
-0.174362
0.0413383
0.311414
-0.0311566
-0.359336
0.0480836
-0.369621
0.207405
0.342329
-0.432522
0.109501
-0.235818
-0.408872
-0.281684
0.809802
0.121696
-0.141697
-0.204099
0.04673
-0.250658
-0.0820994
0.0102539
-0.0372667
-0.228572
0.400124
0.230803
0.348315
0.134535
0.404723
-0.415894
0.395177
-0.37333
-0.163779
-0.0718836
0.0562269
0.332047
0.0448683
0.148375
-0.0189069
0.149595
-0.502375
-0.716509
0.139418
-0.491359
-0.0873855
-0.146899
-0.12259
0.203057
0.0879725
0.230021
-0.402427
0.00782147
-0.176874
0.00739268
-0.329857
0.317269
-0.327149
0.104967
0.0728062
-0.309607
-0.126868
0.147776
0.553828
-0.102008
-0.326408
-0.479203
0.186912
0.144055
-0.45859
0.352708
0.0377051
-0.574129
-0.434605
-0.219565
-0.510004
0.493505
0.0780249
0.477084
-0.113413
-0.381909
0.142471
0.417589
-0.62498
0.433207
-0.186041
-0.084749
-0.0209529
0.573548
-0.085376
-0.308335
0.350237
0.0395665
-0.23016
-0.144699
-0.5622
-0.508403
0.404065
0.166158
0.314957
0.139691
0.211341
-0.0613255
0.00627926
-0.0828744
-0.246573
-0.294496
-0.357571
0.19884
0.542809
-0.278651
0.0547684
0.30019
0.0480283
0.0224359
0.490644
0.00193579
0.23291
0.496462
-0.246518
0.335693
0.267956
0.110225
-0.381125
0.638734
0.429783
0.373253
-0.128899
0.280351
-0.267986
-0.215495
-0.35887
-0.513081
-0.277186
0.107892
0.0565663
0.369592
0.52929
-0.348202
-0.213183
0.00396709
0.305723
0.206188
0.358415
0.522741
0.542573
-0.147213
0.300762
-0.134996
0.0894518
0.248599
0.433015
0.317172
-0.344335
0.31473
0.222648
-0.446781
-0.0271059
0.310078
0.266405
0.138757
-0.0536079
-0.268844
0.0886435
-0.3771
-0.324954
0.417332
0.445657
-0.0785675
0.210427
0.0155119
-0.281477
-0.416981
-0.401213
0.248638
0.0476994
-0.332148
0.128792
-0.156476
-0.442595
-0.35146
-0.340312
-0.0346965
-0.464657
0.224552
-0.360845
-0.251459
-0.0845819
0.243931
-0.129341
-0.114846
0.367786
0.370435
-0.425105
-0.173104
0.11528
-0.506858
-0.559504
0.384774
-0.41542
-0.398964
0.114752
0.0664731
-0.0389801
0.0272603
0.0574103
-0.50527
0.392079
0.462416
0.684493
0.742545
-0.371392
-0.460308
-0.388323
0.00375434
-0.735984
0.302648
-0.622602
0.0417903
-0.408013
0.096756
0.0313831
-0.207874
-0.611631
-0.680305
0.483154
0.337446
-0.363813
0.404343
-0.568849
-0.1826
-0.139997
-0.723254
-0.118656
1.46693
-0.132535
0.0363921
0.640958
-0.328009
-0.0108305
-0.128588
0.110797
-0.476424
0.478538
-1.34773
0.321345
0.358356
-0.360225
-0.51121
-0.151748
-0.220646
0.451652
-0.0649354
-0.314963
0.0713305
-0.294055
0.163224
0.0778145
-0.267373
-0.107684
0.0383483
-0.250644
-0.169349
-0.276618
-0.377975
-0.581158
-0.285748
0.0154697
0.158964
0.397712
-0.42374
-0.218432
-0.235941
-0.322283
0.151508
0.203181
0.0887616
-0.460944
-0.116518
-0.0347808
-0.337822
0.519309
0.242789
0.117742
0.0897751
0.250629
-0.627957
0.0336673
0.936046
-0.367558
-0.377649
0.133177
-0.51154
0.0972191
-0.610927
0.0168764
-0.167889
0.35047
-0.615113
0.139439
-0.038455
-0.517573
-0.566499
0.227328
0.206732
-0.063013
0.225393
0.0236451
-0.452395
-0.548589
-0.191071
0.404058
0.216847
-0.25986
0.0471216
0.523609
0.163184
-0.26991
0.308329
-0.336691
-0.304185
0.574715
0.352721
0.138424
-0.363021
0.219811
0.412333
0.00229476
-0.40625
-0.284684
-0.0783865
0.128919
-0.325147
0.511761
0.361391
-0.061368
0.178914
0.407509
0.42115
0.354783
0.00473129
-0.0639553
-0.00881239
-0.146764
0.0618154
-0.192547
0.233453
0.418695
0.716874
-0.150245
0.387414
0.308028
-0.346927
-0.0836962
0.0384988
-0.550383
-0.191513
-0.238934
-0.629882
-0.168595
0.549883
-0.458967
-0.37355
-0.321254
0.196302
0.105162
-0.178664
-0.664887
0.0771179
0.231486
-0.0959171
-0.0676536
0.149656
-0.100766
-0.300779
0.449714
0.519677
-0.26595
-0.382015
0.365553
-0.524647
-0.530661
-0.471509
-0.175913
0.155008
0.186106
0.472518
-0.0686456
-0.440711
-0.200593
0.0484471
-0.244373
-0.25679
-0.227491
-0.00185988
0.488563
-0.24055
-0.405896
-0.267231
-0.117287
0.0876853
0.214577
0.286523
-0.113512
0.14021
0.455437
-0.209634
-0.0755097
-0.386218
0.221916
-0.161889
-0.254586
-0.181405
0.0909286
0.134855
0.359864
-0.0292309
-0.491895
-0.0887208
0.103489
-0.056149
-0.547439
0.283391
0.10625
0.380032
-0.318573
-0.443295
-0.311583
-0.260245
-0.416862
-0.382569
-0.4984
-0.115969
0.0663855
-0.359316
0.229419
-0.406627
-0.270869
0.10624
-0.0356411
-0.203442
-0.163349
0.263718
0.162377
0.0471776
0.264968
0.125225
0.213267
-0.244543
-0.247721
-0.613574
-0.327758
-0.377935
-0.048329
0.0832394
-0.27765
0.378956
-0.171319
0.0955987
0.322206
-0.325846
-0.491318
-0.525589
-0.359783
0.296322
0.349432
0.170245
-0.350294
0.397382
-0.28621
0.250187
0.0202567
-0.512684
0.0195971
0.0743826
-0.442972
-0.446482
0.559793
0.366625
0.110781
-0.0987607
-0.66398
-0.0592595
-0.40167
-0.217762
-0.510303
0.231833
-0.437435
-0.0224553
-0.226947
0.406603
-0.282811
-0.392527
-0.119201
-0.386165
0.0681434
-0.402821
0.187134
-0.222123
-0.4509
-0.184334
-0.0143512
-0.498547
0.420007
0.186745
-0.00232525
0.386849
-0.260992
-0.0881093
0.183002
0.0511915
-0.151858
0.193641
-0.0621965
-0.337995
0.379416
0.37655
0.204688
0.227494
-0.214853
0.132811
-0.0132941
0.425246
-0.347967
0.0426165
0.239366
-0.0640827
0.0490958
0.156998
-0.154261
0.0439535
0.395499
-0.381991
-0.0329066
-0.18065
-0.000137133
0.037738
0.564884
0.121068
-0.13637
0.589175
-0.141614
-0.182562
0.40836
-0.213292
-0.184911
-0.460462
0.653185
-0.0108941
0.170923
-0.0958126
-0.243052
0.818915
-0.285027
-0.46299
-0.119289
0.784931
-0.46844
-0.707687
0.0270296
-0.153969
-0.738402
0.303949
0.119467
0.205163
0.347144
-0.338126
0.208233
0.446605
0.3627
0.714502
0.096508
-0.413211
0.575185
-0.62213
-0.351556
-0.249111
0.00942997
-0.246052
-0.548729
-0.153749
-0.14138
0.243283
-0.123751
0.0117061
0.524832
0.0400206
-0.0736158
0.225645
-0.328476
-0.370042
0.442064
-0.0119682
-0.0703164
0.452435
0.180231
0.00693854
-0.23941
0.136996
0.226338
0.0069913
0.0905797
-0.0511289
-0.483184
-0.134044
-0.0873918
-0.11031
-0.491135
-0.293512
0.131383
-0.484657
-0.433171
-0.176791
0.226593
-0.151479
0.0486051
0.258207
0.38767
0.42484
0.00404376
0.209447
0.393032
-0.501351
0.237552
-0.171834
0.130568
0.113492
0.193913
0.268316
-0.277488
-0.0729803
0.409737
-0.234972
0.0597017
0.21792
0.0196218
0.427936
0.544132
0.219561
-0.0422831
-0.213208
-0.618957
-0.271806
-0.348863
-0.306938
0.212258
0.25625
0.281252
0.0131904
-0.272265
0.152951
-0.166524
-0.0849616
0.408932
-0.243777
-0.607641
0.0106789
-0.353261
0.163598
0.198895
0.00244628
0.281518
0.182427
0.0550929
-0.716219
0.300977
0.257802
0.0989599
0.241946
0.637478
0.091528
-0.131523
0.260191
0.0457029
0.165348
-0.459956
-0.384431
-0.349501
-0.331226
-0.338453
-0.0943933
-0.144335
0.261883
0.0835916
-0.12393
-0.176486
-0.229901
-0.0371882
0.222919
0.326861
-0.342831
0.288752
0.199894
-0.342388
-0.323921
-0.611683
0.138674
-0.0335376
0.362562
0.111635
-0.102321
0.510767
-0.268102
0.219254
-0.19276
0.081187
0.435152
-0.121594
0.300012
-0.311212
0.130802
0.437662
0.149633
0.264332
0.0691162
0.641605
0.210037
0.431244
-0.354439
-0.0351238
0.169677
0.661208
0.0923164
-0.0653921
-0.214446
-0.291333
-0.180004
-0.380407
-0.187878
-0.00395609
-0.194022
0.00437142
0.173561
-0.15382
-0.0747056
-0.588779
-0.538026
0.214291
0.0768882
0.108642
-0.133824
0.172876
-0.0404567
-0.383121
-0.210131
-0.218121
-0.270434
0.581832
-0.305573
0.322545
0.42615
0.478279
0.0279917
-0.461879
-0.335458
-0.343661
-0.239375
-0.443191
-0.616807
0.122449
-0.648914
-0.431595
-0.314137
0.399592
0.00784284
-0.251551
0.320467
-0.111883
0.316813
0.838659
0.583129
0.380881
-0.279788
-0.204441
0.674877
0.605419
-0.0200089
0.503184
0.446639
0.0215748
-0.0476359
-0.983902
0.0511694
0.0889947
-0.0464746
0.716458
0.0563109
-0.161296
0.742058
