#input normalization
0.161149 0.275394
20.2244 30.8071
10.0551 29.6687
8.57497 28.2748
0.0112822 0.0368075
0.00917959 0.0320434
0.564818 1.48093
0.795869 1.50863
1.10038 1.73119
1.41277 1.97868
1.75552 2.22052
2.08751 2.45795
2.40622 2.68133
2.72523 2.88225
3.03084 3.05648
3.31412 3.186
3.58543 3.27738
3.84972 3.33931
1 -1
1 -1
#output normalization
1 0
#neurons weights
-0.252182
-0.240294
-0.242753
-0.456695
0.204632
-0.0585486
-0.238283
0.0419679
-0.281292
0.448997
0.019374
0.0964518
0.21868
0.0768958
0.452147
0.252617
0.131812
0.175107
0.158314
-0.267311
0.356303
-0.138015
-0.103467
-0.497551
0.143254
0.59503
0.452526
-0.644255
0.19351
0.451598
-0.0877384
-0.244046
-0.34954
-0.00170848
0.0329638
0.100248
-0.260469
-0.570667
0.247997
-0.542046
0.0216699
0.333865
-0.351004
0.498803
-0.314864
-0.324211
0.425937
0.397285
0.482666
-0.399758
-0.641283
-0.288429
0.0646685
-0.167672
0.227432
0.214624
0.019352
0.188173
0.099595
-0.355831
-0.0648582
0.369616
#synapses weights
0.236628
-0.572207
0.237073
0.175518
0.555503
-0.214329
0.798393
-0.151702
0.287951
0.029277
0.125156
-0.144751
-0.0698366
0.358481
-0.204716
-0.449571
-0.0101276
-0.156087
-0.237302
-0.172116
0.365458
-0.0255991
0.344148
-0.00831383
-0.146421
-0.100217
2.21525
-0.0199889
0.0204557
-0.144329
0.303006
-0.0234069
-0.0714311
-0.167631
0.421027
-0.171947
0.309452
-0.252297
-0.435826
0.24654
-0.574016
-0.0328133
-0.671542
0.15081
0.437698
0.106242
-2.91798
-0.102371
-0.100149
0.267669
-0.0211704
-0.102622
-0.114076
-0.212268
-0.126391
0.39325
-0.225348
0.0255712
-0.308442
-0.249496
-0.12948
0.171071
-0.141399
0.126442
0.104972
-0.441532
1.49681
0.0968639
0.227759
0.156183
-0.386083
0.110724
-0.237206
-0.121004
0.0586374
-0.320527
0.0107086
-0.241796
0.0403644
0.370942
0.495596
0.335133
0.190396
-0.13148
-0.042334
0.0181512
2.39579
0.0639172
-0.158593
0.178017
-0.330971
-0.0632685
-0.190334
0.087789
0.0358881
-0.0853514
-0.290628
0.307363
0.068096
-0.0710702
0.362612
0.341081
-0.126615
-0.138492
-0.484253
-0.242198
-0.71919
-0.127416
0.141561
0.094163
-0.449824
-0.290231
0.389256
0.320794
-0.423194
0.156043
-0.0953286
0.225259
0.0286997
0.0345215
-0.410088
-0.371468
-0.274742
-0.232959
0.398605
0.199218
0.113505
0.392105
0.149735
0.0721542
0.244714
-0.0706164
-0.233496
-0.460711
0.350899
-0.227305
-0.309973
0.0146379
-0.257221
0.22446
0.353526
-0.490476
-0.32558
0.120514
-0.0931522
0.294737
-1.38856
0.122985
0.0644943
0.24137
0.128955
-0.264185
0.174716
-0.224647
-0.071752
-0.260962
0.456657
-0.00237923
-0.0756127
-0.00556008
0.171132
-0.281474
0.423994
0.211573
0.0880255
-0.282766
-0.686112
-0.0556911
0.110604
0.0525715
-0.314936
0.0606028
0.195253
0.461032
0.254964
-0.0276692
0.103284
0.380348
-0.273278
-0.0405852
0.206725
-0.277317
0.233923
0.291496
-0.393839
-0.309774
0.716699
-0.161163
0.197879
0.442902
-0.232222
0.388959
0.102771
-0.0462873
-0.282496
0.21227
0.226895
0.529184
-0.22057
-0.0198825
0.180024
-0.31834
-0.426321
-0.137688
0.000972218
-0.129713
-0.347687
-0.131848
-0.510952
0.288375
-0.409866
-0.00508499
0.0824904
-0.358002
0.436588
0.37908
0.26332
-0.157851
-0.175363
-0.264203
-0.349804
0.366945
-0.0231035
-0.0915091
-0.362813
0.0252878
-0.172743
-0.260049
0.163999
0.0892859
-0.373457
0.0235888
-0.418625
-0.365888
-0.044161
-0.370655
0.313918
-0.320146
0.324118
0.429127
0.288436
0.169145
0.356063
-0.325806
0.0145599
0.433219
0.782476
-0.155879
-0.159527
0.157396
0.243026
0.322891
0.13361
-0.0373727
-0.559754
0.324521
0.0520237
-0.359254
0.104741
0.183429
-0.198218
0.4944
0.0049968
-0.0846196
-0.0251687
0.086394
2.3772
0.00155142
0.0652118
-0.0678849
-0.236332
-0.00401482
0.0368561
-0.301786
-0.149843
0.178494
-0.298491
-0.13117
-0.367978
0.45963
-0.0334464
0.0218483
-0.139193
-0.41907
0.286565
0.356032
1.15794
0.242255
-0.259537
0.125247
0.0735538
0.168092
-0.446536
-0.288728
0.221831
0.178311
-0.214381
0.103592
-0.239786
0.228877
0.139588
-0.18166
0.249829
-0.085305
-0.21564
0.0714158
2.42928
0.0246399
-0.0914046
0.163286
-0.00110897
0.191539
0.241821
0.0746815
-0.346035
0.475251
0.0486855
-0.140634
0.41308
-0.358701
-0.311629
-0.0526128
0.403541
-0.0578241
-0.0498218
-0.254121
-1.10212
0.0365256
-0.364772
-0.12958
0.158209
0.0692818
0.0484068
-0.524187
0.075016
0.0414965
0.181366
-0.134755
0.195592
-0.489156
0.127346
-0.0191077
0.189428
-0.497211
-0.172262
-0.048981
0.0164183
-0.44294
-0.513918
-0.284122
0.279894
-0.0982957
-0.0476073
-0.352198
0.33904
-0.165117
0.190213
0.199353
0.369158
0.0204383
-0.427491
-0.103375
-0.182395
0.0752366
-0.0189446
-0.141419
-1.10127
-0.167827
0.168894
-0.040118
-0.00814314
0.0721131
-0.310981
-0.350857
0.358541
-0.122592
0.10858
0.159883
-0.460288
-0.396437
-0.223001
0.207848
-0.134815
0.255822
-0.0297014
0.102771
1.30142
0.0612482
-0.144008
-0.108821
0.304342
-0.368025
0.254584
-0.332271
0.0574763
-0.210409
-0.0131439
-0.100322
0.116165
0.480535
0.419861
-0.00356996
0.293809
0.201689
-0.199418
-0.306026
-2.59386
-0.103875
0.126747
0.0108682
-0.0373978
0.218952
0.0115058
-0.160478
-0.0267967
0.0840169
-0.0925875
-0.122411
0.214948
0.372416
-0.567032
-0.0831212
0.284369
0.114713
0.09751
0.175552
-0.200854
0.245792
-0.494583
-0.763026
0.00547528
0.156964
-0.439144
0.0492739
-0.633921
-0.0842291
0.00983684
-0.495704
0.305398
-0.135082
-0.0710026
0.56427
0.696481
-0.107818
0.0467466
-0.0883864
0.228504
0.339367
0.00513078
-0.0462972
0.638795
-0.456201
-0.261264
0.420547
0.485537
-0.0125031
0.545602
0.289981
-0.322283
0.100898
0.359754
-0.622624
0.440452
0.00639177
-0.428517
-0.163371
0.225942
0.231178
-0.202929
0.107721
-0.222961
-0.000441153
0.50315
-0.148315
0.124041
0.602735
0.193809
0.351227
0.233128
0.188592
-0.292251
0.313012
0.0876441
0.14836
0.300786
-0.344086
0.539005
0.278369
0.0564846
0.424884
0.199408
-0.222141
-0.00879617
0.37403
0.190773
0.404351
0.460773
-0.0105568
-0.0413196
-0.110476
0.189726
-0.167619
0.531413
-0.268644
-0.193372
-0.634822
0.958148
-0.450825
-0.452542
0.31538
-0.129991
0.392423
0.280601
-0.0344306
-0.243347
-0.228816
-0.342761
-0.627939
-0.303779
-0.604386
0.469687
-0.452082
0.59271
-0.279222
0.815776
0.232096
-0.268131
-0.159326
-0.3111
0.0579674
-0.0121053
-0.419752
-0.0492954
0.462984
-0.111491
0.0278385
-0.144742
-0.270754
-0.0545825
-0.258626
-0.0820691
0.207262
0.0840677
-0.196513
-0.546259
0.621015
-0.409649
0.307217
0.0453975
0.0781206
-0.459785
-0.422886
-0.223246
0.107142
-0.200977
-0.110728
-0.476185
-0.30447
-0.261066
-0.146258
-0.318249
-0.310827
-0.520671
-0.00932013
0.0109001
0.0749715
-0.429223
0.251893
-0.513888
0.265806
-0.272893
-0.199025
-0.00171273
0.158687
0.730004
-0.314949
0.132161
0.404509
-0.49965
0.0394512
-0.108961
0.0356233
-0.112403
0.482537
-0.334963
0.355551
-0.449029
-0.0784566
0.0715397
-0.119528
0.351558
0.0346504
-0.0181669
-0.0973878
-0.321568
0.262068
-0.292458
0.0627964
0.229526
0.522932
0.43142
0.481228
-0.285722
0.0461561
-0.259382
-0.0377937
-0.290334
0.0443971
-0.187907
-0.491708
-0.737871
0.658712
0.0245819
-0.212783
0.0626283
0.112143
0.409344
-0.0915239
-0.233586
0.350457
-0.126762
0.00728809
-0.378066
-0.147406
-0.987396
-0.18518
-0.0855791
0.0392801
-0.79782
0.577689
0.00194792
-0.0999595
-0.148932
-0.0212844
0.202903
-0.292151
-0.21419
-0.455065
-0.311477
-0.147388
-0.104695
0.112513
-0.361957
0.16425
0.541135
-0.373087
-0.381123
-0.00734236
0.425364
-0.234054
-0.381952
-0.0122351
0.157666
0.357886
-0.0690821
-0.275628
-0.197752
-0.0550197
0.164389
0.443042
-0.142319
-0.456159
-0.132717
0.566986
-0.448629
0.334589
0.139516
-0.100764
-0.273477
-0.119648
0.105148
0.765207
0.353739
-0.039851
0.156269
0.575689
-0.137967
0.369462
0.00865926
0.151692
-0.165196
-0.0228825
-0.404043
-0.262066
-0.240801
0.312434
0.0366112
0.281429
-0.298978
0.152821
-0.226876
0.114225
-0.33208
-0.322376
-0.0585282
-0.136514
0.3092
0.0573563
-0.0932962
-0.415445
0.161966
-0.0865864
-0.0938384
0.352902
-0.250358
0.064995
0.0711225
0.101181
0.494761
-0.310743
0.226127
-0.0611477
0.325141
-0.545036
0.16772
0.26433
-0.135243
-0.313872
0.335077
0.0436276
-0.271097
-0.253269
0.349505
0.554772
0.4
-0.0926661
0.285464
0.567328
-0.168147
0.743242
-0.322407
-0.0551559
-0.103666
0.330279
-0.265518
0.368148
0.0525364
0.0370064
0.616037
-0.391412
-0.375193
-0.286106
-0.0222084
-0.43337
0.292937
0.435157
-0.350694
-0.265774
-0.00251776
0.638345
-0.222945
-0.506037
0.111174
0.0416046
-0.000129962
-0.0159084
0.25401
0.487409
-0.47777
0.159888
-0.0994818
0.338837
0.36693
0.0231398
-0.209138
-0.179221
0.028882
-0.0230241
0.42319
0.214214
-0.217075
-0.397399
0.125796
0.398999
-0.104676
-0.859151
-0.176948
0.121709
-0.597526
0.362799
-0.288844
-0.740551
-0.119496
0.0403511
0.179847
-0.0692634
-0.34817
-0.131215
0.0804571
0.249881
-0.770789
-0.441321
-0.934701
0.1225
0.189213
-0.0821033
-0.373274
0.625652
0.414416
0.151342
-0.0567618
0.0902363
-0.298669
0.503069
-0.0668656
0.230507
0.131718
0.00902587
-0.319979
0.0572017
0.297729
0.428066
0.228788
-0.0969686
0.154388
-0.203949
-0.193819
0.671218
0.279372
0.593061
0.5927
-0.640617
0.628442
0.49646
0.607999
0.123849
-0.363002
-0.135639
0.274672
-0.175657
0.110934
-0.0074632
0.491319
0.297047
0.236362
-0.46921
0.166679
0.11264
0.27057
-0.994416
-0.697088
-0.270246
-0.0976244
0.00416518
1.08848
-0.302493
-0.241535
-0.902798
0.159274
0.581187
0.200534
-0.0546622
0.251955
0.503759
0.00620679
0.273309
-0.186047
0.585209
0.420837
-0.440595
