#input normalization
0.161113 0.275362
48.4498 58.6264
8.93256 34.2523
7.51991 30.2977
0.0102834 0.0427595
0.00829343 0.0344432
0.564818 1.48093
0.795869 1.50863
1.10038 1.73119
1.41277 1.97868
1.75552 2.22052
2.08751 2.45795
2.40622 2.68133
2.72523 2.88225
3.03084 3.05648
3.31412 3.186
3.58281 3.27987
3.83858 3.35045
4.07283 3.38738
4.2536 3.37307
4.41487 3.3303
4.55369 3.25422
4.6588 3.16101
4.72377 3.04432
4.77511 2.90357
4.77398 2.73202
1 -1
1 -1
#output normalization
1 0
#neurons weights
0.499154
0.248866
0.46069
0.374299
-0.0436075
0.126671
-0.077037
0.313338
-0.270193
-0.447702
0.260289
-0.0292454
0.134721
0.376378
-0.344066
-0.36886
-0.00933084
-0.314317
-0.135067
-0.150219
-0.33342
-0.195701
-0.270818
-0.456885
0.435282
0.0613591
0.222419
0.206768
0.27379
0.0205791
0.532414
0.119572
0.666561
0.341715
-0.228225
-0.0386033
0.252524
0.427199
-0.216279
-0.074812
0.0850497
0.592506
-0.407075
-0.375811
0.0529317
-0.318106
0.513521
0.562708
0.540172
0.603504
0.0483114
-0.251977
0.237896
0.473745
-0.555684
-0.402229
-0.491616
0.176844
-0.366995
-0.151958
0.213725
0.233344
0.198369
-0.000457824
-0.443259
0.330644
0.26523
-0.145248
-0.423994
0.373112
-0.0857801
-0.444632
0.0519037
-0.26443
-0.35292
-0.478659
0.38037
-0.291652
-0.488921
0.462867
-0.68653
-0.218039
-0.13905
-0.367725
-0.385825
0.78382
#synapses weights
0.0226132
0.170399
-0.180931
0.334983
-0.249006
0.334198
-1.01231
-0.224658
-0.0473844
-0.199206
0.243515
0.0453925
-0.0187235
-0.0909688
0.111251
-0.269164
0.156136
-0.405721
-0.0659005
0.27028
0.0549053
-0.175759
0.270026
0.180674
-0.0106003
-0.244727
-0.374077
0.0572269
-0.116721
0.406091
-0.286827
0.260913
0.343683
0.0545504
-1.21622
-0.152241
-0.14125
0.309458
-0.322166
0.121229
-0.224082
0.131019
-0.255837
0.117284
-0.0522201
-0.054516
-0.0465939
0.0763488
0.0405625
0.266043
-0.320486
0.185316
-0.224459
-0.0329271
0.0516224
0.0734326
0.351782
-0.255486
0.349445
0.354792
-0.336668
0.355882
0.458752
0.504232
-0.240835
-0.0745064
0.216461
0.125926
0.284403
-0.48031
0.0166727
0.174011
0.44379
0.444602
-0.0306103
-0.162386
-0.183361
-0.231615
-0.0178222
-0.425554
-0.173979
0.034663
-0.263591
-0.340697
-0.277788
0.0706015
-0.0985025
-0.071047
-0.140078
0.593575
1.65276
0.300485
0.133303
-0.260288
-0.095939
0.029341
0.087977
-0.250433
-0.213363
-0.0775556
-0.074065
-0.230388
0.326898
-0.357209
0.357486
-0.143575
0.598343
0.207978
-0.118419
0.15264
0.210054
0.168596
0.465808
0.363909
0.445265
0.00598398
-0.300741
-0.114008
2.84383
-0.100896
0.156683
-0.185734
0.0556723
0.0333896
0.0117967
-0.0927391
0.109857
-0.0400246
-0.195506
-0.257373
0.108706
0.01114
0.0691499
0.248151
-0.218343
-0.206184
0.222103
-0.0659465
-0.020823
0.27954
-0.156549
0.401816
0.0191235
0.0178994
-0.0284883
0.427422
-0.285638
-0.186644
-0.0635253
-0.211862
0.0043334
-0.00982475
-0.133371
0.0291143
0.234568
-0.176349
0.33382
-0.126698
-0.514135
-0.254274
0.213167
0.133777
-0.354155
-0.385399
0.000979146
-0.0499352
0.148061
0.0907745
-0.244623
0.297154
0.232819
0.270378
0.306236
-0.417198
1.65557
0.621196
-0.294329
0.253251
0.16402
-0.227421
0.00894432
-0.114352
0.225417
0.299645
0.0216532
-0.172952
-0.41872
-0.186694
-0.303046
0.495507
0.486178
0.193052
-0.0255784
-0.308998
0.0864157
-0.197189
-0.239824
-0.0772623
-0.123249
-0.0412053
0.173965
-0.408767
2.53622
0.15785
0.0865884
0.156128
-0.294436
-0.0461177
0.0736342
0.309759
-0.262785
0.23614
-0.319934
0.20094
0.134774
0.197264
-0.211823
-0.228242
0.0233774
0.283837
0.324318
-0.211444
-0.225336
0.349833
-0.485139
0.23499
-0.211736
0.00292622
0.29736
0.442396
0.229259
-0.0641917
0.0757474
0.32037
0.367831
-0.188132
-0.00799601
0.170043
-0.2251
0.274986
0.281041
0.021298
0.171453
0.499585
0.46898
-0.461605
-0.00829308
-0.0351238
-0.0218404
0.381239
-0.450585
-0.208656
-0.204321
0.0361025
0.334218
0.378654
-0.237996
0.41877
-0.129311
-0.312921
-0.137813
-0.155528
-0.283638
0.269579
-0.156688
0.230477
0.53685
0.495286
-0.152605
0.268174
-0.367827
0.391891
0.380421
-0.271507
0.166
0.310765
0.13635
0.0130001
-0.246348
-0.365134
-0.0652341
-0.323885
0.345527
0.000388292
0.10186
-0.172041
-1.08263
-0.0106665
0.0125122
0.000530296
0.0746316
0.304956
0.131755
-0.281402
-0.0377435
-0.109408
-0.0311077
0.141467
-0.0729461
-0.279369
-0.10877
-0.0236278
0.475505
0.275895
0.114287
0.422091
-0.110665
-0.224804
-0.263974
-0.0425997
0.227586
-0.0999804
0.234099
0.0460091
-0.277677
0.794471
0.523925
0.189741
-0.109461
0.155153
0.203268
0.142078
-0.441496
-0.18103
0.180068
0.259992
0.0324678
-0.0138898
-0.289229
0.174561
0.218052
0.00942788
0.0908154
-0.319865
-0.173236
0.062958
0.171073
-0.0517167
-0.0517918
-0.206802
0.167837
-0.158694
0.327097
-0.334959
-0.267176
0.0698536
-0.140971
0.370105
0.312752
-0.284616
-0.170075
0.0178233
0.0746285
-0.247008
0.179972
0.238737
0.197514
0.455688
-0.133391
-0.165105
-0.203868
-0.282848
0.00678638
-0.322313
-0.364354
-0.275075
0.0157301
-0.152984
0.271629
0.091157
1.83673
-0.10536
0.045755
-0.254128
0.246609
0.0395478
0.173681
0.359648
0.41127
-0.366067
-0.311149
0.0719102
0.0157364
0.420839
-0.294181
-0.171391
0.44595
-0.298221
0.0849872
0.231691
-0.361297
0.0753118
-0.220194
-0.334577
-0.0742166
0.0520689
-0.0631224
0.0482315
-2.41588
-0.40965
-0.145319
-0.218999
0.100324
0.142976
0.0352015
0.310558
-0.365661
-0.252846
0.337667
-0.335595
-0.223093
0.380437
-0.168069
-0.214598
0.432012
0.219454
0.245239
0.0296559
-0.077869
-0.482026
0.312431
-0.168842
0.364776
0.0253878
0.0991044
0.360796
0.00126114
0.0470717
-0.145955
-0.303445
-0.402678
-0.197099
-0.347033
-0.40756
0.00656572
-0.27625
0.0382955
0.38951
0.399222
-0.484151
0.373621
-0.475305
-0.47722
-0.426212
0.0971186
0.197717
0.496744
-0.0992348
0.267909
0.366482
-0.26263
0.177724
0.259149
0.204138
-0.641097
-0.494696
-0.209416
0.253542
-0.0563991
-0.0462069
0.0829398
-0.214498
-0.15823
0.0457552
0.224879
0.0704782
0.470337
0.0791606
0.494909
0.418644
-0.0988563
-0.152166
0.0508293
0.142112
0.447868
-0.348711
-0.15939
0.517697
0.0235426
0.239426
0.112912
-0.45601
1.00618
-0.162658
0.220047
0.171803
0.234624
0.255712
-0.305935
-0.117293
-0.140944
-0.0159139
0.384661
-0.11612
-0.326319
-0.290423
-0.0786604
-0.220951
-0.254589
0.550851
0.138564
-0.423325
0.103557
-0.46285
-0.00450826
-0.0276261
0.381319
-0.0206966
-0.165369
-0.301215
0.42832
0.16009
0.420995
-0.0719629
0.0077474
0.129395
0.227337
0.152846
-0.267703
0.192862
0.0382563
0.432029
-0.326289
0.434815
-0.47539
-0.425748
-0.312659
0.431813
-0.277073
0.421873
-0.284284
-0.0375642
0.311101
0.0841947
-0.601164
-0.0675075
0.0550015
-0.0838111
-0.567772
0.088384
-0.634337
0.209707
0.329383
-0.261869
-0.386479
-0.00972801
-0.416514
0.332686
0.096033
0.365009
0.143196
0.284302
-0.0551256
0.00805238
-0.324679
-0.383758
0.122553
-0.314802
0.13603
-0.13744
0.432546
-0.0545215
0.453902
-0.275236
-0.284908
-0.0369358
2.67407
0.023292
-0.0708616
-0.149936
0.160943
0.135736
-0.0638215
0.0345594
-0.0777967
0.00594082
-0.135636
0.332761
0.130443
-0.321944
0.0879799
-0.0305652
0.0715519
0.0745505
-0.0968795
0.0964958
0.029726
-0.301468
-0.0187495
0.31161
0.108779
0.0752848
-0.38385
0.112585
-0.844426
-0.6691
0.0724704
0.186448
0.0498666
-0.272435
-0.14787
-0.354572
0.406858
0.122167
0.294769
-0.296811
-0.281047
0.341403
-0.24184
-0.222858
-0.304892
0.393561
-0.0292394
-0.14554
0.141407
-0.476523
0.0671963
-0.3149
-0.342639
-0.360706
0.11886
-0.282123
0.682594
0.603841
0.566175
0.23883
-0.033494
0.0840518
-0.204276
-0.336425
-0.182544
-0.0809557
0.281102
0.245685
0.0789327
-0.498175
-0.346177
0.143417
-0.15361
0.184807
-0.128558
-0.41985
-0.198211
-0.417967
0.17682
-0.0117786
0.253123
-0.113123
-0.232539
0.27404
-3.39
-0.0906429
-0.0393474
-0.0326802
0.167071
-0.0937386
-0.116511
0.163391
0.229596
-0.194855
-0.132344
0.288593
0.0471158
-0.0923965
-0.12149
0.34743
-0.397796
0.0215026
0.420378
-0.250294
-0.136696
0.156505
-0.190361
-0.0555459
0.0323788
-0.173869
0.0352906
-0.179185
0.0799463
-0.0359632
-0.358532
-0.171366
-0.0427669
-0.104372
0.0225293
0.399485
-0.0478157
-0.364742
0.503832
-0.248729
0.424564
0.43855
-0.135658
-0.301133
-0.14153
-0.095036
-0.26711
-0.138713
-0.431777
-0.379137
0.245231
0.0255793
-0.13067
0.282276
0.00774018
0.279228
0.829975
-0.16036
-0.191312
0.0403557
0.167379
0.193887
-0.185096
-0.49965
0.0286144
-0.126347
0.117297
-0.126945
-0.0457057
-0.5348
0.0639358
-0.0371025
0.00652507
0.144928
-0.11784
0.246023
0.472797
-0.0268792
0.282938
-0.0636448
-0.0743198
0.258715
0.098607
0.303307
1.27865
-0.149368
-0.167775
0.121382
-0.178601
-0.104474
-0.201144
0.0900824
-0.160569
-0.0142724
-0.151923
0.203172
0.130683
-0.0964407
0.110689
0.0692634
0.0697925
0.0431369
-0.318181
0.158531
0.235683
0.432616
-0.194449
-0.0793279
0.262594
0.119149
-0.351232
0.363541
0.00145791
0.242418
0.10092
0.357389
0.291229
-0.520574
0.0010154
-0.201963
-0.265517
0.352442
0.152921
0.101413
-0.421802
-0.119271
-0.400851
-0.0427989
-0.208444
0.00987703
0.083678
-0.165412
-0.420924
0.0934841
0.12948
-0.284285
0.41959
0.2149
0.422688
-0.194586
-0.111271
-0.300647
-0.177715
-0.358732
0.259935
0.432863
-0.367712
0.404322
-0.260487
0.40785
-0.321928
0.0944654
0.325881
-0.0306367
-0.316886
-0.0283214
0.143224
-0.0233387
0.00948594
0.139962
0.482018
0.21072
0.218716
0.0438422
-0.0730096
-0.432661
-0.38741
-0.0222926
0.220141
0.0292513
-0.373176
-0.401401
-0.20998
0.039591
0.0331215
-0.129142
0.405093
-0.160132
-0.217787
-0.334235
-0.219096
-0.372342
-0.431286
-0.419805
-0.253456
0.162852
-0.0615982
0.302285
-0.454124
0.335332
0.176053
-0.498771
-0.0371793
-0.327023
-0.658686
-0.412409
-0.42354
-0.439411
-0.311394
0.212117
-0.150571
0.301333
0.318546
-0.014165
-0.536629
-0.150799
-0.0445548
0.191816
-0.265418
-0.350674
-0.240689
-0.132225
0.086019
-0.148318
0.717192
-0.600156
-0.208796
-0.6362
-0.214982
0.372683
-0.142822
-0.429697
-0.0233846
0.0900286
0.323459
-0.651279
-0.317276
0.283026
0.02496
0.545807
-0.108791
-0.631686
-0.364565
0.0278466
0.361025
-0.432824
-0.308884
-0.103797
0.162653
0.350081
-0.365988
0.109022
0.0644898
0.230443
-0.279256
0.479292
-0.1005
-0.33002
0.340671
-0.115647
0.438943
0.660053
0.266148
0.131165
0.242286
0.412641
-0.556908
0.493182
-0.0490222
-0.00422271
-0.0684462
0.224159
0.483038
-0.102561
0.448086
0.565437
0.100439
0.222248
0.357185
-0.163402
0.0267573
0.518393
0.398477
-0.268089
0.527004
-0.0262042
0.319878
-0.0769789
0.434402
0.201878
0.0414362
0.188979
-0.137453
0.122655
-0.0659513
0.245582
0.4289
0.402938
0.150409
0.379383
0.34896
0.445217
-0.46541
0.184662
0.1315
0.382455
0.353403
-0.000836846
0.408383
-0.126513
0.427114
0.291626
-0.00366064
-0.0875838
0.415859
0.390124
-0.085308
-0.347361
0.44755
0.388712
-0.0409827
0.0195971
-0.173844
-0.290982
0.0622905
-0.0619315
0.333215
0.0187015
-0.0520807
0.181027
-0.643925
-0.166384
-0.391418
0.20807
0.153491
-0.373243
-0.22478
0.251464
-0.280376
-0.00971632
0.227798
0.000442629
-0.405934
0.281669
-0.00319764
-0.0490736
0.378501
0.300132
-0.0790295
0.152144
0.451615
0.465337
-0.0443084
0.455776
0.069828
-0.183339
-0.0101465
0.264449
-0.276007
0.220695
-0.239982
0.0775572
-0.250844
-0.136982
0.132235
0.361463
0.418663
-0.413845
-0.159652
-0.385692
-0.0834273
0.269346
-0.461018
-0.31582
0.0756775
-0.109229
-0.359408
0.187734
0.213792
0.325377
0.0418024
0.125519
0.480996
0.179966
0.00148746
-0.083784
-0.13504
-0.0531608
0.259484
-0.299407
-0.484232
0.0945445
-0.304971
-0.213136
-0.49774
-0.230087
-0.157929
-0.0537705
0.384901
-0.172822
-0.320458
-0.218605
-0.0829206
-0.591246
-0.0416456
-0.140908
0.333721
0.376118
0.151235
0.439926
0.438822
-0.146943
0.3074
0.330433
-0.281407
0.0810135
0.104742
0.152904
-0.363163
0.30623
0.0461315
0.174908
0.0919348
0.138648
0.0845787
-0.385547
-0.0789668
-0.559482
0.0360823
-0.253724
0.112051
0.077073
-0.596226
-0.342883
-0.14549
0.269628
0.679294
-0.166716
-0.32122
0.245231
0.0613817
0.0274229
-0.189595
-0.500583
-0.0462373
0.582613
0.233307
0.0395935
0.223976
0.126452
-0.206712
0.0325701
-0.391035
-0.300331
0.372887
0.0897259
0.452148
0.550306
-0.0927103
0.31365
0.539943
0.42314
-0.125364
0.266492
0.346517
-0.380001
-0.420696
-0.191184
-0.0254178
-0.762011
0.100412
-0.275445
0.352048
-0.0113724
-0.363585
-0.605506
-0.441023
0.0825839
-0.156712
0.0268636
0.164205
-0.243306
-0.687967
-0.395647
0.145279
0.919065
-0.268443
-0.107433
-0.557025
-0.219942
-0.0817388
0.058656
-0.262444
0.0994589
-0.148939
0.246666
-0.376623
0.396377
0.176323
-0.194355
0.0143216
-0.275403
-0.0310763
-0.0773949
-0.460298
0.182337
-0.395381
0.120141
-0.0671185
0.2744
-0.227855
-0.0841702
0.507135
-0.663149
-0.772236
0.128339
-0.509451
-0.22246
0.420364
0.0577819
0.130824
0.32601
0.109231
0.115489
-0.411961
0.555798
0.065169
0.596991
0.0792322
-0.172489
-0.088421
-0.516692
0.242038
0.0347003
0.0796912
-0.353954
-0.442991
-0.0483682
-0.402499
0.116428
0.511953
-0.352215
-0.112335
-0.289692
-0.316536
0.310232
-0.114241
-0.2645
-0.0607306
-0.318044
0.380421
-0.00672406
0.620408
0.600079
0.228702
0.626695
0.32753
0.49208
-0.111417
0.254334
-0.32912
0.0806678
-0.187129
0.127611
-0.338086
-0.446377
0.377469
0.259771
-0.0184291
0.846534
-0.439144
0.196468
-0.545331
0.207565
0.451974
0.0232969
0.115046
-0.327193
0.238606
0.429902
-0.416305
-0.314283
0.308517
0.26193
-0.273266
0.061242
-0.263759
0.0929143
0.238351
-0.130061
-0.102055
-0.318318
-0.417186
0.126039
-0.344678
-0.284275
0.456283
0.196412
0.218066
-0.0280315
0.0419419
-0.45796
0.396982
-0.113993
-0.628066
0.108778
-0.089032
-0.282943
-0.435401
-0.472991
-0.111412
0.235906
-0.494474
0.0942866
-0.440043
-0.443556
0.429974
0.109811
-0.0365147
-0.195315
-0.453534
-0.276409
-0.137178
-0.00912683
-0.111124
-0.450503
-0.45051
-0.363716
-0.238969
-0.303366
0.169704
0.236709
0.0860418
-0.0726482
0.319001
-0.207796
0.324317
-0.212915
0.566769
-0.0112917
-0.643364
0.144526
0.0456477
-0.0662252
-0.349225
0.400198
0.336132
0.0235288
-0.328684
-0.501934
0.560613
-0.0108465
-0.282664
0.229866
-0.133092
-0.0598725
-0.596459
-0.49234
-0.0865377
0.694422
-0.0390665
-0.419364
-0.48842
0.0575797
-0.136049
0.0838051
0.171057
0.183417
-0.294926
-0.458566
-0.0828662
-0.061636
-0.57266
-0.0325247
0.14189
-0.0479266
-0.174507
0.292866
-0.646597
0.545468
-0.205247
-0.15205
-0.151517
-0.0178441
0.206044
-0.566857
0.462991
-0.34268
0.471665
0.17181
0.0883277
0.0420381
-0.392407
0.535284
0.0940743
0.393218
-0.237943
-0.118308
-0.0086204
0.0973058
-0.261776
-0.252001
-0.212985
-0.379241
-0.340825
-0.136222
0.0225993
0.395538
-0.461085
-0.342019
0.39503
-0.0865151
-0.227849
-0.476997
-0.0163787
0.377998
0.0262746
0.617743
-0.427129
0.403952
-0.364242
-0.278741
-0.290406
-0.374662
-0.541202
0.115199
-0.106635
-0.104805
-0.269747
0.485889
-0.465836
-0.432987
-0.333558
-0.209258
0.393616
0.436187
-0.406629
0.417831
0.382099
-0.375653
0.364736
-0.194151
-0.152499
-0.0530125
-0.192473
-0.0596479
-0.23225
-0.0232613
0.166865
-0.100036
0.383776
-0.255098
0.230958
0.02411
0.196306
-0.433813
-0.346709
-0.343727
-0.248481
0.181775
-0.487619
-0.162933
-0.29112
-0.432327
-0.307355
0.402483
-0.254484
0.293881
-0.420621
0.120568
-0.271201
0.272005
-0.309024
-0.357859
-0.369908
-0.426677
-0.286734
-0.308922
-0.0647047
0.159638
0.053183
-0.422262
-0.255504
0.144389
-0.335668
0.543887
0.505118
-0.0962031
0.503878
0.103187
0.111983
-0.507303
0.140254
0.184478
0.62569
-0.711528
0.413409
-0.517063
0.26351
0.308282
-0.21192
0.714601
0.196031
0.192847
-0.908563
0.430837
0.507618
-0.106926
0.228504
0.0853352
0.20421
0.391213
0.337441
-0.0957713
-0.263012
0.471919
0.184243
-0.419717
-0.111633
-0.281131
0.446301
0.20179
-0.353049
0.469604
-0.516813
0.0544833
0.345008
0.372162
-0.139328
0.354024
0.352547
0.132178
-0.0384435
-0.467892
-0.310181
0.295272
-0.0779288
0.214188
-0.402784
0.132846
0.0904432
0.00909682
-0.519359
-0.989564
-0.545558
-0.795951
-0.595181
0.060642
0.137696
0.142009
-0.386995
-0.421914
-0.740384
0.171032
-0.336912
0.0813233
-0.378007
-0.201274
0.0709621
-0.329999
-0.398377
0.456876
0.141022
-0.664622
-0.251064
-0.791552
-0.365638
0.640389
-0.398977
0.17242
0.151919
0.167976
-0.31062
-0.0910557
0.230931
0.489451
0.0365932
0.423752
-0.355833
-0.18857
0.0662332
-0.0965674
0.18276
0.155152
-0.316398
0.572762
0.481844
-0.0556219
-0.323749
0.0451801
-0.327376
-0.535074
0.0196885
0.257227
0.384699
-0.315743
-0.205385
0.146577
-0.200359
-0.308372
-0.349675
-0.25413
-0.197017
-0.194195
0.0306805
0.00349658
0.142859
0.5077
0.443258
-0.165166
-0.184332
0.0158708
0.00822128
-0.180913
-0.524375
0.215089
-0.0182124
-0.49181
0.318579
-0.0528504
0.133556
-0.108357
0.224143
0.168598
0.318987
0.151908
0.461257
0.157097
0.170771
0.401934
0.0891012
-0.0729082
-0.0784653
-0.112471
0.413073
0.118681
-0.198089
0.3636
-0.272833
0.39993
-0.228708
-0.297869
0.0166273
-0.0361466
0.172056
-0.216719
0.315206
0.0637221
-0.23445
-0.303581
-0.220036
-0.245724
-0.451331
0.111622
0.160165
0.208822
0.745228
0.213301
0.0160392
0.427673
-0.0784648
0.189713
0.386643
-0.0670535
-0.0797288
0.501617
0.0659988
0.00752442
-0.282406
-0.196225
-0.133772
-0.348588
-0.670859
-0.424539
-0.202983
0.0957787
0.465487
-0.202535
-0.785501
0.0810036
0.0871253
-0.645108
-0.226286
0.139816
0.198046
0.358872
0.12558
-0.284879
0.168308
-0.441771
-0.141995
0.208973
0.0433174
0.543113
0.709858
-0.146642
0.212632
-0.366496
-0.394226
0.364675
0.270034
0.313648
0.148632
0.0226882
-0.293454
-0.485501
-0.231899
0.574574
0.388412
-0.176606
-0.107374
-0.640742
