#input normalization
0.160549 0.269443
42.3994 47.3081
10.5883 38.0507
8.4137 31.7024
0.011521 0.0426486
0.00932653 0.0330789
0.52601 1.31785
0.823961 1.14631
1.01646 1.32786
1.23048 1.51654
1.47696 1.68552
1.73 1.83539
1.9743 1.96587
2.21076 2.0781
2.43718 2.17557
2.63908 2.23007
2.83415 2.26984
3.01462 2.27938
3.15896 2.26461
3.28283 2.21551
3.38211 2.15303
3.46272 2.06189
3.51676 1.96916
3.54752 1.85503
3.5578 1.72878
3.54351 1.58884
3.49301 1.43749
3.43884 1.27514
3.3546 1.08322
38.6193 50.1293
7202.66 5047.43
1 0
#output normalization
1 0
#neurons weights
-0.397098
-0.182001
0.191318
0.292981
-0.188306
-0.190417
-0.255378
-0.216597
-0.414573
-0.440297
0.47963
0.138764
-0.00255883
-0.167379
-0.465375
-0.0410921
0.00704263
0.378476
-0.188685
-0.221944
0.00578642
-0.201791
-0.0661569
0.0718817
-0.278994
0.253066
0.250134
-0.498491
-0.347987
0.148505
0.419468
0.473899
0.633683
0.0750526
0.000510901
0.0412202
-0.397758
-0.34898
-0.247992
0.340767
0.237335
-0.0923599
-0.386568
0.698267
0.290672
-0.314048
-0.373152
-0.510312
-0.309322
0.177714
-0.24895
0.0203052
-0.928524
0.527935
1.03165
0.671183
0.910938
-0.182147
1.48789
-0.148578
-0.562656
-0.360405
0.252751
-0.84322
0.538612
0.59788
1.05402
0.477489
-0.563629
-0.397452
-0.557157
-0.433476
-0.0562738
0.631118
-0.120838
0.287145
0.48649
-0.322737
0.0785615
0.0375422
-0.569151
0.0181091
0.0600374
0.285143
0.377246
0.364114
0.502232
0.378172
-0.505571
0.133187
0.487134
0.0244217
-0.437875
-0.461698
-0.247545
-0.128791
0.0673001
0.565114
#synapses weights
0.293307
-0.215184
-0.13891
0.0992735
0.383614
-0.259853
0.365377
-0.0325012
0.158606
-0.0613035
-0.334744
-0.110533
0.12764
0.230312
0.196781
-0.31976
-0.28991
-0.0817788
-0.304467
-0.117952
0.442363
0.445961
-0.0571803
0.277842
-0.121146
0.317664
-0.184116
-0.165607
0.0469956
0.0464439
1.81704
0.429925
-0.359554
-0.208836
0.0342933
-0.210959
-0.12454
-0.326487
-0.116232
0.102468
-0.605873
0.180979
0.304465
0.18898
0.239291
-0.237942
0.146915
0.110125
0.323241
0.45665
-0.345445
-0.0463069
0.319004
0.393195
-0.192993
-0.214684
-0.0755418
0.226271
0.171298
0.098102
0.398189
-0.00256086
0.7577
0.421163
-0.0920798
-0.414661
-0.250116
-0.279367
0.430202
-0.116569
-0.0526731
0.0694077
-0.371186
-0.0708172
-0.456301
0.0280512
-0.0958705
0.442374
0.327655
-0.128712
-0.287249
0.50586
-0.112348
0.0180953
0.241803
-0.498101
0.192458
0.00658546
-0.187093
0.0459421
0.16188
0.272433
-0.0644646
0.711785
-0.794259
-0.0633978
0.426787
0.136482
0.258046
-0.142415
0.433176
-0.269044
-0.397362
-0.0947868
0.131603
-0.317292
-0.323178
-0.00386609
-0.324494
0.0842016
-0.193663
0.211309
-0.0607187
0.434166
-0.138057
0.260301
0.249243
-0.511789
-0.262274
-0.0562371
0.326981
-0.31235
0.38276
-0.0634493
0.38136
-0.16608
0.00532302
0.379687
0.40831
-0.273973
0.133239
-0.139277
-0.0509256
-0.385098
-0.903178
0.301614
0.123272
0.207576
0.168792
-0.187672
0.274324
0.222458
-0.304785
-0.0799286
-0.0455703
-0.20803
-0.190546
0.292714
-0.288495
0.00692298
-0.165939
0.279268
-0.58614
-0.416796
-0.172435
-0.0199455
0.0336425
-0.141616
-1.3884
-0.269465
0.154475
0.050465
0.272089
0.0507007
0.374446
0.453755
-0.715485
0.183975
-0.468508
0.238563
0.0427093
-0.0351446
-0.231702
-0.500443
-0.221201
0.239072
0.210985
0.210461
0.0398422
-0.486356
0.191711
0.0156867
0.257747
0.163415
-0.337139
0.356885
-0.295524
-0.491862
0.222637
-0.0350786
-0.891507
-0.10115
0.0650392
0.403594
0.239696
-0.181168
0.176307
-0.299246
0.597781
0.255937
-0.0360521
-0.289059
0.00553183
0.164513
0.330776
9.08131e-05
-0.334707
-0.120409
0.174564
-0.0159745
0.467842
-0.149918
0.387711
0.262146
-0.200086
-0.272061
-0.340087
-0.428114
-0.247757
-0.106351
0.146721
0.0897428
-0.666212
-0.24394
-0.40574
0.0830798
-0.168881
0.42385
0.0595112
-0.393424
0.330608
-0.0403859
0.327689
-0.178437
0.32811
0.231173
-0.54906
-0.0908419
-0.280983
0.354685
0.369022
-0.237183
-0.302197
0.209895
-0.113766
0.0790232
0.505575
0.30342
0.0353041
0.00106709
0.029294
-0.194929
-0.0953413
-0.0729862
0.0304999
0.453494
0.135254
-0.0571907
0.105444
-0.13123
-0.191377
0.220984
-0.214405
0.0815485
-0.101737
0.181461
0.0543667
0.148455
0.0742519
-0.302317
-0.00788904
-0.0220467
-0.0109602
-0.111581
0.329605
-0.166177
-0.0969315
0.0596302
0.0669957
0.354851
-0.107848
-0.363695
0.19226
0.00991661
-0.0288991
0.167513
2.38603
0.0269623
0.141672
0.535276
0.379866
0.1616
0.155538
0.168154
0.15697
-0.0735188
0.458186
-0.271045
-0.0106076
0.138956
-0.25094
0.385008
-0.294755
0.382216
-0.377952
-0.349214
0.205209
0.457438
-0.24581
0.185515
0.230596
-0.322468
-0.413008
-0.405471
0.280762
0.161045
0.00568486
0.189788
-1.1505
-0.354455
-0.239519
-0.168931
0.180397
-0.0117253
0.111544
0.402557
-0.412745
-0.0273759
0.151114
0.186903
-0.0917723
-0.03446
0.0655441
0.0240931
-0.305293
-0.0518615
0.264967
0.0799402
0.428763
0.053603
0.0666679
-0.236394
-0.278238
-0.246169
-0.103375
-0.328029
-0.378989
0.405627
0.404256
0.235213
-0.568051
0.270141
-0.268909
0.45026
-0.460035
0.24672
0.385776
0.0495867
-0.00425326
-0.00947223
-0.10718
-0.324427
-0.062798
0.223697
-0.367535
0.000399394
-0.141005
0.316396
0.0963538
0.164983
-0.301403
-0.183236
-0.0457752
0.0219341
-0.425853
0.337573
0.00951618
-0.432687
0.155246
0.302481
-0.117693
0.433796
1.7936
0.357076
0.490458
0.198493
0.222117
0.123664
-0.498378
0.304928
-0.473915
-0.36467
-0.0518159
-0.0498442
-0.0441011
0.443644
0.0370354
-0.227489
0.0290023
-0.0708343
-0.0752457
0.297378
0.0558486
0.117969
-0.322049
0.269761
-0.518378
0.387733
-0.18604
-0.278661
0.246341
0.467375
0.0186928
-0.51895
-0.0605928
-0.0167413
0.0911112
-0.113817
-0.155631
-0.0845853
-0.174629
0.171541
-0.40979
0.0539931
0.124437
-0.353532
-0.0985387
0.0783143
0.286164
-0.194921
0.0989524
-0.12162
0.366936
-0.377031
-0.0477005
-0.255274
0.0456829
0.378279
0.3616
-0.07392
-0.219703
-0.243711
0.30118
-0.330652
0.211648
0.130585
1.37441
-0.217446
-0.327909
-0.372657
0.419144
-0.136757
0.344138
0.298136
-0.60066
0.287922
0.325786
-0.19432
-0.214908
0.441072
-0.0538066
-0.390621
-0.516358
0.155334
0.0132963
0.396756
0.131738
0.369594
-0.124498
-0.551258
0.182225
-0.146807
-0.320162
-0.499992
0.0651681
-0.45592
-0.305629
-0.321448
0.0616162
0.103156
0.245067
0.17145
0.272804
-0.0436062
0.350535
0.174813
-0.854389
0.255043
-0.323555
-0.289067
0.372331
0.283257
-0.298541
0.258269
0.398839
-0.0332031
-0.49676
-0.122719
0.161024
0.237832
-0.408535
-0.416309
0.386913
0.190037
-0.0275734
0.041466
-0.227901
-0.289581
0.374232
-0.170706
-0.737117
0.170284
0.481865
-0.200021
-0.423494
-0.191247
0.00686756
0.476987
-0.4405
0.308281
0.135667
-0.515144
0.00934224
0.319997
-0.111301
-0.177239
-0.337345
-0.435154
-0.216416
-0.123034
0.201586
0.313178
-0.266932
0.46107
0.190283
0.206706
0.0661325
-0.502051
0.0982702
0.448436
0.0525095
-0.413912
-0.365571
0.326425
-0.0723406
-0.00686496
-0.390648
-0.162241
-0.285824
-0.305069
-0.247693
-0.229687
0.0368481
-0.369829
0.123652
-0.462717
0.17232
0.365765
0.264489
0.360086
-0.251013
-0.437214
-0.255084
0.0615606
0.0190976
0.409647
-0.123619
-0.303436
-0.290771
-0.435111
0.036525
-0.431726
-0.426686
0.278155
0.201923
0.104639
0.379212
-0.206845
0.282832
-0.592766
0.218221
-0.048279
-0.0771549
-0.89551
-0.636413
-0.465263
-0.366243
0.307636
-0.378474
0.0253223
-0.197907
-0.308136
-0.000942684
-0.185503
0.151812
0.23388
-0.109716
0.0905606
0.0126218
0.438004
-0.0279632
-0.326354
0.312545
0.213531
-0.289927
0.263056
-0.756485
0.153659
0.00626218
0.373356
0.168186
-0.280348
0.249569
-0.289664
0.852964
-0.0719417
0.313862
-0.0231934
-0.0293944
-0.101909
0.312312
0.0507583
-0.0693339
-0.105445
-0.0503845
0.158926
0.164131
-0.404665
0.0621156
0.164341
0.0839381
-0.153406
0.0805224
-0.451384
-0.0376178
-0.35248
0.347965
0.216371
1.81193
-0.498366
0.50792
-0.294062
-0.0433742
0.197914
0.235661
-0.196332
0.46031
0.170332
0.140124
-0.146348
-0.0593995
-0.018787
0.116294
-0.0100132
0.165987
-0.300551
-0.353281
0.168856
0.0114075
-0.472772
0.197748
-0.10138
-0.256597
0.247853
0.311287
-0.071716
-0.208027
-0.106468
0.148141
-0.183725
-1.18928
0.0511812
-0.366821
-0.258904
0.369687
-0.345504
0.292918
0.292056
-0.806005
-0.268489
0.344608
-0.304215
-0.376221
0.176618
-0.0591805
0.302014
0.206327
0.0653488
-0.0804883
0.474097
-0.274066
-0.350892
0.349798
0.375808
0.00238067
-0.141021
0.229892
0.185691
-0.553427
0.00553899
-0.205079
-0.200279
-1.07941
-0.058716
0.173243
0.524828
0.13487
-0.0806481
0.0520855
0.0295284
2.11177
0.104766
-0.0747319
-0.0816689
-0.284025
0.0953434
0.00966021
0.101468
-0.164507
0.233354
-0.0297407
-0.386239
0.221595
0.149768
-0.173885
0.0172143
-0.247384
0.247003
0.00699769
0.00281835
-0.229569
0.183901
-0.228383
-0.211863
3.38306
-0.0151482
-0.110661
-0.10614
-0.182017
0.328158
0.0252535
-0.305848
-0.185233
-0.0114774
0.0753113
0.0181132
0.115031
0.0317722
-0.0732771
0.265652
-0.0811637
-0.155028
-0.0169914
0.0251038
0.0461125
0.326625
-0.0488863
0.00603688
-0.0640051
-0.183807
-0.0798064
0.156911
-0.0947011
0.133519
-0.0838042
0.232231
2.70178
-0.311278
-0.0137673
-0.0966828
0.0635804
-0.00838857
0.123904
-0.159268
1.8195
0.133763
0.0285046
-0.0734027
0.0650502
0.0168069
-0.357677
0.205934
0.0306027
0.0434789
-0.0399158
-0.045741
0.0719784
-0.338567
0.24703
0.0114523
-0.0469445
0.106614
-0.232784
0.048841
-0.294997
-0.211374
0.491051
0.394732
2.47407
0.37039
-0.115708
-0.314171
-0.0369829
-0.119199
0.414603
-0.29003
-0.786874
-0.285411
-0.234991
0.0815385
0.0674511
-0.37111
0.27495
-0.187453
0.362808
0.158652
-0.327228
-0.19835
0.0849138
0.243621
0.0680405
0.0907807
-0.248288
0.362197
0.410587
-0.449579
0.153454
-0.245914
0.039117
-0.760734
-2.11561
0.22649
-0.456992
-0.269618
0.102375
-0.103364
-0.0696927
-0.0285358
1.7638
0.0877328
-0.0057167
-0.144692
-0.0746627
0.0884483
-0.0190927
-0.117082
0.149003
-0.159835
0.0585301
0.217847
-0.0829317
0.12139
0.226857
-0.070038
0.111687
-0.0227578
0.201767
-0.0398282
0.0453291
-0.0448392
0.0348902
0.329007
4.03274
-0.341321
-0.114622
0.248221
0.0687976
-0.105627
-0.104825
0.312051
-0.165002
-0.0973757
0.0894371
0.0661159
0.0408746
-0.105313
-0.1967
-0.183674
0.466306
-0.484054
0.0630776
-0.284136
0.0156398
0.0344831
0.0480336
-0.150371
0.140932
-0.398936
-0.153578
0.168851
-0.217742
-0.0251826
-0.123087
-0.373291
1.26173
-0.119611
-0.0295969
-0.243015
-0.394953
0.389844
-0.298137
-0.044202
-0.587382
-0.712974
-0.412802
-0.119123
-0.264997
-0.270815
0.410198
-0.143451
-0.12564
0.313607
0.0878543
-0.224718
0.339623
-0.00780686
-0.0796253
-0.13114
0.142155
-0.117989
-0.101881
0.170286
0.2184
0.241308
0.164819
-0.0858346
-1.27143
0.0708979
0.0168088
0.263298
-0.179264
-0.00486423
0.184023
-0.045725
-0.65571
-0.293136
0.227698
-0.306189
-0.25411
0.120362
0.162757
0.0930162
-0.321687
0.236467
-0.289674
0.0894978
0.123063
-0.234701
-0.45618
-0.184475
0.322836
-0.16697
0.238448
-0.0961492
0.226728
0.19642
-0.162735
-0.31411
-1.41097
-0.426197
-0.157822
0.315638
0.1427
0.0324673
-0.282447
0.441127
0.823175
-0.331941
0.00136814
-0.147546
0.296849
0.1436
-0.261117
-0.0503348
0.288099
-0.238419
0.0397219
0.0708475
-0.48037
0.041889
0.128155
0.393517
0.179643
-0.264253
-0.454895
-0.360141
0.0182081
0.190445
0.308784
-0.0111362
-0.539241
0.440327
0.263649
-0.30947
-0.247832
0.306643
0.130021
-0.180141
-0.946017
-0.0177642
0.0822328
0.00343103
-0.0208225
-0.25053
-0.143302
-0.139601
0.175257
0.235602
-0.0779439
-0.149686
0.393289
-0.24792
0.310365
-0.121286
-0.134187
0.244642
0.201536
-0.207779
0.285471
0.316922
-0.502311
-0.527616
-1.28925
0.0746513
-0.137995
-0.0157925
0.31574
-0.0540854
0.415874
0.102413
0.163577
0.518731
0.546573
-0.290651
0.170393
-0.24925
-0.0890352
0.157006
-0.503869
0.180276
0.360467
-0.282704
0.137004
-0.226744
-0.473878
0.306841
0.284061
-0.25338
-0.0366654
-0.441456
0.38758
0.316053
0.512799
-0.315971
0.557396
0.0809538
0.362445
-0.155802
0.538959
0.440887
0.246162
-0.126141
0.501036
0.0996839
0.0953606
0.0236516
-0.00852662
0.159697
-0.2955
-0.116686
-0.0793358
0.455638
0.307195
0.043091
0.552891
-0.323143
-0.341755
0.338813
0.0962841
0.125481
0.359467
0.330705
0.34013
0.0202204
0.215996
0.142459
0.444491
0.668622
0.414284
1.0677
0.717418
0.0960203
0.317581
0.084458
0.38337
0.636226
0.531525
0.649281
-0.174282
-0.453174
1.43666
0.678926
-0.0373094
0.234943
0.207474
-0.206386
0.735092
0.358386
0.665928
0.310156
0.311409
1.13729
1.17453
1.30989
0.1528
1.6496
0.990282
0.0104766
-0.00422668
0.728676
-0.174704
0.180674
0.446143
0.125213
0.447346
0.0839096
0.13831
0.437407
0.356122
0.337828
0.246632
-0.142962
0.150369
0.0357439
0.405598
-0.389556
0.0478045
-0.0522351
0.407631
0.0158742
0.0638969
0.331314
-0.176421
0.114403
0.244495
0.0165678
-0.138427
-0.0485702
0.190957
-0.0988223
0.28504
-0.176305
0.19998
0.453899
0.13412
-0.241549
-0.163691
-0.351727
-0.127801
0.118259
-0.33562
0.110548
0.167958
-0.111301
-0.0916016
-0.0853475
-0.195133
-0.309245
-0.313383
-0.373788
-0.0609213
0.424291
-0.184572
0.265513
0.261616
-0.0392481
-0.282791
-0.232621
-0.520583
-0.0893626
-0.530416
-0.166213
0.116832
-0.43018
-0.0954653
-0.185872
-0.508013
-0.213239
0.495803
0.0164355
0.234298
-0.189224
-0.203884
-0.336194
0.459696
-0.173855
-0.0205317
-0.418304
0.503633
0.238381
-0.294432
0.218852
0.513159
0.414111
0.503131
0.388595
0.442242
0.28123
0.100185
-0.46173
0.235613
0.28723
-0.103711
0.210607
0.1956
0.439363
0.0368314
0.253504
-0.0657103
0.38544
-0.289439
0.106378
-0.30369
0.276581
-0.159191
0.191666
-0.0976487
0.198577
0.0549001
-0.663236
0.416392
-0.264124
-0.564418
-0.25871
-0.555886
-0.146912
-0.705307
-0.258426
-0.483676
-0.211717
0.538476
0.171663
-0.672312
0.482197
-1.14655
-0.00176693
-0.0882001
-0.16463
-0.336889
-0.546062
-0.552138
0.627761
-0.0901057
-0.231577
0.403177
-0.231391
-0.38495
0.0478697
0.123045
-0.432826
-0.24417
0.150652
0.150972
0.218894
0.128083
-0.645295
-0.256238
-0.150045
0.466539
0.357197
0.0919526
-0.291504
-0.327699
-0.100044
-0.663845
0.154641
-0.85557
-0.105684
-0.198515
0.276971
-0.437569
-0.214044
0.273695
-0.224911
0.371969
0.313176
-0.306091
-0.057619
-0.442729
0.4466
0.255434
-0.331759
0.303747
0.0672331
0.0246385
-0.37261
0.332447
0.0646868
-0.0682569
-0.375454
-0.291794
-0.11041
0.0119171
-0.521102
-0.329728
-0.219744
0.1433
0.0735107
0.212317
-0.0786666
0.197818
-0.331361
-0.370295
0.339637
-0.422235
-0.218531
-0.22352
-0.378149
0.016177
-0.412122
-0.176037
0.333217
0.251707
0.00525099
0.104143
0.431286
0.120223
0.473726
-0.360422
-0.151741
0.706351
0.234163
0.484728
0.456535
0.055139
0.29622
0.193423
-0.190926
0.495461
0.433632
-0.321422
-0.0683778
-0.183368
-0.371268
-0.173202
0.159323
0.202668
0.247451
0.210324
0.231963
0.277492
-0.0533704
0.0426954
0.492472
0.0172305
-0.100892
0.0131944
-0.0481669
-0.0704055
-0.587248
-0.12603
0.308051
0.191682
-0.320294
0.103532
-0.367976
0.300305
0.329353
0.17016
0.314137
0.0810902
-0.290152
0.176588
0.387769
-0.264498
0.603778
-0.379097
0.369588
-0.752658
0.526449
-0.445848
-0.249189
-0.34065
-0.493785
0.0415271
0.283157
0.329279
-0.0322618
0.124418
0.406794
0.346034
-0.328988
0.149309
-0.0943784
0.243992
0.468951
0.366264
0.234547
-0.421564
-0.170375
-0.219136
-0.354559
-0.387632
-0.159376
0.408743
-0.0998387
-0.00551924
0.417599
-0.157087
0.429227
0.465853
0.271352
0.309434
0.24219
0.268203
0.102619
-0.433958
-0.227382
0.261825
0.640223
-0.0293298
0.4119
0.483352
-0.134606
0.168932
-0.282706
-0.10455
0.0158172
0.390103
0.46212
0.373201
-0.33299
0.605772
0.346359
-0.357152
-0.0766576
0.079405
0.302331
-0.0868825
0.0265848
-0.334568
-0.245911
0.274904
0.0573835
0.202603
0.0812928
0.505341
-0.403866
-0.340656
0.435392
0.446821
0.158382
-0.329521
0.392393
0.23742
-0.418207
-0.189888
0.402704
0.281073
0.0241203
0.215531
-0.512405
-0.629333
-0.00391331
0.268395
-0.528371
-0.24444
-0.222933
-0.189689
-0.243289
0.308159
-0.159452
-0.0961616
0.0714615
0.521872
-0.152889
-0.0180549
0.176102
-0.220426
-0.280627
-0.308821
0.00222733
0.0130864
0.018726
-0.0904342
0.25896
-0.0270722
-0.430101
-0.073271
-0.404689
0.145907
0.404021
-0.167193
-0.0409748
-0.460763
-0.0549598
0.454369
0.0728178
0.440057
0.27975
0.271722
-0.377111
-0.225399
0.119802
0.369706
0.204389
-0.145357
0.879777
0.0715386
0.810711
-0.163185
0.799462
0.206795
0.130836
-0.293355
0.191164
-0.107308
0.0914929
-0.0627058
0.0138888
-0.0770907
-0.104355
-0.304258
-0.236373
0.355916
-0.1429
0.165211
0.685486
-0.0252028
-0.209205
-0.264292
0.143065
0.0411184
-0.27164
0.0422265
-0.295473
-0.443062
-0.359827
-0.517362
-0.422113
0.275259
0.372728
0.0990402
0.316863
-0.301019
-0.26271
-0.175252
0.718146
0.215017
0.256102
-0.220537
0.147826
-0.32779
-0.449362
-0.164228
-0.04376
-0.189818
0.0161137
-0.191467
-0.465658
-0.382786
-0.473327
-0.242244
-0.337736
0.00175609
0.0926098
-0.572084
-0.0848162
0.0108942
-0.332692
-0.330551
0.22956
-0.604654
-0.598567
-0.181601
-0.478203
0.330795
-0.0783354
0.102545
0.197981
0.340415
0.241464
0.251155
-0.294141
0.506646
-0.394459
0.411458
-0.442868
0.050369
-0.284984
0.348969
0.493027
-0.00243831
-0.0828586
-0.130486
-0.197888
0.0631751
-0.498787
-0.0569755
0.149756
0.0938639
0.34535
0.402536
-0.226405
-0.335241
-0.16891
0.464757
-0.0149844
-0.448531
0.150516
0.00152883
-0.120309
-0.328411
-0.261005
0.218002
0.240069
0.524886
-0.588839
-0.234218
-0.262188
-0.274888
-0.133872
-0.384855
0.213139
-0.0305953
-0.859335
-0.196502
-0.212386
0.290416
-0.160239
-0.629774
-0.547915
-0.152499
-0.272204
-0.199573
0.168473
-0.0631677
0.1402
-0.460943
-0.0953541
-0.499372
-0.201905
-0.456919
-0.0170304
-0.0618629
-0.362614
0.384739
0.332781
-0.433254
0.223876
-0.22224
-0.100314
0.0776918
-0.0521908
-0.0363471
0.20132
0.207561
-0.107408
0.0852654
0.472531
-0.174943
-0.336479
-0.416596
0.116777
-0.174661
0.0974649
-0.281575
0.103569
0.252774
-0.270472
-0.0576858
-0.453133
-0.391085
-0.590467
-0.311699
-0.535567
-0.113631
0.103096
0.365859
-0.068443
0.135376
0.37768
-0.0221496
0.230323
-0.279826
0.50058
-0.195693
0.38981
-0.362248
0.351326
0.188449
-0.297204
-0.246272
-0.528902
0.467148
0.305307
0.0646636
-0.399499
-0.463513
0.183917
0.327244
0.402189
-0.422155
0.350633
0.226869
0.296017
-0.163731
-0.450527
0.27972
0.333335
-0.152312
-0.0895959
0.0757877
0.424513
-0.372369
0.158718
0.398125
0.548591
-0.260754
-0.345686
-0.195037
0.123909
0.247708
0.0994973
0.310131
0.284895
0.0931751
0.19991
-0.132904
0.401967
-0.336058
-0.464362
-0.314636
0.281329
0.147401
-0.2329
-0.226781
0.148353
0.511261
0.211124
-0.222113
-0.124643
0.495216
-0.0218667
-0.200942
-0.58919
-0.441376
-0.0113902
0.349072
0.835602
0.232082
0.30472
0.870942
-0.0321963
0.800366
0.124696
-0.180951
0.620371
0.0484341
-0.0195872
0.518671
0.201639
0.180416
0.183959
-0.0578925
0.484839
0.346288
0.0711013
0.531234
0.0343702
0.308124
1.19325
0.725037
0.553192
0.496668
1.10766
0.246311
-0.125113
-0.442569
0.421036
-0.174311
0.43234
-0.358556
0.464087
0.346655
-0.131074
0.0930794
0.00905289
0.323658
-0.21349
-0.327914
0.339859
-0.2007
0.0513914
0.521264
-0.18964
0.582404
-0.249945
-0.0909869
0.129379
0.395833
-0.132316
-0.465101
0.655267
0.0683578
-0.485019
0.0846742
0.279553
0.0571426
-0.0972734
-0.254045
0.291028
0.4287
0.0528914
0.0565643
-0.446447
-0.515952
-0.484167
-0.161532
-0.260153
-0.237796
-0.124683
-0.225365
0.325992
0.149542
0.182215
-0.549236
0.119423
-0.0369931
-0.280314
0.273046
-0.308857
0.0833674
-0.488586
-0.0934492
0.264655
0.291763
0.104325
-0.167063
0.300173
-0.364976
-0.347529
-0.514731
-0.405167
-0.344554
-0.416398
-0.32344
-0.625572
-0.0391126
0.185088
-0.424
-0.0562071
-0.447448
-0.186247
-0.240662
0.207687
-0.411595
-0.119222
-0.0346413
0.444474
-0.00808185
0.186625
0.252609
0.132853
-0.350438
-0.00582155
-0.015058
-0.36646
0.403291
-0.161027
-0.574726
0.260515
-0.37261
0.271583
-0.201967
0.287733
0.20282
0.0206606
-0.297836
-0.127346
-0.31794
-0.447559
0.460371
0.33641
0.0041941
0.332249
0.274094
0.121787
-0.0613904
-0.350816
0.416192
0.290672
-0.532112
-0.165561
-0.442397
-0.0163282
0.251893
0.0711225
0.362867
0.606397
-0.260268
0.231164
0.252683
-0.829139
-0.621556
-0.152379
0.62889
-1.34209
-0.465185
-0.0778356
0.590431
0.217295
0.572494
-0.175366
-0.449935
-0.380438
-0.289359
-0.171639
0.568266
0.446318
-0.365945
-0.529871
0.300251
0.207267
0.103864
0.483824
0.253942
0.308264
-0.0308459
0.350722
0.387986
-0.401629
0.492868
0.0161757
0.229062
-0.424234
0.192598
-0.34296
-0.0324996
-0.06734
0.643153
0.497713
0.0362482
0.193773
-0.452013
-0.159736
0.397085
0.297047
0.320597
-0.400442
-0.116842
-0.311808
-0.388154
0.34388
0.214466
-0.638353
0.0667101
-0.215834
-0.518996
0.0303032
-0.373072
-0.247212
0.16983
0.0849096
-0.273931
-0.179311
0.000840632
0.288263
-0.183319
0.083674
-0.833864
-0.355484
-0.618988
0.0458027
-0.233693
-0.142187
-0.0842633
-0.148672
-0.077453
0.26389
-0.173309
0.116775
-0.0728785
-0.432954
-0.19355
0.132293
0.280544
0.237531
-0.171982
-0.358901
0.562973
-0.0637415
-0.216432
-0.337551
-0.228277
-0.109231
-0.290104
-0.251647
-0.280152
-0.324663
0.262062
-0.100141
-0.893725
-0.0957497
0.23498
0.283914
-0.920488
0.269547
0.262408
0.558351
0.180635
-0.126245
0.387605
-0.348636
-0.165344
0.342331
-0.054135
-0.232433
-0.488118
-0.276839
-0.415252
-0.170314
0.306995
0.194897
-0.414286
0.292107
0.363278
-0.474428
0.392737
0.336754
0.337715
-0.467548
-0.148895
0.168369
0.190496
-0.127739
0.32282
0.0640621
0.0173195
0.261158
0.420085
0.394538
-0.268474
-0.1882
-0.0029726
-0.419734
0.616577
0.300509
-0.71123
0.217162
0.0435512
-0.225895
-0.429829
-0.495635
1.01587
-0.620917
-0.355741
0.5025
-0.324978
0.55429
0.125
-0.243731
-0.317614
0.0531429
-0.659888
0.185209
-0.660128
-0.0907533
1.43524
0.971612
1.15078
-0.53637
1.65901
0.719307
-0.838477
-0.511188
-0.286896
-0.2525
0.298323
-0.379634
0.0756273
0.234314
0.170568
0.0944081
-0.188341
-0.0985462
0.384862
-0.487756
-0.344221
0.321368
0.362907
-0.401347
0.436882
0.165852
0.0101232
-0.0624491
-0.0457901
-0.0461968
0.116048
-0.234956
0.0680665
-0.801736
-0.186519
-0.766632
-0.207658
-0.962104
-0.31466
-0.161934
0.312973
0.241829
0.0283563
0.033993
0.222943
-1.29878
0.429554
0.241592
0.284935
1.2314
0.296273
-0.145571
0.610475
0.322668
0.00252607
0.234685
-0.0124322
-0.0523047
-0.432723
0.127719
-0.159759
0.472477
-0.0482942
-0.150776
0.488222
-0.421551
0.149783
0.32573
0.22056
0.157535
-0.00425191
0.711088
-0.0347125
0.183498
-1.11695
0.192956
