#input normalization
0.161113 0.275362
48.4498 58.6264
8.93256 34.2523
7.51991 30.2977
0.0102834 0.0427595
0.00829343 0.0344432
0.564818 1.48093
0.795869 1.50863
1.10038 1.73119
1.41277 1.97868
1.75552 2.22052
2.08751 2.45795
2.40622 2.68133
2.72523 2.88225
3.03084 3.05648
3.31412 3.186
3.58281 3.27987
3.83858 3.35045
4.07283 3.38738
4.2536 3.37307
4.41487 3.3303
4.55369 3.25422
4.6588 3.16101
4.72377 3.04432
4.77511 2.90357
4.77398 2.73202
37.2451 49.5352
7243.21 4702.56
#output normalization
1 0
#neurons weights
0.290809
0.36314
0.143356
-0.45325
0.169669
-0.00718828
-0.298662
-0.324849
0.304661
-0.105579
-0.22519
0.444503
-0.392377
0.0834601
-0.16845
-0.277112
-0.021778
0.117984
-0.3652
0.143249
-0.341742
0.287173
0.307811
-0.0179943
-0.319317
0.0404534
0.0190478
-0.377955
0.298103
0.270049
0.49973
-1.16863
-0.367455
0.512712
-0.401205
-0.479083
0.676069
-0.27176
-0.486044
-1.33318
-0.1603
-0.0719152
-0.549321
0.601665
-0.169748
0.288259
-0.662263
0.0558171
0.111904
-1.4054
0.691152
-0.240254
0.24062
-0.156618
0.795191
-0.249966
0.620067
0.517208
-0.224052
-0.521784
-0.619717
0.326795
0.541044
0.157533
-0.130798
-0.0701108
0.00292586
0.124821
-0.0311828
-0.0581422
-0.501018
-0.16091
-0.453509
0.279567
0.143823
0.37223
0.0238094
0.0527107
-0.489913
-0.100715
0.199322
0.364505
-0.229808
0.124382
-0.511292
-0.284441
#synapses weights
-0.264657
-0.519943
0.0144441
0.286797
0.256497
-0.441748
1.04951
0.017711
0.0413468
0.00397932
-0.00898572
-0.154078
0.411725
-0.405596
0.12835
0.305705
0.310631
0.341587
0.0338753
0.0963827
-0.284801
0.201214
-0.14401
-0.316827
-0.471122
0.532147
0.0325464
1.14311
0.0364873
0.233256
0.314409
0.0142604
-0.0518927
0.0474929
-0.284529
0.0694619
-0.121061
-0.0424788
-0.149063
0.170453
0.244013
0.0624426
-0.175054
0.259064
-0.415155
-0.264502
0.40927
-0.113234
-0.0805008
0.214567
-0.319274
-0.194683
0.348162
-0.0025523
-0.216755
2.09125
-0.226223
-0.44917
-0.205952
-0.316031
0.0446499
0.0247281
-0.209215
0.194587
-0.638027
0.0116236
-0.10626
-0.196428
-0.252573
-0.182735
0.300409
-0.3991
0.256064
0.174778
0.0785619
0.226929
0.035214
-0.49065
-0.689465
0.0106608
-0.328865
0.218649
0.464179
0.0526873
0.16509
-0.340447
0.107315
-0.19696
-0.243435
-0.0143938
-1.21515
-0.0371872
0.0564073
-0.167098
-0.0396987
-0.151022
0.335687
-0.0633234
-0.0980151
-0.0434045
-0.0751632
0.196982
0.286071
0.461422
-0.461179
-0.156391
0.159552
0.296527
-0.0528708
0.271532
-0.232705
-2.74998
-0.306597
-0.359361
0.325122
-0.163358
0.405764
-0.44304
0.233621
0.146221
-0.371747
-0.420943
0.0484572
-0.0921467
0.251751
-0.0674715
-0.0804941
-0.0124936
-0.0856292
0.500642
-0.0368291
-0.177943
-0.176066
-0.341957
-0.353176
0.0596919
0.134597
0.155856
0.412612
-0.252667
-0.187532
0.454258
0.0178805
0.0337039
-0.0828432
0.0899383
0.650282
0.261106
-0.0276643
0.191151
0.132286
-0.361409
0.282873
-0.0895553
-0.052175
-0.0266359
0.171719
-0.385878
0.00474021
-0.101967
0.324142
0.00140558
-0.102456
0.175932
-0.325991
-0.155248
0.423878
1.09214
-0.189385
0.324255
0.224341
-0.377467
0.0809836
-0.2909
0.483848
-0.115564
-0.168975
0.0265787
-0.194511
0.290191
-0.387918
0.314392
0.15591
-0.0621341
0.128906
0.219895
0.377235
0.0757191
-0.377215
0.26537
-0.398821
-0.219961
0.315297
-0.30845
-0.546712
-0.480325
-0.0386152
0.397251
-0.0341247
0.542958
0.514024
-0.0482246
0.286901
-0.210589
-0.255873
0.267755
0.00483186
-0.182723
-0.0834268
0.424952
-0.492783
0.282279
0.224229
0.0811037
0.390537
0.282077
0.277686
0.134113
-0.00182497
-0.184873
-0.447747
-0.106938
-0.159299
-0.478188
-0.161189
0.191175
0.258827
0.0856045
-0.145694
0.24822
1.07658
0.112555
0.0169791
-0.0523214
0.0128108
0.202956
0.0589415
-0.0128098
-0.0650563
0.221955
0.157635
-0.331272
0.00344061
0.281505
0.376689
-0.46998
0.172377
-0.334792
0.224461
0.0662107
0.365256
1.63439
0.302518
-0.366868
-0.224773
-0.348923
0.0463912
-0.315075
-0.353594
0.223014
0.225585
0.0366009
-0.25103
-0.368356
-0.372961
0.471942
-0.080967
0.39178
-0.0257199
0.365258
-0.24431
-0.246618
-0.41472
0.37186
-0.313798
0.00306122
0.299586
-0.342732
0.378102
0.88901
-0.498172
0.211343
-0.530163
-0.105506
-0.353816
0.234361
-0.476308
0.030196
0.135549
0.287394
0.246891
-0.393521
0.213074
-0.24779
0.042629
0.096448
0.265064
-0.165754
0.172759
0.276486
-0.533068
0.156845
0.0417144
0.130138
-0.344172
-0.254097
0.0945191
0.193813
-0.0462927
0.298724
-0.0987125
0.120657
0.015696
-0.124676
-2.06998
0.267227
0.116277
0.119374
0.191969
-0.152755
-0.188912
-0.000533648
0.0481064
0.10038
0.1222
-0.000617056
-0.164485
0.024137
0.464646
0.0235916
0.308232
-0.149229
0.143311
0.163239
-0.209685
-2.61627
-0.271456
0.289788
-0.404867
-0.140905
0.147915
0.0286921
0.26639
-0.623428
0.294682
-0.102155
0.0517089
-0.17943
-0.171788
-0.155534
0.152533
-0.259293
-0.506542
-0.35636
-0.526274
-0.475835
0.110906
0.28325
0.428416
0.386037
0.0558646
0.0519533
-0.0192577
-0.0513166
0.140148
0.300448
-0.254193
-0.285657
-0.296302
0.353381
-0.318393
-0.269617
-0.369936
0.0135574
-0.27099
-0.379526
0.292882
-0.359185
-0.391552
-0.00221461
-0.0172716
0.403321
-0.209736
0.37772
0.365323
0.037778
-0.199872
0.369085
-0.229882
-0.0835347
-0.460453
0.689778
0.264475
-0.252515
-0.227102
-0.366611
-0.365771
0.266063
1.13895
-0.183386
-0.325352
0.108474
-0.0143086
-0.199212
0.0264063
-0.157965
0.287552
0.148497
-0.313786
-0.0518328
-0.215193
0.0129058
0.058489
-0.368942
-0.24045
0.328927
0.0237744
0.204493
0.765224
0.326657
-0.248341
-0.238573
-0.161229
-0.161896
-0.0577644
0.15106
-0.329886
0.217559
-0.419119
0.231515
-0.183104
-0.0344795
-0.0438047
-0.0904589
0.0423383
-0.0612855
-0.124839
0.135585
-0.0555294
0.182313
-0.169072
0.215805
0.0171008
-0.438032
-0.0775836
-0.0648737
0.235269
1.42004
0.00562272
-0.438701
-0.311185
0.446426
-0.278221
0.294455
-0.377257
-0.145878
-0.289696
0.498177
-0.256146
0.150609
-0.380282
-0.328196
-0.236265
0.381883
0.350972
-0.317047
-0.270313
-0.2687
0.0505561
0.101703
-0.366868
0.351799
-0.347658
0.0915212
0.548214
-0.138694
-0.152307
0.191521
-0.217346
0.445112
-0.279622
-0.231301
-0.525541
-0.111856
-0.0500281
-0.35452
-0.145935
-0.43881
-0.0203942
0.408596
0.259458
-0.0125613
0.413302
-0.0092796
-0.276407
0.431574
0.0911223
0.479276
-0.457745
-0.112962
0.227883
0.329505
0.0428165
-0.465009
-0.289484
0.395684
0.132128
-0.0342537
-0.188654
0.222489
-0.734295
0.258775
-0.262722
-0.197653
-0.168099
-0.130898
-0.127877
0.198199
-0.128577
-0.0764859
0.160583
-0.326187
0.0337103
0.231841
-0.151353
-0.0341046
0.0494732
-0.280455
-0.106963
-0.088731
0.441203
-0.363441
-0.131021
-0.397125
-0.366428
0.0563318
0.171456
-0.0560624
0.863241
0.163867
0.137373
0.174816
0.0126583
0.214369
-0.255339
0.0262886
-0.109789
0.00629876
-0.259424
-0.211787
0.0307633
0.342158
-0.0928638
0.447365
-0.27909
-0.178701
-0.122162
0.464446
0.415101
1.02511
0.27567
0.201284
-0.202164
-0.0492915
0.0296946
0.0299728
0.507615
-0.14523
-0.0352961
-0.206853
0.211139
-0.0047296
-0.195126
0.117812
-0.0794965
0.170461
-0.0324962
-0.00693715
0.277891
-0.2815
0.0319996
-0.474946
-0.360188
0.267931
0.292994
-0.237604
0.0494542
1.28383
0.228623
-0.107719
0.0902581
-0.0256418
0.046258
-0.145206
-0.789305
-0.111032
-0.0844932
0.0526651
-0.0774393
-0.00986261
-0.122677
0.183624
-0.147229
-0.0935508
0.103805
0.169415
0.0619181
-0.210297
0.125931
0.0634448
-0.0145186
0.180625
0.447479
-0.44131
0.138856
-3.38237
0.335471
0.155296
-0.0362087
-0.103389
0.00282805
0.108263
0.134962
-0.118074
0.248517
-0.0863989
0.209619
-0.000854374
-0.289041
0.183623
-0.0587213
-0.227881
0.19054
-0.544408
0.314158
0.115473
0.119325
0.0981805
-0.0120707
0.349085
0.0255321
-0.217198
-0.568429
2.72458
-0.122147
0.0991097
0.0197151
-0.142102
0.353631
0.136331
-0.854547
0.0423021
0.0960583
0.24019
-0.0589826
0.0819865
-0.0763608
0.0840416
0.0678037
0.200132
-0.176856
0.124366
-0.0416662
0.0339285
-0.45494
-0.375188
-0.169821
0.27364
-0.303994
0.431805
-0.230863
-0.62276
0.148823
0.376944
-0.254072
-0.296697
0.387377
0.256922
-1.09599
-0.151189
-0.360952
0.260558
0.524456
-0.00237595
-0.354363
0.0958184
-0.0209913
0.189253
-0.292645
0.169652
-0.20849
0.307303
0.148103
-0.0752562
-0.49892
-0.0830032
0.123556
-0.549508
-0.459134
-0.887
-0.0737701
-0.0128921
-0.0337484
0.325219
-0.26155
0.345624
-0.0632105
0.173852
0.47976
0.144031
0.20614
-0.445983
-0.00858439
-0.108092
0.407967
0.32012
0.508538
-0.257211
0.436926
0.393765
-0.320711
0.289673
-0.233469
-0.234533
-0.0392685
0.154366
0.0686841
0.19996
-0.166916
-0.328037
-0.199264
0.008527
0.152459
-0.0324259
0.597205
0.0130303
-0.159133
0.221517
0.168031
-0.290743
0.154421
0.040896
-0.162402
0.0179809
0.149204
0.114554
0.0843989
-0.0877417
0.0612916
-0.388755
0.214433
-0.0520725
0.311357
-0.106302
0.186206
2.19721
-0.0958219
-0.118771
-0.294149
0.257258
-0.00210692
0.1995
-0.362587
0.328148
-0.345084
0.245675
-0.180936
0.193374
-0.182808
0.211013
-0.44313
-0.0595544
-0.0812721
-0.11141
-0.360577
0.484053
-0.114986
-0.163237
0.40601
0.561367
0.513295
0.233168
-0.289632
0.431227
-0.168873
-0.0832926
-0.200491
0.184147
0.356084
-0.455739
-0.607832
-0.195146
-0.262827
-0.40381
0.0358351
0.090629
-0.178359
0.406278
0.161327
-0.423453
-0.0842057
0.155178
-0.000677379
0.289234
0.185535
-0.0185992
0.347325
0.301481
-0.175517
-0.139528
0.399306
0.485413
0.222245
0.209562
0.144881
-0.331439
0.4084
0.643606
0.318621
-0.258436
-0.156389
-0.0198078
0.379164
0.12872
0.0491544
0.196709
0.0255469
-0.413254
0.0625496
0.384228
0.242735
0.575501
-0.293108
0.456773
-0.200894
-0.3575
-0.239734
-0.376074
0.264395
0.269875
0.149706
0.235381
0.632583
0.446123
0.115872
0.393385
0.0119877
-0.368898
0.26704
0.383091
0.0699015
0.0077235
0.447568
0.406977
-0.282562
-0.0215939
-0.0114782
-0.465819
0.39062
0.0885803
0.0871951
0.151595
-0.174657
0.632186
-0.111229
0.00208167
0.292963
-0.494455
-0.196773
-0.281807
-0.299157
0.269671
-0.472395
-0.368781
0.376852
-0.0792853
-0.238077
-0.400099
0.0922352
-0.00409618
-0.411081
-0.183043
-0.216594
-0.248368
-0.299562
-0.644819
-0.436637
0.157432
-0.421097
-0.0408738
0.031793
0.0187135
-0.551635
-0.332471
-0.222266
-0.389447
-0.128687
-0.318883
0.0317431
0.208871
-0.0514443
0.2075
0.322241
-0.0741922
-0.141783
-0.372537
0.177999
0.129655
0.291106
0.237919
0.202708
-0.29169
0.206299
0.0292701
-0.255782
0.0436278
-0.0477118
0.0442375
-0.198923
0.321512
0.242772
-0.168656
0.135493
-0.177065
-0.458577
-0.455306
-0.33668
-0.542195
0.630193
0.440582
0.17335
-0.548173
-0.0704547
0.235824
0.0548549
-0.301875
0.460199
0.0729913
0.0151486
-0.18562
0.60365
0.0447705
0.534688
0.182074
-0.19548
0.258167
-0.153398
0.557461
0.26046
0.0751904
0.560677
0.224303
-0.448003
0.210517
0.234462
-0.191825
0.106748
0.0480068
-0.0326998
0.496657
0.174967
0.422051
-0.244483
0.290891
0.478713
0.347275
-0.18474
-0.228288
0.647892
-0.138221
0.217731
0.106042
-0.326009
-0.069902
-0.400211
-0.194049
0.134266
0.0863821
0.531612
0.122224
-0.323741
-0.0967994
0.278171
0.403827
-0.0696197
0.133146
-0.333309
-0.0455756
-0.387894
-0.452271
-0.332451
-0.384478
0.305986
-0.0503377
-0.239497
-0.107574
0.422384
-0.161825
-0.384711
0.00543419
0.0224199
0.382949
0.252713
0.483039
-0.448897
-0.390221
0.13155
-0.145741
0.470979
0.462163
0.579473
-0.172056
0.159544
-0.236869
0.333704
-0.476472
-0.392341
-0.332187
-0.445545
-0.0524122
0.354387
0.152307
0.290918
-0.517734
-0.0713603
-0.0352907
-0.447578
0.0998887
0.367339
-0.289871
-0.283886
0.237415
-0.504931
0.0822587
-0.168319
-0.0560885
0.298491
0.0650943
-0.0149815
-0.378289
0.483022
-0.503488
0.0660794
0.12352
-0.37077
0.0453186
-0.182605
0.0816121
-0.450024
-0.232398
0.418648
0.457048
-0.275995
0.184521
-0.40441
0.408808
-0.180092
-0.401463
0.368126
-0.204714
-0.0922203
-0.259416
-0.323093
-0.318954
-0.0419355
0.316399
-0.440457
0.111227
-0.0362304
0.12963
-0.124406
0.244505
-0.329375
-0.395211
-0.116829
0.390047
-0.415113
-0.272062
-0.316012
0.365211
-0.461769
-0.517797
-0.392632
-0.280611
0.251587
0.104828
0.14626
-0.529959
-0.212043
0.138295
0.330963
-0.381036
0.164558
-0.43406
-0.541206
-0.414003
-0.137273
-0.0117585
0.149947
-0.308794
-0.344305
-0.310921
0.0234068
-0.457502
-0.309088
0.105619
-0.149147
-0.0324036
0.000409667
-0.299073
-0.545162
-0.184141
-0.31048
0.245292
-0.136022
0.0853272
-0.470728
-0.150892
0.232784
0.486972
0.0234007
-0.616661
-0.66061
0.692824
-0.384278
0.359342
-0.182242
-0.13204
0.0337164
-0.391671
-0.282445
0.246376
0.328303
-0.300245
0.12943
-0.356253
-0.0401648
0.286241
-0.545868
0.103066
-0.0381221
0.198367
0.127765
-0.221185
0.317619
-0.367865
-0.162645
-0.440018
0.191241
-0.21577
-0.291907
-0.129477
0.351387
-0.265392
-0.488112
-0.00173468
0.125579
0.423809
0.166733
-0.25841
-0.257394
0.368228
0.286743
-0.140675
0.414135
0.110504
-0.255376
-0.189977
-0.341065
-0.327294
0.110218
-0.113514
-0.354212
-0.120416
0.333136
-0.617574
-0.565758
-0.135415
0.285889
0.446793
-0.193033
0.541249
-0.417381
-0.397291
-0.226382
0.255955
-0.458268
-0.0352199
-0.030516
-0.471101
0.0101018
-0.0513837
-0.114468
-0.251664
0.319804
0.0697994
0.296859
-0.155799
-0.290097
0.0410592
-0.364629
-0.0674844
-0.240251
-0.151376
-0.439599
0.278029
0.163788
-0.478877
-0.0378667
0.174791
-0.18598
-0.322424
0.303147
0.327641
0.385673
-0.324476
-0.547645
0.169412
0.440224
0.0518695
0.39825
-0.532297
0.428865
0.287339
-0.135102
0.33978
-0.136493
-0.356243
0.029295
0.354933
0.0322287
0.0404299
-0.20548
0.272759
0.4321
0.143689
0.213932
0.310192
-0.099532
0.297972
-0.174401
0.202385
0.155094
-0.241811
0.489723
-0.44014
0.0440201
0.106027
0.203119
-0.36358
-0.214896
-0.339767
0.200367
-0.17851
-0.0639563
-0.073215
0.136778
-0.115669
-0.586504
-0.168558
0.182233
0.390971
0.409202
0.124114
0.0023626
-0.446311
-0.473678
-0.379576
-0.0401443
0.0497026
-0.12169
-0.147976
0.310327
-0.403084
0.318251
-0.282363
0.329755
-0.227049
-0.469649
-0.139463
0.0224647
0.250321
0.265109
-0.0309706
-0.411357
-0.268436
-0.211013
-0.300969
0.182036
0.464969
-0.473231
-0.429102
0.0263942
0.166913
0.313108
-0.644341
-0.435476
-0.635833
-0.0967938
0.236337
0.252181
-0.426961
0.089983
-0.172357
-0.287564
-0.457024
-0.0674549
0.27621
0.370915
-0.412399
0.146391
-0.0756165
-0.0228117
-0.599703
-0.152705
-0.512896
0.0873555
-0.2593
0.122773
-0.365408
-0.40361
-0.416341
0.13428
-0.183501
0.0711738
-0.025146
0.267952
-0.55402
0.351124
0.00510709
-0.108591
0.0763914
-0.266891
-0.0932842
0.0936117
0.289225
0.408646
-0.398159
0.154005
0.337809
-0.155151
0.415903
0.414226
-0.181052
-0.110156
-0.392578
0.485419
0.0954923
0.293821
0.320806
-0.171802
-0.014682
-0.364071
-0.0384913
0.269297
-0.0510547
-0.0318645
-0.17628
0.0195954
0.601715
0.295183
0.257949
-0.173387
-0.473825
-0.233521
-0.397387
0.364798
-0.396604
0.217918
0.451265
0.451183
0.0257537
-0.165526
0.0335073
0.0739143
-0.469257
-0.249644
0.133553
-0.182618
-0.0153895
-0.144952
-0.442022
0.0548176
0.286162
-0.310351
0.0863885
-0.37694
-0.0639451
-0.0660748
0.0742468
0.275656
-0.0749219
-0.0710913
-0.500023
-0.255821
-0.245298
-0.100838
-0.35698
0.250518
0.526822
0.115297
-0.284686
-0.197166
0.286775
-0.533759
-0.116457
-0.389045
-0.258659
0.0948344
-0.351285
0.0301123
-0.10739
0.285953
-0.0603743
0.104471
-0.382357
0.168347
-0.232284
-0.349983
-0.313805
0.273737
-0.654307
-1.13659
-0.283097
1.98787
0.139645
-0.727364
-0.0624255
0.146626
-1.18908
-0.199618
0.328804
1.95787
-0.0768772
-0.443062
-0.607123
-0.632782
-0.00870023
0.342164
0.551108
-0.546202
-0.895637
2.58163
-2.22005
0.720545
0.496867
0.0524636
-1.75626
-0.168835
-0.313147
-0.222195
0.00400336
0.231651
-0.372343
-0.238178
-0.172339
0.139963
-0.0902765
0.037197
0.234694
-0.389129
0.272843
0.274735
-0.116894
-0.0034111
0.142408
0.282555
0.00574113
0.449325
-0.100828
0.00144372
0.52435
-0.0225909
0.322182
0.019191
0.366749
-0.394092
-0.00257775
0.0164714
-0.0698867
-0.0250987
-0.38478
-0.0534017
-0.257221
0.112888
-0.404069
0.00620747
0.141044
-0.277783
0.116852
0.331103
-0.296409
-0.265125
-0.19373
0.0233217
0.0743226
-0.340419
-0.384512
-0.242804
0.271476
-0.459798
0.314827
-0.352396
-0.0530522
-0.340487
-0.314535
0.094737
0.2062
-0.240735
-0.113751
-0.147029
-0.208542
-0.202198
-0.526579
-0.0419932
-0.118575
-0.450263
0.254787
-0.348228
0.335516
-0.275361
-0.210844
0.0942535
-0.318978
-0.39698
0.0808768
0.0129176
-0.520847
-0.0861273
-0.369415
0.291163
-0.0769141
0.204972
-0.294623
-0.0106873
0.128186
-0.495145
0.0476291
0.162638
-0.369995
0.26635
-0.12756
0.0540542
0.131347
-0.352986
0.176657
0.101062
-0.360196
-0.139242
0.0174302
-0.147943
-0.50161
-0.412199
0.291442
-0.209159
-0.37503
-0.487613
0.241881
-0.234777
0.305355
0.235296
-0.442606
-0.221377
0.0409121
-0.335781
-0.392115
-0.0997639
-0.371944
-0.378216
0.315936
0.359527
0.400384
0.265575
-0.225085
-0.151644
-0.0996433
-0.212498
-0.0196639
0.203185
-0.274962
-0.4168
-0.121103
0.210011
0.16805
0.247585
0.107154
0.266646
0.122041
-0.192222
0.0425572
-0.18194
0.131443
-0.122445
0.104529
0.256407
0.219451
-0.742058
0.0425956
-0.276836
0.112624
-0.152067
0.652355
0.562131
-0.333379
-0.638677
-0.354922
-0.0717036
0.253326
-0.405165
0.577015
-0.813571
-0.259805
0.276705
-0.512377
0.233849
-0.17346
-0.477362
-0.358904
-0.5748
-0.228255
-0.0780211
-0.303056
-0.188022
-0.719767
-0.0267835
-0.114214
0.426952
0.113611
0.423889
-0.247703
-0.0401156
0.00617227
0.120387
-0.329824
-0.438664
0.0540878
0.065126
0.0635912
0.0895735
0.0641619
0.236649
-0.0967642
0.0941005
-0.173566
0.147954
1.3697
0.0343132
0.0972674
-0.160706
-0.111913
-0.133478
1.08474
