#input normalization
0.161125 0.272734
27.9287 37.4648
10.2988 34.3209
8.2407 30.319
0.0110476 0.0402642
0.00901466 0.0329023
1 -1
0.823511 1.27769
1.05267 1.47112
1.29982 1.67897
1.57855 1.87949
1.86027 2.06281
2.12999 2.22636
2.39629 2.3791
2.64341 2.50023
2.87854 2.5868
3.10222 2.64749
3.30893 2.68228
3.48879 2.68793
3.62724 2.6498
3.75444 2.5955
3.86786 2.48837
1 -1
1 -1
#output normalization
1 0
#neurons weights
0.261389
-0.187791
0.472051
-0.0203946
0.090199
-0.000331305
0.166609
0.261588
-0.409968
-0.059585
-0.486745
0.335027
0.346769
-0.342335
0.25217
0.394949
-0.0258378
0.0364784
-0.193701
0.149096
-0.411676
-0.0897066
-0.308953
-0.476502
0.130062
-0.228675
-0.372839
-0.399727
-0.0246105
-0.277589
0.170661
-0.871052
0.52537
0.0533926
-0.332212
0.332974
0.18924
0.41497
-0.63497
0.0612716
-0.693585
-0.249095
-0.302569
1.03847
-0.131889
0.428425
-0.120563
-0.0150533
-0.318201
-0.285877
-0.067712
0.128376
0.0352961
0.0174022
0.324314
-0.00706187
0.476777
0.317675
-0.288907
-0.462193
0.280479
-0.245646
0.187988
-0.00421813
0.442047
-0.421495
0.152883
-0.567533
-0.272658
0.0836052
-0.3309
0.517634
0.35924
0.440982
#synapses weights
0.00798399
1.80204
0.0599805
-0.239275
0.282855
-0.161283
-0.138358
3.51568
0.238549
0.0829201
-0.190526
-0.0273911
-0.0637086
-0.103314
-0.0601034
-0.296224
-0.217544
-0.352168
-0.292294
-0.202007
-0.0550438
-0.281034
0.0733447
0.128584
0.0699586
-1.5514
0.139689
-0.0917758
0.201021
-0.00842141
0.171359
1.5413
0.752561
0.0667579
-0.0673293
0.215361
-0.112858
0.29196
0.526863
0.152611
0.224374
-0.0575425
0.127573
0.293751
-0.008248
0.749337
0.248797
-0.182677
0.390285
-0.16422
-0.129265
-0.448172
0.210783
-0.0816006
-0.392894
-0.44542
0.439939
0.39736
-0.510491
0.0951813
0.255326
0.382107
-0.149985
-0.0586725
-0.0261485
0.531875
0.231525
0.330522
0.346283
0.13236
0.324146
-0.215603
0.277845
-0.376508
-0.0226325
0.17128
-0.34186
0.352562
-0.364839
-1.57611
-0.0994927
-0.604616
-0.201094
0.00723989
0.228869
-0.213535
0.187072
-0.138169
0.127229
0.418383
-0.119695
0.480262
0.0234975
0.0391757
-0.299067
0.462627
-0.0628712
0.0924724
0.0281687
-0.0480931
-0.435975
-0.495227
0.118947
-1.58394
-0.672329
-0.266479
-0.504317
-0.16899
-0.0326934
-0.0245473
-0.132881
0.195527
0.183703
-0.0397051
0.00682702
0.666919
-0.105127
0.375187
0.187205
-0.464515
0.118408
0.162683
0.218874
-0.341993
-0.271643
-0.587032
-0.433189
0.24628
-0.34041
0.113147
0.0117768
-0.0234955
0.125615
-0.452175
0.109251
-0.494361
0.222057
-0.303642
0.0766957
-0.0827389
-0.351318
0.0558112
0.486465
-0.432483
-0.194603
0.44539
-0.298396
0.3477
-0.0168075
-0.16975
0.19652
-1.68814
-0.901885
-0.163752
-0.21896
-0.141219
0.740784
-0.107593
0.566403
0.350243
-0.161151
0.213445
-0.232526
0.0704739
0.100162
0.317168
-0.0072079
-0.488544
-0.25836
-1.41425
-0.477601
0.157839
-0.509367
0.510655
0.224146
-1.72844
0.0750096
-0.243765
-0.0857485
0.11171
0.122946
-0.137177
0.0872473
-0.27704
0.465013
0.257338
0.155499
-0.0583106
0.588783
0.222093
0.374199
0.0549966
0.0873221
0.183673
0.52989
-0.21354
0.084073
-0.170271
0.124559
-0.254287
0.355144
-0.0311228
0.603689
-0.218694
-0.311744
0.111679
-0.511332
-0.258989
-0.227827
-0.102456
-0.0281452
-0.45542
-0.170063
-0.393793
0.400045
0.493457
-0.246611
-1.22737
-0.0943755
-0.253055
0.418898
-0.216702
-0.490668
-2.68283
-0.0454988
-0.515328
-0.0169964
0.0209978
0.0160198
0.0566815
-0.343603
0.438991
-0.147474
0.131182
0.402116
0.262681
-0.050316
0.140376
-0.361645
0.273282
0.188021
-0.42238
-0.809548
0.26922
-0.770051
0.0875851
-0.247091
-1.45113
-0.699963
0.34831
0.166082
-0.0632624
0.319251
0.0648507
0.0920647
0.00319871
-0.147145
0.166837
0.197451
-0.588589
-0.0581518
0.147858
0.165578
0.328507
0.140814
0.193842
-0.00797188
-0.0675293
-0.529211
0.519818
0.174867
-0.237966
-0.0359321
-0.0893955
0.392969
0.467628
0.592669
0.504123
-0.301792
0.48853
-0.0848579
-0.311401
0.237491
0.169137
0.541707
-0.106276
0.219333
-0.365501
-0.20519
1.84082
0.212142
-0.186021
0.587703
0.0982356
-0.279695
0.235685
1.06979
-0.238005
-0.354022
0.0897597
-0.261238
-0.0670364
-0.177602
-0.07996
-0.356556
-0.46819
-0.107195
-0.325643
-0.293762
0.12625
0.0796442
0.0463684
0.26461
-0.403886
-0.210441
0.144479
-0.0834117
0.250509
-0.430563
-0.555496
0.0168799
0.20903
0.0734208
0.144749
0.164131
0.439439
-0.156874
-0.407265
0.235438
0.0952388
-0.382989
-0.263091
-0.264393
-0.206912
0.347542
-0.464846
0.507405
0.127716
0.498808
0.400635
0.383941
-0.82652
-0.164552
0.540038
0.305298
0.0818693
0.143192
-0.400627
-0.321623
-0.53683
-0.563416
-0.0948436
0.201146
0.0217807
0.0432038
-0.402333
-0.350205
-0.0124637
-0.276823
0.329968
-0.11875
-0.29321
-0.35099
-0.306049
0.0230752
0.212766
0.266288
-0.211835
0.24015
-0.371435
-0.53404
-0.383764
-0.0195389
0.702425
-0.26969
-0.0521267
-0.378979
0.0433324
0.418439
0.0911644
-0.203118
0.155416
0.0390889
0.466124
-0.0614919
-1.30001
-0.253016
-0.277777
0.613514
-0.0591639
-0.413421
-0.959113
-3.07667
-0.996896
-0.440066
-0.0757705
0.13638
0.0482778
-0.27529
-0.124745
0.20295
0.0345392
-0.161066
0.238769
0.365662
0.0707383
-0.487621
0.107314
-0.202444
0.367855
0.0672724
0.0718424
-0.269961
0.380914
0.486613
-0.23894
0.352963
0.0997907
-0.423634
-0.406262
-0.02801
0.587885
0.0842051
0.359485
-0.236336
0.504691
0.0267127
0.220051
0.121946
0.378417
-0.0528676
-0.43842
-0.276452
-0.0544145
0.313368
0.411169
-0.102947
-0.0793478
-0.421188
1.37511
0.177587
-0.0742227
-0.396059
-0.149055
-0.0126549
-0.107893
-0.11562
0.0996766
-0.294238
0.209349
0.429378
-0.00254631
-0.0875414
0.143924
-0.344269
0.190731
-0.169652
1.66042
0.15364
-0.221305
0.324394
-0.0138744
0.273575
3.60207
1.87079
0.0985054
-0.0701913
-0.254785
-0.176925
-0.133357
-0.191247
0.0109675
0.00612913
-0.129398
-0.456177
-0.175378
-0.142466
-0.283375
-0.484239
0.499151
-0.260182
-0.622244
-0.0559054
0.0834197
-0.189602
-0.306355
0.341805
1.47239
0.539229
0.433526
0.136607
0.0461281
0.164972
-0.0854171
-0.10243
0.393487
-0.194243
0.221097
0.13617
0.283664
-0.0838626
-0.0515335
-0.303466
-0.293911
-0.180043
-0.406575
0.38432
0.383238
0.338956
-0.0870672
0.0516443
0.636577
0.468242
-0.233009
0.411458
-0.372781
-0.118131
0.0605922
-0.120718
0.326578
0.502941
0.238597
0.132368
0.163374
-0.0361909
0.0307568
-0.114015
-0.430068
0.036471
-1.2231
0.282233
0.0486
0.16525
-0.24182
0.34129
-3.77339
-0.0801858
0.398819
0.248733
0.11258
0.271495
0.0596828
0.0654734
0.255722
0.28962
0.139339
-0.00123706
-0.00498254
0.183761
-0.223252
-0.256677
-0.324098
0.1888
-0.10806
0.41036
0.035977
0.0251952
-0.404102
-0.371653
0.191063
0.421886
-0.348194
0.383301
0.389917
0.109739
0.20321
0.385071
-0.286498
-0.0757289
0.329732
0.22705
-0.0861662
0.133687
-0.24869
-0.214095
0.169361
0.0895584
0.531347
0.310288
0.411281
-0.197084
0.023086
-0.096618
0.00793134
-0.136939
0.591536
0.243109
0.0400218
-0.21915
0.0118795
-0.316751
0.266385
0.363017
0.250212
-0.285215
0.326001
-0.343743
-0.24761
-0.190801
0.226475
-0.0149473
-0.636283
0.0255089
-0.443716
-0.0087488
0.214931
-0.376655
-0.320042
-0.234269
0.432293
0.0252474
-0.0321921
-0.189891
-0.257277
-0.316223
0.147886
-0.297431
0.38696
0.111351
-0.0424193
-0.0142096
0.233851
-0.29082
0.0821583
-0.212248
0.376658
0.100516
-0.356564
-0.273259
-0.388534
-0.324028
-0.295736
-0.336548
-0.169083
-0.0200683
-0.208675
0.397902
-0.46335
-0.266419
-0.616922
0.26056
-0.612471
0.423526
0.116592
-0.17774
0.414591
0.141032
-0.209145
0.358306
0.527132
-0.270226
0.217311
-0.252966
0.311861
0.0343312
-0.0699055
0.255395
0.289318
-0.489194
-0.497661
0.0381715
0.390593
-0.242334
-0.376584
-0.0917463
-0.481053
-0.198255
0.0104621
0.286194
-0.581867
0.161937
-0.126296
0.290581
-0.331853
0.0137798
0.371562
-0.372828
-0.111806
0.218347
0.343834
0.0544416
0.437828
-0.341344
-0.567753
0.187955
-0.0432048
0.312592
0.670156
-0.0787416
-0.422681
0.236781
-0.0591828
-0.0162571
-0.256877
-0.336428
-0.204644
0.566071
-0.367073
0.595124
0.266132
-0.116245
0.517533
-0.147143
0.409899
-0.53307
0.0185411
0.0917549
0.0151495
-0.368966
0.366821
-0.161966
-0.170488
-0.8383
0.287011
-0.484897
0.352115
0.508036
-0.159146
-0.0777997
-0.370959
0.729507
-0.264423
0.0534588
-0.00830092
-0.479291
-0.0688841
0.310992
0.399159
0.303952
-0.104304
0.315664
-0.36475
0.413436
0.572299
-0.110467
0.366317
-0.184672
0.300768
-0.264456
0.49514
-0.0952314
0.529111
-0.0783892
0.335137
-0.223771
-0.0162861
0.0243707
0.346615
-0.00157767
-0.536923
-0.131111
1.05787
-0.0714333
0.229873
-0.372452
-0.227728
-0.097321
0.293589
-0.392672
0.0411464
0.273221
0.409017
-0.350253
-0.00169772
-0.155839
0.0702754
0.607807
-0.301941
-0.1504
0.207303
0.775009
-0.0589328
-0.30728
-0.229091
-0.124371
0.300486
-0.136118
0.143792
0.416009
-0.213284
0.0203257
-0.061541
-0.321569
-0.0694322
0.260023
0.299989
0.187797
0.547021
0.203492
-0.13093
-0.179808
-0.0474681
-0.16178
0.178988
0.464848
-0.0604168
-0.012135
-0.377251
-0.0891874
-0.0597657
-0.557006
0.00264052
0.345899
-0.334558
-0.191767
-0.433964
0.246774
0.149262
-0.123353
0.488363
0.384547
-0.209615
-0.482475
0.306316
0.12839
-0.451273
0.363867
-0.0673284
-0.276381
-0.94747
-0.139382
-0.326794
0.58649
0.353476
-0.513444
-0.0230894
-0.932561
0.421389
0.289689
0.114391
0.175466
0.0112853
0.104005
0.0675406
-0.239283
-0.00983303
-0.237372
0.524803
-0.421229
-0.245715
-0.217981
0.098835
-0.0565789
-0.385009
0.420311
-0.343885
-0.160135
0.0817013
0.161346
-0.171215
-0.210299
0.13234
-0.109491
0.0973811
0.223998
-0.540291
-0.182769
-0.237332
0.30219
-0.397302
-0.237194
0.190503
0.00122191
-0.191066
-0.444925
-0.519308
-0.39332
0.346593
-0.403315
-0.213412
0.41227
-0.536866
-0.115942
-0.27523
-0.370324
0.257315
-0.236889
-0.289339
-0.0582376
0.0900981
-0.0833782
0.00471567
0.277025
0.199727
-0.41946
0.0302365
0.258034
-0.146934
-0.0529703
-0.0745058
0.0661985
-0.325005
0.336971
0.0217752
-0.398623
-0.126251
0.276135
0.139541
-0.314511
0.0123885
0.716021
-0.419459
0.386109
-0.0995577
-0.257658
-0.129774
0.299342
0.112497
-0.208004
-0.521016
-0.244873
0.278659
0.151915
0.0998208
0.239045
0.290998
-0.599356
0.338566
-0.216248
0.304656
-0.248827
0.423751
0.103449
0.391325
-0.283734
-0.92942
0.4043
0.460334
-0.0778724
-0.016962
0.0299638
-0.0586448
0.456556
-0.452506
0.319817
-0.756215
-0.380338
0.207299
0.0526258
0.206761
0.269649
0.0730735
-0.193677
0.37888
-1.11275
0.104176
0.188486
0.76031
-0.18099
-0.33917
-0.209753
0.157084
-0.276729
-0.315032
0.469516
0.451847
-0.200859
0.365259
0.307621
0.26868
0.28981
-0.456799
-0.173191
0.303589
0.365493
-0.222939
0.178593
-0.402824
-0.198843
-0.196655
-0.0592537
0.422603
-0.27845
-0.404019
0.275658
0.380722
-0.684965
-0.564551
0.0928034
-0.0145745
0.604757
-0.539998
0.138541
0.529217
0.0987999
-0.294724
-0.871774
0.932338
0.295226
0.133824
0.110633
-0.0357281
-0.28466
0.400964
0.970693
-0.114102
-0.0241521
0.0659089
0.0382616
0.162976
-0.430004
0.407734
0.0308828
0.358671
-0.143962
0.347102
0.193728
0.178014
-0.304973
0.0544172
-0.243171
0.405602
-0.615068
-0.242572
-0.0511484
-0.385315
0.388948
0.0861639
0.386552
0.108558
0.0123497
-0.246239
-0.142534
0.131235
-0.154135
-0.0340157
0.234145
-0.11928
-0.0337846
-0.216289
-0.270214
-0.427256
0.068618
0.209344
0.164585
0.210937
-0.713501
0.225646
-0.240452
0.201045
0.406567
0.35848
-0.146278
-0.404509
0.531619
-0.390345
-0.507152
-0.360036
-0.481821
-0.271051
-0.378026
0.16439
0.0279827
-0.442167
0.0334538
0.220278
-0.551237
0.220501
-0.339572
0.367087
0.013459
-0.412686
-0.483656
0.14503
0.405808
-0.164769
-0.207822
0.0580138
0.200465
-0.175019
-0.0611106
-0.530051
-0.238783
-0.258697
-0.198449
0.580816
0.788421
-0.294061
-0.572173
-0.241511
0.0211075
-0.0647603
0.242547
-0.141927
0.376216
0.193481
-0.20583
-0.318021
0.291617
0.122422
-0.0733026
0.247024
-0.0505597
0.215391
0.685268
0.50308
0.264206
0.232176
0.171991
0.135767
0.650137
-0.790442
-0.501924
0.0498048
0.493964
-0.164822
0.799004
-0.418313
-0.706024
-0.319972
0.526275
0.110676
-0.0127944
0.238189
-0.251204
-0.0167621
0.0313456
-0.286896
0.117752
0.490482
-0.255127
-0.768692
-0.872738
-0.266692
0.232098
-0.192791
-0.375146
0.282275
0.50816
0.0235736
0.226505
0.569179
-0.0966238
-0.418229
-0.292915
-0.420281
-0.542617
0.0835556
-0.158475
0.15598
-0.109551
-0.0810475
-0.2154
-0.216798
-0.241033
-0.674349
-0.434887
-0.108904
-0.020122
-0.190182
0.935838
0.00387196
-0.14442
-0.315975
-0.230764
0.387323
0.338906
-0.757874
0.442874
-0.54986
0.163176
-0.491531
-0.219182
-0.239746
0.215615
0.506827
-0.226599
0.0983742
-0.0201741
0.416323
0.170108
-0.0783146
-0.0877766
-0.462476
-0.262943
-0.115591
-0.209639
0.199098
0.242116
0.295619
-0.21204
0.137947
-0.227574
-0.0351489
0.0721765
0.0200368
-0.375697
-0.0878997
-0.203587
-0.272929
0.0231621
-0.118354
-0.299234
-0.134479
0.039587
-0.548151
0.153565
-0.516505
-0.336627
-0.126477
-0.276596
-0.016999
0.212852
-0.805043
0.587644
-0.126464
0.706606
0.0363607
0.274227
-0.645639
-0.0621722
-0.20148
0.0115376
1.07521
0.0395777
-0.956568
0.49294
0.336178
0.365357
0.801575
-0.92565
-0.555046
-0.222192
-0.247993
