#input normalization
34.0225 55.5711
6.42176 24.388
4.63146 23.2047
0.00395734 0.0169727
0.00247944 0.0128876
1 1
0.57549 0.886105
0.845794 1.12433
1.13915 1.44019
1.45071 1.83582
1.77972 2.24465
2.10446 2.67235
2.44738 3.12592
2.85677 3.63768
3.18026 4.06202
3.54085 4.54
3.97449 5.02128
4.40353 5.50486
4.68346 5.80151
5.07198 6.16748
5.40202 6.50693
#output normalization
1 0
#neurons weights
-0.125954
0.443413
-0.23898
0.0473502
-0.463409
-0.198426
-0.189095
0.389456
-0.327272
0.270491
-0.168124
0.121105
0.0458951
-0.0110718
0.240403
0.183603
0.136238
-0.0943901
0.0535103
-0.283432
0.0942617
-1.16614
1.35355
-1.89032
2.2159
0.0336688
1.76022
-1.90906
-0.117362
0.656145
-1.6995
2.47098
1.49754
1.37981
-0.123376
2.10998
-2.89548
-0.304239
-1.58007
2.58507
1.34737
3.39496
-0.570428
0.715583
-0.307053
-0.24564
-0.352396
-0.800841
-0.538467
-0.397869
-0.265467
-0.579231
-0.566558
-0.220403
-0.132755
-1.06001
-0.974909
0.514483
-0.482411
-1.22691
-0.254853
0.148092
-1.05719
-0.318781
-0.2987
#synapses weights
0.130569
-0.422681
0.662671
-0.316582
0.766439
0.360307
0.649462
-0.0993284
0.240885
0.0593494
-0.107236
-0.358639
0.426926
0.108853
-0.227826
0.722956
0.301836
-0.314738
0.0883979
0.208172
-0.153852
-1.87951
0.416781
-0.467869
-0.625862
-1.6103
0.270602
0.62383
-0.249683
-1.25359
-1.34482
-0.985658
-1.78066
-2.76738
-2.39331
-3.5245
-1.83603
-2.00452
-1.50989
-0.817971
-1.04585
-2.34992
-1.04407
0.857956
-1.0904
-0.887477
0.275674
0.422719
0.463035
-0.541785
-0.45643
-0.446949
-0.510877
0.529647
0.625619
0.297184
-0.876217
-0.111128
-0.324874
-0.601585
-0.291247
-2.59061
-0.818395
1.46496
1.35717
-0.151756
-0.659061
0.93272
-0.16383
-0.53432
1.46539
-0.00269767
0.811514
2.16663
0.573718
0.932842
0.377304
0.747102
2.54554
0.0372951
1.74851
0.156418
1.44334
3.51489
0.468317
-0.607658
0.519728
-0.271816
0.560918
0.336886
-0.448796
-0.988354
0.928549
-0.83294
0.808242
0.0784636
0.692181
-0.468834
-1.44066
0.648384
1.66254
-0.131994
0.213802
0.295853
2.07926
0.428823
0.68211
-0.227839
-1.91804
0.366552
0.257288
-0.148647
0.0617889
-0.451377
0.140658
0.495791
1.16442
-0.258599
0.887811
0.496113
0.20229
-0.427394
-0.0289888
0.556034
1.42872
0.901411
-1.08613
1.39718
1.00514
0.0802831
0.452506
0.0656763
-0.517706
0.448013
-0.663058
0.109628
3.28658
-1.46919
-2.19903
-1.63212
-2.73835
-0.628037
-0.183738
1.21972
-1.24234
0.232149
-1.66228
0.247703
-2.14673
2.31589
-1.07276
2.43116
0.328168
-0.171313
-0.107408
-0.151443
0.336523
-0.418781
0.0767869
0.165896
0.553176
0.508644
-0.230031
-0.388958
-0.433755
-0.272193
0.41553
0.761496
1.56124
-1.9071
-0.794496
-2.48117
-0.0620799
-0.204652
-0.181421
-0.212659
0.31209
1.31819
-0.95704
-3.42521
3.58687
3.86124
1.30697
1.23507
2.17842
-0.3382
1.60795
2.81423
-1.48584
-3.09093
0.577956
-0.171276
-1.08709
0.181648
-0.139439
0.248873
-0.701849
-1.31983
-0.191199
-2.20009
-2.19129
-0.0871147
-2.98515
-1.70475
-2.45328
-1.85454
-2.91283
-3.48906
-1.47081
-3.45532
0.623531
-0.204
-0.617011
-0.821485
1.40073
-0.260928
-0.240236
0.459291
-0.0683738
0.79651
-0.623804
-1.44579
0.565034
0.040226
0.506326
-0.463898
0.1113
1.32115
-0.98715
0.0402565
3.247
-0.0959913
1.96747
-0.750679
0.693623
-0.373399
-0.183103
0.0448521
-0.262118
0.028613
-0.312409
0.412484
-0.0932504
0.361769
-0.271829
-0.123211
0.548146
1.10555
-0.451554
-0.448457
0.414333
-1.02946
3.35006
-1.47112
1.08934
0.726806
-1.14348
-0.444796
-0.890614
1.10373
-0.182468
0.779525
0.809707
2.42369
0.286773
4.64877
2.2235
3.16181
3.03902
2.57342
1.3593
2.70746
1.56913
1.53231
-0.803288
-1.74686
0.106596
-0.27056
0.127713
-0.229759
-1.35134
0.823855
0.134754
0.302749
-2.06372
1.12236
2.10034
0.322435
3.3318
2.91916
0.428047
3.22319
1.23996
1.06118
-2.49352
0.497434
-0.06818
0.781048
-1.10189
0.0565092
-3.11942
0.763789
-1.00511
-0.447978
-1.13862
0.62591
-1.40007
-2.23506
-2.05384
-2.9843
-1.39607
-2.08597
-3.5462
-1.97764
-2.77146
0.79873
-1.01014
0.348047
-0.935408
-0.86514
-0.277956
1.16427
-1.33717
-0.23859
-0.802185
3.99506
1.2839
-3.16149
-0.239018
-1.97298
-0.102364
0.22126
1.75739
1.70951
0.201147
1.83532
-1.17377
0.35226
1.04996
0.417691
-0.349919
0.384058
0.160516
0.0175369
0.539863
0.506677
0.154268
-0.946941
0.24489
-0.666313
-0.693411
-1.27809
-0.744808
0.154362
-0.331228
-0.0434894
-2.91324
-0.227092
-2.24713
-1.15353
3.6188
-1.0869
0.0766678
-0.288506
2.40249
3.13493
1.95999
-1.56704
0.119796
0.635292
-3.06664
1.52726
-0.333827
-1.26426
0.676755
-0.110128
2.45689
-3.05716
-0.285142
0.643525
-0.252394
1.41075
0.681811
-0.126292
0.026679
-0.103942
0.942386
1.0465
-0.0981716
-0.913521
0.416728
0.366762
-0.0782158
-0.960036
-1.19547
0.356572
0.0743368
-0.952452
0.73496
-0.923087
1.7307
1.55394
-0.124158
-0.566307
-0.345799
-0.17494
-0.747329
-1.30656
-1.38368
2.28803
1.20701
-1.48954
-2.50975
-0.658034
0.899087
0.391907
-1.15379
-1.21353
0.125132
-0.737337
-0.358109
1.21082
0.408099
0.437406
-0.204068
0.457931
1.20379
0.651525
0.472085
0.211818
-1.09152
0.360392
-0.539005
0.370113
-0.0768509
0.653858
-0.658611
-0.679105
0.838361
0.376735
-1.18732
-2.32638
-0.167151
0.408344
0.452795
-1.11215
0.404364
0.805747
0.448085
-0.105645
-0.914537
-0.144441
-0.986462
-3.6898
-2.30003
-1.64495
-3.32249
-3.07892
-1.6642
-1.26565
-3.02626
0.353613
0.990852
0.385408
0.212574
0.559454
1.10871
1.0446
0.248427
1.47477
1.82089
-0.804331
1.2659
-1.3149
0.0991754
0.484528
0.355929
0.696332
-1.84747
0.530971
0.145758
0.250015
-0.588404
-0.518869
0.592128
1.32423
1.45322
-0.826599
0.499595
0.905529
-0.212761
1.38574
0.983153
-1.57787
0.340428
-2.41245
-1.39377
0.270463
0.0712001
0.830794
-1.35846
1.43587
-1.46173
0.936341
0.0181946
0.780808
-0.715995
0.1778
-0.429776
-0.938458
-0.699847
-1.7588
1.27526
0.903344
-0.401369
0.347107
0.224645
0.129402
-0.49238
-0.643573
0.0535362
-0.546885
0.760215
0.911871
-0.197991
-0.543609
-1.67737
-0.788868
1.03938
-0.00897861
-0.60255
-0.939754
0.327737
-0.666259
1.05067
-0.0939999
1.46352
-1.38592
1.22264
-1.13344
-2.45611
-1.05348
0.715186
0.408848
-1.73229
-0.0469737
-0.163739
-0.925656
-1.29257
-0.871781
0.716112
0.207354
-0.199453
-1.21025
0.0705291
-0.256627
-0.505529
-0.42421
0.192001
-0.323829
-0.317182
-0.806252
-1.38691
-0.968079
-0.194712
0.39761
-0.2208
0.556025
-0.0854323
-0.566574
-0.937451
-0.483432
1.75563
-0.958207
-0.330611
-1.61841
0.622959
0.156172
0.163299
0.815751
2.25687
-1.27106
2.36187
-1.4431
-1.85652
-1.56544
1.18494
0.456827
-1.69255
0.285963
0.168809
-1.36718
-1.1844
-1.13636
0.338962
-0.423177
-0.0236982
0.167127
0.238036
-0.296858
1.18383
1.08768
0.540534
-1.71473
1.34227
-0.8588
-1.13017
-1.13301
0.300066
-0.268983
-1.86812
-0.344221
0.125148
-1.03488
-0.965889
-0.985666
1.30306
1.99413
0.317062
-0.93857
1.23255
0.586823
0.346269
0.595618
1.4284
-0.284267
1.05002
-1.54307
-1.40191
-0.252994
1.16695
-0.445248
-2.20188
0.0230238
-0.298622
0.23315
-0.96771
-0.295286
-0.158186
0.232131
0.749272
-0.734366
1.01011
0.360153
0.26454
1.79874
0.811115
-1.07956
0.521503
-1.21606
-1.21177
-0.35076
0.919156
0.602279
-1.50458
-1.1836
0.512794
-0.351732
-0.588268
0.696739
0.716594
0.216547
-0.307279
-1.25535
0.771845
1.89263
1.94224
2.51786
0.112411
-0.615612
0.797438
-1.34454
-1.71503
-0.729878
0.731527
0.111529
-1.08255
0.941504
-1.96283
-0.171738
-1.72856
-1.41701
1.08769
0.404828
-2.3799
1.21472
3.52858
1.44666
-0.800312
-0.431695
-1.03188
-0.211498
1.26626
0.206979
-0.240889
-0.693327
1.1972
0.607136
-2.91042
-0.0862494
0.632911
1.07221
1.52488
0.908182
-0.361234
-0.457772
-0.596645
0.195639
0.467577
0.182562
0.996231
1.32995
0.518085
-0.829237
0.716786
-0.701586
-0.737197
-1.12987
0.172186
-0.024196
-1.43687
0.00592302
-0.79927
-0.838853
-1.26182
-0.590419
-0.356765
1.64472
0.304313
0.293954
0.578939
2.65664
0.098518
2.56124
1.10548
-3.05712
-0.486145
-1.14148
-0.849494
0.527282
-2.25361
2.48119
-0.820484
0.255818
-1.11629
-1.61185
-0.595807
-0.0552832
2.37092
-0.0852569
-1.6355
-2.24495
0.242241
-0.235795
0.952344
-0.532938
1.57211
-2.56852
1.96218
-1.16525
-3.62463
-1.80245
0.666888
1.42928
-0.6619
0.88443
0.664225
0.212111
-0.00918046
-1.54449
1.85673
-0.706758
-0.850319
-1.76601
0.744717
-0.420448
0.330574
0.115772
1.72903
-1.92175
2.39004
-1.32576
-2.2708
-1.59829
1.81714
1.43266
-1.21171
0.711393
-0.488124
-2.03413
-1.75957
-1.79972
0.204458
-0.525548
0.174545
-0.396187
0.175463
-0.171664
-0.427219
0.924188
-0.150088
-0.351468
0.747712
-0.43517
-1.05247
-0.619192
-0.289773
0.423096
-0.517308
-0.340723
-0.139816
-0.499303
-0.560738
-0.655629
1.0432
-0.971163
-0.120155
-0.492704
2.08896
-0.0368893
1.99354
2.23947
0.58543
-1.78976
1.3836
-1.69924
-1.09016
-0.735428
1.16614
1.03528
-3.02208
-0.383495
-0.773415
-0.936253
-1.41438
-1.75613
1.75106
0.67954
-1.49727
-1.47667
-0.640359
-0.661479
-1.09156
-0.693406
1.47085
-1.82247
1.72712
-0.397231
-2.13447
-2.48475
0.319463
1.02356
-0.349549
1.06911
0.0561187
-2.07102
-1.02376
0.475696
0.820872
0.409084
-0.864768
0.431183
2.7232
-0.0326943
0.109936
0.650042
1.38958
-1.09874
2.1877
1.45771
-0.135222
0.545411
0.657438
1.14918
-2.00101
0.232304
0.657404
0.488123
0.00550282
0.0983121
2.54398
-0.554491
-1.95112
0.396258
-0.324951
-0.673514
1.48086
1.47373
1.28788
-0.626289
2.06133
-1.89846
-2.85096
-1.43761
2.5557
-1.0462
-3.22597
-1.12651
-1.12498
0.291598
0.643202
-2.57582
1.05659
1.84208
0.898137
-1.07166
0.309365
1.90027
0.0755958
2.3485
0.760949
-2.4537
0.683689
-2.49028
-1.36395
-0.117366
-0.184714
-0.0879356
-0.455402
1.14101
-2.29611
2.73787
-1.03792
-0.829333
0.240082
1.17558
-2.61629
2.242
1.12429
2.65309
1.62669
0.749096
-1.75948
2.87017
4.39178
0.702206
2.7865
4.50198
3.39195
-0.034771
3.20277
4.15143
2.22047
4.71092
2.78943
