#input normalization
166.784 207.701
5.4736 32.1242
3.95108 25.6948
0.00330639 0.0206619
0.00212009 0.0135142
1 1
0.57549 0.886105
0.845794 1.12433
1.13915 1.44019
1.45071 1.83582
1.77972 2.24465
2.10446 2.67235
2.44738 3.12592
2.85677 3.63768
3.18026 4.06202
3.54085 4.54
3.97449 5.02128
4.40353 5.50486
4.68346 5.80151
5.07198 6.16748
5.40202 6.50693
5.7423 6.82167
5.99089 6.97418
6.27165 7.15316
6.56035 7.3365
6.83806 7.54194
6.95185 7.47804
7.09044 7.46059
7.23014 7.46737
7.37741 7.51253
7.30938 7.243
7.32672 7.11955
7.38757 7.02812
7.41177 6.89247
7.17059 6.47792
7.18035 6.30284
6.99501 6.01981
6.93557 5.84071
6.65377 5.36474
6.39258 5.01456
6.30775 4.82821
5.87582 4.29912
5.58475 3.91741
5.27606 3.58468
5.11071 3.34947
4.93068 3.10116
#output normalization
1 0
#neurons weights
0.132105
-0.422412
0.311847
-0.171863
-0.0371991
-0.312229
0.0228422
-0.400154
0.0698108
-0.401515
0.460331
-0.0533706
0.423475
0.409633
0.463637
-0.320721
-0.432527
0.174994
-0.144739
-0.39912
-0.463695
-0.471071
0.483895
0.35239
-0.347921
-0.147994
-0.113901
0.384943
0.368611
-0.0250145
0.153077
0.250547
0.125212
0.228919
0.0630355
0.29484
0.324051
0.288978
-0.336655
0.00875997
0.268853
-0.235015
-0.0121711
0.338656
-0.132178
0.259324
-1.08314
0.559835
0.582169
-1.64131
0.440439
0.64179
2.08576
-0.990275
0.520825
-0.406863
1.46495
0.0206369
1.18365
0.872139
-1.85141
0.775919
-0.26907
0.0490377
1.56698
1.22716
0.39933
-0.766109
1.73538
0.880368
0.805821
-0.0697597
0.19808
-1.22899
0.630665
-1.30385
1.62932
1.05694
-0.0142335
-0.97163
0.0594799
0.559204
-0.749888
0.29289
1.11353
3.75321
1.06048
-0.0556146
0.323972
2.31596
0.415674
0.377739
-0.0298936
0.113298
-0.184084
-0.277581
-0.174592
-0.274363
-0.0517413
0.334241
-0.33162
0.110473
-0.160337
-0.591937
-0.266876
0.0973844
0.393464
-0.443109
-0.749467
0.267203
-0.484001
-0.316212
-0.334007
-0.0154686
0.445219
0.186239
-0.500565
-0.348679
-0.126288
-0.341276
-0.197044
0.271493
-0.311207
0.0450755
-0.445092
0.373884
-0.348068
-0.288197
-0.540713
0.132018
0.288934
0.460861
0.463473
-0.441236
-0.10766
0.5667
-0.0735032
0.352821
0.285484
0.93066
#synapses weights
0.402116
0.143213
-0.780031
0.214747
0.71877
-0.410598
-0.481317
0.695206
-0.472917
-0.648051
0.208024
0.181715
0.432094
0.175309
0.520703
-0.424785
0.251379
1.28792
-0.545614
0.932062
-0.0318372
-0.112772
0.333662
-0.14228
0.321034
-0.549553
-0.0925094
0.145813
1.04175
-0.142132
0.192791
0.470099
1.81492
0.417564
-0.656314
-0.0418667
-0.0803814
0.154455
0.606404
0.75298
0.0746602
0.0116786
1.07857
-1.15699
-0.700482
0.859506
-0.43095
0.0788019
0.199115
-0.120554
-0.32527
-0.272401
-0.0311984
0.187875
-0.0176745
-0.429724
-0.304302
0.495827
0.328865
-0.0415113
0.319616
-0.14687
-0.670577
0.00226398
-0.1994
0.0509989
-0.219221
0.302444
-0.258748
-0.315996
-0.618304
-0.720184
-0.443526
-0.0114582
0.157919
-0.437235
-0.04594
-0.119172
-0.61455
-0.266785
0.244653
-0.107375
-0.607723
-0.710927
0.242151
0.399074
-0.849975
-0.811922
0.14242
0.00798311
-0.380311
-0.0888235
-0.127382
0.533811
1.07396
-0.34297
-0.0610908
-0.27689
0.258654
-0.196971
-0.132164
-0.31951
0.131026
0.356369
0.0548481
-0.224411
-0.0532429
0.25485
0.0209331
0.175531
-0.25771
-0.401091
-0.22133
-0.242434
-0.44225
-0.389305
-0.556379
-0.41109
0.0776824
-0.18107
0.0630301
-0.460074
-0.0952422
0.102511
0.385973
-0.16082
-0.709138
0.161872
0.393212
0.180363
-0.357736
-0.303048
-0.521925
-0.0387361
-0.837645
-0.44908
-0.285615
-0.704551
-0.433874
0.00545418
-0.158439
0.0469812
-0.124084
-0.386917
0.189064
0.36346
-0.306359
-0.123098
-0.14454
-0.837265
0.632216
-0.301589
-0.505845
-0.234324
0.0207766
0.00461804
-0.640644
0.0867053
-0.968275
-0.66478
-0.0303989
0.0388272
0.94647
-0.789103
-0.48039
0.206014
0.366006
0.368988
-0.313773
-0.103281
0.775381
-0.414707
-0.524881
0.065399
-0.186095
0.251767
-0.363846
-0.146333
-1.1604
-0.489305
-0.347657
0.621293
0.869309
-0.583566
0.422715
1.35352
-1.01361
0.0407456
-0.062844
-0.41058
-0.101163
0.243072
-0.0564564
0.373873
-0.181084
0.205762
-0.301975
-0.61756
0.417328
-0.947972
0.26422
-0.349911
0.0625491
0.0389929
-0.367445
0.112094
-0.368605
1.30514
-0.135816
-1.78389
-0.0520131
-0.977366
0.0447063
0.883359
-0.68748
-0.0752548
0.227374
0.0210462
-0.026245
0.18669
-0.995812
-0.997083
0.558234
1.02393
-0.672774
-0.44721
-0.0349657
0.155102
0.636869
-0.902812
-0.289848
-0.533694
0.285208
-0.385543
0.120027
0.0575422
0.451232
-0.861034
1.62088
0.937537
0.423937
-0.00583719
0.468229
0.206718
0.336921
-0.189519
0.0599648
0.057744
-0.180712
-0.355741
-0.762235
-0.216996
0.449213
-0.046085
0.0721083
-0.834654
0.152072
-0.22111
0.00802814
-0.694989
-0.750796
0.559335
0.5268
0.796854
1.2811
-0.80456
-0.0164858
-0.159737
-0.0956514
0.65779
-0.497682
0.300106
-0.186414
-0.133225
-0.973283
0.650135
-0.320678
1.59739
-0.847659
-0.103452
-0.337165
0.105607
-0.0692956
-0.0420209
0.963765
-0.333367
0.0222319
-0.767837
0.493576
-0.0552631
-0.518557
1.29598
0.22303
-0.530597
0.389915
-0.127491
-1.29641
0.0896075
0.0944422
-0.34456
-0.394819
0.345425
-0.202384
-0.378017
0.45451
0.426576
-0.152615
0.302583
-0.509566
0.410081
-0.478787
-0.0322678
0.597016
-0.100088
-0.858163
0.39291
-1.21293
0.0646661
0.499332
-0.293733
0.114883
0.223814
0.0290877
-0.939761
0.393476
-0.688617
-0.0277919
-0.409667
0.490852
0.638097
0.0350782
-0.17077
0.883668
1.35615
0.390742
-0.163969
1.01014
-1.01178
0.430973
-0.915199
0.626617
0.998224
0.184535
0.955855
-0.586413
-0.0563852
0.463724
0.346956
0.591532
1.2279
0.101558
0.182874
0.7068
-0.770174
1.00966
-0.0388881
0.917464
-0.0159233
0.0288848
-0.636376
-0.536355
0.620298
-1.0717
-0.124022
1.04246
0.296013
0.186866
-0.0436702
-0.669953
-0.150933
-0.160489
-0.267857
-0.301544
0.142593
-0.317257
0.151356
0.224677
-0.0855165
0.366391
0.00754116
0.0364587
0.34776
-0.240687
-0.0428029
-0.479342
-0.22368
-0.261874
0.354909
-0.668665
0.0243288
-0.717918
-0.99265
-0.330998
-0.402067
-0.108606
-0.296321
0.05255
-0.749166
0.155072
-0.563159
-0.201907
-0.0830619
0.172166
-0.685389
-0.28251
-0.798733
-0.81075
-0.0290446
-0.458418
-0.0249667
-0.583706
-0.008151
-0.123403
0.304529
0.720909
0.286607
-0.17167
0.1866
0.00650499
-0.244789
-0.215505
-0.117118
0.453528
0.322343
0.184347
-0.231166
0.0692523
-0.179718
-0.0997639
0.395241
0.271126
-0.403888
0.271721
0.448076
0.303339
0.920751
0.451954
0.121366
0.542278
0.246403
0.536128
0.283379
0.836497
1.01202
0.338377
0.115794
0.98694
0.747123
1.05098
0.527061
1.03266
1.02952
0.509838
0.941164
-0.125557
0.499816
0.112426
0.147314
0.760625
0.332666
-0.016335
0.816115
-0.707142
0.601263
-0.929338
-0.42564
-0.0663929
-0.854462
-0.109667
0.178864
1.21447
1.03763
0.465279
0.356641
-0.548784
0.927836
-0.547089
1.24467
0.0196883
-0.969713
-1.00753
-0.443087
-0.999495
-0.968
0.29826
-0.335051
0.063789
1.21292
-0.133153
-0.286643
-0.313285
-0.536389
-0.0624155
0.610823
0.141137
-0.925664
0.381933
0.680152
0.577546
1.32163
-1.2657
0.324935
0.671907
-1.32946
-0.967064
0.405134
-0.20422
0.139032
-0.832917
-0.696404
-0.933973
-0.483386
0.182618
1.06514
-0.0183605
-0.275138
0.309193
-1.11472
-0.0589871
-0.184247
-0.333597
-0.666416
-1.5587
-0.282754
-0.81739
-0.161481
0.260954
0.112627
0.557961
0.11964
-0.052294
0.252283
0.107027
-0.305427
-0.0222344
-0.464131
-0.196443
0.492798
0.396108
-0.25398
-0.558447
-0.210173
-0.25746
0.086188
-0.267962
-0.544773
-0.0005515
-0.539804
0.0317096
0.556426
-0.212237
0.33053
0.282149
-0.102072
-0.40127
0.882273
-1.18936
-0.240412
-0.215681
0.319683
-1.92429
-0.919716
-0.578265
1.51147
-0.208104
0.671003
-0.829122
0.356244
-0.395153
0.600585
0.0820054
0.598187
-0.416406
0.0890155
0.449927
-0.471609
-0.136494
0.604858
1.07009
0.61294
0.393776
0.512368
0.366854
0.24555
0.355717
0.830054
0.0702153
-0.358924
0.114214
0.0910864
0.0179482
-0.399574
-0.191376
-0.374878
0.129052
-0.497298
0.959592
0.120584
0.474462
0.244865
0.536163
-0.0890066
0.609172
-0.0275957
-0.783158
0.411985
-0.724726
-0.887349
0.35786
-0.0142052
0.135391
0.354487
0.592383
1.71484
0.314135
0.0505321
0.749083
1.00434
-0.263157
0.891924
0.0258212
-0.298363
-0.358656
-0.264694
0.427609
-0.24303
0.652196
-0.595195
0.0549025
0.0278983
-0.471557
0.511238
0.474791
-0.548566
-0.169798
-0.830631
0.0169227
-0.102963
-0.360172
0.79418
-0.82007
0.237947
-0.975021
-0.748869
0.154142
-0.788305
0.486425
-0.257836
-0.00966936
-0.450595
-0.646223
-0.634865
0.346177
0.0391503
0.578386
0.115319
-0.519335
0.0795618
-0.243413
0.739672
0.098048
-0.591585
0.894174
-0.167488
-1.22146
2.00603
0.0324535
-0.231001
0.116369
-0.896294
0.257901
0.589838
0.554282
0.618418
-0.280965
-0.0852788
-0.999703
-0.602831
-0.219377
0.677681
0.694753
0.774439
-0.587405
-0.909864
-0.347984
0.938249
-0.0953356
-0.353594
0.535743
0.467136
-0.00354375
0.450485
-0.0165918
-0.796166
0.758804
0.230232
1.13221
-0.1907
-0.113203
-0.661374
0.100322
0.459009
0.085766
-0.217941
-0.340469
0.328036
0.0486227
0.491257
0.558157
0.014282
-0.556695
0.398245
0.26599
-0.0117241
0.877944
1.02336
1.3097
-0.171986
0.376754
-0.00062666
-0.0150924
-0.264341
0.47298
0.803791
0.481296
0.535296
-0.362688
0.119696
-0.492447
0.285533
-0.354651
0.312393
0.806071
0.457847
-0.393275
0.0876838
0.470477
-0.182826
0.384946
0.54723
-0.564787
-0.135059
-1.02159
0.743218
1.39039
-1.34413
0.563205
-0.894502
-0.680215
-0.0497151
1.47319
0.172785
-0.041251
0.159392
-0.272673
0.33659
0.307257
-0.560325
-0.341675
-0.0812292
-0.492331
0.131788
0.826269
0.704187
0.857936
0.870695
0.253155
1.26988
0.173075
-0.126224
0.0688526
-0.3382
0.457023
0.534418
0.445044
0.414908
0.306922
0.103986
0.114178
-0.0274341
-0.509678
0.105775
0.326922
-0.401564
-0.883422
-0.226155
0.96258
0.466957
0.0730844
1.51455
-1.17687
1.745
-0.629287
-0.224855
0.0694128
0.210259
-0.509773
-0.110308
0.165126
-0.729889
-0.566672
2.04312
-0.0473992
-1.00008
0.352546
0.328671
0.243374
0.0123203
1.11155
-0.611026
-1.38397
-0.389905
-0.47542
-0.752206
-0.536665
-0.321972
-0.231914
0.804554
0.634375
0.488733
0.675202
0.623544
0.465633
0.0954517
-0.453341
0.190546
1.31847
0.734821
0.344152
0.0811372
0.270576
-0.323533
0.906316
-0.336356
-0.687767
0.544226
0.481769
-0.714239
-0.696239
-0.231321
-1.16647
-1.00016
0.114515
0.321484
-0.165087
1.03831
0.386381
0.0659383
0.361715
0.611287
0.151571
0.326009
-0.111217
0.211039
-0.343255
-0.151879
-0.566183
0.104317
-0.385834
0.29627
-0.894315
-0.226395
0.0200447
0.842471
0.290604
-0.190865
0.556837
-0.274621
-0.130545
0.56768
-0.333378
-0.402556
-0.898508
-0.760054
0.00785014
0.201669
0.387755
0.242919
-0.036956
-0.496504
-0.272229
0.376804
-0.327818
-0.61925
-0.229047
-0.306649
0.401259
0.607539
0.542782
0.332193
-0.539286
-0.307388
0.694186
-0.642061
-0.412835
0.143359
1.55843
-0.314571
-0.0484741
-0.200537
0.326792
1.29037
1.17758
0.613394
0.0267495
-0.829352
0.342237
0.0122781
-0.497866
0.225577
-0.230551
-0.604877
0.267356
0.96904
-0.000889099
-0.0842807
-0.274582
0.901672
0.794624
-1.2269
0.935513
0.217093
0.551702
0.257124
0.640318
-0.256711
0.778515
0.312521
0.802446
0.145315
-0.137245
0.335631
-0.356164
0.00580953
0.822235
0.814495
0.297698
0.385103
0.893186
0.323074
0.00714937
0.134809
0.401983
0.4197
1.01991
0.365041
1.07278
1.01178
0.641685
0.00469655
1.2812
0.35131
0.688903
0.980292
0.735253
1.12639
-0.0281124
0.59555
1.03709
0.0703997
0.378709
-0.215697
0.0960327
0.572676
1.10672
0.851354
0.0956149
-0.0348891
0.770571
0.618077
0.152619
0.390078
0.532342
0.48306
0.439147
-0.433645
0.181214
-0.549601
-0.260727
-0.671054
0.390205
-1.58299
0.142321
-0.573456
-0.341849
-0.161819
-0.294694
-0.17759
-0.304862
-0.289185
0.625299
0.209976
0.471644
0.215173
-0.71113
0.124777
-0.689445
-0.0650844
0.934551
-0.272343
-0.283655
-0.277296
-0.480067
-0.442999
-0.758542
-1.06524
-0.640398
-0.991903
-0.280194
-0.849555
-0.120254
-1.30083
-0.28971
0.425609
2.14884
-0.194745
0.321094
0.34082
-0.330812
0.349602
-0.408343
0.266139
-0.33672
0.291797
-0.0837701
0.0875776
-0.439392
-0.0111342
0.651683
-1.0289
0.0709024
0.0431538
0.959642
0.646251
0.0961209
-0.356667
-1.47386
0.740135
-0.614185
0.421674
-0.19916
-0.425641
0.668912
0.303093
-0.929447
-0.49138
0.163942
-0.448731
0.10491
0.144397
0.102029
-0.458205
1.1756
0.409645
-0.652688
0.126736
-0.775788
-0.191644
0.0585376
1.05663
0.0144861
-0.266563
-0.403718
0.292717
-0.779227
0.415066
0.66222
1.10361
0.791051
0.457722
-0.392416
-0.542069
0.706463
-0.0540208
-0.335785
-0.493296
0.0419043
0.230774
0.446999
-0.154803
0.275597
0.153212
0.337315
-0.205405
0.798611
-0.0650569
0.605057
-0.38898
0.862697
0.3565
0.119543
0.959356
0.586579
0.493838
0.395283
0.543268
-0.0462292
0.40287
-0.0209633
1.09991
0.942383
0.668876
-0.0118233
0.132022
1.20461
0.322067
0.1828
-0.159328
-0.216633
-0.273378
-0.158084
0.655478
-0.000160165
0.600027
-0.0958778
-0.109237
0.936903
0.778308
0.626195
1.39913
1.41501
1.68411
0.930103
1.6136
1.22142
1.03872
1.09756
0.507859
0.638708
0.996009
1.35115
0.864898
1.13969
1.5185
0.924412
0.70328
1.25207
0.858827
1.35485
1.20269
1.98544
1.11104
0.76546
0.64664
1.12632
1.19219
0.837076
0.43012
1.11843
0.173837
-0.187674
1.38165
-0.693343
1.44324
-0.897844
-0.0570913
-0.400607
0.199421
-0.340413
0.344716
0.352467
0.0489086
0.123933
-0.35023
0.584572
0.472658
-1.03486
-0.164467
0.28219
-0.900426
0.180335
-0.847048
-0.737918
0.951553
1.26981
-0.155718
-0.524767
-0.173736
0.220097
-0.341318
-0.662693
0.445988
-0.48261
-0.401383
-0.38136
0.600118
0.157549
1.03846
-0.519804
-0.166004
0.723186
-0.36278
-0.412898
-0.426143
-0.0309493
0.188667
0.303011
0.874822
-0.303712
0.888173
-0.91811
0.228882
0.857419
-0.348169
-0.131949
1.12176
0.935152
0.62142
-0.367047
0.722875
0.817635
-0.093975
0.172296
-0.630309
0.282873
0.669627
2.20449
-0.501951
-0.118774
-0.2485
0.0704582
0.449734
0.108363
0.328569
-0.124099
0.211262
-0.11191
0.985993
0.340596
0.49248
0.219097
0.0195712
0.31187
0.0203371
0.21544
-0.575766
0.203415
0.13544
0.713032
0.352133
-0.540603
-1.33061
0.172384
0.275412
-0.109798
0.395064
-0.480634
0.318209
-0.272245
0.778294
0.511234
-0.131809
0.993325
-0.30548
0.376848
0.281267
0.400931
-0.199814
-0.466297
-0.223739
0.894811
0.417923
-0.587198
-0.534315
-0.545083
0.0367035
-0.561536
-0.409975
0.761713
-0.0253081
-0.812754
0.336561
-0.638005
-0.636397
-0.635907
0.129582
-0.716591
-0.324325
-0.384177
-0.270055
0.162497
0.193998
0.133849
-0.601414
0.0965602
-0.37817
-0.0902722
-0.286162
-0.445345
-0.194648
-0.491596
0.492683
-0.217457
-0.447297
-1.06879
0.530628
0.328755
0.116663
-0.616226
-0.16822
-0.865536
-0.537856
0.720578
-0.278069
-0.0537879
-0.228168
1.13823
1.03015
0.34601
-0.210815
0.368538
-0.0426034
0.376069
-0.299727
-0.242
-0.131353
-1.03278
-0.167711
0.181711
-0.765524
-0.116476
0.0883324
-0.0968391
0.531063
-0.177969
0.51319
-0.722312
-0.358736
-0.649976
-0.172525
0.0168102
0.379524
-0.187514
-1.09983
0.123654
-0.310327
0.277075
-2.0099
-0.62686
0.410112
0.276346
-0.2011
-0.249854
0.793706
0.284331
0.00811059
-0.086787
-0.61754
0.464729
0.993511
0.00700712
-0.179253
-1.23305
1.4248
0.390617
0.104911
-0.58971
0.355226
0.695945
0.250005
0.83016
1.65478
0.369876
-0.0749156
-0.119151
2.02132
0.479278
1.32717
1.05534
-0.512845
-0.176992
0.845185
0.716726
-0.573303
-0.355365
0.500421
0.760734
-0.245542
0.814584
0.688271
-0.206576
0.457778
-1.02308
-0.500282
-0.383205
-0.114249
0.520592
-0.622976
0.669157
-0.227293
-0.855533
0.886984
0.558206
-0.763409
-0.260936
-0.489213
-0.294976
0.0665915
-0.224623
0.118568
-0.321039
-0.593668
0.0332623
0.70043
0.776783
0.632387
-0.337808
0.660985
0.109059
0.475056
0.23828
0.913473
-0.210377
0.959441
0.0116542
0.971471
0.0935692
0.740164
0.118565
-0.0404814
0.795983
-0.057695
-0.0999259
0.608793
0.448913
-0.267368
0.099563
-0.0740862
-0.899144
0.162535
-0.0187527
-0.292383
-0.145679
-0.571444
0.506189
-0.0286173
0.149496
-0.283478
-0.188349
0.172808
0.506944
0.703397
-0.395953
0.0481518
-0.68163
0.354567
-0.13644
-0.0729588
0.128463
-1.28641
0.251887
1.04036
-0.19617
0.0648369
-0.478351
0.344849
-0.943627
0.0993744
0.513488
-0.860333
-1.52527
-0.825278
1.01006
0.658795
-0.581
0.336767
-0.332783
-0.580115
0.0453024
0.825054
-0.566893
-0.911448
0.512786
-0.107198
0.190976
1.06732
0.0324538
0.472845
0.200608
0.434498
-0.314649
0.834561
0.437512
-0.00850668
-0.144932
0.703877
0.204474
-0.282265
0.0795521
0.457209
0.109008
0.234287
0.522003
-0.19216
0.182073
0.309511
0.0301508
-0.144347
0.444963
-0.453908
-0.260886
0.660438
0.214292
-0.321424
0.436367
0.485697
0.116211
0.182849
0.136575
0.468923
0.441063
0.307886
-0.218748
0.307943
-0.0972107
0.751778
0.18484
0.747167
-0.212391
0.705222
-0.34688
1.40053
1.027
0.282826
-0.583521
0.0157928
0.506192
0.138175
-0.703489
0.453362
-0.145814
0.0336051
0.123732
0.656463
-0.0461103
0.26668
-0.650779
0.559332
-0.606938
0.475027
0.782145
-0.980272
-0.917967
1.15404
0.815716
-0.341156
0.253398
0.161407
-1.07809
0.445741
-0.176582
-0.0914761
0.976502
0.280899
-0.329554
0.175579
-0.0238345
0.333004
0.508624
0.265794
-1.12388
1.07234
0.22291
0.648906
-0.301571
-1.31762
0.385948
-0.861023
1.0985
0.102717
-0.29851
-0.374064
0.228641
0.242905
0.31821
-0.563163
0.513643
-0.306612
0.377887
0.386787
-0.13781
-0.358731
0.327525
-0.250169
1.06467
-0.168967
-1.32856
0.190161
0.348639
0.999342
-0.417043
-0.772815
0.563972
0.52885
0.315741
-0.330647
0.501107
-0.0321243
-0.365892
0.0987893
-0.377618
0.77403
-0.0865918
-0.014551
0.411051
-0.156463
0.694863
-0.00409456
0.534635
-1.04216
0.0584153
0.473228
-0.249405
-0.381373
-0.0581959
0.466793
1.0044
-0.751797
0.379121
1.6572
0.970327
-0.491855
0.991237
-0.0359597
-0.286344
0.179
0.931965
0.807482
-0.686098
0.642758
0.13684
-0.597429
0.222377
-0.199325
0.0778476
0.0161726
-0.00063736
-0.140157
-0.391507
0.0955002
-0.00531393
0.0962424
-0.0723426
0.12734
0.622335
0.10131
0.444107
-0.000763797
0.228245
0.00137031
-0.16204
0.0368974
-0.490049
0.190403
-0.0447676
0.348194
-0.104746
-0.142162
0.281764
-0.856986
-0.944977
0.389766
-0.383534
0.69907
-0.0720742
-0.449009
-0.6734
0.914459
0.675952
-0.71875
-0.248786
0.611843
-0.98825
0.808069
-0.273533
0.19489
-0.834697
-0.343627
0.199305
-0.251891
-1.78448
0.261151
0.0365985
0.391316
0.397145
-0.847802
-0.191408
-0.349861
-0.660788
0.472117
-0.555791
-0.805574
0.928399
1.07605
-0.794083
-0.815896
1.55935
0.943866
-0.831563
-1.36455
0.45181
-0.937748
-0.109998
0.0883174
-0.209877
0.340842
-0.706585
0.376995
0.627533
0.181396
-0.669047
0.288473
-0.0651382
0.148338
0.496324
-0.33217
0.390655
0.303601
-0.11273
0.405948
-0.0667299
0.509212
0.259306
1.10168
0.50065
0.0855433
0.544189
0.356985
1.08594
0.643739
0.739536
1.13629
-0.170405
0.20717
-0.565711
-0.263878
0.0512311
0.487199
-0.206946
0.464523
0.363702
0.000804034
-0.345436
0.713482
-0.121594
0.407267
0.0708729
-0.08566
0.423356
0.0529308
0.0847507
-0.0514652
0.795843
0.393617
-0.35222
-2.12504
0.163789
-0.262473
0.867334
-0.44223
0.773112
0.740708
0.139109
0.556992
0.551772
0.850288
-0.0945688
-0.230458
0.664588
-0.130828
-0.198446
-0.851091
0.513977
0.166727
-0.148444
0.65833
-0.316461
-0.418774
-0.228128
0.445054
-0.220722
0.827042
-0.47697
0.681732
0.0320043
1.14609
0.0396483
-0.629165
0.564482
1.68535
-0.0704485
-0.660201
-0.381339
0.120322
-0.228559
2.40889
0.256642
0.130563
0.00710865
0.433097
0.478579
-1.28142
0.120488
-0.0583152
0.418352
0.375252
0.00595636
-0.344408
0.0854748
-1.09448
-0.714819
0.188654
-0.449154
0.157254
-0.222056
0.794721
0.446437
-0.589098
0.917291
-0.373948
0.443179
-1.44455
0.201075
0.836344
-1.04562
0.299792
0.900545
0.166761
0.110661
0.172539
-1.04114
-0.335505
0.121432
-1.37819
-0.829144
0.304513
-0.090295
0.835704
0.0807309
0.408122
-0.246563
-0.315065
-0.161289
-0.630115
-0.52327
-0.406718
-0.549445
0.679441
0.0317565
0.0399773
-0.423776
-0.326022
0.62524
-0.365683
0.779035
-0.223061
0.224893
0.0398135
0.306333
0.340986
-0.06821
-0.788012
-0.352443
0.569657
-0.118164
-0.239663
0.363872
0.271519
-0.299646
-0.344891
-0.446617
0.230321
1.07844
0.241357
-0.449015
-0.482761
0.771333
-0.107184
-0.404362
0.224098
0.832345
-0.759485
-0.0118422
0.637567
-0.472404
1.44985
-0.576685
0.407658
-0.500779
0.366619
0.61517
-0.152719
0.456601
-0.116964
-0.273322
1.12769
-0.130474
-1.15357
0.419219
0.280046
0.377216
-0.582881
0.543661
-0.53223
0.406394
-0.0385878
-0.150146
0.326341
-0.527443
-0.161073
0.0454587
-0.0438558
-0.240897
0.231762
-0.488269
0.092567
0.128691
-0.686456
0.135201
0.19567
0.470877
0.171637
0.39432
-0.951102
-0.143875
0.187855
-0.0382535
-1.37648
0.0358484
-0.369582
-0.821626
-0.970255
0.350837
-0.117103
-0.0838719
0.543863
-0.869706
0.471578
0.272564
0.139828
0.560554
-0.338721
0.726148
1.39888
0.158406
0.00718941
-0.35541
0.660545
0.214438
0.971801
0.261172
0.259201
-0.0542041
-0.608802
-0.197788
-0.453009
-0.359504
-0.063002
0.961943
0.150388
-0.12169
-0.457608
-0.30642
0.770368
0.539493
0.188964
0.258748
-0.334386
-0.225314
-0.467251
0.13589
-0.414951
0.155735
0.774198
0.183709
-0.161592
-0.112124
-0.434267
-0.400087
-0.215453
-2.25045
-0.59187
0.676114
0.163714
-0.335585
0.181354
0.621369
-0.0430451
-0.572727
0.0151959
-0.0603672
-0.0599043
0.165691
-0.555804
0.387242
0.0988705
0.292201
-0.0917997
-0.64736
0.230951
-0.931434
0.219941
-0.350945
-0.675144
0.919321
0.304372
0.302431
-0.118298
0.0809083
-1.37608
0.712408
-0.230798
0.327019
-0.338088
-0.155456
0.0501022
-0.147024
-0.422312
0.712386
-0.317714
0.181128
-0.592559
0.606284
-0.877025
0.760169
-0.293086
-0.672815
0.521479
-0.546284
0.329809
0.457837
-0.529613
-0.775527
0.688471
0.153311
0.758098
1.1219
0.337622
0.836291
0.139559
-0.0135491
-0.217755
-0.369376
-0.203988
0.486411
1.16482
0.239565
0.421256
0.461436
1.01723
0.678017
-0.194217
0.390104
0.595105
-0.00074523
0.741877
-0.617393
0.726754
0.0185762
-0.0126006
-0.182497
0.777539
0.275774
0.874652
0.278182
0.0986751
-0.455823
-0.554367
-0.094212
0.566356
0.278259
-0.456257
-0.173107
-0.0587237
0.419165
0.0485534
-0.562993
0.313326
0.437102
0.439773
-0.0765884
-0.11979
-0.21401
0.581433
-0.0661132
-0.370249
0.335733
-0.027927
-0.127768
-0.469064
0.366076
0.774868
0.157251
0.114675
0.939758
0.19277
-0.265285
0.315247
0.91863
0.395459
0.600071
0.501558
0.693046
0.611056
0.743145
0.979349
0.410353
0.948165
0.825106
0.746187
-0.273151
0.12992
0.506909
-0.389017
-0.136389
0.729049
-0.0225743
0.110447
0.282686
0.559796
-0.468728
-0.446681
-0.854679
0.559252
0.622295
0.210721
-0.241485
-0.302185
0.812553
0.650819
0.200007
-0.0320481
-0.165664
0.106045
0.292964
0.802653
0.242131
0.609426
0.102416
0.666712
0.672487
0.620222
0.922702
0.322642
0.504664
0.303161
-0.243015
0.771053
0.157727
0.507065
0.611538
0.23214
0.646016
-0.268047
0.672221
-0.24606
-0.223821
0.36113
0.575152
0.276793
0.233409
0.638688
0.320448
0.00672095
0.133127
-0.411456
-0.00617134
0.321192
-0.114018
0.723482
-0.138832
-0.125773
-0.648884
0.302432
0.391403
0.566793
0.283329
-0.383786
-0.392301
0.0064377
0.19599
0.514656
-0.686049
-0.313457
-0.358194
0.0491384
0.120465
-0.167985
-0.891358
0.385633
0.39537
0.219949
0.0253697
-0.555823
0.151878
-0.298186
0.225261
-0.516424
-0.131952
0.122738
-0.483546
-0.124603
0.299932
-0.266693
0.0186859
-0.469661
-0.844973
-0.214378
0.124427
0.123455
0.0453549
-0.337619
0.613772
0.190919
-0.391976
-0.483513
-0.558358
0.151776
-0.497661
0.608594
0.22513
0.135186
0.545091
-0.461912
-0.331124
-0.192314
-0.321057
-0.334439
0.303588
0.49191
-0.00776017
0.396611
-0.167911
-0.525831
-0.056617
0.0886543
0.700037
0.00279835
-0.44506
-0.254361
0.694598
-0.142877
0.158755
-0.587227
-0.0982869
0.0474682
-0.0537493
-0.368887
-0.284428
-0.167397
0.529547
0.152388
0.456687
-0.323362
-0.344829
-0.0468279
0.0455914
0.185757
-0.252743
0.153593
0.280107
0.0952348
-0.338532
-0.0514875
-0.259114
-0.0611793
0.467998
-0.228217
-0.00865575
-0.0197364
0.314354
-0.449394
-0.526182
-0.622591
-0.562057
-0.307134
-0.0275148
-0.602744
-0.271759
0.304512
-0.486494
-0.300232
0.176947
0.406028
0.0195255
-0.55784
0.170988
0.407883
-0.137238
-0.313182
0.384095
-0.0996929
0.588434
-0.408317
0.381016
-0.345625
-0.748347
-0.572241
0.370125
-0.285822
-0.131285
-0.549512
0.450496
0.4525
0.11315
0.227518
-0.719688
-0.345204
0.303138
-0.223108
0.821112
-0.0314504
0.638894
0.184807
0.44878
0.451049
0.445199
0.0194551
0.324491
0.519776
0.794755
0.757461
1.22218
0.449689
0.0758339
-0.0359055
0.160141
0.366698
-0.339739
-1.15732
-0.496995
-0.500328
0.562273
0.464418
-0.747879
0.242383
0.102263
0.140853
0.439441
-1.0819
-0.0593313
0.0412801
0.706709
0.603441
-0.200852
-0.233275
0.400666
0.464545
0.307651
-0.20443
0.587979
0.150014
-0.286932
-0.347101
-0.672265
-0.358197
-0.303279
0.322283
-0.357796
-0.312215
0.137764
-0.621094
-0.046284
-0.495507
0.59378
-0.819003
0.425093
0.656404
0.0550368
-0.0990244
-0.314715
-0.440136
-0.126903
-0.224927
0.51903
-0.521243
0.544664
-0.449104
0.28629
0.589886
0.167625
-0.126093
0.452562
-0.380109
0.269503
0.319235
0.0481886
0.276518
-0.165736
-0.581417
0.143806
-0.175807
-0.11873
-0.111397
-0.203757
0.486338
-0.615142
0.0544308
0.571441
0.672975
0.453969
-0.137229
0.853366
-0.392796
0.195984
0.0106431
-0.152773
-0.516484
-0.0104983
0.514302
0.0931764
0.603559
-0.74343
-0.503258
0.635755
-0.214679
0.118466
0.67996
-0.130759
-0.726627
0.341255
-0.446127
0.0743175
-0.481339
0.040229
0.455683
0.258118
-0.140765
-0.110934
-0.28807
0.0563279
-0.0588188
0.540114
0.0992371
-0.132122
-0.0141375
-0.586307
0.373854
0.118992
0.49589
-0.515823
-0.49032
0.531555
-0.443728
0.532033
-0.102114
0.393801
0.610368
-0.247445
-0.63794
0.0330147
0.2539
0.284256
0.194204
-0.10438
0.501501
0.628255
0.72751
0.253763
0.0700808
0.392821
0.154609
-0.268348
0.259055
-0.193081
0.235466
0.139894
0.135596
-0.00905514
-0.23874
0.0875065
-0.378342
0.313744
0.212138
-0.16413
0.0985812
-0.511253
0.333728
0.836885
-0.699473
0.310841
-0.124917
-0.10281
-0.426833
-0.0214296
-0.0469074
-0.0362057
-0.239379
0.284669
0.0241435
-0.292829
0.348499
0.140884
-0.469317
-0.477727
-1.35199
1.06977
-1.21757
0.300303
0.302842
-0.0544905
-0.559164
0.223533
-0.499642
-0.401721
1.07491
-0.735526
-0.809514
-0.115811
-0.0487911
0.918864
0.283839
-0.55679
-0.858003
-0.57275
-0.0242416
-1.24977
-1.31608
0.504039
-0.273256
0.383455
-0.333777
-0.848918
0.489677
1.51298
0.968621
0.725062
-1.23528
-0.411705
-0.189851
-0.545148
0.4375
0.390795
0.212559
-0.704718
-0.451155
0.235212
-0.136015
-0.0173887
0.0421386
0.216928
-0.0193224
-0.00822313
0.0124186
-0.297138
0.531296
-0.119682
0.312774
0.0326746
0.379534
0.898427
0.648732
-0.0287201
-0.220068
0.358278
-0.027411
0.0977781
0.385762
0.373233
-0.543045
0.0759357
0.410832
0.429469
-0.215641
0.489682
-0.257553
-0.665834
0.73922
-0.103499
0.100495
0.346588
0.445652
0.203082
0.255346
-0.0860843
0.10931
0.406083
1.03901
-0.350445
0.404526
0.588961
0.580872
0.300641
-0.474309
-0.275862
-0.0510217
0.53188
0.277844
-0.268395
0.0811587
0.234273
0.0725301
0.105517
0.510389
-0.332354
0.299218
0.562505
0.0110512
-0.844611
0.350963
-0.552244
0.425996
0.808383
-0.189851
-0.442547
0.273249
0.280611
0.386274
0.256544
0.410168
0.218027
0.385043
-0.148582
-0.454329
-0.321726
-0.42109
0.306676
-0.106723
0.50249
-0.460957
0.534055
-0.0710072
0.0346679
0.267761
0.0673373
0.356406
0.23589
0.305991
0.616433
0.289033
0.171648
-0.393922
0.253034
-0.476755
0.580181
-0.294249
-0.409233
0.559118
-0.673834
-0.29968
-0.203296
0.15625
0.0316294
0.451906
-0.376825
-0.156855
0.0462593
-0.384206
-0.570498
0.269745
-0.197439
0.0329304
0.287425
0.427863
-0.665747
-0.165855
0.357431
-0.79273
0.0536201
0.164591
-0.00963344
-0.311603
-0.0451121
-0.885095
-0.0814282
0.179781
0.0798126
-0.336639
-0.141472
0.0460988
-0.873662
-0.799759
0.179494
-0.256881
0.176926
-0.999536
0.0588145
0.0720058
-0.696575
0.752975
-0.206666
0.654719
0.377991
0.0331668
0.194141
-0.549625
-0.0849383
0.0945551
-0.363041
-0.419718
-0.040181
0.323954
0.541494
0.189638
-0.188694
0.345382
0.474632
0.650762
-0.0821521
-0.352372
0.266186
-0.483488
-0.578052
0.489827
-0.0690993
-0.00190255
0.310337
0.346913
-0.101129
0.102456
0.171452
-0.386327
0.110226
0.0869741
-0.350432
-0.0826139
-0.328135
-0.0842694
-0.686921
0.596161
0.504373
0.0361526
-0.0539581
-0.436898
-0.13378
-0.300779
-0.195497
-0.221104
0.530936
-0.364786
-0.0386991
0.310448
0.480658
0.343512
0.227701
-0.326451
-0.44876
0.0176104
-0.0336112
0.277854
0.0135833
-0.467201
-0.335468
0.300556
0.30154
-0.195951
-0.300641
-0.222056
0.30339
-0.577478
0.253992
0.394508
-0.561214
-0.415361
-0.161069
0.192689
0.280227
-0.255528
-0.0371777
-0.336563
0.411087
-0.0901435
0.235859
0.0501899
-0.307227
0.137921
0.448385
-0.0342113
-0.0899049
0.117382
0.399373
0.0640732
-0.532335
1.37503
-0.768899
-0.332995
-0.708115
-0.686873
-0.389732
-0.378647
0.28321
-0.00744473
-0.549034
-0.386602
-0.317662
-0.0778645
-0.236217
0.764886
-0.0926857
-0.777877
0.0862158
-0.146732
1.17427
-0.307376
-0.0984428
0.130032
-0.333014
-0.166643
-0.934453
-0.675542
0.557093
-0.330484
0.831969
0.161898
-0.340431
0.478325
1.16915
1.08278
0.541759
-0.56827
-0.8071
-0.822961
-0.893223
0.914545
-0.830372
0.531668
-0.733171
-0.995609
-0.55964
-0.535219
1.03447
0.319951
-0.187554
-0.695469
-0.729836
-0.0208344
-0.768425
0.814591
0.122781
0.0887481
-1.51354
-0.412598
-0.796964
-0.311718
1.2731
0.0432641
-1.48948
-0.107705
-0.497169
1.01578
0.0092163
-0.0106547
-0.803616
-0.756866
-0.430012
-1.49861
-1.13081
0.665053
-0.800167
0.602041
0.654316
-0.324053
0.0343901
1.47134
0.860367
0.936756
-1.27483
-0.32507
-0.16357
-1.0654
1.1967
0.322615
-0.267586
-1.42602
-0.253109
0.181941
-0.0361946
0.814544
-0.649551
-0.0827648
-0.292864
-1.04509
0.199874
-1.03739
0.185207
-0.374733
0.23932
-0.761912
-0.373455
-0.0279594
1.35427
0.438628
-0.991214
0.0595219
-0.0457614
-0.131995
0.541741
0.163196
0.11227
-0.745914
-0.810802
0.0805912
-1.04773
0.0577029
-0.556973
-0.519572
-0.259085
-0.0867248
-1.19987
-0.214925
0.862115
0.255377
0.275488
-0.916588
-0.0441284
-1.08759
-0.921799
1.12497
-0.484003
0.546516
-1.90685
-0.365778
0.089575
-0.782182
-0.132866
-0.253985
-0.650835
0.41516
-0.38882
-0.135712
-0.320157
-0.719687
0.144881
0.0446879
-0.324377
-0.238982
-0.486452
-0.104564
-0.358974
-0.401531
-0.225152
-0.127976
-0.962884
-0.588447
-0.165209
0.33035
0.0417072
0.0595019
-0.250769
-0.102595
-0.126402
0.123929
0.559354
-0.224221
0.139428
-0.468339
0.0235434
-0.135031
-0.167845
-0.822257
0.342976
-0.317911
-0.0534383
-0.899837
0.114212
0.164113
-0.890485
0.00474935
-0.397541
0.0599655
0.135845
-0.0075405
0.201828
-0.319229
-0.163927
-0.384289
0.352166
-0.2526
-0.0781228
-0.311235
0.150277
-0.357132
-0.247379
-0.468664
-0.213555
0.55768
-0.904589
-0.451434
-0.0837848
0.211815
0.0956722
-0.287509
-0.105456
-0.373871
-0.603469
0.648367
0.362656
-0.588091
0.0788064
0.029507
0.742804
0.0689476
-0.0239644
0.22776
-0.534405
0.399985
0.214821
-0.603274
-0.351802
-0.95674
0.579822
-0.326021
-0.261382
0.36104
0.393866
0.190518
0.41537
-0.0273703
1.00502
-0.015597
-0.163328
-0.685407
-1.22111
0.206903
-0.857351
0.627368
-0.283455
-0.131333
0.425325
-0.203976
-0.182233
-1.53562
0.227092
-0.053828
-1.34007
0.782972
0.135729
1.40585
0.241343
-0.56454
-0.817396
-0.656065
0.140897
-0.240779
-1.09009
1.46875
-0.998082
0.69846
0.0189169
-1.07176
0.301449
0.518346
1.22214
-0.20255
-0.293413
-0.615803
-1.10452
-1.04359
1.12126
0.100845
0.686941
-0.824026
-1.25004
-0.304372
0.0621224
0.0309442
-0.151896
-0.104264
-0.326084
0.0719797
0.044552
-0.861789
0.522898
0.659462
0.223505
-0.61855
0.0149335
0.311127
0.335532
0.218239
0.114616
0.0419181
0.465592
0.665672
0.62002
0.376335
-0.303192
0.0494315
0.0168441
-0.0677134
0.0809874
-0.0991206
-0.131523
0.0598969
-0.172942
-0.0894478
-0.0914568
-0.300524
0.150008
0.0942903
0.079554
-0.874646
0.496067
0.237299
-0.697269
0.317409
-0.271212
-0.425078
-0.609431
0.418375
0.419627
0.202624
-0.167164
-0.0740934
-0.320207
0.735399
0.326804
-0.365107
-0.755163
0.108945
0.0726992
0.10605
-0.159252
-0.0702136
-0.705521
-0.701249
-0.153852
0.447194
0.318471
0.971794
0.00273948
-0.102965
-0.0133205
0.655104
-0.352867
-0.156899
-0.498958
-0.625725
-0.189886
-0.109961
0.528288
0.0731195
-0.122791
0.275734
0.146402
0.260949
0.561948
-0.527056
-0.548204
-0.369111
-0.230062
-0.384964
-0.299429
0.20315
-0.713141
0.179793
-0.108095
0.0287655
-0.359842
-0.120572
-0.355692
0.220817
-0.286702
-0.0578456
0.0464875
-0.472124
0.440752
-0.2334
0.159338
0.228569
-0.794474
-0.311856
-0.417713
-0.0064748
0.0693295
-0.211805
0.612267
0.642041
0.119332
-0.0137525
-0.494444
-0.879858
-0.599127
0.775555
-0.275404
0.367562
0.242162
-0.706631
-0.190993
0.863085
-0.453435
0.901848
0.200983
-0.115446
-0.416061
-0.544776
-0.128677
-0.294535
-0.128621
-0.414588
-0.332532
-0.131786
-0.761281
-0.0382422
0.247473
-0.588411
-0.653622
0.662462
-0.360154
0.256585
0.400335
0.0184148
-0.270418
-0.35231
0.861729
0.120813
0.42111
0.381704
-0.48452
0.513448
-0.726212
-0.113124
-0.878392
-0.442037
-0.377273
0.188905
0.517694
-0.232844
0.503413
-0.172696
-0.190383
0.0633013
-0.106099
-0.271749
0.369187
-0.15771
-0.338215
-0.110024
-0.322809
0.605508
-0.635631
0.0611078
0.044503
-0.803142
0.188899
-0.455031
-0.065408
-0.220888
-0.656845
0.0633085
-0.420199
0.349286
0.0695617
0.935091
-0.238891
0.141625
-0.00836762
-0.203377
0.0800836
-0.883732
0.493768
-0.209214
-0.0302278
-0.197737
-0.851406
0.678815
-0.213564
0.824985
-0.515148
0.105205
-0.360949
-0.237269
0.589256
0.0770834
-0.929937
-0.575509
-0.648195
0.268086
-0.542896
-0.0394932
0.57429
-0.0121433
0.982049
0.578464
-0.403746
0.554483
0.572404
0.547721
-0.511529
-0.119149
-0.221341
-0.228366
-0.587448
0.52756
-0.586755
-0.722814
-0.779323
0.0934036
0.366245
-0.576242
0.374705
-0.100763
-0.0387967
0.0431394
-0.680546
0.254784
0.204509
0.684052
-0.294547
0.549225
-0.0961964
0.467243
0.152866
-0.179702
0.420662
-0.997661
-3.51797e-05
0.427048
0.461052
0.451368
-0.0948261
0.00558846
-0.441708
-0.257971
0.227265
-0.27616
-0.504761
-0.300817
-0.308044
-0.145225
0.404595
0.172385
0.116774
0.0323254
0.27523
0.362954
-0.0798082
-0.323922
0.0686153
0.171615
-0.133016
-0.0407855
-0.349548
-0.494643
-0.116867
0.328545
-0.0167703
0.362461
0.197372
0.4951
-0.283693
-0.241433
0.197408
0.617807
0.235568
-0.234186
0.221891
0.0713033
0.0943365
0.866806
0.421456
0.373593
-0.143565
0.235043
0.719322
0.495336
0.36236
0.486177
0.180656
-0.320188
0.297638
0.403436
0.60317
-0.267592
-0.5301
-0.0390866
0.813268
0.198164
-0.488546
0.199788
-0.242772
0.447969
0.0249105
-0.679615
0.370527
0.437512
0.832699
0.457448
0.349653
0.0708302
0.653539
-0.310167
0.525697
0.169756
0.146084
0.288526
0.132289
0.152435
-0.469136
0.31337
-0.0512029
0.0798695
-0.323323
-0.290956
-0.407205
-0.41375
-0.130817
-0.283437
0.343633
-0.112404
0.0313079
-0.311209
0.363548
-0.285009
-0.378929
-0.148015
-0.179681
-0.0750903
0.236992
-0.485017
0.421562
-0.357707
-0.43342
-0.120833
-0.116534
0.309763
0.272699
0.43729
-0.329028
-0.369041
-0.131176
-0.489032
0.410141
0.364947
-0.208298
0.346043
0.44275
0.353517
0.122617
-0.235711
0.262795
0.28189
0.818678
-0.469442
-0.757817
-0.566349
0.878274
0.549429
0.128526
0.398264
-1.15558
-1.32573
0.456989
0.825839
-0.311132
1.37767
-1.01758
-0.627278
2.01415
1.39288
-0.0288471
-0.754516
-1.1159
-0.550927
-1.02398
-0.803415
-1.01158
-1.96108
0.1793
-1.00643
2.14361
-0.355259
-0.449963
0.181433
0.911833
0.588019
-0.126328
-0.975704
-0.876519
-1.70611
0.951124
0.790834
-1.53449
0.377226
-1.16273
-1.55251
-1.64974
-0.288955
0.327584
-0.323798
0.814901
-0.278196
0.0673766
-0.0764264
0.371723
1.05814
-0.52521
0.544916
-0.782855
0.0733644
0.750533
0.531308
0.602542
0.142851
0.154267
0.691046
0.337137
0.585944
-0.392863
-0.505565
0.298532
-0.140691
0.89341
0.164461
-0.144352
0.415707
-0.574656
0.400128
0.589744
-0.0613193
0.297836
-0.652799
0.833647
0.38452
-1.09465
-0.16798
0.267486
0.675723
0.0564302
0.286161
0.351651
-0.213352
0.076436
0.0113821
-0.78093
0.812558
-0.538448
-0.168746
-0.32502
-0.489041
0.152197
-0.840119
-0.545522
-0.905529
-0.160372
-0.119074
-0.804197
-0.379973
0.209117
0.418291
-0.555519
-0.0277771
-0.825297
-0.0359006
0.420968
0.0628317
-0.668524
0.0397514
-0.108798
-0.0461363
-0.119543
-0.359435
0.844558
-0.354547
1.06871
0.646942
-0.523996
0.696736
0.558805
0.596056
-0.283111
-0.145483
-0.46178
-0.939455
-0.590554
0.382997
-0.667181
-0.306752
-0.531314
-0.861965
-0.141873
-0.0291194
-0.127441
-0.0851594
0.448212
0.449687
0.592283
0.458907
-0.220511
-0.286661
-0.0812163
-0.233787
-0.0724579
0.192126
0.194937
-0.411525
-0.318924
0.370869
-0.210787
-0.359869
-0.372964
0.248703
-0.25173
0.423605
-0.439186
-0.0715661
-0.351055
-0.193626
-0.42423
0.205788
0.129939
-0.454004
-0.40796
0.368535
-0.0660828
-0.0934111
-0.1613
-0.0728064
-0.0959559
0.326328
-0.292987
0.15698
0.343327
-0.0983003
-0.570673
0.411012
-0.606806
-0.0378493
-0.365462
0.36185
0.363693
-0.120476
-0.279323
-0.471983
-0.349844
0.0432161
-0.351616
0.28356
0.221309
-0.0907985
0.153108
-0.249929
-0.307609
-0.195725
0.519616
-0.297597
-0.0655325
-0.67744
-0.341987
0.262566
-0.35189
0.121932
0.133481
-0.273853
0.115505
-0.330775
0.267563
-0.253677
-0.129458
-0.091405
0.58114
0.0944133
-0.323356
-0.587213
-0.30234
-0.217448
-0.378775
0.0606762
0.282158
0.289652
-0.347012
-0.551263
-0.562052
0.413696
0.466716
0.108482
0.284611
-0.531802
-0.236038
-0.303366
-0.228417
-0.107585
0.795036
0.513947
-0.63848
-0.200952
-0.082574
0.451175
0.803672
0.108246
0.377914
0.0980632
-0.0165005
-0.322616
-0.221657
-0.121519
-0.666356
-0.402603
-0.0594758
-0.264681
0.325011
0.413882
-0.0950235
0.088721
-0.0968093
0.391888
0.306074
0.444414
0.77655
-0.386715
-0.45454
0.672923
0.212435
0.525374
0.402984
0.354958
0.269171
-0.438504
0.505772
-0.510275
0.690561
0.138873
-0.165184
0.116905
-0.33176
0.142103
-0.165357
0.231713
-0.0594256
-0.519128
0.0216346
-0.39569
0.0205572
-0.0103554
0.227141
-0.0748723
0.383254
-0.441085
-0.00426048
-0.225077
0.104816
0.215075
0.249579
-0.34923
-0.108008
-0.0135714
-0.367782
-0.256996
0.16693
-0.237163
0.176317
0.177797
0.191041
0.410261
-0.390962
-0.538808
0.0872293
-0.144382
-0.438389
-0.259463
-0.125254
0.168333
-0.0715198
-0.398408
0.414956
-0.363962
-0.19758
0.361514
0.086311
-0.0884777
0.451753
0.0653402
-0.0615367
0.390044
-0.482633
-0.211884
-0.482043
-0.0579904
-0.442677
0.284567
-0.882324
-0.00054212
-0.148045
0.26045
0.160604
-0.379974
-0.0823014
-0.193755
-0.229683
-0.0628861
0.42932
-0.0518741
-0.778262
0.0921868
0.0971202
-0.475272
-0.221472
0.0986329
-0.323715
0.385465
-0.0459814
-0.544182
-0.185295
0.0361919
0.332189
-0.268969
-0.47446
0.148938
-0.593545
-0.551723
0.595649
-0.338402
-0.413243
-0.540043
0.112595
0.0452314
0.207116
1.07729
-0.17502
-0.198491
-0.852487
-0.684193
0.488127
-0.158327
0.565169
-0.314547
-0.23372
-0.321438
0.0537434
-0.423072
0.501386
0.247443
-0.0202343
-0.413378
-0.448569
-0.678989
0.557271
-0.834947
0.286121
-0.668993
0.25101
0.353123
0.187587
0.0144414
0.70984
-0.0561832
0.0895415
0.493553
0.153596
0.547363
-0.104562
0.765166
-0.145388
-0.717888
-0.373679
-1.348
-0.270481
-0.0320405
0.0414663
0.680049
0.131384
-0.737097
0.686804
-0.0537845
0.398415
-0.178165
0.823577
-0.558381
-0.341673
0.849732
-0.0414098
-0.310168
-0.428086
-0.585008
-0.356523
-0.610001
-0.432149
-0.33259
-0.0735833
-0.862533
-0.684379
0.950757
0.410632
-0.273127
-0.470764
-0.289638
-0.282735
-0.391035
0.466255
0.0303944
-0.737306
-0.382766
0.0282001
0.372421
0.398637
0.247666
0.59028
0.370281
-0.196866
0.371176
-0.563848
-0.7781
-0.0335142
0.134427
0.0899331
-0.387638
-0.0556796
-0.193402
-0.704133
-0.587975
-0.768535
0.21073
-0.572184
0.244541
0.49299
-0.751208
0.0640059
0.151149
0.891722
-0.125122
-0.0573163
-0.468913
-0.0980733
0.00829301
-0.607814
0.769288
-0.488974
0.499535
1.13127
0.331903
-0.000601322
-0.366222
-0.324362
-1.289
0.176193
0.755611
-0.753689
-0.154457
0.202472
0.182956
0.663242
-0.150034
0.00795787
0.0434877
0.445494
0.808867
-0.453315
-0.178063
-0.281458
0.229497
-0.284428
0.0342484
-0.705046
0.506251
-0.593229
-0.0358998
0.187795
0.261626
0.488031
-0.109004
0.168918
0.106353
-0.558661
0.281927
-0.739724
0.970704
-0.0793312
0.114146
-0.136816
-0.0110121
0.0931541
-0.307718
0.453576
-0.607455
-0.798625
0.389171
0.0505312
0.682787
0.137587
-0.664619
-1.10631
-0.96725
0.189388
-0.642919
-0.235745
0.488457
-0.412887
1.04575
0.093836
-0.032751
-0.539538
0.420611
1.15619
-0.457072
-0.452051
-0.415862
-0.51645
-0.24219
-0.0802606
-0.241712
-0.277101
-0.177512
-0.696337
-0.418915
-0.130206
0.112794
0.30197
-0.0101337
-0.1269
-0.77373
0.523088
0.0780467
0.450021
0.326706
0.76674
-0.447645
0.725882
0.638767
0.708069
-0.119076
0.188596
0.200998
0.321724
0.583332
0.336445
0.065969
-0.17536
-0.0429255
0.22795
0.451398
-0.440335
0.123809
-0.534658
-0.384978
0.0445046
0.398331
-0.354655
0.0278158
0.568876
0.905959
0.705373
-0.717486
0.624261
0.365398
-0.661863
1.0751
0.167251
0.357796
0.540119
0.0873493
-0.182165
0.153617
-0.35828
-0.166198
-0.396997
0.324985
0.639498
0.262156
-0.302744
-0.139391
0.297386
-0.128474
0.524884
-0.534932
-0.0963461
-0.181646
0.0800488
0.349893
-0.750792
-0.646083
-0.565052
-0.0261019
-0.412818
0.23097
-0.183928
-0.487865
0.127964
0.188208
-0.144508
0.423811
-0.302017
-0.0253669
0.343706
0.423831
-0.206895
0.100946
0.481681
-0.118639
0.913623
-0.649329
-0.0740272
-0.495021
-0.564669
-0.318995
0.074659
0.00975603
-0.0781529
-0.182272
0.0980984
0.0638152
-0.384078
-0.0420968
-0.509538
-0.566241
-0.386859
0.291664
-0.255287
0.197541
0.244483
0.349742
-0.164376
0.215979
-0.183746
-0.398319
-0.558662
-0.449279
-0.0531878
-0.456028
0.441999
-0.443991
0.241397
0.258699
0.0687321
-0.021346
-0.253657
-0.543714
-0.224596
-0.192585
-0.334485
0.195939
-0.389729
0.121084
0.426392
0.0145158
-0.0582777
-0.119751
0.263129
-0.103416
-0.342062
-0.0222456
0.22837
-0.159988
-0.231772
0.404369
0.118306
-0.426094
0.710818
0.306779
0.119181
-0.607659
-0.301136
0.91629
0.223623
0.558309
-0.133478
-0.183522
-0.322133
0.0713475
0.953776
0.864963
-0.246691
-0.0136548
0.332418
-0.112834
0.557262
0.438986
0.348568
-0.322795
0.312262
0.406323
0.398637
0.324403
0.0919916
-0.576157
-0.235417
0.355208
0.657271
-0.125529
0.321107
0.76003
0.455906
0.691071
-0.610615
0.244393
0.324755
0.497174
0.0872423
0.550005
1.04068
-0.00446543
0.533958
0.449354
-0.0450742
0.439365
0.547153
-0.232573
0.0542593
0.379759
-0.597149
-0.598481
-0.370353
0.477674
0.0518488
-0.326867
-0.297315
-0.330041
-0.63743
-0.184767
0.327333
-0.806233
-0.438975
-0.112718
-0.89757
-0.0273449
-0.265424
-0.276487
-0.570104
0.401396
-0.117912
0.444626
0.690834
0.277452
-0.512477
-0.503956
0.108138
-0.546506
-0.00702249
0.158125
-0.143681
0.828358
-0.405704
0.00275497
-1.15035
0.0129372
-0.380551
0.173031
-0.465888
0.0353839
-0.0169205
0.428428
0.507797
0.239279
0.41359
0.304764
0.0467043
0.640003
-0.0569818
0.445709
0.139815
0.202464
0.117154
0.252569
0.286237
-0.0531303
0.177951
-0.312086
0.121868
1.02195
0.581786
0.0539209
0.353717
-0.101696
0.219329
0.224658
0.652532
-0.00415014
0.159971
0.135672
-0.296457
0.161647
0.309516
0.251286
0.233259
0.85192
0.0524492
0.730233
0.324471
0.245774
0.350433
-0.211856
0.205897
0.166946
0.472144
-0.538466
0.311549
0.635586
0.469563
0.185001
-0.0816388
0.67948
-0.509755
-0.388658
0.312152
-0.481912
0.706226
0.413044
0.389984
-0.0912289
0.204506
0.69523
0.232208
0.0976469
0.16489
0.442675
0.371748
0.602686
0.300569
0.195187
-0.191505
-0.548828
0.219297
0.536393
0.195522
-0.586222
-0.32922
-0.302554
0.59027
0.369136
-0.544302
-0.0237675
-0.376018
0.276918
0.418204
-0.214961
0.124102
0.414968
0.117333
0.523467
-0.333598
0.0840642
-0.379391
0.451592
-0.111415
0.306647
0.807347
-0.969194
-1.00446
1.78821
0.978247
-0.626017
-1.46575
3.10508
1.32559
-1.26969
0.829679
0.0287729
0.894152
2.888
3.15693
2.91123
-1.46992
1.15748
3.18418
-1.01322
-1.43253
1.44739
-1.38115
2.02513
0.461656
1.48635
-0.0831792
5.41607
1.40712
2.89844
-0.374488
-0.856715
1.27472
0.205383
0.15021
1.93771
2.03773
1.69205
1.49962
1.2661
-1.25076
0.0606517
1.92825
-1.84914
0.101791
0.913256
