#input normalization
0.160269 0.269187
52.6665 53.3958
10.4797 38.7048
8.46248 32.0633
0.0119981 0.0428439
0.00951031 0.0331947
0.306575 1.05843
0.682428 0.900752
0.874128 1.08374
1.05907 1.28708
1.2824 1.4637
1.53044 1.63265
1.77909 1.77713
2.00235 1.89662
2.23801 2.01932
2.44327 2.09675
2.64366 2.16226
2.83933 2.1987
3.01528 2.22364
3.15235 2.18907
3.28804 2.15886
3.3782 2.08945
3.45052 2.01346
3.50741 1.92198
3.56556 1.82263
3.57002 1.69847
3.54843 1.55147
3.51165 1.4007
3.44659 1.23755
3.34531 1.07125
3.24516 0.90578
3.13305 0.740638
3.02099 0.595831
2.86861 0.442651
2.72317 0.284443
#output normalization
1 0
#neurons weights
0.363742
-0.474064
0.185047
-0.1496
-0.245731
-0.146194
0.0454414
0.0221684
0.372498
0.302454
0.194689
0.337187
-0.151161
-0.304952
-0.453301
0.278162
0.0888625
-0.460082
-0.363785
-0.0933912
0.317075
0.403684
0.448563
-0.465436
0.382634
-0.0545081
-0.33691
-0.356753
-0.363722
0.154307
0.331153
-0.313324
-0.399321
0.249668
-0.364709
2.76104
-1.7886
-1.14099
-0.395994
-0.12512
-0.0193387
-0.00209844
0.360358
0.840883
-1.15191
0.00331987
1.99948
0.893789
-3.01737
0.0849511
0.40217
-1.33203
3.37544
-5.93174
0.528037
1.1844
0.799196
-0.431092
-2.85055
-0.0724011
1.05697
-0.215201
-0.791236
0.883341
1.22559
0.473559
1.16397
4.05096
0.8588
-0.297411
1.66973
0.142915
0.360349
0.116689
0.477369
-0.078148
0.567558
0.571475
-1.80025
-0.431605
-0.450269
-0.196293
0.294919
-0.0270178
-0.710371
-0.208461
0.9261
-0.502613
0.442062
-0.743002
-0.517492
-0.599657
0.0222791
-0.200608
-0.324818
0.602135
-0.550655
0.413164
-0.376061
-0.433238
-0.114778
-0.286243
-0.572392
0.416465
-0.256528
0.0671825
1.51506
#synapses weights
-0.316453
-0.932257
1.13649
-0.190712
1.12181
-0.525527
-0.120561
0.42249
0.105085
0.0814041
-0.498251
-0.19295
-0.0759424
0.418928
-0.778133
0.137141
0.0166834
0.0299634
0.111413
0.55278
-0.939655
0.199044
0.249229
-0.494515
-0.514742
0.455751
0.324145
0.618757
-1.19234
-0.0994709
0.254845
0.899377
-0.0971432
0.284796
-0.959199
0.150625
1.97726
-0.710883
0.311998
-1.05639
0.28706
0.189997
0.656815
-0.000963221
0.313076
-0.266816
-0.243332
0.298188
-0.533741
-0.486984
-1.05264
-0.378652
0.307583
0.0118674
-0.453426
0.733586
-0.203502
-0.381306
0.567826
0.535503
0.81564
0.0798992
-0.161588
0.234256
-0.128448
0.912012
0.710753
0.0217366
0.42007
0.00669263
0.258488
2.10079
-0.7039
0.145031
-0.686914
0.66443
-0.326485
0.084593
0.315874
0.229671
0.0295843
0.182555
-0.0981741
0.443562
-0.549905
0.139686
0.0190843
0.228349
-0.169835
-0.508934
0.0509299
-0.413481
-0.353399
-0.394174
-0.0890133
-0.544153
0.35308
0.464996
-0.144762
0.609934
-0.516362
0.339101
-0.503697
-0.269359
-0.482173
-0.179475
-0.762353
-0.368807
0.0618259
-0.230559
-0.122325
0.423869
0.198531
-0.12208
0.45702
0.154161
0.0822246
-0.65599
-0.0474078
-0.629002
-0.368086
-0.550538
-0.256471
-0.737758
-0.314489
-0.520794
-0.312274
-0.503091
-0.432269
0.237095
0.0835759
0.13064
-0.234668
-0.300388
0.0680754
0.192009
-0.172288
-0.404032
0.226977
-0.535176
-0.0625833
1.27069
0.402349
-0.188484
0.772945
0.198031
-0.156391
0.379603
0.337806
0.269785
-0.0886659
-0.158481
0.00330953
0.666306
0.248645
0.968932
0.779008
0.512051
1.03892
0.601365
0.725092
0.824153
0.774501
1.08408
0.807806
1.30202
0.867949
0.369003
0.261161
0.598291
0.65801
0.75211
0.436489
0.348815
0.66172
-0.0640741
-1.31636
-0.306565
-0.265239
-0.531322
-0.671467
-0.169794
0.269461
-0.842564
-0.26616
-0.520994
-0.454947
-0.597358
-0.970228
-0.295938
-0.900573
-1.28804
-0.680383
-0.548209
-1.03117
-1.19821
-1.10349
-1.32283
-0.79828
-0.918308
-0.830269
-1.20943
-1.02375
-1.06677
-0.80257
-1.2367
-0.639616
-0.874142
-0.692476
-0.57261
0.00574498
0.655177
-0.276307
0.346728
0.241659
0.474968
-0.169205
0.255801
-0.380238
-0.0124761
0.489253
0.946309
0.705439
0.00922986
0.370592
0.137454
0.572526
-0.216884
-0.0574925
0.0525159
-0.233413
0.264927
-0.0713132
-0.778346
-0.172165
0.520827
0.315991
0.228364
0.364607
-0.130409
0.198076
0.00987919
0.336854
0.0124626
0.191453
1.09918
0.36038
-0.422937
-0.107104
-0.361915
0.521071
0.0777413
0.0889634
0.0161146
-0.0867802
0.280344
-0.0824182
-0.386018
-0.0104922
0.330504
-0.537581
0.0865618
-0.0547552
0.00699621
0.0506689
-0.373691
0.271291
0.372107
0.598136
-0.197383
0.300184
-0.139252
0.0843867
0.744064
0.699012
0.640794
1.26352
1.27525
1.63181
1.37542
-1.62347
-0.617312
-0.0167399
0.0901016
0.593609
-0.186454
-1.46382
-0.630709
1.32724
-0.48118
-0.513322
0.0398108
0.403836
-0.351306
-0.8361
-0.697676
0.358857
0.213099
0.118347
0.185707
0.0998543
0.123912
-0.408959
-0.296489
-0.601828
-0.528509
-0.0889477
-0.0965442
0.00179009
-0.0251879
-0.945797
-0.283434
-0.192972
-0.0678402
-0.831127
0.0574428
1.46484
0.0178723
0.00550164
-1.23681
0.264617
0.139544
-0.384821
-0.76077
-0.492844
-0.530478
0.232891
-0.432223
-0.0525046
-0.286593
0.403869
0.0571345
0.347258
-0.260615
0.559236
-0.16715
0.54348
0.367481
0.407299
-0.341092
-0.254694
-0.281927
0.102351
0.00518514
-0.341042
-0.109101
0.0722096
0.579925
0.220761
0.536761
-0.0207787
0.138825
-0.548895
0.0764942
-0.270493
0.0695589
-0.571394
-0.240763
-0.47254
-0.202146
0.301749
0.0177518
0.320126
0.598737
0.280161
-0.558343
-0.112977
-0.116735
-0.322075
-0.153317
0.389863
-0.107608
-0.455253
-0.338035
-0.123411
-0.113685
-0.207796
0.136272
0.0743697
-0.298864
-0.338044
-0.497296
0.0771417
-0.620019
-0.358121
-0.582302
-0.726908
0.476692
-1.38322
-0.202863
-0.891349
-1.04403
0.279364
-0.502727
-0.0150235
-0.213
0.423882
0.378802
-0.387519
0.256107
-0.158602
-0.443309
0.47672
-0.4211
-0.278706
0.55992
-0.315329
-0.613729
0.629333
0.447818
-0.16142
0.0401829
-0.27553
0.587812
0.202314
-0.585145
0.515546
-0.224881
0.426482
-0.431861
-0.136175
-0.217054
-0.0600494
-0.0276176
-0.127532
-0.456241
0.284959
-0.0631175
0.684118
-0.239329
-0.524443
0.119621
0.107515
0.403294
0.281012
0.443496
-0.218486
-0.540274
-0.254483
-0.565445
-0.381045
-0.493378
-0.662709
-0.819776
-0.189124
-0.938478
-0.687301
-0.669526
-0.410113
0.193721
-0.617564
-0.50778
-0.360422
-0.246667
-0.552754
0.845039
1.36249
0.472344
0.131893
-0.355258
-0.0330894
-0.29933
0.251883
0.0342688
-0.330218
0.133936
0.0143426
0.580793
-0.0261193
-0.236002
0.47625
0.403722
-0.213361
0.281452
0.436929
-0.452165
0.533122
0.118427
-0.467138
-0.82412
0.161791
0.434726
-0.0397207
-0.176873
-0.158129
0.171712
0.139954
-0.368105
0.549087
0.600625
0.795788
0.380071
0.334959
-0.218932
0.235927
0.348448
-0.592022
0.204807
0.0327574
-0.382693
0.21057
0.277194
-0.00214495
0.549296
0.273602
0.691465
0.691272
0.534453
0.710594
1.07787
0.204708
1.0603
0.423656
0.785518
0.918337
0.518745
0.993691
0.583239
0.62247
1.0385
0.116639
0.473874
0.228189
0.398771
0.832676
-0.0186228
-0.11365
0.704767
-0.229476
-0.141343
-0.301875
0.136219
0.0920706
0.417352
0.128079
-0.276629
0.0743425
-0.811343
-0.738677
-0.215382
-0.0705548
-0.312043
-0.801604
-0.51462
0.160369
-0.888146
-0.526435
-0.291666
-0.665994
-0.55181
-0.216119
-0.344598
-0.991293
-0.805381
-0.159969
-0.685343
-0.906998
-0.975766
-0.444767
-0.521863
0.648092
0.809651
0.35023
-0.361784
-0.0202161
0.0134434
-0.304699
-0.226075
0.298848
-0.174719
-0.30053
0.0626891
0.475249
-0.777311
0.753351
-0.115457
0.295358
0.672699
0.257853
0.8977
1.07704
0.175553
0.0758092
0.538687
-0.179315
-0.0556342
-0.275733
0.0698325
-0.603911
-0.0382643
-0.11661
-0.290756
0.25406
0.53423
0.727604
-0.326099
0.00538232
2.39658
-0.412827
1.50445
-0.465843
0.134078
-0.318508
0.372223
-0.4965
0.31194
0.10389
-0.0452202
0.0126092
-0.160051
-0.310982
0.366342
-0.625131
-0.0387212
0.577058
-0.461997
0.115833
-0.382383
0.245864
0.18046
-0.767124
0.507808
0.71762
-0.00149778
0.197805
-0.830808
-0.182051
-0.112312
-0.272249
-0.00783917
2.97366
1.15199
1.34795
0.0979642
-1.66521
0.371312
0.146792
-0.158977
-0.0620728
0.0803201
-0.0367532
0.0421981
0.117916
0.170872
0.294041
-0.371142
-0.0702117
0.207424
-0.13036
-0.392882
0.0979677
-0.146526
0.163303
-0.356142
0.562469
-0.546897
-0.117514
-0.012707
0.528319
-0.00837718
-0.410248
-0.0573961
0.600814
-0.114606
-0.528647
-0.00949071
0.207961
0.407984
0.238013
0.207681
0.167988
-0.180244
0.0296381
-0.488152
-0.192726
-0.218453
0.524752
0.539875
0.278961
0.394463
0.381227
0.303912
0.815288
0.374243
0.434385
0.496723
0.898354
0.513516
0.692517
0.63404
0.958269
0.114638
0.399679
-0.26404
-0.252992
0.532862
0.588168
0.0608985
-0.245261
-0.175882
-0.776998
-1.23324
0.0460562
0.0853905
-0.999368
0.286525
-0.205251
0.243968
-0.863078
0.63849
-0.152572
0.291653
0.0762185
0.0820886
-0.047359
-0.116041
0.139714
0.482472
-0.0348593
-0.233756
0.0398463
0.0964076
-0.0178297
-0.106479
0.340474
-0.321118
-0.411635
-0.326648
-0.418093
0.194703
-0.559722
-0.510628
-0.218218
-0.597198
-0.368615
-0.69205
-1.30581
-0.252492
0.399128
0.150103
0.119585
-0.454007
-0.113346
-0.483828
-0.224676
-0.2394
0.204334
0.0337945
-0.244176
-0.461675
-0.154517
-1.11563
-0.721755
-0.657637
-1.13729
-0.734176
-0.669406
-1.26113
-0.89216
-0.49866
-1.41614
-1.32644
-0.629353
-1.03725
-0.368054
-0.877847
-0.354938
-0.8468
-1.09198
-0.816192
-0.045966
1.07358
0.0594143
0.152673
0.496144
0.554519
0.279172
0.348181
-0.0454608
0.744572
0.476256
0.70185
0.905098
0.323599
0.193958
1.00124
1.09873
1.00199
0.351634
0.945957
0.612928
1.14216
0.999613
0.748592
0.587641
0.555696
0.676334
1.12717
0.851376
0.639902
1.06462
0.695923
1.18673
0.723698
1.12268
0.760258
1.30391
-1.15129
0.379513
1.08056
-0.372857
0.00778204
0.436549
-0.37777
-0.069952
-0.123699
0.0916103
-0.179043
0.0158305
0.1159
0.00530549
-0.0218382
-0.125992
-0.160161
0.0855803
-0.19482
-0.532149
-0.159788
0.393896
0.329385
0.259019
-0.0575143
-0.12699
-0.044457
-0.640828
0.328449
0.0206908
0.130556
0.402224
-0.235063
0.0984771
0.832083
-0.665554
-0.0101576
0.564009
0.7592
0.132588
0.396008
0.555137
0.0770882
0.74446
-0.0165046
0.867601
0.316136
0.451241
0.479883
0.953699
1.01467
0.899278
0.449937
1.25648
0.588036
0.949611
0.635466
0.375982
0.566206
0.475078
1.20611
0.882013
0.865437
0.751062
1.24361
0.716847
1.06314
1.4048
0.487458
0.146353
0.380039
0.0331012
-0.0476463
-0.366477
-0.518609
0.239227
-0.0457089
0.138024
0.385605
-0.116056
0.785045
0.542538
1.34353
0.955992
0.438713
0.401352
0.427557
0.302478
0.321603
0.4589
0.187678
0.513415
-0.0252945
0.0989556
-0.176103
-0.739573
0.27882
-0.228749
0.195495
-0.571356
-0.13484
-0.555325
0.665698
-0.798506
0.606591
0.122836
0.730605
0.379849
0.458274
0.329046
0.129857
-0.127202
0.0447752
-0.0721995
-0.111125
-0.121512
0.449921
0.128583
0.468828
0.743855
0.516096
0.511671
0.350421
-0.201386
0.578408
0.375142
-0.14808
0.0564236
0.477318
0.271098
-0.278524
0.138108
-0.185454
0.550976
-0.0892522
-0.0566101
0.50813
0.165186
0.298443
1.23861
0.1115
-0.211671
0.712637
0.33424
0.0357414
-0.122391
0.0380056
0.220413
0.340372
1.06975
1.28876
0.99228
0.653315
0.824782
1.03732
1.24004
0.832971
1.24545
1.06474
1.08991
1.25167
1.15226
1.71599
1.22417
1.71866
1.00664
1.02422
1.57377
1.6799
1.64009
0.984049
0.923167
1.34763
-0.313261
-1.47426
0.0814315
-0.294501
0.0481804
0.199309
0.0250309
0.584078
-0.0734789
-0.877636
-0.0572837
-0.454166
0.859433
-0.51477
0.0188761
0.0690311
0.206021
-0.401693
0.23414
0.257782
0.274999
-0.140144
-0.921064
0.17558
-0.364212
-0.154633
0.581416
0.478401
0.247459
-0.862059
0.403227
0.0793982
-0.179314
-0.214469
-0.384565
-0.735188
-1.05722
0.718487
0.293265
0.0315482
-0.0283218
0.339513
0.268518
-0.461676
-0.147524
-0.0430508
0.336718
0.687208
-0.373409
0.0822505
0.587003
0.292188
0.0258956
-1.0388
0.319855
-0.144953
0.342388
0.146068
-0.130737
-0.456199
-0.296991
0.594603
-0.0531812
0.226748
0.252535
-0.0612387
-0.829592
0.780297
-0.0290586
-0.410001
0.0212464
0.661473
0.0973031
0.407556
0.0118592
0.73923
-0.276878
0.13559
0.306043
0.0617337
-0.213653
0.32579
0.256893
0.682035
0.641841
0.568643
-0.0360033
0.280314
0.188093
0.97842
0.127604
0.297638
0.477934
0.207067
0.933138
0.82432
0.351508
0.163058
0.182833
0.532676
0.974005
0.761184
0.00955539
0.621244
0.699658
-0.558264
-0.761332
0.803868
-0.296745
-0.171525
-0.143603
-1.1879
-0.0538651
0.302716
0.169935
-0.436972
-0.184697
-0.412254
0.457306
-0.261013
0.411726
0.244024
0.256783
-0.346316
0.475248
0.239096
-0.35183
0.119765
0.39101
0.719471
-0.287053
-0.223828
-0.741558
-0.0829478
-0.349543
-0.121454
-0.184245
0.638396
-0.214446
-0.059595
-1.51275
-0.673345
1.49012
-1.37921
0.360468
-0.204651
-0.0613262
-0.248378
-0.00300295
0.0665717
-0.146611
-0.100641
-0.0701757
0.372578
-0.10682
-0.240726
0.0649554
0.0627898
0.27824
-0.731352
0.153115
-0.283246
0.693853
0.0591077
0.0622834
0.257444
-0.377187
-0.481678
-0.214716
-0.103778
0.319138
0.0257322
0.315876
-0.494239
-0.103907
-1.71008
-0.913133
0.38766
0.648992
0.488712
0.388319
0.352794
-0.0622377
-0.128762
-0.207989
-0.0857212
-0.0738347
0.0240415
0.261539
-0.838584
-0.255978
0.326771
-0.155102
-0.394853
-0.226207
0.227903
-0.622963
-0.0837613
-0.30528
-0.559175
0.226129
-0.299856
0.0627272
-0.130607
-0.253881
-0.586458
-0.28619
-0.0242113
-0.696712
-0.867123
-0.247594
0.902649
0.514542
-0.00965164
0.968994
0.209774
-0.0301526
-0.617246
0.450753
0.149017
0.47126
0.314761
0.152908
0.142253
0.552707
0.749445
0.34264
1.00793
0.568516
0.33795
1.0307
0.51812
0.862481
0.449907
0.116128
0.651581
0.905662
0.720827
0.412942
0.870593
0.487076
0.600189
0.424625
0.571624
1.14043
0.00179759
-0.425111
1.13092
-0.565221
0.588091
-0.530782
0.564523
0.326009
-0.020748
0.426524
0.584878
0.17908
-0.962979
0.213734
0.243551
0.324629
0.106608
-0.243933
0.361333
-0.200081
-0.39352
-0.230998
0.390062
-0.852507
-0.202489
0.937251
-0.265554
0.0201807
0.2622
-0.481703
1.23505
-0.387676
-1.16386
0.439385
-0.170211
-0.132969
-0.0778385
-0.211545
-0.092921
0.0299737
-0.452472
-0.495249
0.308085
0.147505
0.0270566
-0.196455
0.265663
0.377789
0.426859
0.143381
-0.451135
-0.178428
-0.604325
-0.545693
0.367133
0.231126
-0.364152
-0.364581
0.297951
0.325436
-0.471577
-0.431664
0.356763
0.0293541
0.493779
0.20013
0.0515086
-0.208589
-0.503449
0.358626
0.280217
-0.240768
0.259175
0.710188
-0.266663
-0.211933
-0.144922
-0.0392425
-0.212154
-0.358947
0.424427
0.270231
-0.197118
-0.347504
0.846056
-0.255673
-0.192055
0.0172077
-0.634514
0.933379
-0.101727
-0.878008
-0.324939
0.261722
0.800087
0.284048
0.440227
0.376063
0.0308967
0.130887
0.293775
-0.00792273
-0.0268476
0.0330412
-0.633752
0.000702849
0.048505
0.456086
0.010238
-0.441868
-0.297891
-0.823245
-0.401168
-0.180143
-0.244556
-0.297655
-0.317427
0.132857
-0.374575
0.183727
-0.288862
-0.356272
-0.549736
-0.10556
-0.414025
-0.492565
-0.650203
-0.240655
-0.210125
-0.0322284
-0.177345
-0.293042
0.0590279
-0.350135
-0.21277
0.185872
-0.420218
-0.1361
-0.058532
0.174257
-0.436677
0.227889
-0.211771
0.0779645
0.252725
-0.676559
-0.492894
0.170528
0.326274
-0.108888
-0.403888
0.0328553
-0.310643
0.11246
-0.365328
-0.299641
0.220582
-0.177897
0.229921
-0.376348
0.252517
-0.425579
0.393375
-0.213414
0.129345
0.224593
-0.291625
0.367323
0.0239902
0.178316
-0.508117
0.101173
-0.135346
0.195936
0.568704
-0.194786
0.0969425
0.357601
-0.264933
-1.35101
0.617007
1.16131
-0.956951
-0.586133
0.36781
0.593858
0.247544
-0.573014
0.327607
-0.569309
-1.54853
0.08166
0.796113
-0.474857
-0.163101
-0.0763193
-1.59876
1.1597
-0.17894
-0.971065
-0.234105
-0.276207
0.6973
-0.27842
0.101237
0.418356
0.0346446
-0.682371
-0.867049
-0.391657
-0.399126
-1.62765
-1.72468
-0.13919
-1.55166
-0.0368869
-0.178634
0.0904338
0.484523
0.197199
-0.593126
0.48133
-0.185692
0.224512
0.444711
-0.585915
-0.209896
-0.0937022
0.806035
0.424887
0.504418
0.636932
-0.501671
0.115385
0.145405
0.129828
0.367684
0.28525
0.237823
-0.176908
-0.467085
0.240984
0.500237
0.201905
0.112824
0.0742509
-0.624566
0.00811993
-0.371964
-0.129257
0.561258
-0.198705
0.140185
0.534377
0.262217
-0.20744
0.466652
0.286615
0.583622
-0.251275
0.916007
-0.062439
0.315681
0.726293
0.587418
0.16784
0.303468
0.337291
0.629473
0.880328
-0.0198576
-0.262104
0.949886
0.118059
0.367037
-0.13684
0.680025
0.506292
0.730659
-0.364448
0.69933
0.966486
0.397838
0.0444136
0.181647
-0.233355
0.315077
-2.36944
1.22174
0.739164
-0.7675
-0.152273
-0.904217
-0.188769
0.144708
-1.51137
0.120056
-1.81779
-1.86417
-1.11229
1.0428
-0.783021
-0.881649
0.360285
-3.18878
1.49958
0.0112988
-1.81584
-0.865726
-0.109322
1.27582
-0.827277
-0.189673
-0.502321
-0.238245
-1.63831
-1.72605
-0.614348
-2.11316
-2.91231
-2.51292
-0.923799
-1.34668
-0.432996
-0.284747
0.561278
-0.268629
-0.683667
-0.726055
0.240365
0.457253
-0.196243
-0.214593
-0.296888
-0.443861
-0.229454
0.866753
0.136733
0.286128
0.157362
-0.0812558
1.91602
-0.156756
-0.768767
-0.228354
0.649633
0.260256
-0.324838
-0.110638
0.054773
0.729487
-0.681356
0.308916
-0.217926
-0.191591
-0.228512
-0.350665
-0.379419
0.247556
0.700115
-0.0563333
-0.786499
-0.441016
0.44246
-0.217627
-0.145701
-0.0812124
0.328111
-0.298478
-0.281916
0.260329
0.31627
-0.178541
-0.294083
-0.234551
-0.371509
-0.555543
-0.104745
-0.154803
0.376417
0.170806
0.138298
-0.78501
-0.286704
-0.387737
0.244718
0.418614
0.246035
-0.133554
-0.367222
0.205312
-0.511504
0.259456
0.442097
0.467798
-0.421383
0.623702
0.797432
-0.416666
-0.507894
-0.828268
-0.0243212
0.039133
-1.55129
-0.149403
-0.621607
-0.678506
0.0419501
0.317013
-0.196096
0.335879
-0.219559
-1.20269
1.54823
-0.390288
-0.95436
0.254385
0.337192
0.989461
-0.935374
-0.116442
-0.712577
0.495926
-0.889945
-0.392115
0.0818485
-0.926267
-0.942159
-0.777582
0.12449
-0.271542
-0.522741
0.318885
0.488661
-0.313743
-0.0932762
-0.58421
0.31284
0.890317
-0.557784
0.356727
-0.0302739
-0.222978
-0.157044
-0.0167162
0.0409293
0.139526
-0.345163
0.151088
0.332798
-0.450361
-0.224177
-0.464423
0.115529
-0.0997376
0.172209
0.152592
-0.44842
0.694099
-0.975358
0.184968
0.267013
-0.697615
-0.115312
0.0713154
-0.196659
0.456731
-0.868265
0.281588
0.589268
-0.35731
0.578237
-0.434572
-0.000278034
-0.0619102
0.425963
0.401096
0.568543
0.0382325
-0.532229
0.0506452
0.166295
0.448406
0.693919
-0.36173
0.64205
-0.0837312
-0.2674
-0.146678
0.119069
0.23864
-0.137695
-0.0259073
0.508861
0.593885
-0.278957
-0.18782
-0.0783065
-0.10896
-0.0947185
0.47126
0.482021
-0.471237
-0.741091
0.187615
1.06371
-0.328869
-0.329998
-0.7397
0.348447
0.0252476
-1.68454
0.45881
-1.07835
-1.86157
-0.490107
1.14447
-0.145423
-0.404291
0.228068
-1.27925
1.82336
-0.385609
-1.39222
-0.628513
0.441727
1.50963
-0.302339
0.316029
-0.507423
-0.0781592
-1.40721
-1.32359
-0.454076
-1.33822
-2.30582
-1.27326
-0.11394
-0.54287
-0.283125
-0.198739
-0.20804
0.421443
-0.984207
-0.497114
-0.611227
-0.0989467
-0.39285
-0.318507
-0.29992
-0.15486
-0.320301
-0.0916803
-0.571887
-0.135435
-0.123225
-0.342493
0.373029
-1.27708
-0.169863
0.00769854
0.40272
0.153104
-0.070987
-0.954672
-0.636559
-0.368619
-1.15062
-0.0349311
-0.155789
-0.967663
-1.02289
-0.527918
-0.30978
0.221202
0.26467
0.724754
0.627781
0.463907
0.140907
0.0942386
0.612402
0.866528
-0.41009
0.307991
0.107611
0.295541
0.511829
0.514038
0.430076
0.855583
0.068331
-0.321963
0.226948
-0.296454
0.353845
0.911045
0.2928
0.695597
-0.574995
-0.0982609
0.610163
0.554022
-0.226399
0.544944
0.411632
-0.306187
0.477438
-0.162249
0.396795
0.406007
0.769513
-0.565665
-0.0700938
-0.122504
0.861055
0.386524
0.0839711
0.283977
0.225379
-0.328336
0.691671
0.427526
-0.279821
-0.246312
-0.234901
-0.294933
-0.458611
0.507394
-0.596814
0.4473
0.0538568
-0.543721
0.104864
-0.40581
0.357751
-0.362778
0.169898
-0.181909
-0.103203
-0.361158
-0.158153
0.530134
-0.00363983
-0.150237
-0.0471334
0.126114
-0.340054
0.594826
-0.087351
0.0385342
0.0950141
0.452499
0.561179
-0.492771
-0.0623228
0.349857
0.284938
-0.0646366
-0.258821
-0.0697144
0.154213
-0.0988495
0.269495
0.492115
0.114632
0.401443
-0.388665
-0.34292
-0.100766
0.218169
0.44821
0.442717
0.03137
0.122307
0.406982
0.319412
0.246155
0.286178
0.261
0.815598
0.430904
0.152131
0.205102
-0.442609
-0.0899828
0.486598
-0.827217
-0.0363356
-0.629419
0.16916
-0.0417512
-0.0770947
-0.183079
-0.196841
0.00776725
-0.465637
-0.630722
-0.266387
-0.175704
-0.10627
0.494412
-0.822647
-0.324626
-0.361851
0.523496
0.0458366
-0.136331
-0.915439
-0.648388
0.204606
0.165274
0.000441323
-0.0567199
-0.428451
-0.257407
0.160067
0.0211126
0.664101
0.0945218
-0.110001
0.99282
-0.24349
-0.141072
-0.522897
-0.159602
-0.350901
-0.820452
-0.281532
-0.169698
-0.661048
-0.0315331
0.568698
0.102281
0.521046
0.802886
-0.0475984
1.35746
-0.101488
-0.819684
-0.173681
0.38869
1.00756
-0.720853
-0.193724
-0.450659
0.263773
-0.481018
0.374068
0.176709
-0.285704
-1.18514
-0.676934
0.475302
0.322498
0.0575276
0.00122425
-0.634114
-0.385785
-0.0599993
-0.21548
0.077552
-0.426964
-0.0927585
-0.0560159
-0.364424
-0.715218
-0.192181
-0.250273
0.185193
-0.579641
-0.450814
0.552396
0.371839
0.29735
-0.6035
0.147928
-0.524574
-0.025819
0.117139
-0.117797
-0.427674
0.0951167
-0.581389
-0.0509853
0.450301
-0.151476
0.145344
0.065129
0.433218
0.0865923
0.996208
-0.905443
-0.514086
0.0784724
-0.566552
-0.123819
0.492656
0.91749
0.461768
-0.052863
0.0894461
0.117967
0.117536
-0.947831
-0.42866
-0.827584
-0.67874
0.523096
-1.61856
-0.737569
0.586937
0.0466762
0.477155
-0.937762
0.412677
-0.762351
0.600049
0.489376
0.186547
1.29826
0.298003
-0.0150713
-0.313958
0.659405
0.362148
0.42548
0.299216
-0.297812
0.00200254
0.378557
0.232059
-0.411598
-0.428404
-0.307641
-0.230587
0.384835
0.328461
-0.225915
-0.0499331
0.161719
0.149689
-0.204438
0.131591
-0.252424
-0.22421
0.365078
0.0511064
0.244311
-0.349227
0.255677
0.185699
-0.176653
-0.117787
0.175305
0.298877
0.190847
0.28072
0.44151
0.071213
-0.354089
0.256753
0.129449
0.616775
-0.505375
-0.747716
0.124636
-0.0945014
0.101373
0.287729
-0.00658976
0.142798
0.226341
0.575691
-0.125631
-0.233992
-0.506879
-0.0565992
-0.103592
-0.223813
0.742292
-0.806291
0.460112
0.523535
0.370329
0.157279
-0.0110996
-0.0618374
0.407482
0.558537
-0.253354
-0.0497526
-0.267696
-0.277987
-0.0536972
0.708962
-0.323283
0.277145
0.392535
0.172099
0.99354
0.868072
-0.0741189
0.42494
0.201559
0.0118441
0.165503
-0.465271
0.67023
0.160815
-0.309924
-0.0465023
0.532474
-0.115358
-0.342545
0.391229
0.709744
-0.340427
0.183015
0.148619
-0.338274
0.395339
0.158522
-0.0224479
0.599557
0.0969868
-0.201854
-0.525191
0.0586989
0.0904162
-0.253454
0.617793
0.312857
0.351007
0.325224
-0.28635
-0.0299254
0.402821
-0.392242
-0.363101
-0.693648
0.383252
0.113182
-0.746064
0.376999
-0.334358
-0.790307
0.0994724
0.534529
-0.383641
-0.296912
0.0648567
-0.0836341
1.14999
-0.765451
-0.122319
-0.219533
0.181889
0.823406
-0.123757
-0.386502
0.113036
0.220881
-0.849771
-0.604115
0.0517985
-0.77055
-0.279542
-0.777919
-0.16086
-0.275175
0.0804205
-0.320916
0.652892
-0.312918
-0.50581
-0.224754
0.362711
0.0656584
-0.265944
-0.166419
-0.0036976
-0.00287804
-0.016621
0.0246823
0.345652
0.586594
-0.410142
-0.125232
0.355185
-0.119817
-0.412118
0.143627
-0.193886
0.359498
0.237842
0.28799
0.292724
0.0861842
0.208147
0.361764
-0.507773
0.10772
-0.622454
-0.353113
-0.0769855
0.185317
0.02766
0.0673632
-0.069408
0.0950795
0.731338
0.43198
0.858998
-1.39514
-0.375785
0.131213
0.126908
-1.08764
-1.00561
0.720589
0.19431
-0.215276
-0.0949223
-0.715496
1.09605
0.519453
0.453936
0.126625
0.00293739
1.11329
-0.00485527
-0.912217
1.22536
-0.452054
-0.250828
-0.31321
0.267252
-0.107494
-0.644422
-0.0885841
-0.234221
-1.31116
0.522393
0.256224
-0.139104
0.100574
0.0402574
0.503887
0.155938
0.272534
-0.437475
-0.0493232
0.452156
0.0663059
-0.423517
-0.587363
0.370576
0.370811
-0.363717
-0.181562
0.0820062
0.516796
0.661214
0.0758273
-0.185317
0.173716
0.373499
0.281397
0.357183
-0.209583
0.281102
-0.0545023
0.470695
-0.184907
-0.323914
0.0206028
-0.264223
-0.274159
0.166555
-1.1629
-0.80029
0.769568
-0.600562
-0.207864
-0.832883
0.232099
0.0870688
-0.370997
0.664805
-0.206959
-0.13901
-0.346885
-0.7805
0.154272
-0.189935
-1.55049
0.342474
-0.334224
-0.127386
-0.198779
0.11038
0.252933
0.257609
-0.544188
-0.110196
0.186804
0.588312
0.437774
-0.635069
-0.3529
-0.410838
-1.31463
-0.412429
0.523755
-1.19852
0.848898
0.427222
-0.143866
-0.459779
-0.375531
0.420443
0.39496
-1.17296
-0.20576
-0.693084
-0.963656
-0.0114215
0.767283
-0.663929
-0.549425
0.433672
-1.68347
0.928112
0.26971
-0.40911
-0.375405
-0.191793
0.624046
-0.528625
0.217168
0.239845
-0.366168
-1.18678
-0.947523
-0.0663361
-0.763167
-1.64968
-0.805226
-0.695492
-0.905395
0.110431
0.149756
-0.612862
-0.179344
0.204196
-0.439721
0.00844025
0.133721
0.263362
-0.476184
0.524998
0.401982
-0.447838
-0.47059
-0.139795
-0.0314895
-0.205332
-0.272908
0.296861
0.319333
0.50494
0.240316
0.157294
-0.472879
0.0899975
-0.266833
-0.380783
-0.640849
0.476776
-0.294605
0.0810245
0.572757
-0.592152
0.133483
0.358101
-0.294798
-0.781735
-0.101344
0.0794896
0.151479
-0.144914
-0.373227
0.845541
0.211522
-0.503663
0.245556
-0.224245
0.0161931
0.0335474
0.341779
0.160153
-0.0470151
-0.424105
-0.467836
1.44126
-0.489436
0.0809159
0.43337
0.844559
0.921082
0.35668
-0.821311
0.382595
-0.20167
-1.12218
-0.303672
-0.249996
-0.854642
-0.75332
-0.12084
0.270019
-0.130963
0.850125
-0.85103
-0.839591
0.135095
0.101048
-0.441726
-0.623048
-0.285549
0.667843
-0.0767191
-0.169055
-0.186839
0.113847
-0.419358
-0.575675
0.0396099
-0.446775
-0.114952
-0.194486
-0.180329
0.325685
0.086084
0.195089
-0.75705
-0.236668
-0.272427
0.249716
-0.442092
0.345042
0.450102
-0.325904
0.120429
-0.44494
-0.0599299
0.757695
0.318145
-0.407823
-0.489218
0.307034
-0.427705
0.127232
-0.464984
0.00407198
-0.0701683
-0.940059
0.356255
0.19024
-0.715386
-0.17994
0.369535
-0.594382
0.167309
0.626841
-1.1616
0.942081
0.44465
-0.61031
0.343322
-0.087226
0.755217
-0.64888
-0.00458203
-0.0169588
-0.404365
-1.02364
-0.740154
0.26739
-0.785268
-1.02867
-1.12877
-0.216959
-0.795017
-0.704456
0.972885
-0.777232
0.059396
3.35382
0.223535
3.31906
6.32981
1.55035
-1.35601
1.53584
-0.361337
1.20329
3.01777
-1.91165
1.65294
-0.82451
0.941869
-1.31437
1.60087
1.06734
-2.68615
-0.0653283
-0.534299
1.48421
1.09144
0.103353
4.51454
-0.530063
-2.61697
2.52769
-0.958854
1.85375
-1.59427
2.89536
