#input normalization
0.160278 0.269203
27.4158 35.2577
10.8848 36.0523
8.64633 31.0655
0.0117181 0.0401228
0.00960228 0.0325168
0.306575 1.05843
0.682428 0.900752
0.874128 1.08374
1.05907 1.28708
1.2824 1.4637
1.53044 1.63265
1.77909 1.77713
2.00235 1.89662
2.23801 2.01932
2.44327 2.09675
2.64366 2.16226
2.83933 2.1987
3.01528 2.22364
3.15235 2.18907
3.28804 2.15886
3.3782 2.08945
3.45329 2.00965
3.52623 1.89449
#output normalization
1 0
#neurons weights
0.377585
-0.480448
0.410546
-0.344826
-0.349966
-0.43817
0.00738686
0.0933767
0.127591
0.27039
-0.485626
-0.417303
0.423235
-0.240159
0.493336
-0.400893
0.493347
0.229851
0.237704
-0.000169856
0.485609
0.410075
0.448028
0.442392
-0.563727
0.355244
-3.9654
-0.376496
-1.4911
0.418262
-1.74569
-0.104632
-3.15882
0.421329
0.451559
-1.26305
-0.670271
-1.8541
-1.77035
4.69652
-0.830515
1.84357
3.80768
3.42725
2.50147
-0.312671
-0.794093
0.571661
2.5746
0.149439
0.36848
-0.456511
0.0641382
0.435937
0.535772
-0.542594
-1.69912
-0.204129
0.134605
-0.747701
-0.615835
-0.299228
0.38092
-0.0726807
0.67511
-1.32535
0.149198
-0.349782
0.442106
-1.40911
0.237026
0.170919
0.225072
2.07041
#synapses weights
0.0716877
0.74033
-0.0393192
0.16335
-0.61488
0.494695
-0.24311
-0.975248
-0.250125
-0.303861
0.129411
1.10641
0.783782
0.289873
-0.164349
-0.347806
-0.0832183
0.302758
0.142457
-0.280647
0.185338
-0.134897
-0.569789
0.238858
0.51424
0.607744
-0.026691
0.14538
-0.206243
0.0891193
0.275796
-0.134634
-0.177996
-0.601149
0.0659172
-0.277627
0.308728
-0.510214
0.174519
0.433892
-0.0920764
0.812085
0.906672
0.723205
1.05958
0.946541
1.2896
0.952476
-0.0632834
1.4209
-0.466198
0.14878
-2.10163
1.12725
0.138424
0.313917
-1.06487
0.434267
-0.0991771
-0.166257
-0.14176
0.498872
-0.927411
0.177609
-0.622944
0.288018
-0.775497
0.0248896
-0.887566
-0.123031
-0.0657425
1.32884
0.281076
0.126633
-0.0227718
0.0958506
0.0654969
0.262147
-0.31442
-0.134936
0.271732
0.0750148
-0.307971
0.468176
0.105505
0.431717
-0.170648
0.293657
0.0425919
0.35445
0.192707
0.365092
0.395713
0.531097
0.66393
0.824696
0.855186
0.393112
-0.716817
0.761482
-0.750502
-0.342498
0.0111624
-0.459737
0.0394214
-0.12509
0.325985
0.0928943
0.529604
-0.957306
-0.408908
-0.0123073
0.0132539
-0.46396
0.213663
0.270332
0.209725
-0.688057
0.852112
-0.0452697
0.121271
-0.433634
0.0185461
-0.0976543
-0.583187
-0.213303
-0.511213
0.643752
-0.821012
0.473642
0.300093
-0.845421
-0.226992
-0.696864
-0.240562
0.0446928
-0.459577
-0.549646
-0.583186
-0.486139
-0.164971
-0.944028
-1.05521
-0.133967
0.386545
0.492579
-0.350855
0.134225
-0.860135
0.367338
-0.218407
-0.670088
0.594183
0.00761269
-0.128423
-0.369886
-0.136277
1.06485
0.474545
0.252186
-0.333164
-0.888294
-0.142602
0.161409
0.177466
0.318372
-0.408088
0.0977443
0.690675
0.198719
-1.00136
0.742947
-0.661259
0.931836
1.01951
0.125957
-0.541651
0.612563
-0.525017
-0.0473797
0.113173
-0.0583464
0.324997
-0.346822
0.354622
0.827887
-0.308642
-0.0896558
-0.0706866
-0.09275
0.204772
0.206456
1.43862
1.14204
0.202765
-0.014895
-0.2645
-0.0674867
0.18143
0.108651
-0.210012
0.461889
-0.325572
-0.0461596
-0.0137464
0.47282
-0.365394
-0.054192
0.686742
0.0822073
0.0599041
-0.531327
0.500245
-0.787062
0.264884
-0.34402
-0.442608
0.0552499
0.948452
-0.661216
0.716546
-0.619831
-0.550764
0.0709464
0.105833
-0.127217
0.373061
-0.222281
-0.256725
-0.0263108
-0.00659157
-0.00654682
-0.227747
-0.235679
-0.376711
-0.0589038
-0.556167
-0.373143
-0.660076
-0.910144
-0.672569
0.316837
0.250894
-0.0339796
0.347078
0.350322
-0.274242
-0.112752
-0.841012
-0.509445
-0.858714
-0.588215
0.0541606
0.0379449
0.190853
0.234352
0.472223
1.07299
0.717034
1.39633
0.601747
0.494851
0.21205
0.639257
0.95291
0.202213
0.114753
-0.100673
0.0548194
0.291305
-0.708995
0.324778
-0.281827
0.500831
1.5165
0.909847
-0.297711
-0.185696
0.325823
0.0101393
-0.0379311
-0.524772
0.000759887
-0.408328
0.27213
0.00646025
0.0658038
0.662512
0.438925
0.764736
0.186664
0.186048
-0.403629
0.130789
-0.363256
0.188239
-0.0719973
-0.208804
-0.532358
-0.0999934
0.275576
0.628174
0.883238
0.892268
0.0851041
-0.28653
-0.0806482
0.607275
-0.176683
0.815335
0.28476
-0.210556
0.53369
0.668559
-0.0893248
-0.115572
-0.619754
0.209319
-0.302529
-0.156164
-0.424032
-0.178511
0.227269
0.365649
-0.84079
-0.57569
0.0345015
-0.144853
0.215487
0.646772
-0.387058
-0.0911288
0.0815972
1.20413
1.7791
1.61516
0.0428566
0.583329
0.360175
0.0502889
-0.617934
0.505749
1.3904
0.487171
1.77508
-0.237365
-0.265137
-0.577987
-0.107216
0.179715
-0.355277
-0.831346
0.130723
0.228481
0.0915987
0.250405
-0.392154
0.123984
0.330693
0.558319
-1.28569
-0.462817
1.47726
-2.37276
0.387059
-0.379479
0.0863809
-0.56023
0.13037
-0.353962
-0.220074
0.235712
0.337877
-0.0147888
-0.126935
-0.0162369
-0.69169
-0.207783
0.493818
-0.0305597
-0.510822
-0.336148
-0.357735
-0.657103
0.203836
-0.148824
0.288894
0.069705
-0.438191
-0.178952
-0.0700316
0.164356
0.179359
-0.168364
-0.077942
-0.10907
-0.69932
0.0401572
-0.29804
-0.00573531
-0.444325
-0.625692
-0.2868
-0.267689
0.0358685
-0.320038
-0.555744
-0.45212
-0.863404
-1.04342
0.948449
-0.20799
0.394544
-1.30471
-0.242796
-0.127889
-0.30826
0.919103
0.339119
-1.06975
-0.310857
0.186649
-0.359458
0.75918
-0.231657
1.08931
-0.263543
-0.106374
0.795436
0.41472
0.514904
-1.39913
-0.34186
-0.868563
2.21622
-0.714064
0.947846
-0.133268
0.272982
-0.0791535
0.129152
-0.178402
0.135511
0.585184
0.165213
-0.205313
-0.335209
0.400443
0.207542
-0.717279
0.338369
0.307872
-0.2701
-0.989443
-0.391006
1.50549
0.187
-1.57156
2.33945
-0.534511
-0.413127
-0.0173616
0.130621
0.0299659
-0.067205
-0.0241521
-0.0431955
0.000546691
0.0995431
0.45839
0.164262
-0.0710194
0.361314
-0.490781
-0.593716
0.326971
0.402837
-0.202023
0.96745
-0.262414
-0.148403
-0.691529
2.01021
-1.29539
-1.12682
-0.354217
-0.199812
-0.0351301
-0.22253
0.258925
-0.679987
0.0748815
0.00926387
-0.0408546
0.458838
-0.621667
0.639752
0.075219
-0.338833
-0.0202821
0.349268
0.598566
-0.506188
-1.13403
0.184518
1.45172
-0.342637
0.0913678
0.461456
0.86215
-0.120141
-0.522556
-0.388363
0.580742
0.0838945
1.06209
1.4513
1.61848
1.50425
1.54443
1.0834
1.59786
1.4662
1.00615
1.28557
1.37752
2.0481
2.08373
0.0415734
1.3168
-0.677476
-0.139724
0.0429849
0.342217
-0.31728
-0.430695
0.570451
0.218226
0.365
0.12439
-0.126108
-0.103787
0.519537
0.0333314
0.229303
0.708576
0.642545
0.70766
0.439661
0.879777
1.13021
1.53337
-0.240968
1.16105
0.402378
0.0956641
-0.45595
-0.124663
-0.099541
-0.0871179
-0.0554365
0.821026
0.60532
0.400746
-0.0212466
-0.189206
0.541849
0.760393
0.69685
0.481941
0.325837
-0.743361
-0.130379
0.146698
0.0910238
0.126048
-0.548505
-0.40152
1.10778
-0.680593
0.220569
-0.147187
-0.0752352
-0.155581
0.244217
-0.18969
0.12123
-0.226705
-0.374631
0.351178
-0.279676
0.685383
-0.343049
-0.204235
-0.244952
-0.0834091
-0.860946
-1.10983
-0.118971
-0.358843
-0.218932
-0.307297
0.778605
-0.15672
1.20701
-0.792642
0.761485
0.058565
0.14747
-0.49715
-0.0613584
-0.345485
-0.225738
0.568749
-0.58437
-0.956388
0.100548
-0.537349
-0.729913
-0.68251
-0.890994
0.287223
0.978387
0.209647
-1.07737
-0.146895
-0.133735
0.0233875
-0.244578
-0.142279
-0.431721
-0.284771
-0.0296728
-0.562529
0.110196
0.155395
-0.15925
-0.242274
0.325289
-0.509801
-0.13627
-0.425809
-0.112482
0.290845
0.474342
0.439903
-0.103549
0.310825
0.438781
-0.297169
-0.320965
-0.33123
0.403582
0.163946
-0.446619
0.380317
-0.210363
-0.52832
-0.423234
-0.156522
0.256113
-0.16064
-0.0824956
-0.486622
-0.289222
-0.270653
0.0697284
-0.0321144
-0.349525
-0.15341
-0.380491
-0.284147
-0.407392
-0.273071
-0.0696685
0.251009
0.00778515
1.21514
0.328119
0.430361
0.312146
0.227905
-0.0027916
0.961525
0.0418744
0.234267
0.446065
0.598357
0.334555
0.925436
-0.857045
0.561737
-0.467286
-0.718117
-0.990108
-0.340088
-0.0442715
0.486027
-0.0216454
-0.679146
0.037761
-0.0737325
1.2101
0.260256
0.857867
-0.500071
1.13067
-0.602282
0.710804
0.881309
-0.843523
-0.21463
-0.734581
0.0976245
-0.131727
-0.156171
0.142409
-0.764402
-1.24642
-0.613071
-0.687874
-0.253446
0.330086
-0.0485619
-0.599176
0.815742
-0.0134511
0.0979779
-0.0907653
0.659733
0.465804
0.0375396
0.469216
0.557505
0.260063
0.0620439
0.542418
0.0544514
0.505054
0.662276
-0.517928
-0.315297
0.133848
-0.122169
-0.0234929
0.358079
0.0237943
0.310892
0.314774
0.189098
-0.308564
-0.703391
1.13263
0.921126
1.16336
-0.995347
0.0597216
0.326132
1.38736
-1.47329
-0.466085
-0.131769
-0.146242
0.618677
0.597116
-2.47102
-0.594495
-1.59297
-1.98839
-1.97406
-1.3814
-0.464036
0.232459
0.635845
-1.64636
-0.0115575
0.0139019
0.867589
0.353183
0.340294
-0.845688
0.378698
0.624952
0.797648
-1.18794
-0.609013
0.608007
0.461453
0.903685
0.367631
-2.6971
-0.358309
-1.27543
-2.03815
-1.75093
-1.99665
-0.68842
0.797114
0.36762
-1.87581
0.358746
0.72958
0.648031
-0.3012
0.0960491
-0.331714
0.0804778
0.0270168
0.691372
0.238512
-0.145635
0.0358086
0.25505
0.717203
0.292181
0.783911
-0.122326
0.228798
0.333226
-0.564228
-0.521393
0.0706128
0.945746
0.238052
-0.047634
0.0508464
0.517399
0.538106
0.501562
0.0258641
-0.181342
0.0600291
-0.333898
-0.252014
-0.0386565
0.332445
0.777409
0.0297062
0.170803
-0.184014
0.437834
0.107879
-0.155826
0.0912202
-0.0934188
0.455567
0.726719
0.760106
0.57169
0.191608
-0.585999
-0.0850718
0.179488
-0.292008
-0.494592
-0.409018
-0.0847474
-0.27873
-0.495876
-0.103405
-0.507292
-0.146957
-0.170018
-0.230893
-0.132984
-0.102927
-0.178864
0.219038
-0.345595
0.0625668
0.0593817
-0.0360911
-0.0660911
-0.143203
-0.322012
-0.302615
-0.46005
-0.235477
-0.421365
-0.0660924
-0.277324
0.263286
0.551814
-0.269783
0.253045
-0.578875
-0.52457
-0.386317
-0.359763
-0.331636
-0.786104
-0.23468
-0.702632
0.0147199
-0.243546
0.116229
-0.248843
-0.405745
0.0664558
-0.337147
-0.620826
-0.213563
0.131995
-0.0770691
0.277915
0.0721348
0.0727836
0.10347
-0.34228
0.0768885
-0.00360294
-0.495348
-0.69122
-0.302494
-0.561341
-0.0388031
0.395744
-0.371356
-0.33806
0.102352
0.0338941
-0.239633
-0.145083
-0.0132569
0.262385
0.279533
-0.200972
0.430032
-0.116844
0.275434
0.505658
0.236963
0.182342
0.64312
0.177793
-0.0188007
0.673877
0.402612
0.460797
0.469292
-0.170652
0.552973
0.322371
0.363985
0.467871
0.367557
0.0316564
0.528355
-0.275434
0.340844
0.0636375
-0.00187842
0.810216
-0.180741
1.31859
-0.223118
0.209002
-0.354378
0.665304
0.127839
-0.201223
-1.07318
0.368753
0.816362
-0.205519
-0.960694
0.23414
-0.778458
-1.3323
-0.358127
-0.286266
0.151881
0.530275
-0.750596
-0.150372
0.120641
0.308296
0.928685
-0.280815
-0.000840789
0.342065
0.547325
1.25338
0.937779
0.176232
-0.214123
0.223519
0.324327
0.980222
0.260263
-0.49311
0.0144484
-0.342514
0.170917
-0.748932
-0.719341
0.0520997
0.0792597
-0.0158573
-0.15827
-0.239982
-0.376784
0.838952
0.23969
0.831462
-0.205188
0.762971
0.46635
0.935574
-1.18983
-0.663855
0.658053
-0.100294
0.847856
0.912631
-2.35546
-1.04081
-2.02954
-1.56163
-2.38676
-2.4431
-0.565121
-0.0395756
0.306291
-2.6969
0.146504
0.101784
-0.496001
-0.0517246
-0.328285
0.405689
-0.220673
-0.228195
-0.427912
-0.254256
-0.089381
-0.111991
-0.199115
0.246474
0.129377
0.510661
-0.159969
-0.0396583
0.730419
0.0109426
0.477839
0.0865682
0.185644
0.00865353
-0.0310815
-0.479651
0.215183
0.277418
0.575941
1.51292
-1.06814
1.09425
0.136929
0.431217
-1.10088
-0.103754
-0.926821
0.374559
0.0279854
-0.944988
-0.910406
-0.602967
-1.00459
-1.1547
-0.896642
-1.03116
0.320192
1.09789
0.608384
-1.72546
0.211968
-0.00663019
-0.739797
0.25807
-0.319881
-0.319516
-0.265864
-0.10822
-0.169884
0.257741
-0.0389351
0.121393
-0.34946
-0.184647
-0.438337
0.36481
0.058788
0.692592
0.341052
0.044102
-0.135782
0.117168
0.198687
-0.445864
-0.0517451
0.529539
-0.700969
0.326525
-0.0944383
-0.351016
-1.12737
0.385276
-0.322268
0.748124
-1.35996
-0.471577
-0.113959
0.284967
0.236368
0.433722
-2.50669
-0.698591
-2.03224
-1.80007
-2.38385
-1.89795
-1.40851
0.19112
-0.263306
-2.01228
0.187721
0.517667
0.507967
0.30815
0.749948
0.214371
0.590689
0.500866
0.517517
-0.103772
-0.00255838
-0.0577647
0.196137
-0.0774054
0.725906
-0.462956
0.181208
-0.264957
-0.346679
-1.0105
-0.692048
0.36858
-0.293611
-0.0998708
-0.31616
-0.396478
-0.446317
-0.193705
0.257356
0.352882
-0.431942
-0.0833695
-0.736266
-1.14907
0.0156926
0.304554
-0.454911
-0.724298
-0.698519
0.212844
0.339311
-0.127335
0.351707
-0.247695
0.209848
1.11428
0.150914
-0.377148
0.186093
-0.0568287
-0.36539
-0.610305
0.279575
-0.236286
0.521424
0.600897
0.345236
1.25595
0.356642
-0.424559
-1.79313
-0.528274
-1.0583
0.0145123
-0.701921
-0.418661
0.483173
-0.293463
-1.03111
0.215246
0.301052
-0.142521
-0.0294624
-1.26266
0.0103811
2.37443
-0.554363
-0.139804
1.72188
2.27581
0.396382
3.31051
3.44625
1.91694
0.644986
-0.865115
-0.767365
-0.779402
0.191606
1.97271
1.9821
4.24932
-0.532151
3.88158
-0.463977
3.7665
1.24363
-1.60136
-2.16718
