#input normalization
0.160268 0.269185
64.5391 59.163
10.4397 39.2113
8.46096 32.2601
0.0121353 0.0432169
0.00949168 0.0332054
0.306575 1.05843
0.682428 0.900752
0.874128 1.08374
1.05907 1.28708
1.2824 1.4637
1.53044 1.63265
1.77909 1.77713
2.00235 1.89662
2.23801 2.01932
2.44327 2.09675
2.64366 2.16226
2.83933 2.1987
3.01528 2.22364
3.15235 2.18907
3.28804 2.15886
3.3782 2.08945
3.45052 2.01346
3.50741 1.92198
3.56556 1.82263
3.57002 1.69847
3.54843 1.55147
3.51165 1.4007
3.44659 1.23755
3.34531 1.07125
3.24516 0.90578
3.13305 0.740638
3.02099 0.595831
2.86789 0.444861
2.71852 0.30042
2.59075 0.171671
2.43323 0.0464711
2.30937 -0.0682671
2.17629 -0.165082
2.03442 -0.267878
1.90223 -0.35423
1.79289 -0.429574
1.65522 -0.501592
1.53906 -0.567993
1.41722 -0.626954
1.28347 -0.684678
#output normalization
1 0
#neurons weights
-0.472204
0.269573
0.186259
0.127153
-0.489476
0.0606107
0.0650537
-0.157201
-0.329359
-0.0431823
0.0466422
-0.208741
0.132933
0.329225
0.343126
0.0312346
0.297199
-0.179875
-0.487097
-0.291285
0.364619
0.479845
-0.42656
-0.329465
0.383069
-0.456602
-0.105263
-0.367319
-0.395342
0.125713
-0.129759
0.136182
-0.438332
0.283699
-0.433074
-0.469027
-0.0915977
-0.0382982
-0.363043
-0.0846233
0.168563
0.246828
-0.285409
-0.257242
0.239524
-0.248135
-0.562053
-0.967109
0.222473
0.573657
-1.66272
0.0501522
0.469958
0.325902
0.378089
1.27886
-0.0563729
-2.11226
-0.318103
0.26107
1.35991
2.49922
0.913585
2.53776
0.47682
2.11044
0.642349
0.957641
0.250363
1.99621
0.641602
-0.203822
1.07452
-0.204493
1.84099
0.528457
-2.4579
0.196669
2.16706
-1.51486
-0.729218
-1.2106
1.43987
-1.7027
2.13816
-0.269222
2.53521
0.819849
-0.918636
0.414593
-1.46924
0.17773
-1.59649
-0.0227572
-0.109388
-0.525303
-0.457987
0.0958065
0.505937
-0.20024
-0.10771
-0.22542
0.192733
0.751282
0.388801
0.696135
-0.167971
-0.272622
-0.985898
-0.237295
0.714478
0.133197
-0.113811
0.288597
-0.0280585
0.536831
-0.501221
-0.303811
-0.0346433
0.108194
0.276775
-0.22075
-0.159889
0.0914513
0.67869
-0.101472
-0.150565
0.04942
-0.706078
-0.219471
-0.24209
0.289939
-0.114916
0.590968
-0.712901
0.000682874
0.554993
-0.23474
-0.221017
1.71734
#synapses weights
0.674315
0.119064
-0.0637414
-0.000563378
0.137713
-0.00874277
0.353045
0.273298
-0.0765155
-0.185255
0.0108601
0.0984357
-0.644725
-0.487775
0.232173
0.324534
-0.33696
-0.0171738
0.0808552
0.134871
0.32195
-0.30034
0.449074
-0.294586
-0.274415
0.365734
0.783386
0.18734
0.183306
0.153167
0.544334
0.382509
-0.277705
-0.273347
0.627997
0.1666
0.118487
0.203382
0.49719
0.346489
0.165889
-0.0596593
-0.205038
-0.549741
0.0359035
-0.325181
-0.298341
0.76784
-0.594305
0.296402
-1.15327
0.533675
0.418657
0.252232
-0.510734
-0.63949
-0.86403
-0.229021
-0.0774652
-0.688868
-0.640246
-0.519384
0.314658
-0.186752
0.110565
0.165807
0.69024
0.734516
0.164638
0.782389
0.768909
-0.0675555
-0.18084
0.249156
-0.279347
0.490034
0.302364
0.524717
0.365679
0.195427
0.289715
-0.126546
0.0548469
0.290623
0.558517
0.73333
-0.0321239
0.311566
-0.120223
0.165535
0.250517
0.691596
-0.332286
-0.486459
0.729572
-0.139685
0.895597
0.229591
-0.309096
0.209535
-0.201818
0.227123
0.0305883
-0.698151
0.142085
-0.0824269
-0.421908
-0.167303
-0.555139
0.037589
-0.087032
-0.68409
0.219157
0.220042
0.582971
0.277038
0.066912
0.49426
-0.364577
0.550827
-0.338951
-0.0950685
-0.507761
0.0420931
-0.0669152
0.103599
0.339844
-0.0620534
-0.280565
-0.246991
0.0261178
0.0380764
0.0599329
0.490115
-0.146388
-0.0788905
-0.142352
-0.026598
-0.213643
-0.505917
0.61355
-0.00758847
0.844156
0.407226
-0.221831
-0.128155
0.157
0.167613
0.175566
-0.473084
-0.0641077
-0.357683
-0.192797
0.583621
0.288143
0.252372
0.237654
0.482504
-0.404211
-0.528685
0.0261416
-0.258772
-0.553365
0.0338686
-0.229487
-0.630378
-0.516638
0.0195087
-0.252311
0.191385
0.0350768
-0.302623
0.27846
-0.0501704
-0.209747
-0.227001
-0.34235
0.0374954
-0.431029
-0.364692
-0.0813126
-0.215204
0.437172
-0.13566
-0.294447
0.416318
-0.236993
0.184992
-0.684779
0.401938
-0.217045
-0.0650935
0.534084
-0.681263
0.135617
0.668152
0.158651
0.0868369
-0.215732
-0.555164
0.34185
-0.353842
0.20715
0.192778
-0.594744
0.268893
-0.0589074
-0.612171
0.141153
0.0672393
0.21727
-0.474373
-0.407097
0.173286
0.50621
-0.268156
-0.034635
-0.0231613
-0.108615
-0.120874
-0.321178
0.672238
0.385767
-0.260848
0.239348
-0.488392
-0.575853
0.0798638
0.490413
0.291414
-0.617397
-0.00541044
-0.781599
-0.419395
-0.353212
0.113739
-0.0816501
-0.380425
0.443115
-0.4337
-0.268002
0.152344
-0.813532
-0.531124
-0.523123
-0.331688
0.3633
0.270236
-0.0404427
0.125045
0.0742922
0.146852
-0.0474932
-0.263888
-0.48692
-0.27471
-0.312513
-0.0605621
-0.570531
0.00279254
-0.157565
-0.0467304
-0.31719
-0.186604
-0.348636
0.314571
-0.113808
-0.165227
-0.120669
-0.414319
0.158678
-0.131677
0.0545458
-0.0494345
-0.112427
-0.153615
-1.08586
-0.7755
-0.00219189
0.945497
0.351834
0.440945
-0.188666
-0.0347318
0.0356389
0.359084
-0.137199
0.363898
0.0413672
0.16303
-0.525435
-0.398927
-0.323572
0.0415111
-0.184455
-0.292227
-0.030005
-0.258874
-0.437941
0.489461
-0.184158
-0.118339
0.0101172
0.416539
-0.218628
0.566698
-0.340359
-0.28724
0.199344
-0.499201
0.100299
-0.376968
-0.110473
-0.411508
0.0848414
0.281854
-0.33825
0.112472
0.313932
-0.120127
0.118822
-0.0426398
-0.657203
-0.433902
0.0149404
0.176146
-0.307507
0.259755
0.112259
0.0633594
-0.392358
-1.48568
-1.09029
-0.754412
-0.0769716
0.00687207
-0.142635
-0.500627
-0.222316
0.312721
-0.266148
-0.333723
-0.082788
-0.262059
-0.248133
-0.216992
0.0117778
0.445237
-0.0446505
0.399037
-0.288024
0.140586
-0.328211
-0.093238
-0.347444
-0.369619
0.267747
0.261218
-0.167262
-0.481258
0.325332
-0.0478694
-0.178194
-0.0419392
-0.0338938
-0.219636
-0.0185592
-0.273383
-0.742906
-0.51547
-0.141079
0.00304032
-0.449623
0.501927
0.655558
0.177499
-0.296315
0.194234
0.268886
0.0661447
-0.437126
0.397694
-0.524454
-1.06311
-0.211763
-0.704627
-0.747959
-0.800128
-0.345001
-0.580777
-0.291449
-0.323068
-0.688337
-0.573557
-0.0204594
0.046699
-0.301144
0.153007
0.210751
-0.195866
-0.0848563
0.284332
0.370508
-0.23952
0.000900439
0.186499
0.199726
0.282839
-0.497837
-0.231507
0.051676
-0.333481
0.0572385
-0.138355
-1.09773
-1.15417
0.494509
-0.238088
0.360563
0.810167
0.285068
-0.530614
0.132321
0.0668724
1.22673
0.598957
-0.500553
0.261493
-0.598256
-0.302429
-0.0825866
0.22437
0.303885
-0.746113
0.0814312
-0.418271
0.179106
-0.239807
-0.0382432
-0.18202
0.965453
0.0650807
-0.104323
0.0251581
0.524179
-0.59015
-0.198726
-0.304455
0.342917
-0.09453
0.502084
-0.382626
-0.0435645
0.463468
-0.455836
0.558181
-0.139001
0.0865143
-0.559613
0.29203
-0.690714
0.480729
-0.00612892
0.462359
0.0203143
-0.0576496
-0.0779494
0.490673
0.315985
-0.280158
-0.0450477
0.196654
0.0173361
0.0648536
-0.241677
0.0143749
0.105737
0.455396
0.0315804
0.962315
0.779873
0.065277
-0.0142852
0.354094
0.268511
0.553782
-0.0337644
0.507012
0.73004
-0.0402334
0.651343
-0.198885
0.531582
0.127282
0.572569
0.0594255
0.195157
-0.198156
0.0870483
-0.321245
-0.280778
0.152848
0.376816
0.593301
-0.299167
0.0954466
0.232147
1.20979
-1.13987
0.022865
-0.265913
0.38192
-0.197615
0.783891
0.0794528
-0.0970394
0.517463
-0.0604306
-0.00192801
0.51344
-0.525091
0.688446
-0.585862
0.132056
-0.464537
0.27534
0.206516
-0.0968183
-0.058309
0.0165136
-0.0813031
-0.313679
0.0443247
0.119954
0.188221
-0.0263355
-0.31575
0.309439
-0.361406
0.76974
-1.04614
0.294096
-0.651361
-0.70064
0.0634687
-0.284288
0.553164
0.30507
0.393229
-0.229241
0.0926581
-0.135616
0.260489
0.11897
0.578822
0.140522
-0.121983
0.344888
0.387371
0.485291
0.287738
-0.20863
-0.330786
0.330147
0.537911
0.477924
0.582147
0.234884
0.404732
0.00875316
0.383627
0.56312
0.375285
0.354367
0.499396
0.0924643
0.125913
-0.205624
0.159882
-0.15206
-0.214178
-0.045389
-0.0394667
0.146454
0.244009
0.51479
0.0594902
-0.266586
0.470603
-0.157097
-0.18927
0.254948
0.303806
0.304836
-0.192722
0.464967
-0.18274
-0.157907
0.179351
0.0857793
0.408962
0.0794017
-0.0948122
0.294605
-0.0481186
-0.231437
-0.0585872
0.575849
-0.116432
-0.276629
-0.0124661
0.929945
1.1171
1.12757
0.953768
0.6273
0.363963
0.491349
-0.376328
0.0920053
-0.0359129
-0.252187
-0.0178437
0.00710404
-0.0406927
0.463537
-0.376235
-0.119949
-0.436601
0.0377428
0.273652
0.0223394
0.265117
0.518881
-0.266837
-0.259158
-0.118729
-0.3983
0.149084
0.103283
0.453248
-0.338466
0.488166
0.352265
0.553914
-0.0448156
0.20104
0.16211
0.0920528
-0.206041
-0.273266
0.370791
0.0959015
-0.626372
0.0348568
0.562865
0.574666
0.670822
0.885247
0.768395
0.545601
0.65473
0.443815
0.281485
0.125025
0.175209
0.164533
-0.0244609
0.159509
-0.223273
-0.193997
-0.178176
-0.0350963
0.198198
-0.21991
-0.285916
0.292178
-0.285974
0.295306
0.56533
0.282201
-0.204958
-0.370196
0.237204
-0.0923193
0.00379169
0.198884
0.444163
-0.0915045
0.152478
-0.48961
-1.56418
0.0780627
-0.773028
-0.38036
-0.782806
0.0327839
-0.0318293
0.0224325
-0.0924341
-0.0997433
0.21223
-0.326785
0.163887
-0.117286
-0.121691
-0.15485
0.651882
-0.770172
0.0551427
-0.103731
0.0940696
0.228283
0.125504
0.590964
-0.16856
0.469315
-0.401734
0.185445
-0.366345
0.586342
0.0358121
0.394818
-0.106805
-0.0149718
0.147269
0.0119675
-0.666278
0.0237371
-0.161518
0.195716
-0.0924211
0.639202
0.255439
-0.336673
-5.7116e-05
-0.162331
-1.43988
0.521254
-0.331788
-0.284828
0.100407
-0.0865671
0.0206477
-1.05564
0.150316
0.0691903
-0.186844
0.354027
-0.331563
0.433824
0.28568
-0.153262
-0.362211
-0.0437579
-0.0505264
0.368877
-0.524838
-0.0308277
-0.124006
0.519695
0.592127
0.0127758
-0.586984
0.550025
-0.309368
-0.38648
0.230297
-0.0662598
-0.155528
0.347522
0.378685
-0.223623
-0.008997
-0.367611
0.631953
-0.812196
1.18253
-0.559133
0.383643
-0.176695
-0.138105
-1.83446
-0.948158
0.974002
-0.347289
1.03007
-0.476036
0.182249
0.275492
-0.0262353
-0.287593
-0.226211
-0.00217605
-0.512667
0.968547
0.554539
0.338566
0.313742
-0.421707
0.275619
0.256934
-0.155865
0.255579
0.247108
-0.0274655
-0.350007
0.213145
-0.30736
-0.39404
-0.629854
-0.369041
-0.0854056
-0.200111
0.950117
0.63767
0.118903
0.254489
-0.422557
-0.29207
0.280165
-0.77188
0.178567
-0.110967
0.302501
-0.192026
0.448902
-0.314476
-0.362351
0.73105
0.156013
-0.416467
0.474274
0.0346374
0.781103
-0.290983
0.118545
-0.456176
-0.0760021
0.274079
-0.0636009
0.49554
-0.0806532
0.138891
0.491833
0.0597505
0.0858367
0.811093
0.257035
0.410677
0.562248
0.300512
0.296878
-0.0897354
-0.0520291
0.169238
0.839831
0.908916
0.10605
0.279004
0.612745
0.0842992
0.160457
0.437743
0.943836
0.616609
0.388094
0.545301
0.539868
0.424432
0.00866181
0.16535
0.5288
0.132345
0.522471
-1.2944
1.8367
-0.563788
-0.370925
-0.285849
0.0759523
-0.0597234
-0.198228
-0.162311
-0.289421
0.0270689
0.180109
0.296257
0.225382
0.226501
-0.101482
-0.21497
-0.400245
0.0362461
0.630699
-0.360111
0.596338
-0.147029
-0.161054
-0.121863
-0.273467
0.435947
-0.00263986
-0.084321
0.299815
0.200628
0.0914618
0.126779
-0.126962
0.220474
-0.440225
0.214961
0.0457295
0.088926
0.154324
0.801799
-0.425185
-0.469883
-0.0103221
-0.105447
1.52993
-0.661569
0.918143
0.517645
-0.07429
0.102395
0.0401565
0.0356105
0.364492
-0.741847
0.113482
0.0799545
-0.405535
0.0526985
0.360899
0.0101246
-0.28368
0.234086
-0.00331025
-0.259932
-0.325772
-0.406471
-0.326602
0.166872
0.101847
0.0389357
-0.419013
-0.449594
-0.0402784
0.0115483
-0.0851428
-0.15517
0.279415
0.315817
0.0191784
-0.460865
0.0590969
0.418065
0.389539
-0.170205
0.0367146
-0.260521
0.271402
-0.281204
-0.084044
0.103843
-0.289346
-1.31894
0.0968292
-0.189548
0.159341
-0.165116
0.182871
-0.075283
0.984311
-0.852539
-1.04282
-0.409759
0.629883
-0.379623
0.0963953
0.433845
-0.809035
-0.0718208
0.336298
0.302466
0.153108
-0.238004
-0.305094
0.389867
0.584
-0.621059
-0.308956
0.285249
0.488704
0.00973266
-0.113213
0.715798
-0.214155
0.235899
-0.167813
-0.527796
0.140912
-0.258797
0.456135
-0.0302801
-0.0242214
-0.295879
-0.338206
0.0255369
0.613437
-0.162475
-0.215181
-0.72592
-0.477804
0.392148
0.0026554
-0.806891
-0.505907
0.167967
0.102022
-0.287215
0.0632963
0.123835
-0.416799
0.545142
0.321852
0.764082
-0.0738029
-0.650629
-0.374731
-0.558378
-0.730578
-0.532815
-0.35737
-0.313126
0.072267
-0.0663168
0.180935
0.296638
-0.116676
0.0368326
-0.374722
-0.37836
0.515538
-0.505136
0.24454
-0.101049
-0.0028681
-0.318424
0.0632782
-0.0978581
0.11598
0.175921
-0.0590211
-0.155113
-0.344344
-0.1615
-0.401892
-1.57193
0.52406
-0.367925
-0.322003
-0.343811
-0.158401
0.324285
0.239629
-0.144699
0.0723764
-0.408675
0.560184
-0.260106
-0.299601
0.0704049
-0.118764
0.471298
0.576008
0.240083
-0.397218
0.156415
-0.336356
0.245289
0.243464
0.1386
-0.149908
-0.0285687
0.21067
0.383393
-0.27333
0.211709
0.304433
-0.625221
-0.0402799
0.131018
0.0539066
0.11742
0.243324
-0.401165
0.582845
-0.657666
0.517848
-0.0593618
0.183765
-0.237076
-0.471569
-0.840153
0.382952
0.794417
-0.476909
0.701941
0.466304
0.362589
0.0540493
-0.0593795
0.125575
-0.0742377
-0.57659
0.157426
-0.135637
0.149228
0.0339142
-0.210929
0.00661671
0.192974
-0.168871
0.712277
0.464244
-0.410529
-0.160745
-0.154
0.2866
0.0442739
-0.206286
-0.315922
-0.0212379
0.0161678
0.131673
0.0764241
0.0700962
-0.340071
-0.282703
-0.0901467
0.304557
-0.00151594
0.464516
0.259808
0.532559
0.579502
0.680723
0.189137
-2.76384
0.535137
0.0746148
0.281906
1.0019
0.154068
0.034883
-0.164643
0.359828
-0.199385
0.307619
-0.281448
0.103042
-0.0605871
-0.0747879
0.216452
-0.0841723
-0.204989
0.399004
0.449637
0.0678507
-0.0343338
-0.095874
0.0311622
-0.236398
-0.157187
0.250276
-0.0250123
0.375571
0.114881
-0.0349123
-0.0915736
-0.0288977
0.0335247
-0.431562
0.17781
-0.0498024
-0.239684
0.0311267
0.276869
-0.1746
-0.0397048
0.0363308
0.13761
0.0261625
0.208089
-0.67815
-1.12548
0.0590027
-0.554048
-0.543267
-0.896587
-0.0388606
0.0107941
-0.0597331
-0.472472
0.18826
0.465446
-0.26787
0.0930634
0.386434
-0.163012
0.435034
0.0287601
-0.367143
0.127341
0.0337966
0.363759
-0.20505
0.000357384
-0.707049
-0.114579
0.581413
-0.0745347
0.142189
0.613934
-0.356796
-0.258241
0.246793
0.49139
-0.230931
-0.0109451
-0.142643
0.270645
-0.0430375
0.245235
-0.181243
0.19919
-0.050494
-0.0308395
-0.10359
-0.148344
-0.0517314
-0.624152
-0.196143
-0.607343
-0.020387
0.59409
-0.466177
0.0387049
-0.385311
0.0631866
-0.141379
0.231476
-0.433053
-0.577903
0.0648223
-0.166222
-0.153147
-0.509022
0.0353961
0.180388
-0.272499
-0.109584
0.111753
-0.325021
0.109471
-0.0420277
-0.148339
-0.262157
-0.511584
-0.096831
-0.511448
-0.110967
0.14779
-0.746086
-0.357582
-0.0306399
-0.597724
-0.301559
-0.152086
-0.114877
-0.190024
0.275875
0.147289
-0.612521
0.0498948
-0.136643
-0.674679
-1.21049
0.0657441
-0.128251
0.163634
-0.258818
0.342875
0.653518
-0.303042
0.601179
-0.0325928
-0.255123
0.122956
-0.40637
0.195676
-0.348772
0.746697
-0.358869
-0.298982
0.0202167
0.0254826
0.808701
-0.36879
-0.207305
0.0174859
0.154532
0.0226383
0.128917
-0.371386
-0.175222
0.203766
0.359646
0.277164
0.567862
-0.32599
0.00486501
-0.429272
0.467395
-0.365109
0.673882
-0.0362562
-0.161309
-0.111125
-0.302425
-0.0121842
-0.194776
-0.857583
-0.427637
0.607033
-0.601379
0.513453
0.252336
-0.05762
-0.597075
0.162818
0.597898
0.161001
-0.527425
0.120263
0.304286
-0.161438
-0.310686
-0.753693
0.0553117
-0.0823834
-0.0537832
0.401344
0.216047
0.724433
0.604478
0.262341
-0.180781
-0.166629
-0.0933723
-0.106304
-0.189109
0.0690953
0.133601
-0.607512
0.478227
-0.556511
-0.247846
-0.185538
0.277858
0.581686
-0.0482798
0.178149
0.0672708
-0.186076
0.26895
0.204025
-0.513143
1.18351
0.298263
0.791171
-0.29833
-0.636636
-0.113463
0.715978
-0.00657734
-0.440118
-0.496331
0.638344
-0.124869
0.177892
0.0622791
-0.717521
0.0879066
0.0961315
0.718701
0.0152413
0.430964
-0.210662
0.459473
-0.383216
-0.321655
0.207156
-0.171741
0.0458362
-0.563551
0.309882
-0.10639
0.298608
0.634886
-0.15454
0.523228
-0.194724
0.290082
0.436968
0.149406
0.297259
0.240645
-0.368321
-0.735295
-0.10334
-0.237564
0.62909
0.477762
-0.892461
0.189783
0.214681
0.860635
-0.0200451
-0.0313758
-0.470489
0.155908
-0.22679
-0.378322
-0.233743
-0.278187
0.166021
-0.366045
-0.278571
-0.506789
-0.193969
-0.424244
-0.178342
0.245904
0.247681
-0.208037
-0.0149854
-0.330544
0.277722
0.26525
0.146859
-0.143915
0.0751003
-0.379906
-0.16484
-0.13081
-0.268848
-0.0524874
-0.472433
-0.402584
-0.448387
0.22208
0.230378
5.34271e-05
-0.454843
0.0971066
0.391711
-0.38035
-0.159055
0.0502492
-1.60215
-0.0433698
1.04694
-1.27513
0.934578
0.12087
-0.778944
-0.519445
0.067215
-0.0117878
-0.0983126
0.634862
-0.0538952
-0.0452654
-0.321698
-0.438075
-0.0472861
0.136605
0.0574129
0.0307061
0.0265854
-0.645022
-0.216046
0.385817
0.190795
-0.457127
0.0124102
-0.123626
0.183499
0.256606
-0.572205
0.457608
-0.527058
-0.373168
0.19145
-0.231984
0.204313
0.471199
0.351881
-0.0298778
0.21076
-0.178375
-0.361064
-0.209005
0.185471
-0.124307
0.358816
1.01318
-0.280203
0.231889
-0.755381
0.170485
0.143595
-0.526047
0.47599
-0.145666
0.387349
-0.25147
0.0778286
-0.603962
0.536643
-0.168441
-0.534539
0.238579
0.116963
0.0115091
0.158023
0.132423
-0.00590809
-0.678863
-0.180266
-0.592585
0.671509
-0.856281
0.0894708
-0.160472
0.106909
0.702236
0.38382
-0.273415
0.113067
-0.325182
-0.150817
0.123025
0.0904379
0.201714
0.110539
0.156329
0.0202296
-0.0383021
-0.593916
0.00269858
-0.0728334
1.92155
-0.275299
0.135775
-1.06841
0.670144
1.69787
-0.0188975
-0.822342
0.278442
-0.269024
0.304555
0.0454543
-0.354876
0.418814
0.353766
-0.452391
-0.0444212
0.0879018
-0.483313
0.364346
0.145766
-0.699861
0.247994
-0.248975
-0.323965
0.220167
-0.00250714
0.128651
0.0956902
-0.576745
-0.517729
0.354347
-0.597248
-0.166068
-0.128836
-0.151584
0.415598
0.129264
0.354781
-0.38466
0.528621
-0.0917273
0.347529
-0.340081
-0.104874
0.55855
0.882291
-0.0062903
0.179767
-0.0503724
0.00537186
-0.118976
0.0833257
0.0227971
0.0528878
-0.0231194
-0.663071
-0.413937
0.0800837
0.229131
-0.429034
0.492554
-0.65651
0.144357
0.195393
0.0735789
-0.279887
0.585953
0.280766
0.0983368
0.37764
-0.566343
0.342398
-0.293309
-0.350003
0.0108173
-0.419852
0.091032
-0.0354959
0.477714
0.221384
-0.345049
-0.186753
0.162134
0.0635363
-0.212595
0.402638
-0.311988
0.14094
0.166092
-0.159039
-0.676665
-0.742938
0.154706
-0.0257856
-0.245915
0.575537
0.0720774
-0.520606
0.0871564
-0.267645
-0.156949
0.394226
0.226978
-0.136525
0.072368
-0.274669
-0.510183
-0.00456399
0.85022
0.126692
-0.136687
0.300584
-0.541242
-0.0190332
-0.187259
-0.406246
-0.392711
-0.175763
0.157146
0.152045
-0.123332
0.291892
-0.386783
-0.15766
-0.361408
0.838267
-0.151903
0.369009
0.382805
-0.271869
-0.167318
-0.121621
-0.495148
-0.0319952
0.332172
-0.0941442
0.896474
0.954102
-0.258795
0.310497
0.281635
-0.357786
-0.366134
0.467356
-0.0657991
-0.56894
-0.187334
0.25778
0.112437
0.302639
0.119778
0.424751
0.716312
-0.117101
0.137366
-0.151651
-0.318073
0.179708
-0.639832
-0.0870512
-0.0489604
0.039144
0.525626
0.535094
0.559988
-0.117409
0.0311694
-0.0182494
0.398161
0.172009
-0.355568
0.471339
-0.574109
-0.16232
-0.286109
0.19853
-0.801762
0.135675
0.552528
0.187641
0.332919
0.0976263
-1.25416
-0.812318
-0.416062
-0.262234
1.05366
0.463417
0.159443
-0.156955
-0.0523039
0.14501
0.1782
-0.73536
0.552137
-0.512249
-0.510974
0.786075
0.245359
0.0908838
0.241363
-0.0790462
-0.350706
0.177172
0.0899368
-0.543955
-0.766339
0.351293
-0.23476
-0.0672277
0.257483
0.338666
-0.42512
0.649728
-0.458008
-0.540997
0.532354
-0.664871
0.457166
0.653939
-0.619491
0.0386805
0.0983425
0.0640027
-0.32276
0.043255
-0.0288677
-0.169699
0.342868
0.288261
-0.248964
0.105143
0.494329
0.16077
0.0808427
-0.112681
-0.162182
0.534997
-0.351436
-0.154628
-0.0982884
0.369065
0.568487
-0.0454344
-0.00596972
-0.186861
0.248975
-0.042655
0.213911
0.18548
0.0515957
0.626787
0.703125
0.612452
0.599081
0.162378
-0.0650474
-0.189465
0.495147
0.411441
0.0987337
0.419279
0.50239
-0.215205
0.487036
-0.178971
-0.0407419
0.402805
0.240175
-0.232975
0.113355
-0.126396
-0.0136035
-0.261698
-1.33824
-0.780952
0.10651
0.437683
0.823681
0.450144
-0.122224
-0.134581
0.571355
-0.355314
0.287673
-0.670596
0.101174
0.0752794
0.0866392
0.0947048
-0.456181
-0.232929
0.314953
-0.722492
0.289349
-0.0871545
-0.0859792
0.0574127
0.224401
0.307601
-0.175628
-0.226464
-0.284317
-0.140032
0.195878
-0.143521
-0.180927
0.26392
-0.0339309
0.118873
-0.189018
-0.194739
0.186914
-0.0578956
-0.0352757
0.045101
0.00948083
-0.0545155
-0.0071178
-0.153181
-1.22136
-0.104634
-0.186212
-0.272601
0.0145119
-0.12072
0.195735
0.156541
0.329298
-0.552038
-0.365829
-0.397536
0.203249
-0.169204
0.0896528
-0.199291
-0.132451
-0.421573
-0.508588
-0.721132
-0.132946
0.102399
-0.278785
0.146712
-0.418211
-0.00396647
-0.660598
-0.56675
0.20091
-0.553087
0.154117
0.0640749
-0.0804698
0.120822
-0.302823
-0.213989
-0.404915
-0.333442
-0.350112
-0.051297
0.0640553
0.395203
-0.365467
0.277671
-0.4946
-0.055701
0.208409
1.34968
0.211036
-0.431471
-1.1332
-0.0460984
0.0838715
-0.688802
-0.03625
0.395212
-0.0937282
0.527456
-0.965014
0.549136
0.58061
0.234084
-0.171374
0.159278
-0.567884
0.539051
0.370275
-0.0334907
0.333553
0.365502
-0.00116303
-0.16232
-0.593894
0.114553
0.314049
0.425002
-0.00644272
-0.104164
0.0760725
0.234711
0.249238
0.542623
0.0523377
-0.0227316
0.0682227
0.203753
-0.199326
0.0568471
0.246033
0.236664
-0.583325
0.0523265
-0.515822
-0.623764
-0.467481
-0.428439
0.60491
0.857465
-0.566103
-0.184341
0.317804
0.504744
-0.0223539
-0.314658
0.312065
-0.184979
0.213764
0.159628
0.315869
-0.396866
0.100862
0.576104
0.0332102
-0.269609
-0.0121399
0.170059
-0.78744
0.0489019
0.0535394
0.599426
-0.577636
-0.41152
0.11327
-0.064732
0.236714
0.155869
0.107318
0.675885
-0.375469
-0.220472
0.54428
-0.427577
-0.253407
-0.761017
-0.135256
0.206434
0.0543642
0.131663
0.343265
1.36449
0.238034
-0.226289
-0.803302
0.29982
0.0503013
-0.406845
0.0720666
0.296334
-0.393171
-0.507839
1.09079
0.379272
-0.362327
0.15523
-0.134546
-0.0263824
-0.425696
-0.760512
-0.270995
0.0694814
0.0996403
0.0748857
-0.51044
0.427165
0.222992
0.184169
-0.422545
0.439705
0.136656
0.298965
0.301441
-0.438344
-0.0758591
0.0440249
-0.136328
-0.057025
0.105564
-0.303779
0.116141
0.483505
-0.0745684
-0.105903
0.306647
-1.15484
0.48174
0.808616
-0.105401
0.418156
0.117573
0.485937
-0.00911186
0.0974268
0.216327
-0.585062
0.260473
0.276515
-0.00714654
0.38003
-0.296784
0.0804059
-0.361256
-0.0534015
0.0598776
-0.149681
-0.0906738
0.574441
0.0810748
0.830224
0.961295
0.162934
0.848948
0.151122
0.199598
0.686809
0.734293
0.390627
-0.0215319
0.0438102
-0.0657485
-0.187407
0.422343
-0.190921
-0.00425781
0.240696
0.318743
0.404388
-0.176089
0.0428443
0.519689
0.143359
0.911375
0.336317
0.353955
-0.310186
-0.16497
0.388654
0.982805
0.135485
-0.0401349
0.0244887
0.225197
-0.00308552
0.288099
-0.779304
0.453628
0.179668
0.252702
0.507305
0.112079
-0.0444673
-0.468506
0.338541
0.396184
-0.391457
-0.260908
0.387004
0.124088
-0.147229
0.093717
0.431681
-0.0535895
0.52014
0.127101
0.0225122
0.34087
0.120935
0.300279
0.0101554
0.180994
-0.0653698
0.351932
0.355833
-0.10838
0.261579
-0.396878
0.128926
-0.307273
-0.0843079
0.454689
-0.13514
0.073069
-0.247831
0.0658042
-0.368567
-0.033765
0.632127
0.283996
0.104778
0.13854
0.145055
0.071642
0.496117
0.682437
-0.200421
0.240068
0.0112804
-0.200472
0.284463
0.0216877
0.266928
0.30612
-0.228382
-0.187865
-0.149731
0.0845443
0.269311
-0.478939
0.491454
-0.417766
-0.146623
-0.0498046
-0.604234
0.65676
0.293246
0.292284
0.431221
0.273328
-0.0580334
-0.557628
-0.287245
-0.723103
0.243512
-0.510398
0.42175
0.332435
0.444191
-0.380799
-0.332039
-0.316129
-0.0738766
0.0865813
0.223701
0.126668
-0.314071
0.0533925
-0.188706
0.118345
-0.351475
-0.1182
-0.353304
-0.343138
-0.386914
0.124285
-0.593705
-0.638247
-0.00550219
-0.115047
0.0481265
-0.411669
-0.601159
-0.516626
-0.0297994
-0.573083
0.0308825
-0.446953
-0.366107
0.151151
-0.351405
0.283951
-0.684483
-0.239929
0.0204266
0.378876
-0.230316
-0.0151541
0.470649
-0.557969
-0.117436
0.320723
0.735615
0.0340351
-0.801467
-0.602554
-1.04198
0.154653
-0.714557
-0.476785
-1.50711
-0.744644
-0.678507
-0.125869
0.561438
-0.0810298
-0.403683
0.0154032
-1.88498
-0.931823
-1.83153
-0.459547
-0.522361
-0.930658
-1.42773
-0.557274
-1.48137
-0.17684
-1.36231
-0.288496
-0.515881
-1.37697
-1.14722
0.773745
-1.17086
-1.6344
0.752531
0.544804
-0.177954
-0.423291
0.266132
-1.53897
-0.830328
-1.1743
-0.606209
-0.145823
-0.490189
0.253269
-0.761477
0.807414
-0.232899
-0.200607
-0.260162
0.252253
0.182526
-0.303033
-0.315698
-0.906897
-0.135597
-0.981975
0.0726286
0.396251
-0.0724061
-0.20636
-0.16264
-0.736536
-0.815881
-0.783096
-0.263731
-0.48588
0.44045
-0.642114
-0.681375
-0.594278
0.20443
0.00339814
-0.728634
-0.150946
-0.848021
-0.114107
0.533692
-0.572849
-1.2312
0.513603
0.494375
0.42218
-0.390384
0.524725
-0.859875
0.281604
-1.0137
-0.618147
0.269533
-0.104643
0.157872
-0.0439479
0.529175
0.0900892
-0.165347
-0.672173
-0.151603
-0.397279
-0.616647
-0.0779485
-0.33629
-0.0431649
-0.281199
0.294979
0.147748
-0.376392
-0.0273582
0.0979192
-0.397664
-0.739126
-0.381401
-0.490498
-0.0282927
0.288938
-0.428843
-0.841065
-0.322186
0.102913
-0.10385
-0.478904
-0.731937
-0.813717
-0.897211
0.0487058
-0.562791
-0.853011
0.489314
0.114712
-0.148992
-0.757583
0.0474254
-0.791965
0.206511
-0.980654
-0.457693
0.0235961
-0.621631
0.411269
0.0331017
0.023298
-0.155492
0.377851
-0.124032
-0.195037
0.624576
-0.0418588
-0.167737
0.0848515
-0.180975
-0.432063
0.487928
0.446456
-0.185782
0.603452
0.487788
0.124109
0.0144164
0.124145
0.289178
-0.32023
-0.0653516
-0.387386
0.176339
-0.357509
-0.450684
-0.194495
-0.42427
0.38035
-0.464793
0.174826
0.0821805
0.53609
-0.185893
0.0954588
0.343969
0.3441
-0.638398
-0.0261122
-0.10593
0.623036
-0.0621328
-0.608722
0.623239
-0.0141386
0.483232
0.495757
0.342765
0.913428
-0.975101
0.131301
0.257247
-0.577414
-0.112792
0.189184
0.104215
-0.133189
0.48031
0.0482768
-0.995875
-0.0617218
0.317984
0.0971325
0.106638
0.109492
0.940534
0.236273
1.21076
0.869878
-0.214931
0.288169
0.529191
0.65542
-0.455461
-0.00118275
-0.438015
-0.192399
0.418427
0.628529
0.257612
0.692492
-0.285037
-0.774838
-0.150352
0.301301
-0.139735
0.401227
-0.077881
0.233844
-0.324718
-0.404611
0.155921
0.286616
0.489824
0.0327762
-0.635173
0.144638
-0.626725
0.041788
0.140794
0.0339677
-0.52706
-0.260428
-0.267141
-0.984729
-0.189755
0.177277
-0.280509
0.386688
-0.312945
-1.44954
-0.66534
-1.17225
-0.0221575
-0.596826
-0.176997
-0.479511
-0.899204
-0.37029
0.14338
0.0311017
-0.791921
0.0313694
-0.997425
-0.266846
0.372308
-0.614912
-1.05058
0.117038
0.538577
0.274283
-0.578939
0.608765
-0.417404
-0.269842
-0.627447
-0.369587
0.440626
0.193799
0.570623
-0.731915
0.00794699
-0.614533
-0.203531
0.0923315
-0.220594
-0.100911
0.292979
-0.307137
-0.420553
-0.181638
-0.343946
-0.0806474
0.462121
-0.306461
-0.262884
0.362593
-0.832717
-0.300485
-0.732906
-0.304009
-0.370531
0.193333
-0.468664
-0.23103
-0.590075
-0.0594038
0.192321
-0.533376
0.347108
-0.333696
0.299275
0.14491
0.0945943
-0.420369
0.313781
-0.0459986
0.0317401
-0.074143
-0.0700343
-0.10247
0.157176
0.367602
-0.10634
0.565154
0.611031
0.226534
0.149583
0.0852713
-0.290013
0.096974
0.356798
0.0562701
0.0400989
-0.408804
0.441692
-0.0517665
-0.178675
0.231176
0.183792
0.356103
0.15885
0.240657
0.10403
0.407973
-0.238119
0.233783
0.271404
0.316058
0.246065
-0.479413
-0.42629
-0.0474057
0.368712
0.101581
0.404041
0.475303
0.26124
0.383825
-0.410433
0.471461
0.329824
0.0992445
-0.23974
-0.345964
-0.244809
-0.0985904
-0.171686
-0.105357
0.141186
0.272233
0.334078
-0.299027
0.164369
-0.0266782
0.135908
-0.143571
0.29419
-0.200551
-0.14484
0.327662
-0.206095
0.485385
0.12908
0.535929
0.60435
0.295272
-0.19646
0.177045
0.205592
0.385923
0.109584
0.560924
0.35721
0.331259
0.552464
0.33059
0.736929
0.0131891
0.17685
0.25672
0.0920665
-0.216243
-0.197467
0.122228
0.132832
0.437543
0.166022
-0.32009
-0.165679
0.24464
0.262986
-0.0318381
0.367447
0.236116
0.473521
0.646209
0.491225
-0.0209822
0.314641
0.592753
-0.0309511
0.295469
0.402996
0.569673
0.48508
0.673657
0.0998251
0.134213
0.357068
-0.0165134
-0.161546
0.398989
0.23327
-0.0925374
0.298848
0.321258
0.283901
-0.299484
-0.586314
0.470192
0.213098
-0.372884
0.0263001
-0.304201
0.0955773
-0.0367867
0.377702
0.0750229
-0.462711
0.317575
-0.325145
0.434232
-0.262031
0.226962
0.838125
0.224671
0.432729
0.354766
0.224349
0.595238
-0.172203
-0.101049
0.820345
-0.527223
0.0147306
-0.299981
0.559389
0.0181137
-0.0991992
-0.0341271
-0.0575489
0.646127
-0.145401
0.333523
0.626095
0.487299
0.448014
0.352144
0.245049
0.445825
0.627279
0.377007
0.861807
0.875171
-0.189536
0.20072
-0.159226
0.307903
0.463088
0.142252
-0.249462
0.245284
0.0107268
-0.0671221
0.15975
0.372918
-0.115173
0.572474
0.864195
0.405719
-0.266218
0.361343
0.298514
0.521996
0.337029
0.395301
0.676569
0.121414
-0.0438661
0.397931
-0.206141
0.420417
0.639396
0.275543
0.618309
0.595192
0.400925
-0.47713
-0.00635583
-0.0474326
-0.490208
0.0311034
0.204577
-0.0815217
-0.0319526
-0.347475
-0.155006
-0.140343
0.406041
-0.324805
-0.38364
-0.119713
0.514276
-0.240884
-0.363712
-0.480763
0.265371
0.514698
0.492659
0.34936
0.424103
-0.274421
0.10629
0.186323
-0.0600006
0.185818
0.152572
0.135221
-0.0201136
-0.363829
-0.559976
-0.203086
-0.352224
-0.556355
0.253374
-0.419503
0.206265
0.309117
-0.478263
0.440742
0.173824
0.0657318
0.058954
-0.125569
-0.430704
0.157551
-0.2715
0.379869
-0.244145
-0.533858
0.26637
0.170669
-0.302858
0.386638
0.0320379
-0.0882689
0.34103
0.0193749
-0.398809
-0.69609
0.21769
0.0222028
-0.519092
0.541221
-0.0246802
-0.404368
-0.731296
-0.461744
0.382121
-0.0808183
0.254311
-0.448118
-0.607701
0.301389
0.457016
0.142155
0.453398
0.618811
0.0955757
-0.177604
0.0796864
-0.0464787
-0.375084
0.551702
0.248067
0.227425
0.341548
-0.053631
-0.298841
-0.184955
0.0408521
0.277705
-0.531746
-0.366212
0.275383
0.093139
-0.668579
-1.05073
-0.234865
-1.04238
-0.505094
0.160087
0.0786216
0.00995514
-0.657095
-0.500449
-1.3259
-1.36179
-0.0485711
-0.232819
-0.464588
-0.541174
-0.806898
-0.758919
-0.194435
-0.927832
-0.231564
-0.58128
-1.00397
-0.623011
0.250273
-0.183534
-1.00579
1.05278
0.0149875
0.35055
-0.0520699
0.0302311
-0.989252
-0.227539
-1.05777
-0.553061
0.0303641
-0.751913
0.888215
-0.814175
-0.0808648
0.48842
-0.22583
0.253329
-0.0107424
-0.310266
0.121952
-0.165407
0.299354
-0.627582
0.293001
-0.423562
-0.113047
-0.261233
-0.236337
-0.435368
0.107226
-0.432017
-0.0879089
-0.412686
0.0344423
0.0813354
0.37664
-0.228024
-0.196508
0.0364316
0.114516
0.299794
0.33826
-0.235205
-0.110893
-0.026432
-0.372228
0.315703
-0.243655
0.0918252
-0.227932
-0.254582
-0.00903188
-0.151554
0.110991
-0.136263
0.226866
0.27598
-0.30268
0.184651
-0.380516
-0.0241898
0.187493
-0.420536
-0.298589
-0.105
0.0430401
0.624431
-0.109734
0.17495
0.422333
0.452023
0.370468
0.306561
0.215497
0.394051
-0.0107955
0.313586
-0.210348
-0.245416
0.369477
-0.212177
-0.0991392
0.456518
0.284964
0.256513
0.0554091
0.477558
0.597673
-0.14684
0.305653
0.250909
0.367252
0.224535
0.428129
0.377129
0.0578388
0.113838
-0.0509344
0.152008
0.124595
0.33953
0.361166
0.355304
0.153841
0.16929
0.490434
-0.372227
0.674071
0.781856
-0.367523
0.0253718
0.122557
-0.58241
0.359023
0.361379
0.490974
0.152354
0.89089
0.16223
-0.811917
-0.26996
-0.234056
-0.0588734
0.652076
0.0188727
0.574721
0.129534
0.786493
-0.552838
0.125163
-0.100417
0.28309
0.254866
0.668037
0.497738
0.0322487
0.45187
0.477391
-0.231438
0.349844
0.16214
-0.428096
0.20579
-0.658624
0.487636
-0.687275
0.531624
0.386733
0.165932
0.277862
-0.466815
0.621296
-0.386978
-0.360489
-0.0952839
0.0680767
-0.195989
0.439366
0.00765146
0.203492
0.0187433
0.333162
0.232635
-0.382845
0.515832
0.118445
0.140432
0.408425
-0.492565
0.0970873
0.160089
0.316439
0.424326
0.683537
0.511952
-0.103101
0.180313
-0.170555
0.327114
-0.130177
0.144966
0.497431
0.426914
0.554252
0.275062
-0.264278
0.200419
0.379022
0.365925
0.136591
0.527612
-0.228117
-0.474315
0.764545
-0.136295
0.283599
-0.198679
-0.362194
-0.149447
-0.77407
0.444298
-0.443967
-0.067866
-0.14028
-0.394671
0.223412
-0.158361
-0.252901
0.371458
0.430863
-0.391675
-0.177663
-0.289171
-0.27243
0.248858
-0.459855
0.170165
0.617868
0.555305
0.0473302
0.384651
-0.00134818
-0.00288285
0.29507
0.052399
0.313235
0.0943041
-0.186465
0.0727693
0.0600904
0.0537065
-0.487629
-0.179133
0.107019
-0.0999052
0.117607
-0.116211
-0.622952
-0.132765
-0.565592
0.614035
0.108533
0.0855626
-0.0256335
-0.0839134
0.49052
-0.263988
-0.551917
0.230302
-0.462228
0.426255
0.255489
-0.184603
0.0125022
-0.436168
-0.521908
0.0891257
-0.0843665
0.0139655
0.251629
0.594983
-0.725779
0.109511
0.421327
-0.676363
0.0408323
0.130549
-0.333861
-0.691875
0.0699217
-0.463471
0.285921
-1.03873
-0.154409
0.123744
-0.736835
-0.310819
-0.0692788
-0.236745
0.351415
0.0510539
-0.223199
0.412745
-0.0253248
-0.0471665
0.149232
0.518833
0.200004
-0.479799
-0.467061
0.410663
0.0993427
0.345632
0.0427386
0.176874
0.492809
-0.0609856
-0.135146
0.0925846
0.156005
-0.225842
-0.472693
-0.0245288
0.367774
-0.336859
0.0704138
-0.330505
0.0188135
0.230889
-0.0920641
0.398829
-0.369529
0.404926
0.431991
-0.0830888
-0.459307
-0.300863
-0.565708
-0.223523
-0.751519
-0.0853762
0.499668
-0.368397
0.150956
-0.506747
-0.304637
0.699567
-0.195
-0.240103
0.211525
0.034431
0.673176
-0.715303
0.017246
-0.436656
0.0695634
-0.527445
-0.465859
-0.249361
-0.412787
0.377658
-0.101138
0.563163
-0.150165
-0.0887152
-0.433343
0.321028
0.0383269
0.27264
0.01313
-0.776123
0.297488
-0.291722
-0.36842
0.715929
0.340727
0.258677
0.399198
-0.372709
-0.615632
-0.886895
-0.403452
-0.650661
0.439838
-0.237632
0.0210126
-0.19216
-0.0230304
-0.515424
-0.419294
-0.643938
-0.201908
-0.457298
-0.157635
-0.687613
-0.946038
0.594646
-0.347722
0.32125
-0.522807
0.503826
-0.739087
0.039783
0.109405
-0.624345
-0.0516314
-0.4233
0.136328
0.302259
0.355612
-0.414129
0.153662
0.34037
-0.203213
-0.0284338
-0.00646173
0.380214
0.0764441
-0.364176
0.0376782
0.0372482
0.0658793
0.147315
0.0759958
-0.117169
0.233219
-0.146293
0.573408
0.296519
-0.266705
0.29433
0.378507
0.0565794
0.385823
0.275388
-0.0349937
-0.127629
0.406196
-0.272001
0.520184
0.154361
-0.194555
0.407007
-0.140205
-0.265131
0.151706
0.14717
0.0546466
-0.226203
-0.125182
-0.18916
0.396128
0.11689
0.427621
-0.536598
-0.151325
0.404253
0.5332
0.498762
0.446613
-0.385369
0.150928
-0.0695752
-0.643182
0.0370647
-0.26568
-0.00204576
-0.651234
0.223423
-0.0587818
-0.442954
0.621014
-0.510235
-0.303956
-0.335013
-0.298449
-0.270611
-0.124089
0.287463
-0.0198263
-0.656033
-0.113423
0.195722
-0.515072
0.228353
-0.16729
0.145955
0.0727663
0.493316
0.199294
0.120652
0.544345
0.615025
-0.501173
0.514821
-0.0948311
0.0309176
-0.542283
0.276516
-0.028549
-0.131758
0.220997
0.264447
0.380968
-0.196623
-0.133428
0.28001
0.1936
-0.179103
-0.383337
0.313009
0.0296122
0.545756
-0.109666
-0.281708
-0.340012
-0.0150679
0.28539
-0.442073
-0.196039
-0.0739814
-0.220857
0.64524
0.256249
-0.297846
0.347617
0.356165
0.570561
-0.141548
-0.0626299
0.160327
0.140039
0.440195
-0.233662
0.0520315
-0.316231
-0.381206
-0.457099
-0.163072
-0.043222
0.420256
0.0300125
0.635764
0.24403
-0.115261
0.0933107
-0.210163
-0.0715228
-0.144644
0.158252
-0.575596
0.386613
0.173715
-0.560872
0.0355246
0.897991
0.0148011
0.137163
0.140377
-0.23193
0.134633
-0.461005
-0.140914
-0.0498706
-0.433109
0.0574274
-0.422532
-0.625278
-0.491851
-0.254618
-0.473195
0.108162
-0.588711
0.31506
-0.415854
0.00106979
-0.626654
0.219801
0.28196
-0.337287
-0.708915
0.0607975
0.0560954
-0.188969
0.116275
0.504319
0.245158
0.193905
-0.0243974
-0.361648
0.336235
-0.567992
-0.383845
-0.118376
-0.450555
0.266755
0.0144813
-0.207307
-0.179747
-0.589801
-0.0561476
-0.0126297
-0.786497
-0.210961
0.0172162
-0.115673
0.151448
0.350865
0.297841
-0.0178337
0.0816994
-0.426159
0.142085
0.486033
0.303856
0.294499
0.355376
0.382895
0.197143
0.355416
0.516457
-0.0510356
0.0644742
0.00472199
0.232383
-0.410688
0.590584
-0.0990589
-0.4236
-0.406617
-0.459043
-0.749024
-0.622983
0.02161
0.431102
-0.0446506
0.544337
0.322227
0.422888
-0.0277255
0.118398
0.404107
-0.539311
0.0783721
-0.607884
-0.0378906
-0.568861
-0.548807
-0.494931
0.402771
-0.46853
-1.0643
-0.358349
-0.500501
-0.93408
0.195343
0.506453
-0.129597
0.0965394
-0.417031
-1.15465
-1.254
-0.472463
0.116215
-0.830224
0.209541
-0.763599
-0.434337
-1.07502
-0.352923
-0.482108
-0.860988
0.0388865
-1.07396
-0.772418
0.543916
-0.700913
-0.739747
0.811299
0.372831
0.290733
-0.793978
0.354694
-1.11338
-0.407509
-0.582246
-0.502344
0.572637
-0.140554
0.690601
0.130014
0.121927
0.581134
-0.795763
0.260814
0.113897
0.192487
-0.587058
0.104024
-0.102521
-0.120736
-0.24713
0.388427
0.499288
-0.40357
-0.59146
-0.126579
-0.598135
-0.394943
-0.0248277
0.337243
-0.0229899
-0.349673
-0.126726
-0.553967
-0.544802
-0.280738
0.738972
-0.301071
-0.17418
-0.624185
0.00828056
-0.193189
-0.32391
0.00104847
0.54764
-0.223775
-0.107366
0.0112866
0.437885
-0.388465
0.730634
0.320123
-0.162099
0.436376
-0.289337
-0.103843
0.573321
0.147418
0.0861583
-0.0067905
0.194413
-0.0838283
0.448341
-0.0268532
0.562646
0.423335
0.201679
0.287008
0.45599
-0.213563
0.450509
0.356154
0.417049
0.280534
0.419749
-0.26105
-0.233669
0.270541
-0.146633
0.0323743
-0.00107781
0.27505
0.409817
0.142979
0.0747627
0.296193
0.0777437
0.597507
0.107804
0.106648
0.390172
0.477043
0.212335
0.280649
0.476712
0.505352
0.0985354
-0.336909
-0.13906
0.529254
0.131445
-0.196113
-0.137935
0.509254
0.651909
0.484538
-0.0487888
0.307724
0.131136
0.112999
-0.336062
0.0796108
-0.1304
-0.223268
-0.356006
0.268824
-0.357166
-0.027644
-0.887345
0.406672
-0.3928
-0.263455
-0.193918
-0.128532
-0.334726
0.215294
0.170114
-0.530554
-0.17292
-0.437586
0.203172
-0.140479
-0.497205
0.18053
-0.683041
0.0140181
-0.262994
0.332358
0.423205
-0.415804
0.169095
-0.42586
0.197895
0.416302
-0.183099
-0.0637476
-0.272765
0.552924
-0.664751
0.293541
0.26714
0.486155
-0.43935
-0.557023
-0.213566
-0.200593
-0.434018
-0.616302
-0.720786
0.0563167
-0.4709
-0.90938
-0.0219989
0.531828
0.559801
0.320205
0.426284
-0.880596
0.0561187
-1.12963
-0.445232
-0.503495
1.82453
-0.738246
-0.862017
-0.405486
-0.506383
-1.5087
-0.86968
-0.427856
-0.348386
-0.288725
0.665532
-0.173242
-1.40735
1.1747
-0.238551
0.547454
-0.308225
0.0509348
-1.74785
-0.278886
-0.804561
-0.196683
0.341479
-0.27858
0.777899
0.467158
1.02322
-0.880961
0.213559
0.0367584
-0.00579668
0.486111
0.47992
-0.75393
-0.325119
-0.392785
-0.81465
-0.304604
0.362116
0.523767
0.191723
0.398865
-0.88882
-0.8179
-0.084361
-0.0336292
-0.78328
0.495422
0.139024
-0.525965
-0.590871
-0.00836467
-0.148563
-0.307651
0.35592
0.0678449
-0.0256162
0.0220761
0.00518593
-0.33559
0.11964
0.0735378
0.316456
-0.489739
0.534006
-0.0992717
-0.21776
-0.0442473
0.0119886
0.592686
-0.12488
-0.121662
-0.421709
-0.296703
0.0928701
-0.616221
-0.620661
-0.799613
0.0105558
0.152229
-0.541348
0.840784
0.601121
-0.551391
-0.139428
-0.732567
-0.140587
-0.701439
-0.780143
0.00543436
0.822425
-0.113055
0.16989
0.393927
-0.646146
0.811739
-0.0394163
-0.0584187
-0.200173
0.382075
0.0621377
0.268814
-0.333457
-0.433941
0.239406
-0.46891
-0.719965
-0.0474038
-0.469457
-0.610188
-0.0893418
-0.255168
-0.410194
-0.161237
-0.535112
0.166889
-0.774387
0.0387773
-0.635843
-0.424175
-0.48855
-0.00483739
0.370787
-0.127456
-0.359937
0.157112
-0.394201
0.277174
-0.229723
-0.482989
0.0205678
-0.115025
0.579517
-0.118839
0.208977
0.0211362
0.0662007
0.193378
-0.442773
0.459743
-0.174783
0.135661
0.228006
-0.0133233
-0.562644
0.175752
0.218579
0.224455
-0.116228
-0.0131485
-0.412228
-0.301685
0.484725
0.00337736
-0.0433543
0.939505
0.606598
-0.371371
0.69314
0.242184
0.514701
-0.0893714
0.0153717
-0.0279464
0.276207
0.590472
0.7638
0.0886881
0.054611
-0.20476
-0.212954
-0.151808
0.391956
0.154345
0.00734291
0.177155
0.0505332
0.454539
0.0427192
0.0489602
-0.147476
-0.304014
-0.036951
-0.151641
0.701717
0.0494179
0.276174
0.239401
0.191857
-0.35605
0.508144
0.239444
0.426916
-0.206657
0.341868
0.297082
0.173588
0.239986
-0.410951
-0.396289
-0.351367
-0.33684
-0.121901
-0.093508
-0.221015
-0.460682
0.557149
0.40637
0.454044
0.196963
-0.0354015
0.506917
-0.392057
0.277951
-0.421858
-0.436117
0.112152
-0.433616
-0.205544
0.284065
0.451008
-0.449213
0.485998
-0.095921
-0.190123
0.307524
-0.00911807
0.188507
-0.385734
-0.110221
0.29566
-0.312705
-0.112733
-0.0446842
0.139972
0.386804
0.394184
0.0404425
0.0692436
0.0657134
-0.217327
0.514257
0.146202
0.378352
0.130888
-0.257517
0.37566
0.0989845
-0.0147787
-0.42812
-0.2701
0.270819
0.136186
0.480674
-0.0569479
0.385506
-0.226689
0.424085
0.177799
-0.323905
-0.182065
0.149113
-0.811112
1.10281
-0.346838
-0.246679
0.345399
-0.190844
-0.131679
-0.114432
-0.179823
-0.861163
0.162108
0.641464
0.34809
0.338217
0.1925
-0.302433
-0.187009
-0.718935
-0.681026
-0.603318
-0.674242
0.269436
-0.336001
-0.491467
-0.546584
0.656534
-0.786227
0.322682
-0.503372
-0.201906
0.553216
0.443154
0.484526
0.650313
0.967843
0.328673
0.217561
-0.307007
0.143554
0.0929345
-0.521506
-0.058676
0.483034
0.0203504
0.800669
-0.458914
-0.0679621
0.116996
-0.512893
0.261027
0.293869
0.181371
0.0648994
-0.348368
-0.646063
-0.237064
0.16702
-0.179265
0.181822
0.0824411
-0.549497
0.292915
-0.199317
-0.725444
0.261213
-0.646466
-0.576371
0.261516
-0.0692487
-0.515745
-0.20198
-0.138906
0.275284
-0.184305
0.0631894
-0.0704077
0.275599
0.0489496
0.0523553
0.307277
0.0144514
0.296253
0.0656553
0.169591
0.153589
0.440407
-0.466711
0.530532
0.451899
-0.408621
0.159692
0.0434667
0.0532445
0.596342
0.254377
-0.640047
-0.617283
-0.646551
-0.240443
-0.188864
-0.480835
0.014806
-0.672385
-0.491007
0.0440416
-0.110047
0.121689
-0.484776
-0.0356985
0.38963
-0.00129258
0.287263
-0.602035
-0.452584
-0.264548
-0.622201
-0.125718
0.207083
-0.414908
-0.323033
0.222312
-0.10284
-0.208128
-0.0927179
-0.495235
-0.0188425
0.24516
-0.483892
0.156932
-0.187066
0.021844
-0.367168
0.109851
-0.15242
-0.623778
-0.380554
0.19963
0.276533
-0.43339
0.330682
-0.501926
0.325352
0.491001
0.651276
0.808154
0.434247
0.377785
0.279483
-0.842389
-0.64155
-0.163762
0.418726
0.465237
0.311702
0.543296
1.03895
0.374722
-0.680335
-0.236442
0.610538
-0.0234103
0.389149
-0.689867
-0.247272
-0.130744
-0.635397
0.333195
0.450597
-0.0337566
0.00421875
0.144408
-0.0706633
0.734603
0.344837
0.273039
0.629926
0.229198
-0.634895
0.299727
-0.0276926
0.366211
-0.102323
0.232861
0.479983
-0.235564
0.700916
0.818393
0.0427931
-0.2424
0.374409
0.493154
0.364299
-0.118816
-0.183717
0.53967
-0.0750146
0.0971305
0.290917
0.417442
-0.115287
0.527859
0.525991
0.636303
-0.311299
0.218301
0.559277
-0.00675726
0.41951
0.203751
0.582059
-0.111406
-0.220147
0.133323
0.243694
-0.00319229
-0.0167612
0.12973
0.0638524
0.396894
0.0909334
0.244561
0.565136
0.671795
0.051788
-0.219483
0.643975
0.548872
-0.00637772
0.202139
0.671494
-0.0459673
0.603453
0.446926
0.618071
0.283899
-0.225705
-0.10273
0.363028
0.104015
-0.252679
-0.16874
0.51466
0.519002
0.4599
-0.139107
-0.147389
-0.546061
0.0585685
-0.383101
0.0372137
-0.00283355
0.00155662
-0.153789
0.2998
0.321167
0.0218834
0.218408
0.352995
0.0752567
-0.53092
0.130723
0.0170481
-0.0863273
0.0390536
0.312011
-0.0276072
0.209858
-0.391804
0.130774
-0.43349
0.234418
0.0935515
-0.548912
0.27503
-0.23697
-0.0545749
-0.026105
-0.499407
0.0679384
-0.041062
-0.60841
-0.219312
0.0214706
-0.0675588
-0.983334
0.46033
-0.0200915
0.0377634
-0.200822
-0.267181
-0.491573
-0.998055
-0.343459
0.824677
0.100281
-0.341599
-0.423011
-1.49477
-0.53965
-1.09232
-0.0583255
-0.71997
-0.651704
-0.867983
-0.44169
-1.07386
-0.328273
-0.598457
-0.435235
-0.1838
-0.2273
-0.666982
0.556537
-0.418579
-1.34734
0.202795
-0.118946
-0.169124
-0.252645
0.0551516
-1.39821
-0.496676
-1.21352
-0.657844
0.0928326
-0.447906
0.957039
-0.688517
0.724765
-0.650714
0.688283
2.88382
2.29905
1.58922
1.10469
-1.86386
2.69147
1.43749
0.379457
0.808996
1.43999
1.71556
-0.493217
1.4247
2.77525
0.0576128
0.911992
-2.03668
-0.947327
-0.880771
1.36232
1.78081
1.20508
-0.0230058
0.888686
-0.684704
1.3886
-1.22614
2.48269
1.92455
0.854737
1.17249
4.10735
2.22486
-2.1676
0.912819
-0.859963
-0.321583
2.14527
0.717365
-0.766233
2.01176
1.2569
-0.472433
3.22254
