#input normalization
0.161394 0.274959
71.3605 75.758
8.84323 36.0524
7.44055 30.7722
0.010139 0.044878
0.00817355 0.0345944
0.416735 1.94248
0.843054 1.88249
1.19755 2.09885
1.57139 2.32446
1.95267 2.55457
2.311 2.76913
2.64513 2.96759
2.98761 3.14384
3.29901 3.2822
3.58221 3.37622
3.84853 3.43049
4.08943 3.45432
4.29169 3.44708
4.45205 3.39115
4.57598 3.30541
4.68982 3.19973
4.76666 3.07723
4.77901 2.92157
4.78322 2.74792
4.73699 2.55788
4.65928 2.35665
4.58596 2.14655
4.41891 1.90465
4.25364 1.65727
4.09734 1.42664
3.92433 1.20417
#output normalization
1 0
#neurons weights
0.412903
-0.330828
0.178963
-0.238739
0.244664
-0.392024
-0.187219
-0.249949
0.468297
-0.414925
0.433122
-0.440159
-0.477456
-0.30656
-0.0393536
-0.405655
-0.327035
-0.20995
0.139183
0.114376
0.402796
-0.377301
-0.432774
0.238841
-0.256425
0.211283
0.304887
0.0880163
0.449147
0.235091
-0.141609
0.0598625
-0.197937
-1.49463
-0.455338
3.00301
-0.497448
0.380203
2.7858
-0.280492
1.43087
0.052901
-0.281171
-1.8568
-0.44782
0.0686077
-0.705351
1.84116
-0.913644
-3.42594
-0.317356
1.98246
-0.471079
-0.205878
2.71452
-0.992293
0.581655
1.3594
-0.955423
2.65895
-0.647769
-0.362768
-4.02928
1.41435
4.02944
0.439106
0.291463
0.487832
0.398104
0.0680534
1.16697
-0.801605
-1.57709
0.199244
0.40413
0.545536
-0.406842
-0.071341
0.166937
-0.900991
0.764607
0.623236
0.0795724
-0.527284
-0.0120703
-0.127982
0.569729
0.0575099
0.540849
0.0692794
-0.0319169
-0.308256
0.461179
-0.173024
-0.0574126
-1.11741
0.346851
1.4368
#synapses weights
-0.138611
0.823896
-0.138689
0.468329
-0.120777
0.0170456
0.319892
-0.130748
0.155372
0.0171464
0.438853
-0.208894
-0.298803
-0.0656904
0.485403
-0.0709053
0.669315
0.217767
0.483166
0.173081
0.567115
-0.0279047
-0.0733507
-0.0968973
-0.382289
0.110106
0.466161
-0.499125
0.431074
0.0684295
0.255012
-0.220072
0.192184
1.34303
-0.0428202
0.0222509
-0.340084
0.37116
0.310968
-0.422523
0.0421196
0.596561
-0.802433
0.296041
-0.17902
0.518392
-0.0304624
0.0789425
-0.0995468
0.0241329
-0.294231
0.202912
-0.155973
0.455602
-0.0966959
-0.610932
-0.445809
-0.100907
-0.444451
0.19298
0.430784
-0.518118
0.430956
0.45861
0.540855
0.679075
0.0752769
-0.074683
-0.577678
0.0520375
-0.203351
-0.0564273
0.585551
0.0400505
-0.247686
-0.600059
0.147902
-0.460902
0.279479
0.0384255
-0.655484
0.444354
0.34214
0.383141
0.659033
0.501472
0.154793
0.209237
0.254373
0.136569
-0.196732
0.396627
-0.171763
-0.0845484
0.152438
0.143148
-0.23579
-0.440816
2.31348
-0.727614
-0.405995
-0.523996
-0.314967
-0.566485
0.135286
0.174727
-0.279996
-0.0462029
0.0833886
0.482487
-0.284777
-0.274422
0.030107
0.177311
-0.109533
-0.0318078
0.282118
0.456143
-0.114605
-0.0524437
-0.697531
-0.0209579
-0.0613592
0.225451
-0.0244712
-0.198912
0.281365
0.264214
-0.312749
0.0160203
-0.340521
-0.572225
-0.0959483
0.104399
-0.277586
-0.0684277
-0.168514
-0.346601
-0.21956
-0.317373
0.134842
0.180204
0.293372
-0.225272
0.305454
-0.108908
-0.0261257
-0.0215829
0.0236577
0.356609
-0.395523
-0.513086
-0.0237417
-0.188527
-0.440014
-0.321969
-0.260236
-0.861013
-0.864374
-0.60676
-0.18931
0.01009
-0.67949
0.196252
0.553381
0.435952
0.387626
0.457021
-0.132781
-0.244483
-0.289239
-0.134929
-0.144729
0.605022
0.575224
0.980754
0.694741
-0.122576
0.393699
-0.00151466
0.279263
0.204788
0.684175
0.406486
0.749826
0.138686
0.244059
-0.0561636
-0.204418
0.538789
-0.121967
-0.238606
-1.26525
-0.193361
-0.481855
-0.0484051
0.445161
-0.426255
0.160442
0.330794
0.314889
0.365412
-0.53703
-0.0437308
-0.585972
-0.514982
0.122102
-0.709278
0.241676
0.787031
0.673178
-0.163945
0.464314
-0.283078
-0.41888
-0.28063
0.335892
-0.355969
-0.0454549
0.0980789
-0.209418
0.723452
-0.849196
-0.189801
-0.360292
0.630836
-0.0917211
0.344899
-0.432009
0.483557
-0.26047
0.74028
-0.537605
-0.539523
-0.163991
0.322674
0.0812265
0.726134
-0.557041
-0.111221
0.502085
0.481556
-0.0902576
0.086915
-0.168216
-0.242899
-0.180666
-0.46676
0.479985
0.422593
0.380958
0.826092
-0.615602
-0.339526
0.0720696
-0.482897
-0.268331
-0.0131362
1.10695
0.332043
-0.431179
-0.478174
-0.225233
-0.231941
0.0678929
0.0613297
-0.261277
0.058203
-0.00193912
-0.0319234
-0.00635973
0.0635797
0.538713
0.5519
0.0758927
-0.044728
-0.760396
0.517355
-0.160323
0.0537687
0.134836
-0.205595
-0.29421
-0.0792986
-0.164172
-0.311279
-0.296751
-0.327348
-0.33239
1.11056
0.0166139
0.00924224
0.629017
0.338682
-0.207374
0.633316
-0.120345
0.613338
0.779217
0.345084
0.33257
0.283425
1.10196
1.05616
0.342013
1.13177
1.19403
0.758248
1.1381
0.81284
0.811257
0.623801
0.572906
0.929348
0.604209
0.501512
0.520815
1.37829
0.575958
1.35915
-0.682413
0.460188
-1.95786
0.667651
0.890228
0.24029
0.389521
0.483237
-0.129639
0.43415
-0.834762
-0.127145
-0.0938715
0.190369
-0.313463
-0.193784
0.156687
-0.0992436
-0.243189
-0.0205058
-0.463752
0.0246185
-0.181277
-0.0307795
-0.640185
-0.727934
0.353424
-0.112167
0.309709
0.737847
-0.480709
0.139388
1.07941
0.502848
0.587763
-0.624496
-0.173512
0.151829
-0.176107
-0.379956
0.00895663
0.325811
-0.00189878
-0.742233
0.431682
0.0968046
-0.255246
0.313709
0.503014
0.702762
-0.19677
-0.419221
-0.091796
-0.0609496
0.0503679
0.111869
0.707852
0.662501
-0.0632578
0.203423
-0.0342273
-0.313371
0.177448
0.396472
-0.4689
-0.407318
0.00776243
-0.136634
0.0879295
-0.145716
0.473713
-0.0653468
0.131105
-0.23617
-0.252985
-0.533319
-0.036837
-0.496943
-0.241801
-0.0948395
0.271644
-0.251973
0.100823
-0.050179
-0.555963
0.259913
-0.409925
-0.0197907
0.234986
-0.383599
-0.153031
0.523485
-0.385676
0.285499
-0.392733
-0.399825
0.00964251
0.842292
-0.0699512
-0.00489982
0.537138
0.0552942
-0.0853767
-0.334813
-0.339921
0.444696
-0.473153
-0.161828
-0.269056
-0.421312
-0.0547412
0.484609
0.375856
0.230234
0.973017
0.510367
0.139874
-0.214797
0.446055
-0.0593494
0.418073
0.0650147
-0.222767
0.255852
0.569998
0.160143
-0.333543
-0.163187
0.293002
0.94028
0.0556805
-0.0761494
-0.608994
0.121021
0.140511
-0.250131
-0.0410764
-0.799702
0.144044
1.11974
0.104096
0.131943
-0.0642547
0.19953
-0.159502
-0.163084
0.132193
-0.100306
0.528144
0.104073
0.474628
-0.243882
0.676851
0.271518
0.0554792
-0.175467
0.0221438
-0.595565
-0.290142
0.0489246
0.158319
-0.952269
0.977449
-0.525132
0.974533
-0.128354
-0.0103242
0.502934
-0.590209
0.441853
-0.800422
0.708091
0.939048
-0.488096
-0.432467
-0.348315
-0.183299
0.388235
0.457027
-0.128639
0.144221
-0.826405
-0.0242648
0.877049
0.0509351
-0.381034
-0.281348
0.388386
0.376665
0.140538
-0.169341
-0.339865
-0.196121
0.889904
-0.148821
0.160244
0.0421552
-0.0291063
-0.096141
-0.687476
1.20606
0.503258
0.150249
0.150219
0.452746
-0.605968
0.00281781
0.304204
0.0872936
0.202335
-0.295481
-0.645668
0.434953
0.273651
-0.567715
-0.149538
-0.0646503
0.15827
0.224341
-0.238657
-1.20968
0.310624
0.496494
-0.0412725
-0.414333
0.73276
-1.56115
0.289142
-0.67049
0.178886
0.107633
-0.286891
0.345485
-0.0572123
0.034671
0.9689
0.184072
-0.249897
-0.0776428
-0.881547
0.507165
0.274934
-0.555481
0.163728
0.400656
-0.555135
0.0130729
0.224037
-0.0937351
-0.190653
-0.102594
-0.199876
-0.229522
0.112996
-0.0901299
0.584019
0.468021
0.325094
0.22212
-0.282296
-0.0654768
0.671029
-0.57196
0.057417
0.402644
0.160512
0.586002
-0.0520019
0.823359
0.116515
0.586653
0.256115
-0.244335
0.599447
-0.0797445
0.42354
0.396464
0.304432
0.188171
0.131433
0.594943
0.87232
0.841197
0.409884
0.635422
0.175384
0.794699
0.830664
0.0822022
-0.663481
0.405395
-0.450814
-0.205466
-0.680123
0.478692
1.3608
-0.0950253
-0.264853
0.686138
0.0218033
0.0291352
-0.120214
0.270842
0.613809
-0.401554
-0.681576
-0.292643
-0.0316514
0.328301
-0.117408
0.233585
0.199371
0.746829
-0.40577
0.0188507
-0.72469
-0.574733
1.15265
-0.642635
0.247749
0.004076
1.19007
-0.410273
0.332547
-0.116442
-0.07237
0.0590827
1.68252
-0.740473
-0.0309435
0.44754
-0.385703
-0.239717
-0.16082
0.172456
-0.086152
-0.174226
0.0530456
0.106139
0.448466
-0.289324
0.0622553
-0.109832
0.459179
-0.958332
-0.564086
-0.659017
0.700641
0.542629
-0.337996
0.172576
-0.204605
0.444638
-0.0823264
0.0685603
0.280469
-0.633021
0.665314
-0.0290085
0.203378
0.883068
0.990108
0.25421
0.129123
0.461119
0.259639
0.324015
0.403005
-0.0613675
-0.781635
0.333115
0.0850042
-0.521034
-0.534083
-0.41319
0.0903411
-0.00926801
0.46212
0.283011
-0.45006
-0.185986
0.0573151
-0.167955
0.31085
-0.521478
-0.697379
1.42982
-1.85172
0.155013
-0.0136618
0.313847
-0.0753963
-0.190643
-0.344569
0.152902
-0.0170809
-0.0601221
0.0998644
0.512603
-0.483826
-0.022059
0.144778
0.404299
0.409772
-0.0405804
-0.7796
0.159477
-0.189223
-0.481272
0.272006
0.8165
-0.774488
-0.00544389
0.430045
-0.0506964
-0.477218
0.179719
0.421638
-0.159138
0.32933
-0.232095
-0.187738
0.310209
0.320899
-0.0683431
0.102895
-0.0497511
-0.28533
-0.647779
-0.286674
-0.234554
0.171933
-0.226379
-0.317868
-0.308977
0.330949
0.165308
-0.0246341
0.487355
0.446757
0.357881
-0.0723802
0.356142
0.550185
0.0962938
0.889625
0.151165
0.418984
-0.651215
1.29537
-0.701577
-0.241639
0.301085
0.739636
0.333535
0.507492
0.420684
0.681641
-0.154485
0.423632
0.637035
0.399479
0.201331
1.01312
0.735179
0.690493
0.32342
0.7728
0.271062
0.483529
0.903725
0.644072
0.610494
1.06342
0.810474
0.514471
0.904694
0.694167
1.31624
0.878739
-0.0238902
0.377085
1.42148
-0.352548
1.00111
-0.348765
1.01374
-1.21462
1.11665
0.401919
0.400666
-0.180095
-0.222652
0.0383938
0.125708
-0.0683661
0.735243
-0.0948001
-0.564123
-0.872442
-0.458075
0.581427
0.496297
0.937599
0.103213
-0.839462
-0.113687
-0.272524
-0.0109746
-0.421104
0.00873111
0.0729963
-0.395971
-0.658754
-0.0109273
-0.113197
-0.679765
-0.20609
-0.150516
0.10388
0.214604
0.274204
-0.326347
-0.0232082
-0.622638
-0.3157
-0.17076
-0.0585827
-0.473099
-0.767381
0.0345268
-0.0274183
0.154186
-0.902753
-0.290716
-0.449031
-0.212598
-0.0456092
-0.170094
0.508132
-0.424886
-0.0701703
-0.133891
0.159712
-0.149818
-0.796762
-1.33493
-0.460724
0.470883
-0.035133
-0.0990603
-0.0760262
0.315934
0.0292755
0.146091
-0.273309
0.0294386
0.338523
-0.185771
-0.124844
0.0389452
0.0358151
-0.256582
-0.115871
0.401143
-0.167624
0.620184
-0.37343
-0.331072
0.303365
-0.419445
-0.167192
0.172617
-0.293225
-0.322323
-1.21433
-0.346475
0.180325
-0.111956
0.137169
0.276781
-6.89713e-05
-0.0682252
-0.0380356
-0.294149
-0.521385
0.809319
0.0759313
0.357754
-0.458368
-0.208762
-0.182265
0.385029
0.606639
0.428659
0.00359591
0.486515
0.249087
0.563934
0.0613349
0.0197643
0.587751
0.537585
0.604468
0.284068
0.591775
0.553525
0.687977
-0.271422
0.19463
-0.539641
0.457275
-0.223094
0.0761089
-0.0827253
0.267722
0.370933
-0.489395
-0.373139
0.0924687
0.432634
0.683601
0.362937
0.283678
-0.341014
-0.0932185
-0.12717
-0.295379
0.233788
-0.186488
-0.0425943
-0.0136843
0.401185
0.123723
0.050948
0.952119
0.745743
0.480406
0.257511
-0.0633396
0.320316
0.487021
-1.33836
0.559193
0.184659
0.527993
-0.00457802
0.0956998
-0.212129
-0.0695691
-0.254112
-0.392342
0.165238
0.587839
0.387796
-0.323114
-0.309828
0.20662
1.00364
-0.276497
0.271575
-0.691703
0.931679
-0.280796
-0.0266587
0.70124
-0.236719
-0.198546
-0.444053
0.733686
-0.74097
-0.0965082
-0.514195
-1.14813
-0.40173
-0.199126
0.867577
-0.0760743
0.169151
0.300976
-0.143531
0.177615
-1.03351
-0.363184
-0.0771674
-0.20459
0.00734072
0.562911
-0.0601275
0.187963
-0.227086
-0.182241
-0.371569
0.43996
0.251105
-0.791777
-0.57801
0.310542
-0.296688
0.572017
0.117486
-0.0312393
0.171272
0.0688323
-2.74503
-0.880252
-1.30308
-0.0103084
1.0237
0.232779
0.0971243
-0.0933042
-0.0804197
-0.0112829
0.0292792
0.00657769
0.0670866
-0.0256974
-0.121371
0.433767
-0.21517
-0.110231
-0.155132
0.220965
-0.195173
0.285612
0.180722
0.0154084
-0.0905845
0.545647
-0.21891
-0.0704773
0.0150345
-0.299885
0.330194
-0.240855
-0.00363735
0.539945
0.478772
-0.449086
0.457535
-0.0980293
0.0436464
0.403762
0.279352
0.60639
0.140158
0.363837
0.23871
0.547583
0.224369
0.169505
0.335916
0.562832
0.0631167
-0.234348
0.546146
0.0945294
0.381274
0.292609
-0.0689645
-0.0375794
-0.358472
0.43949
-0.0174108
0.710475
-0.126497
0.0660594
0.22619
-0.226539
0.216166
0.438398
0.292884
0.0342448
0.43651
-0.293383
0.285028
0.042405
0.698609
0.265914
0.330975
0.286716
0.492855
0.432839
0.0958145
0.133714
1.07053
0.301163
-0.0908878
0.934771
0.159647
0.132148
0.381467
-0.35744
-0.643087
-0.0970956
0.266655
-0.326497
0.29321
0.178186
0.328082
0.204067
0.238877
0.314205
0.424336
0.0190073
-0.239303
0.318193
0.210636
-0.309
0.68135
-0.143626
0.283318
0.520056
-0.117949
0.311532
0.291451
0.486386
0.115606
0.401422
-0.16726
0.0938274
0.486398
0.531201
0.792473
0.492908
-0.126896
0.0701122
-0.178381
0.226283
-0.355187
0.375961
0.225171
0.0804285
0.569549
-0.27973
-0.727943
-0.188841
0.669726
-0.0258151
0.400363
0.795151
0.157607
0.0941256
-0.267278
0.0434768
-0.247288
0.371793
-0.766982
0.213015
0.463572
-0.616873
-0.679433
-0.0242523
-0.0278996
-0.166147
-0.101623
0.165103
-0.394253
0.226432
0.0583748
-0.307007
0.602052
-0.386236
-0.135051
-0.217718
-0.194609
0.132822
0.126345
1.12341
0.420904
-1.13945
1.12716
0.240893
-0.268216
-0.500472
0.474482
-0.328807
-0.119649
0.686406
-0.632018
0.229004
0.158637
-0.921766
0.1515
0.733647
-0.618895
-0.21503
0.482713
0.183619
0.129832
-0.384673
-0.260421
-0.376553
-0.184981
-0.228533
0.271142
-0.441526
0.577237
-0.437082
-1.0914
1.18845
0.104506
0.452225
0.0717038
0.362597
0.596532
0.119684
0.490246
0.83553
-0.24591
0.666633
0.691806
-0.314019
0.753092
0.111483
0.620934
0.818174
-0.160668
0.68698
0.610588
0.277542
0.241392
0.193589
0.114323
0.190415
0.410495
-0.201262
0.345222
0.822001
0.103722
0.413299
0.0893878
0.498469
-0.436399
0.823598
0.114348
-1.27422
-0.826065
0.0849224
-0.8131
-0.330464
-0.86799
-0.274789
1.03326
-0.165144
-0.984605
-0.364934
0.201036
-1.12856
0.714493
1.07321
-0.126402
-1.15922
0.164977
0.309471
-1.192
0.673787
-1.11939
-1.60116
-0.707074
-1.50552
0.327467
-0.21064
0.303153
-1.17009
-1.54882
0.138832
0.231327
-0.103449
-2.22976
-0.796201
-0.398368
-1.84926
0.205051
-1.81762
-0.658461
0.432594
0.0490205
-1.84702
0.342408
-0.68941
-1.13665
0.466481
1.10859
-0.441706
-2.27223
0.157285
0.308098
-1.97757
0.545222
-1.2556
-1.72854
-0.170266
-2.21881
0.514416
-0.788054
0.913688
-1.72334
-2.04243
0.167272
-0.215862
-0.194785
0.825528
0.473351
-0.112157
0.582255
0.835138
0.342582
0.0176755
-0.612934
-0.23026
0.307504
-0.465944
-0.0640164
0.217035
-0.0373557
-0.646706
0.652794
-0.216663
-0.260766
-0.104052
0.731653
-0.0681743
0.0749741
0.308073
0.641295
0.156909
0.404611
-0.0011509
0.18108
-0.158919
0.160753
-0.100077
0.118503
0.717062
-0.470236
0.655041
-0.02892
-0.981225
-0.386125
0.231786
0.131345
0.300832
0.775808
-0.380248
-0.0475217
0.496895
-0.27733
0.328956
0.515015
-0.00322758
-0.158612
0.896986
0.128339
-0.24563
-0.198137
-0.709673
-0.328348
-0.0783482
0.08715
-0.284812
-0.495208
0.757388
-0.967258
-1.59876
0.527042
0.131704
0.588452
-1.15667
0.085935
-0.126669
-0.987458
-1.08506
0.849326
0.124946
0.861906
0.866951
-0.408458
0.457421
0.220796
-0.376547
0.67217
0.483179
0.361966
-1.0333
0.19847
-0.804962
-0.440051
-0.293833
-0.495721
-0.458478
-0.119098
-0.823341
0.678203
-0.38652
0.461044
-0.761887
-1.51326
-0.0729403
0.534859
0.0830703
-0.60475
0.0487158
-0.338539
-0.670505
-0.2636
-0.959505
0.203031
1.09206
-0.0318539
-0.623748
-0.391535
0.24562
-0.554535
0.384599
1.09527
-0.491378
-0.352831
0.751253
-0.0298774
-0.543521
0.0875925
-0.120102
-0.638022
0.201636
-0.42259
0.47521
0.192672
1.05224
-0.568963
-0.148923
-0.0631475
0.0667963
0.139476
-0.563467
-0.080276
-0.0370461
-0.634281
0.508471
-0.666917
0.385664
1.44947
0.180357
-0.4459
0.382772
0.967597
-0.182478
0.699651
0.949561
0.336805
-0.129831
0.52184
-0.000221133
-0.624105
0.273982
-0.108166
0.303067
-0.0873174
-1.13313
0.701496
-0.144475
1.4185
-0.570713
-1.10872
-0.508904
-0.219866
-0.173362
0.858045
0.165375
-0.0219162
0.22482
0.0327961
0.0428866
0.5952
0.0920243
0.402947
0.0759964
0.133673
0.117309
0.593355
-0.192569
-0.565416
-0.0717613
0.741723
-0.534695
-0.0100622
0.90777
-0.505418
0.45206
0.295219
0.428154
0.313378
-0.338731
-0.143165
0.180924
0.481305
0.234392
0.11071
0.661844
0.663779
-1.74721
-0.0672053
-0.44761
-1.24917
0.236456
-0.966556
-0.112468
0.569253
0.30128
-0.440683
0.514047
0.481328
-0.842667
0.166522
0.975748
-0.700154
-1.83808
0.509594
0.305107
-1.97936
0.418078
-0.285959
-1.07976
-0.520959
-1.2633
-0.288582
0.104417
1.20903
-0.85153
-1.20526
0.345545
0.00226341
0.556808
0.466212
0.588859
0.357006
0.0270373
0.223161
0.186308
0.409997
0.21826
0.409185
0.434606
0.63978
0.701034
0.505077
0.544191
0.0177786
0.574215
-0.132441
0.10126
0.398187
-0.314117
0.59723
0.248638
0.478298
-0.0158124
0.417316
0.268501
0.39198
0.667879
-0.0410402
0.423062
0.550418
0.226948
-0.0545234
0.621728
-0.147716
0.239174
0.066632
0.113705
-0.183386
0.415119
0.236333
0.500746
-0.026481
0.492418
0.0853512
0.437529
-0.398875
-0.312761
-0.141652
0.533702
0.378382
-0.117358
0.300872
-0.239382
0.452076
-0.0186786
-0.289919
-0.178979
0.134163
-0.213854
0.196677
-0.358249
0.379167
0.0341342
-0.0481981
0.504299
-0.214569
0.370952
0.112752
-0.471353
0.282539
0.171967
0.843395
0.539934
-0.157805
-0.151816
0.293622
0.0481391
0.188276
0.539658
0.488958
0.508344
-0.294212
0.616908
0.361567
-0.456083
0.078521
-0.130082
-0.888825
-0.190572
0.0104611
0.0202158
-0.0319256
0.305425
-0.378722
0.152033
-0.436541
-0.131713
-0.149548
-0.478674
-0.00729255
-0.280466
-0.127855
-0.338068
-0.160024
-0.155282
0.229516
0.0129552
0.373737
-0.274496
-0.156641
-0.413122
-0.257167
0.0862906
-0.252185
0.0976918
-0.099213
-0.474345
-0.583365
-0.0410319
0.0121146
-0.469805
0.598912
0.260867
-0.692144
-0.572824
0.522126
0.270494
-0.252738
0.350088
0.871557
0.237919
0.28504
0.0405682
-0.207982
0.303146
0.72912
0.226232
0.422025
-0.141402
0.795202
-0.398881
0.0419
0.680468
0.107708
0.509878
-0.0202328
0.376126
0.256708
0.144281
0.328247
0.08433
0.228713
0.0267338
0.362369
-0.785137
-0.274264
0.28156
0.424075
0.385022
0.135352
0.340778
0.638611
0.279688
1.18201
-1.30703
-0.40787
-0.137507
-0.0522546
-1.43958
-0.965691
-0.444197
1.04154
0.296218
-1.18444
0.10999
0.0112057
-1.18054
0.485533
1.49855
-0.506612
-0.878769
0.406993
0.558578
-1.77866
0.615974
-0.791927
-1.24806
-0.482511
-1.23094
0.252261
0.157651
0.788119
-0.94685
-1.16703
-0.442389
-0.06628
0.0447582
0.654071
-0.130537
0.224412
0.462683
-0.121326
0.331572
0.0854714
-0.649554
-0.738663
0.677822
-0.513219
-0.14959
0.673288
-0.687156
-0.989246
-0.169783
0.292227
-0.700653
0.937703
0.0505767
-0.197846
-0.509001
0.235948
-0.13847
0.556277
-0.489614
0.254104
-1.17519
0.397882
1.13521
0.0946139
0.266093
-0.134612
0.999577
-0.0181574
0.332102
0.362765
-0.158459
0.603258
-0.232799
-0.65769
-0.424079
0.795458
0.290389
-0.574552
0.371132
-0.479296
-0.0772126
-0.288736
0.693003
-0.336595
0.453581
0.347384
-0.0224754
-0.0840513
0.945354
0.336468
0.265496
-0.705351
-0.0577069
0.043194
0.29886
0.892455
-0.0868376
0.595467
0.738844
0.305677
0.362635
0.200325
-0.123901
-0.117829
0.0139667
-0.312387
0.839103
0.312401
0.472796
0.379492
0.474309
0.185451
0.642446
0.318209
0.236789
0.176353
0.839325
-0.11369
0.48296
-0.273727
0.154491
0.415079
0.0966487
0.0319554
0.41997
0.0946676
0.257966
0.161576
0.061167
0.0652542
1.28882
0.498423
-0.125567
-0.103025
0.191377
-0.46665
0.365631
-0.228595
-0.29837
0.42278
0.505814
-0.467007
0.542113
0.308833
-0.549963
0.377841
-0.148129
0.13582
0.296319
0.415313
0.558505
0.372731
0.220728
0.571964
-0.123913
-0.392121
-0.619112
0.121593
0.394616
0.848881
-0.456626
-0.245025
0.164464
0.898627
0.70145
-0.0346477
-0.258017
0.592971
-0.134661
0.550097
0.0675395
0.0438853
0.339615
0.316391
-0.24426
0.514164
0.0209729
0.138603
0.579982
-0.286264
-0.28482
0.333052
0.352431
0.800193
0.664761
0.32987
0.0228682
0.100847
-0.708848
0.227318
0.394127
0.313043
0.563815
-0.182058
0.770927
-0.149268
0.254102
-0.276724
-0.699844
0.185694
-0.604594
-0.397282
-0.425277
0.0367471
-0.0371928
-0.378883
0.155151
-0.12328
-0.723772
-0.547274
0.0181783
0.218589
-0.325716
0.264053
-0.134603
-0.560886
-0.43382
-0.854456
-0.114794
-0.143396
-0.101232
-0.0110443
-0.64637
-0.430884
-0.203158
-0.338852
-0.165709
-0.0441905
0.337416
0.127029
-0.419732
0.905208
-0.517749
1.01831
1.00223
0.0520635
-0.597467
0.224671
-0.431481
-1.22524
-0.341379
-0.966262
-0.573234
-0.11926
-0.612392
-0.249507
-0.147346
0.94373
0.189892
0.706944
-0.0803636
0.174029
0.924542
-0.209492
0.708431
0.475583
-0.260922
0.511862
-0.603224
0.842242
1.55492
0.280444
0.254694
-0.486335
0.0564613
0.110297
0.190665
0.146197
-0.299915
-0.443521
0.487326
-0.17718
-0.371568
-0.308323
-0.133293
-0.197577
-0.357137
0.347696
-0.324636
-0.390306
0.487361
-0.0123375
0.440256
-0.168458
-0.0574033
-0.223099
-0.322897
-0.130724
0.0903436
-0.190664
-0.382778
0.219809
-0.0762843
0.208705
-0.248883
-0.274149
-0.197361
1.40181
0.438916
-0.117091
0.907948
0.00917887
0.206548
0.748935
-1.05875
-0.896574
0.571767
-1.10251
-0.191604
0.947911
0.0612256
-0.00678635
-0.102254
1.04392
-0.0025814
0.148369
1.61395
-1.00331
0.0692105
0.631317
0.50843
1.6696
-0.247424
-0.0636158
-0.431348
0.33679
1.69585
0.166941
-0.423998
0.137305
-2.36466
-0.514474
-0.137654
-2.02155
-0.424038
-1.95606
-1.0294
0.76226
0.252704
-1.17859
-0.414531
-0.730459
-1.59661
-0.253468
1.05713
-0.940806
-2.19695
0.587549
0.77373
-2.82512
0.618073
-0.913253
-1.67279
-0.643651
-2.52649
-0.0952405
-0.59793
0.739972
-1.49021
-2.99512
-0.556161
0.605783
0.0839603
-0.328693
-0.299949
-0.0955194
-0.164112
0.0463794
0.0145104
0.554824
0.866821
-0.276922
0.0679082
0.0436114
0.0705636
-1.00174
0.414279
0.466511
-0.238296
-0.39093
0.218724
-0.352009
-0.86762
-0.0581416
0.209172
-0.896009
-0.317157
0.0116759
0.1225
0.294181
0.220291
-0.219759
-1.1325
1.05984
0.704839
1.86429
-1.28915
2.26873
3.15213
2.61241
4.75661
-1.10096
1.80015
3.6489
1.0704
3.44384
-0.856382
2.21345
1.12844
0.784419
-0.613209
-1.0066
1.62419
4.61174
-2.42482
-1.53121
1.56322
2.19491
2.2258
-1.46441
-2.85596
0.405678
-3.27764
4.71624
1.2294
