#input normalization
0.159995 0.26635
15.382 22.4142
12.3501 35.2282
9.68446 30.4224
0.0125671 0.0368985
0.0104834 0.0303934
0.332991 1.07261
0.705542 0.817226
0.860487 0.992234
1.01822 1.18567
1.23142 1.32594
1.44008 1.45181
1.65756 1.55445
1.85823 1.62609
2.05841 1.70813
2.23681 1.75132
2.40835 1.78251
2.56963 1.79287
2.71457 1.77795
2.86508 1.69134
#output normalization
1 0
#neurons weights
-0.461031
0.417445
-0.0882305
-0.0335055
0.198876
0.228589
0.342326
0.0115104
0.269306
-0.270714
-0.0704249
-0.198615
-0.390946
-0.335254
-0.248332
-0.269452
-0.333766
0.305781
0.330249
0.235905
-0.983071
-0.774562
0.706351
-0.889669
-1.7631
0.885907
-1.40313
-2.64478
3.18462
-0.229472
-0.683493
-1.27318
-1.10564
-1.29235
-0.837322
2.31765
-1.19101
-0.655222
-2.21098
3.1728
4.81141
-0.846782
-0.338458
-0.804506
-2.32373
0.424059
0.340992
-0.017948
0.534009
-0.444542
-0.599152
0.0554659
0.384791
-0.711607
0.0931691
-0.783282
-0.0827987
-0.81441
-0.758428
-0.130888
0.0119649
1.56027
#synapses weights
0.352149
0.973582
0.641499
-0.0181479
-2.0383
0.985152
-0.146013
-0.641631
0.414357
0.600539
0.185155
-0.290852
0.0575995
0.695604
0.177114
-0.66535
-0.33748
-1.07535
0.318444
0.527601
-0.687747
1.23714
-0.777984
0.478953
-0.31746
0.0642205
-0.0647216
0.352352
-0.0293452
-0.275225
-0.412052
0.648239
-0.0769912
0.463305
1.43624
0.544065
0.463244
0.338202
1.34009
2.6936
-0.437462
2.12129
-0.232397
0.835219
-0.561557
1.23369
0.0907912
0.18418
0.391838
0.860302
0.19279
1.13543
1.05322
1.54964
1.83152
1.45875
1.58579
1.36905
1.64643
2.35841
0.511881
0.992023
-1.22605
0.897471
0.962548
0.117665
0.0155559
-0.249138
0.138364
-0.0819965
-0.942113
0.00578212
0.548824
0.00880743
-0.963959
0.316097
-0.0232658
-0.316274
-0.81618
0.35504
-0.684634
-0.120303
-1.00248
0.546453
-0.684281
-0.530186
-0.0926496
-0.537103
-0.361746
-0.555047
-0.706335
-0.839661
0.363532
-0.704277
-0.669111
-1.44875
-0.32913
0.670308
-0.164982
0.559983
0.0569657
0.821146
0.266316
0.221904
0.621614
0.0674436
-0.113037
-0.346677
0.0402205
-0.23057
-0.104963
0.176986
1.43758
0.139239
0.719782
1.00665
0.409206
0.885417
0.543865
-0.296253
-0.611931
1.55404
-0.0365306
-0.613526
0.0886739
-0.232478
0.729463
-0.27681
0.045949
-0.252903
-0.32048
0.867469
0.707319
0.233515
1.34373
1.63728
1.60188
0.930402
1.78027
1.2722
0.129593
1.92751
-0.922562
0.208929
-0.440182
0.552097
-0.127418
0.193165
0.430213
-0.868971
0.276799
0.0140771
-0.377835
-0.406799
0.0945842
-0.600161
-0.331484
0.0619158
0.349642
-0.333161
-0.0224388
-0.777281
1.79449
-0.940757
-0.347247
-0.0889532
-0.275872
0.326586
0.865174
-0.297244
-0.339125
0.0352053
-0.306352
0.814343
-0.44495
-0.409892
-0.0922651
-0.76476
0.142443
0.57624
-1.19113
-0.467684
1.40516
-0.664299
1.16037
-0.730878
-0.19325
0.113373
-0.134197
-0.147605
-0.121652
0.0771743
0.307939
0.00174197
-0.288669
0.164772
-0.184936
0.104866
-0.25882
-0.954553
0.0972213
1.98275
-0.262911
0.492692
1.23047
1.12244
0.291721
0.551499
0.494981
0.81628
1.10016
1.31415
0.901207
0.932993
1.72901
1.95314
1.18713
1.53024
1.74783
0.899253
0.0836208
2.0561
-0.912431
0.346171
-0.00198224
0.942299
0.372286
-0.116293
0.275532
0.394811
1.07016
0.714585
1.68034
1.29243
1.54322
1.67402
2.19149
2.04796
1.90147
1.89671
0.891755
0.844441
-0.168083
0.00977056
0.173298
0.0836945
1.55826
-0.196865
-0.34819
-0.166869
0.212904
-0.647101
0.0636669
0.263425
0.119086
0.229418
0.240061
-0.886961
0.740614
1.61434
0.595721
1.51205
0.206066
-0.0634108
-1.01976
0.316078
-0.617898
0.436127
-0.803048
-0.177977
0.509474
0.329721
0.610361
-0.469748
-0.127677
0.647185
0.206041
1.14052
-1.11414
0.236566
0.970444
1.31076
0.116232
0.194068
-0.361686
-0.695291
-0.408463
-0.421168
0.282938
0.0478592
0.0809048
0.729938
-0.224755
0.439359
0.47857
0.921741
-0.0770236
1.67672
1.59659
0.774679
-0.414437
-0.53227
1.55016
-1.84052
1.80681
0.489919
0.393655
-0.257628
-0.175587
-0.589916
0.285884
0.0332873
-0.00771158
0.845181
-0.945093
-0.233844
0.28435
-0.103913
0.332743
-0.73697
-0.181195
1.1807
-0.269954
0.166091
0.659832
-0.523296
0.168484
-0.354484
0.565393
-0.568783
1.53371
0.213228
-0.777058
-0.208323
-0.292933
0.560487
0.152924
-0.418918
0.669037
0.105268
0.136926
-0.763826
-0.584752
0.903806
-0.55411
-0.0324405
0.122722
0.304718
-0.954945
-0.0541356
0.782661
-0.0916543
-0.662354
0.935389
-0.171773
-0.403832
-0.167643
-0.73868
-0.587528
-0.775894
0.133854
0.182947
-0.436279
0.265095
0.0738964
0.537675
0.121767
0.840782
-1.16689
0.899598
-0.448395
0.889682
-1.72778
0.674585
-0.0315543
-0.806847
0.0692093
-0.340539
0.592288
0.190501
-1.63664
-0.750769
1.43469
-0.820494
-0.53744
-0.684209
-0.297707
0.0502075
-0.0283207
0.582392
-0.24501
0.539486
0.40522
-1.12301
0.397694
0.680038
0.0930148
-0.122083
-0.517303
-0.136731
0.0375907
-1.14265
1.89146
-0.338582
1.49277
-0.606311
-0.0401535
-0.146091
0.562553
-0.0876617
0.147164
0.204385
-0.106029
-0.0317759
0.6133
-0.129365
-0.153721
0.0457575
-0.247865
0.699895
0.67865
0.815308
-0.463675
0.372293
0.0940106
0.233287
0.764045
0.620605
-0.554758
-0.841775
-0.307455
-0.341675
0.6288
-0.0812685
0.630453
-1.07345
-0.478348
0.12192
0.439415
-0.873922
-1.1619
-0.136333
0.143609
0.955597
1.25855
0.573756
-0.0532163
0.269605
1.27818
-0.959029
-0.233083
1.0182
-0.382925
-0.042831
-0.0899978
-0.363512
-0.609041
0.142073
-0.457231
0.399887
0.167094
-2.17403
-0.406
-0.582297
-0.0414242
0.511509
0.353948
-0.72276
0.218664
-0.774409
0.164741
-0.696378
-0.696856
-0.0769363
-0.193079
-0.511426
-0.461638
-0.185828
-0.262832
0.149869
-0.073965
-0.400253
-0.026477
0.851237
0.627447
-0.303251
1.10257
-0.79019
0.107347
0.629446
1.84255
-3.98372
-0.53395
-0.609471
0.163861
0.444527
0.189316
0.58766
-2.93526
-0.269182
-0.787762
0.903057
-4.43493
-4.34999
0.0283969
1.23124
-0.1396
-0.439326
-1.28313
0.399681
0.499358
0.562538
0.831807
1.53146
0.645438
0.437669
0.154887
0.464956
1.32068
-0.0444555
0.562081
-1.30642
-0.130443
0.919478
0.0378925
0.33141
0.732614
0.149595
0.213221
0.64494
0.0652657
0.501974
0.450174
0.0981911
-0.182039
-0.144037
0.461397
0.530714
0.302999
0.317449
0.0377141
-0.033582
0.25384
0.805181
-0.313673
-0.912333
0.432342
0.180195
0.0592398
0.865435
-0.214049
0.52388
-0.479764
1.12602
-0.571647
-0.146792
0.0347429
0.279441
0.794012
0.71816
0.415184
-0.0957958
0.0596317
0.673189
0.221167
0.23182
-0.833505
-0.0626466
0.609733
-0.302264
-0.288367
0.0736375
0.547119
0.398215
0.66866
-0.0647051
-0.273799
0.108941
0.487603
0.0601278
0.501905
0.343393
0.0043301
0.559498
0.171927
0.0142461
-0.136075
0.00793311
-0.69101
0.372765
-0.421746
-0.101018
-0.16631
-0.466804
0.449413
-0.659622
0.252468
0.438288
-0.50403
0.0083277
-0.34792
-0.371475
0.231784
0.27041
0.00699117
-0.340853
-0.808816
-0.449728
0.0423078
0.536388
-0.107814
-0.449209
0.189445
-0.0486054
0.396583
0.697931
0.575365
-1.60228
-0.700769
-0.0882817
-0.147912
0.443361
0.677589
0.645696
-1.47236
0.190492
-0.411397
0.222324
-2.06788
-1.89773
-0.710107
-0.432453
1.04486
-0.436232
-0.891389
-0.309153
0.987335
-1.35129
0.326925
1.1989
-0.11244
0.197359
-0.182725
-0.759338
-0.489194
-0.779906
-0.466477
0.368488
-0.6503
0.484021
1.0771
0.0939548
0.882132
0.249671
0.0566939
0.555948
-0.0202519
1.22193
0.168487
-0.100634
-0.272194
-0.207052
-0.230813
0.724169
0.541017
0.465255
-0.39396
0.208049
0.388891
0.229832
-0.845233
-0.658173
0.641206
-0.168018
0.292402
1.65149
-0.0393758
-0.416012
0.695483
0.887367
-1.32343
-0.651043
0.495309
0.842405
0.719073
0.0832108
0.240922
-2.39909
0.963674
-1.39075
0.769518
-2.03172
-2.23543
0.722684
0.878523
0.269054
0.63096
0.189751
0.949525
0.822302
1.07316
-0.0310249
0.304532
-0.200886
0.241568
0.131939
0.710929
0.220745
0.207443
0.539987
0.543787
0.808586
-0.000455299
-0.768765
0.935628
0.718404
0.115707
-0.100841
1.13744
0.111341
0.838187
0.262712
-1.01466
-0.454759
-0.306937
0.123721
-0.210049
0.758719
0.33624
-0.0135001
0.139711
-0.199129
-0.0405746
-0.34806
-1.55385
1.1318
0.25158
-0.427516
0.795962
0.914985
-0.564798
-0.478156
0.451178
-0.340634
0.0399968
0.981447
-0.00368179
0.480624
-0.317037
-0.34839
-1.51386
0.334351
-1.03778
-0.17857
-0.72852
-1.54523
-0.0113456
0.801171
0.252391
1.00671
0.483445
0.0701524
1.13591
-0.376074
-0.422333
-0.395218
-0.461778
-0.363126
0.757291
0.0474845
-0.310446
-0.627829
0.0467933
-0.663911
0.982226
-0.685373
-0.845122
0.446227
-0.338951
-0.54131
0.413698
0.764073
-0.352422
0.701495
0.332465
-1.47532
-0.944907
-1.26172
-0.0994083
0.611254
-0.141786
-0.469299
-1.15368
-0.699933
0.305686
0.0450877
-1.6554
-2.13684
-0.0229157
0.724205
0.161222
-0.214657
0.246082
0.636012
0.686925
-0.0969837
-0.262472
-0.195385
-0.4085
0.125251
0.852342
0.186654
0.0107963
0.0524659
-0.2237
1.15621
0.503772
-0.980817
-1.01199
-0.653496
-0.39534
1.14172
-0.578899
-0.120396
0.447436
0.529482
-0.702622
0.272092
0.124805
0.412026
0.441834
-0.420716
-0.457972
-0.574231
0.376643
-0.677561
0.532782
-0.505194
0.0957613
0.926852
1.27228
3.16501
-2.34964
6.62535
2.9986
0.116354
2.43113
1.34698
-1.30837
2.32474
-3.12787
-0.191284
4.83493
0.619475
1.16757
3.39122
1.85178
0.0697386
0.0210731
-1.67588
