#input normalization
0.15998 0.266331
28.1374 33.8593
11.6697 38.2103
9.1435 31.75
0.012369 0.0404889
0.010123 0.031936
0.332991 1.07261
0.705542 0.817226
0.860487 0.992234
1.01822 1.18567
1.23142 1.32594
1.44008 1.45181
1.65756 1.55445
1.85823 1.62609
2.05841 1.70813
2.23681 1.75132
2.40835 1.78251
2.56963 1.79287
2.70841 1.78528
2.82722 1.73997
2.91371 1.68912
2.98591 1.61425
3.02892 1.52657
3.08009 1.44088
3.11848 1.33966
3.12794 1.19758
#output normalization
1 0
#neurons weights
0.402199
0.0066135
0.229113
-0.156978
0.0637519
-0.211065
-0.441935
0.445765
0.154927
0.343294
0.401843
-0.383369
0.452794
-0.44198
0.0925747
0.145799
-0.393399
0.0559483
0.482805
0.240268
0.030987
0.266275
-0.0726853
-0.0707617
0.454479
0.453324
0.150424
0.14196
0.175611
-4.07528
1.76006
-1.73205
0.724136
-1.32825
-1.30302
2.23087
2.17104
-2.65037
-0.540559
0.84409
1.91348
0.528511
-1.20441
1.62555
0.305677
-3.27693
-0.358391
0.914286
1.67213
2.98347
1.09422
0.502031
0.686044
0.279745
0.13377
-0.13378
-0.358186
0.642384
-0.222249
-0.0595241
-1.4442
0.589922
-0.475718
0.148054
0.0049033
-0.210258
-0.144579
0.461327
0.0926963
-0.588476
0.0945793
0.0506445
0.21935
0.00296109
0.374525
-0.446006
-0.457502
0.128535
-0.295882
-0.161315
#synapses weights
0.726523
0.462398
-0.642703
0.122348
0.50923
0.504587
1.0225
0.724447
1.02807
-0.545574
0.262531
0.380125
0.146537
0.431036
0.132243
0.611918
0.706276
0.46103
0.311221
1.18142
0.00943711
-0.162648
0.561861
0.307557
0.149534
-0.626046
0.00619781
-0.265147
-0.12038
0.655426
-0.271988
-0.65058
-0.00868102
-0.129596
-0.736808
-0.481187
-0.32134
-0.618637
0.0429393
0.00615074
-0.131854
-0.649053
-0.758581
-0.609069
-0.463236
-0.492043
-0.685152
-0.675614
-0.71578
-1.1521
-1.11911
-0.781889
0.00542616
1.19987
0.322284
0.0371162
-0.0622474
0.116958
-0.17174
-0.811027
0.05585
0.108183
0.159143
0.850666
0.731246
0.123557
0.694882
1.1148
0.987582
0.464003
0.760256
1.3343
0.652369
0.928663
0.895155
0.917002
0.92268
1.2674
1.75445
1.28656
0.868167
-0.392549
-0.49408
0.169476
-0.00976702
-0.0256994
0.0280377
0.113358
0.0698695
0.27898
-0.25108
0.0746747
0.215568
0.206375
-0.296062
0.269937
-0.304475
-0.16243
-0.199417
-0.127548
-0.33211
-0.128638
0.0222461
-0.167056
-0.165763
-1.00829
1.66364
0.575858
0.0643907
0.100468
0.38875
-0.0821666
0.340049
-0.388846
0.0581311
-0.33273
0.295179
-0.0617767
-0.498363
0.0404546
-0.241624
-0.687856
0.440028
-0.50082
-0.112131
-0.393914
-0.205747
-0.577238
1.30918
-0.192458
0.939334
1.69446
0.502759
0.0849035
-1.30655
0.600982
0.147613
0.098403
-0.479212
-0.514349
-0.379246
1.00398
0.0993068
0.833013
0.374044
1.0318
-0.7635
-0.417859
-0.0155536
0.754662
0.285509
-0.545983
-0.0541907
-0.155532
0.18916
0.834793
-0.168905
1.02742
-0.505936
0.0698107
0.167931
0.320302
0.73784
-0.547602
0.0499089
-0.0724746
-0.0689129
0.552328
0.517246
1.05124
0.374534
0.6783
0.763119
0.547468
1.19517
1.51646
1.02296
1.10584
0.664701
0.720257
0.500126
0.592127
1.61398
0.0416746
-0.88604
0.485142
-0.531904
0.0857828
-0.279934
-0.382069
-0.394141
0.613274
0.397694
-0.435945
0.816006
-1.27037
-0.520878
-0.650998
0.161825
-0.563829
0.440228
-0.251951
0.216649
-1.03008
0.249751
1.19224
0.691073
0.0327155
1.24012
0.979522
-0.45884
0.01008
0.287151
-0.063976
0.162479
-0.00386162
-0.612674
0.043652
0.830962
-0.314433
0.0653434
-0.612452
0.0959174
0.331568
-0.194711
-0.0243983
0.49983
0.595654
-0.0296899
-0.418002
0.832363
0.0413683
0.0144706
1.34744
-0.113927
-1.08816
0.343838
-0.377398
1.7039
-0.218121
-0.108341
-0.339787
0.458619
1.61147
0.0384211
1.24015
-0.714441
-0.105957
0.17155
0.761409
0.565878
0.208595
0.529053
-0.0887417
-0.84028
-1.2586
0.316962
-1.13008
-0.963825
-0.463513
0.1351
-2.2207
1.60221
-0.294849
-0.621284
-0.243157
0.403565
0.116295
0.173913
0.742157
-0.715524
0.254455
-0.461017
0.659396
-0.419599
0.920041
-0.0444834
-0.168645
0.171926
0.335657
1.03679
0.523314
0.398065
0.364047
0.0778125
-0.824239
0.559483
1.91788
-1.34574
0.565747
-0.525016
0.0887367
-0.222935
-0.0318849
0.665494
-0.163989
0.314403
0.411904
-0.669293
0.527812
-0.0250752
-0.107897
-0.504367
-1.65985
0.173695
0.474281
0.0943338
-1.23832
1.02818
-0.842419
0.997801
0.426915
0.328802
1.02549
-0.740136
0.173075
0.430968
-0.186907
0.0896715
-0.0627178
0.391401
0.394465
0.752352
-0.464781
0.727367
0.313737
0.0910699
0.643295
0.750785
1.05582
1.20653
0.853567
0.814157
0.48724
0.503969
0.261907
0.82265
0.629929
-0.0356018
1.11472
-0.0363618
-0.517749
0.0268483
-0.0333377
-0.458467
-0.781964
-0.269294
0.462248
1.35362
1.6015
0.66047
0.163493
0.650824
0.807766
0.687671
0.523396
-0.267442
-0.0949951
-0.144846
0.358792
-0.332001
-0.501893
0.0806454
-0.152055
-0.6865
-0.873002
0.690581
-1.58552
-0.039656
-0.715388
0.0627101
0.0394232
-0.00147131
-0.420532
0.202902
0.341695
-0.473806
0.3001
0.0752597
-0.00344593
-0.208519
-0.0512677
0.524998
-0.307559
-0.0547742
-0.24601
0.391658
0.244664
-0.535344
-0.0435027
-0.762358
-1.1143
-0.143547
-0.18874
-0.0599215
0.43174
0.138545
0.159148
0.0901886
0.197931
0.655073
-0.0133485
0.370504
0.212483
-0.27322
0.193952
-0.313639
-0.219975
-0.80027
-0.729234
-0.781054
-0.772698
-1.03757
-1.20362
-1.19303
-1.1701
0.0440377
1.2028
0.0287185
-0.0344224
-0.0838632
0.234229
0.972183
0.177072
0.0328177
0.0601247
0.728255
-0.682789
-0.165395
0.275284
-0.108068
-0.515254
0.0875943
-0.528207
0.542984
-0.221071
-0.324135
0.646853
0.547035
0.500704
1.23329
1.56477
-0.436287
-1.56777
0.345123
-0.130391
0.413575
0.0244099
-1.58394
0.928223
-0.854795
0.00537419
0.692653
0.216759
0.859911
-0.882422
0.317794
0.136673
-0.245789
-0.0550828
0.0445965
0.443528
-0.610644
-0.309481
-0.374668
0.603162
0.942988
-0.148449
0.172854
1.06192
0.181715
0.39936
-0.0900206
0.555628
0.246619
-0.235746
0.1987
0.144619
0.563896
-0.47906
-0.273024
0.211894
1.12782
0.574532
0.481474
1.16767
0.778267
0.59244
0.411233
1.10243
0.588924
0.484974
1.21242
0.250473
-0.16435
1.73148
-0.69737
0.303611
-1.56166
0.793194
-0.000659348
0.262237
0.254864
-0.0248219
0.0232656
-0.169736
0.129389
0.173283
-0.918481
0.0877342
-0.0442716
-0.0150414
-0.338578
-0.025296
0.00298536
-0.331357
-0.515242
0.498759
-0.0965767
-0.523481
0.0900356
0.344112
0.0398699
0.00713353
0.418538
-0.313276
-0.28797
-0.166728
0.130139
-0.715073
-0.502004
-0.00577717
0.188374
-0.769162
0.398513
-0.382415
0.611915
0.212508
0.181511
0.728829
0.541561
0.688318
0.436702
0.805689
0.486398
0.704838
-1.01403
0.691317
1.61182
0.0415531
0.976804
0.233872
0.0370235
0.143633
0.0210528
-0.424422
-0.0859809
0.315782
-0.21111
0.0829679
-0.922126
0.492593
0.273104
-0.200417
0.770885
-0.166633
0.239557
-0.395453
0.261274
0.0937651
-0.330738
0.181449
-1.4078
-0.738769
0.906815
-0.530611
0.212237
0.697194
-0.568779
-0.20704
-0.375937
1.33742
0.00157215
0.453425
0.500852
-0.447452
0.0440024
-0.191686
-0.107482
0.139781
-1.05599
0.505589
0.528774
0.229662
-0.670523
-0.177046
-0.235148
-0.397077
0.084069
-1.26766
3.00697
-1.09395
0.0034627
-0.249813
-0.0992596
-0.370542
0.865186
-0.646291
0.518893
-0.545423
0.520711
-0.0324549
-0.210837
-0.363612
0.393406
-0.244521
-0.263733
0.409379
0.172217
-0.273414
0.305387
0.177424
0.537993
0.158687
0.076934
0.315559
0.459156
0.39805
0.172258
-0.325305
-0.109482
0.120357
0.1588
-0.0192111
0.12388
-0.407893
0.318151
-0.11178
0.53718
0.678378
0.664951
1.13763
0.865002
0.366572
0.17946
0.790731
0.858471
0.892519
0.53987
0.31746
-0.605504
-0.889586
0.565117
-0.362172
-0.0673022
-0.447894
-0.0330817
-1.15748
0.353088
-0.960216
0.289861
0.294177
0.475611
-0.220208
-0.58512
0.178006
-0.497053
0.199219
0.23396
-0.401309
0.0429649
0.057192
0.233944
0.302776
0.266458
-0.511545
-0.850637
-1.2261
-0.119794
-0.255416
0.569403
-0.763224
-0.0180386
0.0573842
-0.615487
-0.105779
0.461097
-0.288686
-0.501025
-0.202744
0.660015
-0.110366
-0.323482
-0.327223
-0.296614
0.933089
-0.162702
-0.62107
0.0359884
-0.321739
-0.295169
-0.515985
0.859856
0.607543
0.884623
-0.63027
1.43155
1.51049
0.982434
0.499765
0.19294
-0.707476
0.25261
-0.217635
0.230527
0.923319
0.274281
-0.235502
0.149038
-1.12185
0.895009
0.520218
0.53019
0.518122
0.677839
0.186607
0.75469
-1.3715
-0.388236
0.410078
0.381012
0.0840441
0.373388
-0.0296564
1.36678
0.155537
-0.820311
1.14751
-0.140378
-0.845892
1.1845
0.689363
0.476497
0.358919
-0.164985
-0.245117
-0.0505192
0.0929975
0.508753
0.360583
-0.399416
0.0675565
-0.207062
0.141265
-0.713762
-0.372643
-0.530602
0.173155
-0.312249
0.847061
-0.906709
0.398725
-0.509991
0.476624
0.680422
-0.427933
-0.638158
1.07677
0.514195
-0.824626
-0.842179
-0.324229
0.386452
-0.367642
-0.510361
0.838673
0.0187117
0.182437
-0.273452
-0.31818
0.0336257
-0.268888
0.100071
-0.0665042
0.390561
-0.449684
0.564164
-0.28521
0.506692
-0.331125
1.14415
-0.126568
0.695816
-0.648883
0.605086
0.732404
0.0758272
-0.547813
-0.161446
0.649428
-0.482216
-0.253962
1.16302
0.13832
0.177614
0.25507
0.183693
-0.26652
-0.385923
-0.856113
0.0805846
0.46505
-0.182178
0.0599647
-0.0336329
0.565543
-0.0974222
-0.184473
0.175372
0.343694
-0.557913
-0.0212639
-0.226664
0.765634
0.42978
0.542491
0.259652
0.395012
-0.119012
0.4371
0.0457349
-0.133412
0.187633
-0.234753
0.384119
0.361983
0.242359
-0.504714
-0.755741
-0.493537
1.03071
-0.627298
0.531934
-0.66027
0.95344
1.1105
-0.96547
-0.798572
0.8934
0.00518297
-0.58732
-0.977418
-0.951008
1.0243
-1.67613
0.0137137
1.39687
-0.574321
-0.632079
-1.19987
-1.04211
-0.097235
-0.442872
-1.37506
-1.20422
-0.704381
-0.256093
-0.247934
-0.181489
0.228593
-0.712472
1.02897
0.594038
-0.235726
0.264249
1.12642
0.272022
-1.63344
-1.38019
-0.670529
0.820055
0.247711
-0.161745
0.286677
-1.0419
-0.877654
-0.96156
-0.118469
-0.780594
-0.179288
-0.383648
-1.24942
-0.72467
-0.826428
0.425437
-1.29701
0.439937
-1.13675
0.918755
0.871864
-2.4159
-1.91078
1.31301
-0.492224
-1.0146
-2.31998
-1.41375
-0.0152411
-1.72876
-0.612821
1.88375
-0.483835
-0.938672
-1.8815
-2.79353
-0.83333
-1.07984
-1.4799
-0.0110695
-0.467937
0.367453
0.644118
-0.122658
0.898573
-0.287096
1.48565
0.729887
-0.382805
-0.0995992
1.37604
0.531328
-0.167627
-0.734666
-0.732996
0.731823
-0.128416
-0.0612187
0.954243
0.259664
0.396105
-0.389916
-0.183672
0.319507
0.327819
0.0187759
-0.823103
-0.636216
-0.802616
0.121611
-0.513453
0.686268
-0.802069
0.545664
0.283042
0.00653533
-0.217934
0.856445
-0.0507149
-1.12782
-0.671544
-0.552508
0.48863
-1.05155
-0.767814
0.537668
-0.845413
-0.518959
-1.5179
-0.915956
-1.11502
-0.416557
-0.812304
-1.11117
-0.431806
0.363767
1.2241
0.306789
1.00653
-0.216668
0.335922
-0.394906
-0.724887
-0.718433
0.745364
-0.870266
-0.0583551
-0.703499
-0.961845
0.00868239
-0.768745
0.148987
1.02492
-0.18268
0.290454
-0.209612
-0.369129
-0.00584599
1.03511
0.0773744
-0.014979
-0.328433
0.230247
1.81485
-0.455544
-0.0632858
-0.461551
-0.139076
0.185821
-0.00466208
-0.395452
0.200514
0.501456
-0.142769
-1.22325
0.0341028
0.341087
0.00431825
0.418159
0.158123
-0.0798664
0.0450792
-0.670655
-0.488069
0.433037
0.284691
-0.558022
-0.138256
-0.583655
0.0472209
1.16994
-0.584622
-0.0778002
-0.0596044
0.915851
0.741225
-0.253337
-0.912538
0.357872
-0.0468786
-0.554384
-1.30371
-0.947568
0.937666
0.0184744
-0.669619
0.623174
0.75835
0.682791
-0.917548
-1.13874
-0.205938
0.397013
-0.56428
-0.443204
-0.898242
-0.454475
1.62991
-1.60628
0.143554
-0.622141
1.29227
0.674345
-1.53738
-1.71789
1.61476
0.74518
0.0202446
-2.01679
-0.826928
1.25123
-1.26264
-0.583998
1.53125
0.306873
-0.302424
-0.918011
-1.59052
-0.479327
-0.538972
-0.911696
0.645703
0.0745663
-0.481268
0.0197264
0.0316733
-0.542042
0.386878
0.126688
-0.0317117
-0.536809
0.329978
0.421868
0.332657
-0.210363
0.372152
0.535662
-0.257596
0.574623
-0.223771
0.228915
0.424541
-0.0816367
-0.146802
0.0103812
0.11831
-0.134934
0.205253
0.475613
0.153374
-0.522698
-0.601653
0.623788
0.4203
-0.0495817
-0.65213
-0.382704
0.200892
0.503956
0.416373
0.415928
-0.103177
-0.0272355
-0.0272103
-0.242635
0.393635
-0.0173646
0.0429433
-0.158384
0.0795675
-0.157565
0.461823
-0.00737731
0.498561
0.0122179
-0.388735
0.901551
0.120403
1.66871
-0.849533
0.150347
-0.210619
0.356502
0.0932194
-1.06829
-0.772973
0.342654
-0.644478
0.151072
-0.414337
-0.142409
-0.251988
-0.219687
0.0161052
0.939935
0.461707
-0.513307
-0.15718
-1.37967
0.749274
0.678598
-0.589426
0.0461773
-0.215604
0.353054
-0.366975
0.400629
-0.189498
0.491178
0.188217
-0.339321
0.00898479
-0.185355
-0.446627
-0.244704
0.215582
-0.146755
0.254802
0.313856
0.0520975
0.404954
0.232001
-0.023064
-0.211714
0.0713216
0.331747
-0.0500589
0.181836
-0.361134
-0.0309047
-0.4609
0.366802
0.367669
-0.504653
0.887358
-0.725971
0.558993
0.880333
-0.452637
-0.695658
0.686485
0.292762
0.545372
-0.0441
-0.0150259
0.981829
-0.36736
0.0217255
1.19355
-0.55575
-0.192801
0.127729
-0.0430271
0.447691
-0.100731
-0.101429
-0.0193004
0.148502
0.350256
1.01853
-0.322182
0.63959
-0.247681
1.39929
0.865964
-0.785476
-0.554246
1.30909
0.160945
-0.246822
-0.974029
-0.59865
1.0964
-0.896869
0.106989
1.31449
-0.00577123
-0.555495
-1.24806
-0.226765
-0.354352
-0.00313043
0.0386238
-0.179726
0.0254694
0.166863
1.42978
-1.28276
0.712072
-0.876934
1.33639
0.118712
-0.632882
-1.29933
1.10007
-0.377311
-0.146385
-0.460272
-0.845513
0.327896
-0.837064
-0.476785
1.49049
-0.154988
-0.620622
-0.609727
-1.02382
-0.619243
-0.116838
-0.17237
-0.12692
-0.369364
-0.0537778
2.12273
-0.83611
0.217408
-0.691938
0.109169
0.201344
-0.0848127
-0.262217
1.01521
0.866905
-0.509698
-0.944571
-0.753939
0.939928
-0.41797
0.270458
0.906821
0.0624113
0.6722
-0.159078
-1.01986
-0.170814
-0.221418
-0.872733
-0.0866095
-0.368542
0.0442228
-0.00080978
-0.580081
0.250785
-0.704267
0.984492
0.757152
-0.261114
-0.201197
0.542379
0.323549
-0.535563
-0.452986
-0.182493
-0.0105965
-0.499953
-0.0842015
0.139333
-0.462255
-0.594771
-0.517376
-0.184084
-0.264992
-0.129632
-0.162492
-0.00631203
-0.570341
0.327818
1.33315
-1.06528
-0.122765
-0.504979
1.08641
0.440896
-1.2806
-1.00705
0.858374
0.260826
0.771763
-1.51903
-0.979199
0.678457
-1.05751
-0.568904
1.76984
0.422949
-0.453053
-0.873911
-1.89772
-0.262133
-0.78277
-0.901562
-0.846734
-0.668319
-0.151633
0.529079
-0.919237
0.646451
-0.80412
0.653312
1.01576
-0.938672
0.190273
0.707075
0.33702
-0.086644
-1.31473
-0.819157
0.703052
-0.668397
0.0679671
1.30493
0.316213
-0.354779
-1.26186
-1.30004
0.214635
0.428537
-0.621455
0.219255
-0.579495
-0.200114
-0.505007
-0.529017
0.957818
0.153772
1.09031
0.490819
-0.351884
0.163218
0.589317
0.5889
-0.212476
-0.218533
-0.72324
0.0930735
-0.415839
0.305211
0.537371
-0.480854
0.07562
-0.280231
-0.646285
0.321425
-0.428776
-0.0818305
3.19043
2.12722
0.552977
1.46286
0.398768
1.47192
-3.54604
5.56643
0.129524
-1.17671
2.22925
2.93678
2.64774
3.57637
-0.785517
-1.12209
4.4524
0.00139089
0.781555
-0.455587
2.78113
2.53237
-0.655431
4.26623
1.96322
-1.01642
