#input normalization
0.160555 0.269453
29.8896 37.61
10.8736 36.4884
8.53894 31.0982
0.0114553 0.0410329
0.00938685 0.0326435
0.52601 1.31785
0.823961 1.14631
1.01646 1.32786
1.23048 1.51654
1.47696 1.68552
1.73 1.83539
1.9743 1.96587
2.21076 2.0781
2.43718 2.17557
2.63908 2.23007
2.83415 2.26984
3.01462 2.27938
3.15896 2.26461
3.28283 2.21551
3.38211 2.15303
3.46272 2.06189
3.51946 1.96532
3.56542 1.82784
1 -1
1 -1
#output normalization
1 0
#neurons weights
0.411043
0.49531
-0.170893
0.278041
-0.321355
0.192704
0.059483
0.384755
0.13537
0.364648
0.152681
-0.00135727
-0.245297
-0.231121
-0.298123
-0.0463624
0.144647
-0.339964
-0.470104
-0.210306
0.442452
-0.146
-0.204189
-0.11508
0.288463
-0.0151927
0.00236881
-0.269976
0.457271
0.643522
0.376402
0.387541
-0.299239
-0.082334
-0.102767
-0.0113576
-0.71551
-0.0843151
0.0599241
0.20635
0.097671
0.341953
-0.0807701
-0.0433432
0.103427
0.418746
-0.593548
0.625422
-0.1371
-0.238922
0.560892
0.135689
-0.0753861
0.101253
0.410982
0.0679866
-0.341624
-0.00442817
0.524797
-0.709115
-0.201949
0.393692
-0.066342
0.459328
0.177676
-0.276679
-0.254263
0.157419
-0.295836
0.23658
0.388043
0.35252
0.251124
0.2351
0.0907636
0.0360857
-0.193986
0.0241928
-0.468745
0.642432
#synapses weights
0.347854
0.491722
-0.59309
-0.283622
0.144192
0.327469
0.499174
-0.403124
-0.335943
-0.276308
-0.14425
0.460426
-0.0406198
-0.208979
-0.00991935
0.247065
-0.285508
0.339098
0.541931
-0.275087
0.167876
-0.226888
0.197944
0.22477
0.203043
0.297946
-0.233149
-0.251618
0.21507
0.218819
0.225771
0.0646515
0.673794
0.680133
0.168006
0.191471
-0.191586
-0.136904
0.194992
0.446493
-0.0942946
-0.261276
-0.445456
-0.363827
0.417221
0.246416
0.172886
-0.0572305
0.00197575
0.305828
0.497993
0.17857
-0.524018
-0.179046
-0.246322
-0.0184493
0.0636495
0.171793
0.602455
-0.327401
0.335764
-0.130313
0.185905
-0.00286436
-0.00712474
-0.299954
0.333831
0.165744
-0.123795
-0.0615701
0.0315358
-0.35367
-0.196277
0.0893059
0.234088
0.531508
0.168233
0.250371
0.0223626
0.0856375
0.305757
0.0478431
-0.0898679
0.13626
2.45553
1.53489
0.542648
0.0583711
0.350075
0.0525791
0.0905275
0.249859
-0.0514002
-0.204569
0.436343
0.316099
-0.260829
-0.414157
0.358299
-0.00107364
-0.238142
-0.0214538
-0.485978
-0.34673
0.0674022
-0.197291
-0.520886
-0.233375
-0.413089
0.285474
-0.567093
-0.54728
0.0466136
-0.296103
-0.592756
-0.608118
-0.431377
0.338318
-0.0396696
-0.208698
0.45589
0.130135
-0.34816
0.603526
-0.068305
-0.229117
0.461884
-0.0425784
0.391494
0.0140914
0.33538
0.244663
-0.341528
-0.237407
0.0997767
-0.271235
-0.000195745
0.335926
0.190576
-0.0238877
-0.041698
0.231389
0.425556
0.14389
0.180445
0.422874
0.304525
-0.381753
-0.378604
0.466811
-0.158568
0.0545091
-0.259445
0.261478
-0.470953
-0.217518
0.282074
-0.226304
-0.0998681
0.0167346
0.275918
0.389809
0.216792
-0.592901
0.756853
0.036561
0.596022
-0.524885
-0.381383
0.0647931
-0.103743
0.381732
0.31064
-0.124678
0.344134
0.170112
0.00331693
-0.333568
-0.0954345
-0.167282
-0.392608
0.476788
0.421179
-0.130893
0.0308959
-0.273671
-0.0381117
-0.286441
-0.360462
0.0512944
-0.0169775
0.264015
-0.429723
-0.311409
0.0206919
0.259314
0.195489
-0.402
0.384445
0.325411
0.163113
0.282125
-0.321501
-0.357505
0.370121
-0.292994
0.156824
-0.21019
0.270824
0.431589
0.635354
-0.557096
0.396028
-0.323588
1.4366
-0.671107
0.22716
0.322707
-0.137688
-0.09177
-0.0285271
0.0967476
-0.263707
-0.0627571
-0.0553
0.00653644
0.0578744
0.239477
0.0565528
-0.435829
0.114835
-0.154643
-0.00397887
0.161796
0.0323328
-0.18574
-0.334916
-0.263714
0.197509
-0.0385501
-1.08806
-0.340204
0.102377
-0.0747979
0.0854874
0.0545062
-0.174604
0.0644984
-0.226175
0.169059
0.530827
-0.155319
0.289962
0.0838186
-0.256587
-0.0110059
0.322599
0.324618
0.429029
0.419388
-0.156948
0.0368675
0.0913639
-0.319571
0.156772
-0.0737065
-1.93617
0.345873
-0.643517
0.0737075
-0.463352
-0.13013
0.135268
-0.0166605
-0.31244
-0.1976
0.251159
0.139733
-0.0541264
0.101569
0.492659
-0.329569
-0.0577953
-0.0730225
0.060459
0.333093
0.025859
-0.365548
-0.486276
-0.336888
0.192048
0.227144
0.792059
0.621723
0.362896
0.182798
-0.293956
-0.116919
0.0360604
-0.443558
0.163032
0.26619
0.154059
0.10193
0.107558
0.0989331
-0.0429157
0.210939
-0.271731
-0.521517
-0.423399
-0.00966555
-0.202484
0.303324
0.287364
0.360044
-0.357526
-0.295289
-0.899282
-0.465327
0.297578
0.507845
-0.139787
0.332471
0.166759
-0.3994
-0.262728
0.0862904
-0.352704
0.0783168
0.136875
-0.00591887
0.0666241
-0.106976
0.311657
0.225956
0.0349767
0.236489
0.120657
0.367681
0.242832
0.0333209
0.082169
-0.275246
1.47192
1.43478
1.01498
0.528607
0.189548
-0.0218576
-0.282961
0.282034
0.286877
0.0439964
-0.00292663
0.120464
-0.369464
0.359913
-0.36131
-0.331908
0.171293
0.0292783
-0.466925
0.273672
-0.0962418
0.20315
-0.20745
0.203395
0.521135
0.163254
-1.05209
-0.971492
0.240132
0.324981
0.131341
0.0104786
0.275331
-0.181006
-0.0985516
0.323591
-0.394377
-0.177461
-0.314195
0.0931104
-0.105024
-0.224262
0.337618
-0.312524
0.0443179
-0.400281
0.0709277
0.0497648
0.051257
0.0430832
0.101567
0.130139
0.260179
0.761851
0.151268
-0.0729096
0.0827108
-0.0705902
-0.507757
0.125171
0.168652
0.123456
0.140311
0.132252
-0.0786844
-0.255918
0.295049
0.254609
-0.355466
0.0223035
-0.396912
-0.268527
-0.0174488
-0.0703302
-0.16128
-0.0518416
0.0906304
0.217427
2.00025
3.5341
-0.0874301
0.0568725
-0.0381058
-0.00742758
0.040927
-0.0724718
-0.0818351
0.00545159
-0.0836715
-0.00855827
0.119282
-0.0687352
0.236667
-0.140589
-0.213815
0.144891
0.202479
-0.362523
0.319916
0.403301
0.180158
-0.140496
0.135179
0.0249825
0.829587
-0.115271
0.395666
0.227837
0.484347
0.30843
-0.10525
-0.441077
-0.0132271
0.157036
-0.214755
0.295001
-0.708361
-0.2326
-0.352983
0.102865
-0.376602
-0.226916
-0.0675145
0.1898
0.201005
0.068551
0.0554401
-0.33309
-0.27223
-0.676535
0.520382
0.532981
0.099923
0.568272
-0.117384
0.163947
-0.0798374
0.124708
0.0190407
-0.432348
-0.254768
-0.0748048
-0.229184
-0.367547
0.573238
-0.451911
-0.106982
0.065144
0.107111
-0.115262
0.0916273
0.475914
-0.503973
-0.525613
0.308928
-0.4812
0.115672
-0.114498
-0.0785147
0.227326
0.186267
-0.426656
0.203061
0.537112
-0.236297
0.421393
0.137043
-0.190298
0.256383
0.117638
-0.418577
-0.414377
0.0235119
0.27751
0.233454
0.173174
0.402013
0.391482
0.0578571
-0.169829
0.19933
-0.334782
0.94998
-0.463916
-0.497175
-0.0184177
-0.168856
0.348935
0.470208
-0.167563
-0.198642
-0.117934
0.111587
-0.128877
-0.0516568
0.277257
-0.280144
-0.00752897
0.353428
-0.000542729
-0.399341
0.153042
-0.124831
0.153974
-0.350008
0.23753
-0.377187
-0.456682
-0.502776
-0.00242307
-0.669203
-0.757059
-0.0131652
-0.0970804
-0.578778
0.268832
0.0117331
0.218422
-0.25014
0.443228
-0.0927896
-0.200537
0.356802
-0.185692
-0.182704
-0.22044
-0.251003
0.00270932
-0.0127988
0.377707
-0.0382382
0.00184209
0.101107
-0.00357557
1.74534
3.05283
-0.0148406
-0.228834
-0.117968
0.140407
0.100995
-0.187487
-0.0549852
-0.0801337
-0.0992733
-0.0442725
-0.136419
0.0395442
0.104175
0.0113901
-0.190756
-0.0965626
-0.280009
-0.274921
0.150453
0.242222
0.341392
-0.120364
-0.110275
0.0112326
3.07375
-0.236663
-0.0236929
0.0666858
-0.0539641
0.00143102
0.349242
-0.0087964
-0.0765848
-0.211946
0.220251
-0.171358
0.259055
0.0337423
-0.253233
0.313039
0.0106128
-0.222416
0.176423
-0.33859
0.438672
-0.210454
-0.282111
-0.279578
-0.161511
-0.262572
-0.180076
0.0771069
-0.28829
-0.305977
-0.291217
-0.399512
0.228524
0.232128
-0.0342414
0.246041
-0.266669
0.216592
0.0256278
-0.230377
0.441556
-0.209925
-0.480267
0.300624
-0.435931
0.409189
-0.0883508
-0.185907
-0.515736
-0.291693
0.049021
0.404953
-0.835121
-0.38879
-0.421469
-0.155546
0.028689
0.514057
0.206983
-0.167539
-0.134715
0.125742
-0.211059
0.185993
0.17523
0.432776
-0.234929
-0.202981
-0.152479
-0.107631
0.402516
0.078443
-0.230684
-0.404164
0.449098
-0.44703
0.235619
0.279995
-0.173621
0.344606
-0.475326
-0.0743855
0.372434
0.0330537
-0.294841
0.313795
0.324923
-0.414025
0.090372
-0.363091
0.212138
-0.341405
0.352314
0.536568
0.274523
0.518004
0.159513
0.113516
-0.151674
0.458597
0.165588
-0.557876
-0.220328
-0.140297
-0.832894
-0.309473
-0.578948
-0.311637
0.357641
0.214811
0.0337564
-0.561949
0.0861271
-0.0596618
-0.756364
-0.405712
-0.409973
-0.0542114
-0.324887
0.174479
-0.622704
-0.191538
-0.274994
0.334973
-0.113953
0.39427
0.438362
0.462754
0.581658
-0.368585
0.182352
-0.161922
0.388642
-0.283623
-0.206289
0.276223
0.193354
0.539367
0.251648
0.618612
0.00768676
0.414806
0.344929
0.0760836
0.0407586
0.486677
0.458457
-0.151452
-0.369367
-0.0687096
-0.139926
0.216243
0.404475
0.0791423
-0.333806
0.422434
0.448555
0.199672
-0.306608
0.287307
0.286904
-0.366567
0.471685
-0.144893
-0.308039
-0.0113763
0.277487
0.249016
-0.00904348
-0.319668
0.207543
0.49359
0.428036
0.310972
0.184894
-0.370679
-0.511914
-0.150422
-0.306122
-0.117456
-0.0540611
-0.238515
0.0561088
0.121053
0.0651885
0.497315
0.221223
-0.0686337
0.349864
0.0825414
-0.200296
0.134123
-0.204908
0.261953
-0.218391
-0.0656345
-0.0915132
0.422706
0.423951
-0.198049
-0.0991159
0.187794
-0.464399
0.115305
-0.561517
0.113311
-0.399796
0.446394
0.355502
0.213285
0.318203
-0.296479
0.39435
-0.00347671
-0.0570347
-0.20123
0.0235451
0.264831
-0.3032
0.13677
-0.206487
0.486898
0.423643
-0.0328762
0.0123762
-0.19479
0.0982168
0.34247
0.215529
0.60121
-0.0242046
-0.0684115
-0.262689
-0.293605
-0.0628069
0.736776
0.580791
-0.270404
0.154633
0.146126
0.491926
0.460391
-0.492336
-0.573399
0.551049
0.124484
0.387555
0.648001
0.263736
0.209947
0.353159
0.221087
-0.236119
-0.115321
-0.0404114
0.0401907
0.264392
0.475927
-0.439248
-0.251562
0.388908
0.00926323
0.0862249
1.15541
0.0562952
-0.648359
-0.429072
-0.0460601
0.803197
-0.621888
0.0340566
0.253565
-0.762876
1.14516
-0.823382
0.0989569
1.83108
0.0422994
0.16554
0.159039
0.297427
0.505143
1.85169
0.882904
0.0696302
-0.517574
0.221634
-0.451871
-0.472151
-0.282924
0.0413941
-0.165496
0.38745
0.248918
-0.0928283
-0.0449203
-0.387911
-0.0941925
-0.217939
0.455151
-0.0446012
0.420142
-0.223104
0.36937
0.32842
-0.37667
-0.151282
-0.458533
0.298769
-0.236412
0.246169
0.00711857
0.038016
-0.000479603
0.384245
0.043802
0.484862
0.337061
0.306449
0.366973
0.406302
0.130841
0.0789301
-0.210054
0.139505
-0.305875
0.145795
-0.363116
-0.223587
-0.0532217
0.0206527
0.309728
-0.358612
0.0219872
0.534954
0.333601
-0.369425
-1.14578
-0.159906
0.14252
-0.264201
0.146539
-0.291092
-0.399938
-0.0218897
0.25704
-0.381009
-0.323037
-0.185257
0.107088
0.0577757
0.100306
-0.182563
-0.535311
-0.191535
0.261053
-0.0180143
-0.536345
-0.167431
-0.0249563
0.430178
-0.392958
-0.0198371
-0.523485
-0.390236
0.0569155
-0.1986
-0.558298
-0.402523
-0.148872
0.128681
0.302298
0.548228
0.085609
0.500915
-0.301754
0.459798
0.208035
-0.192246
0.369949
0.223824
0.350825
0.574475
0.260472
0.247041
-0.0517228
0.368856
-0.11469
0.043636
-0.328041
-0.185805
0.45147
0.446185
-0.0110451
0.432145
0.181352
-0.0191251
-0.150897
-0.364009
-0.50432
-0.0115217
0.173828
-0.469269
-0.214035
0.273221
0.493946
0.00999295
0.301148
0.0291169
0.212147
-0.233076
-0.527621
-0.185649
-0.233273
0.250528
0.341246
0.186719
-0.457165
-0.0787492
0.0330967
-0.262574
-0.650172
0.063033
0.201589
0.615021
0.324047
0.487503
0.148193
0.113134
-0.324626
0.366258
0.0877111
-0.149571
-0.0339566
0.604727
0.833208
0.4286
-0.392206
0.21543
0.435078
0.359976
0.452802
0.105574
-0.46195
0.641285
-0.0156078
-0.339943
-0.423346
-0.155702
0.308675
0.348932
0.188707
0.116287
0.162195
0.240422
-0.277129
-0.381708
0.161856
0.416621
0.447896
-0.0181586
0.142653
0.279239
0.0195234
0.0125328
0.0448188
-0.278657
0.238586
0.127136
0.564881
-0.471719
0.103378
-0.0919331
0.359689
-0.044617
0.306286
-0.074712
-0.302707
0.0633926
0.498439
-0.371758
-0.608532
0.276743
-0.0806964
0.227089
-0.32137
0.267056
-0.00379146
-0.258499
0.140991
-0.405009
-0.485574
-0.229089
0.0286799
0.0497231
0.0396633
0.391842
0.184793
0.362546
-0.127416
-0.488154
-0.337703
-0.0156149
-0.0849641
0.140945
0.170242
0.505613
-0.328855
-0.357663
-0.210278
-0.489952
-0.0087764
-0.2446
0.154293
0.419876
-0.0701399
0.621633
0.183499
-0.42085
0.0971535
0.338505
0.321872
-0.141633
0.293891
-0.219165
0.0930212
-0.706338
-0.142756
-0.676171
-0.267958
0.270739
-0.437926
-0.252753
0.111499
0.282543
-0.477405
0.197789
-0.28254
0.0399202
-0.317043
-0.120101
-0.0825965
0.0250461
0.128539
0.639349
-0.338674
0.122313
-0.182515
-0.417499
0.0105508
0.184646
-0.165974
0.195914
-0.0535529
-0.0796648
0.359131
0.362723
0.385566
0.330575
0.137192
-0.204738
-0.189504
0.337367
-0.3813
-0.134126
-0.32054
0.342924
0.0230618
0.125992
0.0411853
-0.00563577
0.08108
-0.416938
0.434509
-0.0776438
0.0441229
0.11872
0.529649
-0.125523
0.419637
-0.062662
0.150797
-0.50946
0.442049
-0.41153
-0.0206066
0.176865
0.0258367
-0.134269
-0.263138
-0.24524
0.268954
-0.145777
0.478089
0.109394
-0.33551
-0.0182751
-0.312358
-0.174646
0.195487
0.234472
-0.310104
-0.000209744
-0.134914
-0.441453
-0.186812
-0.199408
-0.537187
0.0817747
-0.340145
-0.160525
-0.388716
0.28896
-0.349536
-0.00386429
-0.121359
-0.418782
0.467932
-0.417764
0.491769
-0.378357
-0.0255174
-0.0654528
-0.0999038
0.598024
-0.441618
0.139901
-0.0859545
0.355914
-0.0875221
-0.218478
-0.38473
-0.364926
-0.00182694
-0.290153
-0.211183
-0.379075
-0.0388945
-0.25877
0.154497
0.172662
0.156919
-0.108757
0.371022
0.436662
0.0656929
-0.182892
0.0420931
-0.0167127
0.344032
-0.533826
0.448882
-0.639866
0.558669
-0.106028
0.474117
-0.0424853
0.296268
0.321861
0.154651
-0.392623
0.266931
0.23472
0.144705
0.382347
0.163454
-0.178527
-0.453257
-0.522734
-0.128563
0.295538
0.0100584
-0.0402707
-0.252222
-0.221717
0.34861
0.513422
-0.0870245
0.168094
-0.0352267
0.235718
-0.473952
-0.154059
0.262966
-0.613964
-0.258341
-0.470301
0.19878
-1.05023
0.119168
-0.090524
0.0719023
-0.0102733
0.359617
-0.161792
-0.391808
-0.00865539
0.558672
0.464622
-0.233638
0.41894
-0.131984
0.0244206
-0.491675
-0.224962
0.435635
0.0107565
0.00446148
-0.13455
0.193554
0.142783
-0.367462
0.240921
0.276907
0.0743638
0.482776
0.469863
0.219999
-0.229171
-0.024038
-0.242364
0.481199
-0.299382
0.100274
-0.308718
0.250407
-0.183084
-0.343418
-0.171176
0.224518
0.505641
-0.276264
0.186538
0.41644
0.243511
0.124309
-0.26775
-0.371337
-0.292466
-0.222713
-0.0882986
-0.0626866
-0.427367
-0.135981
0.243538
-0.44329
-0.400072
-0.272862
0.136423
-0.393162
0.0972772
-0.180718
0.143346
0.0676232
0.171567
0.332684
0.0269231
-0.420074
-0.0669791
-0.358817
0.254329
-0.0957358
-0.0752127
-0.334232
0.217944
-0.220182
0.224281
-0.283983
-0.232022
-0.0753974
-0.466082
0.0582421
-0.0824533
-0.0959607
-0.0278719
-0.379639
-0.361336
0.436153
-0.270156
-0.397088
-0.0172481
-0.114014
0.218076
0.431535
0.412502
0.432785
-0.0405895
-0.207558
-0.316793
-0.27276
-0.0227583
-0.170709
0.379402
0.030837
0.00787099
0.224092
-0.224611
-0.543445
0.228179
0.464134
0.437239
-0.281839
0.366072
0.311202
0.219233
-0.178944
-1.02037
-0.503805
0.99431
-0.176314
-0.52649
-0.205257
-0.720933
0.350434
0.457296
0.672846
-0.0437876
0.251003
0.299628
0.237182
0.342896
0.419674
-0.348714
0.0468966
-0.246385
-0.219952
