#input normalization
0.160546 0.269678
58.4874 57.0132
10.4123 39.2275
8.35259 32.1659
0.0116298 0.043688
0.00924069 0.0332095
0.535752 1.3288
0.841136 1.16966
1.03781 1.35439
1.25102 1.54543
1.49442 1.71218
1.75303 1.8621
2.00368 1.99221
2.23677 2.11048
2.46514 2.19796
2.66438 2.24958
2.86201 2.2856
3.04117 2.29991
3.17968 2.27584
3.29069 2.22012
3.40321 2.15753
3.48849 2.06838
3.53933 1.97095
3.5716 1.85699
3.57123 1.726
3.54239 1.58309
3.5021 1.43514
3.44617 1.27547
3.35173 1.09918
3.2338 0.92518
3.12681 0.760168
2.99444 0.605248
2.86339 0.450307
2.70446 0.306355
2.55139 0.167886
2.40348 0.0368188
2.24678 -0.0802226
2.1107 -0.199751
1 -1
1 -1
#output normalization
1 0
#neurons weights
0.342744
-0.236605
-0.250713
-0.371513
0.0106262
0.0805996
-0.265042
-0.447109
-0.365255
-0.262669
0.0558391
-0.048121
0.19801
0.327303
0.359041
0.386693
0.190811
-0.199576
-0.0306937
-0.167557
0.306947
0.215944
0.170176
-0.426131
0.435829
-0.390718
0.12598
-0.431032
0.399529
-0.385513
-0.186786
-0.368266
0.445962
0.368413
-0.0767855
0.357951
-0.0741523
-0.253632
-0.199725
0.410883
-0.71064
0.178921
-0.192382
-0.484792
0.193485
0.0668777
0.350135
0.303696
0.182404
0.159838
0.457071
-0.324426
-0.322632
-0.0515408
-0.497411
0.393965
0.189434
0.397513
-0.725209
0.0838609
-0.426937
0.438044
-0.435098
0.40581
-0.23269
-0.0141991
1.30301
-0.991231
0.457621
0.358397
-0.185776
-0.294488
0.387384
-0.153691
0.516931
-0.304886
-0.303275
0.195921
-0.495304
-0.0266949
0.130934
0.44982
-0.35261
-0.25663
-0.484992
0.0758255
-0.439479
0.570445
0.120864
-0.421838
0.0538713
-0.0820817
-0.0055825
-0.473306
-0.272715
0.0664219
0.0957143
0.020805
0.413835
0.52838
-0.278139
-0.031378
0.320358
0.0975634
-0.00804084
0.373931
0.0498984
0.255697
0.198274
-0.520013
-0.395813
0.475878
0.229872
-0.00339936
0.407302
0.340417
0.136293
-0.495229
0.108015
0.37232
-0.530134
0.00452099
#synapses weights
0.401609
0.485929
0.114893
-0.0532973
0.356534
0.0482941
1.01812
0.128288
0.174048
0.00254997
0.201344
-0.231357
0.0994012
-0.0156538
0.139213
-0.360073
-0.507284
0.338361
0.210459
-0.43885
0.214048
0.319302
-0.356184
0.0789495
-0.0297813
0.182058
0.249399
-0.418657
-0.0432947
-0.0502426
-0.099202
-0.223575
0.380502
-0.0655164
-0.172469
0.155267
-0.334072
0.279839
-0.457568
-0.34892
0.140316
0.444077
0.116709
-0.416302
-0.202676
0.364328
0.34026
-0.289571
0.268633
0.0295421
-0.222863
0.352473
-0.178808
-0.171135
0.132896
0.184651
-0.0574036
0.372344
0.242009
0.409895
-0.219655
-0.192978
0.332532
-0.0587566
-0.11831
-0.235252
0.0968992
0.194417
0.396357
0.0669937
0.336558
-0.182265
0.456547
0.220325
0.428717
-0.191685
0.439734
-0.26452
-0.401798
0.374942
-0.235028
-0.0512881
-0.0590299
0.237775
0.0254305
0.0887814
0.0176688
-0.280848
0.750109
0.0164291
-0.243331
-0.47308
-0.317125
0.216951
0.058623
-0.197857
-0.0787866
0.233488
0.134548
-0.31766
0.393744
0.0965877
-0.445483
0.205911
-0.318924
-0.265364
-0.315414
0.214585
0.144939
-0.0503708
-0.219256
0.361519
-0.279755
0.183334
0.303987
-0.318135
-0.0365472
-0.0551382
0.192951
-0.0357087
-0.00560416
0.385908
0.00318463
-0.200004
-0.100054
-0.557058
0.601474
-0.0787048
-0.0465449
0.348957
-0.373164
-0.242477
-0.600356
0.00867642
-0.029017
-0.555014
0.237304
-0.312636
-0.223341
0.0238504
0.1977
0.440508
-0.346702
-0.471911
0.182667
0.344247
-0.113145
-0.205982
-0.480876
-0.226676
0.335913
0.508285
0.123277
-0.129527
-0.0654884
0.257752
-0.4312
-0.247175
-0.248946
0.0433759
-0.121469
-0.266703
0.233902
0.198674
0.257373
-0.184465
0.515994
-0.154569
0.164758
0.361706
0.17369
0.262218
-0.109675
0.0841866
-0.295283
-0.102444
0.145199
-0.520241
0.237389
-0.320842
-0.384011
0.133942
0.368048
-0.0042598
0.229288
-8.07427e-05
-0.389826
-0.202943
-0.306731
-0.368009
-0.277777
-0.259451
0.438462
0.255875
-0.180228
-0.0511009
-0.41649
0.38136
0.0966673
0.425545
0.0421604
0.0813747
0.280772
-0.144644
-0.127824
-0.0943343
-0.743999
0.463956
-0.00695859
0.348151
-0.0904079
-0.00294496
0.117481
0.507268
0.392344
-0.163569
0.457892
-0.214601
0.30751
0.440983
0.0771157
-0.377245
-0.23499
-0.262744
-0.0724274
0.396739
-0.273095
0.162293
-0.260022
-0.344714
0.048406
-0.215415
0.469351
0.29131
-0.251016
0.111953
-0.545718
-0.238349
-0.0615005
0.409944
-0.208207
0.250666
-0.350415
0.057994
-0.248177
0.577045
-0.692305
0.0813849
-0.267617
0.538291
-0.0120086
-0.0555561
-0.291683
-0.206898
-0.0915205
0.0261155
-0.160644
-0.266761
0.0982437
0.0256791
-0.228099
-0.198924
0.25262
0.306727
-0.0530779
0.255571
0.278041
-0.0962518
0.406909
-0.137268
-0.101356
0.205369
-0.0902407
0.344587
-0.195399
0.0811931
-0.31055
-0.413103
-0.420659
-0.125865
0.295542
-0.230102
-0.071495
0.268008
0.219381
-0.40349
-0.85493
0.67578
-0.151187
0.420864
-0.149107
-0.199349
0.0415648
0.105447
-0.109948
0.090495
-0.0987149
0.187829
0.0948827
0.119615
0.350276
0.351959
-0.147363
-0.561292
0.191633
-0.267222
0.0719487
-0.562456
-0.508167
-0.0137356
0.229662
-0.528788
0.42791
-0.284777
-0.316775
-0.163656
0.368725
-0.40149
0.167636
-0.201959
0.0027463
-0.15888
-0.394582
-0.393504
-0.28521
0.0377724
-0.350571
-0.201618
-0.246878
-0.441432
-0.0361719
0.0263268
-0.00574768
0.296297
-0.123968
-0.108246
-0.0591094
-0.391147
0.424036
0.0524534
0.0387817
-0.368909
0.091025
-0.171728
-0.233617
0.0687317
0.507598
0.116372
-0.25642
-0.232345
-0.473374
0.44943
0.175956
0.132664
0.301112
0.410138
-0.349491
0.27753
0.38712
-0.166499
0.205614
-0.307784
0.0412415
-0.285848
0.543231
0.223162
0.588319
0.17586
0.765222
0.44378
0.153622
-0.320917
0.237011
-0.209312
-0.0348316
0.133606
-0.00533478
-0.0740322
0.0923643
0.101145
0.182928
0.0307017
-0.376536
-0.377204
-0.311156
0.116802
0.215058
0.296561
0.256565
-0.382882
-0.356119
0.375472
-0.19989
-0.0970586
0.109577
-0.41847
0.405816
0.315762
0.106117
-0.368762
0.263728
-0.251497
0.38679
0.190098
0.320686
-0.135452
-0.0622442
0.132007
0.207691
-0.385383
0.111809
-0.335504
0.224041
0.280411
0.204871
-0.105669
-0.25896
0.151801
-0.281966
-0.0142723
0.546366
-0.344484
0.496673
0.38606
0.159836
-0.0710062
-0.350997
0.247932
0.26937
0.454232
-0.377798
-0.322545
0.0194235
-0.328818
0.349907
-0.167968
0.260474
0.41345
-0.263927
-0.0696275
-0.468592
0.261672
-0.0470287
-0.382857
-0.41811
0.238762
-0.194224
-0.224627
-0.288619
0.0574155
0.360732
-0.303656
-0.120251
-0.237154
-0.360301
-0.327996
0.149433
0.365405
-0.313618
0.0133729
-0.132561
0.394562
0.316373
-0.288171
0.306855
0.0877735
0.118823
0.0151843
0.0548001
-0.171324
0.125696
0.338412
-0.347298
-0.0136833
0.422213
-0.0948139
0.460474
0.431327
0.219952
0.195037
0.018572
-0.441346
0.236322
-0.493474
-0.533886
0.271061
0.151063
0.13523
0.457696
-0.126003
-0.453986
-0.383645
-0.485221
0.261761
-0.343561
-0.331345
0.455967
0.0179837
-0.489612
-0.108707
0.469722
-0.0474049
0.437482
0.0148591
-0.028864
0.226824
-0.308339
-0.313606
0.157692
0.464304
-0.0191846
0.349982
-0.131675
-0.307968
0.16157
0.20098
0.463955
0.0774186
0.142306
-0.0744766
-0.0160751
0.0467932
-0.0231464
-0.222192
0.337133
-0.04732
-3.00061
0.0966455
0.355757
-0.126635
0.131418
0.0267618
-0.221688
-0.214876
-0.0607457
-0.123183
-0.177834
-0.0638546
0.0891709
-0.228008
0.367946
-0.0735448
-0.14556
-0.139714
0.0903949
-0.0608198
0.28235
0.0175045
0.213373
-0.174117
0.156574
0.260117
-0.0413844
-0.326451
0.147018
-0.0643193
-0.0492833
-0.0399511
-0.471084
-0.359912
-0.342486
-0.151121
-0.160713
0.157616
0.167288
0.414451
-2.74316
0.526125
-0.0488549
0.193022
-0.179669
-0.203417
-0.0279144
-0.015559
0.0338755
0.310478
0.111669
-0.0992998
-0.112626
-0.151598
-0.237378
0.092501
0.024172
-0.345003
-0.15238
0.0785566
-0.117526
-0.0489758
0.0379961
-0.0571042
0.0362858
0.245218
-0.22219
0.372349
-0.172131
-0.0357402
0.140858
0.0272793
0.183487
0.00805334
0.183908
0.403233
-0.341377
-0.233251
-0.543054
-0.485461
0.571785
0.24727
-0.296439
-0.000873107
0.228048
-0.0531357
0.0571537
0.0212847
0.380168
-0.468902
-0.347322
-0.455972
0.388778
0.344488
-0.373403
0.120879
0.542682
0.24857
-0.293932
0.28168
-0.378498
0.213407
0.101263
0.0457028
-0.0432067
-0.258129
0.206576
-0.242871
0.261245
-0.448967
0.431264
-0.360315
0.0107511
-0.1873
0.332608
-0.235097
-0.121469
-0.45678
-0.404812
-0.0135731
0.328165
0.0628399
0.0391088
0.136108
0.149894
0.100675
0.415052
0.000439374
-0.16857
-0.122476
0.396728
0.2363
0.470686
-0.134968
0.0782763
-0.217851
0.490139
-0.251025
-0.17546
0.081975
-0.299501
0.0276362
-0.0729925
-0.159671
0.479827
0.518758
-0.247203
-0.306553
0.338541
0.331148
-0.358407
0.153606
0.202859
0.457882
-0.110773
0.222426
0.321869
0.1214
-0.359572
0.282941
0.89695
-0.157679
-0.322731
-0.178248
0.382237
-0.211527
-0.129651
0.215774
-0.178228
-0.124385
0.503042
-0.348944
0.389327
0.480671
-0.0920175
-0.453677
0.261277
0.279413
0.324852
-0.320645
-0.468816
-0.0505333
-0.394802
-0.18493
0.0997051
0.444158
-0.0399457
-0.173366
0.124305
-0.386751
-0.023789
0.105652
-0.347992
0.306206
0.0795076
0.0369205
0.116859
0.00868508
-0.136078
-0.202879
0.97131
0.0996293
-0.561408
0.310694
-0.337077
0.334184
-0.357506
0.0993013
-0.0413744
0.359952
0.284737
0.137305
-0.0910742
0.258068
0.222887
-0.220784
-0.386396
-0.472519
-0.0564353
0.153709
0.3092
0.11807
0.261682
-0.253166
-0.109021
0.26268
-0.437927
-0.0117167
-0.0578484
0.154714
-0.0982852
-0.191879
0.127442
-0.43981
0.325436
0.417337
-0.0203493
-0.20826
0.117902
0.417807
0.555222
-0.0930306
0.395807
-0.450127
-0.0306542
0.546534
-0.165434
0.109268
-0.269595
0.423411
-0.444624
-0.217099
0.421583
0.0378467
-0.175059
-0.259377
-0.136444
-0.215047
0.179435
-0.0993558
0.112004
0.0836905
-0.023402
-0.290088
-0.142813
0.249657
0.0688826
0.175394
-0.119414
-0.201323
-0.257208
-0.126215
0.208859
-0.244501
-0.341238
0.104546
0.246866
0.189406
0.226699
-0.367088
0.514379
-0.290325
0.472892
-0.295546
0.238214
-0.210092
-0.282076
0.17326
-0.123267
-0.103067
-0.469085
0.280329
-0.304091
-0.12361
-0.284557
0.0250853
0.378895
0.239799
0.0232274
0.160762
0.216011
-0.380734
0.0428078
-0.458015
-0.365821
-0.386652
-0.475737
-0.29693
0.369185
0.134903
0.264488
-0.0268687
0.0274536
0.234031
-0.446306
0.0102456
0.0274486
-0.237247
0.314505
0.355119
0.748789
-0.292126
0.449329
0.0269222
-0.34906
0.142196
0.395095
-0.519025
-0.0700535
0.228624
0.381994
0.0864957
0.0147843
-0.26185
0.354337
-0.284288
-0.150961
-0.395608
0.0499351
-0.34462
0.292385
-0.407973
-0.198837
0.125677
0.212808
-0.369555
0.386698
-0.350419
-0.347895
0.281744
0.361001
0.316183
0.480004
0.107133
0.281199
-0.428952
-0.169116
0.183391
0.224086
-0.120031
-0.695543
-0.546376
-0.399092
0.166062
-0.132325
0.223498
0.0640637
-0.134538
0.0060642
-0.217594
0.321043
-0.0944789
0.520265
-0.171806
0.29364
-0.0675634
-0.138982
-0.0248646
-0.323358
-0.252461
-0.423244
0.20211
0.242795
0.000451545
-0.0132494
0.363272
0.126842
-0.0765109
-0.0323979
0.295613
-0.167907
0.267074
-0.137207
0.411637
-0.0595877
0.277523
0.304181
-0.189661
-0.2163
-0.192955
-1.10336
-0.658702
-0.429746
-0.18046
-0.580191
0.219345
-0.231973
0.415641
-0.0781685
0.370279
-0.122502
0.490689
0.0184226
0.190734
-0.119596
-0.0420256
0.015086
-0.390097
0.0346902
-0.235888
0.140329
0.113403
-0.167198
0.0143377
0.343567
-0.387962
-0.00321866
-0.0273011
-0.0251102
0.106383
-0.0772061
0.383435
0.329988
-0.188136
-0.00821525
-0.31581
0.494154
-0.297861
-0.500984
0.299053
0.479172
-0.295821
0.128224
0.0247837
0.526545
0.526171
0.467542
-0.239728
0.289271
0.215373
0.134842
0.311542
-0.0730061
-0.0885399
0.255957
0.0489553
-0.429795
0.407494
0.403755
-0.319683
0.502492
0.00417298
0.214072
0.489441
0.120608
-0.158557
-0.00463603
-0.218976
0.391558
0.220116
-0.133621
-0.381859
0.0148774
-0.398239
0.131488
0.0870506
-0.117905
-0.0750868
-0.314674
-0.419106
0.0705142
-0.378578
-0.223924
-0.466128
-0.442435
0.353583
-0.3695
-0.214515
-0.0932012
0.0786057
0.102907
0.0705678
-0.359481
-0.169431
0.239569
-0.305983
0.371807
-0.184989
-0.155974
0.0248934
-0.00149999
0.0181838
0.0433024
-0.0984871
-0.520908
-0.347632
0.00983583
0.238932
-0.309505
0.159735
0.388963
0.212399
0.382329
-0.256023
0.0354949
0.105777
0.165804
-0.26359
-0.0618401
0.213488
2.87664
3.81359
0.176612
-0.024383
-0.0249744
-0.118426
0.0725399
0.0206247
-0.0786165
-0.095593
-0.0215517
0.0610941
-0.289585
0.172568
-0.0948093
0.193454
-0.155444
-0.0130827
-0.0699286
0.21018
0.0510258
-0.19016
0.144572
-0.214574
0.0796229
0.226005
-0.188307
0.0592749
-0.0991261
-0.0747033
-0.115583
-0.00216156
-0.42181
-0.232168
-0.186256
0.215266
-0.330536
0.265686
-0.148857
0.296921
-2.0622
-2.40941
-0.113439
-0.288258
-0.148557
0.0255364
0.190427
-0.187416
0.0407419
-0.290938
0.0217854
-0.00399132
-0.19004
0.123931
0.0174436
0.00917415
-0.401872
0.0827762
-0.185336
0.288836
0.0976076
-0.0141112
0.250157
-0.376704
0.059775
-0.0338381
0.19526
-0.392032
-0.0682143
0.0389938
-0.0331028
0.16008
-0.165304
0.340605
0.425132
0.0645167
-0.222355
-0.0303735
0.172175
0.0571981
0.537361
0.527579
0.0533255
0.367826
-0.0153247
-0.181479
-0.105368
0.392583
0.408579
0.494889
0.168326
-0.236089
-0.064335
-0.234414
0.431886
-0.295363
-0.207872
0.0271176
0.269389
0.566545
-0.0957183
0.304435
0.419218
-0.154562
0.527455
0.0213552
-0.103516
0.106542
-0.391302
-0.15645
0.424663
-0.328611
-0.335016
0.139496
-0.439671
-0.271639
-0.0913372
-0.233039
0.227777
0.415387
-0.613825
0.117235
0.350783
0.209837
-0.516823
0.0832685
-0.349287
0.256287
0.0179224
0.0198395
0.540883
0.553116
0.406148
-0.230734
0.241202
-0.33416
0.42214
0.449482
-0.362369
0.306037
0.0706419
0.289327
-0.307365
-0.336338
0.308367
0.242707
-0.265844
0.191544
0.213698
0.3694
-0.473188
0.398189
-0.0221751
-0.106417
-0.486143
0.306729
0.105274
0.378844
0.0265233
-0.382433
-0.516245
-0.0572832
0.699508
0.0860578
0.429237
-0.486586
0.46604
0.138515
0.379887
-0.063894
0.434757
-0.0454867
-0.323389
0.131945
0.17747
-0.316061
0.411509
0.173449
0.0446791
-0.180507
0.39149
-0.0867297
-0.241581
0.168928
0.13434
-0.303893
0.116476
-0.074818
-0.493493
-0.26431
-0.188253
-0.451432
-0.45053
0.414644
0.236128
-0.0168063
0.140512
-0.152853
-0.607837
-0.0271616
0.0360625
-0.50601
-0.245117
0.0634733
0.312614
-0.337675
-0.252046
0.344562
-0.404352
0.318744
-0.366858
-0.501251
0.378414
-0.0250789
0.386287
-0.463742
0.394549
0.332988
-0.574049
0.350616
-0.346748
0.261909
-0.296685
0.042592
-0.273037
-0.0872997
-0.369839
-0.0645327
0.261845
0.176843
-0.624447
-0.0527167
-0.0496367
0.0403359
-0.331407
0.359181
0.252995
-0.397815
0.379265
-0.280165
-0.0689903
0.392212
-0.412041
-0.22412
0.454616
0.244721
0.0929008
0.272924
0.219485
0.149752
0.429627
0.224245
0.320905
-0.0501142
-0.0302884
-0.362211
0.387111
0.0269971
0.418406
0.0135026
0.45314
-0.478111
0.457778
-0.121434
-0.343186
0.237596
0.146474
-0.239215
0.336314
0.120875
0.161053
0.0463667
0.270694
0.116126
0.411753
-0.276354
0.0791876
0.293005
-0.225692
-0.0327956
-0.653533
-0.212644
-0.016982
0.0715807
0.318746
-0.0662352
-0.0799779
-0.244834
-0.0444639
-0.310824
0.178389
-0.117147
0.191931
-0.0231235
-0.326116
0.177525
0.244797
-0.35157
-0.141086
0.377581
0.289873
-0.0647199
-0.258819
0.000782853
0.100603
0.473209
-0.195224
-0.11705
-0.183086
0.401381
0.144311
0.0958444
0.35321
0.0708126
0.406025
0.220614
-0.0665079
-0.275544
-0.0637197
-0.0738081
-0.537854
0.589316
-0.293127
0.0584575
0.182244
0.426027
0.527467
-0.422127
-0.315454
0.236128
-0.418409
0.464752
0.197591
0.124073
0.306018
0.345016
-0.461483
-0.328018
0.155666
0.440054
0.204064
-0.202377
-0.249044
-0.219662
-0.172044
-0.170481
-0.199709
0.0949158
0.0538053
-0.00864561
-0.437857
-0.0547556
-0.30933
-0.202447
0.393949
-0.167323
0.41034
0.137347
-0.232205
-0.296562
-0.275421
-0.40836
-0.0333684
-0.000647875
0.207483
-0.393359
0.456791
0.0314874
0.256485
-0.00394394
0.336634
0.261744
0.228172
-0.0277206
0.438318
0.219555
-0.453448
0.441385
-0.294625
0.377076
0.180968
0.373642
0.0568296
-0.438836
0.165326
0.0872448
0.169111
-0.349936
0.373395
0.287785
-0.162575
0.463711
0.447709
-0.222289
0.442107
0.161457
-0.128926
0.205135
-0.216199
-0.0930216
0.442123
0.464514
-0.144527
0.356926
-0.219449
-0.244888
0.0566035
-0.411823
-0.233514
-0.069488
0.0407735
-0.0727799
0.181503
0.29057
-0.258521
-0.039278
-0.208174
0.442724
0.0660358
0.0529863
-0.0910634
0.160387
0.293506
-0.0949177
0.194292
0.00859987
-0.383539
0.460632
-0.30246
0.403339
0.431154
-0.0811134
0.347957
0.491758
-0.301671
-0.0184688
-0.150564
-0.172271
-0.368457
-0.175447
0.544951
0.478384
0.618135
0.295226
-0.253557
0.00676531
-0.0352958
-0.286442
-0.28614
-0.0114887
0.111793
0.218648
-0.307562
-0.171847
0.493824
-0.245122
-0.146191
-0.0240983
0.159407
0.18522
0.338485
-0.0505732
-0.00321911
-0.011329
0.0608518
-0.259461
-0.128716
-0.266168
0.628882
-0.026764
0.513237
-0.0235507
0.0140163
0.46703
0.24885
0.13029
-0.169106
-0.340939
-0.204445
-0.326564
-0.472818
0.0197869
0.169353
0.281657
-0.353995
-0.291172
-0.237338
-0.340494
0.256784
0.449726
-0.107286
0.0239304
-0.213082
0.311093
-0.398593
-0.516204
0.36021
0.275635
-0.435535
-0.268139
-0.28443
0.572918
-0.0029025
-0.328823
0.320595
-0.397215
-0.353735
-0.0635081
-0.0945836
0.00677016
-0.448851
0.1376
-0.138352
0.227657
0.0928396
0.464823
0.0352512
0.278927
0.220295
0.146058
0.1503
0.468181
-0.451781
-0.0696411
0.224403
-0.249847
0.193333
-0.212922
0.295648
0.49863
0.278798
0.0187484
-0.251232
0.273791
-0.340319
-0.373239
-0.205957
-0.237277
0.0032211
-0.407251
-0.418124
-0.339119
0.359654
0.23667
-0.139888
0.479034
0.461189
0.390068
0.445708
0.225428
-0.31974
-0.10863
0.254933
0.0675619
-0.507148
-0.0382163
-0.0202719
-0.0853158
0.0097459
0.0972582
-0.751579
0.564308
0.141035
-0.215469
-0.00293563
0.0312045
-0.486912
-0.450644
-0.387932
-0.12827
0.565466
-0.229874
0.242986
0.308462
-0.265869
0.0526264
-0.33482
0.451159
0.175684
0.468881
0.22925
-0.130789
0.254146
0.0766875
-0.463834
0.350737
-0.300287
0.278007
0.545189
-0.307411
0.0709625
0.444561
-0.0836134
-0.1428
-0.250487
0.357433
0.138962
-0.0535868
0.149926
-0.108408
0.417516
0.0762742
-0.422981
0.228644
0.341537
-0.155195
0.129249
0.247217
0.32076
-0.211227
-0.382524
-0.299423
-0.477356
-0.0972326
0.178138
0.406698
-0.158971
0.112726
-0.363598
-0.203894
-0.312215
0.333912
0.293575
0.174187
0.201528
0.433134
-0.158085
-0.383454
0.0924312
0.0905362
0.321506
0.281995
-0.127044
-0.454038
0.260743
-0.167059
-0.478107
-0.282685
-0.0312204
0.125216
0.299638
-0.351169
-0.156198
-0.469106
-0.00322231
0.426847
-0.437648
0.214819
-0.224653
0.251968
-0.0230126
0.335388
0.308726
-0.299742
0.126939
0.405335
-0.0580959
-0.330355
-0.127618
0.402909
0.475667
-0.226314
-0.354443
-0.356936
0.217825
-0.266676
0.340767
0.278974
0.36052
0.354515
0.392036
-0.159024
-0.231173
0.375564
0.331871
0.253269
-0.505632
-0.272283
-0.255702
0.425524
-0.47303
0.458997
-0.245599
0.376538
0.348966
0.263755
0.172739
0.0846581
0.0644831
0.214661
-0.249252
0.501937
0.330534
0.0369629
-0.0991587
0.0968979
0.224394
0.107715
-0.127206
-0.152562
0.00844246
-0.200758
0.39085
-0.455897
-0.04212
-0.161407
0.0179368
-0.174627
-0.345283
-0.345719
0.355187
0.199831
0.430695
0.184097
0.0211269
-0.286144
0.175968
0.408083
-0.366737
0.403619
-0.0230981
-0.288396
0.179382
-0.263352
0.280949
0.119002
-0.113376
-0.398778
0.0182622
0.0277235
0.349052
0.134059
0.0552872
0.418545
0.500784
0.154056
0.206099
0.415386
0.0462835
0.30894
-0.0933476
-0.00769262
0.0880032
-0.166179
-0.204569
0.204087
-0.0039483
0.416649
-0.256508
-0.330893
0.211979
0.420525
-0.144061
-0.207864
0.113379
0.0796448
-0.46016
0.254498
-0.271948
0.242018
-0.352186
0.296205
-0.468055
-0.146021
0.207644
0.0607869
-0.277428
0.149969
-0.392646
-0.109726
-0.349053
-0.20613
-0.546331
-0.390949
-0.450665
0.349429
-0.522597
-0.163622
-0.142929
0.326552
0.18896
0.321466
-0.297183
-0.294267
-0.0218545
-0.136085
0.0497487
0.0547077
0.0482899
0.265487
-0.342058
-0.167813
0.049121
0.27682
-0.362856
-0.284174
0.14914
0.130577
0.261388
0.383648
0.31054
-0.22294
0.0325573
0.450718
0.413814
0.177769
-0.0501585
-0.286212
-0.45174
0.431469
-0.292459
-0.0469996
0.424582
0.300107
-0.148796
-0.239209
-0.338023
0.549215
0.0182708
0.0979681
-0.0632113
-0.497152
-0.246137
0.360317
0.332425
0.474545
0.304888
0.2644
0.123816
-0.32059
0.315251
-0.146927
0.167363
0.063679
0.141428
0.043852
0.551369
-0.0194839
-0.416428
-0.0607502
0.58173
0.625505
0.656427
0.675333
0.403818
-0.0864599
0.0965348
-0.507402
-0.508965
0.612786
0.112318
-0.242837
-0.222583
-0.477479
-0.0461833
0.0215843
-0.045203
-0.0371042
0.350086
0.115837
0.320789
0.652106
-0.321133
-0.134045
0.378025
-0.100254
1.46324
-0.947546
-0.103293
-0.152069
-0.122063
-0.216985
0.0645176
0.0307979
-0.452315
-0.403886
0.19832
0.474867
-0.18963
-0.15478
0.059176
0.337786
0.00844006
-0.146945
0.128227
0.349476
-0.206391
0.160324
0.25602
-0.472474
-0.470263
0.3896
-0.0741735
0.27039
0.609217
-0.194032
0.204273
0.0198531
-0.182204
0.156812
-0.229135
-0.0636273
0.247138
-0.549441
-0.176239
0.334608
-0.536922
-0.410031
0.0783676
0.484873
0.193402
-0.541725
-0.200328
-0.174085
0.0364168
0.214908
0.512274
-0.339906
0.454303
-0.32397
0.293388
-0.176614
0.320972
-0.0307201
-0.24054
-0.189633
-0.383743
-0.0218519
-0.191836
-0.473982
0.189532
0.375039
-0.0969016
-0.231672
-0.190299
0.413657
-0.191745
-0.087848
-0.111287
0.494238
-0.184835
0.488411
0.0926531
0.466056
-0.511501
-0.214252
-0.320901
-0.3355
-0.167884
-0.0915997
-0.097359
-0.051487
0.219009
0.271871
0.391003
-0.228786
-0.297479
0.0718671
-0.304821
-0.0400001
-0.465113
-0.118916
-0.147869
-0.143954
-0.359869
0.0111694
-0.0255578
-0.395814
0.343768
0.46368
0.429468
-0.180133
0.478473
0.0377367
0.248333
0.0252189
0.485749
0.0935671
0.46254
0.148515
0.425705
0.246308
0.432239
-0.218049
0.472273
-0.425356
0.113954
0.0602484
-0.438035
0.0196161
0.317152
0.444921
-0.0860227
0.429232
-0.17488
-0.0706207
0.25802
0.30719
0.0942587
-0.0042751
0.433663
0.27422
0.402607
-0.289391
0.0121299
0.349248
0.389205
0.113782
0.19599
0.334628
-0.0611408
-0.28632
0.00392089
0.0152725
-0.0404873
-0.147748
-0.00926024
0.222241
0.51365
0.0751068
-0.383849
-0.121632
0.407991
-0.223873
-0.142427
-0.290197
-0.235523
-0.182542
-0.017502
0.288773
-0.184993
0.416466
0.172668
-0.402289
0.224443
-0.440342
-0.109969
-0.0904149
-0.197185
-0.356202
-0.376123
0.389073
0.121713
-0.383576
0.443867
0.578254
0.349358
0.34682
0.20157
0.145072
-0.352126
-0.0976123
0.156331
-0.470041
0.371947
-0.413921
0.315085
-0.0519421
-0.442208
0.209332
-0.266789
-0.370052
0.221621
-0.214031
0.057825
-0.0927464
-0.0111745
0.0512278
-0.162352
0.19371
-0.147658
-0.289417
0.411548
0.408476
0.0849428
0.21497
-0.412284
0.0206267
-0.419854
-0.135243
0.122864
-0.201945
-0.040973
-0.24274
0.355444
0.234717
-0.216215
-0.102346
0.13118
0.40332
-0.305293
-0.424253
0.129005
0.425549
0.369525
-0.55187
-0.294235
-0.0751644
0.235932
-0.0865797
-0.396115
0.121997
0.316182
0.534195
0.0531861
-0.33852
-0.459769
0.369575
0.00721319
-0.0584883
-0.12317
0.0322871
0.337611
-0.225629
-0.455325
-0.22253
-0.119997
0.00382719
0.114248
-0.398729
-0.428912
0.117471
0.0245506
-0.0221162
-0.378795
-0.0310121
-0.446627
-0.426799
-0.544647
-0.559091
0.252132
-0.012514
0.391647
0.0879134
0.184564
-0.467232
-0.249301
0.253642
0.09049
-0.0152588
0.374914
0.274883
-0.583245
-0.442582
-0.407699
-0.653157
-0.266167
-0.211899
-0.495684
-0.451514
0.291094
0.0759023
-0.591385
-0.417226
0.312151
0.0395354
0.0902598
0.046708
0.154032
-0.262085
-9.66888e-06
-0.392141
-0.38117
-0.277264
-0.124471
-0.369665
0.126408
0.437651
0.273508
0.119455
0.0477461
0.299597
0.155875
0.134186
-0.217443
-0.36449
-0.317008
0.148507
0.395411
0.124255
-0.0453321
0.0387721
0.135119
0.0857335
0.362249
0.336159
0.461996
-0.363674
0.137579
-0.0792189
0.225622
-0.337712
-0.365773
-0.339032
0.226956
-0.211443
0.0239512
0.217975
-0.275912
-0.239087
-0.061483
-0.39867
0.277182
0.305885
0.121703
-0.0899595
-0.44588
-0.266133
0.497562
-0.373634
-0.222345
0.0729526
-0.170009
-0.439498
-0.338183
0.560316
-0.290119
-0.155105
-0.120381
0.273321
-0.32949
0.406091
0.140837
-0.148767
0.30657
-0.158655
0.398784
0.0434977
0.0507616
0.0776105
0.315582
0.321292
0.0784838
0.209034
0.481154
0.3702
-0.383777
-0.0365494
-0.325112
0.512739
-0.153891
-0.299633
0.203584
-0.223203
0.240851
-0.0233847
-0.240645
-0.307327
0.146016
0.0121677
0.291558
0.38735
-0.407383
-0.129631
-0.435567
0.165506
0.190491
-0.123968
-0.164703
-0.171616
-0.130019
-0.372425
0.312464
-0.513464
-0.264739
-0.347711
0.170153
-0.266914
0.410058
-0.484013
0.0335099
-0.398939
-0.457954
0.329887
0.144849
0.30615
-0.441875
-0.30241
-0.154764
-0.165135
-0.511816
0.331546
0.374668
-0.0266812
0.309518
-0.131942
0.351431
-0.427301
0.434666
-0.122661
-0.568078
0.505557
-0.126923
0.306498
-0.00707233
0.43258
0.306857
0.353529
0.427567
-0.229894
0.0162835
0.36478
-0.278518
0.469461
0.277572
0.138877
-0.271825
0.49275
-0.203338
0.114913
-0.449263
0.100152
0.193461
0.258128
-0.240203
0.0217962
0.0243892
0.274326
-0.0205277
-0.112635
-0.369281
0.382874
-0.216609
0.473546
-0.172599
0.290219
-0.286043
-0.0973366
0.158918
-0.213198
-0.322819
-0.344374
0.452415
-0.228202
-0.242116
-0.0368527
0.100744
-0.286286
0.0609375
0.0956453
0.268131
-0.33839
0.352953
0.426823
-0.313012
-0.471373
-0.239882
-0.123977
-0.123646
0.2524
0.164809
0.157487
0.246105
0.131149
0.286798
-0.0463251
0.308581
0.47315
-0.0728621
-0.500468
0.102028
-0.316604
-0.118679
0.0522546
0.0467886
-0.11162
0.307922
-0.308206
0.110601
0.178298
0.414409
-0.385689
-0.00205297
-0.50808
-0.365983
0.20299
-0.533884
-0.141373
0.164181
0.29541
0.0379613
0.199174
-0.317935
-0.128688
-0.156614
0.461319
0.371907
0.587684
-0.625712
-0.315338
-0.470823
-0.36679
-0.534923
0.0477873
0.220124
-0.441794
-0.113905
-0.296099
-0.187139
-0.403783
0.212218
-0.125243
0.288741
0.351791
-0.419125
-0.328826
0.0864044
-0.194782
-0.256288
0.174179
-0.0339012
0.633914
-0.157329
0.539017
0.128274
0.391649
-0.109408
-0.183284
-0.36233
0.0566989
-0.563185
0.0858555
-0.165128
-0.388876
-0.541473
0.331989
0.353548
0.0799374
0.411747
0.403396
-0.00667472
-0.101314
0.197079
0.131259
-0.0346238
-0.208883
0.340951
0.147861
-0.415442
-0.0289906
0.000718059
0.038126
-0.181114
-0.378425
0.341773
0.306178
0.437931
-0.471893
-0.436084
0.218854
0.346347
0.222494
-0.119229
-0.184292
0.100018
-0.0556317
-0.3501
-0.414918
0.252789
0.314
0.338249
-0.357426
0.376113
-0.163715
0.274624
0.210343
0.0616097
-0.333202
-0.308137
0.163414
0.442133
-0.0882255
0.054555
0.26742
0.310851
0.181614
-0.132602
0.357086
0.173642
0.00472948
0.401553
-0.429817
0.0144397
0.0739938
-0.374536
0.00898923
0.192578
0.0608386
-0.509428
-0.185269
-0.213026
0.157673
0.363291
-0.206215
-0.0706797
-0.430007
0.199552
0.126146
-0.18035
0.225958
0.170896
-0.422113
0.147193
0.116834
0.0872764
0.21055
0.0678067
-0.290146
0.000156384
0.281992
-0.223625
0.211984
0.286631
0.0410329
-0.138305
0.442612
-0.268608
0.0789614
0.543463
-0.00105407
0.208353
0.0161645
0.227149
-0.24227
-0.365993
-0.416672
0.178312
0.038602
-0.31065
0.30328
0.51127
-0.118077
0.00490946
0.20061
-0.110044
0.216714
0.20312
0.263518
0.214426
0.0200146
-0.124656
0.306561
-0.591606
0.460309
0.0841842
0.13095
0.430417
-0.0942733
0.237396
-0.036395
0.5246
0.313017
-0.0803123
0.0235657
0.333681
-0.35936
-0.153061
0.325509
0.480859
0.126601
0.00250237
-0.246147
0.153472
-0.000879676
0.239899
-0.491914
0.384815
-0.387858
0.264943
-0.1068
-0.446613
-0.388395
0.0420985
0.333691
-0.33024
-0.0615002
-0.101565
-0.499655
0.189272
-0.379167
0.0661353
-0.183823
-0.423289
-0.365556
0.371181
0.12072
0.110402
0.111331
0.237302
0.24962
-0.192023
-0.0892469
-0.388828
-0.477257
0.0573223
-0.170159
-0.0164321
-0.131403
0.421557
0.422674
0.113174
-0.229249
0.218384
0.0163337
0.330005
0.544454
-0.484949
0.320582
0.00129438
-0.0132237
-0.219184
0.350452
-0.11091
-0.0492728
0.273425
-0.5096
-0.389531
-0.515145
0.0693328
0.00408561
-0.380316
0.132326
0.235637
-0.146842
-0.406985
0.0858959
0.11488
-0.0175753
0.421458
0.416632
-0.131624
0.327812
-0.266034
-0.0256677
0.263148
0.231323
0.391737
0.348097
0.268346
0.506499
-0.0610967
-0.228372
0.0524803
-0.346393
-0.333947
0.727535
-0.25849
0.521877
-0.182587
0.450201
0.435951
0.107945
0.468026
-0.299241
0.370786
0.14692
0.0417395
-0.0248969
0.168482
-0.464889
0.0302909
0.273223
-0.0970148
0.151627
0.0616953
0.0213826
-0.32796
0.127872
-0.168999
-0.344237
0.00858555
0.285859
0.402555
-0.20435
0.322721
0.2406
-0.294202
-0.112531
0.377691
-0.0188104
0.0780456
0.252766
-0.124581
0.125222
-0.377541
-0.147175
-0.0892269
-0.407992
0.00528289
0.27953
0.145543
0.0463776
0.31088
0.367375
0.0794543
-0.162021
-0.0416768
-0.373511
0.295424
-0.0536808
0.279397
0.38948
0.148854
-0.30812
-0.312109
-0.392752
0.199721
-0.330677
-0.0492491
-0.233622
-0.425906
0.165249
-0.130031
0.0645837
-0.463214
-0.302103
0.0783121
-0.16552
-0.194117
-0.208225
0.315523
-0.359734
-0.35204
-0.248612
0.457675
-0.391841
-0.251713
0.0257094
0.00308417
-0.0330656
0.45034
0.389714
0.268316
0.00940816
0.489835
0.18909
0.280759
-0.26209
-0.154661
0.416274
-0.207332
-0.387936
-0.481986
0.00511384
0.194258
0.0453217
-0.554903
-0.0456143
0.0591121
0.496518
0.236602
0.260471
0.180731
-0.499063
-0.42354
0.118656
0.271033
-0.231293
0.147129
-0.389585
-0.555356
0.0112727
-0.181439
-0.654935
0.156623
0.33889
-0.359319
0.220776
-0.998965
0.113199
-0.377214
0.24518
0.0168009
-0.648836
0.345962
0.23742
0.420905
0.0505722
0.0469037
-0.327835
-0.335546
-0.100596
0.7164
-0.413616
0.0504814
0.398123
0.277377
0.207148
-0.135368
-0.387696
-0.368981
0.435521
0.129338
-0.0374997
-0.344358
0.240708
0.0451257
-0.277587
-0.145457
0.181552
-0.227756
0.311309
-0.372761
0.265544
-0.342974
0.170794
0.172923
-0.383345
0.180496
0.340168
0.47334
-0.0628871
0.190928
-0.330134
-0.439089
0.281353
0.418656
-0.212375
-0.33805
0.316335
-0.068324
0.079466
-0.323137
0.48694
-0.248612
0.483543
0.529842
-0.253314
0.331752
-0.329758
0.0617464
-0.257595
-0.380715
0.28821
0.302678
0.53686
-0.259795
-0.428857
-0.0692128
0.0847157
-0.279312
-0.275565
-0.0231039
0.406456
-0.182589
-0.102905
-0.371277
-0.00137163
-0.413035
-0.160812
-0.114282
0.364521
0.167488
0.493181
0.0403831
0.152806
-0.291703
-0.278896
-0.258601
-0.0788552
0.380602
-0.315971
0.0614645
-0.248304
-0.197742
-0.56367
-0.0113419
0.429293
0.0420247
-0.0202784
0.383536
-0.347603
-0.240634
-0.103654
-0.105943
0.104172
-0.379506
0.123951
-0.294828
0.188073
0.0171429
-0.286021
-0.501037
-0.263104
0.0442301
-0.279727
-0.520362
-0.034795
0.0750006
-0.00306594
0.373384
0.168156
-0.352739
0.0643285
0.0940264
0.0648573
0.0294916
-0.146957
0.201613
0.301315
0.248447
-0.235761
-0.140701
0.14294
0.297631
-0.097629
-0.54551
-0.287122
0.0400475
-0.420381
0.463303
-0.0137498
0.4818
0.368252
-0.0837037
-0.216389
0.17846
0.311322
-0.263928
-0.390464
-0.686993
0.438471
0.0872614
0.335722
-0.202798
-0.145212
-0.307746
0.0296395
0.0828522
0.724872
0.44025
0.161529
0.643242
0.316546
0.474411
-0.143759
-0.244338
0.310015
0.286183
0.0761786
0.0359859
0.381107
-0.370511
-0.444842
-0.361259
-0.192336
-0.130388
0.125361
0.00610337
-0.105621
0.217257
0.033888
-0.402051
0.17156
-0.0676025
0.171647
-0.247132
-0.149345
0.516835
0.311358
-0.160149
-0.399979
0.204926
-0.137337
-0.0774674
-0.162495
-0.327245
-0.304971
-0.337417
-0.0178712
-0.0494041
-0.0189833
0.382284
0.448352
-0.492555
0.398398
-0.299622
0.233931
-0.0996367
0.153213
0.156559
0.370884
0.239261
-0.338638
-0.320326
0.2605
-0.482858
0.000189837
0.242034
-0.170476
0.275254
0.433251
0.491788
0.0652519
0.172259
-0.174127
-0.415713
0.474599
0.00210596
0.40916
0.19397
-0.378797
0.235939
-0.175464
0.124538
-0.461418
-0.435273
-0.194758
-0.101796
-0.0585751
0.174556
-0.399955
0.0441637
0.501232
0.558903
0.197054
0.00772403
-0.394515
0.455171
-0.439163
0.239327
0.497493
0.104283
0.156356
-0.297986
0.478933
0.211178
0.282222
0.165596
0.231473
0.0481549
-0.301033
-0.22367
0.46428
0.0744681
-0.331637
0.140862
-0.169966
0.0189559
0.436596
-0.263231
0.183502
0.373089
0.593825
0.28092
0.375564
-0.0225179
0.561533
-0.304629
0.376231
-0.328193
-0.22754
-0.0345311
0.0454005
0.315074
0.178052
0.250874
-0.0655063
-0.140389
0.475539
0.352903
-0.299087
0.133649
-0.0740582
0.299269
0.150355
-0.478636
-0.0572027
-0.0905566
-0.020973
-0.171417
-0.129539
-0.320958
-0.1083
0.247098
0.0225829
-0.323057
-0.373839
0.156607
0.164326
-0.250333
0.146784
0.332662
0.315664
0.136521
0.392397
-0.0105243
-0.312333
-0.0254025
0.423983
0.0298353
-0.259871
-0.315452
-0.00967786
0.398492
0.365998
-0.231114
-0.589806
-0.112936
0.216391
-0.441968
0.101241
0.121972
0.391472
-0.322338
-0.236347
-0.263297
0.462671
0.365097
0.440832
0.201744
-0.241722
0.264957
-0.23035
0.27697
-0.200002
-0.599254
-0.18129
-0.227819
-0.376982
-0.0324281
0.391982
0.308053
-0.267084
0.548821
0.0852814
0.0734834
0.352259
0.163652
0.264919
0.322895
0.437004
0.477177
0.346814
0.244715
0.354803
-0.167958
-0.223012
0.0540131
0.0749014
0.0122801
0.412508
0.077048
0.110479
-0.0413111
-0.453693
-0.133547
0.418327
-0.21688
0.019227
0.33188
0.292946
0.429063
-0.542242
0.322861
-0.091988
0.0806176
0.215376
-0.621537
-0.299319
0.0503186
0.367846
-0.150936
-0.518942
-0.140534
0.495518
0.143358
0.202635
-0.1371
0.348393
-0.0116889
-0.400617
-0.253243
0.213938
0.267549
-0.363049
-0.00336488
0.240162
0.0812799
-0.0712636
0.0396137
-0.343906
0.039563
-0.170403
-0.0575692
0.247791
0.247195
0.127958
0.0883949
-0.37727
-0.033783
-0.202314
-0.498338
0.0752389
0.345197
-0.220734
0.206558
-0.42715
-0.0290646
0.31425
-0.066713
-0.0321575
-0.331996
0.106066
-0.468083
0.20533
-0.422839
0.401528
0.401436
0.329965
-0.431296
-0.221235
-0.167219
-0.359623
-0.0341578
0.488707
0.268873
-0.428513
-0.378368
-0.505726
0.0437933
0.4245
-0.0401211
-0.136091
0.100594
-0.0825885
-0.0482702
-0.0525654
0.315832
0.236648
0.410087
0.207999
-0.0222927
-0.495029
-0.411392
-0.127948
0.0527952
0.0482253
-0.418241
0.566642
-1.01305
0.39015
0.302815
0.108978
0.046675
0.102929
0.437711
0.365241
0.488824
0.0861352
0.14427
-0.145583
-0.115413
0.666001
0.0241339
0.120618
0.131646
0.450143
-0.362936
-0.238886
-0.00823951
-0.131127
0.64865
-0.228111
0.16983
-0.23673
-0.588376
0.0437117
-0.274449
0.467378
0.160012
0.347044
0.178866
0.0314942
