#input normalization
0.160548 0.269441
48.754 51.4952
10.5141 38.5801
8.39842 31.9027
0.0115995 0.0431177
0.00931595 0.0331574
0.52601 1.31785
0.823961 1.14631
1.01646 1.32786
1.23048 1.51654
1.47696 1.68552
1.73 1.83539
1.9743 1.96587
2.21076 2.0781
2.43718 2.17557
2.63908 2.23007
2.83415 2.26984
3.01462 2.27938
3.15896 2.26461
3.28283 2.21551
3.38211 2.15303
3.46272 2.06189
3.51676 1.96916
3.54752 1.85503
3.5578 1.72878
3.54351 1.58884
3.49301 1.43749
3.43716 1.27838
3.34482 1.10378
3.22632 0.928516
3.11259 0.760479
2.99202 0.585453
1 -1
1 -1
#output normalization
1 0
#neurons weights
0.0345827
-0.129779
-0.25444
-0.28247
0.374945
0.137437
-0.182326
-0.0718243
-0.103908
-0.0375073
0.129927
0.31782
0.334274
-0.4616
-0.301857
-0.372359
-0.145341
0.280166
0.349349
0.276564
-0.273395
-0.00597095
0.0106282
-0.471904
0.285577
0.215362
0.328271
-0.140412
-0.176669
-0.366414
0.211609
0.396651
-0.0564
0.0841037
-0.0229911
0.505325
0.00189699
-0.742851
-0.142239
0.0227579
0.0333103
0.0897862
-0.110772
-0.522826
-0.344492
0.19055
-0.415894
0.128166
-0.470536
-0.100221
0.355256
-0.47768
-0.482339
0.293434
0.517792
0.32737
-0.141897
0.171549
0.200339
0.400246
-0.312091
-0.0404109
-1.13177
1.11384
-0.337665
-0.094701
0.54929
-0.508422
-0.0385269
-0.0964486
-0.272404
-0.435276
0.525847
0.180195
-0.43571
0.328826
-0.522166
-0.140361
-0.383195
0.342982
-0.162616
-0.447405
-0.0883265
-0.266678
-0.326232
-0.499893
-0.473866
-0.405197
0.285973
-0.0681899
-0.25524
-0.501513
-0.0971432
0.080835
-0.391191
0.366982
0.145238
0.075169
-0.0870418
-0.4519
-0.267759
-0.534876
0.361177
-0.0528331
#synapses weights
-0.331954
0.351926
0.0624575
-0.0731082
-0.00222647
0.0352516
0.989937
0.479731
-0.0547845
-0.356503
-0.277616
0.090202
0.387862
0.0695848
-0.424218
0.0768087
0.217449
0.406892
-0.333947
-0.104913
-0.214273
-0.105392
-0.000694717
-0.190552
0.346116
0.35726
-0.157553
0.183003
-0.203674
0.062812
-0.297811
-0.0923358
0.021253
-0.247646
-0.422337
-0.251871
-0.333911
0.0439393
0.279134
-0.229344
-0.231491
-0.671113
0.207097
0.472467
0.307529
0.133312
-0.405515
-0.401683
-0.104826
-0.12932
-0.120144
0.165354
0.403582
0.386843
-0.505416
0.412864
0.267199
-0.172446
-0.101141
0.176466
-0.357652
-0.332363
0.0287787
-0.390042
0.203481
-0.0488818
-0.485875
0.455765
0.116197
0.16668
0.417254
0.0473876
-0.256915
0.00467873
2.98941
-0.143072
0.0138174
0.12567
0.00820434
-0.124488
0.17453
0.110426
0.000312995
-0.0969319
0.0214921
0.166498
0.0766128
0.0680791
-0.146073
0.151569
0.0605516
0.268749
-0.00420828
-0.0503703
-0.115295
-0.0694675
-0.160309
-0.0371053
-0.0914734
-0.00409303
-0.351327
-0.107507
-0.448262
0.102415
-0.118812
0.195584
-0.0679974
-0.117615
-1.59511
0.313173
-0.670839
-0.451678
0.0207404
0.0940809
-0.376984
0.131519
-0.13
-0.203937
0.0854946
0.22822
0.248279
-0.175019
-0.0611563
-0.111179
-0.445037
0.397352
0.362622
-0.0905957
0.094874
0.0252893
-0.219455
-0.375634
-0.454545
0.357473
0.0796001
-0.00360913
-0.16934
-0.37131
0.391096
0.217488
-0.334877
-0.368569
-0.221438
-0.397989
0.12527
-0.339058
0.0979154
-0.484407
0.132897
0.294349
0.0936411
0.047593
0.00880102
-0.486962
0.394894
-0.409761
-0.404021
-0.343606
-0.286771
0.155294
0.216232
0.276515
0.276174
0.211676
-0.00447202
-0.398949
-0.4748
0.0740776
0.494154
0.478143
0.0244069
0.45189
-0.439508
0.0634786
-0.331915
0.550665
-1.36445
0.283043
-0.0435197
-0.39359
-0.11638
-0.114669
0.4478
-0.281391
0.548657
0.422319
-0.0967644
-0.301697
0.390659
-0.242848
0.229838
-0.00359935
0.414445
-0.277601
-0.231801
-0.198452
0.41179
0.0177855
0.502942
0.211805
-0.272983
0.0890565
-0.462527
0.293515
0.118271
0.0113202
-0.0821525
0.0279124
0.225667
0.111294
1.81916
-0.314342
-0.215496
0.340216
0.181107
-0.133355
-0.497302
0.262487
0.0417783
-0.225193
0.0131843
0.053727
-0.159282
-0.244528
0.412412
-0.190222
0.0548561
-0.304781
0.131887
-0.774975
0.15611
-0.0366676
-0.0837151
-0.131332
-0.575188
0.00883097
-0.18384
0.335337
-0.0488392
-0.289745
-0.0925584
-0.203805
0.419828
0.0700877
0.0969898
0.0203425
0.320179
0.106886
0.171539
-0.162724
-0.512505
-0.0112538
0.103112
0.0287013
0.336007
0.069878
0.042618
-0.454188
-0.0732887
-0.206214
0.359982
0.151122
-0.454217
0.276123
-0.094388
0.0577978
0.185791
0.0251489
0.0157148
0.438422
0.185071
-0.411176
0.298471
0.375459
0.190891
0.365209
0.0906302
-0.301872
0.641581
-0.140475
0.288706
0.143689
0.273093
-0.25617
-0.443032
0.326863
0.228989
0.302694
-0.250955
0.301052
0.385617
-0.222714
0.126819
0.36394
-0.0579539
0.408267
0.328115
-0.425686
-0.298615
-0.0779546
0.128948
0.325813
0.0941901
0.0166619
-0.0322431
0.373356
-0.365099
-0.200263
-0.297769
0.129979
0.0067827
-0.331848
-0.0922179
0.286618
-0.293394
-0.0718437
0.322248
-0.1293
-0.3399
0.299618
-0.570044
0.0231566
-0.460879
0.370879
-0.284977
-0.467575
-0.0246055
-0.0031344
-0.391894
-0.46447
0.0286368
-0.408625
0.0565935
-0.21367
0.15569
-0.257377
-0.311848
0.289554
-0.389099
-0.401269
0.522014
-0.313319
-0.151733
0.137219
0.348992
0.07896
0.214546
-0.0254709
-0.0875787
-0.388936
-0.507892
-0.519227
-0.348299
-0.130689
0.293269
-0.193274
0.463131
0.0328304
0.249802
0.385871
-0.00455571
-0.543805
0.0496918
0.175031
0.0155265
-0.456168
0.397951
0.371456
-0.466468
0.452867
-0.358094
0.220229
0.0522592
-0.283817
0.0579846
0.032957
-0.332104
-0.408818
-0.086594
-0.279815
0.969629
0.608438
-0.187023
0.104321
0.325226
0.156088
-0.501901
-0.144354
-0.0903771
0.178611
-0.400909
-0.203481
0.0871102
0.342347
-0.179041
0.0617029
-0.466053
-0.560781
0.270551
0.227018
-0.0147272
0.0256357
-0.161402
0.0479844
0.153423
0.353753
0.459094
-0.286603
-0.33641
0.19298
0.143437
-0.124455
-0.491045
-0.510812
0.108197
-0.935457
0.157871
-0.0834741
0.0527209
-0.209209
-0.0773382
-0.359554
-0.464081
-0.242465
0.167049
0.0922994
-0.137298
0.111623
-0.351466
-0.0377802
0.236056
0.340916
0.153997
0.127556
0.477861
0.0713112
-0.25402
-0.161275
-0.272388
0.205791
-0.0258508
-0.440823
0.0102205
0.221021
0.232273
0.4331
0.328501
0.0771763
0.115018
-0.0251007
0.354682
-0.187512
0.151624
0.286694
-0.102624
-0.354813
0.422248
0.196315
0.355162
0.0981824
-0.135613
-0.418294
0.381834
0.0863068
-0.45147
0.237719
-0.419765
-0.289531
-0.257248
-0.339561
0.0236255
-0.390434
-0.0463748
-0.315585
-0.493732
-0.426025
-0.473446
0.316225
-0.371061
-0.226682
0.0805366
0.583963
-0.422571
0.143775
-0.124171
0.152281
0.00754136
-0.240132
0.0950453
0.0165629
-0.143839
0.523664
0.076509
-0.270119
0.319073
0.597341
-0.340698
-0.164348
0.478914
0.479304
-0.382449
0.417581
0.326934
0.308732
0.235259
0.202238
0.547684
-0.461697
0.149443
-0.389158
-0.116539
0.229971
0.483698
-0.349972
0.0785957
-0.0593192
0.817202
-0.89104
0.173089
-0.174863
-0.194352
0.127654
0.225445
-0.0585708
0.0540468
0.209603
-0.179547
0.198376
-0.103641
-0.212819
-0.0839483
-0.0640219
0.295685
-0.164167
-0.217963
0.462694
0.137866
0.325231
0.0424839
-0.00690043
-0.494678
0.480812
0.489626
-0.424979
-0.199173
0.102151
0.162232
0.0815779
-0.141861
-0.15981
-1.07994
0.240232
0.287722
0.164011
-0.0290139
0.140429
0.296957
-0.124782
-0.171114
-0.159793
-0.236082
0.126737
0.178925
-0.348918
-0.0286741
0.352802
-0.346173
-0.263189
0.6205
0.0956564
-0.183528
0.0305128
-0.274675
-0.136022
-0.0933216
0.432782
-0.43305
0.163562
-0.116648
-0.304763
0.0205809
0.098363
-0.0521658
-0.429777
0.103201
-0.463481
-0.198519
0.42162
0.080031
-0.156465
0.201575
-0.0271702
-0.155879
-0.0866526
-0.376899
-0.31767
-0.565882
-0.0256167
-0.156121
0.215246
-0.0517382
-0.254945
-0.492184
0.401841
0.0517245
0.0572359
0.271774
-0.47407
0.256873
0.0692322
0.494789
-0.0115436
0.253739
0.371267
0.36676
-0.0524905
0.461336
-0.0187124
0.111537
0.137543
0.193374
0.286758
-0.243048
0.0146482
0.231519
-0.109025
0.392088
-0.109422
-0.299099
-0.37251
0.231836
0.443179
-0.185701
0.0143622
0.312629
0.309424
-0.136679
0.0721905
0.341284
-0.208218
0.484344
-0.375007
0.239875
-0.186012
-0.343856
-0.406553
-0.105571
0.421411
0.394644
0.197418
0.203529
0.427447
-0.503897
0.33383
-0.0651828
-0.170505
0.206132
0.0884666
-0.307455
-0.256074
-0.30326
-0.07374
0.245667
-0.465847
-0.317133
-0.144443
-0.122489
0.113612
0.286465
-0.429837
0.231036
-0.253813
0.33611
-0.36004
-0.427755
-0.257165
-0.242667
0.0521792
0.22292
-0.473249
-0.422951
-0.0465357
0.409227
0.0248946
-0.260863
-0.431184
0.236168
0.0653349
0.634497
0.0945652
0.520094
0.460396
-0.188449
0.409067
-0.0343113
0.472414
0.108437
0.320572
0.531544
-0.249502
0.323756
-0.316514
-0.153591
0.0932597
0.206161
-0.258833
-0.2661
0.452327
0.0524131
0.187692
0.0476584
-0.0342367
-0.0458717
-0.312289
0.48728
0.192329
0.371552
0.468967
-0.485659
-0.0501819
0.037759
0.485015
-0.165825
0.290159
0.206479
-0.163318
-0.195602
0.178294
-0.514672
-0.0125324
-0.138976
-0.455694
0.186125
-0.00706802
-0.237065
0.385055
-0.232854
-0.294667
0.42061
-0.496139
-0.483184
0.184934
0.248214
-0.200532
-0.241958
-0.0378251
-0.467121
-0.233899
0.270722
-0.171203
-0.129707
0.646565
-0.168544
0.274332
-0.668152
-0.220379
-0.314869
-0.508343
-0.162693
0.373018
0.460868
-0.24443
0.457714
0.266534
0.230546
0.0802329
-0.208315
0.457781
-0.105382
-0.241559
-0.232064
0.318986
0.110805
0.198248
-0.129227
0.309749
0.0737607
-0.324741
-0.0697498
0.190588
-0.444734
0.250261
0.319891
-0.0858811
0.0822163
0.0468182
0.315312
-0.0202066
0.170231
0.42091
-0.0364661
-0.0133962
-0.19549
-0.297521
0.221998
0.391711
0.403687
-0.565807
0.549364
-0.286292
0.402143
0.038311
-0.0865477
-0.493169
0.200474
0.0288626
0.360674
0.224963
0.0858375
-0.504723
0.0655596
-0.381382
0.341199
0.109356
0.0193826
-0.317011
0.195638
0.148331
0.0493719
0.384694
-0.192428
-0.192012
-0.177563
0.461723
0.0734902
-0.388568
-0.00966468
0.122927
-0.0725125
-0.321813
-0.431592
-0.0740366
-0.23155
-0.315459
-0.00160503
-0.261697
-0.250812
-0.42041
-0.44626
0.00137091
-0.406191
-0.112248
-0.34466
0.0429543
0.0676348
-0.0777269
0.274029
0.374113
-0.167497
0.480539
0.268725
-0.226832
0.0330878
-0.464841
-0.374639
-0.211332
-0.228276
-0.394587
-0.215492
-0.439663
0.402289
0.314917
0.102523
0.294333
0.197644
0.15175
-0.0590015
-0.0484679
-0.336857
-0.284201
-0.378773
-0.0333776
-0.331974
0.00323173
0.154585
0.203728
0.0751475
-0.252656
0.0821302
0.210672
-0.379019
0.055415
-0.0448093
-0.364038
-0.168073
-0.299185
0.59215
-0.296729
0.392067
0.150568
0.466045
-0.26142
0.232304
0.417502
0.189576
0.192667
-0.0277102
-0.100869
-0.344439
-0.296944
-0.40527
-0.349781
-0.443306
-0.287549
-0.138378
0.327684
-0.48288
-0.0358505
0.0613491
-0.191279
-0.0872522
0.111092
0.400261
-0.229057
0.40863
-0.325206
0.04475
-0.472036
-0.312794
0.384274
-0.528376
-0.124374
-0.0503615
0.144288
-1.65563
-0.819131
-0.847628
-0.309289
-0.0903428
0.0687097
-0.483045
-0.043796
0.185885
-0.264127
-0.366423
-0.133868
0.53079
-0.299913
0.181086
-0.185038
0.0108428
-0.138991
0.28612
0.0862611
-0.410216
0.184868
0.000467507
-0.193331
0.378626
-0.175152
-0.138369
0.101009
-0.0325142
0.0437246
-0.0341647
0.138662
-0.325113
0.0887994
-3.04597
-3.9014
-0.109727
-0.148157
0.214762
-0.00421527
0.0709912
-0.0275876
-0.0310722
0.24021
-0.103094
-0.087546
0.0498354
0.0417441
-0.102886
0.155309
0.0121525
-0.19072
0.0512215
-0.0344345
-0.0991948
0.255728
0.0185287
0.104027
-0.205815
0.0886337
-0.140399
-0.156054
0.405833
0.0760837
0.0425907
-0.026802
-0.227602
0.188778
3.05865
3.29323
0.302749
0.100269
0.451956
0.101633
1.22034e-05
-0.0753589
0.205318
0.184266
-0.0460905
-0.0962061
-0.0609034
0.0966774
0.240152
0.00106728
0.090302
-0.336226
-0.0991634
-0.106795
-0.155712
0.476595
-0.162575
0.0544512
-0.277197
0.0756788
-0.256678
-0.434429
0.233533
-0.15996
-0.0269432
0.0428822
-0.201552
0.0535539
0.758301
0.662827
-0.244409
0.0579627
0.373473
-0.108339
-0.125518
-0.0732711
0.190691
-0.346738
0.414446
-0.221928
0.0582969
-0.321043
-0.347197
0.201413
0.294964
0.279006
0.385178
0.165188
0.0289298
-0.279521
-0.156594
-0.178863
0.128393
0.18257
0.00520147
-0.493341
-0.469545
0.0925357
-0.302298
0.110603
-0.399595
-0.0161195
-0.390202
-0.369561
-0.0186305
0.637497
-0.330901
0.321647
-0.239955
0.0769049
0.262007
-0.378432
0.077465
0.357318
0.20688
-0.301568
0.29031
-0.252667
0.162289
0.460455
0.132502
0.242372
0.172123
0.40666
0.269578
-0.375235
-0.401693
0.0534935
0.0102828
0.140335
0.171516
0.35246
0.149977
-0.109494
0.134605
-0.0362184
2.17812
0.196085
0.712784
-0.340096
-0.0127486
0.264795
0.414101
-0.185859
0.183899
-0.22566
-0.320945
0.0222948
0.322725
0.172233
0.0386495
0.146228
-0.341173
-0.342534
-0.01475
0.136682
-0.607563
-0.338829
0.0616548
-0.0117446
0.10222
-0.259595
-0.301158
-0.192316
0.00409972
-0.416096
-0.581513
0.301358
0.310177
0.351671
-1.17207
-0.492985
-0.31769
0.33328
-0.249374
0.291428
-0.194689
-0.383321
0.164975
-0.13302
0.130674
-0.16412
-0.202348
-0.09985
0.0710281
-0.271946
-0.168952
0.173652
0.595424
0.230806
-0.212787
0.280472
0.186357
0.30972
-0.0094966
0.215953
0.471713
-0.0633398
-0.468628
-0.078744
0.2721
-0.109471
0.0720763
-0.428814
0.258629
0.145842
0.289737
-0.0663796
-0.251165
0.245437
-0.144159
-0.177172
-0.415473
-0.567831
-0.58432
0.197285
-0.270881
0.263575
0.134598
-0.0863525
-0.368755
-0.0569659
-0.4682
-0.0531249
-0.0777096
-0.114894
0.46779
0.20914
0.15941
0.546148
0.272534
-0.343928
0.429018
0.240521
0.639439
-0.412107
-0.0408335
-0.26831
0.717016
-0.0655116
0.0378377
-0.0713896
0.122169
0.16918
0.601546
0.154052
-0.261801
0.425981
-0.351745
0.379769
-0.0479877
-0.570123
0.430587
-0.0777976
0.201604
-0.315026
-0.170041
0.42604
0.0797108
-0.265201
-1.15201
0.920393
0.091895
0.0422191
0.558627
0.0808649
-0.407825
0.329255
-0.00491418
0.0758462
0.125606
0.112952
0.211186
0.523432
0.0992455
0.268694
0.0746462
-0.232324
-0.143564
0.17987
-0.426441
-0.186189
-0.164069
0.124055
-0.273113
0.303422
-0.531771
0.128508
0.388351
-0.247931
0.321911
-0.147622
0.350945
-0.037912
-0.44155
0.115325
0.531703
0.217066
-0.594241
0.0672149
0.36405
0.27775
0.190134
-0.304543
-0.019624
0.138146
-0.361307
0.0904394
-0.345184
-0.00755904
-0.212556
-0.194079
0.189284
0.185246
0.533283
-0.0879378
-0.299492
-0.417964
-0.248062
-0.00244294
-0.323355
-0.249263
-0.398396
-0.363767
-0.154727
-0.309856
0.244495
-0.283661
0.236292
-0.418079
-0.490146
0.239766
0.389184
-0.242612
-0.219766
0.263657
0.365432
0.529024
-0.199651
0.158417
0.222879
0.368268
-0.301815
0.626178
0.342487
0.152383
-0.277398
0.489811
0.433922
-0.205429
-0.334201
-0.243948
-0.295332
-0.130187
0.0700977
0.423997
0.198419
0.222843
0.604207
-0.407024
0.104223
0.247937
-0.186592
0.666149
-0.390891
0.174708
0.0174493
-0.133397
-0.335737
0.694058
-0.380871
0.0138241
0.168174
-0.569147
0.401277
-0.357803
-0.445032
-0.409399
-0.157906
0.352911
0.349854
-0.15956
-0.305594
-0.489259
-0.217027
0.0724248
-0.147575
0.0541984
-0.465054
-0.231379
-0.26193
0.246925
0.0501018
0.0429807
0.266619
-0.0691324
-0.340183
-0.109571
0.104379
-0.0760643
0.431041
0.0940295
-0.175779
-0.216163
0.212761
0.298698
0.230079
0.495967
0.349779
-0.311276
-0.162586
0.166168
0.323828
0.345212
-0.0732905
0.167718
0.0817062
0.0394276
-0.165147
-0.250016
0.377648
-0.230433
0.121068
0.0665075
-0.187762
0.256478
-0.377485
0.284843
0.10315
-0.469377
0.0186573
-0.36689
0.394535
-0.239647
-0.411628
0.36809
0.332122
0.332133
-0.408916
-0.157106
-0.292808
0.0526456
0.13573
0.47097
0.00333055
0.122428
-0.255216
-0.225739
-0.0543859
-0.200646
-0.105366
0.131926
-0.125851
-0.172904
0.184915
-0.310658
0.1909
-0.296402
0.0240901
0.0337339
0.382964
0.534896
0.26428
0.480381
-0.421476
0.0987365
0.206542
0.267016
-0.255164
0.00649787
0.125329
0.408587
-0.0101844
-0.274055
0.327898
-0.0893733
0.311883
-0.424202
0.206792
-0.262961
0.372679
0.417834
0.057005
-0.179005
-0.369528
-0.619352
-0.334123
-0.690892
-0.518096
-0.404428
0.00440626
-0.469037
-0.669361
0.131014
-0.161487
-0.00206725
0.344769
-0.213494
-0.72736
0.263475
-0.333411
-0.647357
0.129115
0.0478577
0.455153
0.953577
-0.850915
-0.267936
0.331483
-0.487229
0.231633
-0.302662
-0.095626
-0.311941
-0.384925
0.038354
0.176767
-0.2179
0.377609
-0.336743
0.453918
-0.169829
0.320386
-0.119368
0.146558
0.286679
-0.103617
0.129889
0.353748
-0.259027
0.142227
-0.0710879
-0.35598
0.434015
0.381985
0.0182167
-0.446925
0.423635
-0.412034
0.0783682
-0.0863149
0.552333
0.311057
-0.223161
0.043162
-0.0315768
0.192222
-0.155128
0.474608
-0.428483
0.170429
0.480608
-0.030885
0.258161
0.356209
-0.233303
0.204991
-0.433495
-0.193373
0.0333786
0.267444
0.190312
0.428932
0.358083
0.334558
-0.0832019
0.127003
0.115206
-0.24098
-0.340704
-0.254247
-0.194677
-0.173016
0.424644
0.321496
0.104196
-0.334957
-0.168833
0.313529
-0.0100142
0.0483443
-0.216123
0.160337
0.326413
0.638763
-0.144396
0.41064
0.226242
0.139135
-0.480571
-0.365096
-0.228376
0.179568
-0.0254999
0.111501
-0.360122
-0.112621
0.544985
0.257725
0.330186
0.31441
0.0125938
-0.195408
-0.212246
-0.322793
-0.0135163
-0.0975262
-0.17458
0.570825
0.227268
-0.541336
0.370658
0.423052
-0.491522
-0.329828
-0.106898
-0.171434
0.321297
0.353567
-0.156539
0.257324
-0.142713
0.37856
0.0752618
0.0216341
0.0414991
0.222267
-0.141487
-0.0894456
-0.196357
0.216726
0.435007
-0.328831
0.49971
0.0908372
0.195806
-0.123731
-0.340281
-0.197612
0.0516563
0.168717
-0.24531
-0.123903
0.358465
0.329918
-0.174459
0.322201
-0.258466
0.210554
0.438088
-0.380023
0.413798
-0.339643
0.458099
-0.538014
0.281855
-0.00960872
0.0636021
-0.205175
0.227487
-0.210709
0.212138
0.0483425
0.191146
0.306654
0.257532
-0.205669
-0.100662
-0.253583
-0.00582705
-0.191817
0.0642413
-0.330528
0.304515
0.507743
0.384159
-0.232586
-0.406201
-0.149042
-0.391195
0.399657
0.189587
-0.349075
-0.23983
0.477203
0.0105639
-0.284344
0.179183
0.087221
-0.129105
-0.112141
-0.114302
-0.223189
-0.144149
0.203749
0.382859
-0.169228
-0.353307
0.416795
0.121362
-0.0625248
-0.135072
0.337023
0.40829
0.159837
-0.280927
0.129365
-0.525498
0.177181
-0.37381
-0.144093
0.0870146
-0.428172
-0.414298
-0.308514
-0.283483
0.436313
0.107779
0.198519
0.0336534
0.286766
-0.50257
0.139972
0.409584
-0.185454
0.110558
0.13513
-0.290023
-0.342866
0.413722
-0.261756
-0.297472
-0.396125
0.245627
-0.444672
-0.193481
-0.305764
-0.468822
0.0589568
0.0867553
-0.0317325
-0.385485
-0.158693
-0.16152
0.399221
0.0139588
0.10789
-0.419949
0.441817
0.110895
-0.193541
-0.208261
-0.391188
-0.396524
-0.342428
-0.13666
-0.478204
0.0637191
0.227349
0.587852
-0.371079
-0.125806
-0.381483
-0.105082
0.33264
0.12312
-0.0956771
-0.419838
-0.004382
-0.283228
0.0719045
0.37149
-0.180395
0.266351
-0.4679
-0.0445636
0.021778
-0.291081
0.203627
0.254543
0.330371
-0.156494
0.527085
-0.429283
-0.265207
0.200301
0.289424
-0.264901
0.112857
-0.270823
-0.276755
-0.0129489
-0.0906718
0.210573
-0.188358
0.404921
0.300684
-0.0846755
-0.598201
-0.00445244
-0.606636
-0.503655
0.268028
-0.59823
-0.340384
-0.411168
0.0463013
-0.00651768
0.279709
0.405663
-0.210169
-0.140024
-0.19041
0.14063
-0.4807
-0.582908
-0.0288263
-0.411571
-0.491869
0.600693
0.84825
-0.0183487
-0.184467
0.194955
-0.664265
-0.458505
-0.535311
0.217649
-0.511627
-0.738778
0.247725
-0.0414991
0.0249376
-0.272588
-0.302979
0.159023
-0.552428
0.157456
0.106486
0.0969895
0.229535
-0.0221568
-0.722835
0.16374
-0.122078
-0.11429
-0.274346
0.377914
0.00395776
0.176262
0.340539
0.0430086
0.25722
0.0835742
-0.0872844
0.692049
-0.379423
0.149629
0.49387
-0.352279
-0.124098
-0.369539
0.513751
0.213459
-0.599348
-0.149716
0.413265
-0.373424
0.126479
0.185834
-0.130133
0.294344
-0.012666
0.332048
-0.283124
0.200619
0.290572
0.227369
-0.271713
0.44884
-0.225198
-0.40294
-0.203818
0.065745
-0.029489
0.00579717
-0.0158917
0.102294
-0.178713
0.482574
0.270406
-0.4021
0.109326
-0.0505278
0.400743
-0.0791084
0.284092
0.0936462
0.285033
0.338967
0.148998
0.125351
-0.44066
0.343048
-0.366019
-0.271228
0.140302
-0.208505
0.250974
0.0565435
-0.0867099
0.623545
0.413205
-0.40169
-0.254655
0.00118008
0.0911107
-0.115732
-0.0692686
-0.0027948
0.125693
-0.161751
0.424638
0.163773
0.00843307
-0.00404524
0.458437
0.454277
-0.159263
0.703765
-0.255608
0.331234
0.226323
0.0564606
-0.319435
-0.192701
-0.520372
-0.258056
0.0100051
-0.324101
-0.0158671
0.367178
-0.357088
-0.208823
0.0839212
0.369503
0.311512
0.289451
-0.513546
0.316689
0.0260145
0.0790974
0.0424185
0.0315944
0.332488
0.202028
0.444681
-0.0322276
-0.351195
0.111182
0.217396
0.225756
0.164198
0.407273
-0.305338
0.0551212
0.0227909
-0.112813
0.389115
-0.440517
0.47803
-0.446918
0.113885
-0.401571
0.0732853
-0.572094
-0.132462
-0.272927
-0.208535
0.0889593
-0.297095
-0.285068
-0.63295
-0.31557
-0.131254
0.214238
-0.310701
0.298886
-0.072436
-0.451915
0.0572059
0.422506
0.210524
-0.506575
-0.50196
0.615563
-0.561023
0.116511
-0.0405204
-0.182042
-0.121846
0.0472003
0.199874
0.331682
-0.424528
0.165627
-0.0677671
0.141325
0.266925
0.258859
-0.196577
0.0484085
-0.346998
0.372634
0.00629799
0.224283
-0.0858811
0.428851
-0.198172
-0.463335
-0.274304
-0.205491
-0.0698248
-0.339085
-0.332924
-0.308186
0.337521
-0.210866
0.476667
-0.228879
-0.410654
0.327969
0.101826
0.361585
-0.2745
-0.31658
-0.381906
-0.402986
-0.10092
-0.167343
0.216135
-0.363636
0.258584
0.326371
0.539636
-0.220561
-0.214228
-0.181622
-0.181124
-0.121728
0.462047
-0.362853
-0.120053
0.0675009
0.167644
0.158545
0.415928
0.0674565
0.413788
0.0809422
-0.369916
-0.0675164
-0.0446518
0.0552197
-0.189066
0.349179
0.195832
-0.307415
0.302057
0.334773
-0.0832106
-0.0100726
0.110681
0.25184
-0.370755
0.0145907
-0.557625
0.054975
-0.128684
0.276235
-0.0654049
-0.324976
-0.296718
0.516459
-0.335197
-0.196568
-0.170923
-0.166749
-0.0636966
-0.168672
0.47013
-0.152804
-0.427853
0.224073
-0.555257
0.439314
0.186007
-0.680768
0.497637
-0.7368
-0.496878
-0.00527871
0.209823
0.144924
0.115606
0.079848
0.226411
-0.161515
0.157822
-0.461536
0.267179
-0.271892
0.105318
-0.169378
-0.00769045
0.169544
0.309663
0.150081
0.270891
-0.506694
-0.0923009
-0.308713
-0.0241362
0.0172524
-0.186465
0.402775
0.147618
-0.342455
-0.165787
-0.313479
-0.506168
-0.0627903
-0.324668
0.178107
0.478729
0.783329
-0.647473
0.139333
-0.0540103
-0.802548
0.44012
-0.211007
0.204519
-0.305631
0.431478
-0.479147
0.434164
0.413784
-0.475077
-0.251845
-0.122476
0.347267
-0.386589
-0.178421
-0.297508
0.377452
-0.0576014
0.283672
-0.242073
0.108854
0.484802
0.175534
0.412279
0.297877
0.474311
0.506886
-0.449849
-0.358571
0.418483
-0.157534
0.205162
0.243181
0.038398
0.278124
-0.267606
0.279245
0.121361
0.317893
-0.134495
0.508628
-0.234953
-0.393328
0.0080496
0.0114924
0.172269
-0.260438
-0.118637
-0.00639824
-0.213911
-0.559835
0.431941
0.15939
-0.362036
0.362748
0.0497317
-0.194764
-0.102046
-0.0858969
0.195146
-0.273581
-0.332218
0.164515
-0.248169
-0.478816
0.387779
-0.359981
-0.377139
-0.071779
0.43062
-0.109931
-0.342995
-0.19374
-0.474792
-0.334617
-0.0506556
-0.365784
-0.482242
-0.122824
-0.358197
-0.495264
0.287362
0.270398
0.234486
-0.211447
-0.185027
0.367643
-0.0865445
0.555176
-0.0258706
0.190216
0.108471
0.100316
-0.0854134
-0.263929
-0.207042
-0.32664
0.0476695
0.0883387
0.430576
-0.117203
-0.184291
0.340905
0.47199
0.259058
0.247913
-0.424627
0.0252638
-0.154586
-0.544088
-0.112261
0.271242
-0.0904289
-0.106888
-0.628466
-0.0702081
-0.0476455
0.401855
0.408654
0.262311
-0.313947
-0.3572
-0.212447
0.351502
0.0687787
0.0732367
-0.0405515
-0.147606
-0.380621
0.234891
-0.127156
0.369457
0.0984368
-0.389481
-0.357814
-0.0330611
0.22156
-0.165721
0.165355
0.328584
-0.579353
0.251447
0.439803
0.432108
0.321253
0.0715627
0.0763063
0.00832264
-0.138641
0.0920589
0.0377863
0.268781
-0.307095
0.338438
-0.528849
0.412364
0.459914
-0.435936
0.534756
0.1481
0.194844
-0.0848625
0.165076
0.214254
-0.391368
0.214882
0.205997
-0.566337
0.43827
-0.286046
0.0575432
0.441377
-0.293067
-0.346621
0.110812
0.200259
-0.455382
-0.460993
-0.338193
0.211674
0.313135
0.0747665
0.523897
0.537798
-0.274768
-0.02654
-0.0953751
0.438401
0.183984
0.181992
0.0326422
0.349544
-0.549708
0.19572
0.141804
-0.407503
0.458216
-0.112209
-0.0387688
0.247453
-0.224773
0.42809
-0.0141215
0.25305
-0.0257822
-0.433817
-0.16377
0.293949
0.17197
-0.324054
-0.528703
0.163893
0.433694
0.238861
0.232318
-0.409601
-0.117982
0.259155
0.201127
-0.239495
-0.0513357
-0.440556
-0.30641
-0.282344
0.100401
-0.0434478
0.500859
0.264166
-0.129543
0.142959
-0.387736
0.500218
-0.410876
0.338394
-0.0534662
-0.0902813
-0.256727
0.215783
-0.247934
-0.236152
-0.2317
0.495617
0.0429047
0.488616
-0.405149
-0.00774569
0.234558
0.306856
0.187382
0.548547
-0.0155112
0.31104
0.0569614
0.259567
0.087668
-0.0612092
0.500073
-0.025461
-0.0711512
0.615531
-0.298661
0.201363
0.334598
-0.0033005
0.340727
0.346434
-0.0799188
0.414805
0.0464376
-0.0689271
0.0621141
0.194104
-0.439041
-0.093309
0.346862
0.111491
-0.0511488
-0.138308
-0.17719
0.383127
0.259398
-0.191266
-0.0931274
-1.02128
0.292221
0.246526
0.401169
-0.0327865
0.379652
-0.184543
0.588707
0.298936
-0.253461
-0.269889
-0.045231
0.169888
0.162281
-0.0269705
-0.453151
0.590878
0.247669
0.631581
-0.213088
0.397916
0.438472
0.471452
-0.117953
0.523974
0.177043
0.0803229
-0.530459
0.392999
0.0724409
0.330764
-0.388879
0.317958
-0.337673
