#input normalization
0.160824 0.275747
55.641 64.5408
8.60555 34.7606
7.46029 30.6837
0.0104647 0.0429823
0.00832295 0.0347387
0.21457 1.02665
0.533212 1.14066
0.852666 1.36931
1.13865 1.63835
1.46435 1.89174
1.78915 2.15166
2.10761 2.39957
2.41202 2.62478
2.72319 2.83431
3.01545 2.99877
3.29373 3.13162
3.57158 3.24822
3.84437 3.32862
4.04871 3.35529
4.2502 3.35481
4.41494 3.30785
4.54863 3.24347
4.66562 3.16514
4.75954 3.06024
4.79268 2.91925
4.80181 2.75208
4.77968 2.56603
4.69819 2.33975
#output normalization
1 0
#neurons weights
-0.455026
-0.0905699
0.0420168
-0.381165
-0.443988
-0.241352
-0.105983
0.218616
0.0984933
-0.329827
-0.30145
0.0463045
-0.133274
-0.343499
-0.382927
0.323424
-0.40111
0.0419563
-0.248694
-0.357953
0.328147
0.173446
-0.208697
-0.351056
0.226847
-0.14925
-0.297698
0.113121
0.0371548
0.683363
-0.243139
-1.00431
0.276847
2.83799
1.85181
0.450128
1.37916
0.0997618
-3.12079
2.54358
-1.86121
0.094656
0.525359
-1.10295
-5.10786
-0.355272
-0.24302
-1.63262
0.523023
0.584469
1.8555
-0.652508
-0.321384
-0.190056
2.03822
0.915676
-0.15299
-2.91381
0.555478
-0.0365808
-0.734554
0.306281
-0.201597
0.591216
0.129556
-0.396131
-0.503932
0.474959
-0.247507
-0.489272
0.0558321
-0.332354
0.392529
0.643936
-0.579929
-0.34605
-1.24592
-0.44167
-0.0481246
-0.442877
-1.98704
0.63175
0.178417
-0.415998
-0.442448
0.472528
0.0408916
-0.176737
1.09072
#synapses weights
-0.0103609
-0.538724
-0.167268
0.117717
0.547923
-0.566094
0.326277
1.08113
0.0295671
0.316592
-0.0160708
-0.438521
-0.345871
-0.500749
-0.50011
0.179589
-0.396093
-0.228976
-0.0346723
-0.231218
0.300208
0.69538
0.439387
0.0571214
0.245125
-0.719162
0.251272
-0.640188
-1.02168
-0.245611
-1.41549
-0.183151
0.0971209
-0.98024
-0.538826
0.0766968
0.0290733
-0.390093
-0.573201
-0.42946
-0.54294
-0.415106
-0.587078
-1.10256
-0.588056
-1.06851
-1.16108
-1.26267
-0.721272
-1.16987
-1.12779
-0.609399
-0.714105
-1.0125
-1.453
-1.29169
-1.12074
-1.07371
0.563212
0.902851
0.510106
-0.0317529
-0.71737
0.457976
0.571915
-0.113775
-0.405561
0.35739
0.279628
-0.299448
0.368148
0.470337
-0.210808
0.218935
-0.0416261
0.0182781
-0.452632
-0.0481895
0.357566
0.336926
0.310428
-0.122005
0.295407
0.0198747
-0.174089
-0.038275
1.05036
0.112491
0.48856
0.168081
-0.0251233
0.00676586
0.0932063
-0.0903047
0.7732
0.416444
-0.221758
0.209848
0.00132492
0.399335
0.534984
0.712361
0.863458
0.740145
0.925077
0.307362
1.06105
0.641132
0.996461
0.520132
0.804021
0.891986
1.06596
0.782093
0.680442
0.121445
-0.454053
-0.46198
2.16414
-1.31653
0.876917
0.471423
-0.48102
-0.0938688
0.439571
0.040509
-0.207223
0.16869
-0.0132656
-0.0696424
0.0119084
0.375978
-0.772508
-0.0444479
-0.228748
0.187205
0.714583
0.187167
-0.280625
0.877029
-0.26796
-0.0742235
-0.746287
0.0127483
-0.286343
0.421096
-0.915037
0.791147
-0.0148017
0.425007
0.25304
-0.478287
0.675395
0.124324
0.170578
-0.069059
-0.500645
0.0734558
0.424862
0.455336
0.57149
0.0132369
-0.44078
-0.248021
-0.0242459
-0.215646
-0.134724
0.0224798
-0.508326
-0.416037
-0.138051
-0.723006
-0.524792
-1.0071
0.101517
-0.643762
0.691251
-0.373257
0.0304826
0.250655
0.270124
-0.00812967
-0.1566
0.198587
0.140366
-0.614834
-0.691121
-0.590422
0.152173
-0.451412
-0.530814
-0.00950648
-0.631829
-0.715502
-0.377458
-0.152084
-0.217839
-1.02898
-0.848017
-0.467293
-1.25406
-0.882204
-0.806732
-0.185868
-0.702676
0.235816
-0.37237
-0.308065
0.456266
-0.100166
-0.70791
0.112654
-0.338155
0.227001
0.585335
-0.479351
-0.0254811
-0.0560695
-0.134107
-0.114331
0.018146
0.465603
0.289271
-0.145085
1.15073
-0.939112
0.479801
-0.0425345
-0.777812
-0.469326
-0.129627
-0.806147
0.186326
0.714415
-0.128482
0.0628392
-0.344508
0.51867
-0.134421
-0.10378
0.948205
-0.192971
-0.0723598
1.16906
-0.432901
0.0648065
0.154987
0.0903293
0.344002
0.121947
0.321148
0.0456626
-0.468399
0.424283
-0.147673
0.178953
0.160986
0.0810841
-0.0279707
0.295787
0.0850013
0.379136
-0.20009
-0.648137
0.730033
0.254293
0.792132
-0.0164126
-0.126903
0.267922
-0.229807
-0.0409378
0.321885
0.0256248
0.171665
-0.273104
0.172278
0.678476
-0.454867
-0.186141
0.336721
-0.0392273
0.159426
0.0983722
0.0314772
0.0796493
0.012282
0.372208
-0.16753
0.443639
-0.346944
0.271526
-0.29821
-0.448575
0.281313
0.01115
-0.151232
0.461734
-0.107448
0.167858
0.4047
-0.366565
0.381528
-0.289651
-0.401663
0.343433
0.626482
-0.651163
-0.689479
0.0500954
0.279523
-0.578209
0.138719
-0.175445
-0.112472
0.310839
-0.166924
-0.196119
-0.641366
-0.254731
0.161079
-0.643553
0.567045
0.438092
0.151143
-0.255026
0.118246
-0.257216
0.567807
0.581206
-0.163062
-0.131168
-0.343356
0.566589
0.331207
-0.303208
0.0231433
0.362555
-0.779721
0.321642
0.247608
-0.513303
0.373893
0.0744185
-1.03344
-0.222864
0.4416
0.50731
-0.124375
1.26653
-0.303426
0.220608
0.054254
0.516859
0.2106
-0.27389
0.391406
0.377044
0.0628013
0.376502
0.324899
1.02865
0.656545
0.532868
1.16507
1.05298
1.47727
0.885659
0.81519
1.42044
1.23587
1.18488
0.858759
0.569335
0.849152
0.643558
0.925416
0.2887
0.822501
0.0807549
0.402214
0.178948
0.616578
0.0592634
0.43894
-0.056447
-0.0647298
0.432631
0.581251
0.293289
0.678753
0.303461
0.836379
0.325812
0.973842
0.629289
1.21712
0.816384
0.51203
0.556591
1.16521
0.819595
1.39106
1.0131
0.791018
1.40245
0.0502252
0.705537
-0.173052
0.0809916
-0.133615
-0.278139
0.315085
-0.252208
0.353694
-0.330399
-0.409101
-0.206152
0.177636
0.0838396
-0.329281
-0.0527939
0.327135
0.169206
0.598189
0.397771
1.20328
-0.0707223
0.747495
0.503928
0.258213
0.858461
0.535604
1.07224
1.45856
2.80379
-0.288124
1.14358
-0.0951128
-1.60344
0.36801
0.095749
-0.0570887
-0.127328
0.298087
-0.063444
0.328178
0.156819
-0.179572
0.318859
-0.535015
0.146006
0.381359
0.0230754
-0.0914908
0.0263607
-0.0783409
0.349475
0.423796
-0.352314
0.303001
-0.0234912
0.364646
-0.189001
-0.263749
1.10498
-0.173986
0.12967
0.0305993
0.633775
0.166172
-0.0517605
0.115291
0.188362
-0.0531328
0.580832
0.482274
0.272109
-0.0804436
0.213311
0.852283
0.646374
0.780684
0.231013
0.980017
0.72979
1.10499
0.916019
1.18405
0.51391
0.457829
1.38743
0.855859
0.296711
0.649774
0.0689544
-0.451705
0.43774
0.12189
-0.314136
-0.352764
0.541021
-0.15661
-0.248729
0.36302
0.110648
0.293578
0.469055
0.480768
0.589998
0.572564
0.525676
0.721037
0.284307
-0.175845
0.549551
0.400703
0.48871
0.727114
0.420405
0.855525
0.860452
-0.338887
-0.579687
-0.121902
-0.0796355
0.322552
0.103476
0.357113
-0.102643
0.474997
0.401363
-0.475452
-0.0946884
-0.88672
-0.821776
-0.609322
-0.758261
-0.73898
-0.637691
-0.215767
-0.48227
-0.0776927
-0.361601
-0.236592
-0.236406
0.216676
-0.128883
0.12948
-0.433516
0.116784
-0.122192
-1.86668
0.842481
-0.19614
-0.00470144
-1.07902
0.0612981
-0.0444239
-0.175986
-0.311462
-0.189115
-0.555248
-0.454091
-0.680762
-0.655237
-1.13609
-0.973649
-1.28328
-0.999094
-1.53021
-1.46766
-1.08573
-2.06318
-1.12134
-1.80521
-1.6077
-2.12174
-1.71234
-1.96989
-0.376715
-0.705504
0.457203
-0.275023
-0.674081
0.0680193
0.698104
0.505754
-0.329317
-0.451163
-0.6475
-0.162142
-0.670675
-0.66314
-0.0854927
-0.635529
-0.587275
-0.928115
-1.04142
-0.657335
-0.441138
-1.2594
-0.974181
-0.532954
-1.28728
-0.753623
-1.18701
-0.507207
-0.895065
-0.0604207
-0.947406
1.17471
-0.96779
0.822794
-0.165086
0.165121
-0.484365
-0.140039
-0.127495
-0.0283207
0.475472
-0.377455
-0.0861364
0.159457
-0.346157
1.08235
-0.207571
0.28868
-0.230479
-0.183689
0.430593
0.198385
-0.0285837
-0.162532
-0.300804
0.467555
0.0276011
-0.300298
0.24377
1.54289
-0.0684114
-0.187655
0.291171
0.685092
0.364316
0.516968
0.394838
0.4345
1.02169
0.58496
0.715302
0.820981
1.34144
1.29396
1.35094
0.932524
0.914818
1.70618
1.83152
1.44969
1.34104
1.89014
1.24263
1.19199
1.34895
1.49864
1.15031
-0.445887
-0.794178
-0.513489
-0.324196
0.188285
-0.464752
0.433462
-0.452372
-0.168252
-0.00759938
0.099879
-0.348251
-0.0922149
0.226063
-0.144682
0.0615761
0.0559996
-0.0459582
-0.479815
-0.447801
-0.280524
-0.523229
-0.732749
-0.223305
-1.08122
-0.778595
-0.644711
-0.729752
-1.22437
0.1341
1.87063
-1.03225
-0.264128
0.125525
1.28472
0.13338
0.797358
0.139618
0.492138
0.797114
1.14662
1.11799
1.14972
0.838653
1.50996
1.33057
1.29489
2.04991
1.42707
1.36365
1.40856
1.22396
2.03748
1.94233
2.02914
1.85673
1.54508
1.89732
0.7391
-1.03951
2.25461
-0.87697
-0.00697978
-0.352252
0.00695881
-0.0647215
0.0918607
0.0604232
0.283272
-0.328329
-0.0073992
0.512481
0.00826764
0.465318
-0.137179
0.0841833
0.01781
0.0547423
-0.277496
0.232946
-0.182241
0.0999853
0.422009
-0.399641
0.162796
0.107816
0.529179
0.539403
0.383975
-0.0798579
0.0141292
-0.0153163
-0.222263
-0.354686
-0.516167
-0.774483
-0.304436
0.239246
-0.494906
-0.1537
0.196471
0.344934
0.252749
0.281736
0.617717
0.933709
0.940528
1.28852
0.531977
0.795919
0.570499
-0.0492123
0.0628098
0.684788
0.356624
0.819148
0.667524
0.596733
0.447035
-0.186839
0.641737
0.0671338
0.509084
0.729121
-0.346838
-0.274439
0.394249
0.438804
0.78856
0.707908
0.0364769
0.261713
0.800034
0.91248
1.03513
0.294907
1.32343
0.921381
0.841376
1.06732
0.806369
1.12385
0.684635
0.800038
1.22564
0.941363
0.756904
-1.33183
-0.20876
-0.280842
0.703095
-0.24575
0.0470358
0.18706
-0.470791
0.349127
-0.327895
-0.0704989
0.0118908
-0.261087
0.524477
0.146887
-0.346683
-0.0776828
0.580102
-0.0804195
0.513897
-0.644012
0.252941
0.0905195
-0.502236
-0.253696
-0.0535647
-0.24827
-0.158327
0.432105
0.23665
-0.272742
0.231534
0.785659
0.262941
0.450899
0.275108
0.10182
0.826433
0.3394
0.643642
0.259498
0.551481
0.805977
0.451962
0.903095
1.13631
0.353948
0.770791
0.959994
1.30144
0.516607
0.506297
1.06793
0.485456
0.961149
0.516929
0.280185
-0.818828
-0.0391714
0.051586
-0.437942
-0.190756
-0.106474
-0.155017
0.74914
1.16663
-0.928567
0.531059
-0.0907059
0.791861
0.310108
1.66708
-0.209219
0.639068
-0.089185
-0.496185
-0.797029
-0.0142317
-0.112754
0.0203619
-0.1933
-0.99824
0.0500737
-0.353803
1.43688
-0.0590772
-0.0574022
-0.363205
-0.980552
-0.275595
-0.0131091
0.23746
-0.13332
0.26879
-0.893156
-0.309412
0.0472472
-0.813551
-0.104014
-0.0136125
0.0191788
0.00271695
-0.450302
0.201553
1.02967
-0.0609166
-0.0613178
-0.134585
-0.139013
0.214055
0.323081
0.167957
-0.92094
0.538996
-0.000974113
-0.0572281
-0.340815
-0.312517
0.936656
0.11915
0.660691
0.208647
0.243694
-0.176659
0.395053
0.429571
-0.651322
-0.159383
-0.0978014
-0.36111
0.128544
-0.268475
0.0257902
0.359871
-0.168948
-0.108059
0.141719
-0.316253
0.252912
-0.199146
0.574185
-0.179644
0.303582
-0.265631
0.0490699
-0.358651
-0.285552
-0.247352
0.241628
0.0522395
-0.515048
-0.0977057
0.137896
-0.563925
0.130018
0.368648
0.0252484
0.487925
0.0247474
0.152261
0.675244
0.669833
-0.376132
0.46996
-0.128023
-0.22803
0.190776
-0.664793
0.115589
-0.609017
0.157981
-0.693911
-0.550604
-0.512206
0.881096
-0.0509423
-0.305293
0.267409
0.876418
-0.137534
0.497293
-0.585253
-0.5029
-0.282899
0.14958
0.644433
0.179692
0.313383
0.55119
0.391391
0.391531
-0.319758
0.266138
-0.235104
0.314807
-0.0773773
-0.286412
-0.589059
-0.175668
0.241369
0.023939
0.33801
0.160558
0.391194
0.266967
0.207462
0.377134
0.301758
0.248312
-0.373643
0.451963
0.259474
0.455947
-0.573877
0.503917
1.0787
-0.574919
0.144453
0.0935738
0.117416
-0.0310044
0.861676
-0.0181553
-0.229704
0.08483
0.568315
0.579877
-0.567271
-0.206713
0.253668
0.450618
-0.0957212
0.274262
-0.374876
0.721449
-0.515248
-1.14222
0.0560036
0.591887
-0.387833
-0.765713
-0.809834
-0.371988
-0.992016
0.629782
0.467414
-0.23211
0.219921
-0.316929
0.166149
0.135015
0.347484
0.265846
0.561978
0.815059
-0.900869
0.203055
-1.42836
0.230414
0.0646374
-0.314573
-0.903231
-0.12629
0.0621787
1.05919
-0.435834
-0.0355265
-0.135467
0.366743
0.366667
-1.63031
-0.734404
-0.558627
-1.68877
0.668037
0.964314
-0.46068
0.161965
-0.59785
0.094704
0.812043
1.24979
0.282054
0.375779
0.216679
-0.962567
0.380334
-0.945433
0.163765
-0.738968
-0.418596
-1.29421
-0.160713
0.175438
0.725656
0.0389876
0.37129
-0.262067
-0.375488
-0.242851
0.0667587
-0.128055
0.400038
0.0713329
0.151362
-0.79117
-0.216873
-0.468461
-0.0987437
0.0430854
-0.559765
-0.337106
0.00617838
-0.0271043
-0.35111
0.2402
0.195331
0.671295
0.0138743
0.344952
-0.163101
0.101546
0.626754
-0.587002
-0.763603
0.152484
0.873583
-0.352354
-0.580613
-0.478956
-0.860151
0.0728236
-0.15718
0.0172994
-0.890248
-0.102748
-0.324478
-0.257775
0.0943166
-0.145835
-0.216978
0.187786
-0.206512
-0.479483
0.653282
-0.0866818
-0.580024
0.331299
0.439029
0.454137
-0.320866
-0.0631504
0.0427859
-0.450779
-0.478512
-0.550382
0.129685
0.441912
-0.195563
-0.0835044
-0.547086
-1.18693
-0.475403
-1.0386
0.262139
1.27063
0.0243061
0.700399
-0.346686
-0.651348
1.03307
0.769625
0.176425
0.759771
-0.694712
-0.508329
0.49853
-0.884756
-0.638133
0.101511
-0.00230772
-0.511026
5.9391e-05
-0.12472
0.646845
-0.145255
-0.543802
0.0501585
0.572686
-0.397235
-0.232096
-0.0415911
-0.117964
-0.125594
0.505696
0.279166
-0.77119
0.755265
0.157157
-0.342377
-0.0871931
1.026
0.402821
0.0607374
0.0359946
-0.586728
0.0240996
-0.263294
-0.131979
-0.317415
-0.189521
-0.800122
0.0919161
-0.00153168
0.374589
-0.259891
-0.946561
-0.380472
-0.155578
-0.35865
-1.15047
-0.444325
-1.03464
-0.48582
-0.0595999
0.434904
-0.907735
0.67006
-0.330247
-0.449949
0.379438
-0.0269354
0.634237
-0.400223
1.00559
-0.783747
-0.467328
-0.916388
0.0364716
-0.879523
-0.619895
-0.33818
-0.253898
-0.413454
0.576499
-0.313236
-0.623693
-0.0679492
1.11205
0.175239
-0.370476
-0.00419389
-0.0718956
-0.360482
-0.145313
0.904463
-1.05088
0.486692
0.195172
-0.145723
-0.0995396
0.918406
-0.333381
-0.0645673
-0.288624
0.0940558
-0.101101
0.125385
0.154602
0.122046
-0.115344
-0.489761
-0.0556151
-0.0122862
0.352618
0.119942
0.0387004
0.17758
0.191415
-0.17066
0.681698
-0.151669
0.213849
0.368412
0.382224
0.283825
0.158217
0.115473
0.522644
0.0369837
0.48891
0.03882
-0.240659
0.506381
0.0636619
0.565494
0.349209
0.629487
0.476485
0.0185563
0.0595932
0.0170559
0.514816
-0.186096
0.0491963
0.633783
-0.936026
-0.319851
0.234065
-0.0376323
-0.81257
-0.220033
-0.976678
-0.899186
0.775813
0.654196
-0.585663
0.209452
0.226502
0.201412
0.154779
0.774363
0.895175
0.494256
0.241911
-0.939526
-0.365364
-0.651248
0.65884
-0.452191
-0.498446
-0.973093
-0.591688
0.335328
1.19334
-0.367243
-1.92857
0.555002
1.19635
0.144525
-2.15097
-1.80051
-0.676554
-1.30495
0.428546
1.59502
-1.78044
0.807591
-0.515955
-0.248208
0.150664
1.94368
-0.0185175
0.408134
-0.386536
-0.990782
0.0222849
-1.82901
0.0115205
-0.841996
-0.414309
-1.70213
-0.0955438
0.206392
1.19119
-0.702405
-0.0426185
-0.780667
-0.974409
-0.33841
0.0692487
0.145198
0.0483043
-0.277855
-1.06283
-0.585539
0.150103
-0.190383
-0.0904035
-0.588691
-0.392399
-0.712741
-0.0198694
0.0301046
0.331815
-0.412819
-0.758548
-0.183064
0.552664
-0.437506
0.129913
-0.232666
-0.850965
-0.447639
0.0219798
-0.293252
-1.41461
-0.20151
1.19299
-0.229773
-1.60632
-1.92237
-1.11148
-1.32059
0.761337
0.990149
-1.21731
0.882596
-0.523829
-0.0931943
0.567649
1.13634
-0.133486
0.104188
-0.549478
-0.860857
-0.66626
-2.17626
0.0606612
-0.785791
-0.602856
-1.84651
-0.331229
0.0421574
1.31455
-0.779145
-0.19384
-0.198229
0.295059
0.0839976
-0.219525
0.165751
0.191494
-0.548902
-0.343881
0.00482632
-0.33916
0.288611
-0.115971
0.240173
-0.332412
-0.0422929
0.117569
0.196792
-0.00208598
0.0960701
0.424754
-0.418886
0.369915
-0.181317
0.40621
0.0374994
0.350189
0.0180438
0.681361
0.175892
-1.46588
-0.530464
1.32273
-0.245073
-3.19238
-2.37165
-0.832166
-1.8201
0.699729
1.89245
-2.55018
1.60707
-0.0402359
-0.419588
0.5763
2.31554
0.593489
-0.139592
-0.283065
-1.11002
-0.351998
-2.64416
-0.593397
-1.15748
-0.68843
-1.52905
-0.830626
0.264339
1.6292
-0.371563
-1.88936
0.130664
1.45758
-0.851686
-3.64093
-2.48741
-0.821926
-1.9157
-0.158404
1.53095
-2.6478
1.0259
-1.19931
-0.88886
0.372134
2.59222
0.220408
-0.0690517
-0.886461
-0.917777
-0.92244
-2.4655
-0.592738
-0.883399
-1.00193
-2.39751
-0.778247
-0.549857
1.19345
-1.3929
0.316677
0.222517
0.687616
-0.0794369
0.0563581
-0.155457
0.571848
-0.0605154
-0.263206
0.099469
0.166425
0.233165
0.453887
0.0956379
0.181409
0.690411
0.226205
0.203087
0.265771
0.261985
0.19323
-0.44845
-0.359388
0.00316685
0.275241
0.0811632
0.443114
-0.0116866
-0.243177
-0.125945
-0.664817
0.497801
0.226799
-0.555976
-1.02451
-0.6936
-0.696635
-1.28442
0.748458
0.958225
-0.644302
0.898736
-0.00156996
0.378343
-0.104312
0.613238
0.896691
0.185454
1.13344
-0.812627
0.183465
-1.38318
-0.417942
-0.766084
-0.786711
-0.644241
0.0423673
0.176563
1.06658
-0.152707
-0.603825
0.582525
0.817247
-0.212003
-0.193022
-0.356242
-0.577557
-0.181397
0.50054
1.01694
-0.987347
0.975874
-0.218375
0.21911
0.108829
1.10902
-0.152472
0.409566
-0.749397
-0.369215
0.173267
-0.158739
-0.131646
0.00311039
-0.614468
-0.822999
-0.279747
0.0455665
0.0556278
-0.0505405
-0.210217
-0.0557073
0.327189
-0.197428
-0.701617
0.0186957
0.359209
0.126225
0.0600366
-0.173931
-0.251614
0.768162
0.0373902
-0.110372
0.341133
0.515778
0.367895
0.0301748
0.0153215
0.0238046
0.423092
-0.468833
-0.0776791
0.257573
-0.299098
0.159206
-0.0538873
0.487833
0.218629
-0.103263
-0.137003
-0.533913
-0.423567
-0.178317
0.152676
-0.507027
0.0359284
-0.282862
-0.102108
0.650552
-0.478062
0.0748344
-0.30622
-0.169214
0.533952
0.498282
-0.0642398
0.342173
-0.0987569
-0.295431
-0.0336142
-0.689107
0.0818323
-0.462413
0.248926
-0.245135
-0.362237
-0.664491
0.0674501
0.119315
-0.188626
-0.272242
0.641947
-0.433198
-0.389167
-0.499522
-0.22067
-0.446142
0.62172
0.520166
-0.251352
0.265019
0.447922
0.0409383
0.324686
1.05333
0.715766
0.761372
0.497788
-0.568814
0.108106
-0.155471
0.484091
0.073488
0.226286
-0.149984
-0.187039
-0.0448267
0.824198
-0.408904
0.525627
-0.181945
-0.32044
0.412989
0.0591995
0.956931
-0.373536
0.145694
0.000863352
-0.821847
0.329639
-0.446293
0.453504
0.0956905
-0.393558
-1.26122
0.0089277
-0.378551
-0.171509
-0.19577
-0.136466
0.622174
-0.29425
0.774802
0.506793
0.946957
-0.487571
-0.210677
-0.568482
0.599871
3.07392
-2.05475
1.23078
1.432
0.995053
1.74037
0.407816
2.76985
-0.271939
-1.54928
2.49896
1.07318
0.157116
1.40068
0.721034
-0.339807
3.69458
-2.26467
2.15142
0.305456
4.58685
6.55896
0.53093
1.35025
1.79249
0.3443
1.49779
0.139182
-2.02559
