#input normalization
0.160896 0.275804
11.9073 20.5927
10.6293 26.6485
10.1104 26.5622
0.0122259 0.0319331
0.0107513 0.0294511
0.21457 1.02665
0.533212 1.14066
0.852666 1.36931
1.13865 1.63835
1.46435 1.89174
1.78915 2.15166
2.10761 2.39957
2.41202 2.62478
2.72648 2.83162
3.03042 2.98581
#output normalization
1 0
#neurons weights
0.0211618
0.200463
-0.0961044
0.0295217
0.124289
-0.0184605
0.066621
0.229986
0.0973306
-0.486721
0.332344
0.0704099
0.396383
-0.059486
0.0200989
0.202885
-0.527169
1.28286
2.46633
-0.010694
2.77046
-5.36392
1.03878
1.02851
1.48949
-3.4858
-1.28214
-0.475371
5.07042
0.823624
0.0439727
0.943754
0.260196
-0.441112
-0.212681
-0.268617
-0.388489
0.0258571
0.298224
0.582495
0.280439
-0.570373
0.0406923
0.0667685
-0.578927
0.0528259
0.0432565
-0.415275
-1.09627
2.71065
#synapses weights
0.811886
1.27129
-0.916106
0.75319
0.0942372
0.560217
0.352154
-0.370298
1.21696
1.09199
0.464482
-0.143871
1.01923
1.13384
1.69451
0.295159
-0.842548
-0.122494
0.203166
-1.46849
-0.131694
-1.37429
-0.0161249
-0.468883
-0.335107
0.886496
0.750866
-0.448678
-0.0967482
0.733806
-0.507445
-0.0885044
0.616241
-0.272516
0.300751
-0.657796
0.453844
-1.21953
0.203268
-0.0310239
0.0622823
-0.291505
-0.28029
0.0431549
-0.0135042
-0.529467
0.612619
-0.170482
0.532587
0.907325
-2.50562
2.95949
-0.847882
-0.110442
0.140388
0.205766
-0.387024
-0.353985
-0.340359
0.306525
-0.890203
-0.526341
0.59993
-0.380382
-0.173424
-0.504993
1.54342
-0.0872075
0.563566
-0.194436
0.0413516
0.120768
0.204305
0.0761737
0.07062
0.12688
-0.702704
-0.68062
-0.0440227
-0.952668
0.0859512
0.886109
-1.59649
0.272034
-1.58988
0.179958
-0.192474
-0.0494276
-0.647195
0.532804
-0.977385
0.0930467
0.324159
0.782112
-0.333685
-0.0851228
0.525828
2.26999
-2.11106
0.733241
-1.46114
0.695081
0.499326
-0.398583
0.891339
1.40887
1.53082
1.59677
2.2913
2.55132
3.4186
2.54145
-0.142631
-0.670574
-0.823682
1.19845
-0.157052
1.74976
0.152554
-0.683294
-0.514525
0.032219
-0.41272
-0.158187
0.717102
-1.01835
-0.238743
-0.561212
0.343678
1.37454
0.847097
-0.131755
-0.884223
-0.126495
-0.0141831
-0.285754
-0.477947
0.155502
-0.27102
0.448877
0.0646211
0.750291
0.938745
1.9446
1.38899
0.269637
0.461327
0.0981154
-0.480733
0.269812
0.11243
-0.480618
0.0747228
0.228614
-0.0337968
-0.181845
-0.147419
0.360347
-0.199671
0.133257
0.425188
1.4206
-0.792846
0.365762
-1.38183
0.804716
0.118916
-0.168238
0.0349402
-0.0353399
-0.0499226
-0.129908
0.0747841
-0.782727
-0.19722
0.347813
-0.140451
1.59878
-1.80155
0.585047
-2.16836
0.443192
-0.342238
0.319403
1.44479
-0.441196
0.50022
0.86121
0.569498
1.14037
1.12156
1.75103
0.103512
-0.417707
2.22504
-0.224158
0.858622
-0.658516
0.108081
0.213756
-0.436582
0.308718
-0.658559
0.561975
-0.382005
0.532926
-0.254691
-0.46477
-0.468753
-1.05553
1.32889
-0.0543535
0.306413
-0.862834
0.187789
-0.0790682
-0.0888174
0.17845
0.243188
-0.507886
0.506881
-0.0879213
-0.406518
-1.04426
0.405911
-0.601556
0.58806
0.0592068
-0.468798
-0.34667
0.0583598
-1.77198
-0.770441
0.29523
-0.690302
-0.520548
-0.241038
0.583664
0.301837
-1.01467
0.0290012
1.39726
-1.56241
0.560492
-0.992372
0.748393
0.040344
0.183432
-0.683719
0.271414
0.844425
1.47346
1.45694
1.11759
1.2729
1.61158
1.09872
1.47706
0.458626
0.438486
0.424604
0.357991
0.80311
1.15255
0.324242
0.395434
0.875939
2.05688
2.20623
0.45448
0.210208
0.452238
-0.00159501
-0.113642
0.487071
0.700029
-0.135899
0.0582257
-0.0238117
-0.137973
-0.032796
-0.403855
-0.51784
-0.0750585
-0.135487
-0.212406
-0.11148
-0.0940659
-0.48492
-0.540039
-1.23468
0.0980912
0.91476
-0.740474
0.715523
0.143499
-0.848922
-0.332631
0.564308
0.184912
0.98758
-1.48938
-0.68838
-0.413069
0.414068
-0.746686
-0.658699
-0.624192
0.00191619
2.1363
-1.13369
1.53627
-0.70396
-1.06696
-0.400239
0.0749548
0.180875
0.576728
-1.20908
-0.474917
-0.136303
0.690951
-0.833711
-1.59645
-1.39906
-0.116727
1.70243
-0.194961
0.0604916
0.208591
0.28652
-0.728203
0.355279
-0.0478993
0.113529
-0.983611
-0.182918
1.08913
-0.958518
-0.976685
0.349396
0.0890956
-1.00093
-0.0325311
-1.12551
0.620176
-0.723905
0.440616
0.79953
1.877
1.04079
0.238687
-0.788356
-0.226553
-0.0185287
0.830661
-0.494213
0.0409316
-1.35506
-0.993157
1.34562
-0.990672
-0.0762072
-0.238167
-1.37329
-0.431331
0.955327
1.29409
1.20884
-1.2279
-0.843661
-0.713868
-0.121802
-0.487968
0.243722
0.00499511
-0.552151
0.461195
0.113881
0.481825
-0.445573
1.04046
0.654041
0.785457
0.637837
-0.0191047
-0.375424
-0.192931
-0.594735
0.125356
-0.686388
-0.564285
0.229247
0.993885
-0.415395
0.163414
-0.514555
-0.169407
0.153327
0.567781
-0.960973
-0.699653
0.277588
0.0114025
0.766173
0.256342
-0.560785
-0.620912
0.373793
-0.991568
-1.30707
1.22236
-2.27825
0.944118
-0.361953
-0.944698
-0.0298067
0.814925
0.769163
1.02803
-1.70849
-0.53162
-0.144165
0.546125
-0.250408
0.288733
0.538864
-0.860944
1.5312
-0.332784
1.2506
0.0144728
-0.595165
0.273534
0.616823
1.1395
0.881895
-1.16846
-0.315694
-0.393445
0.274383
-0.0418632
0.254978
-0.576439
-0.195535
0.532813
-0.602477
1.25479
-0.357654
-0.224092
-0.0652
1.19025
0.233041
-0.282185
-0.986925
0.638668
0.153497
0.23853
-0.451306
-0.414456
0.271491
-0.137812
-0.721019
0.155733
-0.178724
0.0108545
-0.823512
-0.523407
-0.513478
0.0318698
-0.381425
0.573706
0.0696167
0.0110201
0.0552442
0.0438506
-0.185433
-0.856322
-0.524347
2.10511
-1.1697
1.04578
-0.446564
-1.66454
-0.650158
0.589881
0.34342
1.4787
-2.17282
-0.324307
0.361866
0.641213
-0.779967
-0.20753
-0.251059
-1.19138
1.8471
-1.83607
1.63664
-0.907546
-1.38603
-1.07144
0.471983
0.853788
1.64655
-1.52724
-0.0270235
0.456647
-0.266703
-1.37588
-0.851297
0.106797
0.929211
0.391777
-1.19941
-0.347844
0.463218
-0.244973
-0.942921
-0.0307934
-0.289135
0.476786
-0.320307
0.188816
0.719805
-0.340322
-0.576371
-0.0485237
0.286141
-1.9832
2.22221
-3.83015
2.54678
-0.394314
-2.16875
-1.02928
0.650152
0.0760158
1.65692
-4.61937
-1.94006
-0.570043
-0.141718
-1.10219
-0.396805
0.972426
1.6894
-2.40837
3.79093
3.4509
2.35909
-2.02258
3.19269
1.82212
2.09284
-1.03001
2.45968
3.70969
-1.44346
4.72939
