#input normalization
0.160288 0.266839
36.0497 39.9082
11.5141 39.3017
9.00337 32.0217
0.0121846 0.0419728
0.00990257 0.0321827
0.51009 1.27706
0.81698 1.01849
0.970592 1.18721
1.15303 1.36175
1.37751 1.4934
1.60213 1.60896
1.81592 1.70013
2.01916 1.76833
2.22458 1.83245
2.39232 1.85731
2.55904 1.86856
2.7106 1.85718
2.81984 1.81914
2.92451 1.75828
2.99266 1.68493
3.05123 1.59174
3.079 1.4968
3.10363 1.38658
3.10696 1.26875
3.07601 1.13675
3.00682 0.993866
2.94838 0.848626
2.87122 0.676966
1 -1
1 -1
1 0
#output normalization
1 0
#neurons weights
-0.0160102
-0.394841
-0.306272
0.280797
-0.344786
-0.0715452
0.220777
-0.0949412
0.109014
0.171046
0.243859
-0.0422386
-0.0588214
-0.344771
0.148486
-0.0376101
-0.312825
0.355374
-0.435448
-0.217548
0.377811
-0.0644017
-0.130053
0.287828
-0.168351
-0.192808
-0.405801
0.0289452
0.260242
-0.270153
0.447959
-0.343226
-0.134185
0.426144
0.452605
-0.0187729
-0.186771
0.446064
-0.0844807
-0.0224384
-0.224497
0.331697
-0.350548
-0.285479
0.0474393
-0.412689
0.110647
0.164009
0.290907
-0.52564
0.229285
0.639734
1.10299
0.278593
-0.0381419
0.161383
-0.263776
0.076038
0.413863
-0.0541038
-0.0910935
0.376648
0.685018
-0.135788
-0.244428
0.260734
0.205114
-0.343047
-0.0840676
-0.0228915
-0.2056
-0.173373
-0.160284
0.172348
0.168971
-0.308762
-0.206754
0.0485646
0.13868
-0.467289
0.308717
0.429459
-0.277401
-0.50428
-0.0225257
-0.283179
-0.163452
-0.0293421
-0.223017
-0.176449
0.0131174
-0.0405148
0.302558
0.144017
0.372986
-0.464884
0.466669
0.191277
#synapses weights
-0.0577199
-0.447937
0.0221761
-0.0303073
0.160633
0.218413
-0.594544
-0.420954
0.0417412
0.119061
0.0148607
0.503217
-0.346155
0.123189
0.0742239
-0.116226
-0.130317
-0.471412
0.31381
-0.149672
0.178693
-0.0542577
0.465234
0.00959755
0.0877386
-0.250248
-0.444639
-0.0172992
0.208356
0.255308
-0.424554
0.496293
-0.0205813
0.457952
0.1752
0.413969
0.547759
-0.0907394
-0.628757
0.0649739
0.151491
-0.121705
0.239668
0.108638
0.413878
-0.136934
-0.246301
-0.327155
-0.331588
0.280659
-0.128084
-0.167452
0.142449
-0.389344
-0.159552
0.131205
0.0842687
-0.224328
0.18796
-0.444122
0.256175
-0.289637
-0.067336
-0.271861
0.176908
0.200216
0.611088
-0.112911
0.416276
-0.506901
1.62626
0.785475
0.268185
-0.0194484
0.296445
-0.175593
-0.130286
0.420611
-0.0476951
-0.144559
-0.338309
-0.142315
-0.399228
-0.316998
-0.237286
-0.230834
-0.123398
-0.402134
0.186301
0.336567
-0.356036
-0.0777029
0.130429
0.100098
0.477981
-0.485673
0.00981836
-0.145458
0.247407
0.0263263
-0.369471
0.354802
2.16516
-0.0199284
-0.0947348
0.132711
-0.0812078
-0.185899
0.159693
0.220376
0.0799581
-0.0791237
0.182193
0.0119546
-0.251713
0.125847
-0.130878
0.240583
0.0492016
0.313394
-0.310003
-0.281223
0.0643998
-0.104928
0.228972
0.304087
-0.0611789
0.287029
0.115052
0.238099
0.294149
0.493766
0.0273306
0.24573
0.827965
0.159088
0.40331
-0.0536131
0.449329
0.436722
0.422507
0.457137
-0.245281
-0.213513
-0.0394686
0.517915
0.120688
-0.0552028
0.124874
-0.212442
0.129964
-0.432685
0.260075
0.113678
0.0545433
0.307575
0.0502424
-0.383336
0.0614914
0.484698
-0.210029
0.0492349
-0.072776
-0.335794
0.070716
0.516301
-0.709899
0.350073
0.0583945
-0.192381
0.555852
-0.231267
0.0384621
0.292877
-0.393762
0.507634
-0.234835
-0.181415
0.232705
0.0783893
-0.291663
0.179112
0.265168
0.372575
-0.16871
0.185624
-0.263281
0.0919426
-0.0807664
0.00827117
-0.0712216
-0.137988
-0.303593
-0.416481
0.117155
-0.155633
-0.140808
-0.225203
-1.11103
0.130517
-0.269292
0.0680654
-0.0630047
0.368632
0.0602943
0.493103
0.105894
-0.306512
0.41453
-0.00772802
0.0528592
-0.0081677
0.458247
-0.12194
-0.120623
-0.314371
0.0830339
-0.0567557
-0.203701
0.174126
-0.17658
-0.0206867
0.0819656
0.45037
0.132621
-0.272253
0.170661
-0.119342
-0.129393
-0.152311
-1.45578
-1.90542
0.0342201
0.245487
-0.125897
0.231437
0.221884
-0.215373
-0.0826717
-0.226781
0.330045
0.234826
-0.0548314
0.219907
0.421312
-0.389932
-0.395902
-0.119224
-0.378744
0.280551
0.162848
0.173337
-0.2127
-0.276284
-0.300514
-0.374127
-0.5431
-0.264977
0.1048
0.234664
-0.237885
-0.259396
-0.724859
-0.387387
0.134368
0.0572826
-0.405652
-0.249159
-0.164488
-0.26855
0.26051
0.033677
0.466603
0.385476
0.0470297
0.268562
-0.117445
0.0321761
-0.259897
-0.356021
0.427444
0.357414
-0.269065
0.0942043
0.448656
-0.492923
0.188772
-0.463925
-0.159844
0.151707
-0.393572
-0.199445
0.278447
-0.200101
0.492002
0.30848
0.47158
0.185019
-0.434151
0.00263626
-0.214223
0.243153
-0.496175
0.290818
-0.50343
0.425181
0.459238
-0.400441
0.444994
0.115318
0.203245
-0.228533
-0.33332
-0.198134
-0.0340904
-0.0770242
0.224089
-0.401336
0.283803
0.000585543
-0.139111
0.0819135
-0.704533
0.304142
0.00192972
-0.0769506
-0.992064
-0.129239
-0.635009
0.343691
0.0227147
-0.016207
-0.0873854
0.0619491
-0.120539
0.42074
-0.102225
0.0309539
-0.000716009
-0.268227
0.154741
-0.123504
0.04067
-0.115902
-0.0503779
0.127951
-0.469801
0.171975
0.403077
-0.198372
-0.295828
0.164446
-0.0599816
0.458679
-0.3351
-0.320264
-0.162223
0.23986
-0.184678
-0.100397
-0.184306
0.199398
0.20172
0.378888
-0.306787
-0.201455
-0.32651
0.49782
-0.103876
-0.151678
0.0309362
-0.441731
-0.272508
0.0263224
-0.0996771
0.149988
-0.221216
0.372851
0.229136
0.386394
-0.379509
-0.0626331
0.122771
0.0634075
-0.675831
0.139461
0.187136
-0.105074
0.103966
0.555126
-0.698389
0.265955
0.172863
0.0596908
-0.268095
-0.234616
0.253642
-0.0310949
0.654272
0.13965
0.124587
0.335897
0.583779
0.392721
0.186376
0.414684
0.328619
-0.262392
-0.256125
0.288429
-0.320531
-0.29268
0.450226
-0.492175
-0.189491
0.182366
0.258262
0.171616
0.349445
-0.352879
-0.396228
0.115226
0.636927
-0.0924859
0.333696
0.176291
-0.0033967
0.426835
-0.440562
0.109822
-0.36665
0.438841
0.0889199
0.335481
0.0759354
0.189054
-0.38559
0.289131
-0.0200676
-0.41093
-0.322779
0.120766
0.113789
0.122941
-0.105183
-0.208625
0.387335
-0.0817608
0.0334182
-0.475713
0.0806041
-0.527369
0.433876
0.288502
-1.14415
-0.808953
-0.0600921
-0.0078893
0.140407
-0.245757
-0.15957
-0.231521
0.119289
-0.0282878
-0.378273
0.444252
-0.334397
0.0524766
-0.197674
0.360991
-0.0643339
0.0452394
0.00436679
0.036718
0.0443193
0.262684
-0.0927899
-0.471541
-0.354583
0.124311
0.339076
-0.161688
0.226934
0.0514051
0.450493
0.134676
0.602085
0.375069
-0.466654
-0.105487
0.0955872
0.345106
-0.185576
-0.290786
0.292665
-0.300838
-0.133025
-0.3691
0.395979
0.488985
0.123579
-0.295696
-0.438029
0.301609
-0.270107
0.495352
0.0039147
-0.150107
-0.234466
0.0973728
-0.488716
-0.175357
0.371411
0.28077
0.39023
-0.128075
-0.471256
0.362918
-0.00673152
0.0663636
0.397749
-0.113894
-0.144187
-0.122847
0.0388577
0.0763718
0.240327
0.0990437
0.390785
-0.280831
-0.20301
0.363018
0.353075
0.292978
-0.191521
0.374926
0.396693
-0.396148
0.270461
0.0652677
0.21903
-0.145642
-0.457466
0.371568
0.169993
-0.0635802
0.330972
0.418832
-0.454592
-0.471803
0.662826
-0.343728
-0.234398
0.049467
-0.0942908
-0.239009
0.190813
-0.228807
0.144096
-0.0679201
0.171854
0.358012
0.34266
0.336041
-0.0641902
0.0911396
-0.195875
0.166225
0.103426
0.0229652
-0.09274
0.109799
0.0186786
0.35961
-0.0196678
0.226663
-0.00551627
0.0730466
-0.484732
-0.191505
0.214328
0.310176
-1.29865
-0.150343
0.24979
-0.326994
-0.173713
-0.00455081
-0.0817177
0.12572
-0.371715
0.0759468
-0.307839
-0.338992
0.0793518
-0.0237542
0.0421789
-0.328903
0.335296
0.0769528
-0.305807
-0.200471
-0.144502
-0.13105
0.500321
0.379623
0.206635
0.267285
-0.00966698
0.521839
0.203338
-0.0136533
0.457078
-0.220244
0.854832
-0.0721205
1.52936
0.630247
0.144312
-0.26632
0.062744
-0.0156158
-0.0262105
0.067177
-0.158298
-0.230792
-0.103234
-0.251914
0.0254009
0.123724
0.0811223
-0.333759
-0.0979731
0.248182
-0.421895
-0.0148006
0.244555
-0.258955
-0.167068
-0.0978399
0.123694
0.127088
0.0273298
-0.245939
-0.358748
-0.0905883
1.76022
-0.586722
-0.108274
-0.198802
-0.0991214
-0.00537212
-0.0541342
-0.20217
-0.172939
-0.122885
0.133518
0.154384
0.0662022
0.305801
0.288599
-0.270258
-0.156143
-0.0251856
-0.0348537
0.071175
0.149256
0.0266469
-0.22649
0.436598
0.157449
0.380603
0.168392
0.324838
-0.322272
0.553326
-0.241113
0.168488
-0.527517
-0.124935
-0.0322693
-0.107847
-0.242928
-0.205248
0.182111
0.30727
0.0284067
-0.229431
0.352867
-0.13786
-0.385888
0.149747
-0.0359475
-0.437827
0.00481577
0.0529499
-0.4069
-0.0956381
0.387647
0.163315
0.201745
-0.256356
-0.383028
-0.296497
0.271002
0.149047
0.130532
-0.329215
-0.0217035
0.486456
0.564384
-0.482983
0.107899
0.56485
-0.203756
0.317473
0.100574
0.43035
-0.321961
0.0158716
0.0462053
0.206137
0.0247919
-0.403255
0.105415
0.0832888
-0.167468
-0.272371
-0.0217069
0.323576
0.00612499
-0.0868904
-0.172887
-0.378077
-0.0830482
-0.00306103
-0.181383
-0.345501
0.00632424
-0.00692454
-0.219456
-0.203814
-0.742564
-0.197539
-0.378542
0.0422554
0.0912957
-0.121133
0.374164
0.0324431
0.156086
-0.323379
-0.215183
0.268492
-0.0467861
-0.256733
0.107015
0.44138
-0.10131
0.439144
0.411278
-0.295188
0.4208
-0.174242
-0.441396
0.246231
-0.281975
0.442474
0.181391
-0.271817
-0.433073
-0.217998
-0.261305
-0.0933256
-0.446408
-0.34208
0.120826
0.233095
-0.253861
-0.277613
-0.0425153
-0.271427
0.443311
0.57298
-0.291957
0.0283223
-0.344683
0.136853
-0.316429
0.34762
-0.373817
0.0998255
-0.100733
-0.328017
0.451547
0.0483653
-0.185662
0.277822
-0.341489
-0.141905
0.0564986
0.102043
0.0160125
-0.100805
-0.268651
0.272668
0.932539
-0.623096
-0.132844
0.0138229
0.111868
-0.0903445
-0.211756
-0.417377
0.331626
0.0999712
-0.111276
0.349372
0.0358394
-0.51443
0.124134
-0.0781896
0.298614
-0.308969
-0.163913
-0.461051
0.418631
-0.203608
0.0770227
-0.00449176
-0.355361
-0.0598857
0.0163309
-0.324056
0.331903
0.197334
-0.233797
0.232509
0.341595
-0.321546
-0.489793
0.405907
-0.298987
0.171668
0.442627
-0.316841
0.049157
-0.349183
-0.0567571
0.360928
-0.316282
0.314734
-0.360514
-0.187986
0.46248
0.360713
-0.296649
0.144105
0.124096
0.436779
-0.151965
-0.116762
-0.448909
0.479423
-0.262725
-0.255291
-0.222028
-0.0958436
0.170536
-0.574349
0.463721
-0.228006
0.226911
-0.0225041
0.0280411
0.202472
-0.132668
0.456615
0.451435
-0.357507
-0.319651
-0.290373
-0.0340781
0.419029
-0.111958
-0.287972
0.247477
-0.00911003
0.49784
-0.258067
-0.337239
-0.142297
0.119144
0.453465
0.208388
0.440222
0.395774
0.0235285
0.251547
0.31382
-0.410531
0.242075
-0.519365
0.369348
0.450952
0.113893
-0.498733
0.372744
-0.52401
0.124395
0.00204134
0.341089
-0.437404
-0.0368067
0.169274
0.440509
-0.44026
0.340003
-0.13237
-0.50033
0.109711
0.323476
-0.11815
0.235388
-0.389179
0.334328
0.243634
0.356552
0.101918
0.745553
0.116021
-0.106164
0.147309
-0.0115103
2.40096
3.58091
0.115063
0.0382094
-0.0282165
-0.014581
-0.0218874
-0.0167817
-0.0990601
0.0599099
-0.155592
-0.0386441
0.0153712
-0.0989476
-0.10584
-0.0368146
-0.140175
0.00953059
-0.0466982
-0.113503
-0.029262
0.0576391
-0.188772
0.0316518
0.0117217
-0.439106
-0.052059
-0.0108985
0.0225078
-0.208337
0.322629
-0.35467
1.72972
-0.272266
0.0260734
-0.197999
0.196953
0.0596264
0.186877
0.364299
-0.135558
0.451939
-0.0383185
-0.194776
0.370314
-0.363294
-0.221666
-0.0194314
0.145451
0.29094
0.00856964
0.2051
-0.367216
0.0110078
0.100877
0.10094
-0.339668
0.470421
0.346796
0.55248
-0.18117
0.409387
0.346665
0.511787
0.216757
0.127567
0.166199
-0.163599
-0.232155
-0.0184129
-0.29254
-0.385579
-0.127542
0.413565
-0.425628
-0.126247
-0.187826
0.172596
-0.372227
-0.348151
-0.00840474
-0.182632
-0.0325492
-0.0990517
-0.35365
0.102722
-0.356967
0.137688
0.0389631
-0.193944
-0.54038
0.393335
0.281425
0.0356105
0.20391
-0.0728378
0.0175286
-0.306495
-0.370351
-0.169841
0.370151
0.494523
0.482604
0.30292
0.370556
0.192241
0.103207
0.265684
0.146663
-0.165394
0.543442
0.0899028
-0.32936
0.00598428
-0.396633
0.275593
0.298482
0.414039
-0.345173
-0.172087
-0.1749
0.393468
-0.408954
0.0684779
-0.384519
0.308153
-0.416517
0.153762
-0.362079
-0.391665
0.0628125
0.430384
-0.548031
-0.126253
-0.345726
-0.40637
-0.468357
-0.458878
0.361044
-0.0599543
-0.252872
0.0900853
-0.140121
-0.0963407
-0.29923
-0.39918
-0.523198
-0.148871
-0.405073
0.23743
-0.32841
-0.307281
0.288641
0.277503
0.0498893
-0.439513
-0.117549
0.537869
-0.253588
-0.223951
-0.221225
0.242538
0.285585
0.169326
0.262204
-0.229998
0.22591
0.429541
-0.269118
0.0229695
0.284864
-0.435617
0.158411
-0.232291
-0.461548
-0.359936
-0.54999
0.236496
-0.0676974
0.105525
-0.0046197
0.221828
0.210138
-0.211459
-0.174956
-0.431414
-0.0656834
-0.397639
0.346632
0.440432
-0.138133
0.272995
0.200255
0.368766
-0.456735
0.151319
0.102037
0.359966
-0.304568
-0.379948
-0.225802
0.388394
0.174616
0.174336
-0.520125
0.133461
-0.461842
-0.329059
0.0809135
0.315989
0.3091
-0.454818
-0.136368
-0.140612
0.262899
-0.00494329
-0.265856
0.0361809
0.406963
-0.382828
-0.487974
0.0877712
0.354979
-0.100349
0.163257
0.334448
-0.0233622
-0.256103
-0.461024
-0.388468
-0.079301
-0.253598
-0.0684791
-0.130507
0.262295
0.399654
-0.373399
0.385642
0.521046
-0.20548
0.312837
-0.574789
0.0125931
0.346957
0.0405049
0.361717
0.526054
0.436312
0.363873
0.37716
-0.524431
-0.205838
0.225984
-0.255496
-0.0648907
0.270282
-0.0652782
-0.690131
-0.20692
0.209961
0.363696
0.571003
0.321309
-0.0324109
0.270748
0.238851
0.221798
-0.304677
0.383367
-0.181241
0.213289
-0.208787
0.491224
-1.09056
-0.457529
0.215877
-0.412577
0.395381
-0.13585
-0.481913
-0.105573
-0.408923
0.372051
-1.64238
-0.112508
0.00832369
-0.19103
-0.383544
-0.299714
-0.506369
-0.300221
0.103015
-0.177709
0.350424
-0.51596
0.15874
0.271969
-0.234787
-0.229859
-0.385551
0.151399
-0.445205
-0.387407
0.171768
-0.111953
-0.397505
0.33979
-0.330142
0.116375
-0.1974
-0.209132
-0.222371
-0.505485
0.156751
0.090228
0.0224604
-0.194319
-0.347667
-0.0646573
-0.248492
-0.161478
0.331631
-0.273887
-0.124858
-0.345458
0.274969
0.309098
0.102234
-0.344053
-0.151315
-0.186011
0.42545
-0.372491
0.125466
-0.536719
0.122315
-0.0619828
0.302801
-0.185256
0.419456
-0.140292
0.174591
0.453679
-0.468078
-0.396355
0.149178
0.0565616
-0.06596
-0.171362
0.377917
-0.140183
0.251904
-0.263455
-0.3129
0.0830896
0.0304863
-0.219885
0.0739249
0.0753906
0.445483
0.0512509
-0.511946
0.158711
0.150263
-0.124922
-0.0332592
-0.457888
0.40763
0.246269
0.147916
-0.426259
-0.301829
0.0733482
0.0386781
-0.34405
-0.428654
0.479916
0.0609554
-0.0359823
-0.313474
0.135198
0.241757
0.246276
-0.569401
-0.507854
-0.434517
-0.487667
-0.153321
-0.345334
-0.0145539
0.38217
-0.0299381
0.372575
-0.28814
-0.0627174
0.174124
0.097216
0.317805
0.416657
-0.471512
-0.125322
-0.0020231
0.278436
0.105296
-0.485803
-0.530113
-0.449331
-0.357755
-0.220661
-0.407621
0.283064
-0.360593
-0.282961
0.113992
-0.438956
0.0879202
-0.157686
-0.214561
0.433531
0.207783
0.213951
-0.440562
-0.057746
-0.243732
-0.187989
-0.209788
-0.374512
0.14216
-0.0785166
0.247648
0.310355
-0.397694
-0.489215
0.127986
0.16106
0.085768
-0.311311
-0.201439
0.182101
-0.299765
-0.0544532
-0.476011
-0.177712
0.201143
-0.382339
0.00624283
0.223103
-0.251814
0.0239437
-0.00960968
0.315597
-0.1685
-0.175255
-0.400476
-0.222859
0.503595
-0.233297
0.112808
-0.139763
-0.390326
0.197066
0.0742315
0.0402611
0.0730293
0.517153
-0.151373
0.118608
-0.00297532
0.236455
0.198824
0.393921
-0.157244
0.316158
-0.539855
-0.104953
0.191169
-0.132242
-0.203795
-0.274715
-0.157122
-0.526011
-0.145357
-0.294981
-0.264063
-0.103659
0.293079
-0.105003
0.364557
0.499155
0.0570913
0.440127
-0.22268
0.297458
-0.348645
0.110707
0.439076
-0.320792
-0.189567
0.459045
-0.241743
-0.441008
-0.302575
0.11159
-0.10415
-0.251434
0.28953
-0.261931
-0.400282
0.212591
0.509689
0.314043
0.246792
0.35743
0.433296
0.0546273
0.532503
-0.150439
-0.0115323
0.0989644
0.126247
-0.287367
-0.867065
0.048437
0.31949
-0.136663
-0.23881
-0.232554
0.31787
0.318254
-0.0503989
0.163729
-0.221829
-0.223091
-0.392025
-0.382106
0.20992
0.329345
-0.833833
-0.505623
-0.210664
0.201071
0.0751518
0.0954239
-0.599267
-0.736966
0.3292
-0.285397
-0.85523
-0.7215
-0.035063
-0.0268222
0.260233
-0.322675
0.05486
0.270656
0.116481
-0.0971758
-0.50827
0.145841
-0.2807
-0.112863
0.0120206
0.259384
-0.394605
0.28651
-0.419399
0.332315
-0.172571
0.398727
-0.380596
-0.1224
0.446851
-0.33216
0.2793
0.155059
-0.183288
-0.075028
0.731154
-0.0726838
0.0795667
0.56559
0.445519
0.416634
0.161687
-0.386684
0.0934747
0.155456
0.0922405
-0.458258
-0.329727
-0.24281
-0.374036
-0.0956932
-0.310208
-0.428917
-0.367768
-0.489328
0.272677
0.0886051
-0.223778
-0.00746139
0.0430484
-0.383949
-0.00306537
-0.443326
-0.129224
-0.248892
-0.161368
0.241965
0.329522
-0.177094
0.319939
-0.572286
-0.492134
-0.168423
0.103759
-0.257911
-0.500236
-0.219506
-0.370834
0.216093
-0.10174
0.511426
0.290173
0.273319
0.241326
0.102654
0.206917
-0.265979
0.188203
-0.307815
0.352187
0.25823
0.42509
-0.00885067
0.00826563
-0.117327
0.254461
0.266965
-0.497241
0.0440602
0.221056
0.207131
0.373348
0.250506
-0.229455
-0.174835
0.365216
0.420943
-0.425467
0.401202
0.412823
0.4473
0.3901
0.15861
0.329848
0.051783
-0.12564
0.489999
0.411337
-0.238987
0.13459
-0.489101
0.395523
0.0174638
-0.158621
-0.288345
-0.207853
-0.384935
0.134405
0.0715671
-0.0770309
-0.406009
-0.449907
-0.211022
-0.327011
0.337876
0.102244
0.481892
0.122462
-0.384996
0.136652
0.374474
-0.521814
-0.630808
-0.502511
-0.0619392
-0.554961
0.186325
0.395454
0.390982
-0.0896801
-0.0437223
0.140066
-0.160313
-0.0819852
0.211543
-0.00701056
0.101326
-0.367232
-0.304655
-0.30828
-0.693175
0.0981329
-0.00435796
-0.609215
0.118032
-0.250432
0.361312
-0.17072
-0.103179
0.266083
-0.543844
0.267127
-0.622988
-0.275563
-0.483858
-0.225554
-0.283858
0.136138
-0.143868
-0.0403737
-0.199953
-0.248867
-0.258917
0.0644531
-0.244776
-0.473755
0.0341607
0.263109
0.159706
0.480602
0.306879
-0.135836
0.422805
0.0305611
-0.663429
0.0839364
-0.443611
-0.382238
0.401141
-0.443048
0.0959082
-0.520468
0.234604
-0.110898
-0.38972
0.271744
-0.300578
0.319639
0.312687
-0.270425
-0.390955
-0.59259
0.512528
0.0927927
0.252561
-0.176961
-0.0358878
0.0320048
-0.366444
0.0566145
0.0627024
-0.0288324
0.0767599
-0.462532
-0.0887298
0.39681
-0.150666
-0.65752
-0.22753
-0.0928391
-0.417133
-0.392918
-0.346459
-0.101889
-0.0940687
0.458514
-0.666591
0.252181
-0.19298
0.248948
0.255318
-0.153203
0.442209
-0.304705
-0.114934
-0.497686
-0.29752
0.21555
0.0323156
-0.0112745
-0.0870052
-0.105162
0.0534184
-0.257161
0.261436
0.169583
0.241518
-0.108569
-0.439999
-0.115254
-0.0447112
0.308084
-0.421493
0.240882
0.246358
-0.491052
0.152048
-0.131451
0.274631
0.0964324
0.51197
0.244195
-0.067305
-0.184699
-0.076949
0.17307
-0.359867
-0.0530638
-0.150931
-0.239175
-0.477293
0.295758
-0.411793
-0.232115
0.0942366
-0.465275
-0.335274
-0.164766
0.336417
0.198521
0.211542
0.249316
0.0177002
0.112066
-0.27317
0.318885
-0.348859
-0.465485
0.297872
-0.312679
0.345284
-0.437891
0.0318105
0.508509
0.0655776
0.322113
0.316533
0.470359
-0.194999
-0.0623655
0.0706346
0.0727429
-0.385766
0.391307
0.0474295
0.307232
-0.317527
0.0129593
0.419527
0.469656
0.0119887
-0.286464
0.26618
-0.126072
-0.000222778
0.482959
-0.215325
0.241533
0.0154293
-0.200151
-0.459308
0.351728
-0.258581
0.517414
-0.151821
-0.0178664
-0.267888
-0.335862
0.396286
-0.0441029
0.367709
0.122571
0.22377
-0.532049
0.365932
0.449683
-0.283751
0.131268
-0.418847
0.216146
-0.180652
-0.176937
-0.00775376
-0.409036
-0.467201
-0.0712443
0.208814
0.195701
0.233142
0.0749188
-0.121376
-0.306051
-0.0560529
-0.0553193
0.324857
0.383452
-0.00612092
-0.0843793
-0.277189
0.419618
-0.155263
-0.268468
0.246512
-0.316402
-0.420906
-0.223968
0.260303
0.265486
-0.251407
-0.217449
-0.516552
-0.440503
-0.136361
-0.257565
-0.272502
-0.419192
0.164607
-0.429569
-0.409141
-0.0861648
-0.50571
0.272655
-0.216616
0.420255
0.448637
-0.402542
0.273356
-0.359473
-0.150855
0.213561
0.0338164
-0.517505
-0.227786
-0.272711
-0.0963264
0.33511
0.502509
-0.09161
-0.209846
-0.198237
0.430791
-0.0576201
-0.405305
-0.211369
-0.516224
0.0695901
-0.1853
0.106065
-0.0570107
0.188807
-0.273712
0.448448
-0.471489
-0.213346
0.0771822
0.0311719
0.34092
-0.304692
-0.268979
-0.369357
0.201945
-0.0900317
-0.460224
-0.0807595
0.0381737
0.461091
-0.0894103
0.205517
-0.216594
-0.146124
-0.201851
-0.460197
-0.169326
0.0166226
0.343196
-0.278534
0.0220946
0.509927
-0.196938
0.379979
0.351544
0.118009
0.444322
-0.0244279
-0.085621
0.546166
-0.32838
0.275542
-0.0340074
-0.0703193
-0.366501
-0.181218
0.298863
0.364608
0.0437531
-0.395203
-0.203984
0.37806
-0.166823
-0.398568
-0.0969223
0.420746
-0.192296
-0.0606809
-0.0348393
0.344939
0.032799
0.0654631
0.69916
0.197294
-0.489309
0.272929
-0.0288655
0.272622
0.186116
-0.10623
-0.359029
-0.202544
-0.502823
0.118287
-0.489334
0.575238
0.0387461
0.354191
-0.104106
0.0385457
0.349893
-0.402204
0.0310854
0.26979
0.145133
0.0862855
-0.135401
0.287845
0.365386
-0.217237
-0.497487
0.23051
0.155436
-0.152314
0.229844
-0.188702
0.285246
-0.318451
0.0415469
-0.462831
-0.276146
-0.53444
0.0550278
-0.518187
-0.0897415
0.000347331
-0.107627
0.0117474
-0.0273767
0.0749021
-0.399644
-0.158886
0.236911
0.320339
-0.200835
0.0488905
0.239517
0.0112445
0.435148
-0.185821
-0.311361
-0.188442
-0.321631
0.15364
0.0357147
0.319474
0.392516
-0.167037
-0.573306
-0.48823
0.359942
0.0542922
-0.416015
-0.220247
-0.38363
-0.512276
-0.201051
0.229852
-0.0661441
-0.237146
0.399327
-0.410598
0.285414
0.0569421
-0.441838
-0.223084
0.252975
0.526674
0.0384387
-0.595503
-0.0824007
-0.301286
-0.11244
-0.095221
-0.298433
-0.372398
-0.55509
-0.192789
-0.31176
-0.300628
-0.155566
-0.0363429
-0.280239
0.151024
0.320597
-0.115955
-0.455014
0.365862
-0.23324
0.0365819
0.425144
0.0150821
0.245724
-0.60249
-0.181578
0.096113
-0.161417
0.113111
0.394835
-0.261905
-0.0585432
-0.136179
0.00668319
-0.524914
0.0147899
0.0259633
-0.168439
-0.237632
-0.431755
0.341509
0.167278
0.516442
0.0774146
0.120056
0.203646
0.0400155
0.415094
0.21047
-0.372239
-0.29496
0.191548
0.154128
0.547001
0.180898
-0.136298
-0.0460991
-0.0993085
0.134541
0.296908
0.00510439
-0.492224
0.0354666
0.026791
0.102912
-0.0700995
-0.0372693
-0.227768
-0.124666
0.208421
0.545403
-0.103529
0.29116
-0.129368
0.447857
1.30944
0.235821
0.0761355
-0.25718
-0.0210155
-0.118309
-0.0295588
-0.241165
0.673275
-0.133213
0.0883014
-0.596365
-0.188012
0.292052
0.513122
0.32793
-0.0378043
0.523977
0.0240637
-0.05575
0.0359756
-0.187961
0.188226
-0.320064
-0.113596
0.518314
0.424728
0.228966
