#input normalization
0.161125 0.272734
27.9287 37.4648
10.2988 34.3209
8.2407 30.319
0.0110476 0.0402642
0.00901466 0.0329023
0.542988 1.36901
0.823511 1.27769
1.05267 1.47112
1.29982 1.67897
1.57855 1.87949
1.86027 2.06281
2.12999 2.22636
2.39629 2.3791
2.64341 2.50023
2.87854 2.5868
3.10222 2.64749
3.30893 2.68228
3.48879 2.68793
3.62724 2.6498
3.75444 2.5955
3.86786 2.48837
38.1053 49.985
1 -1
#output normalization
1 0
#neurons weights
0.234836
0.462196
-0.382086
-0.10241
-0.11066
-0.212912
0.134624
0.0315306
-0.49566
-0.381439
0.482548
0.133928
0.0235687
-0.394562
0.181005
-0.358731
-0.159831
-0.31381
0.315721
-0.328359
-0.210932
0.353967
-0.0444858
0.375341
0.1808
0.540866
-0.396447
0.3087
-0.425746
0.396944
0.350802
-0.575271
-0.312537
-0.437034
0.271877
0.0137771
0.395183
-0.188319
0.00905359
0.0361633
0.221037
0.318519
-0.0896827
0.346839
-0.197315
2.35414
0.197567
0.332424
-0.331417
-0.125495
-0.302002
0.3503
-0.807177
-0.414621
0.00371709
-0.342606
0.588755
-0.187363
0.122567
0.273229
-0.132617
0.331617
0.377308
0.549965
-0.410119
0.444394
-0.385531
-0.0181686
-0.409107
0.39847
0.262995
-0.0620592
-0.338265
-0.236395
#synapses weights
0.686756
-0.278799
0.23604
-0.117312
-0.127636
-0.117016
0.436697
-0.439938
-0.332161
-0.138284
0.15636
-0.0100147
0.0889075
0.472879
-0.259801
-0.089403
-0.0583947
-0.366653
0.339551
0.142317
0.178122
0.0438037
-0.803838
-0.427461
-0.427266
-0.43914
-0.275134
0.0757894
-0.15414
-0.199622
-0.26139
-0.70429
-0.266561
-0.179912
0.442246
0.184466
-0.300902
0.229048
0.0138676
-0.0934367
-0.225326
0.252967
-0.532667
0.22784
0.292902
0.107158
0.0936022
-0.0701234
0.0925998
-0.423996
0.0787025
-0.160625
-0.297307
-0.489359
0.39555
-0.48271
-0.0319055
-0.199573
0.345408
-0.11844
-0.160307
0.327108
0.0787788
-0.476617
-0.0607994
-0.236611
0.154153
0.0328308
-0.0960459
-0.379029
-0.34809
-0.085274
0.931346
-0.0572152
0.0361356
-0.16457
0.022393
-0.124475
-2.1206
0.0903567
0.118706
-0.0736617
0.123957
-0.00672484
0.349909
-0.162149
0.0110672
-0.229147
0.376607
-0.339954
-0.293277
0.0826881
-0.324701
0.336014
-1.30654
-0.371347
0.243891
0.215881
-0.228006
0.246621
0.0842048
-0.103471
-2.43771
-1.46613
-0.289797
-0.420192
-0.13519
0.17388
0.0743295
-0.267892
-0.158281
-0.406668
0.380725
-0.229119
0.0671445
-0.0735553
0.0446724
-0.321401
-0.672028
-0.209835
0.374045
-0.423689
0.00545869
-0.102747
-0.129921
-0.34275
0.0592801
-0.270165
-0.0579456
-0.179343
0.215259
-0.360179
0.33093
-0.461655
-0.00950692
-0.0746104
0.0435754
0.117564
0.0404902
-0.185065
-0.45568
-0.113629
0.0562851
-0.15701
0.730228
-0.241322
-0.122001
-0.390005
0.474564
0.304427
1.16837
-0.285322
0.068076
-0.187212
0.246805
-0.0418526
0.417142
-0.0803068
-0.268632
0.148501
0.22297
-0.132854
-0.322118
-0.0158124
-0.00314348
0.0414361
-0.843355
0.122442
0.462667
-0.098834
0.10079
-0.000934153
-0.0154314
-0.110804
-0.841613
-0.700391
-0.134366
-0.097434
0.266393
-0.0430749
-0.0591327
0.116076
0.0162225
-0.265499
0.0614217
-0.164123
0.416491
-0.195057
0.292353
0.256691
-1.2114
-0.33249
0.784055
-0.2989
-0.281772
0.261542
0.284203
-0.253994
1.30775
1.86547
0.255952
0.0657369
-0.0885799
0.0415427
0.0858289
0.0180891
0.243403
0.129319
0.0878866
-0.092475
-0.128926
-0.257968
0.207329
-0.122411
-1.41462
0.142723
-0.74046
0.310779
0.0917727
-0.048153
0.0712417
0.121495
1.16976
-0.341966
0.296394
-0.288214
-0.0275533
-0.239235
0.313065
-0.213875
-0.0474093
0.040852
0.142476
-0.376289
-0.229984
-0.201932
-0.239932
0.273126
1.00312
-0.417394
0.0836453
-0.303357
0.28847
-0.177445
-0.311569
0.153288
1.21089
0.179773
0.103048
-0.191478
-0.164982
0.417484
-0.337854
-0.00210496
0.103908
0.207891
0.236595
0.394995
0.0617515
-0.02705
0.10027
-0.0878966
0.0135785
-0.464382
-0.856916
-0.285905
-0.178604
-0.02288
0.146542
0.248566
1.34739
-0.365358
0.169045
0.237482
-0.185271
0.109139
-0.0133036
0.114708
-0.219988
-0.0018691
-0.255285
0.263631
0.341148
-0.00983789
0.328155
-0.445237
1.18573
0.413552
-0.00324244
-0.0280166
0.395764
-0.443358
0.236089
-0.388404
2.11981
0.896645
0.20425
0.095063
0.406844
-0.202036
0.117497
0.268104
-0.270266
0.378132
-0.35414
-0.15013
0.29006
0.285023
-0.0306518
-0.130649
0.31686
-0.425225
0.370782
0.251055
0.135883
-0.370995
0.0244496
-0.0832397
-1.37526
0.568926
-0.0562838
-0.358166
0.0471674
-0.348389
0.50873
0.280673
0.0915306
-0.341444
-0.144268
-0.194758
-0.054755
-0.18127
0.0157098
0.139485
-0.907833
-0.0110315
-0.180666
0.460691
0.191909
-0.0500902
0.0965519
-0.534183
0.538989
0.83789
0.0109087
0.0525315
0.129335
-0.419162
0.337054
0.00194417
-0.112685
-0.268702
-0.140059
0.143284
-0.0875482
-0.108045
0.339613
-0.0628354
0.174018
0.155029
-0.157327
0.0848502
0.369871
-0.0818961
0.203846
0.438725
0.256439
-0.540013
0.0693015
-0.335532
0.268693
0.472065
0.465909
0.187992
0.0886277
0.173694
0.132987
-0.0710132
0.287024
0.32648
-0.124515
-0.0206456
0.467995
-0.174733
0.374713
0.497586
0.227408
0.1516
-0.0253084
-0.0677141
0.598454
0.155839
0.57114
0.00997605
-0.0702416
0.0447567
0.460927
-0.188921
-0.256952
0.256641
-0.0256506
-0.255296
0.181541
-0.024832
-0.113279
0.209597
-0.276253
0.158036
0.616152
-0.160426
0.136884
0.11478
0.252738
-0.26485
-0.873826
0.297506
0.328741
-0.155201
-0.285161
0.0557726
0.299127
-0.234464
0.181884
-0.407371
-0.426148
0.353996
-0.102999
-0.0964448
0.171986
0.370866
0.343526
-0.476703
-0.183503
0.427468
-0.0277601
-0.107925
0.120594
0.366169
0.576969
0.882451
0.570962
-0.228209
0.13199
-0.369494
-0.483423
-0.0638201
0.306796
-0.187903
-0.148585
0.324838
0.0128933
0.0934588
-0.499217
0.195313
0.167556
-0.403002
0.304884
-0.442615
0.470577
0.191706
-0.251432
-0.0175503
0.64042
0.463976
-0.15197
0.232426
-0.368563
0.401665
-0.406778
-0.455346
0.30797
0.261326
-0.050382
0.242883
-0.414893
-0.448475
0.271959
0.169997
-0.793056
-0.00251202
0.64514
0.538038
0.0689512
-0.22088
0.0984292
-0.0819881
0.944135
2.14183
0.108245
0.0960433
-0.0417088
-0.125592
0.0756563
-0.0889153
-0.235172
-0.209481
-0.161677
0.437851
-0.227395
0.267758
-0.235114
-0.131232
-1.31529
0.121095
-3.31427
-0.174052
-0.00979238
-0.0695349
-0.203239
0.297987
4.37086
-0.16772
0.355491
0.0347451
-0.0736447
-0.0502054
-0.0178078
0.0826339
-0.0260181
0.0724412
-0.192229
0.229363
0.092835
0.0600048
0.0189543
-0.0271324
5.71653
-0.103474
-0.417689
0.253219
0.0868713
-0.376818
-0.139449
0.487024
-1.11956
0.368608
0.300922
-0.512346
-0.05598
0.117649
-0.0641789
-0.296608
-0.139964
0.396871
-0.270262
0.0677513
-0.0384874
-0.159701
-0.0265749
-0.106921
0.692912
-0.34916
0.62211
-0.21491
-0.320733
-0.0748995
0.186637
0.169158
-0.465057
-0.991401
-0.642716
-0.542291
0.239066
-0.144867
-0.193439
-0.350335
-0.206484
0.0638326
-0.220414
-0.00250091
0.0157748
0.143275
-0.00434583
-0.128089
-0.902552
0.144239
-0.388667
-0.183701
-0.232613
-0.19501
0.396709
0.0380451
-0.732049
-0.652694
0.282384
0.227941
-0.230246
-0.0464864
0.462681
0.296042
0.500906
-0.165319
0.0387464
0.266318
0.0386811
-0.184501
-0.0129611
0.320066
0.234481
0.457692
0.218428
0.190834
-0.316423
0.0331446
-0.589853
0.131183
-0.00326877
0.288746
-0.0946497
-0.136126
-0.392115
0.00915826
0.142551
-0.492868
0.0154334
0.321254
-0.030126
-0.343831
0.0445942
0.434982
0.409966
0.601133
-0.0466251
0.475298
-0.340197
-0.994759
-0.0300386
-0.189818
0.667242
0.278928
0.00699311
-0.722873
-0.726503
-0.698
-0.355401
-0.602913
-0.350474
0.271389
0.457488
0.704291
-0.20152
-0.321412
0.534159
0.355311
-0.0149288
-0.519967
-1.99245
0.876858
-0.437524
-0.0541009
-0.453614
-0.328039
0.297962
0.0961932
-0.285969
0.0509545
0.446108
-0.451345
0.189505
-0.435954
-0.0185589
-0.208674
-0.174425
-0.542296
-0.216651
0.2894
0.480636
0.22163
-0.260408
0.463304
-0.345171
0.120533
0.0275411
-0.608432
-0.202283
-0.617304
0.0723371
0.162629
-0.133677
0.267244
-0.134271
-0.934482
0.120245
-0.816095
-0.516773
-0.443069
0.157674
-0.618312
0.226913
0.0810839
-0.348621
-0.18196
-0.219874
-0.230657
-0.290594
-0.619092
-1.26878
0.273723
-0.13631
0.210644
0.12828
-0.330699
-0.082017
0.376593
0.368043
-0.39989
0.319293
-0.274634
-0.458359
0.209204
-0.391682
0.147
-0.326017
-0.143066
0.183989
0.303173
0.327778
-0.405958
0.0668084
0.262455
-0.43127
-0.235953
-0.154966
-0.313251
0.209779
-0.0372338
0.468848
-0.408276
-0.265831
0.298585
0.358333
0.266548
0.419352
-0.200493
-0.0529875
0.252371
-0.446706
0.237487
0.376039
-0.297547
0.534266
-0.154124
0.37591
-0.249646
0.23471
-0.264372
0.665139
-0.197852
0.406628
0.137613
0.506713
-0.0414876
-0.411564
-0.360483
0.31701
-0.21384
-0.224804
-0.252421
0.0323826
0.0547862
0.536736
0.409385
0.0567894
-0.365008
0.152016
-0.198266
-0.277334
-0.255541
0.121786
0.228113
-0.409511
-0.390137
-0.504209
0.370518
-0.393075
0.0391544
-0.066394
0.140472
0.279877
0.499851
0.535953
-0.293987
-0.173295
0.405792
0.281168
-0.295034
-0.155105
-0.0789324
-0.0520895
0.177251
-0.363343
-0.00653796
0.446641
0.366248
-0.233143
0.141718
0.35587
0.423305
0.157657
0.0392127
-0.440297
0.0330743
-0.00329937
-0.577031
0.110747
0.276332
-0.194586
0.254387
0.499849
-0.21897
0.0799864
-0.163895
-0.0409428
-0.250167
-0.396589
0.25626
-0.180701
0.20474
0.406266
0.214699
-0.0397553
-0.314809
-0.589204
-0.194117
-0.242032
0.319356
0.0141937
0.062386
0.0101548
-0.179259
-0.0750194
0.239575
0.208794
-0.285177
-0.355472
-0.478892
-0.207285
-0.519075
0.235562
0.14485
0.00609316
-0.221702
-0.536665
-0.104459
-0.112589
0.304278
-0.823145
-0.286615
0.16747
0.0443832
-0.326713
-0.275046
0.317143
0.261853
-0.292994
-0.153165
0.19428
-0.140852
0.0228521
-0.281663
-0.0707669
-0.100636
0.226471
0.269448
-0.0224179
0.363385
0.0957655
0.322745
0.508786
0.408497
0.157538
0.015449
0.418763
-0.191855
0.263043
-0.25145
0.290077
0.420282
-0.227692
-0.499226
-0.279843
-0.155336
0.214132
0.0328151
0.187932
0.366309
0.491917
-0.334164
-0.0867996
-0.522005
-0.191554
0.0319662
-0.44316
-0.386751
-0.0797703
0.192703
-0.0256566
-0.565168
-0.0686878
-0.254337
0.0561386
0.344026
-0.423407
0.594221
0.757452
0.292373
-0.139345
0.17976
-1.42408
0.120918
-0.212289
0.508707
-0.371039
-0.519734
-0.285224
0.415882
-0.293794
-0.0332191
-0.314544
-0.643122
-1.43358
-2.24652
0.299908
0.302633
0.313242
0.261015
-0.464164
0.560627
0.223039
-0.298536
-0.100118
0.696721
0.195621
0.235566
-0.584548
-0.05009
0.067074
0.41368
0.0400536
0.29737
0.299195
-0.176573
0.0619853
0.145452
0.671764
0.626149
1.22142
-0.108808
-0.212219
-0.486748
0.270974
0.507951
0.296839
-0.148929
-0.0255197
0.2402
0.221678
-0.116873
0.548034
-0.105237
0.282332
0.139523
0.194377
-0.0711975
0.464961
0.476237
0.00568428
0.124511
0.349138
-0.0999905
-0.175949
0.980207
-0.419434
0.404895
0.556203
0.400856
-0.233865
0.189917
0.340032
-0.560986
0.227851
0.00754208
-0.0525997
0.339659
0.00583622
0.516643
-0.0305237
0.470059
0.505364
-0.0841756
0.00846603
0.489305
0.0764577
-0.0405169
0.352187
0.434012
-0.915275
-0.00921082
0.0208048
-0.0497796
0.447898
0.220639
-0.200556
-0.447308
-0.154837
-0.262644
-0.275889
-0.54885
0.123092
-0.169176
0.275822
-0.281007
-0.0126433
-0.369525
0.198603
-0.277929
0.0723027
-0.0756413
-0.247906
0.402195
0.118291
-0.475553
-0.367779
0.213492
-0.423882
-0.200982
0.450278
-0.163473
-0.497656
0.11727
0.127075
0.349727
-0.263709
-0.474826
0.281083
-0.125615
0.0290875
0.00724177
-0.441245
0.308003
0.115109
-0.30237
-0.321296
-0.148545
0.0357484
-0.448807
-0.882222
0.00432226
0.226371
-0.151346
0.509908
0.180496
0.4452
-0.059187
0.513548
0.206997
0.117072
0.0944523
0.366778
-0.0229861
0.346723
0.230006
0.443636
-0.178277
-0.0744683
-0.089225
0.122999
-0.311332
0.234897
0.0966522
0.421194
0.226735
0.495935
0.548906
0.135165
0.309583
0.12436
0.294516
-0.66786
-0.471232
0.234011
0.441909
-0.572861
-0.620717
0.233886
0.235066
-0.0986675
0.487851
0.201495
-0.0233841
0.352001
-0.123052
-0.262371
0.106049
-0.0880924
-0.475068
-0.118212
-0.411913
0.0931563
0.159455
0.420178
-0.294089
-0.0635911
-0.028502
-0.478425
-0.519264
0.207933
-0.439893
0.332315
0.594763
-0.0919759
0.574032
0.141607
0.0402497
0.343235
0.0582387
0.146046
-0.487737
0.380527
-0.0404207
0.15768
0.413726
0.467366
-0.131498
0.254654
-0.184799
0.472359
0.355564
-0.130661
-0.398137
-0.228036
0.47006
-0.154934
-0.458979
0.259867
-0.0501332
0.324696
-0.394004
-0.0788131
-0.113895
0.024934
-0.605271
-0.115754
-0.0407871
0.218178
-0.304492
0.0197532
0.165762
0.0950896
-0.0817016
0.777918
-0.289001
-0.167634
0.511533
0.380141
0.269619
0.484448
0.48647
0.844786
-0.493593
0.141025
0.106269
0.210815
0.800545
0.517815
-0.197895
0.302922
0.382126
0.395459
0.476731
0.870479
-1.54262
0.0276507
0.44768
-0.00176276
-0.0737334
0.179289
0.381207
-0.0510269
0.104241
0.242511
0.348013
0.0390347
-0.133803
-0.41812
-0.139483
-0.0723681
-0.277647
0.168698
0.409039
-0.0582508
0.486625
0.31049
-0.0812094
0.271924
0.0173799
0.276216
0.312903
-0.493749
-0.110767
-0.141699
1.42825
-0.000893458
0.764937
-0.199149
-0.394982
0.432072
-0.405945
-0.129745
-0.470063
0.0509298
0.254505
1.14517
-0.548805
-0.239011
0.59313
0.121706
0.397299
-0.389406
0.505325
0.546887
0.0343537
0.808916
-0.0976592
