#input normalization
0.161158 0.27277
12.1791 20.0645
11.7087 29.4484
10.0285 27.5433
0.0124533 0.0336322
0.0105797 0.0291842
0.542988 1.36901
0.823511 1.27769
1.05267 1.47112
1.29982 1.67897
1.57855 1.87949
1.86027 2.06281
2.12999 2.22636
2.39629 2.3791
2.64966 2.49472
2.91756 2.54995
38.1053 49.985
1 -1
#output normalization
1 0
#neurons weights
0.274999
-0.181135
0.364184
-0.435277
-0.455532
0.0978291
-0.417679
-0.218788
-0.187126
-0.123648
0.246877
-0.25911
0.492091
-0.31667
0.10758
0.0625381
-0.363451
-0.292514
0.619079
0.425111
-3.09841
0.56807
0.0984931
-0.386893
1.00272
0.0157549
-0.334142
0.368352
-0.108286
-0.424043
0.213662
0.350143
0.279317
0.167046
2.07507
-0.476708
0.334531
0.18159
0.248612
-0.229657
0.55224
0.710251
-0.680729
0.204189
0.282225
-0.272768
-0.0271583
0.194535
-0.482303
0.222923
-0.21594
-0.163142
0.325945
0.485161
-0.139051
-0.0361781
#synapses weights
-0.952122
0.284873
-0.230018
0.180082
-0.0940419
-0.0516816
0.906733
0.254775
0.207441
-0.0972001
-0.0997972
0.177041
-0.432166
0.302147
0.0402998
-0.174645
1.36307
-0.0262745
0.412799
0.431245
-0.383176
-0.110646
-0.204691
-0.0206247
1.01744
0.183491
0.190552
-0.168067
-0.0320378
-0.0931551
-0.414296
-0.0789075
0.102589
-0.239094
-0.177247
0.252714
1.22973
-0.415072
-0.0527863
-0.0039789
0.018392
-0.0357118
-2.95359
-4.18956
0.0302677
0.122846
0.167345
0.0901723
0.116258
-0.0142237
-0.0420175
0.166592
-2.00404
0.272738
-0.17575
0.367877
0.311874
-0.164605
0.20748
-0.28929
0.894468
0.565865
0.611328
0.236171
0.359924
0.0826244
0.214453
-0.137227
0.237106
0.247944
0.59849
-0.031669
-0.776615
-0.0251919
-0.0651905
0.00193869
0.137202
0.214812
0.778225
0.00512573
-0.304937
-0.00141016
-0.00207403
0.269922
-0.145876
-0.399975
0.40103
-0.0181435
0.875894
-0.232707
0.345367
0.138449
-0.138404
0.0395436
0.291513
0.25076
-2.03628
0.409395
0.243782
-0.300582
-0.296179
0.0315658
-0.279285
0.198665
-0.0325265
0.167667
-0.786451
0.080793
-0.361906
0.442298
-0.12692
0.129997
-0.208816
0.0944584
1.14948
-0.642216
0.372122
0.760655
0.127291
0.0825853
-0.149713
-0.281837
0.0455773
0.398229
1.1331
0.480494
-0.686299
-0.204386
-0.0722991
-0.00838406
-0.198764
-0.370777
0.704446
-0.185768
-0.329719
-0.0410606
0.0313289
-0.0138164
0.368226
0.146905
0.00882527
0.012944
0.806091
-0.329483
0.370333
-0.372283
-0.0755969
0.267694
-0.426968
0.241486
-0.614663
-0.108576
0.365304
0.515363
0.108417
-0.172466
0.0553423
-0.0205897
0.190726
0.486627
-0.326209
-0.129444
-0.554143
0.210678
0.0991762
0.134285
-0.323356
0.21505
-0.42291
-0.150304
0.0928674
-0.135494
-0.133937
-0.126058
-0.13796
0.254842
0.011504
-0.0865395
1.17913
-0.27089
0.0572786
-0.0649739
-0.230764
-0.185828
0.142956
0.0970873
-1.49227
0.247968
0.268467
0.193644
-0.108634
0.00859968
0.112895
-0.315674
0.278711
-0.556095
-0.751215
-0.223457
0.603031
-0.370152
0.056977
0.356533
0.146099
-0.0179568
-0.984236
-0.00921759
-0.638767
0.190158
-0.339068
-0.0670875
-0.329486
-0.179579
-0.344489
0.226409
-1.23724
-0.0360228
-0.407406
0.43234
-0.157004
-0.103872
0.35127
-0.292866
1.36568
-0.74763
-0.175182
-0.0776304
-0.313304
0.0734549
-0.061284
-0.231653
0.0265902
-0.0985873
1.10523
-0.218879
0.207334
0.400736
-0.350777
-0.129199
0.0424839
0.358724
0.442912
0.441129
-0.166176
0.394424
0.0245799
0.345639
0.170767
0.186726
-0.121197
0.325435
0.178552
-0.0283538
-0.560392
-0.52448
-0.0750284
0.0389295
-0.206517
0.430653
0.502217
0.269099
-0.171043
0.219521
-0.0501475
-0.262273
0.224296
-0.170224
-0.202311
0.292438
1.14712
-0.0944944
0.077853
-0.255708
-0.222427
0.265287
-0.189421
0.463297
-0.911844
-0.363807
-0.229601
-0.285076
-0.0581851
0.10069
0.0770744
0.296262
-0.156107
0.0875428
-1.40014
0.179845
-2.34782
-0.0712207
0.140549
-0.0539575
-0.206684
0.404846
2.80861
-0.400942
0.122013
-0.0508573
-0.0385259
-0.0146635
-0.0271525
0.0679269
-0.0975556
-0.0159423
3.83083
-0.374563
-0.101602
-0.210301
0.199303
-0.339169
0.0710749
0.19645
0.71515
-0.372784
0.222165
0.0364154
0.133184
-0.189133
-0.0765437
0.251651
0.461306
-0.136359
0.260347
-0.0889931
-0.216358
-0.112268
0.306886
-0.319508
0.177712
-0.0344314
-0.358866
-0.59385
-0.298664
-0.249262
0.0894207
-0.321694
0.214371
-0.297352
-0.222913
-0.264413
0.786153
-0.0880964
1.09113
-0.136294
-0.476541
0.523552
1.08876
-0.387265
0.570183
0.718151
-0.56186
0.869982
-0.79249
-0.425213
0.556679
-0.290864
0.960086
-0.589438
1.58293
-0.253316
0.567758
0.281582
0.332006
-0.489517
-0.511349
-0.390158
0.162226
-0.497742
0.181511
0.335967
-0.0148364
0.0349655
0.0559786
0.392228
0.233685
-0.0664878
-0.177189
-0.419487
0.293096
-0.202003
-0.464328
0.275419
0.255283
-0.344571
-0.0952501
-0.0468302
-0.500429
-0.243251
-0.0176104
0.0610577
-0.0762535
0.304407
-0.133477
0.343337
-0.00586524
-0.0944227
-0.397562
-0.110973
0.250822
-0.329563
-0.00331181
0.815248
0.336751
0.24915
-0.209128
-0.642217
0.220322
0.286398
0.524145
0.423215
-0.425717
0.0938498
0.145924
0.395651
0.349632
-0.0764134
-0.248305
0.409967
0.359395
-0.0613134
-0.812323
-0.0169251
0.613637
-0.32072
0.786006
0.0829479
-0.216758
0.117347
0.396814
-0.537495
0.0179362
0.0169501
0.497406
0.272478
0.509396
0.217507
0.147912
-0.42179
-0.0941347
-0.0796594
-0.336912
-0.346807
-0.966366
-0.47418
0.129787
-0.361652
-0.302112
-0.227494
-0.0774135
0.101458
-0.000245255
0.173899
-0.34565
-0.515519
-0.0738905
-0.426454
-0.629342
-0.306972
-0.0992867
0.456569
-0.596033
0.330827
0.0347231
-0.529809
0.123078
-0.424055
0.60992
-0.0141699
0.0183478
-0.0170496
0.324426
0.0658618
-0.0246324
0.38508
0.0661768
0.262293
-0.0851352
-0.914171
0.126492
-0.0772145
-0.292047
0.22643
0.315691
0.131427
-0.496773
-0.626794
-0.192343
-0.519507
-0.139203
-0.386284
0.105415
0.422017
-0.135329
-0.222732
-0.35997
-0.0753717
0.596453
0.161245
-0.308186
0.18417
-0.576237
-0.408602
0.468051
-0.63656
0.568179
0.366116
-0.488065
-0.151269
-0.834364
0.255405
-0.708409
-0.143577
-0.86675
0.346762
0.269114
-1.11957
0.435503
-0.0526358
-0.404887
0.353585
-0.301656
-0.438207
-0.0144306
-0.328841
-0.142047
-0.128911
-0.155609
-0.17377
-0.149659
0.283646
0.14957
0.276007
-0.0710188
-0.00830963
-0.325768
-0.304237
0.092364
0.452392
-0.409705
-0.130258
0.119198
-0.103469
-0.185498
0.0579517
0.37993
0.0474547
0.0393718
-0.20614
-0.333522
-0.119863
-0.330406
0.455214
-0.0627199
0.377479
-0.110425
-0.00136834
0.134794
-0.281817
0.0932268
0.355213
0.504655
-0.163979
-0.392114
0.393052
-0.275903
0.291048
0.276521
-0.0825151
-0.447354
0.0140139
0.043002
-0.0181549
0.131719
0.585977
-0.400858
-0.118384
-0.310542
0.422754
0.503539
0.627426
0.891092
-0.238308
-0.428534
0.227503
-0.0415429
0.272489
0.171199
0.0712142
0.548629
0.270982
0.326684
-3.02862
0.169339
0.606814
-1.10482
0.923795
0.639986
-0.293432
0.0578599
-1.08624
-0.362348
1.27503
-0.130254
0.0118887
-0.15273
3.61861
0.331973
0.442098
-0.546986
-0.09702
1.54289
-0.0616641
-0.0894738
0.0806564
-0.646509
-0.0267253
-0.0474578
0.148987
0.253996
0.437866
-0.148835
0.475399
-0.0244003
0.437495
-0.883538
0.0284473
0.312398
-0.355799
-0.0326109
0.321735
0.434661
-0.445206
0.452883
-0.205573
-0.530985
0.264728
-0.0226296
0.793616
-0.307421
-0.106723
0.640908
0.231124
0.202993
-0.738864
-0.284218
0.105165
1.24078
-0.427596
-0.855801
-0.0420542
0.682477
-0.206061
0.254881
0.54387
-0.043219
0.471361
-0.0740152
-0.602028
0.353853
-0.091982
0.348975
-0.160083
0.731191
0.360128
0.500944
-0.842877
-0.462068
0.370293
0.409669
-0.287597
0.0428074
-0.00299814
-0.401205
-0.0785391
0.0358116
0.521803
-0.293971
-0.0398183
-0.391645
0.0602529
0.286988
-0.160833
-0.382255
-0.419304
1.77055
0.218737
-0.132263
-0.47855
0.0675303
0.765132
0.160526
-0.0421264
-0.594521
-0.311548
0.121011
-0.267909
-0.473147
-2.0046
0.158862
0.0932723
1.1514
-0.226328
