#input normalization
0.160321 0.266886
9.50813 15.8714
13.3326 32.2121
10.81 28.2836
0.013153 0.0332998
0.0112175 0.0276746
0.51009 1.27706
0.81698 1.01849
0.970592 1.18721
1.15303 1.36175
1.37751 1.4934
1.60213 1.60896
1.81592 1.70013
2.01916 1.76833
2.2365 1.82102
2.45867 1.78802
39.4778 50.7951
1 -1
#output normalization
1 0
#neurons weights
-0.29252
0.0818698
0.154834
0.401662
-0.359959
-0.0933259
-0.281654
0.0666162
0.198176
0.0638245
0.481697
-0.194647
-0.214394
0.222089
0.0465765
-0.232858
0.196948
-0.0129044
-0.189166
0.207487
0.141395
1.8552
0.324417
0.278575
1.11941
-0.431918
-0.292245
-0.0760205
-1.46927
-0.147601
-0.613772
-0.0521894
1.11147
0.806288
-1.38423
-0.53623
-0.202902
-0.00039101
0.550125
-0.271434
-0.314162
-0.588652
-0.431838
-0.516031
-0.0914727
0.0646114
0.156338
-0.181331
0.101093
0.199075
0.372389
0.00687884
0.467729
-0.592979
0.135554
0.465626
#synapses weights
-0.359833
0.246819
-0.239099
-0.149796
0.225464
0.0498468
1.80306
0.175944
0.15154
-0.468427
-0.203536
0.566685
0.224719
0.367514
0.624904
-0.391239
0.494339
-0.496236
-1.26533
0.341948
-0.0329467
-0.0319454
-0.110342
-0.0573193
1.31165
0.338887
0.178379
0.232501
0.106478
-0.0917768
-0.255226
0.0336063
0.204172
0.0906753
2.08939
0.259981
-0.618868
0.188883
0.00669856
-0.43239
-0.0990203
0.554023
0.520686
-0.373953
-0.239999
-0.0546004
0.160261
-0.186783
0.19637
0.202111
0.049099
0.181119
-0.00125422
-0.169743
-1.97562
0.206688
-0.130561
-0.124173
-0.20405
0.19305
3.79955
0.620772
0.174836
0.0896201
-0.0527967
0.0970825
-0.0845067
0.062721
0.0106148
0.00787162
3.23734
-0.403666
-0.215822
0.341598
0.189188
0.224691
0.220952
-0.0812868
0.243662
-0.23319
0.536989
-0.143576
-0.0853512
-0.415843
0.114077
-0.387254
-0.447127
0.468728
1.2664
0.215778
-0.739217
-0.549093
-0.318457
0.111092
0.235835
-0.211593
0.759212
-0.0998935
0.176299
0.187583
-0.242127
-0.477263
0.521379
-0.165184
-0.281327
0.29347
0.73451
0.309812
-1.15046
-0.390199
-0.111255
0.710961
-0.258692
-0.134307
2.41096
0.278539
-0.2368
-0.198649
-0.209174
0.39193
-0.319032
0.145424
0.890244
-0.252722
2.64745
-0.29072
0.098565
-0.532802
0.342702
0.0895558
-0.10611
-0.190441
-0.565655
0.356249
0.029073
-0.192558
-0.316012
-0.223484
-0.098176
0.194151
0.326917
-0.248203
-0.24136
-0.460888
0.394842
-0.379914
-0.50782
-0.409833
-0.113288
0.559831
-1.5477
-0.475832
0.63446
0.572373
-0.244589
-0.0524878
0.604261
-0.177179
-0.0370805
0.41396
-0.752462
0.274929
-1.5539
-0.10678
-0.445818
0.134793
0.0159572
0.347364
-0.582034
0.0144676
0.0458474
-0.0182038
0.0167958
0.0369986
-0.0431808
0.0685441
-0.0940786
0.0715377
1.97639
-0.354927
1.65793
-0.0713873
0.230347
0.00568237
0.0308143
0.365874
-1.91614
0.0139852
0.302974
0.0229057
-0.19444
0.0254504
-0.00672172
-0.275676
-0.245521
0.285471
-3.36225
0.339453
0.132875
-0.121068
0.07736
-0.0328762
0.0112868
-0.0813937
-0.437928
-0.51532
0.359476
-0.181323
0.282835
-0.319278
-0.348549
-0.334967
-0.0525283
-0.0730399
-0.418982
-0.0949305
1.06063
0.515533
-0.452724
0.170667
0.106684
0.130049
-1.23921
-8.66637e-05
-0.0487264
-0.0743092
0.00871711
-0.216344
-0.230205
0.323813
-0.229862
-0.18973
-2.15515
-0.214132
-1.23831
0.00472863
0.0789426
-0.192773
-0.257793
-0.311769
-0.005565
-0.185984
-0.356032
-0.00312466
0.0745345
-0.192222
-0.0207851
0.45153
0.0586244
-0.558902
1.71907
-0.234334
-0.473179
-0.00125822
0.144489
-0.105688
0.294674
-0.0975108
-0.540064
-1.06544
-0.161146
-0.267584
-0.107575
-0.130465
-0.0108912
-0.263088
-0.284977
0.233863
1.1433
0.00326258
-0.777457
-0.0599393
0.376599
-0.302929
0.394889
0.162243
1.00941
0.167068
0.0975861
0.0517171
0.0204479
-0.0898425
0.0269476
0.0994854
-0.0922891
-0.470953
1.84059
-0.485275
2.16826
0.24463
0.143443
-0.0937022
0.235599
-0.446852
-2.52028
0.315767
0.0124157
-0.00305746
-0.00867504
-0.0519358
-0.121156
-0.0152425
0.125259
-0.198635
-3.26585
0.268946
0.445311
-0.128177
-0.124606
-0.216196
0.54738
0.0246046
0.806364
-0.480239
0.151895
0.100894
0.117153
0.0744825
-0.202832
-0.303504
-0.390041
0.300358
0.301242
0.0917111
0.500069
0.475991
0.665478
-0.16038
0.109035
-0.311939
0.242211
1.89776
1.23654
0.265036
0.0937277
-0.0547152
0.0488921
-0.102436
-0.159793
-0.248193
-0.886579
-0.2335
0.0873761
-0.974085
-0.121532
-2.48237
-0.823139
-1.0705
-1.07192
0.662713
0.626493
-0.0293099
1.85383
0.0960337
1.39577
-1.03835
-0.909657
-1.21782
2.96103
-0.909578
-0.410008
0.0945186
-0.424543
0.377571
-0.512875
-0.00318369
0.00901333
0.330273
0.165333
0.273144
-0.363791
0.63
0.168199
0.0708213
0.116842
-0.409054
0.301653
-0.116588
-0.0503727
-0.0600028
-0.273214
-0.104985
0.00765978
0.437157
0.183423
-0.172292
-0.746657
-0.403108
0.37535
0.120621
-0.645481
0.282559
0.0115122
0.175679
0.765977
-0.25347
-0.965207
0.449686
0.247139
0.259517
-0.937687
0.114056
-0.848244
-0.569549
-0.495663
-0.345831
-0.0784257
-0.0403971
-1.27783
0.965735
0.354733
0.843373
-0.340487
-0.339364
-0.194288
0.352834
-0.357849
-0.328465
0.481626
-0.140253
0.351309
-0.356005
0.112941
-0.162469
0.00233037
-0.210301
-0.952131
-1.17385
-0.694811
-0.189147
-0.578385
-0.627617
-1.04505
0.170497
-0.290438
0.535161
-0.00876895
0.650424
-0.105086
0.375579
0.0495219
0.223381
-0.0742543
-0.227254
0.0494603
0.0793573
0.319966
0.28682
-0.101897
0.0703483
0.354007
-0.427066
-0.459108
-0.279124
-0.459482
0.433379
-0.320737
-1.25634
0.459052
-1.15322
-0.820237
-0.62018
-0.585827
0.691999
0.400768
-1.43238
1.11998
0.130601
1.03933
-0.527768
-0.998423
-0.913446
1.53468
-0.370614
0.171943
-0.11961
0.0120387
-0.565438
-0.291664
-0.177718
0.232017
0.130904
-0.160495
0.476311
0.144758
-0.189584
-0.0404767
0.21775
0.262746
0.0988202
-0.038413
-0.413238
0.233094
0.102915
0.227289
0.228687
-0.324253
0.698846
0.00539015
-0.183582
0.116083
-0.262457
0.0755771
0.442353
-0.112315
0.0853413
-0.63861
-0.0343552
-0.237737
-0.316482
-0.486853
-0.0412387
-0.533991
0.19446
-0.30201
-0.292568
0.303014
0.273604
-0.0488521
0.224549
0.485414
0.249949
-0.0226112
-0.227898
-0.175287
-0.222679
0.0950041
0.491213
-0.0964972
-0.358065
0.259838
0.00841762
0.159116
-0.445034
0.241502
-0.172686
0.493801
-0.0318898
-0.691706
0.111485
0.685756
0.0685001
0.741333
-0.312789
-0.048827
0.0236425
0.0457843
-0.16985
0.413404
-0.441511
-0.051406
0.226452
-0.144469
-0.288261
-0.101105
0.335424
-0.276872
0.305857
0.0844882
0.21994
0.0709933
-0.301132
-0.16842
-0.117024
0.226793
-0.0431732
0.513053
-0.111702
0.471124
0.211624
0.316128
0.711667
0.559642
0.40032
0.473788
0.332509
-0.0821523
-0.287344
-0.0453045
-1.17122
-0.0178007
0.357978
-0.499616
-0.18389
-0.0952765
0.170609
-1.44194
1.022
1.14766
0.302533
0.188296
0.265759
0.617834
-0.270647
-0.098599
0.266785
0.189803
0.112118
0.638487
0.114996
0.116308
0.294283
0.56414
0.0627916
-0.486457
0.0719373
-0.0596467
-0.0722888
0.159859
-0.0434462
-0.040925
0.406523
0.303745
0.250286
0.145215
0.215781
-0.167447
0.516595
0.385937
0.0194701
0.149883
-0.604797
-0.512544
0.677102
0.748622
0.044101
0.466293
0.17194
0.108581
-0.14073
-0.134865
0.165757
0.129314
0.102097
0.343928
0.239961
0.398592
-0.538626
0.0729036
-0.44345
0.331562
-0.120393
0.602612
0.114568
-0.221371
-0.04734
-0.489731
-0.17155
0.134894
-0.0991008
-0.48775
0.165802
-0.27221
-0.0127254
-0.536436
-0.590555
-0.336871
0.031436
-0.0788719
0.400961
0.357461
0.265755
0.0955712
-0.0827337
0.257921
-0.327959
0.344322
0.0407917
-0.626017
-0.275694
0.00446392
0.61907
0.0293905
0.138851
0.0666076
0.384505
0.274988
-0.255996
-0.569694
-0.733609
0.0598923
0.849028
-0.396361
-0.53667
1.76033
0.423142
0.219849
-0.829621
1.18683
-0.210796
-1.70001
-0.0495757
-0.271325
0.0209313
0.329565
0.138959
-0.64189
-0.43818
-0.233443
0.352532
0.471585
-0.0447911
