#input normalization
0.160287 0.266836
41.1973 43.1524
11.4598 39.7781
8.99407 32.1999
0.0122731 0.0423853
0.00989654 0.0322556
0.51009 1.27706
0.81698 1.01849
0.970592 1.18721
1.15303 1.36175
1.37751 1.4934
1.60213 1.60896
1.81592 1.70013
2.01916 1.76833
2.22458 1.83245
2.39232 1.85731
2.55904 1.86856
2.7106 1.85718
2.81984 1.81914
2.92451 1.75828
2.99266 1.68493
3.05123 1.59174
3.079 1.4968
3.10363 1.38658
3.10696 1.26875
3.07601 1.13675
3.00682 0.993866
2.9466 0.852514
2.86075 0.702192
2.74539 0.545429
2.64491 0.407538
2.53101 0.252188
39.4778 50.7951
1 -1
#output normalization
1 0
#neurons weights
-0.302134
-0.178253
-0.0247498
-0.325007
-0.184679
-0.325528
-0.213779
-0.119828
0.496346
0.0426662
0.236394
0.423491
-0.00699309
-0.340905
0.353379
0.307802
0.350134
-0.350375
-0.00740883
0.373241
0.0656795
0.033712
-0.0233137
0.181725
-0.222574
0.117978
0.464867
0.286773
0.18051
0.396811
0.490359
0.184237
0.322688
0.221789
-0.241692
-0.179506
0.962277
-0.345044
-0.0778683
0.319102
-0.104912
-0.355068
-0.253884
0.167707
-0.556965
-0.818852
0.213543
0.789448
-0.218396
-0.941016
-0.383168
-0.310603
0.265955
0.119472
-0.5975
0.424847
1.19786
-0.121995
0.292897
0.365893
-0.550001
-0.151018
-0.323009
0.487378
-0.340898
-0.502653
0.628613
0.562752
0.541157
-0.54007
-0.0479899
-0.408149
-0.447244
0.346549
0.299111
-0.271403
0.17094
-0.31423
-0.359055
-0.229183
-0.0611835
-0.197505
0.0711251
-0.291393
-0.016616
-0.052693
0.294004
-0.225467
0.0678834
-0.225772
-0.278962
-0.921253
-0.030517
-0.0962227
-0.486786
0.187157
0.464095
-0.450667
-0.102845
-0.0106711
-0.456759
-0.0750738
0.316607
-0.553108
#synapses weights
-0.394367
0.336705
-0.244873
0.155171
-0.536129
0.370752
-0.454997
-0.242295
-0.308842
-0.111443
-0.437361
0.294322
0.482246
0.0463412
0.453548
-0.32913
-0.389153
0.111031
0.469661
-0.193201
0.276323
0.0461256
-0.0154944
-0.395301
0.0695249
0.318638
0.204898
0.306223
0.273795
0.032087
-0.182435
-0.32464
0.420395
0.229447
0.0295753
0.108278
-0.136852
0.040977
-0.0641104
0.0857213
-0.46984
-0.263727
0.182146
0.0369421
0.30368
-0.353369
0.470213
-0.207073
0.236196
0.420648
-0.242074
-0.432667
0.0711561
0.180874
-0.201553
-0.110904
-0.039908
0.39112
-0.35666
0.153655
-0.142976
-0.0833658
0.417268
0.10127
0.00548831
0.0827567
-0.81635
0.374167
-1.23637
-0.335134
0.185975
0.0612164
-0.410112
0.164921
2.0259
-0.0896796
-0.0861072
-0.00595324
0.0426509
0.220414
0.220589
-0.176584
-0.10962
0.209239
-0.311989
0.105899
0.222047
0.363535
0.340023
-0.0178594
-0.28169
-0.0242107
-0.175826
-0.184488
0.342671
-0.281293
0.210431
-0.0989533
0.251247
0.17445
2.27067
-0.0211155
0.0342677
0.314759
0.184441
0.0841428
0.494174
0.466222
0.278465
0.406784
-0.373142
-0.222771
0.27359
0.16326
0.450715
0.324475
0.400394
0.0955159
0.625462
-0.255843
-0.27405
0.114947
-0.196373
0.591141
0.27755
0.0912913
0.419493
0.0439242
-0.196694
-0.115789
-0.187808
-0.44017
0.353039
-0.509099
0.363792
-0.437441
-0.616621
0.300455
-0.224423
0.505763
0.234367
-0.0637092
0.755741
0.427179
-0.00824862
0.281935
-0.133956
-0.220945
0.111139
0.00205066
-0.0793603
0.147736
-0.162781
-0.349282
-0.423228
0.376599
-0.0115437
0.3845
0.0418448
-0.12659
0.414027
0.0305759
-0.209707
-0.152524
-0.00984567
-0.157362
-0.263484
-0.274792
1.25098
0.0534471
-0.124627
0.460283
0.0997148
0.377555
0.553686
0.214734
-0.00327694
0.385424
0.324097
-0.422486
-0.360229
-0.368558
0.0628227
0.259505
-0.387994
0.372426
-0.442536
-0.246729
0.19821
0.0651858
0.152284
0.219072
-0.228615
0.0675172
0.371396
-0.147428
0.0212609
0.212611
-0.0253589
-0.0232372
0.317419
0.209232
0.772356
-0.493082
0.438753
-0.202518
0.000223002
-0.120827
0.32913
0.211409
-0.214651
0.731246
0.307361
0.0554583
-0.0293586
-0.0304648
-0.240454
0.521364
0.153364
-0.124631
-0.314122
-0.25177
-0.245526
0.0673137
0.177292
-0.100654
-0.270334
0.10789
0.0123174
-0.317183
0.123953
0.452741
0.47794
0.372992
-0.264857
-0.228269
-0.917444
-0.074016
0.559981
0.102258
0.287486
0.141488
-0.339519
0.0586433
0.160645
-0.0134078
0.342733
-0.418414
0.0776334
0.194051
0.216185
-0.152883
0.0146908
0.298289
-0.190068
-0.345444
-0.0157765
0.301685
0.091298
0.448195
-0.0994369
0.17977
0.149131
-0.27484
-0.0902614
-0.475481
-0.392726
-0.149535
0.237929
-0.18755
-1.04897
-0.147143
-0.201126
-0.520148
0.0860555
-0.177842
0.234038
0.432
-0.0797402
-0.160217
0.509455
-0.199828
-0.373229
-0.0893904
0.555276
0.248473
-0.123195
-0.228289
-0.352856
-0.231862
-0.497575
0.248137
-0.199739
0.364165
0.101858
-0.503012
0.19831
-0.295467
-0.470233
-0.209656
0.295383
-0.431092
0.244307
0.143155
-0.577973
0.132719
0.44246
-0.303923
0.399592
0.039486
0.0437
0.0899164
0.149135
0.0965234
-0.0944113
0.0663801
0.491885
-0.372311
-0.0824705
-0.0922014
0.403638
-0.199796
0.389543
-0.133028
0.512066
0.214833
0.130579
-0.326231
-0.119106
-0.342872
-0.18587
-0.0635536
0.00349547
0.0582809
-0.356304
-0.0284929
0.19711
0.521588
-0.72232
0.115277
1.46372
0.45927
-0.405152
0.153507
-0.0695837
0.153046
-0.821181
0.0510428
0.287111
-0.137962
0.185512
-0.176822
0.0124121
0.25635
0.137901
-0.240614
-0.0849285
-0.319516
0.0706671
0.453631
-0.38946
0.20735
-0.233272
-0.0765006
0.346866
-0.0529333
-0.314984
-0.104282
0.354364
-0.269799
-0.0132624
0.0575756
-2.39754
0.208521
1.57785
-0.180698
0.173008
-0.595887
0.041634
-0.0525036
-2.09302
0.271587
0.015682
0.192578
-0.194356
0.142175
-0.0152041
-0.0607458
-0.0699897
-0.0589452
-0.13752
0.136541
0.0936281
0.102256
0.213252
-0.17496
-0.166902
-0.171016
-0.0797705
0.0290571
-0.208378
-0.288612
0.210164
0.431576
-0.170794
0.154737
-2.58156
-0.127573
1.03378
0.11736
0.283261
0.0292742
-0.196379
-0.255324
0.266234
-0.0748679
-0.225616
0.24702
-0.107969
0.136451
0.300559
0.0225313
-0.252492
-0.144991
-0.089469
-0.117536
-0.00379234
-0.068845
0.157084
-0.133337
-0.0773779
0.00779854
0.133452
0.139513
0.316526
-0.15356
0.0224365
-0.224313
0.00111883
0.114695
-1.29937
-0.277319
0.101864
-0.248981
0.286365
-0.187407
-0.0186986
0.0834643
0.891279
1.01786
1.05639
0.531082
0.356845
-0.159873
0.266977
-0.0991447
0.0828448
0.236398
-0.287195
0.0631519
0.164426
0.0533852
-0.527875
0.233878
-0.370804
0.123781
0.348554
-0.148754
-0.169656
0.253289
-0.189642
-0.189621
0.0325622
0.348197
0.322195
-0.216157
0.219589
-0.42502
-0.362616
0.102058
-0.43793
0.113319
-0.627115
0.109028
-0.302081
0.0597708
0.24756
0.101956
0.48426
-0.227063
-0.111736
-0.00216901
-0.265673
-0.167161
0.273444
0.192252
-0.112432
-0.0422182
0.153147
-0.524768
0.0126261
-0.400485
0.414571
-0.340875
0.0952657
-0.210495
-0.119091
-0.0186999
-0.47919
0.0942985
1.17227
-0.0433629
0.154085
0.0159901
0.0803668
-0.186253
-1.63694
0.0610623
0.0738993
-0.0984257
0.267375
-0.0982634
0.257643
-0.26354
-0.304685
0.0677249
-0.288898
0.197691
0.0047988
-0.14948
-0.117817
0.129893
-0.0977625
0.110593
-0.120727
0.138904
0.0769053
-0.23002
0.238973
-0.335284
0.210424
0.0267657
-2.05166
-0.0177563
0.575733
-0.252207
0.284042
-0.354714
-0.217354
-0.264939
-0.615451
0.165337
-0.0233382
-0.0967832
-0.325409
-0.357262
-0.0863836
-0.29266
0.163629
-0.20683
-0.239737
0.387779
0.372611
0.309564
-0.0521258
0.193187
-0.209207
0.398183
0.0237884
-0.0906756
-0.233886
0.060326
0.322734
-0.185461
0.501855
-0.379348
-1.08545
-0.221326
0.554445
-0.294098
-0.126324
-0.36021
-0.0936352
0.315312
-0.978343
-0.30438
-0.0612874
-0.185884
-0.041516
0.000625679
0.113391
0.3946
0.124018
0.329596
-0.075407
-0.262897
0.363357
-0.189747
0.0780597
-0.0745789
0.311851
0.399936
-0.118134
-0.0319679
0.145523
-0.412243
-0.345232
0.476977
0.518583
-0.239702
-0.955631
0.27237
-0.370512
-0.0560511
0.00850316
-0.0413681
-0.268864
0.184579
1.60216
0.215977
-0.157127
-0.566316
-0.0291742
-0.0739277
0.100998
-0.0249224
0.04353
-0.505003
0.321335
-0.0182539
0.262486
-0.239002
-0.0342051
-0.12394
-0.0895953
-0.0652421
0.47535
0.365885
-0.1877
-0.107318
0.202225
-0.165917
0.26574
-0.0697246
1.64192
-0.38425
0.566842
-0.221806
-0.272665
0.0690252
-0.165672
-0.434233
0.265616
-0.181869
-0.143693
-0.350329
0.2213
0.221971
-0.277552
0.349769
0.257534
-0.384393
0.185921
0.25399
0.383015
-0.0793211
0.107619
-0.369322
0.0264819
0.055889
-0.0116101
0.0329463
0.182284
-0.102918
0.297427
0.0907007
0.250585
-0.165149
-0.844471
0.208033
0.292184
-0.0341354
-0.0918881
0.365191
0.129735
-0.340652
-1.06038
0.0798121
0.0481618
0.197208
-0.292195
0.245504
0.465871
-0.231743
0.0111005
-0.179528
-0.0162017
-0.135923
-0.180009
-0.017351
0.209393
0.117919
-0.138219
0.172505
0.369041
0.184551
-0.238911
0.200095
-0.326037
0.235747
-0.163972
0.301621
-1.98986
0.176024
-0.22883
0.228431
-0.0793964
0.0939984
-0.117984
-0.14025
2.33227
1.6331
0.260516
0.293093
-0.11532
-0.102423
0.144955
0.33866
-0.271626
-0.20516
0.0729772
-0.175616
0.109026
-0.15559
0.297316
0.409262
0.10168
-0.222274
0.251223
0.123956
-0.401889
-0.042445
0.311884
-0.385357
0.225831
-0.617
1.22692
0.227867
-1.98503
-0.0933234
0.0206539
-0.165608
-0.135155
-0.128112
1.96951
0.104773
-0.0117479
-0.242317
0.059845
0.133943
-0.201417
0.199848
0.132167
-0.134642
0.130459
0.168088
-0.22914
0.332151
-0.100801
-0.0252462
-0.00934403
0.193304
-0.130335
0.170495
-0.0983866
-0.232523
0.205517
0.203284
-0.230274
-0.0382104
2.77982
0.446323
-0.931056
0.328225
-0.206311
0.0582164
-0.134205
-0.122254
0.0643435
-0.0934006
0.304091
-0.157006
-0.159726
-0.204942
0.32627
-0.177386
0.183495
0.194716
0.055895
0.28379
0.370846
-0.472964
-0.409343
0.0316645
0.120927
-0.126821
-0.231562
0.0374154
-0.114258
-0.232535
0.24575
-0.0920009
0.175815
-0.288898
1.13692
0.321748
-0.157346
0.311639
-0.290762
0.269528
-0.0607183
0.321572
0.95284
1.01261
-0.0525184
-0.266677
0.322442
0.0953826
-0.0544011
-0.0766125
0.194989
0.210292
0.241695
-0.0325699
-0.271718
0.251016
-0.176008
0.180525
0.127053
-0.0806143
-0.315233
0.0265426
-0.253653
-0.0190583
0.334308
0.0557774
-0.436939
-0.261069
0.0316979
-0.205723
-0.49231
-0.429636
0.381095
0.41302
-0.00593952
-0.480272
-0.195918
0.0889776
-0.301684
-0.364734
-0.134829
0.0573368
-0.485356
0.453704
0.325455
0.247807
-0.225471
-0.39667
0.151562
0.144397
-0.0362051
-0.438729
-0.479741
0.0171672
-0.231124
0.174505
-0.152557
0.123014
0.0295221
-0.065156
0.228308
0.313826
0.388538
0.354463
1.17765
-0.425929
-0.13024
0.275297
-0.280589
0.106726
-2.22298
0.483863
-0.02135
0.213311
0.0760578
0.0049538
0.289967
-0.0711592
0.0856567
0.183201
0.196651
0.0445651
-0.211249
0.0246301
0.0621844
0.1926
0.0658075
0.190701
-0.197645
-0.176727
-0.0726235
0.11287
0.237283
-0.0640256
0.241157
-0.136157
-2.09178
-0.230601
0.295042
0.223511
-0.165234
0.438049
0.467581
0.248929
0.123053
-0.0544651
-0.132892
-0.144181
-0.423462
0.294547
-0.343323
0.341917
0.415989
0.126831
0.0673558
-0.0596884
0.191031
-0.188405
-0.327717
-0.351789
-0.0778223
0.136608
-0.244951
-0.14601
-0.202122
-0.0755738
-0.471276
-0.169511
-0.0537149
0.236378
0.030626
-0.145089
0.651213
-0.0719597
-0.0197478
0.358922
-0.453294
-0.321821
-0.622912
-0.0344155
-0.363209
0.036619
-0.36531
0.00484864
-0.357591
0.260604
0.259865
-0.275965
0.0857124
0.242113
0.227504
-0.107619
0.291678
0.0316265
0.480958
-0.445705
-0.340584
0.47039
-0.0216936
-0.421482
0.145878
0.0963798
-0.202531
0.099796
-0.505765
0.167449
0.154544
0.0787141
0.112284
0.151723
0.190198
-0.167649
-0.468259
0.282585
-0.545317
-0.0736682
0.100617
0.201773
0.117486
0.0795052
-0.0498542
0.155287
0.218176
0.222342
0.137769
0.11099
-0.177785
-0.144169
-0.0768933
0.370341
-0.150495
-0.286237
-0.275637
-0.443592
0.195421
-0.222746
-0.0240587
0.291625
0.516803
-0.140241
0.246457
-0.195737
-0.220969
0.475218
-0.0993556
0.369448
-0.638974
-0.156126
0.0988649
0.0244973
-0.513909
-0.00554583
-0.0181343
0.0534413
0.671885
0.145019
0.195491
0.101856
0.0877944
0.313723
0.287499
-0.563064
0.0693716
-0.563645
-0.190592
0.185557
-0.286164
-0.0417939
0.337728
0.189662
0.25714
0.170588
-1.05878
-0.409731
-0.226855
-0.244403
-0.135879
-0.155793
-0.248484
-0.323698
0.669877
0.433763
-0.214055
0.4356
-0.0303034
-0.156495
0.329769
-0.286109
-0.19039
-0.0846589
-0.427026
-0.185928
0.288103
-0.0945759
-0.31121
-0.19221
0.226942
0.0292194
-0.0315743
-0.252713
0.0897132
-0.423347
0.160832
0.588612
0.316713
0.462253
-0.175621
0.0688532
-0.819196
0.186011
0.0610308
-0.212065
-0.327425
-0.0337385
1.72146
-0.00208643
0.108736
0.0159092
-0.0165418
-0.275803
0.0452583
0.0360078
0.0136073
-0.488029
-0.172366
-0.00182759
-0.0359346
0.263329
0.420744
0.199568
0.0961964
0.279499
-0.433872
0.20816
-0.41953
-0.128272
-0.415023
-0.0326785
0.0115588
0.278418
1.87434
0.00673908
-0.720832
-0.496951
0.138756
-0.340603
-0.111845
0.26462
-0.579783
-0.602695
0.172397
0.302711
0.167133
0.212764
0.232282
-0.427744
-0.337071
-0.268075
-0.355237
-0.156616
-0.0787965
0.287449
0.16288
-0.00715829
-0.210068
0.0131056
-0.0643214
-0.278402
0.271571
-0.0133113
0.183904
0.0538181
0.119094
0.142369
0.989608
0.401769
-0.0151588
-0.397289
-0.286015
0.472786
-0.40171
0.0687806
-0.296697
-0.665835
-0.229419
0.196779
0.212712
0.507583
-0.10505
0.166174
0.22946
0.505014
0.287805
0.150616
0.155628
-0.12606
-0.190644
0.228778
-0.569469
0.348928
0.171275
0.0718667
0.147296
-0.314906
0.273421
0.380699
0.103163
0.192089
-0.351464
-0.266728
-0.457496
0.0648618
0.0386564
-0.629896
0.0545442
-0.166711
-0.273182
-0.211995
0.205204
0.198378
-0.578783
-0.298025
0.469424
0.338296
-0.424816
0.00743999
0.144143
0.00627924
-0.676476
0.10192
-0.31276
0.0848167
0.0361312
-0.266839
0.319203
0.0906185
-0.319337
-0.227998
-0.280129
0.0515198
-0.2407
-0.234165
-0.0727092
-0.491514
-0.445166
0.217146
0.317996
-0.664443
-0.0863058
-0.215728
-0.0927403
0.15207
0.16648
0.18732
0.778701
0.46782
0.444406
0.509496
-0.181868
0.0611563
0.637236
0.229317
0.323897
-0.64559
0.620149
0.569315
-0.467349
-0.425122
0.15215
0.459387
-0.0836094
0.715156
0.154914
0.0335732
0.207177
-0.544928
-0.380979
-0.264288
0.111263
0.0857127
0.142352
0.0834874
0.114035
0.0524727
0.579573
0.544709
-0.480516
0.0277693
0.146517
0.00844171
-0.257006
0.521341
0.0264302
-0.481407
-0.50962
-0.364409
-0.507099
-0.259742
0.212282
0.158457
0.260936
0.0520745
0.149005
-0.0517505
-0.0926446
0.116783
0.0940154
0.351827
0.237081
0.0808946
0.273718
-0.333336
0.643467
0.179896
0.261494
-0.133168
0.253413
-0.50131
-0.471409
0.485558
-0.199859
0.105658
-0.160284
0.0565174
-0.342519
-0.287141
0.43828
0.176284
-0.600126
-0.279419
0.00357585
-0.0609532
-0.25951
0.164192
0.174252
-0.157602
-0.494989
0.439867
0.512038
0.0508322
-0.410774
0.130374
0.160329
-0.232079
-0.457191
-0.015503
0.470213
-0.264989
-0.358899
-0.241678
-0.115317
-0.136062
-0.29697
0.174815
-0.316355
-0.529735
0.234536
-0.0791871
0.125408
0.000291796
0.0464194
0.35286
-0.381815
0.388641
-0.140062
-0.0972235
-0.58194
0.0658401
-0.388278
-0.347949
-0.500898
-0.574397
0.472
0.119632
0.393845
-0.27849
-0.304874
-0.34593
-0.148392
-0.237331
0.0270038
0.210273
0.404528
-0.229605
-0.328921
-0.28157
-0.310601
-0.36041
-0.489824
0.243535
-0.365621
-0.104075
-0.30408
-0.0977737
0.363049
-0.0736949
-0.292742
0.305761
0.0880489
-0.128082
0.190077
-0.368058
0.248228
-0.194416
-0.443036
-0.0269967
-0.0284313
-0.41001
0.0149889
0.314762
-0.0359493
0.475925
0.017909
0.322889
-0.233184
0.530535
-0.308374
0.321933
0.166003
0.351875
0.0354267
-0.470191
-0.407123
0.0192499
0.138088
0.273069
0.369351
0.137736
0.125973
-0.213557
-0.0833885
-0.146946
-0.100419
-0.133269
0.119957
-0.458828
0.0749693
-0.189779
0.387074
-0.362061
-0.206279
0.210044
0.440454
0.399021
-0.291279
-0.0286157
0.36454
-0.297003
0.190765
-0.126384
0.0311681
0.250328
0.396959
0.225084
-0.234796
-0.0228559
0.242262
-0.455008
-0.188553
-0.558356
-0.374325
0.15234
-0.149342
0.0339744
-0.369321
0.0289814
0.491397
0.236221
-0.423587
-0.0934733
0.551937
-0.0762665
0.319172
-0.449165
0.10652
0.228386
-0.00896393
-0.241824
-0.142936
0.455665
0.262696
-0.189117
-0.200279
-0.413997
-0.364064
-0.151112
0.0322647
0.0610723
-0.0133119
0.152589
0.358277
-0.344915
0.149439
0.0368036
0.261391
0.185784
0.231274
0.0270598
0.281551
-0.0256538
0.439177
-0.221207
-0.254925
0.124008
0.192529
0.612664
0.142557
0.480196
-0.140832
0.0855075
-0.250672
-0.154656
-0.372794
0.332232
0.264554
0.403659
0.508074
0.349476
-0.35973
-0.177029
0.171514
-0.424306
-0.292701
0.449343
-0.0459722
0.0449171
0.00301389
-0.524351
-0.000285456
-0.384477
-0.0400362
0.306386
0.313064
0.0816925
0.102814
0.563462
0.213723
-0.151599
0.01626
-0.391215
0.220661
-0.0691683
-0.459263
-0.256084
-0.342381
0.0903024
0.79682
-0.17794
0.160645
0.458543
-0.405639
-0.196219
-0.438398
0.0944953
0.250264
0.251047
0.236783
-0.258518
-0.0269871
-0.579051
0.24508
0.0603201
-0.634558
0.301171
-0.427542
-0.0440637
-0.368186
-0.0938666
0.00193009
-0.369152
-0.233664
0.362629
0.297411
0.0176534
-0.529517
-0.19466
-0.387647
0.136002
0.44291
-0.00656656
-0.259863
0.0362921
-0.28091
0.00597871
-0.163544
-0.205991
0.038197
-0.401965
-0.311145
-0.125883
0.0505454
-0.472513
0.282042
0.0228988
-0.0667504
-0.196819
0.442943
0.330505
0.104174
0.283603
0.0654233
0.354294
-0.234098
-0.209694
-0.219624
-0.0323691
0.383825
0.103551
-0.0248501
0.0506427
-0.68769
0.190266
-0.0883612
0.396665
0.353378
0.0662987
-0.55171
0.405758
-0.239825
-0.12788
-0.0769573
0.12424
-0.0692104
0.498645
0.428734
0.208221
-0.297869
0.32466
0.1998
0.304854
0.0291023
0.256637
0.298837
0.452006
-0.312784
0.0429738
0.325621
-0.310227
-0.23043
0.490399
0.159325
0.00119229
-0.131745
0.0373521
0.201437
0.0438651
0.0181824
0.252589
0.317825
0.685287
0.378699
0.776829
-0.344042
-0.173899
-0.114156
0.391177
0.023214
-0.36014
-0.159513
-0.125339
0.105269
-0.00488299
0.0316559
-0.0280256
0.337836
-0.429211
0.000995092
-0.579346
0.179121
-0.253633
0.224401
0.651897
0.767159
0.144663
0.17905
0.254326
1.09859
0.809096
-0.36028
0.103396
0.761079
0.531571
0.012708
-0.362026
0.375158
0.476892
-0.116626
-0.748535
-0.347516
-0.118039
-0.109379
0.742763
0.300515
0.0272399
-0.383307
0.361563
0.455762
-0.419094
-0.627491
-0.0668263
-0.248932
-0.388666
-0.253435
-0.548395
0.138327
0.016758
0.14369
0.0382983
0.356928
-0.489971
-0.104703
-0.264132
-0.105948
0.0203858
0.41788
-0.414321
-0.431969
0.341372
0.229975
-0.0191706
0.0431889
0.22047
0.314173
-0.445021
0.125641
0.403349
-0.130104
-0.317471
0.221852
0.0551272
-0.404427
-0.112742
-0.147285
0.146385
-0.152372
0.235785
-0.408606
0.613675
0.124859
0.800396
0.477265
-0.368723
-0.255318
-0.15752
0.227953
-0.474718
-0.676185
-0.757054
-0.200486
-0.318412
-0.189304
-0.350802
-0.10741
0.483886
-0.308535
-0.0645665
0.317572
0.482151
0.795168
-0.296998
-0.159813
0.115761
-0.0332075
-0.275683
0.300343
-0.0473631
0.311178
0.547028
0.804152
0.132969
-0.442836
0.425546
-0.058879
-0.284294
0.369522
-0.190371
0.446975
0.53273
-0.289115
0.150617
0.425831
0.175622
-0.0621352
0.396917
0.12942
0.610271
-0.153975
0.000976248
0.390927
-0.215086
0.46434
-0.125894
-0.409741
-0.482425
0.496554
-0.172154
0.363988
0.184617
0.0865727
0.366344
-0.128303
0.438022
-0.13457
-0.380869
0.419717
0.280192
0.372796
0.0801917
0.158002
0.280014
-0.302004
-0.50846
-0.490262
-0.275098
-0.0403161
-0.0746299
-0.423029
0.0331605
0.692948
0.311795
-0.53731
-0.119907
-0.48246
-0.374772
0.344138
-0.199832
0.0943406
0.441159
0.195096
0.0919162
0.16434
-0.323638
-0.0742788
0.0745422
-0.498161
-0.300037
-0.237795
0.18583
-0.219968
0.432541
-0.0383308
0.417063
-0.501354
0.00560838
0.128036
-0.13119
0.259171
-0.347919
-0.0822176
0.281466
0.479211
0.193241
-0.350793
-0.384131
0.164017
0.19763
-0.186281
0.349224
-0.344284
0.336544
0.281286
-0.199746
-0.477251
0.296697
0.133082
-0.43374
-0.22243
-0.205615
0.274353
-0.455301
0.0359754
0.188228
-0.183882
-0.372414
-0.337038
-0.13687
-0.114023
-0.0478429
-0.367663
-0.231367
0.43481
0.204985
0.175373
0.336301
-0.487995
0.211795
0.307707
-0.327414
-0.11255
0.293616
0.067125
0.525896
0.396123
-0.0196645
-0.46165
0.29103
-0.00101405
0.297313
0.284193
0.300723
0.576602
0.483785
0.271721
0.626845
0.389529
0.146607
-0.434593
0.215944
0.396362
0.211413
0.194253
-0.1516
0.080062
0.370536
0.280481
-0.276573
-0.353166
0.415566
-0.314132
0.471226
-0.385263
0.455375
-0.00149111
0.404788
-0.4476
0.505486
0.186762
-0.431633
-0.526357
0.137328
-0.168743
-0.185002
0.0999005
-0.038037
-0.203289
0.230857
0.0102783
-0.0246796
0.467404
0.0460223
0.387371
-0.354362
0.19019
0.210802
-0.400699
0.420415
-0.370685
-0.28592
0.0300103
0.0859669
-0.237509
0.44619
-0.321208
-0.318519
0.313931
0.0296478
-0.155024
-0.515713
-0.262358
-0.162885
-0.056325
0.268824
0.301671
0.00609421
-0.12139
-0.423564
-0.471695
-0.0969047
0.204456
0.205616
-0.221582
-0.225057
-0.268947
-0.470786
-0.314577
0.305708
-0.0675917
0.179773
0.274133
-0.462726
-0.518941
0.0778004
-1.92308
-0.0542667
-0.595592
-0.153535
0.332259
0.378453
-0.172934
0.254325
1.85374
1.9291
0.354496
-1.07469
0.275127
1.5293
0.590221
0.643602
-1.06286
0.373046
0.976909
-0.712166
-2.07559
-0.886039
-0.2843
-0.288665
1.4756
-0.313363
0.350755
-0.0246441
0.282436
-0.597495
-1.24266
-0.658419
-0.329009
0.103442
-0.474209
0.353545
0.35125
-0.229906
-0.191275
-0.364224
0.534716
-0.0373833
0.209903
0.147412
0.257198
-0.1954
-0.604654
0.186461
-0.0754887
-0.299532
0.139325
-0.442531
-0.0591613
0.435228
-0.235733
0.0594585
-0.375573
-0.393716
-0.464584
0.255812
-0.0711155
0.172852
0.28378
0.316916
-0.538526
-0.276385
0.284412
0.286251
0.228398
-0.480871
0.0564282
-0.353114
-0.188245
0.0707843
-0.203641
0.0556413
0.386291
-0.0342155
0.0160905
0.0474216
-0.181119
-0.377332
-0.235804
0.172841
0.386748
0.471509
-0.306107
0.245857
0.361884
-0.445998
0.215853
-0.504348
0.122504
-0.315253
-0.0566844
0.204932
0.195942
-0.269402
0.179855
-0.514437
-0.0244788
-0.530394
-0.439849
-0.322869
-0.357842
-0.467965
-0.391713
-0.46813
0.0678825
-0.632422
0.0162379
0.360163
-0.0868058
-0.353849
-0.0971844
-0.486546
0.0813237
-0.192116
-0.37488
0.129294
0.321606
0.111691
-0.569387
0.229757
-0.0187028
0.158261
-0.104508
-0.416067
-0.529964
0.126546
0.273134
-0.226439
0.248708
-0.066305
0.0447241
-0.235903
-0.283944
-0.32968
-0.378414
0.203677
-0.0508332
-0.0241356
0.193282
-0.0655636
-0.140844
-0.338682
-0.163587
0.22314
0.188317
0.326563
0.0756187
0.414111
-0.476357
-0.0399796
0.547411
0.275846
0.454459
-0.373176
0.169018
0.286838
0.322519
-0.345353
-0.193492
-0.107256
0.160142
0.156823
0.397102
0.365727
0.388584
0.361167
0.00144467
0.00155987
0.0621337
0.64407
-0.0949025
0.488799
-0.43014
0.116196
-0.0390997
0.160239
-0.493078
-0.0651781
-0.37749
-0.075994
-0.472115
-0.0309469
0.237786
-0.146996
-0.650388
-0.381506
0.344444
0.595125
-0.260511
-0.14029
0.256296
0.7784
0.377356
0.555334
0.596133
-0.441721
-0.174996
0.0507973
-0.160786
-0.263697
0.0808164
0.380155
0.476737
-0.195612
-0.142737
-0.278685
-0.0669046
0.0140894
0.140015
-0.339711
-0.0642056
0.127888
-0.118991
0.541864
-0.0992417
0.0969015
0.555
0.22125
0.246563
0.377839
-0.240342
0.48872
0.133785
0.257922
0.511021
-0.0215595
-0.201574
-0.18065
0.168736
-0.247285
0.356611
0.266873
-0.196552
-0.113931
-0.34989
0.010166
-0.544073
0.207361
-0.0662145
0.271635
-0.365009
-0.580924
0.0522809
-0.463202
-0.345482
0.493661
-0.329534
0.0825039
0.0856349
0.113713
0.342256
0.25669
-0.112298
-0.219182
0.185047
0.220921
0.394081
-0.465216
-0.251891
0.0847399
0.0559776
-0.808669
-0.244181
-0.470837
-0.365193
-0.0872187
-0.441182
-0.0369711
0.207256
-0.528251
-0.243637
0.043456
-0.440993
-0.0993213
0.0540142
-0.34088
0.285789
0.152752
-0.30385
0.049916
0.232041
0.157893
-0.153456
-0.34118
-0.317934
-0.398902
0.245096
0.667746
-0.0906835
-0.112119
-0.00856371
0.24954
0.479055
-0.11357
0.444198
0.369979
-0.113177
0.338077
0.253514
0.0778585
-0.0840429
0.453348
0.459274
0.0996221
0.12194
0.0112347
-0.0805994
0.482823
0.0234663
0.468093
-0.371263
-0.268092
-0.162628
-0.1511
-0.118614
0.251987
0.449226
-0.203192
-0.207669
-0.127132
0.017657
-0.286751
-0.218664
-0.204447
-0.127653
0.345166
0.0266278
-0.337632
-0.322576
0.199375
0.425936
-0.0325642
0.07837
0.222765
0.437151
-0.303425
-0.102312
0.140075
-0.161177
-0.406587
-0.338871
-0.471028
-0.443673
0.154842
0.0763955
-0.440136
-0.411977
0.339737
-0.0491865
-0.111338
-0.386297
-0.51321
0.00406294
-0.0566939
0.255166
-0.228466
0.16845
-0.408965
0.110035
-0.42282
-0.193334
0.39234
0.271223
0.193247
-0.392988
-0.504822
-0.0711561
0.320097
0.348051
0.0359416
0.0676791
-0.32322
0.437759
0.326724
-0.307456
-0.29822
-0.217525
0.0198282
-0.254096
-0.0921974
-0.160378
-0.405301
-0.305856
-0.405116
-0.445315
0.175921
-0.363904
-0.0535384
0.0140219
-0.382336
-0.148577
-0.366704
-0.371367
0.169716
-0.42322
0.0468669
-0.187796
-0.0383245
-0.529694
-0.446656
-0.449686
0.226567
-0.102035
-0.263842
-0.132319
-0.393292
-0.335786
0.156076
-0.116711
-0.0583406
-0.393605
0.380878
-0.41906
-0.438598
0.577653
0.52533
0.0424978
0.317295
0.440257
-0.00945124
0.0618809
-0.443145
-0.205983
-0.68239
-0.131135
-0.0676592
-0.565089
1.11571
-0.0360543
1.03177
0.183247
0.069115
-0.455582
-0.841368
0.106027
0.297579
1.64964
-0.114924
-0.0528818
0.100936
-0.623162
0.866636
-0.366589
-0.497965
0.0640425
-0.0904874
0.4955
-0.0821086
