#input normalization
0.160548 0.269441
48.754 51.4952
10.5141 38.5801
8.39842 31.9027
0.0115995 0.0431177
0.00931595 0.0331574
1 -1
1 -1
1.01646 1.32786
1.23048 1.51654
1.47696 1.68552
1.73 1.83539
1.9743 1.96587
2.21076 2.0781
2.43718 2.17557
2.63908 2.23007
2.83415 2.26984
3.01462 2.27938
3.15896 2.26461
3.28283 2.21551
3.38211 2.15303
3.46272 2.06189
3.51676 1.96916
3.54752 1.85503
3.5578 1.72878
3.54351 1.58884
3.49301 1.43749
3.43716 1.27838
3.34482 1.10378
3.22632 0.928516
3.11259 0.760479
2.99202 0.585453
1 -1
1 -1
#output normalization
1 0
#neurons weights
0.091494
0.0459064
0.220865
0.0370582
0.355007
0.0960299
-0.474835
0.468001
0.085026
0.0469678
0.387832
0.153161
0.210541
-0.0983796
-0.47447
0.175412
-0.261741
-0.396232
-0.250495
-0.395997
-0.275872
-0.0553337
0.430008
-0.146701
0.15341
0.421718
-0.119702
-0.499601
-0.451957
0.26905
-0.174682
0.115974
-0.278362
0.146117
0.0574822
0.391554
-0.0459981
-0.733664
0.368374
-0.137156
0.193522
0.0228303
-0.162558
-0.564027
0.247013
-0.610775
-0.462426
0.368472
0.0617053
-0.142446
0.294361
0.127553
0.131794
-0.352033
0.227364
-0.445685
0.0694405
0.194612
-0.0894643
0.506584
0.127233
-0.379428
-0.180554
-0.146495
0.291919
-0.362984
-0.152791
-0.385016
0.294644
-0.139055
-0.186458
-0.111147
-0.504004
0.12945
-0.141818
0.283263
-0.421168
-0.295444
0.0755258
0.0909476
0.221754
-0.261721
0.0416543
0.0695471
0.263809
-0.118082
0.427791
-0.177004
0.0794206
-0.364849
-0.244061
0.310939
-0.163281
0.292202
0.243802
-0.487264
-0.407216
-0.110774
-0.43555
-0.211117
-0.0908019
-0.133812
0.395977
-0.0550375
#synapses weights
0.175352
0.208651
0.0209548
0.0969127
0.137373
-0.171661
0.294712
-0.0731119
1.71274
0.897539
0.476627
-0.0947415
0.481667
-0.254197
-0.252576
0.0049918
0.308521
0.5299
-0.335993
-0.0605891
0.124634
-0.673219
0.283078
0.196449
0.137618
-0.301594
-0.142033
-0.137033
0.0445749
-0.178355
-0.187809
-0.222665
0.406161
0.160079
0.0070061
-2.23904
0.102975
0.22966
-0.444216
0.158881
0.454875
0.449528
-0.0753114
0.0492056
0.13937
0.260857
-0.167413
-0.266151
0.17177
-0.00487834
0.387897
0.214777
0.0539922
0.0345694
0.197091
0.145906
0.0237773
0.188896
0.238794
0.271349
0.0542232
0.0484397
-0.0167953
0.143419
0.293163
0.379867
0.172408
0.0653325
-0.238543
0.315796
-0.280758
0.0271654
-0.459942
0.301377
0.399045
-0.141775
-1.02717
-0.00721135
-0.143854
-0.357908
-0.56121
-0.0201404
-0.054806
0.212325
-0.24744
0.210903
-0.264105
0.46436
-0.257561
-0.186731
-0.134988
0.360678
-0.033656
0.0601556
-0.365724
0.113535
-0.28658
0.286401
0.223346
0.13159
-0.341895
-0.276012
-0.369635
-0.927813
0.0877382
0.759415
-0.262515
0.277252
0.197717
0.105651
-0.292734
-0.0316779
-0.159084
-0.16141
0.33525
0.259215
-0.0507395
0.609657
-0.201731
0.270184
-0.0576153
-0.0342393
0.44776
-0.00519896
-0.0705841
-0.178214
0.436521
-0.0340433
0.246458
-0.0499474
0.267593
-0.166565
-0.290278
-0.180198
0.0555377
0.144934
-0.201778
0.264107
0.502332
0.330704
-0.046392
-0.276729
-0.199289
-0.060273
0.482506
0.771619
0.662701
0.133508
-0.0134331
0.377667
0.303841
-0.0797138
-0.156998
-0.52358
0.212412
0.104958
0.251355
0.108459
-0.146093
-0.250737
-0.102032
0.115422
0.0953592
0.236272
0.273751
-0.348337
-0.279188
-0.699238
-0.470147
-0.297738
-0.288078
0.478472
0.206531
0.124678
0.172916
0.0694155
-0.0503931
-0.483672
-0.32566
0.383638
0.262572
0.0978135
-0.110837
-0.18126
-0.402151
0.344064
0.147302
-0.411742
-0.055357
0.19709
0.268551
0.443624
-0.307316
0.463145
-0.462599
-0.239089
0.0641475
-0.325225
0.126588
0.310396
0.543333
0.361437
0.113171
-0.0736887
0.0124495
0.401227
0.35235
0.179331
-0.268085
-0.0342691
0.251714
0.0683248
0.327896
0.488267
-0.17343
0.242874
0.388521
-0.309975
0.345634
0.116801
-0.411132
-0.0653245
-0.357153
0.115317
-0.359104
0.289946
-0.00532929
0.207369
0.0947969
-0.364069
0.0205616
0.390249
-0.192538
-0.293233
-0.18575
0.0664808
-0.0415538
0.0388684
-0.19122
0.400338
0.0343418
0.213149
0.34894
-0.0734906
0.0649477
-0.0767558
-0.150503
0.567789
0.0199161
-0.194435
-0.282565
-0.045626
0.136165
0.236868
0.203254
0.377492
-0.459172
-0.50115
-0.24913
0.404923
-0.223506
0.450273
0.0804156
0.434194
-0.0879191
-0.0903733
-0.36568
0.304433
-0.200386
-0.455858
0.24992
-0.110308
0.377403
-0.797537
-0.616252
0.282235
0.089839
0.2625
-0.103131
0.0659763
-0.779388
0.098149
-0.269523
-0.114991
-0.490865
-0.410308
-0.288196
0.549991
0.000797919
0.219762
0.156007
-0.287526
0.238049
0.242693
0.191992
0.0130789
0.0151064
0.418542
0.512012
-0.300954
0.538107
-0.140122
0.129787
-0.228651
-0.403363
0.174222
-0.135239
-0.8544
0.0484364
-0.428128
-0.179156
-0.0884914
-0.416201
0.395716
0.486343
0.46201
-0.117991
-0.251238
0.157793
-0.415842
0.0232647
0.342706
0.082945
-0.0401725
-0.341704
-0.189492
0.126329
-0.534729
0.25149
-0.256918
0.0977427
-0.288858
-0.521621
-0.0880575
-0.049587
-0.00389144
-0.00826261
0.377715
-0.00734496
-0.27635
0.139882
1.04214
-0.179306
0.105315
-0.518324
-0.427034
-0.249343
0.131598
-0.0185899
0.285451
-0.195755
0.371275
0.0430442
-0.17193
-0.020548
-0.314069
0.0911597
0.353756
-0.17694
-0.331536
-0.202639
0.418845
0.0293233
0.0847839
-0.256498
-0.208052
-0.0598755
0.152899
-0.299289
-0.369979
-0.0507744
-0.0958858
-0.393514
0.0720513
-0.0981917
0.529881
-0.278466
-0.0245583
-0.0347309
-0.569706
0.36834
-0.0279798
0.117818
0.313918
-0.26212
-0.392737
-0.014412
0.0918559
0.0969126
-0.552421
-0.419334
-0.230616
0.134716
0.333456
0.00207788
0.162778
0.368119
-0.329808
-0.000110644
-0.55882
-0.012164
-0.011543
0.217939
-0.250763
-0.284581
0.00783529
0.139487
0.0608928
-0.439038
-0.480624
-0.374017
-0.0014769
0.629423
-0.078267
0.409775
0.37397
0.0375285
0.252348
0.466333
0.262912
-0.38042
0.493085
0.410422
-0.338784
0.28979
-0.152105
0.274447
0.423867
-0.178151
0.106555
-0.157782
0.448009
0.00449591
-0.311415
0.356724
0.444815
0.0379116
-0.34896
-0.413938
-0.0178115
0.498812
0.229549
0.00961351
0.552049
-0.521051
0.28259
-0.154773
-0.12873
-0.0904795
-0.334047
-0.543977
-0.371965
0.314784
-0.239992
-0.294798
-0.0224821
0.260793
0.144146
0.50479
-0.316858
0.29393
0.365334
0.548681
-0.0317112
0.539602
0.466864
0.28875
0.26829
-0.291813
0.605502
-0.156698
0.294217
-0.11243
-0.307992
0.472198
0.2513
-0.316101
-1.25759
-0.543989
0.0778771
0.544662
-0.402219
0.188121
0.401803
-4.20962
-0.538662
-0.280468
-0.0138409
-0.183579
-0.0659066
-0.216119
-0.0226384
0.169777
0.0486586
0.0648736
0.105095
-0.0616981
-0.105455
0.316966
0.207004
0.0176208
-0.00622086
0.187906
0.217209
0.043038
0.125483
-0.2016
0.235733
-0.474254
0.124714
0.200144
0.467884
-0.367687
-0.380224
-0.787834
-0.266799
-0.0526826
-0.357673
-0.805154
-0.362339
-0.768106
-0.418282
-0.552144
0.133552
-0.409276
-0.0260729
0.262224
-0.0301243
0.0213367
-0.0695816
0.078564
-0.147847
0.225617
0.436792
0.244325
-0.577728
0.148242
0.174091
-0.212992
-0.185209
-0.277161
-0.391951
0.326739
-0.463147
0.149794
-0.893217
0.550455
0.171973
0.544482
-0.0729381
-0.354344
-0.464296
-0.375775
-0.227348
0.24267
-0.234831
0.206721
0.152173
-0.191943
-0.131197
-0.356564
0.586377
-0.155283
-0.362013
0.153209
0.441552
-0.440703
0.541589
0.196568
-0.175584
-0.318649
0.375081
0.169726
0.308969
0.269078
-0.0231193
0.142813
0.247653
0.133148
0.0572129
0.130363
-0.48584
0.395521
-0.565842
0.192301
-0.118805
-0.219624
0.324201
0.192728
-0.104612
0.343764
-0.361774
-0.0517443
-0.193842
0.235714
-0.526208
-0.572584
0.307843
-0.0648277
-0.0410317
-0.529141
0.300413
-0.14479
0.163938
0.307019
-0.132817
0.0426517
-0.325992
-0.308742
0.123847
0.011682
0.291378
-0.244757
0.638242
0.30806
0.0307356
-0.370393
-0.00155742
0.272289
0.38725
-0.135408
0.172802
0.484391
-0.301052
-0.0307323
-0.600331
-0.287713
-0.390595
-0.152507
-0.121023
-0.322874
-0.31247
-0.0303775
-0.095431
-0.325093
0.0332682
0.419859
0.194733
-0.252514
0.191605
-0.314168
-0.114448
-0.280962
-0.280107
0.0660592
-0.146463
-0.0570877
0.192721
-0.0176182
0.31406
-0.0521508
0.617804
-0.423042
-0.362113
-0.787479
-0.549772
-0.233388
-0.0405116
0.244224
0.264822
-0.408494
-0.14155
0.238074
0.117401
0.433379
-0.384481
0.266469
-0.140415
-0.386907
-0.315312
0.423543
0.329025
-0.197824
0.021942
0.415843
-0.314194
0.262179
-0.342956
0.245018
0.420778
0.133374
0.172745
0.427517
0.0863768
0.415623
0.301232
0.163142
0.249546
-0.433292
0.0790642
-0.456645
-0.533228
0.0194282
-0.35347
-0.355939
-0.452266
0.412168
-0.37391
0.0316475
-0.305771
-0.25852
0.246003
0.0332827
-0.226089
0.364075
0.632973
0.488292
-0.289762
-0.282799
-0.253075
0.178074
0.0785597
-0.167379
-0.494187
-0.241003
0.346613
-0.137775
-0.145896
0.21026
-0.476483
-0.315447
-0.15918
-0.887345
-0.465501
0.131482
0.0222008
0.235072
-0.395556
-0.381817
-0.368703
0.315993
0.365959
0.320802
-0.248381
-0.203975
-0.23834
0.469118
-0.245612
-0.0739464
-0.209455
0.407246
0.0753991
0.462634
-0.0477497
0.315712
0.360711
-0.432305
0.0965386
-0.319544
0.180006
-0.333891
0.128693
-0.332458
0.564941
-0.220536
-0.289981
-0.221482
0.383636
0.304432
0.0308244
-0.173154
0.307488
-0.161388
0.17787
0.447766
-0.230086
-0.277007
0.427131
-0.201103
0.194233
0.21237
-0.0681098
-0.409751
-0.0854805
0.421185
0.208383
0.299819
-0.461484
0.36884
-0.0067804
-0.414581
0.0999892
-0.190321
0.174334
-0.192763
0.125338
0.551289
0.439095
-0.205405
0.16783
-0.136839
-0.828524
-0.847596
-0.180602
-0.239272
-0.203174
0.247863
0.404443
-0.112459
-0.156311
0.142078
-0.0202318
-0.374832
-0.458562
-0.0652386
-0.0926666
0.404888
-0.111458
-0.175906
-0.140327
0.418976
0.256588
0.239985
0.3227
0.488804
0.375132
-0.148699
0.110083
0.325996
-0.368916
0.335645
0.278076
-0.456579
0.158567
-0.642721
-0.0915966
-0.133162
0.408367
0.121406
-0.315963
-0.396751
-0.215633
-0.157092
0.221168
0.400188
-0.170111
-0.104776
-0.0797775
-0.0806278
0.0729705
-0.298214
-0.29172
-0.146259
0.318755
0.199512
0.189325
9.49662e-05
0.11423
-0.279363
0.26721
0.232228
0.869885
0.297505
-0.0813737
-0.43818
-0.0986539
-0.0347749
0.444304
0.0823139
-0.0735647
0.279869
-0.114694
-0.289692
0.113284
-0.196862
0.24477
-0.36372
-0.023346
-0.237356
-0.322937
-0.106566
0.010398
-0.214235
-0.309004
0.566561
-0.100403
-0.171581
-0.158688
-0.0458481
0.243017
-0.263817
0.352708
0.23811
-0.276816
-0.214112
0.00597297
-0.366198
0.391348
-0.3693
0.0552358
0.403474
0.415672
-1.97609
-0.64506
-0.0392026
-0.10682
0.301658
-0.473813
-0.158679
-0.127198
0.506554
0.302987
0.010871
0.121828
0.00620371
-0.083972
0.123428
0.031737
-0.268365
0.0563019
0.398915
-0.301343
-0.0983426
0.310535
-0.419462
0.203336
-0.177951
-0.284642
-0.150425
-0.899424
0.099614
-0.360336
0.617723
0.237933
0.4224
-0.296194
-0.78283
-0.874021
-1.21902
-0.302084
-0.626535
-0.309078
0.204414
-0.342451
-0.176854
-0.0530265
0.360589
0.0652224
-0.405464
0.0213116
-0.0590618
-0.129491
-0.0558216
0.190567
0.302125
0.275438
0.358381
-0.335623
0.205437
0.218608
0.0520382
0.496949
-0.132316
0.826717
0.207671
0.250105
0.518263
-0.0118932
0.0908409
-0.236925
-0.194151
0.801884
0.284722
0.112841
-0.0345915
-0.229438
0.491775
-0.353073
0.238902
-0.144158
0.188095
0.419908
-0.462551
-0.413711
-0.458932
0.070705
-0.107592
0.125759
-0.227081
0.133708
0.339461
-0.356667
0.299714
-0.150821
0.150449
-0.240563
0.271098
-0.902351
-0.446347
-0.261242
-0.0735815
-0.151524
-0.104724
0.434123
0.0256505
-0.455255
-0.229457
0.162459
-0.495311
-0.297063
-0.379647
-0.343431
-0.220758
-0.326061
0.225449
-0.161592
-0.541416
0.203514
-0.0271744
0.21133
0.0650021
-0.0235956
0.208482
-0.437723
-0.297847
-0.25353
-0.123431
-0.123302
0.160295
0.252337
0.0603399
-0.21161
0.231614
0.277594
0.303072
0.0645408
0.344795
0.0385291
0.202966
0.267967
-0.0573771
-0.206363
0.290946
-0.324696
0.297334
-0.363228
0.0799811
0.416741
-0.0789702
-0.206223
-0.3122
-0.364574
-0.0142641
-0.393087
-0.380833
-0.141137
0.07146
-0.124206
-0.251551
0.10874
0.405147
0.0715461
0.17594
0.37075
0.22803
-0.778359
-0.540604
-0.265595
0.341509
-0.114347
0.0255769
-0.466754
-0.237667
0.321161
-0.195565
-0.320842
-0.0161657
0.216418
-0.14642
0.027182
0.203024
-0.268073
-0.149733
0.194485
-0.28403
0.353444
0.415702
-0.146901
-0.288585
0.415033
0.472236
0.151256
0.555109
0.0105148
-0.314764
-0.100503
0.343542
-0.473064
0.145158
1.09124
-0.275037
0.0986497
0.378993
0.171682
0.0883989
0.0162896
0.115338
-0.354098
-0.189631
0.0635081
-0.566585
-0.129271
-0.0733053
0.346622
0.134728
0.084416
-0.241284
-0.264637
0.138074
-0.254659
0.00512617
-0.226651
-0.37144
-0.0655416
0.336158
-0.26986
0.122411
-0.468566
-0.288521
0.158536
-0.21062
-0.362365
-0.236722
-0.315681
0.463539
0.210198
0.501834
-0.246448
0.275965
-0.258584
0.307788
-0.0786726
-0.148984
0.240494
-0.218631
-0.447878
-0.395214
-0.0359507
-0.254959
-0.104925
-0.283928
-0.218178
0.264914
-0.330859
0.129467
-0.193542
0.320962
-0.136695
-0.34278
-0.00992569
-0.439863
-0.23363
0.12977
-0.212693
0.353595
0.271013
-0.309774
0.207022
0.248169
0.156777
-0.0456112
0.0188521
0.335067
0.354433
-1.16483
-0.586218
-0.350539
0.0387924
0.197053
-0.362586
-0.221267
-0.338531
-0.279818
0.226207
-0.300321
-0.0713917
-0.245247
0.17914
0.308651
-0.298106
-0.306017
0.344864
-0.192832
-0.463354
0.258981
0.102814
0.140451
0.131808
-0.00285872
0.301863
0.0768539
-0.0406967
-0.0801603
0.09877
-0.110145
-0.472605
0.167411
0.238217
0.513317
0.387021
-0.155481
0.491409
0.0267742
-0.123794
0.473187
-0.132137
-0.19343
0.174353
-0.155328
0.309009
0.0843545
0.482933
-0.0774795
0.744887
0.0863734
-0.0816531
-0.174697
0.0934727
-0.0870509
0.268474
-0.141458
0.525595
0.29635
0.149178
-0.110507
0.206418
-0.169066
0.192655
-0.479085
0.309569
-0.229386
-0.293803
0.454152
-0.428799
-0.103604
0.145247
0.0331535
-0.25684
0.0234037
0.395536
0.261505
-0.272269
0.30131
0.0687948
0.404887
0.488192
-0.295824
-0.119452
-0.156457
0.422579
0.0314719
-0.448673
-0.175442
-0.282548
0.113833
-0.513782
0.258694
-0.012501
0.0811229
0.267625
-0.0947914
-0.302145
-0.0778006
0.0459527
0.32201
-0.107359
0.559402
0.43496
-0.64256
-0.123238
0.326112
-0.38677
-0.240901
0.46822
-0.35472
0.253589
-0.438275
-0.305195
-0.250199
0.479444
0.156988
-0.110211
0.635153
-0.600261
-0.131633
0.382795
0.00633547
-0.169688
-0.346086
-0.0283045
-0.100318
-0.520457
0.241536
0.164235
0.171583
-0.0812648
-0.212449
-0.0233966
-0.0852933
0.409713
-0.265271
0.234212
-0.286544
0.220153
-0.33916
0.33463
0.0842026
0.357787
0.330989
-0.36528
0.338276
-0.299067
-0.160454
-0.336158
-0.0625052
0.0708614
0.271395
0.4952
0.0775806
-0.137394
0.00293654
-0.475616
-0.38777
-0.391808
-0.0431464
0.2867
-0.309935
-0.0446492
0.491393
0.107576
-0.0465355
-0.27817
0.0230773
0.153077
0.276293
0.0672017
-0.471327
-0.375634
-0.273113
-0.342393
-0.104576
-0.0677077
-0.466222
-0.29118
-0.062991
-0.0673601
0.167828
-0.543131
0.120859
0.427161
0.316075
0.26122
-0.00875602
-0.19323
0.3478
-0.28827
-0.157768
-0.36328
-0.29578
0.418303
0.214211
-0.295885
0.286229
-0.171851
-0.0499764
0.273603
0.360344
0.0398252
0.296579
0.159374
0.0138446
0.284242
-0.206527
-0.155394
-0.0088811
-0.104912
0.292821
-0.147426
0.196689
0.479302
0.377386
-0.185133
-0.398355
0.338286
-0.249198
-0.186515
-0.127504
0.349855
0.418815
0.125842
0.019009
0.429886
-0.296144
0.154233
0.205499
-0.0226949
-0.104837
0.319059
0.306748
0.0334872
0.494788
0.478891
0.165784
-0.0231284
0.359173
-0.0467361
0.296256
-0.30991
0.120265
0.0230001
0.0900518
-0.250617
-0.122
-0.25459
-0.0741067
-0.31894
-0.197717
0.153378
0.346204
-0.502324
-0.378232
-0.165434
0.302737
-0.0414206
-0.432083
0.0305021
0.0416347
0.298046
0.124557
-0.227916
-0.257324
0.000621241
0.324349
0.243088
-0.35116
-0.382522
1.28943
-0.297996
0.348709
-0.698052
-0.252598
0.0991041
-0.0139087
0.410706
0.231778
-0.48421
-0.484047
0.15293
-0.108811
1.00984
-0.0968891
0.455597
-0.155872
-0.0506404
0.544292
-0.60934
-0.237625
0.457645
-0.389296
0.172156
-0.460607
0.204379
0.330052
-0.216318
-0.0809311
-0.313351
0.170895
-0.968918
-0.292537
-0.49154
-0.0944987
-0.109034
0.162258
0.0218049
-0.0210868
-0.460272
0.23217
-0.144564
0.515207
-0.406874
-0.17555
-0.271596
-0.202467
0.293656
0.289763
0.452725
0.108388
-0.456197
0.266245
0.294666
0.185394
0.477017
0.177727
0.314462
-0.209534
0.159294
0.301372
-0.268973
-0.403038
-0.00288313
-0.270492
0.0599911
0.257685
-0.42146
-0.138646
0.298354
0.261044
0.00210881
0.275618
0.302976
0.273303
0.246098
0.322337
-0.425666
0.501784
0.110493
-0.175827
-0.348966
-0.420356
-0.564058
-0.0379495
-0.250508
-0.503517
-0.402662
0.147375
-0.52907
-0.0834455
-0.309233
0.0335316
-0.374993
-0.105398
-0.176443
-0.179579
-0.434085
-0.696295
-0.159538
-0.46477
0.305534
0.319006
-0.372579
-0.260825
0.81746
-0.210709
0.0226897
0.0453278
-0.318407
-0.161329
-0.26606
0.121819
0.360888
-0.00603306
-0.227882
-0.293887
0.0854112
0.187088
-0.29018
-0.108889
0.361323
-0.270646
-0.102312
0.439426
-0.341458
-0.425333
0.386569
-0.0967275
-0.400477
-0.298241
0.439591
-0.12849
0.47818
-0.466934
0.481801
-0.322837
0.0138514
-0.0608473
-0.0685518
-0.361856
0.425547
0.459479
-0.339472
0.678654
0.382415
-0.374833
0.349438
0.238468
-0.495781
0.174875
-0.0343065
0.223483
0.323133
0.312314
0.0221571
0.350241
0.0172861
0.0417443
0.290326
0.404084
0.0635738
0.276245
0.368148
-0.288085
0.350141
0.40804
-0.372152
0.104772
0.042969
0.418042
-0.16249
-0.484062
0.335232
0.136665
0.0902091
0.399207
-0.109347
-0.195839
-0.326107
0.412451
-0.109338
0.40638
0.496976
0.0759811
0.216595
-0.234985
0.011211
-0.467751
-0.0716774
-0.252869
0.119526
0.139604
-0.161707
-0.182315
0.433784
0.166679
0.224607
-0.0522237
0.0652902
0.504023
0.269017
0.155649
0.07338
-0.0932208
-0.222049
-0.162651
-0.158718
0.178503
-0.0905144
0.339431
-0.505687
0.0971834
0.375996
-0.130556
-0.0163077
0.075178
-0.214019
0.531864
0.465314
0.424052
-0.465118
-0.29562
-0.542734
-0.0257829
0.00962365
-0.0500869
0.0411609
0.105246
0.332616
-0.168831
0.187419
0.315341
0.318893
-0.362857
-0.169425
-0.216325
-0.425139
0.194692
0.280019
0.0179954
0.0948161
-0.0162419
0.14159
0.0781799
-0.0405238
0.0859631
0.0573697
-0.118296
0.328491
-0.435708
0.48552
-0.251676
0.350142
0.329
0.137753
0.350037
0.341356
0.459594
-0.328313
0.350726
-0.123453
0.000425536
0.0072712
-0.142619
0.172485
-0.250446
0.0874352
-0.241693
0.216983
-0.135707
-0.338307
0.410643
0.50971
0.347714
0.351657
7.50085e-05
0.332713
0.0686492
-0.115358
-0.0574636
-0.176075
0.199907
-0.0153423
0.424397
0.152625
0.335318
-0.0482127
-0.0772581
0.0157145
-0.122658
-0.413323
-0.227547
0.0972083
-0.15547
0.482242
-0.456174
0.317074
-0.209921
0.260743
0.452387
-0.162842
-0.266282
-0.0312643
0.123883
-0.0536479
0.126877
-0.308216
0.381592
-0.220606
-0.343035
-0.46626
0.254545
-0.199806
0.542309
-0.499432
-0.171929
-0.421169
0.841125
0.404246
-0.231619
0.313364
0.214203
0.460912
0.352519
0.135108
-0.278832
0.608704
-0.668613
-0.175569
0.399817
0.383305
0.181245
-0.0730292
0.768371
-0.336281
-0.153219
0.549404
0.463117
0.397024
-0.477084
-0.542763
0.625841
-0.270342
-0.10585
-0.0771431
0.336974
-0.00862349
-0.385521
0.183103
-0.264479
0.330491
-0.0403452
-0.402378
0.0120718
0.135765
0.065278
0.442947
0.178226
0.317689
0.0696949
0.20107
-0.0302846
0.311371
-0.0636598
0.546791
-0.43519
0.415628
0.408525
0.0967514
0.411393
-0.363769
0.0959094
0.182012
0.256163
-0.4818
-0.13721
-0.0643269
0.0698437
-0.361572
0.44441
-0.252498
0.250192
0.404547
-0.314901
0.329302
-0.175019
0.252625
-0.31218
-0.0533143
-0.0550386
-0.435936
-0.307757
0.334293
0.20225
-0.162534
0.374379
0.18144
-0.266808
-0.0338953
-0.0966295
0.0393973
-0.0550532
0.29037
-0.140984
-0.00543694
0.317804
-0.403938
0.138401
-0.0255073
-0.501998
-0.335331
0.457875
-0.415946
-0.366054
-0.0433319
0.0402007
-0.263237
0.399629
0.731312
0.149374
0.00365032
0.0676881
-0.176607
0.110271
0.433437
0.0554952
-0.113093
0.249589
-0.409647
-0.211013
0.21697
0.0843076
0.231571
0.15592
0.0733819
-0.418474
-0.0830263
-0.408063
0.320028
-0.227477
0.157734
0.214061
0.330592
-0.379034
-0.247354
-0.282806
-0.436343
0.00440333
0.161053
-0.0767613
-0.16862
0.282357
-0.205665
-0.0789201
-0.577223
0.408613
-0.0651251
-0.387432
-0.221837
-0.153917
-0.0894424
0.0247121
0.407016
0.173541
0.285604
-0.426758
-0.224897
0.156728
0.053449
0.0482296
0.529353
-0.05094
-0.479337
-0.309568
0.42602
0.430925
-0.332582
0.192644
0.377021
0.0081578
-0.11771
0.324672
0.334876
-0.493747
0.000156769
-0.059985
-0.124403
-0.140678
-0.738634
-0.35046
-0.35303
-0.333568
-0.269191
-0.0394928
-0.024662
0.149087
-0.0687775
-0.275776
-0.21078
-0.187186
-0.0542189
-0.313729
0.305685
-0.114171
-0.522353
0.3783
0.463049
-0.0924258
0.398358
-0.0842834
-0.132145
0.472234
0.0670012
0.432254
-0.325945
0.0844133
-0.331401
0.0660248
-0.0779178
-0.41208
0.203573
0.31339
-0.280812
-0.0235198
-0.153092
-0.305188
-0.251849
-0.103011
-0.36971
-0.126156
-0.372017
0.131104
0.0354333
0.316637
0.150746
-0.348244
0.37229
-0.455379
-0.0281319
0.115591
-0.374999
0.401697
0.307595
0.150247
-0.22957
0.244423
0.29673
-0.0966614
-0.334467
0.00369219
0.0392697
0.353327
-0.421434
0.287262
0.267397
0.475162
0.350335
-0.0432465
0.346698
0.44773
-0.417878
0.394759
-0.320699
0.346337
-0.239263
-0.0778769
0.461251
-0.254748
-0.26394
-0.0578151
-0.395394
0.281077
0.392436
0.0459145
-0.446275
-0.462733
0.073093
-0.0189281
-0.503425
0.202807
0.416226
-0.339805
-0.41263
0.0711405
0.0138637
-0.0891363
-0.0258461
-0.311209
0.101914
-0.0964517
-0.104957
-0.546455
-0.128945
-0.204837
-0.308871
0.456525
-0.289915
-0.143569
-0.393294
0.218604
0.191869
-0.325663
-0.486981
0.205675
0.180359
-0.409127
0.0304869
-0.0639954
-0.0542238
-0.53276
-0.214205
-0.151455
0.120524
-0.0894805
-0.436776
-0.049985
-0.433809
-0.482388
-0.101868
0.15542
-0.118101
0.223091
0.226652
-0.4012
-0.00656861
0.200491
0.16679
-0.0343291
-0.463235
-0.391273
0.413664
-0.404025
-0.508277
0.0893834
0.101315
-0.280595
0.0945228
-0.397379
-0.199417
0.316131
-0.163867
0.0853034
-0.274251
0.254552
-0.166716
-0.399956
0.267844
0.414542
-0.358014
0.308955
0.312884
0.230132
0.280984
-0.335085
0.376497
0.164296
-0.115585
-0.202926
-0.0767461
-0.553534
-0.124767
-0.369081
0.279461
0.152822
-0.176086
0.278651
-0.127984
-0.233679
-0.346872
0.300897
-0.127543
-0.187503
0.365626
-0.212908
-0.320553
-0.36781
0.123757
-0.449045
0.327952
-0.293689
-0.0870321
-0.373916
0.158174
0.0358218
0.0508073
-0.260976
-0.41027
0.106441
0.0254012
-0.399593
-0.0633525
-0.489311
0.2665
-0.0796331
0.123499
-0.380039
0.392008
-0.00888486
0.176391
0.380811
0.0572753
-0.0374207
0.43562
0.0735476
-0.225755
-0.421764
-0.404927
0.138034
-0.137953
0.349726
0.0313121
-0.111941
0.0953784
-0.342952
0.361547
0.269977
-0.499629
-0.17587
0.4299
0.164381
0.452941
-0.213936
-0.13186
-0.159386
-0.432339
0.437551
-0.491273
0.271135
-0.35436
0.100708
-0.157135
0.113307
0.0555864
0.384816
-0.404842
0.396249
-0.334889
0.265977
-0.14847
0.416541
-0.263165
0.44958
-0.309311
0.324952
0.0143876
-0.453199
0.540261
-0.544795
0.28663
-0.0731
0.123226
0.235921
-0.317662
-0.13785
0.15779
-0.281701
0.355943
0.155111
0.112997
-0.33124
0.181101
-0.0508262
0.145059
0.401626
0.44179
-0.305763
0.151963
-0.15123
0.101359
0.834022
-0.26735
0.0612663
0.300777
0.038431
-0.355468
0.20662
-0.0332819
0.392566
-0.362848
-0.0331655
0.118902
0.413479
0.0551369
0.424594
0.0683672
0.0593273
-0.367505
0.112294
-0.2461
-0.397111
-0.238471
-0.356279
-0.0568822
-0.19348
-0.258287
0.229182
-0.298372
0.445353
0.184968
0.1066
-0.221327
0.274152
0.00728268
-0.0224303
0.043168
0.35113
-0.0125862
-0.477601
0.349909
-0.453711
0.0032323
0.368182
-0.471633
-0.214451
-0.280025
-0.513823
-0.0795364
-0.48512
0.0460835
-0.147611
-0.155642
-0.161357
-0.438414
-0.111144
-0.166148
-0.0585203
-0.171555
-0.0464955
-0.341654
-0.086586
-0.166153
0.427135
-0.273916
-0.291149
-0.49596
-0.246257
-0.2759
-0.121975
-0.216504
0.735191
0.526075
-0.247953
0.292256
0.0555862
0.2967
-0.147047
0.51122
0.0414238
0.22668
0.263522
0.126132
0.375398
0.0356445
0.580462
-0.34348
-0.625843
-0.545264
-0.265056
0.385038
0.208132
-0.147414
0.469646
0.205172
0.0148869
-0.375453
0.509201
0.118939
-0.00150621
-0.545425
-0.150253
-0.0652025
0.300431
-0.470697
0.397717
-0.529713
-0.322644
0.229748
0.370623
-0.458364
0.32654
0.260731
0.162127
-0.446589
0.497211
-0.010907
0.133261
-0.0940239
-0.0420793
-0.406755
-0.295783
-0.317934
-0.491853
0.391086
-0.447133
0.332881
-0.50125
-0.466769
-0.032506
-0.0622602
0.398622
-0.418919
-0.225293
-0.24121
0.32922
0.081674
-0.51426
0.0844014
-0.335207
-0.104403
0.384896
0.0821601
-0.348431
0.0892356
-0.0952743
0.365098
-0.475976
-0.258416
-0.375086
-0.281262
-0.112719
0.0549787
0.115438
-0.0178549
-0.416471
0.483631
-0.181979
0.0761906
-0.454835
0.386806
0.162086
-0.0540545
-0.0708908
-0.388782
0.218387
-0.589352
-0.386557
-0.383808
-0.114867
0.445235
0.308184
0.0138221
0.0302004
0.105523
0.480267
-0.287742
-0.648634
0.059732
-0.235838
-0.120391
0.217617
1.43444
-0.39329
-0.116422
0.601312
-0.206909
0.00395269
-0.023483
0.127997
0.164721
-1.06651
0.336423
0.303982
0.379121
-0.357318
-0.191545
-0.182228
0.493063
-0.317569
-0.571572
0.35473
0.403706
0.0028209
0.683452
0.225697
0.0308938
0.118684
0.408479
