#input normalization
0.160566 0.269469
19.718 28.0446
11.3987 34.319
8.95719 30.128
0.0117644 0.0384007
0.0096865 0.031547
1 -1
1 -1
1.01646 1.32786
1.23048 1.51654
1.47696 1.68552
1.73 1.83539
1.9743 1.96587
2.21076 2.0781
2.43718 2.17557
2.63908 2.23007
2.83415 2.26984
3.01462 2.27938
3.1636 2.25929
3.31178 2.18013
1 -1
1 -1
#output normalization
1 0
#neurons weights
-0.399549
-0.0250177
-0.258188
0.122845
-0.135798
0.426866
-0.235082
-0.499485
0.249441
-0.00904562
-0.201659
0.204919
-0.485351
0.172565
0.376215
0.286061
0.10853
-0.190045
0.240814
-0.462484
0.261251
-0.321356
0.124356
0.605521
-0.0365821
-0.358672
0.6329
-0.525796
-0.751664
-0.01449
-0.150426
-0.21435
-1.77207
0.0320244
-0.191887
-0.361249
0.173759
-0.0306732
0.173993
-0.109538
0.786449
-0.181764
0.389515
-0.314732
-0.194401
0.217694
0.628329
0.443399
0.0714649
0.339267
0.307835
0.158113
-0.225056
-0.356307
-0.534004
0.501205
0.149144
-0.0822701
0.283767
-0.069566
0.429347
0.347539
0.568589
-0.315035
-0.314139
-0.411342
-0.253901
-0.227313
#synapses weights
0.340808
0.0172383
0.141161
0.470788
0.212609
-0.295536
-0.366624
0.399051
0.490536
0.61179
0.269781
0.380982
0.280108
0.160891
0.154602
-0.146679
-0.625508
-0.245551
-0.656351
-0.462751
-0.0640377
0.398994
0.0423702
-0.80939
0.256082
0.0478655
0.397548
-0.434629
-0.355545
0.470989
0.945169
0.259152
0.194735
0.139982
0.120796
-0.0212943
-0.149424
0.160498
0.167302
0.225015
0.000462134
-0.000612882
-0.043232
0.431444
0.175427
0.0790601
0.243961
-0.315638
-0.119512
0.115957
0.387282
0.0489621
1.03435
0.496121
-0.00628044
0.0162974
0.276786
-0.129886
0.0371481
-0.190011
-0.227568
-0.409247
-0.212417
-0.203567
0.102543
0.499856
0.058965
-0.14896
-0.454403
-0.216536
-0.438858
0.319436
0.193755
-0.2364
-1.09105
-0.175288
0.0879045
0.0641446
0.366436
-0.0812025
0.0601783
0.158791
0.388947
-0.126006
0.133857
0.860736
0.189752
-0.491464
0.0173416
1.12782
0.394644
-0.304473
-0.266706
-0.0475244
0.387132
0.411495
-0.809097
-0.156382
-0.0887578
-0.208612
0.00869248
-0.757179
-0.144388
-0.405369
-0.0181817
-0.542047
-0.413952
-0.216484
0.424406
-0.241086
-0.0876205
-1.85793
-0.123715
-0.00652728
0.0682372
0.402771
-0.314568
-0.345335
-0.526362
0.102656
-0.302602
0.0479085
0.323268
0.321503
-0.0389315
0.352514
0.273394
0.560569
0.17452
0.220186
0.429192
0.417182
-0.0147841
-2.79436
-0.34596
0.0684614
-0.178998
-0.18648
-0.0606141
-0.384654
-0.306139
0.117304
0.354708
0.195537
0.241488
0.434645
0.483285
0.48125
0.436214
0.361801
0.554429
0.472556
0.210397
-0.015607
0.372778
-0.914092
-0.198449
0.099814
-0.149349
0.434295
-0.263234
-0.157431
0.015312
0.457488
0.108166
-0.315778
0.176114
-0.143236
-0.265667
-0.42065
-0.0636883
-0.13699
0.475907
-0.0380717
-0.334165
-0.216221
-0.0363266
2.50233
-0.00402621
-0.0948665
0.256681
0.0447679
0.404877
-0.424795
0.104254
-0.0135106
-0.0541897
-0.0890178
-0.13659
0.114355
-0.339939
-0.179979
-0.10327
-0.290492
-0.457502
-0.248435
0.0854858
-0.316842
-0.279743
0.0121368
-0.425589
-0.404094
-0.178267
-0.0533103
-0.46283
0.499676
-0.123108
-0.509166
-0.646991
0.323615
-0.172225
-0.182503
0.538214
0.421725
-0.0963102
0.418633
-0.208775
0.441037
0.426755
-0.312281
-0.103608
-1.09525
-0.0428559
0.0125435
0.0708855
0.0420276
0.331031
0.0241022
-0.0402545
0.0695491
-0.0227552
0.233224
-0.165303
0.174832
-0.0556798
0.18684
-0.280361
-0.190043
-0.399323
-0.604613
-0.144586
-0.466654
-0.0340673
-0.954798
0.301247
0.309666
0.225256
0.420128
0.222461
0.359055
0.177089
0.127559
-0.407874
0.426288
0.256082
-0.00528799
0.384812
0.180733
0.225472
0.276176
-0.0130807
-0.0660567
0.472061
0.331305
0.0487012
-0.84381
-0.196507
-0.365896
0.620897
0.409312
-0.355925
0.489482
-0.191092
-0.570118
-0.438381
-0.355992
0.176095
-0.0254
-0.0168169
-0.136126
-0.310307
-0.0533275
-0.115944
0.110442
-0.316714
-0.256546
-0.208908
0.241012
-0.0695408
0.129404
0.114598
0.716313
0.149954
-0.388175
-1.38957
-0.70195
-0.846751
-0.30103
0.127874
-0.181955
-0.15745
0.206473
-0.147087
0.185154
0.312751
-0.162084
0.395552
0.49461
0.299231
0.304153
0.19355
0.275282
-0.0338636
0.224965
-0.092251
-0.496806
0.09539
0.0754173
-0.460447
0.180322
0.135992
-0.0796576
0.19563
0.111611
-0.186309
0.237916
0.577021
0.291415
-0.432517
-0.374888
0.192462
-0.577406
0.453031
0.255582
0.188507
-0.126508
-0.32455
-0.0333406
0.677155
0.27619
-0.0395347
-0.177382
0.490119
0.0645822
0.203439
0.202323
0.273217
-0.316474
0.410588
0.603515
-0.393195
0.347945
0.418565
-0.329189
-0.0293439
-0.0531823
0.183411
-0.373094
0.154178
0.134944
0.034783
-0.29448
0.0141841
0.313854
0.322818
-0.211317
0.36597
-0.198767
0.081245
0.0322476
0.00012062
-0.276572
0.0742894
0.145245
-0.116056
0.443244
0.202004
-0.216748
0.129863
-0.243836
-0.124846
-0.195895
0.186815
0.0532646
0.594386
-0.0879224
-0.425413
-0.200498
-0.590814
-0.436208
-1.34351
-0.782019
-1.05546
-0.920908
0.163854
-0.416679
0.07071
1.84354
-0.100807
0.127916
-0.254534
0.00913591
-0.47216
-0.441882
-0.244568
-0.42729
-0.546162
-0.395128
-0.24249
-0.462961
-0.314699
-0.518446
-0.593098
-0.449237
-0.17251
-0.707739
0.0242476
-0.428419
-0.00464317
0.518465
0.2324
-0.0622011
0.0924595
-0.139092
-0.348697
0.0339648
-0.445762
0.182537
-0.472082
0.235527
0.0200963
0.289979
-0.0215989
0.0995265
0.154795
0.105352
-0.435288
-0.299718
-0.14168
0.279536
0.132798
2.89141
0.414184
-0.0970659
0.160119
-0.0896115
-0.297526
-0.427215
2.81235
0.332661
0.0292518
-0.406647
-0.265483
-0.120357
-0.347636
-0.288606
-0.346996
-0.340075
-0.693768
-0.317263
0.373608
0.28072
-0.0817131
-1.24291
0.00318929
-0.292749
-0.176426
0.361299
0.265573
0.0878915
0.122199
-0.426474
-0.137631
0.0207274
0.135545
0.212997
-0.104051
-0.393402
0.314801
-0.161387
-0.0779684
0.42012
-0.417909
-0.210853
-0.0850024
0.513861
-0.432575
0.163953
-0.169571
0.211533
0.464088
0.125825
0.507111
-0.0415564
-0.264499
0.387691
-0.109543
0.0754395
0.003202
-0.00575471
0.28095
0.184382
0.212541
-0.210325
-0.0616048
0.154171
0.549668
0.304015
0.453209
0.276168
-0.00736996
-0.00901541
0.523161
0.433148
0.096496
-0.33537
0.291787
-0.120358
0.497493
-0.407423
0.0997516
0.284845
0.303653
-0.0552022
0.158383
0.186859
-0.185639
-0.0833317
0.506876
-0.432512
-0.0429675
-0.178437
-0.195413
0.610691
0.308028
-0.0834423
0.441034
-0.272104
0.41087
0.254931
-0.0694019
-0.295051
0.396678
0.328041
0.0961011
0.476523
0.194984
0.243923
0.250665
0.34206
0.141206
0.362168
0.0487404
0.322488
-0.359063
-0.0130381
-0.535964
-0.138579
0.536852
-0.133842
0.338853
-0.325638
0.0971712
0.246051
0.604848
-0.127214
0.00205366
0.177232
0.43619
0.262393
-0.268465
-0.435035
-0.493297
-0.126343
0.472691
-0.233782
0.385903
-0.0401718
0.0995266
0.401844
0.127526
0.151011
-0.29838
0.395008
0.0558259
-0.20955
-0.606392
-0.300382
0.428892
0.48978
0.509898
-0.119965
-0.0559733
-0.203399
0.0551392
-0.493888
0.164729
0.466473
-0.523223
0.649629
0.558058
-0.0893865
-0.349061
0.266169
0.19544
0.636351
-0.723847
-0.351113
0.451394
-0.0389218
0.0888783
-0.000534485
-0.500151
0.0835674
0.320915
0.0529154
-0.899519
-0.180363
-0.0653334
0.111492
0.126116
0.0730116
0.660042
-0.0891233
-0.0340528
-0.35855
0.309752
0.115087
0.397784
-0.994569
-0.0305603
0.496439
-0.00349411
0.404574
-0.42443
0.181391
0.636781
-0.114769
-0.126684
-0.744459
-0.215651
-0.133151
0.165056
-0.0755403
-0.328685
-0.391178
-0.325568
0.195503
0.140665
0.453506
0.21959
-0.0521482
-0.245975
-0.0164952
-0.103099
-0.222518
-0.280885
0.167036
-0.0572903
0.413571
-0.244014
0.188271
-0.0909359
-0.309051
-0.368386
0.419262
-0.0356291
0.152685
0.281287
-0.354766
0.165487
0.156723
0.179738
0.923399
0.0805109
-0.187229
-0.481751
0.241535
0.569508
0.314356
-0.387326
0.34152
0.341578
0.411165
0.353895
-0.802947
0.245694
-0.434003
-0.0876501
-0.621858
-0.27311
0.116704
-0.204628
0.254226
-1.05454
0.45631
1.54902
-0.0530465
-1.32314
0.269404
0.648211
0.0509395
-0.28442
-0.505841
0.235027
0.49086
0.0285732
-0.820349
-0.836462
-0.36197
-0.616883
0.560283
0.105768
0.12126
0.518581
0.423258
0.0867766
0.0866758
0.0113923
0.384579
-0.13002
-0.680988
-0.0934005
0.666382
-0.172445
0.335033
0.387817
-0.638367
-0.364489
-0.203518
-0.374612
-0.370521
-0.353734
-0.173389
0.404263
-0.230474
-0.0795785
-0.273267
0.38052
0.319866
0.45426
0.299153
0.362085
-0.0491626
0.0543745
-0.268431
0.251998
-0.206657
0.0397023
0.428376
-0.263985
-0.00652318
-0.172409
-0.240484
0.354358
-0.407423
0.228781
0.341916
0.00665412
-0.156909
-0.167283
0.174701
-0.261803
-0.705683
0.395659
0.882547
-0.298939
-1.12689
0.0700471
0.952579
0.238257
-0.0813234
0.449563
-0.285363
-0.115532
0.232783
-0.675728
-0.197891
-0.293641
-0.455141
0.794939
-0.26567
-0.0948232
0.198501
-0.274289
0.431783
0.42703
0.0123283
-0.556874
-0.203028
0.206358
-0.193915
-0.0383902
-0.357086
-0.290958
-0.0816107
0.364903
-0.639483
0.10341
-0.0229754
-0.160868
-0.0087072
0.280929
-0.629262
-0.168125
-0.21936
-0.165344
-0.511213
-0.465526
0.474033
-0.0467854
0.458328
-0.280669
0.419292
0.13014
-0.311498
0.448302
0.00260193
0.0958404
-0.178098
0.150435
0.446582
0.418084
0.210276
0.398741
0.466437
-0.200528
0.215616
-0.165679
0.137691
-0.0536221
-0.499494
0.219646
-0.285658
0.115039
0.30774
0.336261
-0.481102
0.450302
0.231658
0.0885661
0.287149
0.0129327
-0.0854272
-0.115767
-0.423066
-0.495111
0.370572
0.00482578
0.424021
0.51818
0.119521
0.569104
0.298844
0.0535793
0.353039
-0.183583
0.373249
-0.0618757
-0.0667418
0.178295
0.152083
0.321829
-0.113255
-0.0518247
0.71067
0.368955
0.397375
-0.394204
-0.152584
-0.336554
0.0286663
-0.266439
0.133038
-0.361199
-0.676597
-0.265305
-0.216824
0.190143
-0.201744
0.306941
0.12062
0.631052
-0.416567
-0.472146
-0.326174
0.358811
0.143926
0.476107
-0.187126
-0.42724
-0.174979
0.303812
0.137631
0.230816
0.038925
0.0432021
0.0350675
0.281616
0.533207
0.513005
0.0256546
-0.466108
-0.889214
0.404039
0.875175
-0.459604
-0.453388
-0.293619
-0.533855
-0.0433165
-0.423218
-0.311703
0.214549
0.798088
0.666364
0.323946
0.560639
-0.325643
-0.202621
-0.083754
0.112701
-0.353098
-0.0989734
-0.124676
-0.31784
-0.172872
-0.180443
0.174757
0.463113
-0.168077
-0.217905
-0.179597
-0.238173
-0.235944
-0.731473
0.29169
-0.0392328
0.120135
0.0356016
0.293522
-0.393224
0.374874
-0.447695
-0.251654
-0.297992
0.42158
-0.0567098
-0.163055
-0.259636
-0.116624
0.230681
0.149728
-0.30542
0.101592
0.233774
-0.037746
-0.338825
0.211943
0.406756
0.37657
0.550079
-0.442616
0.199593
0.253812
-0.0415735
0.259698
-0.474171
-0.290761
0.0240034
0.0124343
-0.0229761
-0.577396
0.0243335
0.625897
-0.17453
0.0791414
-0.313509
0.288377
0.343326
-0.282864
0.07615
0.0846765
-0.339617
-0.197261
-0.254241
-0.285704
-0.530374
0.272119
0.224081
-0.247511
-0.303429
0.120451
0.302004
0.397777
-0.452328
0.42707
0.116129
-0.103332
0.250006
-0.0548935
0.492131
-0.0372496
0.334902
0.03829
0.352947
0.123628
0.335109
0.507925
-0.0948921
0.0346059
0.133975
0.158124
0.289027
-0.0932461
-0.607
1.55785
1.14888
-0.189008
0.658091
2.00272
1.27045
-0.133362
1.56253
-0.027309
-0.176055
0.388785
-0.079534
-1.04101
-1.13333
-0.0954682
-0.583011
-0.424679
-0.382229
