#input normalization
0.16111 0.272712
62.0941 63.4481
9.63197 37.843
7.92802 31.6947
0.0110841 0.0439661
0.00881468 0.0338775
1 -1
1 -1
1.05267 1.47112
1.29982 1.67897
1.57855 1.87949
1.86027 2.06281
2.12999 2.22636
2.39629 2.3791
2.64341 2.50023
2.87854 2.5868
3.10222 2.64749
3.30893 2.68228
3.48879 2.68793
3.62724 2.6498
3.75209 2.59835
3.85097 2.5101
3.92847 2.41397
3.96982 2.29961
3.99558 2.16779
3.98964 2.01953
3.9519 1.86013
3.89572 1.68228
3.7862 1.48252
3.65921 1.28429
3.54363 1.09712
3.41767 0.920599
3.26231 0.743118
3.10243 0.571919
2.94038 0.400932
1 -1
1 -1
#output normalization
1 0
#neurons weights
-0.316813
0.375264
-0.316152
0.474105
-0.302627
0.267295
0.0735788
-0.271476
-0.459648
0.365812
-0.299582
0.241246
0.36963
0.445105
-0.0330445
-0.465182
0.244269
0.0492444
0.0214982
-0.0213883
0.322008
0.0523551
0.295037
-0.145469
-0.172404
0.0478067
-0.0666545
-0.199006
0.441973
0.426462
0.241524
0.180623
0.3035
0.27783
0.324672
-0.111688
-0.402841
0.510499
-0.484492
-0.288785
0.433683
-0.193526
0.0953827
-0.489166
-0.384238
0.143979
-0.827028
0.0258551
-0.188418
-0.297683
-0.263602
-0.0940188
0.264795
0.129912
0.675048
-0.523152
-0.402544
0.164385
0.375877
0.106198
0.0279539
0.29563
-0.463716
-0.0530888
-0.350706
0.466388
0.405757
0.341656
0.105638
0.231165
-0.445491
-1.06112
0.369765
0.188854
-0.67609
0.623713
-0.345093
-0.166796
0.333645
-0.629261
0.369135
-0.452856
-0.309824
0.168051
-0.0344357
-0.214804
-0.0172417
-0.33177
-0.0563194
-0.453598
0.299001
-0.108036
-0.236201
-0.247535
-0.372223
0.426107
-0.0163477
0.301726
-0.101985
0.377788
0.311653
-0.379383
-0.625458
-0.399166
0.0965638
-0.336619
-0.106624
-0.318333
0.329474
0.206795
0.0867316
0.458579
-0.29447
#synapses weights
-0.178174
-1.88251
0.202069
-0.127406
-0.00586623
0.482863
0.338867
0.00222828
0.375303
-0.232478
0.218554
-0.0058606
0.249316
-0.336272
0.0404763
0.325217
-0.123854
-0.0639647
0.421098
0.0612878
-0.0573701
0.176234
-0.340096
0.277099
0.0273026
0.557492
-0.119912
-0.095862
0.264666
0.396819
-0.229292
0.130255
0.0926214
0.0606479
0.207621
-0.464506
-0.374622
0.44127
-0.389078
0.0735988
0.212704
0.497483
-0.655107
-0.36727
-0.054919
0.0323289
0.485521
-0.117763
-0.181355
-0.231009
-0.436443
-0.258572
0.0459888
0.251276
0.030955
-0.384845
-0.382983
0.289265
-0.0221406
-0.269274
-0.0557387
0.265551
-0.193839
-0.179806
0.300212
0.0340229
0.0340817
0.27376
0.425143
-0.0123174
-0.123914
0.441149
-0.284321
0.0714543
0.131897
0.406383
0.573213
-0.0945375
-0.156566
0.0461015
0.348119
-0.237562
0.201283
0.434448
0.441505
-0.0323411
0.526364
-0.161339
-0.174363
0.399357
0.200286
0.205129
0.238031
0.106732
0.347741
-0.0568849
0.204071
-0.368833
-0.366873
0.132228
-0.109709
-0.050607
-0.389046
-0.288317
0.108111
-0.47873
0.164418
0.231643
-0.0977528
0.328737
0.447796
-0.179926
0.102155
0.204949
-0.423002
-0.317345
-0.206271
0.194986
-0.0399748
-0.305753
-0.18085
0.520772
0.0231958
-0.15359
0.190376
0.366343
0.068724
0.499973
0.39686
-0.195136
-0.192572
-0.516162
0.172196
-0.378563
0.0154058
-0.451893
-0.341735
-0.335306
-0.278038
0.342081
-0.130933
0.494319
0.229777
0.337955
-0.239937
0.084358
-0.00744731
-0.220923
0.288275
0.168279
-0.323386
-0.261529
0.659403
0.168844
0.399349
-0.198863
-0.355883
0.4498
0.426734
0.233558
-0.0707105
-0.00583757
-0.250039
-0.0333704
-0.221337
0.289811
-0.382123
0.0413916
0.332026
-0.449704
0.475149
-0.114731
0.398475
0.42921
0.482533
-0.203489
0.180306
0.269151
-0.179086
0.237943
0.191156
-0.0650081
-0.165184
-0.0486838
0.304324
0.429563
0.284209
0.108006
0.356692
0.15176
0.589155
0.38265
-0.364776
-1.04698
-0.62099
0.187079
-0.268741
-0.326022
-0.599981
0.314842
0.0706383
-0.0880048
-0.0167909
-0.0940244
-0.364273
0.190855
0.158813
-0.0797065
-0.233028
0.187188
0.152062
0.245056
-0.373182
0.370001
-0.187407
-0.0996127
-0.158431
-0.46973
0.163495
0.262849
-0.350055
-0.124125
-0.174846
-0.872217
-0.0131467
-0.00497167
-0.541858
0.348366
-0.185722
-0.0348573
0.736443
0.749841
0.38289
0.3857
-0.104565
0.0464235
-0.252345
-0.0193744
-0.208197
-0.342023
0.107064
0.154051
-0.256201
-0.531401
-0.0609957
0.102052
-0.196867
-0.371979
0.389372
0.173105
-0.295146
-0.00553388
-0.38047
0.071825
-0.0228591
0.037498
-0.116865
-0.158707
-0.457087
-0.381418
0.42789
0.0187936
-0.0104937
-0.398327
0.259416
-0.103921
0.284138
0.181211
0.566609
0.701042
0.501796
0.0454979
0.13381
0.053501
-0.29536
-0.112165
0.407602
-0.52237
0.163672
0.064854
0.194786
0.179103
0.0597921
0.439478
-0.218079
0.0298556
0.0610426
-0.331623
-0.0757397
-0.30337
0.40389
0.320873
-0.150412
0.128252
0.0517389
0.449986
0.128875
0.130443
-0.0326077
0.245022
-0.347865
-0.0144907
0.455746
-0.498469
-0.0518321
-0.131958
0.240759
0.121439
0.352247
0.524304
0.273149
0.0765282
-0.259127
0.413229
-0.160706
0.137345
-0.410673
0.1389
-0.196394
0.288677
0.0120459
0.135259
0.497445
0.42753
-0.0249238
-0.0812064
0.234578
0.475584
0.475348
-0.389754
0.428955
-0.118476
0.319386
0.248927
-1.00613
-0.399582
0.334346
-0.433242
-0.209121
0.0895301
-0.421667
-0.93412
-0.114378
0.366327
0.150375
-0.155358
0.0940726
0.563327
0.509703
0.390924
0.0325767
-0.186869
-0.164177
0.526583
-0.0312241
0.309688
0.295145
0.190553
0.470282
-0.248423
0.539507
-0.0763279
-0.245288
0.647615
0.093482
0.0808273
-0.372365
-0.168814
-0.0392154
0.0132729
-0.462543
0.842835
-0.236248
-0.0296548
0.68753
0.0939132
0.328935
0.365617
0.226018
-0.527565
-0.478831
-0.355678
-0.363429
-0.159594
-0.098082
-0.224317
-0.125909
-0.358918
0.227293
-0.365176
0.211907
-0.24314
0.18562
0.318499
-0.109509
-0.15535
0.41164
-0.0924959
0.251416
0.255201
-0.219681
0.473819
0.520595
0.470892
0.347828
0.147103
0.41237
-0.161915
0.43389
-0.201034
0.488185
0.126741
-0.00454061
0.352356
0.408442
0.805835
0.484667
-0.331804
-0.0955774
0.531865
-0.238691
-0.201791
-0.0458636
0.260972
-0.006282
0.382633
0.14034
0.440314
0.163601
-0.196225
-0.151037
-0.163393
0.357444
0.029434
-0.0415892
0.362713
-0.263873
0.0547996
0.527129
0.520971
0.292492
0.236085
-0.45171
0.069928
-0.145238
0.117378
0.0505702
-0.019485
-0.337561
-0.395032
-0.444079
0.415267
-0.452753
-0.172904
-0.00232283
-0.159233
-0.564027
0.183263
-0.702411
0.185342
-0.297373
-0.435865
-0.316711
-0.346085
-0.619911
0.306931
0.208357
-0.259144
0.05644
0.0336621
-0.386369
-0.111634
-0.359116
0.167675
-0.101201
-0.344126
-0.301272
0.44958
0.114211
-0.184056
-0.450795
-0.105554
0.591515
0.263671
-0.32036
0.383427
-0.349734
-0.0126585
-0.351804
-0.232135
-0.164744
0.231364
-0.456547
0.454349
-0.13841
-0.308652
-0.261101
0.32015
-0.372994
-0.0181637
0.257834
-0.274094
-0.150485
-0.387814
-0.184643
0.215324
-0.0304834
0.0475668
0.31077
-0.328248
0.140924
-0.488399
0.0203112
-0.185615
0.398746
0.440786
0.0805526
0.318898
0.412963
0.0630177
0.327816
0.222596
-0.362134
0.0125012
0.462907
0.0934316
0.610079
1.08955
-0.135206
0.233639
0.347201
0.312319
-0.231367
0.417055
-0.0397407
0.0869179
0.0476971
0.0829949
0.00734214
0.16145
-0.37248
-0.233342
-0.186973
0.296533
0.0618081
0.147654
0.167593
0.104249
-0.546613
-0.224414
0.140277
0.189549
-0.469099
-0.440478
0.267605
0.16454
-0.902206
0.349118
-0.109233
-0.115264
-0.205281
-0.454254
0.392019
0.628913
-0.174015
0.402906
-0.043292
0.185518
-0.0158078
-0.137604
-0.0252734
-0.0961044
-0.409321
-0.0525161
0.0200722
0.496061
0.3526
0.369824
0.197334
0.181841
-0.197168
-0.282288
0.271372
0.345047
-0.476525
-0.210782
0.2381
-0.297394
0.439724
0.251095
0.0898036
-0.17087
0.0662782
1.10071
0.0663131
0.192432
-0.682688
0.514048
-0.237502
-0.45102
-0.375395
0.726114
0.322371
0.10999
-0.181799
-0.43412
0.256898
0.207405
-0.135753
-0.248425
-0.263061
-0.496302
0.23599
-0.119224
0.268309
0.43991
0.0744402
-0.0355681
-0.727796
0.237441
0.239973
-0.0611492
-0.314612
0.302405
-0.101951
-0.0775809
-0.0855848
-0.164979
-0.44983
0.0904609
0.284145
0.0616303
-0.384515
0.203812
-0.418388
0.0333862
0.128812
1.84911
0.970497
0.219899
0.436648
0.482231
0.269072
-0.162582
-0.123878
-0.208719
-0.0150855
-0.310818
-0.752848
-0.538274
0.151294
-0.0778468
-0.668594
-0.0337065
0.400255
-0.346842
0.0823368
-0.325726
-0.486771
0.0443376
-0.0629712
-0.106365
-0.232175
0.318108
0.0166425
0.396748
0.0479847
-0.187471
0.203391
-0.237946
-0.593006
0.186427
0.206247
-0.0499284
-0.271271
-0.448599
-0.487308
-0.20559
0.386847
0.304875
0.0489049
0.0428202
-0.36655
0.320557
-0.420842
0.324549
0.271798
0.0265444
0.0251979
0.15437
-0.162791
-0.371643
-0.0716349
0.452879
-0.222171
0.0480032
-0.411452
0.138104
0.372846
-0.0315816
0.372529
-0.442716
0.291984
-0.377743
0.690205
-0.0100314
-0.247081
-0.623338
0.510776
0.454698
0.0569125
-0.209092
-0.439579
0.140691
0.0238845
0.343338
0.134709
-0.280278
0.366637
-0.35243
-0.0768395
-0.30146
0.108452
0.223328
0.145358
-0.39707
-0.211611
0.282169
-0.109127
0.0662475
0.0649327
-0.015827
-0.361476
-0.167179
0.179622
0.276567
0.359815
-0.308752
-0.477392
0.491071
0.0263584
-0.223819
-0.275146
0.129369
-0.0601217
0.468733
-0.214901
0.0452564
-1.49948
-0.398113
-0.330962
0.430825
0.22974
0.0984542
-0.20079
0.0446687
-0.37913
0.286319
0.0491921
-0.192008
-0.191698
0.156872
0.0458663
-0.0947858
0.132343
-0.35535
0.294685
0.0826883
0.172326
-0.130892
0.569064
0.371731
0.404777
-0.17218
-0.362869
0.445032
0.365512
0.0199303
-0.705106
0.318888
0.0277316
-0.237326
-0.360566
0.374872
-0.0839709
-0.0209584
0.317693
0.436896
0.119717
0.349579
-0.111535
-0.00221739
-0.118804
-0.0432813
0.459318
-0.0529872
0.109443
-0.432558
-0.299774
-0.17642
-0.326572
0.407975
0.248083
-0.446167
0.186657
0.375164
-0.0419701
-0.157484
-0.247795
-0.462789
-0.134367
-0.0191395
0.447882
0.427475
0.463033
-0.804011
0.457696
0.0269149
-0.202488
-0.225779
0.476211
-0.00631265
-0.850648
0.128023
-0.229756
0.0275318
0.0658431
-0.357188
-0.354616
-0.0995128
-0.016124
0.304412
0.511695
-0.0288472
0.263776
-0.253274
0.224198
-0.398972
0.350947
0.0703346
0.289516
0.462082
0.355017
-0.389217
-0.0196007
0.568015
-0.0423382
-0.286805
-0.0981059
-0.351615
0.242155
0.0694358
0.473563
0.00966142
0.17689
-0.134725
0.120694
0.143318
-0.444257
0.343929
0.812894
0.856777
0.594055
0.594378
0.463418
0.60483
0.263019
0.669842
-0.301911
-0.144434
-0.0970138
0.405903
0.366007
0.226145
0.286134
0.0113553
-0.11146
0.407515
0.384529
0.175971
0.51528
-0.338808
0.184501
-0.217908
0.284211
0.396008
0.204438
0.0612394
-0.230979
1.28158
0.2399
0.0681413
-0.54423
-0.655439
-0.468993
-0.180176
0.466236
0.148581
0.0432941
0.0701796
-0.16238
-0.185852
-0.0868829
0.048123
0.140031
-0.0734258
0.124211
0.0369748
-0.166753
-0.330815
0.00296073
0.148643
0.00727293
-0.263841
-0.321163
0.132623
-0.028754
-0.0181339
-0.183303
0.046304
-0.421596
-0.558659
0.21065
0.102503
0.317521
0.387753
1.10714
0.201625
-0.0737341
0.314741
-0.221834
-0.282575
0.263635
-0.309206
-0.304096
0.359764
0.0172686
-0.205988
-0.421143
0.175046
-0.010979
-0.166081
-0.104919
-0.00263929
-0.00974002
-0.0168606
0.0309697
-0.206088
-0.0480097
-0.413159
0.300543
0.0183378
-0.524238
0.0895802
-0.0629514
-0.251875
0.304816
0.0327346
-0.27259
0.292397
-0.304105
0.466768
-0.024591
-0.148296
-0.177022
-0.299836
0.670235
0.0538578
-0.28754
0.399973
-1.59638
-0.779898
-0.946341
-0.378325
-0.499795
-0.220414
-0.0383919
0.160039
-0.394737
0.152318
0.0592257
-0.266728
-0.156458
0.506026
-0.379898
0.137087
0.321569
0.470428
0.0508111
-0.159142
0.167839
0.0415704
0.264404
-0.0750797
0.146225
0.412598
0.510118
-0.445332
0.215343
0.614454
0.777932
0.498119
0.371229
0.125832
0.163933
-0.209866
0.100352
0.0206921
0.855439
0.452613
0.334749
-0.311895
-0.210643
0.0981364
-0.220501
-0.254369
-0.0894674
-0.259079
-0.158771
0.211429
0.0433765
0.25706
-0.499743
0.28054
0.16472
0.360251
-0.458729
0.0761185
0.385108
-0.472721
-0.319276
-0.169049
-0.330852
-0.241033
0.487242
-0.135913
0.0755338
-1.18597
0.00841197
0.0215821
-0.217276
-0.0259672
0.265721
-0.231045
-0.314781
0.368449
-0.143703
0.280085
-0.0324792
-0.32131
0.43812
0.325351
0.0750029
0.0645695
-0.275368
-0.116263
0.330049
0.20688
-0.0025534
-0.0642277
-0.18858
0.191722
-0.0505761
-0.022605
0.571455
-0.0677617
-0.0826973
0.113762
-0.166216
0.219384
0.323621
-0.0191519
-0.443158
0.0122222
-0.141739
0.422554
0.017874
-0.46626
-0.196037
-0.492027
0.151988
-0.284136
-0.409847
-0.0401842
-0.606572
-0.285293
-0.556237
-0.250864
-0.259377
0.366057
-0.31284
-0.115835
0.158591
-0.0636499
0.306568
0.0409906
-0.227621
0.167765
-0.489212
-0.506576
0.303286
-0.194583
0.158866
-0.189178
-0.0418085
-0.0807113
-0.299181
0.150885
0.20755
0.134047
0.480686
-0.272672
0.749649
0.297235
0.363885
0.885118
-0.184109
0.0181857
0.00526933
-0.265347
-0.0258247
-0.475799
-0.536005
0.0570278
0.430977
-0.14682
0.255498
0.521779
0.156361
-0.145913
-0.241477
-0.296381
0.0369534
-0.0986462
0.227643
-0.0874515
-0.0547353
-0.520207
0.293262
-0.282564
-0.0353044
0.0294829
-0.0330342
0.397022
-0.273271
0.125426
0.0594089
-0.087211
0.727232
-0.20936
-0.373665
0.295933
0.0234298
-0.0800714
0.30104
-0.534271
0.23897
-0.167089
-0.0679489
0.334305
-0.0725328
-0.155431
0.266856
-0.102688
-0.3602
-0.0524262
0.073707
0.0166307
-0.0613687
-0.325971
-0.264225
-0.369921
0.27718
-0.44334
0.192483
0.166575
-0.140417
-0.222222
-0.532046
-0.38368
0.266452
0.176818
-0.028596
0.442529
-0.111446
0.118987
0.519951
-0.253121
-0.198055
-0.0863874
-0.203847
-0.262528
-0.0730216
0.321378
0.282702
0.0903465
-0.542927
-0.109448
-0.158265
-0.509777
-0.0101159
0.27507
-0.0169375
-0.0715377
-0.452547
-0.178972
-0.135601
-0.0160937
-0.46286
-0.234572
0.324078
0.04965
-0.388719
-0.40797
0.213277
-0.239046
0.224209
-0.228526
-0.219556
0.411086
-0.333053
-0.10984
-0.337083
-0.401448
0.24711
-0.587424
0.0215935
-0.250166
-0.336077
-0.405862
-0.103363
0.394504
0.231459
-0.249472
0.00521174
0.115055
0.0949386
-0.296737
0.268006
0.393667
0.276819
-0.287734
0.360636
0.102675
-0.14554
-0.457786
0.00173446
-0.313351
0.0564499
-0.425533
0.183414
0.487676
-0.0313413
0.159149
-0.456409
0.392453
0.371362
0.362196
0.0389133
-1.36158
-0.248914
0.162322
-0.132234
0.28
0.161489
0.436146
-4.97003
0.100649
0.061465
-0.00893571
-0.118992
0.125757
-0.106421
0.0439673
0.228468
0.0913682
0.0712154
0.148599
0.0704115
0.10025
0.0807745
-0.19646
0.0102287
0.0998172
0.18964
0.0330743
0.266272
0.0761831
0.234625
-0.241332
0.241656
-0.0567716
0.0884845
0.396642
0.268912
0.238658
-0.137688
0.0229825
-0.158549
-0.351579
-0.116556
0.375482
-0.146741
0.104174
-0.430888
-0.54554
-0.146855
0.297878
0.223819
-0.189455
-0.0874373
0.299867
-0.13562
0.0506696
0.386983
-0.41507
-0.106829
0.0589764
-0.247118
0.15924
0.0221133
0.412115
0.328859
0.129165
0.41986
-0.324864
-0.00444129
0.513312
-0.224441
0.538554
0.24787
0.492586
-0.230732
-0.095376
0.0135412
-0.191312
-0.20469
-0.397642
0.0919884
0.347114
0.168406
-0.33939
-0.0248505
-0.414654
-0.00310656
-0.309528
-0.181527
-0.388241
0.295921
-0.388634
0.269161
-0.424269
-0.329651
-0.268578
0.250723
0.166778
-0.0265667
-0.213504
0.267374
0.0557592
0.0630247
-0.458005
0.455737
-0.0642438
0.344638
0.0485785
-0.211738
0.0541527
0.441893
0.244736
-0.815819
-0.174102
-0.0523211
-0.670482
0.642078
0.469377
0.347159
-2.22587
-1.08372
-0.518004
0.0801214
-0.247706
-0.301917
0.298831
0.520795
-0.220718
-0.207563
-0.0198204
0.0328962
0.22182
-0.0405173
0.0321512
0.114636
0.0821743
0.00522401
0.318994
0.429536
-0.133335
-0.158847
-0.341978
0.48106
-0.31143
0.228295
0.179638
-0.14157
0.167421
0.435364
-0.428019
0.631348
0.039656
-0.337008
0.278646
-0.254482
0.502658
-0.0996004
0.264502
-0.286646
0.548654
0.344272
-0.210691
0.245849
-0.145854
0.275573
-0.182646
0.343959
0.198764
0.324306
0.500953
0.198294
0.058411
0.679859
0.156788
-0.367582
0.625468
0.0927603
-0.273851
-0.350183
0.6337
-0.271806
0.110253
0.730757
-0.303744
-0.241747
0.18911
-0.404571
-0.203718
-0.103499
0.183109
0.0491298
-0.138848
-0.143671
-0.392033
0.0587793
-0.339439
-0.095559
0.0712115
0.334453
0.293121
-0.462919
0.480894
-0.100716
0.0709585
-0.195662
-0.281274
-0.145593
0.334442
-0.352629
-0.0568226
-0.0872551
0.441716
0.184124
0.453652
0.455215
0.353997
-0.169593
0.290463
0.351857
-0.337178
-0.208261
0.439268
0.345845
-0.323312
-0.426366
0.360182
0.251185
0.260207
0.462744
-0.225216
-0.560438
-0.456688
-0.334106
-0.0279204
0.656148
-0.123892
0.0928679
0.0724469
-0.537319
0.325739
-0.433088
0.0360505
0.385981
0.132928
-0.0200939
-0.500919
0.168259
0.371919
0.163585
-0.280271
-0.342289
0.223453
0.0248358
0.374124
-0.0890371
-0.434888
-0.322656
-0.247663
-0.0989343
-0.133882
-0.353426
-0.220091
0.304483
0.368565
-0.136184
-0.093198
0.264105
-0.39466
0.346014
-0.320211
-0.209383
0.198945
0.165929
-0.113237
0.096892
-0.321407
0.500748
0.390249
0.0863764
0.22172
-0.352245
-0.0782252
-0.375162
-0.275341
0.314976
0.411975
-0.0428298
-0.201185
-0.534872
0.112604
-0.428885
-0.197814
-0.174819
0.212049
0.189573
-0.38488
0.0244104
0.58316
-0.190156
0.227283
0.57565
-0.106686
-0.440999
0.172176
-0.674837
-0.355847
0.229238
0.112503
-0.277832
0.0823996
-0.481764
-0.389006
0.0490167
0.0457329
-0.444405
0.383195
-0.46971
-0.241038
0.356928
0.0787218
-0.290672
0.471083
0.175009
0.0116193
-0.258824
-0.587293
0.284533
-0.704913
0.512452
-0.440703
-0.112055
-0.290907
-0.620213
0.366046
0.830342
-0.0718257
0.0995659
0.545681
-0.190049
-0.241127
-0.105479
0.393407
-0.100335
-0.340159
0.372146
-0.087774
-0.437766
-0.0317841
-0.251299
0.0968154
-0.0166945
-0.097237
-0.104222
0.0445821
-0.0524518
-0.159863
-0.308199
-0.353243
-0.170615
-0.282623
-0.117126
0.0626385
-0.466919
-0.251026
0.190022
0.466535
0.385938
-0.128845
0.223424
-0.235206
0.151953
0.196436
0.235307
0.228907
-0.0188073
-0.470221
0.250292
-0.370015
0.323017
-0.26348
0.325185
0.0557952
0.18308
-0.101407
-0.484409
0.363277
-0.0328036
-0.508691
-0.412177
-0.307794
-0.431806
-0.434408
-0.354648
-0.515292
-0.436982
0.24469
0.27693
0.364618
-0.371408
0.141289
0.00520627
-0.175029
-0.106964
-0.253529
0.330885
0.108834
-0.547416
-0.217905
-0.347968
0.210046
0.506168
0.0222106
0.209466
0.286026
-0.106605
0.362869
0.0928842
-0.00562441
0.450673
0.22337
0.0697312
0.157511
-0.22443
-0.147467
-0.144749
0.502779
0.285424
-0.131503
-0.211593
0.109134
-0.0320207
-0.211424
0.11997
0.179104
-0.390145
-0.383599
0.309332
0.395043
0.27601
0.0717438
-0.545575
0.297644
-0.193739
-0.186611
0.116803
0.108278
0.306281
0.362796
0.265428
-0.387174
-0.23738
-0.206227
0.0973594
-0.391224
-0.402941
-0.0520628
0.119502
0.233186
-0.402686
0.0264551
-0.312374
0.189847
0.293493
-0.432812
0.0322033
0.283398
0.150319
-0.276893
-0.0177051
0.104758
0.49772
0.0599826
-0.394559
0.0691822
0.0313839
-0.108347
0.267448
0.250386
0.127741
0.375127
0.142866
-0.392739
-0.167114
0.193319
0.0307778
-0.371051
-0.220121
-0.191075
0.0663937
0.0745532
-0.378739
-0.439371
0.447248
-0.434602
0.474886
-0.20579
-0.559358
-0.0972168
0.113751
0.366243
0.399536
0.510081
-0.392503
0.429915
-0.432806
-0.32142
-0.00110357
0.123811
0.411979
-0.00193201
-0.253985
0.210327
-0.211837
0.150909
-0.0607135
0.420806
0.0927355
-0.286373
-0.36308
-0.200363
0.472878
-0.285877
0.19109
-0.434356
0.0582233
-0.17203
0.384942
0.13518
0.413093
0.327741
0.148827
-0.0539841
0.254677
-0.169607
0.0427161
0.487526
0.343247
0.235618
-0.207533
0.243414
-0.0670645
-0.333
0.28133
0.146831
-0.280133
-0.17338
0.27037
0.00134316
0.141248
0.346144
0.406664
0.295256
0.0743299
0.350189
-0.54701
-0.32063
0.157022
0.0132783
-0.312317
-0.418292
-0.0874717
0.132402
0.0690423
-0.105661
-0.131883
0.016736
0.302143
0.48355
-0.0491553
0.324126
0.469284
0.0433797
-0.471183
0.488003
-0.355263
-0.130191
0.0778845
0.233574
0.226112
0.383624
0.154979
-0.0709546
-0.135796
0.4246
0.149722
0.0522968
0.219795
0.356
0.107944
0.102514
0.101144
0.410265
-0.0109075
0.489729
0.424111
0.391745
-0.1578
0.495879
-0.35538
-0.258586
-0.6265
-0.103334
0.234837
-0.524483
0.155916
-0.102254
0.426723
0.350566
-0.00257759
-0.386776
0.130039
-0.0171395
0.233436
-0.408668
0.392177
0.201655
0.403711
0.220529
0.184465
-0.00339969
-0.187063
-0.209919
0.335223
-0.21488
0.000868634
0.437869
0.476022
-0.354282
0.494423
-0.191074
-0.533333
0.134427
0.274968
0.340711
-0.514949
0.0190463
-0.086288
0.36234
-0.0619046
-0.0555647
0.128534
-0.58838
0.619547
0.493603
0.402675
-0.277192
0.367601
0.0970978
0.307823
-0.171556
0.177506
0.270602
-0.050459
0.136935
-0.239019
-0.192172
0.558695
0.736075
0.288428
0.514083
0.525226
0.444461
0.574389
-0.18802
-0.0158833
-0.361573
0.128297
-0.205472
0.228703
-0.202508
0.0999217
-0.353762
0.0819205
-0.16328
0.288212
-0.104588
0.0618012
0.0341582
0.137156
-0.182815
-0.262013
-0.168398
-0.187905
0.182832
-0.485343
-0.351665
0.00145807
0.0714158
0.0122435
-0.461173
0.223051
0.254621
-0.272194
0.299943
-0.141288
0.00535584
0.13912
0.194252
0.314034
0.128559
-0.210788
-0.0876986
0.378295
0.445625
-0.00336313
0.306421
-0.396197
-0.418214
0.361173
0.356396
-0.12102
-0.234496
0.0370588
-0.233788
-0.224919
-0.0742251
-0.458099
0.351737
-0.387223
0.387839
0.411293
-0.298634
-0.0389347
0.00585547
0.111804
-0.453443
0.0135021
-0.334834
0.197
0.0269409
-0.318671
0.549435
-0.397671
0.252668
0.361257
-0.5222
0.377796
-0.415485
0.372276
-0.304471
0.0453847
0.0393356
0.51856
-0.0231107
0.00586783
0.416263
-0.455479
-0.240042
0.14393
-0.260217
0.00100137
-0.270428
-0.285885
-0.466915
0.104884
-0.00768983
0.0314847
0.252398
-0.228921
-0.10399
-0.1604
-0.18243
0.104237
0.397566
0.492536
-0.287966
-0.280955
0.14055
-0.42339
-0.0900242
-0.408235
-0.167523
-0.216302
0.433177
-0.4725
-0.244246
0.0653719
0.408768
0.135526
0.0587901
-0.141885
0.265039
-0.208308
0.0560173
0.535412
-0.0892104
0.27666
0.354426
0.200344
0.234134
0.216529
0.140611
0.375601
0.42848
0.468339
0.350475
-0.619617
-0.359605
-0.149368
0.297211
-0.160656
-0.168796
0.379347
0.111172
0.699606
0.128433
-0.549729
-0.474536
-0.319742
0.110572
-0.396042
0.28543
0.0758477
0.00055007
-0.0235644
-0.312628
0.268402
-0.369615
-0.68526
0.181486
0.0670525
-0.453425
0.254558
-0.214598
0.239025
0.33911
-0.739307
-0.365941
0.591721
-0.276165
0.0212934
0.158916
0.14175
-0.0748058
0.413837
-0.48063
0.3247
-0.031216
0.192945
-0.534338
-0.507721
-0.306366
-0.460121
-0.385409
-0.508791
0.455547
0.0696917
-0.465299
-0.0960826
-0.0893871
0.26001
-0.398532
0.016757
-0.0883438
-0.344475
-0.458821
0.106321
0.0799344
-0.380274
0.058643
0.0432256
-0.0499756
0.377172
0.355683
0.33661
0.254818
-0.162536
-0.518012
0.0314407
0.27297
-0.246436
-0.423177
0.412046
0.313885
-0.381647
-0.463466
0.352686
-0.165364
-0.0851807
-0.253856
0.326615
-0.264707
0.225584
0.352248
-0.373926
0.230221
0.479895
0.0162369
-0.127567
0.00419256
-0.0508066
0.476032
-0.05096
0.35438
0.411039
0.252549
-0.0214536
-0.0591099
-0.101632
-0.108144
0.00074951
0.263913
0.0397099
0.123853
0.231531
0.226457
-0.0812026
0.0354183
0.0710475
-0.286235
-0.264171
-0.233079
0.290751
0.0445669
0.443991
-0.0527018
0.414489
0.234072
-0.0400121
0.241629
0.475669
0.428776
-0.00268429
-0.299163
0.0207261
0.384
0.378487
0.284638
0.311594
0.196728
0.266974
-0.113298
-0.286818
0.0207451
0.407418
-0.30532
0.109144
0.278258
-0.0166105
-0.332255
0.243757
-0.525435
-0.379858
0.0409583
-0.0100526
0.483943
0.163577
-0.394798
-0.276194
-0.255428
0.128337
-0.334357
-0.33596
-0.310669
0.348397
0.241879
-0.384678
-0.111295
0.189792
-0.108936
-0.155522
0.338576
-0.00350399
0.00948094
-0.374675
0.151075
0.300215
-0.075582
0.368174
-0.376508
-0.0195723
-0.397506
-0.143687
-0.407201
0.0264804
0.0536505
0.428487
-0.335129
-0.0331567
0.299002
-0.301368
0.0598559
0.28659
0.515103
0.443278
-0.118978
0.38356
0.239438
0.147236
-0.0424884
0.197314
0.404489
0.116202
-0.169238
-0.346282
0.535342
-0.0526076
-0.189018
0.289619
0.465405
-0.138822
0.127798
-0.369672
-0.499153
-0.161491
-0.0280113
0.151119
-0.35978
-0.15369
-0.359404
0.117665
0.462813
0.236527
0.0795949
-0.0652461
-0.22094
0.108477
-0.437931
-0.455517
-0.0703792
0.393865
-0.377191
0.516069
-0.278331
-0.429041
0.320622
0.331171
-0.278284
-0.469402
-0.0231978
-0.24666
0.338521
-0.150018
-0.0429544
-0.00302906
0.483552
0.4704
0.430647
-0.0314557
0.205499
0.477667
0.0393589
0.333499
-0.365638
0.237326
-0.408312
0.381355
0.277805
0.397269
0.237802
0.118445
0.0202673
-0.183364
-0.237623
0.483147
-0.0931807
-0.396787
0.368332
0.411064
-0.436539
-0.402045
-0.0586535
-0.301819
0.0934234
-0.270324
-0.235166
-0.389072
-0.0674795
0.236479
-0.173958
0.333862
0.272182
0.00220835
0.213388
0.531267
0.0453066
0.0326684
0.376877
-0.0871569
0.406672
0.0691888
-0.368134
-0.00436262
-0.351846
0.519623
0.5322
0.320745
0.291128
-0.530849
-0.286778
0.19922
0.509009
0.142122
-0.260353
-0.588914
-0.181515
0.0142026
-0.0807132
-0.611512
0.216872
0.331393
-0.282702
-0.49591
0.367573
-0.0551046
0.268814
-0.442995
-0.350337
0.291163
0.0244031
0.066579
0.230695
-0.536167
-0.31263
-0.165882
0.107715
-0.495646
0.470604
0.594005
-0.39554
0.167661
-0.59006
0.278189
-0.00763295
0.169245
-0.424406
-0.204553
0.277947
-0.60581
-0.254924
-0.224584
-0.237731
-0.295974
-0.197716
-0.190014
-0.0798519
-0.689651
-0.0344307
-0.405219
-0.174432
-0.378292
0.387892
-0.311322
-0.36901
-0.237612
-0.225074
0.574029
-0.35033
-0.301626
0.242123
0.0162788
-0.21894
0.334161
-0.277856
-0.224974
0.319189
0.69569
0.0195038
0.258479
0.0784034
0.287647
0.543626
0.0360217
-0.207118
-0.351834
-0.0441849
-0.188768
0.636559
0.191347
0.23559
-0.576058
0.30687
0.0577159
-0.0159629
-0.148299
0.0935313
-0.180725
0.0512073
0.016944
-0.0999069
-0.129597
-0.482149
0.241213
0.218825
0.290872
-0.575605
-0.458161
0.130192
-0.559812
0.0145593
-0.578299
-0.611685
0.19475
0.0320345
0.238642
-0.410578
0.255081
-0.161225
0.0245345
-0.40332
0.271732
-0.461607
-0.532916
-0.0290909
-0.163974
-0.220988
-0.564195
0.10506
-0.0170717
-0.385325
0.222907
-0.281819
-0.555651
0.320989
0.101971
0.286392
0.300975
-0.103127
0.303027
-0.00592973
0.189377
-0.336835
0.261991
-0.102067
-0.403868
-0.363962
-0.366227
-0.248524
0.278514
-0.477185
0.0186454
0.031798
-0.125715
-0.146556
-0.528531
-0.130496
0.264749
0.158608
-0.378685
0.0786276
0.0863298
-0.20113
0.337668
-0.203135
-0.151365
-0.613587
-0.328528
-0.488712
-0.154802
-0.364508
-0.472083
0.0952246
0.373086
-0.00536707
0.129423
-0.00673287
-0.24004
0.314562
0.290641
0.263778
0.232479
0.154497
-0.0796269
-0.0888422
0.272626
0.407137
0.0323847
-0.412346
0.405474
0.406712
0.0263378
-0.160776
-0.344718
0.0419448
0.392365
0.346882
0.447327
0.205367
-0.25068
0.118392
-0.433005
0.207696
-0.101592
-0.404545
0.438247
0.24898
-0.231843
0.121887
0.0178666
0.138459
0.303127
0.105677
-0.220533
-0.229564
-0.195013
-0.257974
0.371983
0.0514239
0.227686
-0.505227
-0.0990938
0.362116
0.232125
0.00535327
0.390977
0.142241
-0.49951
-0.54159
0.356848
0.259564
0.412313
0.427848
-0.195848
0.286724
0.465298
-0.128985
0.057569
0.479967
0.105423
0.222298
0.254828
-0.262717
0.580587
0.355976
0.453018
0.116141
-0.409004
0.0734768
-0.514703
0.22175
0.17364
-0.136914
-0.659336
-0.244534
-0.440569
-0.357031
0.248346
-0.47511
-0.434656
-0.213742
0.171661
0.134202
-0.315607
-0.47316
0.2994
-0.223946
0.0576156
-0.533771
-0.182846
-0.172167
0.262393
0.203937
-0.353441
-0.17103
-0.514733
0.234588
-0.419502
0.426979
0.342762
0.330494
0.254319
-0.513173
0.212009
0.194805
0.587739
0.311798
0.632438
-0.143981
0.0347761
-0.276799
0.314874
0.262029
0.0745179
0.442644
0.106095
0.419711
-0.352071
-0.594191
0.708913
0.0508601
0.520552
0.561524
0.178049
-0.153035
0.252761
-0.078128
0.373889
-0.161155
0.506452
-0.267736
-0.381958
-0.23319
0.300552
0.203359
0.562072
0.557923
0.403469
-0.195957
-0.223466
-0.0874656
-0.00767287
0.357087
-0.121516
0.451854
-0.663809
-0.337418
-0.243426
0.128611
0.264733
-0.726451
-0.3899
-0.0539767
0.0625273
0.146985
-0.105427
0.548888
-0.610678
0.456311
-0.520353
-0.361972
-0.386994
-0.0929653
-0.072885
0.0572614
0.112434
-0.482849
0.131622
-0.0700512
0.788251
0.121497
-0.502685
0.037745
0.0142384
-0.572185
0.323654
-0.145824
0.767659
-0.225977
-0.12532
0.175154
0.240042
-0.306382
0.0534419
0.226475
0.480036
0.385673
0.402724
-0.197799
-0.126436
-0.304589
-0.0234297
0.015577
-0.449789
0.437107
0.450963
0.315135
0.130965
0.0628487
0.26475
0.34805
-0.190994
0.22585
0.364169
0.0231693
-0.243394
-0.234911
0.239936
0.00421139
-0.0279107
-0.0679631
-0.364359
0.368871
0.0638511
-0.143106
-0.312634
0.361628
0.407094
-0.294652
0.0932181
0.340901
-0.0224003
-0.0260835
0.467625
-0.11848
-0.333797
-0.152474
-0.517952
0.31587
0.544352
-0.354108
0.0169824
0.545043
-0.390085
0.815745
-0.641515
-0.289015
0.107973
-0.48844
0.275424
-0.10316
0.130603
-0.415982
-0.526749
-0.0452368
0.721412
0.287099
0.0403886
-0.0867871
-0.398694
-0.237104
0.220177
-0.116028
1.0038
-0.376655
-0.204722
-0.00496449
0.124262
-0.234469
-0.267141
-0.468
-0.115556
-0.298312
-0.0256804
0.379312
0.0336382
-0.0186709
0.00276953
-0.0157946
-0.030266
0.398065
-0.234749
-0.270428
-0.0403869
0.285187
0.329986
0.201047
0.18945
0.0358569
0.023408
0.116849
-0.446133
-0.289671
0.333873
0.330037
0.433066
-0.225244
-0.00912879
-0.113986
0.392336
-0.133263
-0.00688552
0.488054
-0.234698
0.256735
-0.6639
-0.112514
0.367369
0.429524
1.43936
0.362974
0.241291
0.0818275
-0.0490416
0.00537227
0.320642
-0.45452
0.150377
0.353195
0.0584305
-0.380601
0.037027
0.623984
0.172506
-0.117566
-0.126492
0.064777
0.443149
0.313031
-0.629941
-0.527474
-0.846802
-0.10823
-0.306187
-0.56511
0.108408
-0.718005
0.368263
0.320746
0.128827
0.771778
0.230691
