#input normalization
0.161158 0.27277
12.1791 20.0645
11.7087 29.4484
10.0285 27.5433
0.0124533 0.0336322
0.0105797 0.0291842
1 -1
1 -1
1.05267 1.47112
1.29982 1.67897
1.57855 1.87949
1.86027 2.06281
2.12999 2.22636
2.39629 2.3791
2.64966 2.49472
2.91756 2.54995
1 -1
1 -1
#output normalization
1 0
#neurons weights
0.051868
0.44831
-0.0328021
0.403942
0.0293381
-0.223727
0.389068
0.302453
0.0436881
-0.175763
0.235359
0.305752
-0.171663
-0.362669
0.320696
0.106424
-0.255185
0.0422123
-0.223309
2.00391
-0.310676
-0.188807
0.0519014
-0.386574
-0.183093
0.234785
0.0760893
-1.55412
-0.43301
0.89648
-0.658047
0.0519606
0.491055
-0.18332
-0.617322
-0.57103
-0.172742
0.202815
-0.643226
0.169308
0.325712
-0.0765643
0.501926
0.0701978
0.247454
0.00238745
0.210748
0.246617
-0.102077
0.299736
0.37642
-0.240728
0.078587
-0.15326
-0.724914
-0.190802
#synapses weights
0.2606
-1.75818
-0.421288
0.103229
-0.579305
0.419545
0.340371
-0.333006
-0.685296
0.299313
0.356291
0.030005
-0.363912
0.407244
0.243776
0.356703
-0.376575
0.0867996
0.0960699
-0.161612
-0.123029
0.00338729
0.0876415
-0.165405
0.336004
-0.302371
0.12413
0.105672
0.10824
0.0856656
0.061738
0.172273
0.423525
0.998205
-0.189805
-0.159911
-0.449838
-1.32817
0.139916
0.309834
-0.713865
-0.444941
-0.485858
-0.152321
-0.207193
-0.748178
-0.257419
0.355209
-0.197374
0.501746
0.125074
0.590822
0.306696
-0.0811738
-0.0161289
-1.4231
-0.163972
0.189221
0.154762
-0.333091
-0.431908
0.0647566
0.0227207
0.11048
0.0695735
0.27283
-0.0856754
0.111069
0.552803
-0.00374472
0.21709
-0.308147
0.26177
1.23401
-0.116688
-0.661422
0.500462
0.273149
-0.0998364
-0.379904
1.87335
0.716428
0.376667
0.149905
0.295635
-0.559765
-0.554616
-0.28019
-0.339872
-0.445113
-0.175744
-0.138971
0.135557
0.110061
-0.104787
-0.0962021
0.0640167
-0.461036
-0.890917
-0.556517
-0.0935959
0.235009
-0.025913
0.0687764
0.122365
0.0338605
0.351232
0.270949
-0.0789113
-2.4204
-0.158787
-0.1401
0.153536
-0.0682847
-0.205402
0.0426366
-2.64165
-0.288176
0.120772
0.315241
0.18281
0.50034
0.471885
0.542166
0.125082
0.315591
0.459351
0.509868
-0.113763
0.170754
0.608655
-0.335753
0.21508
-0.0563625
1.00396
0.0224557
0.0372382
-0.323664
-0.145829
-0.174412
-0.217867
-0.0876891
-0.367424
0.335516
-0.242036
-1.26917
-0.0660844
-0.113028
-0.325135
0.131704
-0.046392
-0.00133459
-0.236314
0.358754
-0.19095
0.644378
-0.0741646
-0.414408
0.0881591
0.0125943
0.323724
-0.28915
-0.121419
-3.92161
-0.205926
0.0699167
0.0795321
0.128066
-0.17782
0.167183
0.130717
0.244089
0.531269
0.654643
0.874086
0.868841
0.932738
0.979539
-0.225607
-0.19627
0.255715
-1.03935
0.252092
-0.0323778
-0.866539
0.29313
0.0826494
-0.475536
-0.209638
0.486243
0.0461551
0.637237
-0.0115052
0.0139971
-0.240746
0.00668319
-0.341968
0.235066
0.0918725
2.3953
0.0103591
0.0117294
-0.0126131
0.0875944
0.346043
-0.244118
-0.515814
-0.156962
-0.322892
-0.474536
-0.474724
-0.681997
-0.970744
-1.49732
-0.0579428
-0.187833
-0.110975
2.13971
-0.0431549
-0.118655
0.140752
-0.0196857
-0.217348
-0.47408
-0.132149
-0.210247
-0.455591
-0.528961
-0.545155
-1.28433
-1.62954
-1.83534
-0.000301911
0.177849
0.0454419
0.444922
0.217691
0.279821
0.316598
0.171804
-0.406134
-0.296695
1.08288
0.718348
0.413576
0.125888
0.762767
0.333005
0.175282
-0.160542
0.316871
-0.0698828
0.319704
0.56766
-0.139193
-0.338974
-0.0328022
-0.268959
-0.263349
0.296651
-0.129377
-0.230558
-0.164347
-0.0298256
-0.0600966
0.1837
-0.0761086
0.0903504
0.380335
-0.224042
0.190296
0.979373
0.157059
-0.247232
0.101817
0.0403884
-0.451924
0.297707
0.619563
-0.401321
0.284377
-0.373849
-0.129864
-0.0666841
0.113886
-0.22205
-0.0101178
0.378232
0.0133025
-2.89967
-0.0849853
-0.230305
0.00884831
0.191628
0.379898
0.295668
0.32524
0.173088
0.352026
0.22525
0.545537
0.144383
0.145025
0.32144
-0.464333
0.443046
-0.294792
-0.750496
-0.397931
-0.0337498
-0.413574
0.332494
-0.050408
-0.135236
-0.992003
0.207319
0.282369
0.516013
-0.365775
0.33561
0.637364
0.131509
-0.0948549
-0.425861
-0.0693842
-0.403676
-0.227466
0.110379
-0.314522
0.556013
-0.480866
-0.40058
0.350924
-0.0547293
-0.0275151
0.267625
0.364294
-0.11938
0.542699
-0.0129865
-0.0691843
-0.447174
0.31388
-1.64738
0.6445
0.760776
-0.421684
-0.459368
0.366588
-0.16983
0.24852
1.56068
0.201353
-0.797468
-0.915575
-0.044957
-0.340932
-0.11919
1.31818
0.108605
-0.508273
0.0420612
-0.0794104
0.227091
0.467939
-0.817647
-0.314218
0.675544
-0.235475
-0.327426
0.535356
0.0819881
-0.548546
-0.467313
-0.174756
-0.269259
-0.276969
0.748397
-0.228857
0.278132
-0.0184806
-0.714422
0.158198
0.498078
0.272148
-0.519491
0.764039
0.79396
-0.368594
0.563413
0.0288207
-0.77094
-0.377795
1.12119
-0.394875
0.264984
0.487293
-0.345626
0.409586
0.308919
-0.115032
-0.350192
-0.323456
0.520424
0.448043
-0.732577
-0.256265
-0.324426
-0.135887
-0.342354
0.292317
0.630163
0.0925383
0.0708313
-0.225651
-0.154283
0.524067
-0.0780625
-0.0153605
0.390975
-0.427345
0.104156
0.33988
0.329785
-0.0306638
0.434958
0.223524
-0.732842
-0.479576
0.723957
0.30213
0.124911
0.0785776
-0.187212
-0.283014
0.113608
-0.0438722
-0.280847
0.15032
0.022327
-0.851583
0.327082
-0.00740522
-0.907875
0.456202
-0.325108
-1.40485
-0.581935
1.2053
1.09724
0.215945
0.0128203
0.471263
-1.23106
-0.162622
0.241757
0.128549
-0.805354
-0.347198
0.578788
-0.164673
-0.392281
0.579685
0.791385
-0.0226512
1.05634
0.130001
-0.478621
-0.0737498
0.674547
-0.0552668
-0.33146
0.24701
-0.43442
-0.374074
0.160046
0.825548
-0.458841
-0.551839
0.566911
0.060008
-0.171751
-0.0518116
-0.399439
-0.230062
-0.00264635
0.287944
0.524777
-0.321897
0.409433
-0.444564
-0.164509
0.153814
-0.528012
0.190203
-0.997059
0.231367
0.319906
-0.00676456
-0.597189
-0.362334
0.856767
0.0910217
0.854939
0.18506
-0.0113916
0.17945
0.541894
-0.135459
0.113066
-0.206005
-0.188218
0.26276
-0.240665
-0.146007
-0.0979947
-0.12038
-0.597969
-0.443748
0.272635
-0.201138
-0.117809
0.775623
-0.0904688
-0.251891
-0.177823
-0.27372
-0.169502
0.0617702
0.1911
-0.273558
0.383954
-0.467622
0.510423
0.0551026
0.0760914
-0.258492
-0.26314
0.0123754
-0.478934
-0.445907
-0.182968
-0.360139
-0.268854
0.0871667
0.284763
-0.25009
-0.123122
-0.524064
-0.346953
-0.3862
0.400649
0.341899
0.415414
-0.341925
-0.239158
-0.189893
-0.378103
0.156136
-0.136718
-0.541456
0.265508
0.227242
-0.00938225
-0.151725
-0.0844216
-0.46191
-0.424372
0.142907
-0.380962
-0.343126
0.135252
-0.485918
0.319343
0.513386
0.172944
0.101317
0.173569
-0.0561121
0.168539
0.45962
0.0644375
0.219552
-0.37397
-0.0252914
0.33147
0.279173
0.0361313
0.187882
0.385841
0.291965
0.0697141
0.223989
-0.730199
0.227737
0.351754
-0.363221
0.00851705
-0.136524
0.253374
-0.783738
-0.00433639
0.422165
-0.228081
0.0643593
-0.0708224
-0.242183
0.163763
-0.0578481
0.430414
-0.270295
-0.283123
0.307344
0.110265
0.0485425
-0.301844
-0.333563
-0.361308
0.0202177
-0.271472
0.220757
0.0098438
-0.21938
0.312328
-0.330417
0.195725
0.465117
0.226473
-0.13927
-0.249483
0.257921
-0.141809
0.292271
-0.403264
-0.000318617
-0.0341369
0.550934
-0.31218
-0.156214
-0.150165
0.451867
0.144139
0.40149
-0.0471576
0.153349
-0.457113
0.0210205
1.23478
-0.0972515
-0.390123
-0.265243
0.436118
-0.0553228
0.259151
0.0525249
-0.728064
-0.372072
0.3533
0.457223
-0.18
-0.213635
0.156908
-0.270945
0.153694
0.644037
-0.0602811
-0.609164
0.317479
0.408359
-0.194809
-0.131409
0.592118
-0.500189
-0.2248
0.295015
0.289834
-0.949595
-0.918874
-0.147392
0.0251845
-0.479078
0.500925
0.0746869
0.200371
2.06151
0.301847
0.592366
0.350979
-0.465084
-1.41881
0.853531
0.0551024
1.61977
0.409303
0.182709
-0.301753
0.870054
-1.06321
-0.127965
0.362722
-1.25045
0.154818
