#input normalization
0.16111 0.272711
70.6754 67.9586
9.59108 38.2061
7.92521 31.8408
0.0111657 0.0442375
0.00880027 0.0338869
1 -1
1 -1
1.05267 1.47112
1.29982 1.67897
1.57855 1.87949
1.86027 2.06281
2.12999 2.22636
2.39629 2.3791
2.64341 2.50023
2.87854 2.5868
3.10222 2.64749
3.30893 2.68228
3.48879 2.68793
3.62724 2.6498
3.75209 2.59835
3.85097 2.5101
3.92847 2.41397
3.96982 2.29961
3.99558 2.16779
3.98964 2.01953
3.9519 1.86013
3.89572 1.68228
3.7862 1.48252
3.65921 1.28429
3.54363 1.09712
3.41767 0.920599
3.26231 0.743118
3.10185 0.573586
2.93657 0.413281
2.78635 0.266603
2.61822 0.128358
2.47497 0.00581553
2.31182 -0.108566
2.15924 -0.217336
2.01212 -0.320746
1 -1
1 -1
#output normalization
1 0
#neurons weights
-0.339931
-0.0276422
-0.432052
-0.0562584
-0.246191
-0.166052
-0.177064
-0.0732784
-0.199601
-0.497309
0.278454
-0.12547
-0.433393
-0.192317
0.0518262
0.443417
0.239498
0.23973
0.350121
0.168324
0.2202
0.160136
0.417148
0.338279
0.399929
0.185009
0.18556
-0.101835
0.0554749
-0.301144
-0.134667
-0.392859
0.0669692
0.33997
-0.256314
-0.105319
-0.293206
0.179875
0.317006
0.022258
-0.388169
0.405349
-0.263625
0.255518
-0.227096
-0.0254172
0.441699
0.0981986
0.344902
0.407812
0.0762888
-0.573217
-0.357542
-0.304243
0.0724455
0.407423
0.349653
0.160166
0.527853
0.071214
-0.345045
0.162796
0.404334
-0.136961
0.270147
1.35879
0.67918
-0.502288
0.308702
0.175809
-0.258931
-0.060969
0.157552
-0.238275
-0.191734
0.323861
-0.161494
0.00634515
0.262956
-0.317906
-0.409178
0.0182656
-0.105508
0.118815
0.43963
0.186677
0.232112
0.146413
-0.448481
0.506903
0.23855
-0.514478
0.245926
0.301832
-0.354169
-0.183987
-0.579994
-0.218674
-0.0701623
0.297631
0.281895
-0.317049
-0.328506
-0.314947
-0.427867
-0.571733
0.319833
0.105273
-0.443773
-0.415745
-0.422794
0.487691
-0.471619
-0.217902
-0.36531
0.322872
0.502497
0.475188
-0.0961678
-0.339746
0.0619782
-0.0984296
-0.429496
0.0316452
-0.436172
0.0516761
0.2204
-0.252491
0.481013
0.607979
0.0390736
#synapses weights
0.160569
0.0394927
0.210811
-0.00826277
0.405835
-0.136368
-0.498708
0.371001
0.176795
-0.108238
0.248387
0.106898
0.30689
-0.179659
-0.297762
0.0777349
-0.198638
-0.0473141
-0.361284
0.131203
-0.555671
-0.389109
-0.420497
0.178468
-0.129331
-0.434118
-0.528673
0.0954317
-0.231383
0.33113
0.0956242
-0.0777183
0.194248
0.394963
-0.244308
-0.228004
-0.512161
0.312044
-0.441908
-0.10725
-0.30031
0.385489
0.0775311
0.171937
-0.396984
0.0654229
-0.171661
-0.232535
-0.0689208
0.0811252
0.193658
0.578266
0.497246
0.00731452
0.269677
-0.653756
-0.755834
0.229822
0.3227
-0.0559632
0.322749
0.0546857
0.281672
-0.00566948
0.246839
-0.171794
0.0300756
0.129238
-0.33679
-0.12891
0.115482
0.123408
-0.402291
0.415003
-0.0765025
0.516018
-0.0570658
0.35474
0.577579
0.0908428
-0.378969
-0.374663
-0.306385
0.284576
0.457558
-0.0874382
0.0258547
-0.330314
0.0486964
-0.448217
-0.207879
-0.111613
0.0935893
-0.48718
0.389667
0.306203
-0.326929
-0.499443
0.062412
-0.0781555
0.0956508
-0.0785357
-0.458729
0.255171
0.463503
-0.292448
-0.320555
-0.0960497
0.0778292
-0.130792
0.247326
-0.543953
0.0999407
-0.291752
0.304626
0.243874
-0.471691
0.436923
-0.160189
-0.0636336
-0.0978312
0.381223
-0.369064
-0.245847
-0.0828689
-0.294266
-0.00543163
-0.315853
-0.387999
-0.389407
-0.193974
0.000691599
-0.0606166
-0.219609
0.435264
0.306479
0.478524
-0.0769106
-0.118624
0.413503
-0.227042
-0.302573
-0.24284
-0.503156
-0.0851456
-0.219566
-0.0942983
-0.33904
-0.217587
0.278185
0.16093
-0.196919
-0.0355116
-0.23751
-0.0181561
-0.162716
-0.370998
0.159075
-0.30464
0.473252
0.382318
0.0434349
0.243061
-0.0980103
0.116178
-0.432247
-0.431141
0.141768
0.156026
0.182049
0.303726
0.258156
-0.00428705
-0.255609
0.10885
-0.197443
0.78808
0.0290196
-0.158853
0.0101363
-0.128642
-0.498869
0.0566236
-0.336845
-0.629659
-0.447427
0.357214
-0.565433
0.019929
0.00224908
0.481852
-0.323219
0.410485
-0.362663
0.408733
0.336893
-0.119908
-0.328554
-0.0236792
-0.307933
-0.29859
0.0169958
0.0901518
-0.524326
-0.124732
0.146472
0.255006
0.148394
-0.220909
0.160615
0.376479
-0.181837
0.0286586
0.0478975
-0.478562
0.178988
0.84176
0.347278
-0.19491
0.90581
-0.512144
0.181502
0.310955
0.981899
0.593378
-0.173284
-0.210272
0.0489889
-0.248484
0.192799
-0.407243
-0.570421
-0.00954528
-0.0502309
0.155515
-0.14039
0.455507
-0.162711
-0.349537
0.138159
-0.4426
0.14357
-0.383627
-0.349004
0.317691
-0.0826357
-0.0291058
0.145373
-0.410989
0.2378
0.101151
-0.184196
-0.0670663
0.026061
0.158422
-0.107005
-0.164218
0.0587864
0.292585
-0.473807
-0.167395
0.457404
-0.243582
0.206968
-0.309678
-0.0261554
-0.122779
-0.173051
0.271082
-0.00486096
-0.00807661
0.12308
0.452227
-0.0796412
-0.291912
-0.0539603
-0.362415
-0.420323
0.0931506
0.363394
-0.150308
0.193085
-0.047987
-0.410819
-0.248135
0.400188
0.309485
0.372474
0.366139
0.107964
-0.0702891
0.380322
-0.121255
-0.0715516
-0.0732436
0.177978
0.251103
0.19856
0.368623
-0.219518
-0.100696
-0.382067
0.322553
-0.0241199
-0.316015
0.353229
0.294772
0.195214
-0.183632
-0.221794
-0.146877
0.371748
0.225256
0.21367
0.125341
0.352449
0.0977448
0.0431003
-0.565032
0.222777
0.11096
-0.397298
0.376691
0.359377
0.225353
-0.166708
-0.22801
-0.291406
0.273162
-0.0322711
0.373071
0.138418
0.474378
0.295354
0.506937
-0.242236
0.415069
-0.0613446
0.327632
-0.119302
-0.340959
0.167702
0.127732
0.148284
-0.375683
0.581541
0.199483
0.325608
-0.00420238
0.365536
0.1871
-0.45343
-0.488837
-0.085166
0.305118
0.249015
-0.336315
-0.370591
0.0410406
0.283874
-0.126055
0.160152
0.31121
0.0294798
0.24796
0.153281
0.159918
-0.223072
0.138047
-0.513604
-0.00960468
0.0327809
-0.492814
0.361777
-0.442803
0.0691281
0.0734861
-0.46923
-0.0739418
-0.288301
0.135161
0.280927
0.175187
-0.519032
0.0867751
-0.152288
0.263871
-0.148113
0.112658
0.209787
0.132105
-0.411753
-0.224969
0.170655
-0.494438
-0.120298
0.0700569
-0.186358
-0.219754
-0.298054
0.28052
-0.0149979
-0.0944208
-0.171066
0.211002
-0.544149
-0.376219
-0.394559
-0.590742
-0.20036
0.32982
0.115513
-0.481527
-0.261419
0.0623426
-0.196054
-0.446899
-0.386316
-0.0845601
-0.0139846
0.124249
0.185514
0.188783
0.271382
-0.518868
-0.0656259
0.0533507
0.284221
-0.404971
-0.0188477
-0.220076
-0.556455
0.128837
-0.212142
0.0294827
-0.540139
0.164095
0.310998
0.467716
0.330775
-0.0266263
0.244511
0.139934
-0.29761
0.406477
0.413322
-0.397079
-0.384229
0.45716
-0.249016
-0.105704
-0.0637024
0.33986
0.425395
-0.122367
0.137355
0.279818
0.266517
0.0273961
-0.511549
0.0721292
-0.0202508
0.281418
0.0304772
-0.00798546
-0.137385
0.218939
-0.0878115
0.35615
-0.466459
0.157056
0.210094
-0.437313
-0.323026
-1.08544
-0.0695662
-0.415192
0.339285
0.623692
0.116655
-0.143673
0.604684
0.363454
-0.200839
0.160997
-0.289436
0.196415
-0.106482
-0.285388
0.171556
0.167462
-0.225467
-0.0380894
0.0719828
0.260453
0.322109
-0.177361
0.459115
0.13351
-0.359064
-0.39238
0.461311
0.333748
0.408301
-0.482388
0.407944
-0.318683
0.164338
-0.224904
-0.19759
0.212304
-0.134025
-0.0230701
0.355244
-0.0511454
0.162866
-0.196905
0.405254
-0.328154
-0.38374
0.147729
-0.636328
0.0539191
0.0108503
-0.123526
0.477232
0.365915
0.398424
-0.261768
0.244159
0.385104
-0.223087
-0.289832
0.199375
-0.383675
0.260782
-0.140783
0.344412
-0.253227
0.289526
-0.152997
-0.437312
0.0799788
-0.0145939
-0.0345651
0.268487
-0.565129
-0.588485
0.312372
-0.366662
-0.0822501
0.0974924
0.135409
-0.411261
0.118416
-0.111035
0.0352805
0.414568
0.27169
0.113191
0.540154
0.246654
0.184621
-0.706664
0.217658
-0.354272
-0.189599
0.157289
0.71402
0.713792
0.39088
-0.109293
-0.181652
-0.0255639
-0.0469132
0.461052
-0.319156
0.042474
0.119452
0.195375
0.381701
-0.359988
-0.127182
-0.150611
0.286181
-0.0126691
0.237697
-0.193053
-0.188101
0.176987
0.153361
0.0397533
0.16347
-0.155868
0.425909
0.35146
-0.0903582
0.0244889
-0.00110937
-0.375993
0.0388561
-0.441677
0.187343
0.0366755
-0.35818
-0.0269181
0.154845
0.229017
0.187761
0.302277
-0.0506368
0.189437
-0.280125
0.161768
-0.328324
-0.0213362
-0.335462
0.172596
-0.356578
-0.536075
-0.121056
-0.398234
-0.133322
0.266596
-0.122527
0.257155
-0.316015
-0.207008
0.185696
0.287334
-0.088245
0.0943306
0.0305733
-0.262937
0.599452
0.123887
0.407152
-0.422971
0.19359
0.209162
0.435466
0.154832
-0.133926
-0.177458
-0.140828
-0.0801045
0.240161
-0.177635
0.488837
-1.03924
0.0071804
0.0104829
0.210384
-1.26977
-0.15761
0.332324
0.420933
-0.147344
0.52619
0.0323322
-0.244822
-0.467202
0.132547
-0.0245988
0.0116398
-0.377824
0.175027
0.0556997
-0.345455
0.479869
0.143728
0.505081
-0.395514
0.308384
-0.0670371
-0.408788
0.0397516
0.0326629
-0.0987523
0.220923
-0.102529
0.201114
0.00030381
-0.324855
-0.164453
-0.233412
0.166666
0.440371
0.00384129
-0.0659811
0.484218
0.00900285
-0.119951
-0.130777
0.355938
-0.384413
-0.837507
-0.904968
-0.629053
-0.268798
-0.309238
-0.21845
0.172806
-0.264436
-0.179007
-0.0935126
0.346472
-0.0752213
-0.317356
0.0506846
-0.124505
0.152174
0.292924
0.0776246
-0.239557
0.44116
-0.142482
-0.327535
0.11329
0.177514
-0.0996454
0.409309
0.161419
-0.23887
0.366427
0.21443
0.730851
0.307496
0.300829
-0.0713194
-0.305356
-0.31752
-0.549536
0.409082
0.326531
0.249
-0.327339
0.0346022
0.331744
-0.802231
0.144491
-0.00999512
-0.10922
-0.0127929
0.260209
-0.244852
-0.410665
0.198231
-0.100637
0.373353
0.0793091
-0.410369
0.0142163
0.173172
-0.432605
0.360006
-0.427642
-0.387116
0.134206
0.274106
0.591421
-0.0340342
-0.377
0.376304
0.0785316
0.0919472
-0.249954
-0.011849
-0.130525
-0.0437494
0.207568
-0.371008
-0.241484
-0.48839
-0.097658
0.46114
-0.0488376
0.464116
0.0245296
0.317216
0.373495
0.390124
-0.148604
0.0839986
-0.0769124
-0.612692
0.0660545
-0.497806
-0.26576
-0.364394
0.231405
-0.0446038
-0.322543
-0.500639
-0.256441
0.100064
-0.29844
-0.0357175
-0.0383291
0.314314
-0.194446
-0.482174
-0.0714691
-0.346118
-0.0471676
-0.192106
0.310282
-0.0614615
-0.0110192
-0.232913
-0.623422
0.116718
-0.0434643
-0.0988888
-0.433717
-0.15584
-0.170775
-0.077203
-0.788331
-0.193148
0.168035
-0.0760351
0.313246
-0.0496834
-0.172219
0.000561714
0.0742619
0.341102
-0.132181
0.153694
-0.00247692
0.381192
-0.139238
0.257098
-0.172342
-0.190611
0.1365
0.104435
-0.160432
-0.351153
0.159848
-0.172385
0.366176
0.176381
-0.019142
0.104638
-0.119022
0.504945
0.42651
0.218892
0.0863688
-0.115147
0.487482
-0.473849
-0.229334
0.11247
-0.0841981
-0.194495
0.0992308
-0.315655
-0.0871819
-0.7473
-0.020553
-0.317674
0.0772776
-0.420104
-0.0775668
0.203675
-0.146182
-0.593062
-0.373766
0.319423
0.160351
0.307417
-0.0826423
0.282685
0.0405702
-0.0502575
-0.0805967
0.466273
-0.0642692
-0.448023
0.412933
-0.0990318
-0.0725863
-0.231714
0.348736
-0.348463
-0.506309
0.106867
-0.453095
0.260166
0.00955648
-0.00115386
-0.123046
-0.367286
0.0751319
-0.00560008
0.120012
-0.486161
0.0892866
0.263452
0.14749
-0.196469
0.568405
0.4694
0.198672
0.0888049
-0.517506
-0.249222
-0.138232
0.0098643
0.914838
0.429053
-0.11159
-0.0647864
0.134829
0.227997
0.0825069
0.283855
-0.0499686
0.0310019
0.233552
0.152132
-0.303846
-0.258018
0.0227485
0.189399
-0.178346
-0.355348
0.178047
0.059119
0.280905
0.289021
-0.519046
-0.177317
-0.100103
-0.215906
0.342973
-0.34419
-0.206776
-0.382286
0.53084
-0.241793
0.369349
-0.0679583
0.0651572
1.81
0.437106
-0.333908
-0.34666
0.318406
-0.445672
-0.0940863
5.42311
0.158458
0.124889
0.0510125
-0.0669317
-0.105237
0.0990835
-0.0212828
-0.0727834
-0.0142579
-0.104302
-0.0872672
-0.0842624
-0.199197
-0.250113
0.000544904
0.0651673
-0.0321935
-0.0115883
-0.453669
0.00832126
-0.107827
-0.0331623
0.0280427
0.0225795
-0.112953
0.0927467
-0.504675
-0.140057
0.0658786
-0.0586107
-0.368117
0.272817
-0.0821385
0.419237
0.171177
-0.239703
-0.333533
0.470755
-0.656568
0.108158
0.0517054
-0.199141
-0.627728
0.211794
0.18882
0.311028
0.13612
-0.15879
-0.221318
0.33033
0.0390301
0.398188
0.247846
0.398024
-0.320502
0.351228
0.286768
0.140098
-0.0261456
-0.252313
0.245313
-0.48575
0.385179
0.520021
0.130225
-0.0566843
-0.338477
-0.101982
0.317382
0.208925
0.243945
-0.259711
-0.268888
0.197727
0.27514
-0.268299
0.282037
0.508905
-0.2675
0.0612098
0.0637381
0.52907
0.282071
-0.28139
0.454261
-0.0223074
-0.300902
0.045508
-0.23068
-0.330424
-0.296133
-0.287204
-0.208269
-0.238894
-0.07035
-0.0982174
-0.364471
-0.0229146
0.058989
0.171302
0.0492228
-0.0887553
-0.124353
-0.0982129
-0.0995424
0.0843108
0.00383309
0.192271
-0.27756
-0.18042
-0.44907
0.378458
-0.240952
0.428266
-0.245376
-0.429373
-0.409946
-0.159898
-0.265223
-0.494995
-0.00133665
0.767184
-0.233512
0.293773
0.328116
-0.12763
0.225705
0.402403
-0.0524534
-0.463099
-0.715249
0.203647
0.276126
-0.348326
-0.441656
0.0815252
0.3561
0.46067
0.359558
-0.0921763
-0.321555
0.118279
0.0213531
-0.151431
-0.370589
0.117155
-0.375201
0.14736
-0.393887
0.185307
-0.210515
0.431923
0.029563
0.164619
0.0177084
0.479014
0.431665
-0.046964
0.153114
-0.169372
0.559333
-0.208403
0.0459067
0.203195
0.316021
-0.136684
0.0247562
0.0941805
-0.3827
0.0202012
-0.478073
0.94411
0.40513
0.578585
-0.200878
0.255808
0.123931
-0.212591
-0.210885
0.315999
0.0173458
0.094464
0.114259
0.286618
-0.438747
0.334204
0.0214585
-0.208535
0.221209
-0.630305
-0.208714
-0.652141
-0.357527
-0.497669
-0.147634
0.0556339
0.279275
-0.384837
0.0845032
0.267894
0.245353
-0.0726656
-0.0475248
-0.586996
0.415205
0.170619
-0.0458928
0.708785
0.0229267
-0.0714272
0.17696
-0.167421
-0.0288347
-0.19579
-0.277997
0.433862
-0.478137
-0.178622
0.244858
-0.443885
0.156585
0.250547
0.212566
-0.54968
-0.0932194
-0.33783
-0.0179871
0.0828787
0.0818412
-0.153795
-0.0364465
0.128916
-0.366587
-0.162537
-0.107446
-0.222326
0.177236
0.161299
0.266276
0.0964877
-0.300854
0.390838
0.188896
-0.358307
0.174162
-0.256373
-0.137407
0.10455
0.146043
0.163441
-0.223354
0.405018
-0.201781
0.0111136
0.358481
-0.0850471
0.49865
0.922913
0.164732
0.55998
0.294345
-0.119121
0.0482129
-0.337616
0.147441
-0.170824
-0.416231
0.113838
0.267033
-0.273948
-0.169505
-0.146795
-0.0297632
0.03465
0.371288
-0.482129
0.067139
0.462292
0.341844
-0.0799439
0.494693
-0.225656
0.449667
-0.133298
0.214469
0.255712
-0.0266397
0.258186
-0.122979
-0.160293
0.368401
-0.227515
-0.401443
-0.179831
-0.135722
0.341049
-0.214491
0.077634
0.336512
0.122256
0.0858151
-0.177288
0.617059
0.448236
0.529575
0.401884
-0.328483
0.0911356
-0.124523
0.0571502
0.51225
0.128009
0.387546
0.0102565
0.22507
0.392866
-0.376259
-0.313831
-0.393629
-0.440529
-0.426187
-0.372504
0.165232
0.276001
0.317514
0.299146
-0.243209
0.142421
0.0530082
0.0926518
-0.264537
-0.244858
0.361913
-0.0181683
-0.00168664
-0.436191
-0.674633
0.536332
-0.130857
-0.49248
-0.636032
0.409295
0.0310907
0.547592
0.187477
0.271978
0.0448996
0.209393
0.208726
-0.102614
0.374001
-0.499062
-0.067542
-0.325654
0.306382
-0.380888
-0.0941817
-0.123556
0.256114
0.139039
0.0648058
0.0637886
-0.508914
0.270236
0.169425
0.261611
0.136082
0.122114
0.281653
0.0313071
0.00550085
-0.387571
0.0321348
0.154423
0.223139
-0.333469
-0.382008
-0.448227
0.103671
-0.807575
-0.331464
0.151734
0.140231
-0.384834
-0.109016
0.022463
0.859673
0.0885994
0.166046
-0.0314754
0.198529
0.0132489
0.0980075
0.0759059
0.540022
0.212624
-0.0604506
0.230933
0.405554
-0.184209
-0.277721
0.130821
0.38703
0.117194
-0.145557
0.0708543
0.481196
-0.0172624
-0.358899
-0.195844
0.264726
-0.265902
0.016559
-0.163913
-0.209827
0.177027
-0.105432
-0.0998111
0.415968
0.382747
0.291542
-0.188337
-0.875166
0.388662
-0.358883
0.103264
0.682817
-0.176445
-0.152681
0.216186
0.0687703
0.100463
0.00352248
0.376183
0.213487
-0.150649
0.191158
-0.490243
0.286727
-0.258159
-0.0372207
-0.216059
0.352735
0.110428
0.0034514
-0.158854
0.18835
0.399134
-0.169225
-0.22584
0.296678
0.629658
-0.00307765
-0.223741
-0.114951
0.201112
-0.363276
0.466807
0.415759
0.0181868
0.376443
-0.265071
0.345232
0.237394
0.437051
-0.448218
0.431426
-0.0296724
-0.341609
0.357872
-0.474619
-0.181633
0.349948
0.0949214
-0.325894
0.0890768
-0.411828
0.284557
-0.0781525
-0.287922
-0.519845
0.425551
-0.0096475
0.454266
0.172433
-0.44131
-0.307215
0.154169
0.0970646
-0.382758
0.0939942
-0.17419
-0.423198
-0.012247
0.191519
-0.094016
-0.0805524
-0.39946
-0.467715
-0.359119
-0.209305
0.0847512
0.359728
0.141194
0.0380812
0.499757
0.0795998
-0.0273297
0.173141
-0.0119474
-0.110173
0.0596137
-0.0250557
-0.116813
0.382286
-0.137152
0.0917502
-0.262997
-0.119005
-0.40131
-0.293258
0.113376
0.378855
-0.0764622
-0.411778
0.471953
0.188835
0.018894
0.427012
-0.328705
0.0312956
-0.340905
-0.0430471
0.311102
-0.363563
0.244303
0.0728151
0.0945257
0.351288
0.0128436
0.353115
0.336406
0.34978
-0.125869
0.263308
-0.199569
-0.00562114
-0.407286
0.447868
-0.315482
0.467604
-0.324154
-0.178025
-0.263294
0.203354
0.0923854
-0.0939062
0.485453
-0.0510282
-0.234627
-0.0446287
0.474899
0.12427
-0.271334
-0.40967
0.0891457
0.0100611
0.401178
0.418918
0.278405
0.277175
0.427675
-0.231032
-0.438
0.391209
0.38234
-0.440451
0.255914
0.105962
0.0532949
0.24512
-0.343696
-0.108077
-0.432237
0.00136794
-0.473715
-0.372218
0.163113
-0.172914
0.0296831
0.264079
0.230352
0.34509
-0.186097
-0.586544
-0.119058
-0.286409
0.201297
0.0178937
0.0965971
-0.411693
-0.923768
-0.586667
-0.593157
-0.615035
0.00949664
0.218413
-0.194024
-0.0494819
0.0965636
0.21319
-0.429341
-0.0948209
0.0282064
-0.255238
-0.328016
-0.384164
-0.199565
0.242432
0.160574
-0.543271
0.482894
0.367991
0.0010098
0.50547
-0.371081
0.351088
-0.0449805
-0.318687
0.221963
0.102188
0.384401
0.449405
-0.366023
-0.279895
0.119396
-0.24839
0.214968
0.00723983
-0.214356
0.284517
-0.226747
-0.357989
-0.471427
-1.11201
0.33362
0.0386835
-0.165172
-0.145797
-0.0632601
-0.137385
-0.511713
-0.0527918
0.220572
-0.0313671
-0.270766
-0.273808
0.140963
0.10738
-0.197067
0.35468
0.254733
-0.222496
0.441695
-0.251767
-0.44474
-0.0515478
0.0666762
-0.042203
0.136809
0.278367
0.384101
-0.424801
0.364143
-0.132761
0.36069
0.064232
-0.474234
-0.437524
0.225127
0.348458
-0.329945
-0.128411
-0.224766
0.639568
-0.45453
0.359258
-0.517206
-0.320292
-0.466082
-0.64156
0.367192
-0.216939
-0.0473501
0.19798
-0.361127
-0.561521
0.15071
-0.241091
-0.16391
-0.0414277
-0.370491
-0.0370064
-0.0350412
-0.0478696
-0.185419
-0.00415932
0.320761
-0.482363
-0.258537
0.0431107
0.26634
-0.166489
-0.0368514
0.364479
-0.0533216
-0.2652
-0.515594
0.0926296
-0.162592
0.139393
-0.393647
-0.191232
1.32397
0.303297
-0.332487
0.246406
-0.662889
0.195513
0.308734
0.0953084
-0.142509
0.40584
-0.123494
0.116135
0.457673
-0.286103
0.204854
-0.317237
-0.33898
-0.523171
0.162177
-0.334646
-0.500484
0.346521
0.0822451
-0.531104
0.395533
0.36143
-0.175307
0.0928237
-0.329902
0.198736
0.152114
0.199245
-0.0373713
0.0768039
-0.345602
-0.172375
-0.00735943
-0.225491
-0.368125
-0.0391768
-0.194174
0.157283
0.346839
0.586235
-0.291951
-0.112876
0.0593791
0.510617
0.367733
-0.154498
-0.480673
0.562386
-0.0032696
0.0104252
0.123418
-0.0723033
-0.42849
-0.00566881
-0.280203
0.0533196
-0.0205876
0.167871
-0.000524024
0.172812
0.446379
-0.0470379
0.16705
-0.392649
0.185078
-0.313239
0.224039
-0.294365
0.210889
-0.335402
0.0761813
-0.14089
0.298278
-0.411908
0.254327
0.339611
0.371395
-0.443643
-0.284563
-0.346703
0.162415
0.0138955
0.208027
0.395389
-0.346235
-0.174826
-0.246058
0.474994
-0.408732
0.0990968
0.22368
0.225116
0.321152
-0.491076
0.129061
0.125208
-0.37516
-0.169787
-0.41299
0.0912146
0.0912441
0.126528
-0.426515
-0.264671
-0.173452
-0.438262
-0.306734
0.411027
-0.0353984
-0.425233
0.165446
0.26229
0.310663
-0.215997
-0.0198531
0.0231414
-0.378735
-0.253717
-0.161935
0.0827719
-0.404366
-0.328195
0.0826573
0.374556
0.377096
-1.14843
0.096886
0.0953692
0.193436
-0.47955
0.367296
0.32104
0.54012
0.565382
-0.0224596
0.10412
0.0922171
-0.0936446
-0.169896
-0.248027
0.435921
-0.141202
0.395259
-0.370716
-0.325001
0.33944
0.0277785
-0.207402
-0.050197
0.299162
-0.0864176
0.457506
-0.300643
-0.284257
-0.0784817
-0.00867421
0.383372
0.053343
-0.0832712
0.312878
0.15333
-0.249157
-0.332046
-0.0932726
-0.483937
-0.00951463
0.355475
-0.31238
0.499617
-0.0831064
0.11318
0.250532
-0.0144664
0.29411
0.355215
0.386963
-0.400921
0.432138
0.24685
0.132774
-0.328537
0.107664
-0.194417
0.455448
0.48168
0.0857538
0.442395
-0.0329657
0.39427
-0.178736
-0.190718
0.122184
0.296809
-0.317992
-0.350929
0.0125528
0.349346
0.105599
0.0773691
0.113659
0.0945816
-0.273745
0.215421
0.216588
-0.272379
0.215576
-0.365671
0.392038
0.128911
-0.055879
-0.0805308
-0.185044
0.231958
0.104919
0.164969
0.0330707
-0.344486
-0.163618
-0.171987
-0.130595
0.254285
0.318169
-0.00645114
0.40352
-0.312858
-0.350842
-0.0944238
0.195134
0.0349178
-0.373127
0.0673198
-0.285098
-0.152
0.013206
-0.318828
-0.142681
0.264901
0.211125
-0.401176
-0.218825
-0.460245
-0.272876
-0.0515418
0.365464
-0.417472
-0.13972
0.122191
0.0349481
0.0034868
0.054992
-0.501628
-0.245309
0.325525
-0.336688
-0.121892
-0.232595
0.287871
-0.458084
-0.294284
-0.154249
0.392243
0.302415
-0.488106
0.00323571
0.362069
-0.0401936
-0.142543
0.0513882
-0.412393
0.192759
0.199077
0.365512
0.107758
0.197778
-0.120832
-0.0738094
-0.491195
0.534662
0.00243853
0.037839
-0.03125
-0.258704
0.205543
-0.48196
0.178114
0.444633
-0.251843
-0.567082
0.193444
0.282071
0.177603
-0.0552457
-0.44856
-0.274288
-0.0281847
-0.266011
-0.512009
0.157126
-0.211946
-0.347916
-0.227331
0.307272
0.128488
0.0314266
-0.153627
0.412483
-0.0767487
-0.215703
-0.233489
0.308297
-0.372575
0.196512
0.435671
0.360628
-0.125219
-0.013647
-0.0423226
0.039128
0.129351
-0.267502
-0.515163
-0.0577064
0.158556
-0.142172
-0.0950963
0.295234
-0.220588
0.424312
-0.106039
-0.248917
0.236793
0.220771
0.0136359
-0.263009
-0.249145
-0.496578
-0.212604
-0.391526
0.45617
-0.314557
-0.425004
0.0848224
0.221791
0.00482916
0.261396
-0.211904
0.269009
0.346997
0.0559045
0.164722
-0.223241
-0.112601
0.0660908
-0.0402856
-0.00625978
0.453149
0.500925
-0.058875
-0.0695004
0.222141
0.320069
0.443078
0.311496
-0.246724
-0.229423
0.528185
0.0828264
0.306221
0.275611
0.0581897
0.354268
-0.133973
0.0986163
-0.126279
0.461129
0.238634
-0.444585
-0.169829
-0.310537
0.178347
0.102706
-0.134594
0.352498
-0.271554
0.109762
-0.0306539
0.279788
-0.559881
0.226749
0.0556168
-0.136323
-0.513824
-0.173683
-0.290785
0.204672
0.317229
0.0192235
-0.643541
0.141107
0.486839
0.0461042
-0.495735
0.0631239
-0.396894
-0.0601817
-0.376831
0.0255791
0.0884019
0.564616
-0.0759652
0.432415
-0.240226
0.222686
-0.159641
-0.221055
-0.077925
0.363002
-0.00270497
-0.41304
0.282512
0.0601348
-0.233198
-0.263025
-0.413483
0.312199
0.25885
0.237856
0.522677
0.00766083
0.178537
-0.246817
0.0102166
0.566263
-0.249013
0.477744
-0.0609531
-0.0915723
-0.438855
0.227842
0.17977
0.0327494
-0.441245
-0.0752847
0.242044
0.439416
-0.429049
-0.0401631
0.443379
0.124993
-0.0693301
-0.638465
0.0361401
0.730389
-0.648735
-0.0908802
-0.104179
0.27816
0.10277
-0.108394
-0.257424
-0.0239669
0.0380889
-0.260717
-0.192462
-0.104252
0.180715
0.21477
0.279849
-0.0284625
-0.101977
-0.448361
-0.280375
0.0608076
-0.0500795
-0.416264
-0.370985
-0.526476
-0.14061
0.399619
0.0132295
-0.37105
-0.221261
-0.449513
-0.359911
0.259347
0.0640278
-0.00163996
0.157655
-0.186037
-0.121179
-0.335938
0.383941
-0.366147
0.352646
-0.296206
-0.231805
-0.00369075
0.0476569
-0.145566
0.389055
-0.0261557
-0.489261
0.0106887
-0.0549128
-0.470804
0.327567
0.0937509
-0.163999
0.0954428
0.0476843
-0.357088
0.0886933
-0.0254773
-0.0212447
-0.0212698
-0.0486963
0.363001
-0.302977
0.0958913
-0.506685
0.376434
-0.0277562
-0.399904
0.0282069
-0.602443
0.00874273
-0.0451801
0.391832
-0.164921
0.045839
-0.112297
-0.0986579
0.127843
-0.373973
0.121322
0.0726666
0.167451
-0.479909
0.482675
-0.439329
-0.0110201
-0.374566
0.485405
0.159894
-0.450813
-0.172459
-0.348367
0.29668
0.114118
-0.0203061
-0.272499
-0.470704
0.265224
-0.444752
-0.297834
0.557719
-0.244778
-0.32372
-0.0881312
-0.162038
-0.211637
-0.485024
0.016958
0.19245
-0.256396
-0.226724
0.0209461
0.474567
0.493414
0.202196
-0.166502
0.169826
-0.149588
-0.299221
-0.125064
-0.18314
0.477569
-0.187784
-0.142248
0.0644334
0.173858
0.121342
0.238804
0.460351
0.589216
-0.319203
0.142464
0.594899
0.622452
-0.0396098
0.388812
-0.391386
-0.311012
0.363567
0.00547178
-0.221804
0.23596
-0.0887275
-0.425502
-0.162239
-0.101504
0.600707
0.148245
0.302194
0.0573223
0.32362
-0.527734
-0.332832
0.0958651
-0.0913937
0.246376
-0.36568
0.323769
-0.0576003
0.33247
-0.232678
0.152339
-0.115819
0.266783
-0.386366
0.134756
-0.227951
0.262303
-0.250247
-0.134752
0.277646
-0.238594
-0.132167
-1.08762
0.199386
-0.523984
0.167748
-0.370513
0.0161632
0.0127067
0.3161
-0.239092
0.563665
-0.318213
-0.119588
0.243787
-0.325667
-0.208084
-0.488306
0.208678
-0.219015
-0.352369
-0.205275
0.212445
0.0764044
0.33021
-0.0582883
0.388957
-0.483881
-0.260496
-0.300328
-0.177448
-0.360108
-0.193981
-0.210952
-0.430251
0.150094
-0.0570472
0.547641
-0.198443
0.0997421
0.052193
0.161469
0.241208
0.343213
0.274305
-0.0620156
0.339204
-0.103673
0.406294
-0.391938
0.327657
-0.244874
0.0203854
0.254236
-0.00334416
0.0948909
0.0716986
-0.212738
-0.320063
0.358444
0.241413
0.323631
-0.240315
0.199928
0.137747
-0.362441
-0.474594
-0.29552
-0.142976
0.736357
0.344161
-0.0968508
-0.146056
0.268777
-0.137388
-0.00272983
-0.31186
0.181502
0.576523
0.633098
-0.408011
-0.319685
0.0180692
-0.687412
-0.243019
-0.15289
-0.104256
0.3466
0.0170968
-0.40421
-0.211699
-0.158777
-0.0877187
-0.614997
0.428232
-0.164177
0.569129
0.205728
0.423617
0.78814
0.777575
0.156843
0.088504
-0.176903
0.311371
-0.590794
-0.308115
-0.305405
-0.383835
-0.277578
0.75744
0.306311
0.0364126
-0.237083
0.0949271
-0.144248
0.536495
0.47041
-0.311396
-0.0131748
0.457007
0.0539743
-0.390898
-0.489118
0.0531633
-0.0455273
-0.205925
0.000571232
0.00364161
-0.314128
-0.137869
-0.347263
0.586895
0.126734
0.0287159
-0.291267
0.48708
-0.130313
0.340864
0.490379
-0.300868
-0.409571
0.360152
-0.349815
0.225314
0.315996
-0.196978
0.219628
-0.394208
-0.282862
-0.248644
-0.46576
-0.427807
-0.110176
0.462743
-0.275619
-0.418972
0.25768
-0.22552
-0.110753
-0.267783
-0.218601
-0.161467
0.477347
0.0422739
0.282303
-0.0593661
0.337684
-0.132854
-0.250826
0.0957793
0.459782
-0.134937
-0.315126
-0.297273
0.0243656
-0.0752036
0.0421022
0.961186
0.155369
-0.0341078
-0.531439
0.319534
-0.412778
0.127188
0.100128
0.256916
-0.150304
0.23656
0.14868
-0.233781
0.107941
-0.136231
-0.286822
-0.0371361
-0.470171
-0.000858291
-0.456088
-0.315335
-0.0916549
-0.0870282
-0.134368
0.2391
-0.315875
0.0856329
-0.421611
-0.443928
-0.304053
-0.275089
0.376481
-0.462343
0.0422663
-0.142349
-0.299158
-0.36044
-0.44984
0.217322
-0.362746
-0.468898
0.317479
-0.277963
-0.297972
-0.303796
-0.0298551
-0.467587
-0.467058
-0.0638381
-0.281707
-0.355294
0.123979
-0.269777
0.235842
0.402194
0.0755482
0.269669
0.244533
0.0116138
-0.387985
-0.328433
-0.292164
0.426058
-0.333047
0.198708
-0.447324
0.401125
-0.466987
-0.00868644
-0.275314
-0.380683
0.170652
0.235367
0.417509
-0.0683459
0.404586
-0.432331
0.308868
-0.133483
-0.076174
0.298137
-0.309958
-0.219907
-0.16637
0.140131
-0.307805
0.0496058
-0.454364
-0.151409
-0.211009
0.248067
-0.210559
0.00607923
0.297
-0.107104
0.0235414
0.157781
-0.477763
-0.455674
-0.171216
-0.355019
0.320112
-0.498219
-0.0307538
-0.363064
-0.23532
0.0318544
0.00030585
-0.203472
-0.200612
0.23284
0.409398
0.476317
-0.152135
-0.180023
0.400257
0.189231
0.229646
-0.559324
-0.130114
-0.0286766
0.310924
-0.157258
0.261386
0.0126954
-0.500652
-0.339598
-0.149135
0.299055
0.052411
-0.0927474
0.199364
-0.420553
-0.178871
-0.334993
0.0446448
-0.410655
-0.113411
0.0984156
-0.429463
-0.424703
0.180709
0.302679
-0.378707
-0.291484
-0.340391
0.272503
-0.404827
-0.417689
-0.082187
-0.199634
-0.442961
0.108339
-0.296047
-0.197412
-0.47521
-0.00596929
0.100827
0.407969
0.367708
-0.126783
0.272311
-0.220344
0.0983668
0.107936
-0.00754656
-0.519761
-0.0178983
-0.420953
-0.12278
0.147367
-0.029652
0.142978
0.395548
-0.455729
-0.172358
-0.176844
-0.0574878
-0.407068
-0.434443
0.406308
-0.38406
-0.169879
0.0353882
0.352974
0.276685
-0.0680794
-0.43187
-0.33235
-0.270003
-0.325937
0.0448303
-0.0567311
-0.194532
-0.224212
0.176654
-0.436355
-0.00702589
-0.402845
0.394591
-0.399655
0.327349
0.203063
0.275077
-0.288686
-0.4519
-0.29825
-0.0811191
-0.410003
-0.286117
-0.0596379
0.110297
-0.143969
0.371901
-0.341547
0.396678
-0.278866
-0.257758
-0.281182
0.140748
-0.436568
-0.311202
0.255251
0.0490029
-0.40985
-0.199499
0.34907
-0.162463
-0.295776
0.40218
0.0250533
-0.245442
-0.306702
0.243518
0.0404954
0.32886
-0.13561
-0.168672
0.068304
-0.604149
-0.425237
0.265778
-0.42194
0.165761
-0.0658071
-0.327572
-0.100208
-0.129631
0.107894
0.479242
-0.143436
0.014861
0.213081
0.256754
-0.116577
-0.139682
-0.0639824
0.382866
0.349628
-0.251948
-0.0283336
0.048115
-0.0379079
0.122691
0.0924101
-0.31168
-0.475745
0.352334
-0.138904
0.133527
0.407226
0.457858
0.129211
-0.221184
-0.305261
-0.469996
0.437148
0.482937
-0.252397
0.390592
0.15257
0.0631952
-0.147422
0.136421
-0.0315948
-0.404493
0.186236
0.035619
0.04927
0.324621
0.422927
-0.44959
0.443225
0.29514
0.10107
0.167985
-0.37206
0.32757
0.401042
0.255173
0.482102
0.470518
0.198212
-0.365753
-0.347356
0.0853082
-0.186337
0.176759
0.532371
0.451696
-0.211625
0.206575
0.436062
-0.236644
0.257087
0.123761
0.557551
0.511399
-0.0678418
0.0240691
0.454025
-0.351894
-0.174791
-0.461516
-0.21148
-0.163472
0.400645
0.0650248
-0.225008
-0.354314
-0.110365
0.306759
-0.27698
0.149205
0.0340023
0.244524
0.0191018
0.35838
-0.216969
-0.482769
0.292214
0.158408
0.258618
0.113534
-0.218724
0.25758
0.0295733
-0.41681
-0.417846
0.498858
0.0323722
-0.357143
0.458972
-0.0845917
-0.253362
0.338332
0.280835
-0.0989766
-0.120215
0.231734
-0.411176
0.166295
0.234707
-0.144783
-0.397363
-0.328088
-0.281608
-0.225816
-0.411561
0.116751
-0.160536
-0.443587
-0.429705
-0.404994
-0.0755887
0.18562
0.221784
-0.0121347
-0.234854
-0.341219
0.0648803
-0.530602
0.251169
-0.0578991
-0.226931
-0.289735
-0.124713
-0.522962
-0.238887
-0.0437562
0.485589
0.144305
0.129977
0.2272
0.0267178
-0.160548
-0.47139
-0.234893
-0.235406
0.0227143
-0.0779435
0.286323
-0.404051
-0.148237
0.363245
-0.238157
0.330044
0.265217
-0.237824
0.437113
0.34362
-0.021156
-0.411682
-0.336193
-0.124142
-0.0450796
-0.332273
0.198003
-0.0737831
0.250522
0.433745
-0.212728
1.51835e-05
-0.58507
-0.113652
-0.309751
0.386741
0.263053
0.431507
-0.346022
-0.24552
-0.504912
0.121803
-0.0988525
0.363839
0.392968
-0.0380169
-0.0370447
0.26239
0.054598
-0.115265
-0.423402
0.28579
-0.381671
0.267621
-0.466391
0.17879
0.346124
-0.00491854
0.063526
-0.287173
-0.222522
-0.479964
0.346947
-0.237646
-0.39576
-0.265202
-0.31764
0.00226896
-0.271023
0.377648
-0.0724841
-0.542274
0.171481
0.204983
-0.533821
0.311479
-0.334575
-0.493056
0.374977
-0.11461
-0.17987
0.0298712
0.264909
0.0701437
-0.0830004
-0.371802
-0.159491
0.21444
-0.328299
-0.113531
-0.214913
-0.316993
-0.076518
0.609827
-0.361993
-0.318379
0.452027
0.0379355
-0.443046
-0.0142948
0.0390652
0.334601
0.356191
0.343498
0.129701
-0.0310077
-0.435883
-0.0754247
0.0773344
-0.0213192
-0.25886
-0.0915045
0.129803
-0.275608
0.253495
-0.258749
-0.400733
0.178003
0.0355848
-0.172431
-0.594885
-0.0923664
0.338783
0.536905
-0.178999
0.00639954
-0.347613
-0.406994
0.159739
-0.0841147
-0.0268066
0.399551
0.320019
0.195582
0.0459418
-0.0108777
-0.234102
-0.508666
0.624016
-0.495237
0.112937
0.225807
0.542426
-0.110796
-0.181421
0.0987506
0.0250053
0.0581923
0.0804292
0.290674
0.0795546
0.432258
0.422588
0.174857
0.174907
-0.141755
0.0675581
0.221866
-0.235033
0.390391
-0.227963
0.35586
-0.343802
-0.234744
0.552107
0.282165
0.0737831
-0.0308519
0.303022
-0.332964
0.0700432
0.107485
-0.198734
0.146109
-0.132326
0.000548395
-0.203168
-0.380949
-0.373033
-0.270809
0.335335
0.553626
-0.424375
0.332562
0.39274
0.199745
0.328986
0.167119
0.158585
0.301972
-0.207649
0.235353
-0.392029
-0.176588
-0.198807
0.138798
-0.313011
0.427917
-0.364158
-0.171386
0.142165
-0.529194
0.258199
-0.424871
0.109427
-0.232027
-0.46044
0.109046
0.231149
-0.195172
0.474032
-0.0320428
-0.376934
0.146434
0.319568
-0.151348
-0.128862
-0.0706089
-0.369927
0.303237
-0.169449
0.10214
-0.452438
-0.461757
-0.562548
0.0781677
-0.00596451
0.258592
0.413328
0.120096
-0.05732
0.197212
0.0505628
0.372017
-0.122133
-0.447874
-0.310479
-0.0790666
-0.329659
0.163507
0.329676
-0.201735
-0.0279377
-0.548512
0.432658
0.00445799
-0.213765
0.369747
-0.0173471
0.397402
-0.0112376
0.209725
-0.132153
0.25998
0.339134
-0.246699
0.0854101
-0.219234
0.290855
0.0317048
-0.314749
0.108759
-0.241769
0.0838034
-0.127313
-0.386113
-0.384238
0.414732
-0.0729325
-0.507088
-0.273359
0.487281
0.253793
0.514319
0.0823399
0.105121
0.0706421
-0.0551438
0.0706886
-0.280682
0.117876
0.192309
0.08644
-0.196336
0.549194
-0.101383
-0.218788
0.0503136
0.365842
0.202316
0.191063
0.050479
-0.240683
-0.326919
-0.168675
-0.356892
0.561898
0.186199
0.419945
0.0890861
-0.382967
-0.242959
-0.0478187
0.364191
0.268225
0.580356
-0.496572
0.0215688
0.178657
0.473448
-0.408007
-0.245559
0.271536
0.869804
-0.23314
0.222314
0.311296
-0.0140115
0.451184
0.336034
-0.287237
-0.361005
0.261795
-0.0207612
0.261536
-0.106773
0.205228
0.301206
-0.134525
-0.291618
0.651916
0.253583
0.109572
-0.345159
0.180116
0.0412812
0.102799
-0.454928
0.129817
-0.220442
-0.0130599
-0.350041
-0.0324458
-0.0442792
0.310065
-0.162203
0.339307
-0.414388
-0.116989
0.432211
0.380881
-0.340675
0.194558
-0.041914
0.368912
-0.0289191
0.102871
-0.391326
-0.143891
-0.122131
-0.372806
-0.199352
0.0715441
-0.237853
-0.115941
0.309845
0.562228
0.453492
0.146843
0.425433
0.31965
-0.166715
0.098263
0.300537
-0.347668
0.41646
-0.129556
0.41054
-0.126181
-0.395611
0.0991849
0.220396
0.124661
-0.0380543
-0.202053
0.101189
0.264747
-0.0810299
-0.43871
0.253641
-0.278666
-0.53267
-0.0499274
0.274898
0.112196
0.266865
0.344575
-0.44138
0.0837479
-0.174821
-0.193712
-0.624912
0.363329
-0.157873
-0.0428602
0.101202
-0.26215
0.461756
-0.340911
0.223296
-0.233556
0.182796
-0.33809
-0.120212
-0.515747
0.353387
-0.0860927
0.247265
-0.394129
0.212136
0.325845
-0.294583
-0.194683
-0.380795
-0.411673
0.0799004
-0.0295745
0.340451
-0.337001
0.545258
-0.0567183
-0.346976
0.482701
0.363553
-0.0234313
0.0821507
0.13642
0.352795
-0.45569
-0.276841
-0.209018
0.258838
-0.380095
0.345864
-0.510201
-0.0619231
0.226867
0.330678
0.216489
-0.501896
0.130545
0.337353
0.191741
0.312033
-0.108279
-0.0182249
0.511836
-0.133305
-0.0181721
0.466545
-0.174895
0.44024
-0.273043
-0.486769
-0.0647605
0.149432
-0.52982
0.0630979
0.016176
-0.420882
0.225739
0.30371
0.196724
0.220673
-0.382496
0.290652
0.268409
-0.00149772
-0.320212
-0.0996732
-0.000834508
0.512556
-0.0692268
0.420897
0.295855
0.149667
0.153458
0.0875125
0.31726
-0.50503
-0.295906
0.266901
-0.113253
-0.373733
-0.360074
-0.00489617
-0.444595
-0.133515
0.203897
-0.387153
-0.254541
0.199556
-0.0147109
-0.14536
0.161469
-0.209709
-0.463712
0.328756
0.19939
0.377103
-0.336635
0.283981
0.332623
-0.268522
-0.0528612
0.374947
-0.0545127
-0.0624645
0.409059
-0.371433
0.428139
0.0444592
0.432694
0.399959
-0.471995
0.0934015
-0.175791
-0.0720212
-0.321817
0.13425
-0.434405
-0.3236
0.0602559
0.20351
0.047519
-0.275119
-0.522249
-0.0848263
-0.456358
-0.286606
0.435555
-0.414302
0.150649
-0.118833
-0.148326
0.218007
0.208637
-0.118221
-0.440419
0.217487
0.00252277
0.473346
0.300525
-0.394622
0.109997
-0.304288
0.170386
0.484411
0.153767
-0.434089
-0.289774
0.114045
-0.133191
-0.104414
-0.00692935
-0.28609
-0.291678
-0.339421
-0.168691
0.0032879
0.54284
-0.326005
-0.232964
-0.079603
-0.167933
-0.494471
0.610262
0.505572
0.242841
-0.233296
0.437246
0.117335
0.483877
0.374748
-0.237894
0.264503
0.39614
0.184237
0.176291
0.476831
-0.00723084
-0.211235
-0.239939
-0.186964
0.102577
0.351787
-0.207731
0.213963
0.349082
-0.250898
-0.361116
-0.039533
0.197348
-0.279424
0.480419
0.267776
0.0309837
-0.0148184
0.0375513
0.220035
-0.383119
-0.149924
0.32258
-0.149134
-0.241634
-0.0898207
-0.0875464
-0.393481
-0.162975
-0.0142317
0.0418818
0.208148
-0.235153
-0.434274
-0.445857
-0.121225
-0.424972
-0.0501152
-0.260207
-0.200535
-0.191694
0.166979
-0.495391
-0.195641
0.0961079
-0.106883
0.489449
-0.255914
0.101565
-0.421475
0.345406
-0.224503
-0.479518
-0.401314
0.0814279
-0.0350173
0.402831
0.157015
-0.510201
-0.297352
-0.116918
0.302359
-0.448758
0.435524
-0.0910605
0.101016
-0.450322
0.166052
0.0203543
-0.411967
-0.454065
0.269241
0.449983
-0.0446637
-0.114778
0.0295651
0.433697
0.0878741
0.0608132
0.317299
0.213117
-0.0886532
0.147886
0.0748179
-0.360468
-0.487176
0.396412
-0.107118
0.110648
0.096593
-0.0624584
-0.128701
0.479179
0.321027
-0.00297002
-0.422561
-0.314702
0.0313345
-0.203102
-0.211465
-0.20754
0.234695
-0.375215
0.445829
-0.222465
0.306445
-0.0483667
-0.0628549
-0.112643
0.264496
-0.469897
0.167697
0.372194
0.0209397
0.0556513
0.22266
0.381328
-0.262133
-0.297584
0.199448
-0.112938
-0.547857
-0.00265343
0.194624
0.288049
0.00684777
0.416165
-0.257887
0.207212
-0.274111
-0.380756
-0.438234
-0.219279
0.556008
-0.0934548
-0.472236
-0.315181
0.360269
-0.28287
-0.190427
0.162873
0.318333
-0.064215
-0.0718893
-0.390306
-0.0931835
-0.139242
0.337116
0.0963034
0.0836609
-0.506055
0.113901
-0.319114
-0.0857071
0.083527
-0.0244906
-0.382667
0.511804
-0.270885
-0.286455
0.332671
-0.303806
-0.334686
-0.143819
-0.113171
0.368604
0.0814855
-0.0411055
0.306511
0.221338
-0.0623402
-0.206956
0.284356
0.492805
0.340787
0.501963
0.313153
0.303798
-0.236799
-0.540138
-0.18142
-0.261369
0.169492
-0.439082
-0.318853
-0.183562
-0.226381
-0.363881
-0.424745
0.0851046
0.294598
-0.530967
0.161076
0.113192
0.204359
0.179695
-0.100386
0.0669007
-0.15529
-0.257154
-0.165848
0.221983
-0.322369
-0.027554
-0.0628385
0.181674
0.202085
-0.0058227
-0.258005
0.41971
0.187061
-0.466248
0.152891
-0.211996
0.00842803
-0.536935
-0.0173991
-0.388476
-0.387812
0.291083
0.396053
-0.0463061
0.0261933
0.347238
-0.183997
-0.0529704
0.406706
-0.216667
-0.0572201
-0.330642
0.0738537
0.496151
0.174402
-0.0855135
0.742333
0.278348
-0.291658
-0.428565
0.403256
0.279735
0.219861
-0.121799
0.290571
-0.170801
-0.455126
-0.382578
0.0992366
0.0941555
0.273133
-0.583727
0.126503
1.06542
-0.356829
0.289428
0.480249
-0.170292
0.408315
0.414608
0.0584425
-0.00310876
-0.247939
-0.427162
0.0607679
0.284181
-0.072578
-0.493899
-0.124313
-0.314423
0.265081
0.490949
0.459565
0.189084
-0.00964912
0.0340768
0.0695965
-0.41217
-0.0160474
-0.312361
-0.35197
0.488518
0.580712
0.115416
0.260834
0.42163
0.563798
-0.192712
0.358047
-0.0481438
0.534591
0.326542
-0.228989
0.0734869
0.10795
-0.121123
0.593155
0.655866
-0.0876648
0.0256829
-0.282136
0.3554
-0.0939256
0.798404
0.422493
0.638987
0.559341
-0.0166139
-0.116069
-0.548221
0.204555
-0.224824
-0.307014
-0.0879094
-0.276368
0.310178
0.359953
0.446585
-0.0109903
-0.00973109
0.3591
0.163448
0.0382653
-0.366953
-0.315785
0.405742
-0.347545
-0.398801
0.508988
-0.0615312
1.37476
0.245046
-0.472302
0.204154
-0.0875507
-0.370475
-0.0613528
0.101988
-0.142836
0.440775
0.12682
0.431114
0.184456
-0.33437
-0.13071
-0.471973
-0.0456366
0.300942
-0.768579
0.316994
0.341552
0.282603
0.318504
-0.184097
-0.236823
0.225843
-0.177322
-0.153731
0.100742
-0.145331
-0.834991
0.907582
