#input normalization
0.160828 0.269697
44.4181 49.1979
10.5789 38.3567
8.34025 31.6913
0.0111746 0.0433277
0.00911821 0.0331061
0.569779 1.57915
0.878489 1.39365
1.08799 1.57375
1.34273 1.74767
1.61947 1.90894
1.88816 2.0396
2.13633 2.15596
2.38858 2.26089
2.61311 2.33294
2.81624 2.36435
3.00998 2.37819
3.17935 2.36065
3.29683 2.30588
3.40901 2.24214
3.47428 2.14716
3.5456 2.03413
3.5817 1.92454
3.58621 1.78759
3.54745 1.63424
3.51314 1.47842
3.43246 1.32269
3.35754 1.15198
3.24235 0.949374
#output normalization
1 0
#neurons weights
-0.381169
-0.300535
0.350999
0.101148
0.430582
-0.11236
-0.380686
-0.303094
0.344225
-0.309213
-0.194454
0.266138
-0.31497
0.253632
-0.358016
-0.491956
-0.26037
-0.158638
0.339682
0.354474
-0.105074
-0.429807
0.189283
0.383214
0.0542241
0.348048
-0.00343031
0.062486
0.290052
-6.20306
-3.27357
0.742667
0.257021
-0.0028476
0.183517
1.56743
0.455912
1.53059
-3.20961
-0.933143
-0.499228
2.87602
2.20272
-1.2141
-0.0186372
-3.09748
1.54883
-1.11695
-1.42084
0.347857
-0.407822
-0.0448952
0.318643
1.20686
0.489411
1.16852
2.54633
1.52717
0.043697
-0.875834
0.612551
-0.721676
-0.0823979
-0.41745
0.0336595
-0.525991
0.251557
0.302268
-0.299714
-0.111867
-0.357263
-0.232264
0.469483
0.68293
-0.709671
-0.321024
-1.0589
0.0312999
-0.421458
-0.332661
-0.339371
1.08704
-0.515928
-0.155543
-0.568936
-0.326645
0.717389
0.547749
1.72416
#synapses weights
3.01725
0.830303
2.04887
-0.519326
-1.57472
0.373979
-0.0275378
-0.151006
-0.0766743
0.0193639
0.244506
-0.144913
-0.196197
0.210167
0.378365
-0.236679
-0.0102358
0.222251
-0.0538976
-0.170972
-0.0397958
-0.035867
-0.275545
-0.163479
0.079173
0.136684
0.157898
0.0908061
-0.205224
0.539209
1.4113
-1.68508
0.614894
-0.112567
-0.0919241
0.204706
0.240771
0.579409
-0.272767
0.454896
-0.963014
0.344324
0.169978
1.32808
-1.01703
0.332609
-0.22731
0.0824064
0.268495
-0.606962
0.371684
-0.765234
0.457501
-0.151883
-1.26162
0.750294
0.211017
-0.0791189
-0.276837
0.0632646
0.535129
0.279814
0.451664
0.25371
0.0418978
-0.00553346
0.123278
-0.0409383
0.47764
0.236739
0.663779
0.60577
0.738849
0.3222
0.265642
0.327976
0.0181979
0.192817
0.103796
0.157992
0.965035
0.925909
0.867833
0.684348
1.00428
1.39109
1.11983
-0.857548
0.831997
-0.0349397
0.0989743
0.197424
0.949653
0.160307
0.0707793
-0.300635
0.520047
0.504233
0.239762
0.894275
1.15724
0.465464
0.528073
1.47762
0.791301
0.604705
0.988473
0.633359
1.35234
1.48563
1.0685
0.840856
1.45863
1.2445
0.851192
0.702401
0.087263
1.10606
0.149557
0.377193
0.310108
0.525374
-0.0987707
0.110358
0.890742
0.732244
0.992474
0.5774
0.460526
0.856284
0.973775
0.770264
1.08483
0.86248
0.515158
0.953625
1.20518
0.409186
0.719178
1.13697
0.818279
0.765727
1.26433
0.855462
0.71649
-0.0859148
0.966493
-0.203796
0.0616113
-0.269478
0.208031
0.38901
-0.392961
0.388061
0.102487
-0.229279
-0.0502188
-0.516002
0.54753
0.132507
0.40901
0.500539
0.233405
0.650488
0.422455
0.0844788
0.00522419
0.300947
0.671341
-0.0627641
0.387132
0.560052
-0.418525
0.487535
-0.613511
-0.726765
1.00843
-1.14387
-0.382764
-0.924282
-0.216596
-0.061482
0.127685
-0.258503
0.299562
-0.519504
0.702174
-0.27211
-0.0416132
0.125379
-0.280625
0.287174
-0.894103
0.30781
0.441893
-0.0170053
0.69886
0.297782
0.151606
-0.910893
1.11369
-0.390029
-0.383789
0.00727071
-1.33255
-0.0184062
-0.658189
-0.0260692
-0.930133
-0.0421828
0.271642
-0.0744225
-0.232861
-0.610432
-0.330239
-0.615744
-0.849378
-0.446576
-0.800872
-0.509898
-0.615998
-0.847666
-0.949791
-1.01512
-0.757207
-1.2086
-0.468464
-1.07037
-0.762135
-0.358319
-0.74586
-0.697179
-1.00659
-1.26658
-0.166831
-0.0934598
0.18969
-0.594296
0.320848
0.370311
-0.0897184
-0.577929
0.41023
-0.287678
0.230891
0.60362
-0.199506
0.015486
-0.076076
-0.454608
-0.381323
-0.756064
-0.583994
-0.768203
-0.537036
-0.109985
-0.849525
0.038668
-0.318682
-0.620478
-0.906887
0.845746
0.950981
0.200945
-0.0598732
-0.687239
-0.171404
-0.105199
-0.78145
0.188428
0.909142
-0.1225
0.245174
0.172652
-0.311509
-0.0243631
-0.0669993
-0.376443
0.363429
-0.0508783
0.166363
-0.663059
1.24761
-0.0661793
0.262767
-0.0624714
-0.26762
-0.667265
-0.267633
0.887093
0.581404
0.937582
-0.0823729
0.134952
0.20161
0.407909
-0.00327354
-0.191692
-0.0248387
0.236466
0.51739
0.401182
0.267346
0.204031
-0.368416
-0.305875
0.168501
0.296397
0.336606
-0.209123
0.186336
-0.385313
-0.241176
0.00590242
-0.0280315
-0.383136
0.301563
0.0945333
0.342503
0.10711
0.150773
0.10346
-0.0855454
-0.085272
0.0629017
-0.315037
-0.430119
-1.05657
0.118268
-0.0870624
-0.135206
0.893384
0.564528
1.17928
0.826482
0.670246
1.51683
-0.696058
0.327928
0.260569
0.309281
0.542197
0.794199
-0.296712
-0.478323
-0.302022
-1.02224
-0.289201
-0.187487
-0.666007
2.47986
-2.00221
1.2424
-0.613956
0.164004
0.14119
0.395518
0.0591928
0.0733637
0.347674
0.127463
0.234891
0.20554
-0.119927
0.387469
-0.349178
0.711324
-0.335442
0.239965
-0.195865
-0.46719
-0.00796305
-0.600374
0.1394
0.0149016
-0.169585
0.487895
-0.712115
-1.48452
1.48937
-0.339598
-0.496346
0.117526
0.458127
-0.334208
0.0310272
0.156913
0.332119
0.147633
-0.409532
0.109266
0.0956414
-0.35027
0.0385438
0.723578
-0.0283872
0.143424
-0.442083
0.573326
-0.379003
0.306062
-0.393169
0.041578
-0.159922
0.738498
0.248992
0.332063
0.75518
0.452711
0.0486575
-0.762287
0.0519761
0.159599
0.579438
0.16388
-0.381919
0.294313
-0.180694
0.131054
1.06312
0.355898
0.714005
0.126775
-0.663475
0.298402
0.916395
0.619123
-0.229215
-0.0489439
-0.418824
-0.437501
0.152663
-0.0259194
-0.358405
0.735643
-0.427025
0.414042
-0.0691908
0.278283
-0.038979
0.200648
-0.342699
0.0279973
0.10055
-0.280492
-0.106499
0.019536
0.356726
0.314498
1.1223
-0.0252028
1.05702
0.487017
0.735842
1.00891
1.24266
0.874988
1.32689
1.10649
1.03623
0.741924
0.691153
0.900984
0.600877
0.215346
1.4675
-1.78323
0.379714
-0.500408
0.428861
0.458127
0.118448
-0.176348
-0.159515
0.38539
0.43781
-0.256312
0.0771414
-0.626547
0.225217
0.101266
0.559189
-0.955146
-0.105414
0.13778
-0.489317
0.412387
-0.199476
-1.07154
-0.00169063
0.276083
0.163228
0.145811
-0.145092
0.16549
0.133382
0.281298
0.00156037
-0.14989
0.815922
0.95808
-0.185486
0.0800295
0.309239
-0.421781
-0.203496
0.397515
0.713653
0.334245
-0.249544
-0.535706
0.335624
-0.186755
-0.673448
0.212458
1.06629
-0.440275
0.45352
-0.208467
-1.03537
-0.0718129
-0.559099
-0.208921
0.804441
-0.0293965
0.279137
-1.00399
0.245928
-0.075619
0.291005
0.71532
-0.0403813
-0.743835
0.363334
-0.0679017
-0.508009
0.341286
0.0146557
0.0468047
-0.0956414
0.200469
-0.0115645
-0.192498
0.3399
-0.328104
0.0382248
0.126989
0.346988
0.317009
-0.307405
0.398039
0.121244
0.949178
-0.0617855
0.0866727
-0.199928
0.186184
0.423365
0.277781
-0.117381
-0.297698
0.490166
-0.531686
0.0782248
-0.226626
-0.140182
0.136485
-0.891974
0.0201356
-0.0616341
-0.8088
-0.136807
-0.0724429
1.07548
0.161801
0.516255
-0.663095
0.0849764
1.04354
0.335231
-0.421267
-0.797863
0.0225908
-0.309378
0.233657
-0.28255
-0.185586
0.432997
-0.00978086
0.380656
-0.273366
0.213219
-0.507923
-0.376837
-0.37255
0.0662005
-0.347237
-0.0142585
0.0702228
-0.29036
-0.205628
-0.0708078
0.0152342
0.0860818
-0.837085
-0.430489
0.139445
-0.753931
-0.328011
0.9207
0.158296
0.0994441
-0.0594221
0.230867
0.149717
0.489913
-0.324903
0.0655498
0.797383
0.505897
-0.224466
0.551999
0.220512
0.729955
0.487719
0.708869
0.203818
0.309834
0.0258403
0.0405298
0.66781
0.0085853
0.496621
0.443877
0.43689
0.211586
-0.292436
0.678368
0.245879
1.30891
0.0139897
0.287531
-0.190671
0.909277
0.0713921
0.477876
0.368678
0.301659
0.297206
0.877182
0.364869
0.307218
0.631859
0.63879
0.896302
0.580017
0.960607
1.09163
0.974361
0.677526
0.761499
0.487486
1.27328
0.995326
1.3681
0.93994
1.01345
-0.419016
-0.815459
-0.472548
0.164837
0.192081
-0.0722622
0.388592
-0.284511
-0.145959
0.184378
0.381667
-0.201831
-0.582236
0.0231789
-0.572571
-0.792862
-0.0150532
-0.113512
0.134473
-0.62228
0.245828
-0.60886
0.209545
-0.000140313
-0.367469
0.0462418
-0.41669
0.15014
-0.327839
-0.0976334
-0.819601
0.110325
0.419153
-0.375425
-0.016623
-0.49605
0.0476145
0.239913
-0.717854
-0.599379
-0.72888
-0.405986
-0.0471048
0.0828806
-0.132598
-0.70178
-0.908188
-0.566707
-0.490936
-0.106124
-0.484832
-0.173037
-0.542422
-1.04976
-0.592339
-0.790569
-0.857893
-1.05843
0.711414
-0.570881
-1.07623
-0.187239
0.448903
0.273978
-0.122667
-0.367996
-0.451699
0.229758
-0.294575
-0.475219
-0.438788
-0.444791
-0.0300786
-0.598794
-0.0479361
0.0838468
-1.21181
0.0744013
0.0108827
-0.729773
-0.181494
0.193293
-0.280677
-0.269844
-0.321005
-0.621693
-0.700304
0.383445
0.285139
0.235598
-0.109584
-0.262788
0.373645
0.211353
0.104233
0.62199
0.949812
0.607273
0.66067
0.70923
0.632207
-0.37147
0.229792
0.0840286
-0.0708431
-0.0729215
0.40917
-0.130484
0.236592
-0.0468403
-0.342343
0.162162
0.248547
-0.322582
0.271565
0.063323
-0.976775
-0.908637
0.130156
-0.181839
0.104714
-0.153376
0.100656
0.117767
0.165282
-0.0951949
-0.0174287
0.556569
0.117078
-0.164166
-0.292224
0.209488
-0.346292
-0.49776
0.539699
-0.38069
-0.20226
-0.179211
-0.18159
-0.254244
-0.0143135
-0.611645
0.101793
-0.173173
-0.250702
-0.0158399
-1.03258
0.974824
0.574444
0.578581
0.298383
-0.367472
0.0284914
0.154909
0.424318
0.0407961
-0.402323
-0.555792
0.634093
-0.40261
-1.04889
-0.152744
0.264035
0.369599
-0.152374
0.328136
-0.279435
-0.527258
-0.10962
-0.487878
0.484106
-0.150041
0.0481282
-0.462778
0.370245
0.438542
0.275538
-0.160866
-0.369966
0.415567
-0.649873
-0.128842
-0.00443425
-0.109004
0.195451
-0.031679
0.152106
0.58803
-0.00516425
0.571104
0.204131
0.421836
0.395673
0.81893
0.702823
0.643865
0.485892
0.349736
0.602073
0.295486
0.786766
0.41686
0.63702
0.653118
0.550426
-0.325827
-0.148677
-0.731365
-0.0157573
-0.299548
0.351527
-0.259132
0.697377
0.181612
0.688581
-0.27883
-0.259871
0.261692
-0.540442
0.707308
-0.370569
0.433924
0.663828
-0.395044
-0.25208
-0.695236
-0.514316
0.504862
0.227591
-0.211265
-0.195228
-0.635541
-0.338626
-0.16049
-0.273755
-0.120159
-0.105392
0.401166
-0.248634
0.608874
0.0599999
0.717782
-0.0818296
-0.49528
0.194116
0.0289875
0.253548
-0.242894
-0.242204
-0.150547
0.751943
-0.227004
-0.0901094
0.506863
-0.427627
0.231313
0.329211
0.380604
-0.0579983
0.688446
0.235486
0.331089
-0.216788
0.639117
0.135014
0.0448344
-0.355671
-0.488038
-0.173168
0.0796751
-0.493879
0.23011
-0.664195
-0.770957
-0.479866
-0.480488
0.150027
-0.212515
-0.261108
-0.269282
-0.221171
-0.691545
-1.00794
-0.304332
-0.226799
0.280394
0.435488
0.158004
0.496593
-0.996099
0.297837
-0.53958
-0.648732
0.830103
-0.4671
-0.24297
-0.969791
0.254582
-0.700424
0.0776609
-0.0490777
0.0832102
-0.553004
-0.217219
-1.03675
-0.0981087
-0.129826
-0.734713
-0.901258
-0.268655
-0.0788149
-0.920086
-0.81278
0.397911
0.00583211
-0.160968
0.491538
-0.0456356
0.173799
-0.914035
-0.452679
-0.933504
-0.0293924
-1.16152
-0.324024
0.410104
-0.456902
0.156719
0.245217
0.602703
0.606495
0.485326
-0.220665
-0.414202
-0.352852
-0.243633
0.848087
0.0755218
0.422779
-0.398637
-0.0350251
-0.360466
-0.129321
-0.0872376
0.264259
0.317011
0.396367
-0.359762
0.615527
0.124826
0.0886447
0.560938
0.0130542
0.162553
0.984177
0.00908018
0.0841645
0.184783
0.261369
-0.0343653
0.0621347
-0.449044
-0.228706
0.215039
-0.679162
-1.33856
-0.728301
0.326974
0.380602
0.929541
-0.77015
-0.147869
-0.0454243
0.0202117
-0.090048
0.0734915
-0.208768
-0.267147
-0.231842
-0.118259
-0.71116
-1.00147
-0.104543
0.440217
0.789212
-0.234193
-1.16774
-0.284472
0.0987526
-0.611059
-0.379105
-0.713803
0.134786
0.397788
-0.501137
-0.900221
-0.942348
-0.280807
-0.584258
1.15207
-0.766064
0.470121
0.472173
-0.809287
0.418037
-0.461127
-0.553772
-0.18083
-0.0596968
0.288333
-1.10428
-1.11183
-0.0690716
2.0608
-0.209484
-0.178029
-0.360839
-0.521252
-0.0892835
-0.363841
0.148313
-0.245711
0.782796
0.562933
-0.246438
-0.470506
-0.66494
0.882103
0.686208
0.0640675
-0.612737
-0.180675
0.227432
0.277833
-0.238985
-0.190264
-0.346282
0.129201
-1.22635
0.197711
-0.793119
-0.139705
0.883088
-0.0563032
-0.246358
-0.561362
0.237382
0.268199
-0.491644
-0.451485
-0.157302
-0.374782
-0.405008
-0.043668
-0.453694
-0.0874954
0.339292
-0.193327
-0.112376
-0.506238
0.00702433
-0.175199
-0.418151
-0.213718
0.0821625
-0.216968
-0.359673
-0.541422
0.385832
-0.527205
0.0712507
-0.411643
-0.579005
-0.566344
0.0644787
-0.484632
-0.652889
0.243868
0.22846
-0.182191
-0.641129
-0.356283
-0.74889
-0.373492
-0.0605119
-0.0391684
-0.798957
-0.862822
-0.427258
-0.497909
0.0134138
-0.215578
-0.161111
-0.950962
-0.344791
-0.424883
0.33359
-0.826832
-0.343535
-0.515751
-1.02486
-0.100798
-0.537828
-0.564819
-0.281471
0.364761
-0.292201
-0.209699
-0.441848
0.143675
-0.276123
-0.20641
-0.322515
0.0446896
0.204597
-0.33083
0.0157135
0.134452
0.155777
-0.515427
-0.144185
-0.00416765
-0.124744
-0.397578
-0.528825
0.282718
-0.462239
0.111818
0.19881
0.349197
-0.206096
0.491062
-0.0517083
1.04208
0.111576
0.200562
0.271019
-0.308669
-0.158778
-0.774927
-0.251244
-0.704534
0.51737
0.183294
-0.649706
-0.509
-1.05583
-0.0362041
0.492615
0.475737
0.0861675
-0.231112
0.527385
-0.341525
0.415183
0.601713
0.0605227
-0.0458961
-0.63948
-0.590391
-0.247737
-0.352309
0.479861
0.807614
0.758106
-0.243556
-0.0275531
0.7643
0.0342308
0.138256
0.237281
-0.141801
0.00673907
0.407901
0.315232
-0.638864
-0.371225
-0.263589
0.142866
0.679903
0.10024
0.58196
0.62897
-0.0449961
1.13528
0.52357
-0.709112
-0.753209
-0.158922
-0.156494
-0.452581
-0.265558
0.900769
-0.166458
0.340923
0.5481
0.0961714
-0.173983
0.329475
0.225595
0.473878
-0.20013
0.459777
0.733449
0.0919966
-0.127112
-0.190927
0.262034
0.558516
0.286739
-0.0974569
0.307503
0.301121
0.0775289
0.569467
0.309057
0.323011
0.401855
0.413207
0.750921
-0.0350551
0.440793
0.503814
0.715708
0.120108
0.107863
-0.13821
0.689859
-0.0836905
-0.146093
-0.224427
0.128883
0.668556
0.750032
0.16886
-0.356447
-0.551572
-0.0472267
0.116837
0.634607
-0.31556
0.187043
0.366108
0.230667
0.367163
-0.282868
-0.581877
-0.376392
0.0529107
0.0641764
-0.790178
-0.327666
0.215936
1.14138
1.52652
-0.659758
-0.209675
-0.729607
-0.0824754
-1.74274
-0.565106
-1.47205
0.820106
0.609522
-0.255006
-2.31636
-1.73318
0.155644
-0.414438
1.08695
-0.236721
0.354038
0.378357
-1.06374
0.05228
-0.78841
-0.925236
-0.784114
-0.560101
-0.429028
-1.12877
-1.22188
-0.133026
1.15643
0.812892
-0.158936
-0.431317
-0.190837
-0.14728
-1.04332
-0.147169
-1.34337
0.0426967
0.723091
-0.0557131
-0.850236
-1.0931
0.222937
0.376492
0.874466
-0.106525
-0.276862
0.276697
0.191594
0.0118589
-0.50133
0.201727
0.318181
-0.733698
0.307153
-1.08118
-0.723207
0.464054
1.56973
1.60595
-0.778934
-0.118458
-0.488461
-0.000595379
-1.44863
-0.608156
-2.03606
1.31604
0.27547
-0.979167
-2.66879
-1.65136
-0.0470249
-0.258744
1.54914
-1.08829
0.198811
1.10405
-1.13643
-0.555862
-0.633606
-1.40954
-1.00311
-1.01109
-0.453843
-1.6317
-1.57392
-0.405018
1.79688
1.63582
0.00265315
-0.47634
-0.0899351
-0.0337055
-1.61828
-0.114587
-1.68336
0.29735
0.525686
-0.795112
-0.842389
-1.10839
0.830016
0.613233
0.876403
-0.93834
-0.16509
0.495446
-0.00499874
-0.2152
-0.825665
-0.849796
-0.547094
-0.722028
-0.135454
-1.33559
-1.15554
-0.252422
0.181572
-0.185136
-0.475946
-0.33009
-0.11136
0.0659988
-0.484933
-0.430901
-0.501141
-0.178474
0.0385045
0.101394
-0.623576
-0.352409
-0.476487
-0.424837
-0.141538
-0.546683
-0.268245
-0.308381
-0.599134
-0.417015
-0.183386
0.371619
-0.0856488
0.364046
0.0638353
-0.170781
0.270652
0.353328
-0.390788
-0.286705
0.113945
-0.0986168
-0.00458454
0.0866118
0.804945
-0.140927
-0.268798
-0.69022
-0.680916
-0.339604
0.0439545
0.0400415
-0.430936
-0.102863
-0.426861
0.359963
-0.584916
-0.219276
0.206107
-0.241159
-0.253291
0.373637
0.412259
0.080323
-0.0123012
0.46231
0.00787885
-0.243946
1.61869
1.21328
-0.19528
-0.569581
-0.114605
-0.0553044
-1.00213
-0.627987
-0.965375
0.939283
0.501813
-1.04967
-1.22004
-1.8369
0.567194
0.075235
1.09859
-0.485961
0.0637778
0.988924
-0.823073
-0.14209
-0.303315
-0.563524
-0.382404
-0.342745
-0.508782
-1.13499
-1.23978
0.258302
0.489857
0.535807
0.167837
0.294796
0.150729
-0.111184
0.291281
0.110191
-0.296738
0.837438
0.860108
0.465523
0.385638
0.198396
0.553016
0.18533
0.475816
0.502517
0.242235
0.0853581
0.719367
0.425855
0.173366
0.607995
0.195676
0.743914
0.841167
0.0122017
-0.428542
0.762393
1.138
1.79588
-0.0748362
0.0124123
-0.61694
-0.521675
-1.87101
-0.587676
-1.95746
1.4837
0.612861
-0.690607
-1.647
-1.76684
0.63682
0.522899
1.10273
-1.27138
0.652359
0.784012
-0.789452
0.0432972
-0.87768
-0.440222
-0.60975
-0.768902
0.384378
-1.82796
-1.56202
-0.220041
0.251873
0.434313
-0.172292
-0.342959
0.268111
-0.189603
0.398322
0.083877
-0.201541
0.748067
0.494251
0.159954
0.179207
-0.218209
-0.0926259
-0.257044
0.701032
-0.350875
0.692115
0.187099
-0.42024
0.973238
0.367759
0.102924
-0.401348
0.71973
0.607845
-0.995404
0.396421
0.550984
0.354448
0.722384
-0.561957
-0.402051
0.370036
-0.290481
-0.355392
-0.364016
-0.565598
-0.0786247
-0.326979
-0.53892
0.00980866
-0.440763
-0.0876726
-0.709328
-0.0352053
-0.364486
0.332398
0.0568453
-0.610513
0.677712
0.294855
-0.346817
-0.817017
0.636013
0.106189
-0.282539
-0.0480184
0.291769
-0.630794
-0.452537
0.569998
0.0520279
0.683282
0.524006
-0.000597006
-0.405037
0.321208
-0.271007
0.0402102
-0.575221
0.36633
0.446556
-0.510775
0.271448
-0.82494
0.0687809
0.0347138
-0.350254
0.0281796
-0.0834544
0.127932
0.255928
-0.0155408
0.665707
0.247954
0.730837
0.799159
-0.187477
1.50326
0.0419643
-0.279415
-0.0430597
-0.108435
0.552131
-0.764156
0.29007
0.166517
0.283392
0.486223
-0.556665
-0.387317
-0.299634
-0.0457054
0.250247
0.577299
0.341674
0.112361
0.640327
0.507861
-0.164478
-0.238264
0.633364
0.591549
0.500905
-0.952201
-0.122875
0.017434
-0.427629
-0.268605
-0.00223699
0.292557
-0.314155
0.353569
0.442967
0.439469
-0.395308
-0.203129
0.709841
0.311561
0.346758
0.309675
-0.602013
0.684152
0.199761
0.462583
0.527504
0.404117
0.496736
-0.456258
0.179961
-0.00436514
-0.352711
-0.333114
0.0705322
0.520977
0.0148839
0.197084
0.52522
0.906166
-0.885392
-2.14408
-2.62218
-1.77812
2.37912
1.13879
3.42245
-0.294411
-1.61726
-0.30997
2.20558
0.562519
1.79786
1.81867
3.25319
2.23232
5.14267
4.48886
-0.468822
-1.39669
3.98966
1.11735
3.14624
1.0683
-0.248114
-1.51037
2.3493
1.27256
