#input normalization
0.160914 0.273067
14.5303 23.0598
11.1519 30.8256
9.39681 28.771
0.0120757 0.0350228
0.0101267 0.0306039
0.273939 1.04515
0.645634 0.984976
0.870403 1.17916
1.09282 1.40596
1.34689 1.61625
1.62668 1.8223
1.89572 2.00288
2.15039 2.17061
2.40209 2.31987
2.64604 2.43361
2.88495 2.51903
3.13195 2.56308
#output normalization
1 0
#neurons weights
-0.387547
-0.301543
-0.0678154
0.45113
0.447813
0.383941
0.350793
0.207929
-0.403037
-0.479985
-0.0878377
-0.27878
0.186802
0.494008
-0.364235
0.273616
0.04972
-0.000817848
0.486489
4.28445
2.81002
-0.255768
-7.06937
-1.50956
-0.275962
-1.42249
0.762265
-0.732447
0.122753
0.948511
-3.86711
-4.67264
0.129311
-0.230045
1.20796
-4.04332
1.66952
-0.60574
-0.284
0.0433895
0.74607
0.319946
0.47816
-1.40468
-1.83084
0.588839
0.227549
0.712269
-0.216324
0.0311799
-0.308265
-0.242806
-0.356323
0.0564936
0.590764
1.79009
#synapses weights
1.04273
0.991965
0.300506
0.130841
-0.418215
0.787875
0.236032
-0.407068
0.307203
1.19461
0.60455
-0.551223
-0.286007
1.0714
0.997553
0.294891
1.42937
0.608088
-0.169804
-1.29592
1.12955
0.0448831
0.866274
-0.127347
0.132897
-0.654035
-1.06678
0.41521
-0.231885
0.394419
0.239393
0.947693
0.619171
-0.225769
-0.593132
-0.850826
-0.598632
-0.4615
1.7824
-2.43007
-0.462129
-0.899673
-0.0799195
-0.356146
0.265339
-0.0951928
0.0576377
-0.0345085
0.573062
-0.322482
-0.188488
0.63225
-0.311487
-0.243182
1.14633
-0.650943
-0.334952
0.427373
-0.567273
0.0725873
-0.439753
0.336565
-0.404373
0.178345
-0.247137
-1.44943
-1.34658
-0.316191
-1.06191
-0.709257
-0.771026
-1.09838
0.129521
1.0299
-2.79846
0.128246
-1.43833
0.574585
-0.0947591
0.294118
-0.620724
0.953005
0.179697
0.54134
1.2691
-0.822875
-0.66424
-0.503336
-0.652872
1.13737
0.307937
0.897231
-1.20405
0.382634
0.317819
0.378115
1.35721
-0.00938073
-0.511638
1.1945
-0.830831
0.855464
-0.0478637
-1.69408
0.664101
-0.447981
0.679255
1.40909
0.711256
0.999704
0.0727451
0.18977
-0.8696
-0.193164
-0.266289
-0.530479
-0.175159
-0.0846671
-0.436006
0.719631
0.79649
0.315468
0.675538
0.384782
-0.000792303
0.422719
0.951855
-0.583931
0.0627007
2.60132
0.00164515
0.904841
-0.0152195
-0.437296
-1.02409
0.462897
-0.227426
-0.749085
-0.66008
-0.362583
-1.22069
-1.48362
-1.39797
0.0804613
-0.321641
-0.812168
-0.926826
0.45853
0.717813
0.452016
0.451527
0.00890328
-0.736548
0.27752
0.217665
0.685071
-0.0701484
-0.301781
-0.238186
-0.688711
-0.902093
-2.81922
0.177226
1.29972
-0.364974
0.430196
-1.81578
1.02304
0.232909
-0.508117
-0.376859
-0.392727
-0.297679
0.195852
-0.568751
0.483034
-0.488921
0.00419768
-1.01825
0.886716
-0.148298
-0.719524
-0.119201
0.177707
0.185015
0.611242
-0.395234
-0.313463
0.160652
-0.112856
0.199889
-0.56656
0.00329404
-0.396736
0.304354
-0.621531
0.217379
-0.970303
-0.445812
1.37534
-0.576664
0.316255
0.390164
0.294437
-0.214991
-0.519447
-0.220255
-0.887352
0.695397
0.669283
0.506366
0.0423852
1.23321
1.03914
1.01161
0.769295
0.461178
0.833988
-1.30658
0.7793
-0.434835
-0.116642
-0.189123
-0.0761575
-0.979896
-0.304644
1.35019
-0.178363
0.751007
0.108659
-1.02931
0.499376
0.401733
1.34591
0.0399736
0.281613
-0.759435
0.556966
-2.16232
0.417081
0.364487
0.655444
-1.36813
0.615356
-1.05447
-0.0764565
-0.753392
0.65379
0.746083
0.210399
-0.00985714
-0.440922
-0.129906
-0.70064
0.754953
0.176061
0.544863
-0.947326
0.201903
0.0210304
-0.286316
0.518136
-0.485456
-1.04582
0.559408
-0.609369
-1.03925
-1.3188
-0.894238
-2.18661
0.214461
0.898774
-0.328594
0.578217
0.0699362
0.453244
-0.20341
0.937342
0.512252
-0.293704
1.19662
-0.0476539
0.626602
0.304809
-0.497074
-0.142422
0.317995
1.34496
-0.134112
-0.238814
1.17916
-0.744442
0.638511
0.821368
-0.410238
0.2718
-0.340065
0.564324
0.124852
0.182111
-0.325386
0.108077
-0.809876
0.0101794
-0.0572069
-0.383379
0.897592
0.678418
-1.30036
0.254114
-0.810324
0.724603
0.535199
-0.620051
0.249442
0.37241
-0.692113
0.340076
-0.0417829
-0.15284
0.881961
-0.442508
0.578323
0.0240993
-0.294135
-0.949429
2.27994
-1.35139
0.194591
0.280835
0.532967
0.326761
-0.550085
0.720593
-0.237496
0.794407
-0.412963
0.0156265
-0.0575424
-0.243737
0.0662148
0.612869
-0.598467
-0.936018
-0.576433
0.737053
0.319261
-0.207756
0.493307
0.126111
-1.40625
0.536387
-0.0202019
0.0271445
1.06735
1.25865
-0.377441
-0.217473
-0.00758733
0.91768
-0.647745
-0.667061
-0.753142
-1.49606
-0.121352
0.36553
0.733436
-0.114137
-0.0095858
-1.01961
0.549006
-0.751754
0.552313
0.879653
1.09242
-0.47894
-0.156658
-0.262134
1.01884
-0.622107
1.14183
0.628744
0.601397
0.894528
-0.768341
-0.394509
-0.26517
1.60243
0.2447
-1.30575
0.399846
0.800558
0.12603
-0.843571
0.728221
-0.395329
-1.05506
0.131182
1.75244
0.415775
0.0963411
0.500192
0.268645
-0.436854
-0.863944
-0.591542
-0.185869
0.34088
-0.424044
0.532258
1.16933
-0.73917
-0.282216
0.128234
0.00777119
-0.756683
-0.351388
-0.0280182
0.635597
0.196711
0.231718
0.277164
0.509766
0.699566
0.411889
0.581651
-0.693804
0.0438991
-0.0912082
0.773077
0.0484076
0.522561
-0.147016
0.183373
-0.425808
0.220117
0.112947
0.31679
-0.0302055
-0.379503
0.275941
1.11471
-0.419656
0.511777
0.610189
-0.487377
-0.441386
0.811532
0.48482
0.709484
0.216549
0.625103
0.898828
0.232055
-0.286037
0.428296
-1.31475
-2.21084
-2.21452
-0.997684
2.07865
0.832202
-0.38588
-0.45951
-0.577778
0.555734
-0.580517
-0.376184
0.885266
0.86903
-0.950339
-0.291932
-0.762488
1.49941
-1.97265
-0.679143
-2.67732
-2.93836
-1.10731
2.48699
0.42666
-0.289375
-0.895049
-1.86375
0.970487
-0.463144
-0.848546
1.19294
1.56319
-1.61613
-0.770277
-0.765137
1.97985
-2.04746
0.536504
-0.501918
-0.364541
1.00616
0.397678
0.688431
0.493522
1.1419
0.109426
0.386498
0.100472
0.0250332
0.0532362
0.912505
-0.175924
0.762304
-0.39906
0.797171
-1.16255
0.167599
0.752843
-0.0278598
-0.128492
0.159086
-0.170905
-0.00669699
-0.148372
0.28803
-0.947275
0.414082
0.560772
-0.558567
-0.375285
0.168194
0.228328
-0.904219
-0.610134
0.307687
0.59662
-0.181199
0.215514
0.0647107
0.555657
0.0265823
-0.26994
-0.0539828
0.0223202
-0.43195
0.0337912
0.375653
0.831816
0.0374321
0.269134
0.633929
-0.312425
0.238899
0.717678
-0.03171
-0.198955
-1.22401
-0.540642
0.344786
0.42038
0.406589
-1.49913
0.773608
0.836823
0.44302
0.713711
-0.276316
0.560013
-0.253256
0.11034
0.847515
0.657011
-1.66277
-0.899553
-0.141774
-1.47143
0.747644
-0.851848
-0.444407
-1.48736
0.753366
1.34345
-0.257081
-0.80877
-1.30886
-0.275732
0.260913
0.729453
-1.05308
-1.32392
0.181305
-0.378402
-0.066279
-0.440717
0.0999393
0.0620148
0.180276
0.58636
0.406646
0.0995563
-0.00396318
0.297553
0.123585
-0.718756
0.525299
0.655767
-0.217305
-0.125558
0.298685
1.0549
-0.561736
-0.341242
-1.12704
-0.150799
0.670048
0.228947
-0.45722
-0.419929
0.113922
-1.29302
0.353445
-0.245637
-0.000485496
0.718599
1.15363
-0.297109
0.108567
-0.262027
0.740138
-0.750606
-1.22741
-0.475802
-0.740713
-0.862033
1.23913
0.182783
0.663609
-1.35223
-0.0852257
0.602957
0.308539
-0.740294
0.179851
-0.0926237
-0.595457
-0.00637018
0.620874
0.95601
-1.87036
0.38272
-0.562203
-0.366338
0.595565
0.887511
0.794709
-0.348837
0.69299
-0.679494
-0.452118
0.12984
0.400684
0.997779
0.0545331
-0.206588
0.538946
-0.287033
0.315634
0.0366001
-0.204626
-0.0634769
0.126213
1.0642
0.931145
0.444099
0.296624
0.928335
0.169178
0.21481
0.292757
0.380389
0.5831
0.51218
1.10491
0.723774
0.265396
0.455837
0.289915
2.66407
2.28512
-2.91412
-1.57963
0.98198
1.66686
3.70843
3.04665
1.76075
-2.05266
0.881413
3.85219
-3.23128
1.71214
2.06139
2.6992
1.40577
1.28943
