#input normalization
0.160872 0.273019
65.8351 65.2433
9.57849 37.9025
7.95452 31.8788
0.0114484 0.0436424
0.00894427 0.0339641
0.273939 1.04515
0.645634 0.984976
0.870403 1.17916
1.09282 1.40596
1.34689 1.61625
1.62668 1.8223
1.89572 2.00288
2.15039 2.17061
2.40209 2.31987
2.64604 2.43361
2.87976 2.52399
3.10078 2.59463
3.3129 2.64136
3.46902 2.62551
3.62744 2.60989
3.74383 2.54487
3.83958 2.47079
3.92164 2.38596
3.99546 2.28585
4.00857 2.15326
4.01273 2.00649
3.9795 1.83963
3.89597 1.6476
3.79115 1.45907
3.69834 1.27562
3.58893 1.09599
3.44732 0.916924
3.28163 0.73915
3.11476 0.569483
2.9841 0.421046
2.80897 0.273396
2.67506 0.13324
#output normalization
1 0
#neurons weights
-0.186766
-0.315707
0.335596
-0.467393
-0.392301
0.0229751
0.0245289
0.308451
-0.0651228
0.243239
-0.00317195
-0.375437
0.373384
-0.142907
-0.498873
0.290706
0.0092548
0.356932
0.0843024
-0.215358
-0.36285
-0.284941
0.406355
0.0741721
-0.16174
0.0922849
-0.483662
0.029853
-0.177816
0.345578
0.364444
0.30773
0.412281
0.406741
-0.190639
0.0151512
0.368168
0.342224
0.787112
1.23803
-0.512483
1.49715
-1.32722
-0.139584
1.58629
0.332501
0.352769
-0.143534
1.58755
1.33149
-3.16367
0.358347
1.56355
2.06936
-0.156555
-0.240222
0.124895
-0.483887
0.341135
-0.496205
-1.40229
1.27453
2.09503
0.76522
0.311609
0.0638883
2.94782
2.41433
1.51571
-1.94619
0.307382
1.35152
1.19755
1.33032
-1.23986
1.18694
0.445985
-0.862863
0.657816
-0.0534209
-0.195525
0.520126
-0.598228
-0.418729
0.420672
0.628079
0.380853
-0.580353
-0.453253
0.155774
0.208387
-0.345374
-0.0390425
-0.484779
0.394465
-0.646174
0.120317
0.27049
0.321866
-0.45697
0.339848
-0.50165
0.559126
-0.767265
0.264265
0.551196
0.339794
0.264672
-0.432677
0.313053
0.347559
-0.287046
0.239032
-0.475184
-0.36896
1.10217
#synapses weights
-0.62756
-0.903139
0.0625634
0.0613744
0.351202
0.694311
-0.14473
-0.481514
0.280946
0.341068
-0.365099
0.373361
-0.0597453
0.30828
0.167244
-0.159687
-0.283682
-0.386819
0.329837
0.486075
0.0745217
-0.343871
-0.421497
-0.707521
-0.0133105
-0.633328
-0.044764
0.333415
-0.0200395
0.0573129
-0.515381
-0.42354
0.640338
0.00723833
0.452102
0.155663
-0.323952
-0.375211
0.126427
-1.49738
0.172847
-0.146994
1.19753
-0.0737864
0.0888399
0.891022
0.0544923
-0.838935
-0.0503416
0.15563
0.11603
-0.279553
-0.473652
0.00940665
0.0345115
0.204889
0.215586
0.645511
-0.387552
-0.273204
-0.442263
0.0258153
-0.276803
0.17721
-0.139593
-0.125529
0.00142248
-0.250085
1.00795
0.446005
-0.401681
-0.989655
-0.390678
-0.316358
0.394353
0.422603
-1.59476
0.251339
-0.0599851
-0.297833
1.09283
0.0600306
-0.116413
-0.0833739
-0.0656595
-0.537976
0.187079
-0.109121
-0.318384
0.358764
-0.0365515
0.112355
0.522577
-0.43823
-0.0523896
0.030383
0.0290725
0.222051
-0.566761
-0.350468
0.00498336
0.122824
0.11662
-0.382921
-0.174819
-0.425297
-0.16345
0.101858
0.895722
-0.251017
0.0682219
-0.203317
-0.297551
0.0506467
0.0573074
-0.3002
0.331416
-0.0360561
0.435989
-0.238242
0.436968
-0.0530247
-0.68792
-0.0488216
-0.623561
0.363938
-0.432774
1.11098
0.222533
0.246948
0.0608895
-0.725036
0.0379006
-0.115024
0.303726
0.510033
-0.691054
-0.219699
-0.426073
0.0548703
0.592616
-0.244047
0.749468
-1.02043
0.562885
0.186128
-0.346566
0.278065
-0.45287
-0.0375868
-0.0701285
-0.302192
0.302084
-0.299844
0.0625898
0.058486
-0.321223
0.408348
-0.114479
0.303888
0.181883
1.27045
0.749716
0.799891
0.439084
0.603848
0.371775
0.0800145
0.354414
0.0299408
0.433511
-0.16332
0.263243
0.457481
-0.263755
0.289741
0.339387
-0.226326
-0.389635
-0.521756
-0.0407309
-0.372474
-0.536444
0.103734
0.043496
-0.482927
-0.223257
0.0823884
-0.781058
-0.373028
0.140967
1.46017
-0.0600277
-0.0519452
-0.549601
0.354894
1.41819
-0.499242
0.151175
-0.321428
0.348754
-0.121296
-0.214055
-0.362195
0.0130185
-0.12615
0.19524
0.0759278
0.148097
-0.105244
0.0284573
0.152306
-0.0378849
-0.050023
-0.264567
-0.172028
0.334562
-0.118252
0.169507
-0.298414
0.306081
0.373409
-0.698562
-0.243932
-0.175508
-0.0503555
0.220889
0.193046
-0.902652
-0.66507
1.196
0.142703
0.333692
0.210809
0.398811
0.14137
0.130114
-0.0180057
0.0545775
-0.391131
-0.066342
0.480936
-0.224645
-0.276106
-0.00349162
-0.244968
-0.304331
-0.891322
0.497146
-0.0716831
0.16714
-0.244512
0.130962
0.879858
0.156085
-0.317863
-0.28752
-0.11023
0.152067
0.190396
0.566992
-0.0969206
-0.330105
-0.329957
-0.100464
-0.572656
-0.740292
-0.636913
0.0507437
-0.19909
-0.141025
-0.0175894
0.220472
-0.329388
0.759311
0.677257
-0.330895
-0.24421
0.296667
-0.713086
-0.252691
0.200028
-0.148244
0.419024
-0.471011
-0.340101
0.507864
-0.472216
-0.301622
0.299917
-0.269119
-0.0629714
-0.479961
-0.515482
-0.338262
-0.131253
-0.0350967
-0.286179
-0.47891
0.145151
-0.347735
-0.0845478
-0.107977
-0.228419
-1.21133
-0.556922
0.798986
-0.373875
0.332711
-0.142185
-0.544378
-0.220146
0.279345
-0.127432
-0.0163712
-0.29484
-0.24143
-0.442277
-0.0659452
-0.0258099
0.277526
-0.121592
0.0248884
0.113329
-0.42693
-0.532133
-0.0566325
-0.150144
-0.547074
-0.214741
-0.101101
-0.0524226
-0.444286
0.131869
0.188709
-0.254684
-0.199761
-0.512599
-0.0102584
-0.375441
-0.380205
-0.283836
0.436921
0.568648
0.227599
-0.538388
-0.103575
0.701738
0.288333
0.378864
0.0745085
0.332934
0.174633
-0.0529471
-0.438711
0.367832
-0.496735
-0.507605
0.0800016
0.200841
0.222461
0.859056
0.710666
0.590457
0.4522
0.250511
-0.0896512
0.156761
-0.320497
0.129168
0.626864
-0.1349
0.436229
0.377326
0.371814
0.157871
-0.26242
0.131828
0.112005
0.603864
-0.56987
-0.788851
-0.0948472
-0.378738
0.132794
-0.355192
0.200941
0.16219
-0.158621
-0.229165
0.294801
-0.595205
-0.0893385
-0.141037
-0.0500221
0.300545
-0.0294918
-0.162712
-0.0787308
-0.525197
-0.151108
-0.41425
-0.0674002
0.396757
-0.0363446
-0.214132
-0.00234339
0.180751
-0.0514075
-0.364681
0.252232
0.00587825
-0.0156529
0.000953649
0.414568
-0.685869
-0.607175
-0.332969
-1.09446
-0.582188
0.212425
0.0798945
-0.0787829
0.341855
0.192411
-0.367878
0.166398
-0.346069
0.113307
0.519326
-0.322222
0.06831
-0.182213
-0.369413
-0.490549
0.434552
0.0906266
0.40772
-0.73718
0.664005
0.368057
-0.106198
-0.17674
0.0135757
-0.173751
-0.00694855
-0.0754829
-0.00251247
-0.403789
-0.306143
0.507934
0.189277
0.096694
0.51653
-0.837202
-0.264324
0.137363
1.83898
-1.68743
0.227873
0.43471
-0.0167938
-0.0221137
0.312959
0.176484
-0.336963
0.198519
-0.156506
0.0667001
-0.164035
-0.164
0.373188
-0.301305
-0.482656
0.326129
0.197893
0.265294
-0.223991
-0.190738
-0.221772
0.284856
0.0216761
-0.125144
-0.324034
0.0344625
0.038962
-0.430279
0.185667
-0.173302
-0.138316
-0.543031
-0.357416
0.317582
-0.257754
1.0809
0.812679
-0.0783163
0.221546
-0.30667
0.0268031
0.23884
-0.322723
-0.97482
-0.519027
0.0408507
-0.18371
0.175023
0.116393
0.553892
0.448425
0.177435
-0.133793
0.461637
0.00979395
0.443011
0.282256
0.669608
0.263316
0.41897
0.597387
0.802657
0.777845
0.493402
0.492813
0.762887
-0.127594
0.0851483
0.539818
0.323264
0.121869
0.232052
0.177392
-0.574854
-0.47119
0.269289
-0.457333
-0.0222242
-0.0969923
0.381719
-0.21078
0.413182
-0.477471
-0.474701
-0.0466878
-0.601241
0.25408
-0.365806
-0.164004
-0.206289
0.746056
0.0794541
0.316868
-0.118527
0.200953
-0.667408
-0.00997761
0.510161
-0.347852
0.256885
-0.0662942
0.221691
0.153136
-0.253165
0.141976
-0.48683
0.616068
0.236988
-0.0257062
-0.276093
-0.337339
-0.33522
-1.00246
-0.0693866
-0.227662
1.21202
0.00124545
0.193849
-0.102454
0.879946
-0.0613551
0.476285
-0.748323
-0.0458876
0.116199
-0.0601101
0.740063
0.126575
-0.449859
0.0894958
-0.276329
-1.03729
0.317786
0.508565
0.473307
-0.494805
-0.549312
1.17364
-0.114796
-0.116893
0.558602
-0.0427895
-0.440125
-0.0534762
-0.350553
0.221612
0.326756
-0.492899
-0.393216
0.743025
0.145458
0.388445
1.1267
0.0720342
-0.00267581
0.202132
0.319208
-0.251145
-0.268325
0.216229
0.416389
-0.270297
0.224459
0.37422
0.0119982
0.472692
0.104748
-0.480348
0.165481
-0.535118
0.247067
-0.308341
-0.192029
0.46484
-0.491909
-0.475377
-0.293792
-0.185749
-0.269112
0.13568
-0.062546
-0.662478
0.469596
-0.137106
0.0609787
-0.0146747
-0.173181
0.234283
0.813824
0.0347093
-0.0581741
-0.0534312
0.249083
0.0090223
-0.261188
0.0553649
-0.38868
-0.631726
0.342381
0.0961495
0.109453
0.3968
0.39985
0.209563
0.554272
0.606344
0.60372
0.651093
0.101171
0.190078
0.190512
-0.154604
-0.0322511
0.00609593
0.648087
0.111346
-0.0933034
0.257708
-0.120689
0.246474
0.029951
0.160039
0.089777
0.686187
0.193368
0.388221
-0.307861
0.594924
0.407018
-0.604926
0.0401856
-0.255673
0.260032
-0.12458
-0.00330149
-0.136359
-0.569454
-0.127393
-0.113068
-0.0804278
-0.133142
-0.357557
-0.462781
-0.148961
0.0259677
-0.791135
-0.899712
-0.287461
-0.228143
0.000626189
-0.530588
-0.622508
-0.530173
-0.381267
-0.640105
-0.562827
-0.363467
-0.926887
-0.546595
-1.30883
-0.513597
-1.10068
-1.04383
0.557536
0.199647
0.153296
0.103317
0.0683393
0.0219208
-0.548988
-0.234793
0.174158
0.294952
0.0182887
0.590999
0.425796
-0.101385
0.00855218
0.596478
-0.00231829
0.0569087
0.312686
0.880454
0.475236
0.579285
0.577913
0.847893
0.82753
0.671098
0.36397
0.0312473
0.527845
0.636918
0.625062
0.683863
0.224391
-0.0488062
0.039562
0.652922
0.248474
0.611361
0.125648
-0.262908
0.536535
0.963627
-0.0982448
0.172663
0.210662
0.246094
-0.217269
-0.408745
-0.504224
0.0679971
0.322763
-0.0514441
0.0735276
-0.530318
-0.0563072
-0.221108
0.258596
-0.532691
0.148653
0.115206
-0.351605
-0.103878
-0.23728
-0.169712
0.116028
0.234537
-0.520971
-0.337766
-0.30211
-0.0916971
-0.27333
-0.146093
-0.434098
-0.0174554
0.340471
-0.0934536
0.168692
0.926757
0.396276
-0.303055
0.0853477
-0.245156
-0.1144
0.145252
-0.184364
0.196767
0.00794017
0.0875513
0.349672
-0.150482
0.228988
0.175557
-0.0571445
0.593018
0.0823347
0.750685
0.636453
1.15674
1.03648
0.739094
1.15724
0.540013
0.673891
0.793033
0.620574
0.872709
0.564317
0.341137
0.146419
0.446549
0.28682
0.278482
0.71818
0.361213
0.655491
0.938732
-0.0383268
-0.017924
0.366661
-0.0114439
0.242318
-0.414382
-0.581041
0.533605
0.0449953
0.056395
-0.48978
-0.32488
0.437543
0.344903
-0.100828
0.751212
-0.46735
-0.0769927
0.0558969
-0.150817
0.756719
0.0104397
-0.284917
-0.0978897
-0.445802
-0.220819
-0.023911
-0.11566
0.648163
0.465785
-0.681635
0.51663
0.0885276
-0.306776
0.381173
0.221725
0.218296
-0.550295
0.90886
-0.555131
0.389655
-0.267411
-0.47321
-0.389597
0.326462
-0.763694
0.668087
0.726081
-1.23224
-0.208966
0.405787
-0.555276
0.626357
-0.0762157
0.0570503
-0.465933
0.727883
0.0227206
-0.135713
-0.130296
0.659186
-0.543171
-0.0170545
-0.0524942
0.570587
0.143915
-0.740611
0.253794
-0.0815077
-0.253405
0.815829
-0.530547
0.242562
-0.308474
-0.446209
0.362246
1.43355
-0.863798
1.15199
0.213323
-0.436518
0.657351
-0.0846978
-0.226182
-0.281324
0.482786
0.0670953
-0.189812
0.268663
0.431576
-0.0199595
-0.177424
0.0250829
0.123466
-0.0284906
-0.374482
0.115879
0.277496
-0.291886
0.718761
0.437157
0.276828
-0.208524
-1.05263
-0.482659
-0.155694
0.300517
-0.0164902
-0.0996675
-0.499217
0.158854
-0.40204
0.496634
0.715341
0.27534
0.0113687
-0.103882
0.0179943
-0.560524
-0.0653983
-0.101081
-0.649589
-0.257935
0.447229
0.344026
0.702045
0.954398
1.03157
0.740262
0.844954
0.253776
0.212068
0.0693776
-0.279961
-0.147963
-0.232779
0.423748
0.345474
0.290126
0.0713929
-0.27033
0.125002
-0.0310832
-0.445481
-0.211983
-0.474377
-0.236301
-0.317043
0.595575
0.229712
-0.0561018
0.764305
-0.205855
0.418487
0.528326
0.430576
-0.498926
0.484213
0.718471
-0.195596
0.461345
0.459388
-0.0453836
-0.334033
0.516894
-0.0973801
-0.133629
0.46192
0.288587
0.233929
0.465146
0.240666
-0.132981
0.16581
-0.047907
0.174333
-0.0354279
0.195281
0.952046
0.147458
0.347753
0.798638
0.813079
0.365072
-0.0384064
-0.0372506
0.689856
-0.144713
0.77954
0.684209
0.595648
0.372456
0.360239
-0.220287
0.308256
0.237804
-0.0734681
0.358281
-0.244923
-0.049105
-0.348149
0.2892
0.48299
0.0241282
-0.0379664
0.643516
0.449929
0.868738
0.926183
0.588972
0.695701
0.942696
0.260709
0.640052
0.627328
0.436794
0.339833
0.137576
0.265633
0.404235
-0.0741577
0.0519854
0.572484
-0.261925
-0.249096
-0.258272
-0.860866
-1.05314
-0.441148
-0.449144
0.432423
-0.405668
-0.0420165
-0.205396
-0.340806
0.114804
0.243883
0.0522504
-0.651988
0.217639
0.0302276
-0.60928
-0.0415188
0.0888449
0.169432
-0.568655
-0.194705
-0.172871
0.573455
-0.46897
-1.07084
0.290606
0.442156
0.229741
-0.292227
-0.00439855
0.0341111
0.276838
-0.565383
0.73041
0.197946
-0.0928003
0.17826
-0.371819
-0.342427
-0.96188
0.492975
-0.641489
0.752455
-0.156955
-0.33355
0.602471
-0.200467
-0.730909
0.514495
0.508993
0.220206
0.204882
-0.256811
0.400596
-0.903995
0.427492
-0.139858
0.329444
-0.39986
-0.182902
0.553074
0.0954059
0.0175513
-0.421405
-0.204593
0.590719
-0.543679
0.166283
0.420573
0.314193
0.219926
-0.31606
0.420407
-0.575233
-0.272497
-0.295617
-1.25045
-0.307725
-0.0514098
-0.0205983
0.547872
0.611591
0.0905747
-0.433528
0.519706
0.0363287
0.78602
0.0219569
-0.0393429
-0.511238
0.651276
-0.520929
-0.324571
0.198132
-0.116507
-0.320216
0.330172
-0.300627
0.0903793
0.347736
-0.227245
0.864259
-0.518768
0.107312
0.00412685
-0.0397789
-0.183597
0.186422
-1.04822
-0.38718
-0.311956
0.643932
0.0694057
0.693074
0.974052
0.880632
0.589192
-0.560945
-0.395755
0.426777
0.0663097
-0.317207
0.131752
-0.280718
0.324558
-0.0170073
0.0485629
1.00807
-0.338164
-0.627565
-0.695833
-0.280908
0.527533
-0.278238
-0.00889475
-0.0209534
0.0198121
0.0921561
-0.280638
-0.425288
0.563632
0.453818
0.579074
0.140134
-0.0158943
-0.396075
0.441287
-0.396395
0.468561
0.517769
-0.255571
0.304666
0.287386
0.680589
0.284424
0.157706
-0.119087
-0.315359
-0.258679
0.147881
0.147042
-0.677923
-0.394166
-0.583909
0.141471
-0.347261
0.0124222
0.420386
-0.0192937
0.306111
0.51928
0.492102
0.26773
0.99195
0.282153
0.487402
0.627116
0.135057
0.133477
0.469394
-0.138207
0.107488
0.186516
0.663322
0.00390913
0.10268
0.27255
0.0101189
0.0568595
0.378265
-0.210203
-1.29925
0.636383
-0.545476
-0.151758
-0.437513
-0.00895561
-0.429849
0.195439
0.635669
-1.04368
-0.777564
0.627531
-0.0724001
0.143032
-0.424351
-0.189687
0.303518
0.800608
0.185021
-0.300574
-0.451116
-0.152603
0.893897
0.719397
-0.581417
-0.782183
0.144773
1.04888
0.0337055
-0.35358
0.056078
-0.210928
0.135037
-0.256428
0.230245
0.210603
-0.215928
-0.438653
-0.567537
-0.464725
-0.209528
-0.203949
0.0407676
-0.529042
0.115598
0.0308218
-0.799004
0.366287
0.042503
-0.212886
0.971266
-0.216195
0.0596589
-0.251897
-0.0263954
-0.103011
0.839372
-0.332569
1.04385
-0.223103
-0.530145
-0.519222
-0.203792
0.310654
-0.263837
-0.354456
-0.21753
-0.462965
-0.256251
0.627596
-0.79217
-0.444113
0.0527406
0.0697235
-0.101635
-0.507489
-0.642204
-0.0314394
-0.514671
0.318024
-0.00252272
-0.859806
0.551524
-0.490124
0.665864
0.469363
-0.404167
-0.373268
0.314079
-0.384352
-0.153734
0.00996661
-0.307677
0.206076
0.643455
0.674216
0.0956227
-0.507902
-0.168702
-0.263027
-0.171937
-0.428918
-0.169618
0.561921
0.100373
0.108544
0.127198
0.174557
-0.562412
0.106324
-0.386845
-0.275532
-0.372839
0.340375
1.30817
-1.11344
0.61822
-0.822811
0.712684
0.17648
-0.40918
0.707859
-0.274969
-0.290049
0.342938
-0.517115
0.359342
0.476128
-0.535056
-0.0229824
0.118193
0.23552
-0.300514
-0.587012
0.00988394
0.199799
0.0501468
-0.331174
-0.182849
0.198174
0.195941
0.0329967
0.203396
-0.27206
0.0961716
-0.231059
-0.12913
0.243186
0.0842769
-0.698644
0.00547535
-0.897565
-0.00241278
0.528949
-1.18818
-0.383523
-0.946076
0.337153
-0.289863
0.193702
0.00533924
-0.37787
0.106583
0.303424
-0.123944
0.300141
0.312499
0.444417
-0.785722
-0.276742
-0.254793
0.456859
-0.0607321
0.383437
-0.650485
0.163426
0.483282
-0.0354115
-0.637778
-0.529347
0.535286
0.113599
-0.181792
0.852794
-0.461799
-0.350668
0.396748
-0.512862
0.215522
0.587434
-0.966274
0.256805
-0.0387188
-0.631965
-0.636246
-0.358808
-0.295303
0.28296
-0.519448
-0.237501
0.0749422
-0.0684959
-0.114299
-0.0598961
-0.841846
-0.17149
-0.398937
-0.67585
-0.382956
-0.230368
-0.32702
-0.702258
-0.193319
-0.737871
-0.49964
-0.427803
-0.928827
-0.194331
-0.595327
-0.700198
-0.978022
-0.25222
-0.239492
-0.371257
-0.242384
-0.174653
-0.330181
-0.481716
-1.338
-0.380189
-0.955846
-0.0368258
0.293418
-1.39575
-0.925122
-0.628389
-0.0330732
-1.52663
-1.10231
0.823769
0.0500207
-0.723871
-1.52395
-0.110075
0.766293
0.36425
0.400746
-0.118773
-0.345501
-0.114147
-1.44036
-1.519
-0.317178
-0.284781
-0.913889
-1.03418
-1.27546
-0.695482
0.768137
-0.239777
-1.43591
-1.14491
-0.532222
0.560595
-0.899788
0.222329
0.402222
0.0209893
0.602386
0.00862917
0.20643
0.542561
-0.244231
-0.00547867
0.0381447
0.455431
0.423951
0.181401
0.477584
-0.0907446
0.367932
-0.0505154
0.647278
0.317068
0.250276
0.452415
0.323233
-0.0259086
0.622172
0.482178
0.181987
0.404141
-0.334737
0.540899
0.442279
-0.028864
0.295531
0.370375
-0.269153
-0.25488
0.319566
-0.240617
0.701902
-0.26166
0.572487
0.101791
-0.131492
-0.247547
-0.225892
-0.180478
0.0184038
-0.370635
-0.0683321
-0.0826608
-0.186078
-0.490764
0.0548542
0.446093
-0.193087
-0.25519
-0.0161862
0.240524
0.437327
-0.393049
-0.118911
-0.0871552
0.0734622
0.60421
-0.299789
-0.445629
0.196696
-0.0756356
0.288142
-0.696501
-0.390605
-0.172162
0.316579
0.0145158
0.115168
0.176346
-0.265675
-0.124232
0.385922
0.169773
-0.0461669
-0.10274
0.470508
-0.00409495
0.187338
-0.254901
-0.525264
-0.551156
-0.0332493
0.08233
-0.507027
0.102788
0.0707367
-0.0221728
-0.725856
-0.0425954
-0.00101471
-0.113634
-0.459394
0.47082
0.201015
0.246469
0.80393
-0.855189
-0.457154
-0.11091
-0.679003
-0.0379876
-0.610994
-0.724185
-0.0821392
0.422056
0.626788
-0.806848
-0.0675855
-0.684335
0.277659
-0.568349
0.515551
-0.376202
-0.328381
-0.132106
-0.197767
0.254586
0.103282
0.41021
0.115092
0.510756
0.636356
0.0979371
0.0726186
-0.154904
-0.32418
0.245864
0.366289
-0.158407
0.530063
0.111794
0.279788
0.251618
0.138407
0.084817
-0.174789
0.311818
0.0779411
-0.0738044
-0.0511314
-0.0873545
0.123847
-0.475421
0.403006
-0.269006
-0.166218
-0.144852
0.424941
0.184069
-0.321177
-0.208277
-0.990625
-0.791798
-0.391245
-1.20413
-0.166178
0.137455
-0.62942
-0.402047
-0.438074
0.218622
-1.32456
-0.656031
0.811752
0.12355
-0.955541
-0.685417
-0.391275
0.2164
0.0161099
0.238386
-0.491766
-0.499099
0.542293
-0.286189
-1.2891
0.0495588
-0.455435
0.00952801
-1.08244
-0.834459
-1.10994
0.507265
-0.0713464
-0.758496
-0.901288
-0.224633
1.07916
-1.18762
0.0278509
-0.332678
-0.563564
0.265375
-0.171043
0.545634
-0.126672
-0.466267
-0.0484165
-0.539442
0.591078
-0.825119
-0.738348
0.82915
0.277717
-1.0494
-1.07216
-0.0597401
0.841986
-0.0746297
-0.0936488
-0.49161
-0.326514
0.576577
-0.495877
-0.825021
-0.82741
0.113294
0.0659296
-0.503349
-1.08766
-0.523306
-0.0569719
0.287649
-1.2549
-0.314506
-0.945865
0.493708
-0.682311
-0.0214626
-0.353206
0.0888926
-0.302213
-0.401741
0.182737
0.227906
0.0886288
0.216836
-0.227409
-0.355057
0.381983
-0.417467
0.00677488
-0.286311
-0.310908
0.177161
-0.0468472
0.417221
-0.429433
0.514077
-0.558039
-0.195137
0.310995
-0.540521
0.110323
0.258479
0.378253
-0.281075
-0.561828
-0.33523
0.122354
-0.113546
0.540347
-0.182738
0.180319
0.27259
0.48636
-0.0309702
-0.385631
-0.337741
0.210963
0.942108
-0.0188885
-0.574463
-0.315075
0.0802093
-0.389987
0.0245678
0.638205
-0.703094
-0.374206
0.852337
0.122593
-0.0971252
-0.195974
-0.350019
0.227588
0.368679
0.0590945
-0.197165
0.0298204
0.30488
-0.378211
0.428946
-0.726183
0.113514
-0.459275
-0.677293
-0.256622
-0.447113
0.075149
0.213242
-0.239383
-0.118547
-0.291764
0.769517
-0.508727
-0.322189
-0.529793
-0.309334
0.576367
-0.0312298
0.795462
0.473564
-0.418585
-0.300889
-0.774684
0.488577
-0.30182
-0.310202
0.682224
0.318369
0.0694246
0.0895263
-0.301669
0.196039
0.405765
-0.345292
-0.660049
0.366399
0.282123
-0.131469
0.457407
0.638155
0.166758
-0.103175
-0.402577
-0.311863
-0.0406693
0.399919
-0.091106
-0.25673
-0.501876
-0.264543
0.249735
-0.195377
-0.051482
-0.755279
-0.549656
-0.868095
-1.24667
-0.0224809
0.230115
-0.983406
-0.998756
-0.988192
0.120517
-0.587634
-0.549427
1.30586
0.134547
-1.06465
-1.31164
0.272254
0.203814
-0.511434
0.1232
-0.619484
0.156472
0.704103
-1.14131
-1.25747
0.090942
-0.260601
-0.282361
-1.40184
-1.68801
-0.777502
0.75837
0.523748
-0.889719
-0.752522
-1.02384
0.671509
-0.88072
-0.490409
-0.102072
0.883582
-0.654562
-0.302347
-0.429579
-0.395819
-0.111485
0.0150085
-0.273766
0.350495
0.270167
0.0928328
-0.928357
0.122048
0.533041
0.85522
-0.192483
-0.390363
-0.353507
-0.0549524
-0.130306
0.454753
-0.182948
0.776553
0.233095
0.275364
-0.0520981
0.523595
-0.208144
0.229108
0.026298
0.188977
0.425608
0.50919
0.072837
-0.248779
-0.312628
0.0326234
0.535631
-0.742786
-0.424235
-0.111606
-0.111798
-0.263097
-0.35843
-0.42707
-0.309246
-0.885209
0.399149
-0.14954
0.0119565
0.561461
0.342813
-0.904993
-0.237923
-0.0793527
0.277637
-0.496106
0.431128
-0.207155
-0.408833
0.165373
-0.451078
-1.05864
-0.668429
0.420616
0.151848
-0.881051
-1.03699
-0.365792
0.198689
0.458266
-1.00167
-0.108075
-0.565406
0.387405
-0.919023
-0.327008
0.329066
0.13345
-0.303881
-0.146825
-0.0630066
-0.660682
0.0495349
0.098896
0.234871
-0.153702
0.188061
0.123874
-0.514782
-0.341714
-0.478545
0.225701
-0.286188
0.113169
-0.659141
-0.221385
-0.480489
0.198224
-0.244856
0.0809065
-0.119028
-0.512927
0.0848306
-0.0037247
-0.234805
-0.0604935
-0.113752
0.00721583
-0.386758
-0.471512
-0.372756
-0.376184
0.0128994
0.505584
0.248316
-0.325389
-0.0894599
0.595591
-0.795081
-0.699655
0.145684
-0.693217
-0.179356
0.410838
0.00993647
-0.10512
-0.539368
0.392429
0.263402
-0.191658
0.171109
0.357308
0.600198
0.369399
-0.0453909
-0.159712
0.457969
0.670793
-0.856403
-0.625508
-0.160446
0.397239
-0.384225
-0.683914
0.0649808
-0.171012
0.351851
-0.347845
-0.0238484
-0.360717
0.278303
0.723999
-0.551309
-0.168468
-0.48225
-0.294652
0.105469
0.371517
0.0690196
0.27782
-0.883217
-0.41961
-0.0348216
-0.573163
-0.280763
-0.206077
0.639891
-0.270752
-0.648039
-0.815292
0.896893
0.191369
-0.116838
-0.29508
-0.808768
0.185659
0.240503
-0.202747
-0.240444
-0.177973
-0.0811845
0.056872
-0.332953
-0.30899
-0.462612
0.38322
0.344349
-0.424145
-0.385249
-0.339094
0.212194
-0.378418
-0.0248135
-0.835186
-0.618757
-0.494034
-0.0234406
-0.497256
-0.27386
-0.528739
-0.872471
-0.0958803
-0.447497
-0.846715
-0.372885
-0.208993
0.137091
-0.259897
-0.519021
0.295943
-0.170982
0.0434715
-0.18646
-0.0328807
0.125963
-0.261818
-0.783139
-0.35124
-0.348472
-0.524977
0.032961
-0.757667
-0.618338
-0.502036
0.0914978
0.31012
-0.466268
-0.942702
-0.0489268
0.213479
-0.828864
-0.639398
-0.305209
-0.559033
0.273787
-0.697748
0.403258
-0.230086
-0.476154
-1.18103
-0.529065
0.0250335
-0.6416
-0.203293
1.33595
-0.283788
-0.334847
-0.508218
1.44984
0.512823
0.227541
0.387314
0.639099
-0.264211
0.0496203
-0.193371
-0.655745
-0.639928
0.490066
-0.269206
-0.611128
-1.14996
-1.0944
1.1057
0.226856
-0.654184
-0.197064
-1.21621
1.76647
-1.42669
-0.0268236
-0.516265
0.587731
-0.322832
0.872485
-0.561806
-0.479099
-0.299581
-0.0083228
0.0614523
-0.524512
-0.565059
-0.479236
-0.0956317
-0.717007
0.226553
0.142027
-0.0757396
-0.606672
-0.191857
0.281485
0.184391
-0.175489
-0.269244
0.244344
-0.463837
-0.740704
-0.345802
-0.74539
0.254169
-0.65508
-0.115645
-0.775432
-0.72255
0.3464
0.456268
-0.391384
0.420377
-0.265074
0.133395
-0.720589
-0.280033
0.273733
-0.395245
0.0349092
-0.159281
-0.503497
-0.400406
-0.0404936
0.0197067
-0.733129
-0.322972
0.84437
0.127788
-1.02659
-0.262102
0.839278
0.360854
-0.0493478
-0.297899
-0.955011
0.186045
0.327992
0.0208324
-0.30306
-0.157074
-0.0164284
-0.407989
-0.940292
-0.558952
-0.0563341
0.620435
-0.241506
-1.1486
-0.785954
-0.681648
0.466554
-0.203771
-0.168907
0.314879
0.148957
-0.481409
-0.454047
0.452287
0.00785254
0.229059
-0.19189
-0.390968
0.531516
-0.176676
0.16146
1.00014
0.763063
-0.156883
-0.0412265
0.681908
0.292221
-0.461039
0.401869
0.439474
-0.208602
-0.0904084
-0.577376
0.216326
0.322352
0.172567
-0.157365
0.157231
-0.518575
0.137103
0.791185
0.929888
-0.0818956
-0.242795
0.219306
1.03381
0.120047
0.00663807
-0.254124
-0.169438
0.36942
-0.837679
-0.435984
0.509788
-0.697255
0.00230535
0.0267451
0.39476
-0.819367
0.0942444
1.0388
-0.384017
-0.122742
-1.01663
-0.0751388
0.142142
0.834851
0.174367
0.38485
0.467165
0.308522
0.0500532
-0.17913
0.224621
-0.256534
0.0445691
-0.34422
0.0275604
0.0617384
0.534916
-0.155183
-0.630286
-0.683843
0.293068
0.298474
-0.216527
0.734666
-0.259628
0.0231695
-0.329069
0.105949
0.063254
0.00695716
0.184647
0.403232
0.152284
-0.0330862
0.399458
0.389402
-0.924468
0.393841
-0.0565854
0.327244
-0.474617
-0.199521
0.155117
-0.0931572
0.531599
-0.185215
-0.124674
0.173215
0.167377
0.57654
-0.260497
-0.295809
0.32148
0.423162
0.766689
-0.298712
0.457529
0.539069
0.560147
0.57907
0.00735259
0.571183
-0.279265
-0.321182
0.33203
0.398775
0.706513
-0.388828
-0.0968495
0.290447
-0.0882304
0.494026
0.407563
0.208491
0.388933
0.106447
-0.0519404
0.456478
0.463146
-0.278054
0.159397
0.458795
0.0446911
-0.397225
0.364516
-0.36066
-0.363051
0.49411
0.171135
0.0258162
-0.205234
0.238014
0.806311
-0.121154
0.413623
-0.0790966
-0.026153
0.273311
0.4088
0.107139
0.303993
-0.451193
-0.249396
0.253532
0.170157
-0.177305
-0.26294
0.262234
-0.475091
-0.047164
0.0536548
-0.468867
-0.37933
-0.320729
-0.117091
0.351302
-0.154966
0.31267
0.368452
-0.138131
0.233557
-0.134657
-0.244256
-0.171759
-0.297057
-0.39838
0.131636
-0.0776519
0.358186
-0.503103
-0.0248904
0.218745
-0.367102
-0.0884483
-0.469687
0.24248
0.330932
0.23069
-0.216785
-0.289801
-0.380476
0.378491
-0.436252
-0.177547
-0.196909
0.486897
-0.0350182
0.28998
-0.122474
0.408184
0.18492
-0.431128
0.0261055
-0.0251035
0.252226
-0.0781917
-0.372464
-0.297845
0.407827
-0.502589
0.291016
0.668476
0.807485
0.0063965
0.0866804
0.656506
0.837293
0.575793
0.747605
-0.0576785
-0.241573
-0.433391
-0.0360461
0.353102
0.232342
0.229958
0.00368269
-0.0562776
0.0514667
-0.060214
-1.37349
-1.34225
-0.714373
-1.38572
-0.79771
0.400705
-1.07687
-0.496226
-0.965605
-0.0284196
-1.34292
-0.887885
1.29976
0.0498327
-1.03792
-1.36738
-0.619553
0.96912
-0.844113
0.369141
-0.595983
-0.102511
0.554235
-1.67668
-1.18642
-0.17769
-0.310619
-0.17319
-1.70883
-1.99446
-0.875011
0.378407
0.109825
-1.95256
-0.539053
-1.35413
1.18065
-1.26863
0.0637194
0.152083
-0.58918
-0.0189184
-0.425869
0.523633
0.534388
-0.0943376
-0.302145
0.403908
0.236189
0.480859
-0.0044549
0.0985103
0.640515
-0.306838
0.212455
-0.555713
0.41581
-0.249526
0.325025
0.322046
0.1207
-0.0160757
0.144224
-0.00205355
0.788264
0.447617
-0.0141145
0.109964
0.426944
0.063892
-0.329789
0.451125
0.00750207
0.380198
0.4339
-0.143351
0.410429
-0.263251
0.147261
0.176401
-0.132083
0.454533
-0.190642
-0.035727
0.537372
0.628729
0.629828
-0.0277987
0.188149
0.418511
0.36686
-0.0646587
0.18801
0.303792
-0.0456551
0.200476
-0.1288
-0.391137
0.280033
-0.327493
0.0542847
0.12889
0.217563
-0.105721
0.479031
0.445977
0.475872
-0.329551
0.381772
-0.357066
-0.25309
-0.0455873
0.141465
-0.240317
0.19428
0.230346
0.390748
-0.0652593
-0.36847
-0.123307
-0.595757
0.670634
0.358817
0.0710093
0.485266
-0.0388525
0.267518
-0.30489
0.382118
0.318659
0.514345
-0.0689133
-0.570174
-0.311139
-0.0856306
0.409731
0.397295
-0.126937
-0.0672136
0.285128
0.0554393
0.877755
0.742218
0.347167
0.593277
0.0497808
0.313711
0.37071
0.617314
0.443452
-0.0878815
-0.274324
-0.519126
0.290295
0.420092
-0.187401
0.142654
0.19533
-0.400466
0.10104
-0.0804417
0.439269
0.298628
-0.239589
0.523488
-0.00965035
0.244838
0.248013
-0.171723
0.063522
0.666187
-0.127607
0.0459577
0.245521
-0.233642
-0.321563
-0.0358351
-0.0582358
-0.318434
0.518895
0.281915
-0.371279
0.475684
0.564973
-0.169591
-0.23125
-0.224088
-0.188146
0.115337
0.449433
0.53446
0.418072
0.178522
0.550889
0.102293
0.41852
-0.865278
0.1176
-0.235401
-0.118019
0.0952061
-0.243375
0.189619
-0.0257586
0.723182
-0.348273
-0.0754407
0.581388
-0.750246
-0.879276
-0.224586
0.537951
0.493491
0.594459
0.1695
-0.0613934
-0.67254
0.627644
0.0978117
-0.620029
-0.137083
0.536423
-0.329637
-0.367555
-0.199283
-0.464012
0.400529
-0.192587
-0.556429
-0.568352
-0.286089
0.855566
-0.354477
-0.042129
0.110166
-0.357041
0.221364
0.207006
0.277267
0.565255
-0.0435726
-0.0745447
0.325111
0.375534
0.435469
-0.0403505
0.261295
-0.0293003
-0.160509
-0.171486
-0.062684
0.342389
-0.370905
0.133727
0.27625
0.427497
-0.095112
-0.202514
0.646436
0.0239959
0.562716
0.0972895
-0.183274
-0.294275
-0.192711
0.33569
-0.128033
0.466532
-0.0139272
-0.293336
-0.194248
0.0944452
0.15636
-0.714727
-0.565522
-0.337881
0.0711577
0.125223
0.443035
0.659861
-0.0593703
0.18154
-0.100873
-0.450569
-0.721334
0.572225
0.23447
-0.250814
-0.0568636
-0.1529
-0.324549
0.637424
-0.296771
0.358906
-0.332376
0.4914
-0.188314
0.318099
0.361564
-0.573251
0.384784
-0.590732
-0.424368
-0.855245
1.01178
0.10254
-0.442125
-0.396541
0.355018
0.285202
-0.230411
-0.10057
-0.808266
-0.631127
-0.349652
-0.493099
0.147888
-0.169311
-0.510072
-0.96291
-0.309607
-0.0117158
-0.88069
-1.04408
0.546652
0.00995263
-0.998327
-0.893436
0.42574
0.442394
-0.470102
-0.0225386
-0.534922
-0.678559
0.360627
-0.310308
-0.720586
-0.526029
-0.378022
-0.363346
-0.936561
-0.51197
-0.610581
0.0405711
-0.355134
-1.14029
-0.923923
-0.853352
0.79451
-0.849336
-0.267458
-0.302031
-0.32714
-0.461764
0.120511
0.204517
0.103027
0.321275
-0.168515
0.0974839
-0.22149
0.0795931
0.455049
0.00908055
-0.00503747
0.562283
-0.226111
-0.532684
0.0432685
-0.207796
-0.11871
0.0425591
0.287081
0.291318
0.121155
-0.324366
-0.410967
0.552914
-0.310477
-0.266812
0.664226
0.0939401
-0.0724237
-0.301671
0.541119
0.26732
-0.386374
-0.388561
-0.358309
-0.273135
-0.32342
0.137566
-0.450468
-0.249215
0.0963416
-0.505106
-0.255608
-0.190517
-0.078757
-0.453705
0.195304
-0.908572
-0.243538
-0.279213
0.0733772
-0.150705
0.203402
-0.313063
-0.452765
0.443604
-0.820918
-0.197183
-0.3095
0.0611327
0.0756182
-0.72186
-0.774063
-0.0377379
0.0292427
-0.575616
-0.328839
-0.289412
-0.39189
-0.38973
-0.738566
0.21286
-0.615949
-0.511522
-0.53267
-0.43557
0.523392
-0.0953595
-0.0990344
-0.0708415
-0.267992
-0.396082
0.571414
-0.113933
-0.12046
0.510701
0.366518
-0.831037
0.378725
-0.29775
-0.16306
-0.0238383
0.0630481
0.521642
-0.313077
0.142368
-0.517528
0.325608
0.692602
-0.192479
-0.552531
0.224456
0.31619
0.351859
0.288164
0.11038
-0.42809
-0.310946
0.170388
0.0550826
0.260182
-0.588596
-0.432634
-0.036943
3.35016
1.11502
0.228697
0.847516
0.443406
2.51422
2.63529
0.474426
2.68196
2.21898
2.92901
-1.30565
1.96507
0.151619
1.45282
0.761762
-0.0720525
4.18087
-1.27884
1.06627
1.0371
2.58488
-1.36491
-0.418707
0.0745674
1.11161
3.99831
0.737764
-0.116382
1.08663
-0.175138
2.04554
0.262631
1.68257
0.747926
0.0128707
-1.7335
-1.12111
