#input normalization
0.160879 0.273031
36.9061 45.4647
9.89287 35.7056
8.07235 31.0651
0.0111478 0.0414906
0.00901329 0.0335575
0.273939 1.04515
0.645634 0.984976
0.870403 1.17916
1.09282 1.40596
1.34689 1.61625
1.62668 1.8223
1.89572 2.00288
2.15039 2.17061
2.40209 2.31987
2.64604 2.43361
2.87976 2.52399
3.10078 2.59463
3.3129 2.64136
3.46902 2.62551
3.62744 2.60989
3.74383 2.54487
3.83958 2.47079
3.92164 2.38596
3.9978 2.28248
4.02088 2.13457
#output normalization
1 0
#neurons weights
0.30804
-0.355534
-0.0312703
-0.124388
0.16424
-0.0275718
0.132583
0.43774
0.331443
-0.498525
-0.265451
-0.408846
-0.150573
0.0321765
0.146186
0.473124
-0.0241634
0.226835
-0.462946
-0.371393
0.0271757
0.161231
-0.0246946
0.362363
0.321411
-0.353328
-0.706873
-2.05954
4.04951
-0.964202
-0.0408885
-0.722779
0.103635
0.894749
1.40088
-1.20019
1.41212
-0.0720284
2.61234
-2.05283
-2.69032
0.323588
0.454958
-1.80955
-0.599029
0.521695
0.266569
2.73052
0.241318
0.429288
-2.95765
-1.24363
3.08866
-0.0849513
0.217011
0.0237317
-0.534729
-0.319704
-0.707715
0.768198
-0.321526
-0.413101
0.49937
-0.637512
-0.474831
0.296521
-0.31344
0.168328
0.188739
-0.366549
-0.201202
-1.11739
0.279622
-0.349248
-0.363321
-0.261729
0.0491774
0.498304
-0.226781
0.176024
#synapses weights
0.60101
0.548952
0.20661
0.251117
-0.382206
-0.164928
-0.255601
-0.639691
-0.816106
0.911221
0.999177
1.16968
1.13893
-0.106845
0.357495
0.0218843
-0.312387
-0.109722
-0.450639
0.0632007
-0.211614
0.200243
-0.273799
0.268209
0.622275
0.339843
0.223869
1.07899
-2.12556
0.342016
-0.418368
0.378298
-0.179159
-0.544326
-0.750428
-0.238904
0.517597
1.07489
0.599115
-0.749347
0.684927
1.11192
-0.848211
0.424816
0.345169
0.941783
0.183785
0.387701
-1.11595
0.205785
-0.486732
-0.337882
-1.22545
-0.988171
1.16988
-0.54232
0.890937
0.307293
-0.103176
0.456943
-0.152124
-0.563687
0.498967
0.0317459
-0.498382
0.120925
-0.280408
1.05289
-0.36951
0.105834
0.0595929
-0.0675748
0.16691
-0.796834
-0.262517
-0.194593
1.18312
-0.313764
-0.206844
1.28308
0.339252
-0.0408841
-1.10836
0.556277
-0.193627
-0.226601
0.863195
0.674548
-0.168687
0.215714
-0.453545
-0.228911
-0.34508
0.260096
0.0589606
0.10422
-0.370833
0.441146
0.391466
0.301278
0.142461
-0.632753
-0.936052
-0.0443649
-0.00211442
1.39314
-0.635578
-0.100114
0.646982
0.50233
0.156733
-0.107939
0.646507
-0.18889
-0.144652
0.745205
0.894244
0.797628
0.135637
0.231049
1.08219
0.361091
0.557909
1.07769
0.625332
0.92336
1.03811
1.14997
1.06404
0.979198
0.0381671
0.208381
-0.102415
-0.407526
-0.491233
0.744863
0.548409
-0.380759
0.296933
-0.298875
0.32511
0.382539
-0.660877
1.06597
1.12267
0.3193
0.525308
-0.203925
1.12231
0.488487
-0.339619
0.906273
-1.09954
-0.794117
-0.126708
-0.144528
0.933527
1.07941
0.434146
-0.328612
0.177966
0.527117
-0.0346654
-0.462185
-0.14667
-0.0637853
-0.124273
-0.50333
0.239113
0.00627821
0.079474
-0.417241
-0.127829
0.375751
0.333901
0.41729
0.577268
0.308197
0.337973
0.487154
1.04324
1.43142
0.462923
1.12967
0.541835
0.494618
-0.416015
-0.631558
-0.634182
-0.259317
0.0339392
-0.0242772
-0.796176
0.626972
0.142743
0.264131
0.578258
0.850481
0.471801
0.800626
0.386753
0.370508
0.573235
0.0218493
0.555202
0.856495
0.667961
0.641933
-0.42896
-0.208928
1.10361
0.104259
0.521118
1.04316
-0.477382
0.293477
-0.00766365
0.160509
-1.063
-0.205503
0.0585753
0.215273
0.18319
-0.50644
-0.239137
-0.448574
0.138381
-0.770114
-0.141253
-0.116416
0.769858
-0.704211
0.327215
0.208182
1.67071
0.777154
-0.512086
-0.39469
-0.368757
-0.359951
0.120412
-0.0223442
-0.387884
0.151021
0.231235
-0.342309
-1.10896
-0.394543
0.120236
-0.20892
-0.252044
0.343022
0.20011
0.0576199
-0.103476
0.979948
-0.0497231
-0.606821
0.0232814
0.862572
-0.408931
-0.801374
0.398427
-0.134147
-0.0158662
0.268097
0.105871
-0.294099
0.130305
0.581495
-0.286388
-0.506034
0.376985
0.0561315
0.502055
-0.705335
-0.405731
0.130805
-0.17415
0.219526
0.679535
0.874268
0.0516503
-1.04741
-0.237001
-1.62252
0.856594
-0.221774
-0.295572
0.196978
0.204333
0.224061
0.397469
-0.0271173
-0.693228
-0.778863
-0.261812
-0.361707
-0.495661
-0.814023
-0.442233
-0.380714
-0.450657
0.246513
0.261207
-0.568386
-0.510631
0.279167
-0.513665
-0.968983
-0.0381672
0.26237
0.0469281
-1.00832
1.54576
-2.27158
-0.837282
-0.894336
-0.0899405
0.0882658
-0.0400949
-0.344602
0.301308
0.116602
-0.257205
0.497238
0.097317
-0.281466
-0.199254
-0.00371244
0.282763
-0.225949
0.541967
0.0885084
0.212305
0.317076
-0.552766
-0.140369
-0.21932
0.815649
-0.7341
0.382469
-1.37472
0.923488
-0.0427294
0.526887
-0.0219155
0.191165
-0.647857
-0.499934
-0.628478
0.846167
-0.0600845
0.36429
-0.598882
0.0982973
0.427815
-0.908606
-0.743767
0.112926
-0.575694
0.164227
-0.0219905
0.800841
-0.247441
0.919942
-1.02271
0.109846
-0.615998
0.501004
0.0297765
-0.811115
-0.73188
-1.03969
-0.280755
0.345447
0.0260278
-0.0590524
0.0421341
-1.01659
-1.58614
0.838726
0.140072
0.160926
-0.221904
0.264784
-0.379785
0.610108
1.9197
-0.100449
0.485108
-0.942157
0.38047
-0.353961
-0.13646
-0.296817
-0.0809442
0.192597
-0.917308
-0.220518
-0.374163
-0.532414
-0.670023
-0.457842
-0.701157
-0.187542
-0.257596
-0.203228
-0.0612421
-0.764812
0.119581
-0.0238256
-0.180429
-0.0649698
-0.72213
-0.505803
-0.108661
-0.819748
0.730245
-0.422671
0.617411
-0.179686
0.382894
0.333001
0.416851
0.137452
-0.358162
-0.880032
0.0851798
-0.633489
-0.143601
-0.635809
-0.468715
-0.819271
-0.489755
-0.699764
-0.917701
-1.30961
-0.759018
-1.50958
-1.41285
-1.27909
0.49432
0.898298
-0.0646992
-0.928922
-0.371015
0.20037
0.696907
-0.248996
-0.393252
-0.292079
0.425302
-0.062609
0.17943
0.0267254
0.223563
-0.990874
0.700253
0.0987377
0.238616
0.713947
-0.221884
0.328797
0.794325
-0.032609
0.190476
1.16674
0.169043
1.35486
-0.300103
-0.540865
-0.142319
0.821505
0.421876
-0.493713
-0.492754
0.313383
0.477754
-0.0569531
0.558921
0.718895
-0.0620936
0.834884
0.446846
0.657223
0.741302
0.352285
0.553092
1.01724
1.48856
1.02884
0.941804
1.28983
-0.117727
-0.854861
0.424381
-0.00798322
-0.387643
-0.576284
0.417371
-0.431603
-0.339129
0.29838
-1.14056
0.280456
0.361611
-0.721395
0.735503
1.0506
0.0329634
-0.505314
0.30296
-0.201227
0.00651438
-0.265054
-0.718286
-0.991218
-0.459524
-1.26012
0.56121
0.787014
-0.322992
-0.168809
0.00596468
0.756202
-0.187781
0.4165
0.320006
0.273764
0.43696
0.415788
0.770046
0.83723
1.05175
0.366537
1.1628
0.89501
0.295635
0.166712
-0.349521
-0.0501003
-0.152005
-0.0416129
-0.375563
-0.228535
0.66504
-1.13174
1.73762
-0.94275
1.00405
-0.321812
0.228746
-0.381543
-0.280365
0.93658
-0.769642
-1.18824
0.14008
0.544354
0.0708897
0.513491
0.193803
0.491246
-0.301781
-0.259544
0.277575
0.604065
-0.403191
0.206257
-0.816578
0.67297
-0.247717
-0.530313
2.3874
-1.63049
0.315072
-0.846994
-0.818536
0.217154
-0.335635
0.423632
-0.290398
0.18244
0.590725
-0.5406
-0.0201285
-0.386925
-0.234577
-0.0130962
0.283523
0.378821
-0.062768
0.532539
-0.130768
0.152717
0.227267
-0.528289
0.0297474
-0.390694
-0.429304
-0.111301
0.350507
0.190127
-1.93037
-0.333705
0.0602737
-0.0874554
0.315546
-0.152336
-0.351495
0.461246
-0.276307
-0.942694
-0.105246
0.177175
-0.43834
-0.0161704
0.0889925
0.180837
-0.677703
-0.29636
-0.457887
-1.20895
1.01763
0.462901
0.523068
-0.33091
-0.500722
0.336095
0.13119
0.431265
-0.526502
0.392278
-0.268054
-0.12348
0.295227
0.0209818
-0.0731368
0.221435
0.423926
0.0858979
1.11407
-0.532331
0.195353
-0.836501
-0.40026
-0.661514
0.476327
0.405894
0.808255
1.28203
-0.783668
0.0252408
-0.324625
0.464408
-0.43446
0.120061
0.266544
-0.270444
0.279086
-0.625213
0.204981
0.700555
0.14466
0.0266292
-0.51214
-0.298958
-0.710698
-0.166725
0.50395
0.735279
-0.124387
-0.230952
-0.385262
-0.456065
-0.897412
-0.683972
0.0100168
-0.755411
0.238649
-0.110502
-0.436635
0.424766
0.272331
-0.732364
0.507933
-0.964633
-0.163814
0.51517
-0.166216
0.595514
-0.853819
0.42637
-0.524177
0.00166982
-0.439412
0.37295
-0.159246
-0.294405
-0.485793
-0.559571
-0.191805
-0.000569266
-0.0818046
0.0882681
-0.371415
-0.131562
-0.0861717
0.0792403
-0.0518478
-0.128652
-0.163487
0.117318
-0.138342
0.0182923
-0.491864
0.44463
0.152327
-0.290024
-0.183812
0.313303
-0.23846
0.400568
0.204533
-0.358046
-0.565638
0.0794437
-0.277058
0.391076
0.873889
-1.13083
-0.0606579
0.131814
-0.224637
0.330054
-0.506825
0.23266
0.844673
-0.299541
0.160946
0.10086
1.25213
1.07551
0.942591
-0.340473
0.260305
0.561149
0.417316
-0.190592
-0.26435
-0.0256899
0.517165
0.220602
-0.566035
-0.574833
0.272729
0.0811275
-0.965031
-0.0231766
-0.136339
0.146218
-0.297893
0.0185629
0.176967
0.192466
-0.029916
0.472842
0.0609874
0.555304
0.520275
0.166176
-0.667236
0.624468
0.477673
0.129591
0.0777774
-0.603221
-0.204082
-0.165528
0.569913
-0.129226
-0.764671
-0.479417
1.49923
-1.97783
0.0689829
-0.504746
-0.576169
0.229111
-0.828664
-0.802328
0.324722
-1.74314
-0.698841
-2.0888
1.02258
0.904478
-1.05601
-0.193863
0.250758
0.319422
-0.894215
-0.090324
-1.66487
-1.31831
-1.02669
1.08401
0.0687939
-1.86115
0.071774
0.650935
-0.974774
-0.0101226
-0.409126
-0.582126
0.163932
-0.186689
-1.14744
1.18473
-1.17718
-0.316799
-1.34589
1.31843
0.590647
-0.702949
-0.8175
-0.0664334
-0.364118
-0.703082
-0.421828
-1.14305
-1.23474
-0.731643
0.93989
-0.034319
-1.28569
0.228613
1.09679
-2.21296
0.170178
-0.269374
-0.910441
0.392778
-0.261869
-0.992876
0.214888
-1.7747
-0.16507
-1.76603
0.819118
0.282484
-0.4658
-0.801386
0.454202
-0.09169
-0.507755
-0.064771
-1.83666
-1.66821
-0.846537
0.166617
-0.16277
-2.06378
0.695488
0.176219
-0.417377
0.186351
0.206383
0.210977
0.563497
0.141063
0.0270266
0.67242
0.0498977
0.285547
-0.79878
0.292286
0.795476
-0.122642
-0.649995
0.0690021
0.600133
-0.443828
0.282785
0.0694668
-0.749236
0.15528
0.451948
0.624488
-0.060506
-0.246206
1.59327
-0.751604
-0.126726
-0.110775
-0.581985
0.127613
-0.0516175
-1.16516
0.960883
-1.1185
-0.803453
-1.25784
0.7879
1.28431
-0.315278
-1.16729
0.320603
-0.0329427
-1.09022
-0.807683
-1.20431
-1.55179
-0.700394
0.794167
-0.312183
-1.11433
-0.368989
-0.615899
-0.109886
0.12351
0.299423
-0.365589
-0.0684724
0.419112
-0.191555
-0.495952
-0.385196
-0.39383
-0.320619
0.112203
0.107183
-0.467347
0.0406916
-0.406376
-0.00843865
-0.0834371
-0.191667
-0.268453
0.175005
-0.0198978
-0.481314
-0.516422
0.208784
-0.199863
0.488322
-0.865872
-0.271
0.33283
-0.288984
-0.176922
0.256593
-0.402462
0.042385
-0.407957
-0.759975
-0.6661
0.491334
-0.350452
-0.466378
-0.415868
0.792323
0.472109
0.225916
0.463229
-0.256126
-0.353639
-0.0145837
0.476055
0.197703
-0.349492
0.436588
-0.690918
0.012661
-0.0371233
-0.13717
0.202577
0.106313
0.396927
-0.0343633
-0.285075
0.755007
-0.930838
0.405147
0.0375454
0.253073
-0.634027
-0.699917
-0.410446
0.364863
-0.0535974
0.408495
0.338891
0.61928
-0.22008
-0.702868
-0.918916
0.201069
0.209142
0.206475
-0.337801
-0.507149
-0.476936
-0.242027
-0.427978
-0.367174
-0.182327
-0.390775
0.112412
-0.0678188
0.234517
-0.312182
0.220536
-0.101385
-0.127583
0.0128081
-0.049209
-0.230799
-0.336098
0.344295
-0.581513
-0.0640557
-0.144037
-0.034891
0.131129
0.311707
-0.0729854
-1.0889
0.274434
-0.233622
-0.66887
0.598358
0.151208
-0.41005
0.026149
0.0339244
-0.362472
-0.232426
0.323815
0.376602
0.14199
0.0455763
0.00455289
-0.246744
-0.623719
-0.346947
-0.216842
-0.761726
-0.353375
0.550038
0.441605
-1.00807
0.473086
0.683189
-0.95884
0.339254
-0.165863
-0.87759
0.179615
-0.626718
-0.349505
1.25877
-0.857829
-0.43559
-0.777532
0.49989
1.28983
-0.464005
-1.45915
-0.197506
0.557273
-0.153253
-0.973201
-0.598324
-1.39194
-0.439397
0.527022
-0.41587
-1.13321
0.457649
-0.220434
-0.443277
0.953531
-0.203379
0.0687541
0.52704
0.71117
0.171384
0.727785
-0.473805
0.126578
-0.717807
0.909005
0.728937
-0.0629713
-0.775803
0.974058
-0.297415
0.174277
-0.409022
-0.587152
0.155344
-0.892098
0.595712
0.395897
-0.647358
1.09777
0.0521267
0.0480321
0.846937
0.267692
1.06922
0.712161
1.82407
0.831753
-0.215634
-0.357072
0.134111
0.419219
0.203275
0.831124
0.22996
-0.424637
-0.194861
0.217151
-0.860687
1.02346
-0.274212
0.534561
-0.584679
0.799879
0.0455665
0.212591
-0.144471
0.395016
-0.832607
0.128027
0.189832
-0.394013
0.56303
-0.200823
-0.197807
0.522267
-0.475709
-0.228099
-1.23774
0.664495
1.22632
0.0869466
-0.673694
-0.248393
-0.253979
-0.17879
-0.130309
-0.759643
-0.996398
-0.286206
0.666716
0.344659
-1.64559
-0.694058
0.176787
-1.26347
0.0620298
-0.132515
-0.601475
0.350911
0.0855461
0.0916414
0.646317
-1.04476
-0.571438
-0.0523947
0.125746
0.556573
-0.395347
0.24196
0.738332
0.0654793
-0.682081
0.673261
-0.52546
-1.02852
-0.24585
0.103316
0.534733
-0.798968
-0.0573557
-0.26357
-0.210021
-0.188669
0.904717
0.407917
-0.399056
0.39335
-0.344247
0.473255
-0.725372
-0.736776
0.0918567
-0.271885
0.156903
-0.0679259
-1.39037
-0.0062248
0.61264
-0.00365862
-0.630034
-0.458677
0.0568513
-1.05177
-0.00193847
-1.25201
0.192339
-0.864723
0.238327
-0.561641
0.00421301
0.0730836
-0.527479
0.334684
0.302782
-0.569819
0.0265481
-0.976396
-0.3678
-1.01865
0.574445
0.3455
-0.980178
0.593089
0.0411444
-0.856802
-1.49492
-0.111183
-0.171168
-0.500664
-0.853451
0.504353
1.86096
-0.0683707
-0.204404
1.53216
-1.17399
0.0502344
0.238718
-0.725202
0.216933
-0.821785
-1.29966
1.10915
-1.21738
-0.271362
-1.85243
1.73841
0.571558
-0.645805
-1.51475
0.437048
0.253582
-1.21413
-0.655432
-1.17586
-1.98025
-1.12516
0.893051
0.135019
-1.98324
-0.126338
0.284837
-0.0471248
-0.0139635
-0.402895
-0.192361
-0.189942
-0.292094
-0.435894
-0.300608
-0.40694
0.443044
0.292583
-0.380449
-0.148029
-0.443695
-0.569358
0.183887
-0.135312
-0.129851
-0.264251
-0.500411
0.238308
0.178612
-0.422348
-0.321467
-0.463733
-0.260174
-0.353497
-0.324125
-0.230421
-0.326246
0.412943
-0.384653
-0.37417
-0.000638847
-0.336379
-0.493035
-0.0614369
-0.368484
0.0505627
0.453786
0.256239
-0.0126356
-0.141554
-0.12503
-0.5065
0.000920392
0.366726
-0.214549
0.18967
0.345394
0.014845
-0.254828
-0.052788
0.673342
-1.24241
-0.346743
0.318202
-0.568133
0.228229
-0.261135
-0.335203
0.265977
-0.265681
0.342053
-0.804608
0.348799
0.676857
-0.568035
-0.619953
0.250183
0.0748177
0.147061
-0.304617
-1.03961
-0.219898
-0.166057
0.629476
0.491682
-0.255467
0.873963
0.522221
-0.638388
0.12438
0.0964225
0.0153532
0.480403
0.116038
0.252109
-0.0130553
-0.488259
-0.395211
-0.187572
0.400192
-0.341072
-0.269923
-0.821413
-0.0501151
0.038942
0.136715
0.148723
0.285955
-0.3002
-0.595142
1.13878
0.453767
-0.0390144
-0.191048
0.459806
-0.769739
0.526532
-0.370536
-0.156608
-0.2039
-0.35969
-0.330676
0.631297
-1.05969
-0.642478
-0.179868
0.574776
0.88558
0.217761
-0.0205561
0.355474
0.130553
-0.753313
-0.156404
-0.915825
-0.306942
-0.0201428
0.21513
0.605288
-0.457643
-0.160959
-0.987204
0.362274
4.50738
3.41477
1.77473
1.03213
2.56241
-0.0300308
1.58697
-1.1058
-0.326164
2.05527
0.772841
3.26964
2.72928
1.23747
2.40899
-3.78257
4.05896
3.08571
-0.363113
0.203327
0.982725
1.34474
0.759073
