#input normalization
0.160552 0.269448
35.0609 41.8634
10.7251 37.2395
8.46317 31.3927
0.011456 0.0418426
0.00934716 0.0328865
1 -1
0.823961 1.14631
1.01646 1.32786
1.23048 1.51654
1.47696 1.68552
1.73 1.83539
1.9743 1.96587
2.21076 2.0781
2.43718 2.17557
2.63908 2.23007
2.83415 2.26984
3.01462 2.27938
3.15896 2.26461
3.28283 2.21551
3.38211 2.15303
3.46272 2.06189
3.51676 1.96916
3.54752 1.85503
3.56008 1.72513
3.55784 1.56433
1 -1
1 -1
#output normalization
1 0
#neurons weights
0.343525
0.332892
0.14133
-0.273305
-0.342455
-0.393163
-0.399566
0.0190943
0.449735
0.0626002
0.193504
0.049161
-0.111391
0.20274
0.478916
0.299993
0.116352
-0.323736
-0.481694
0.0118082
0.476939
0.42911
-0.0655976
0.164922
-0.374474
-0.0846852
-0.348286
-0.210639
-0.0181919
0.450824
0.388903
-0.225284
0.414616
0.103858
-0.505484
0.137601
0.187856
0.463403
-0.0498498
0.0995939
-0.5132
-0.19955
-0.400143
-0.145188
-0.43129
0.413514
0.229378
0.373328
-0.000720005
0.0328148
-0.331196
0.18061
0.033594
-0.205568
0.115039
-0.41891
-0.138028
0.0740885
0.478391
0.302579
0.171088
-0.136344
0.00401786
0.209649
0.122246
-0.335232
-0.178591
-0.145067
0.0819396
-0.396537
0.280379
0.00913153
-0.00168955
-0.333944
-0.579738
-0.131929
-0.0503132
0.2846
0.392699
0.167131
-0.479217
-0.0498876
0.534784
0.406419
0.177827
-0.096642
#synapses weights
-0.23409
-0.346975
-0.339742
-0.180738
-0.415225
0.0391779
-0.171065
-0.378313
-0.806217
-0.595482
0.279514
0.342434
-0.213107
0.284221
-0.0395209
0.0351888
-0.370231
0.204907
-0.113705
0.268776
0.282471
0.0415629
-0.0831625
0.0982839
0.103983
0.151647
0.227807
0.263443
-0.291131
0.429647
-0.220536
0.322075
0.0744088
0.0574614
-0.225292
-0.31908
0.258545
0.403447
0.101319
0.562928
-0.123035
-0.0968566
0.00843947
-0.118565
0.147894
-0.0702377
0.656398
-0.349248
-0.0187966
-0.00729497
0.102897
0.150212
0.481332
0.339445
-0.447616
-0.416807
0.32841
0.466457
0.0308635
0.206569
-0.132661
-0.542921
-0.462119
0.104746
0.158355
-0.25018
0.201562
-0.0698324
-0.0600803
-0.236366
-0.287607
-0.0488359
0.304798
-0.272092
-0.14558
-0.0931036
-0.546779
-0.343562
-0.50605
-0.0430501
-0.42556
0.418481
0.249614
-0.174562
-0.233185
0.159097
-0.775591
-0.436899
-0.145178
0.200849
-0.250425
-1.1462
-1.28296
-0.629538
0.367858
-0.176135
-0.354475
-0.186621
-0.0938315
0.00893228
-0.357007
0.130594
0.0534222
0.17631
0.0687311
-0.402304
-0.0469359
-0.0460074
0.329818
0.497334
0.188879
-0.324287
0.295681
0.251981
0.0949414
0.0115321
-0.223057
-0.513335
0.415568
1.86878
1.37073
0.737103
0.520564
0.117864
0.193302
-0.479936
0.392872
0.0227095
-0.122834
-0.382491
0.0558102
-0.272697
0.138912
0.239683
-0.488155
0.128817
-0.154285
-0.415385
0.295233
0.0866526
-0.156601
0.0568004
0.209838
-0.487651
0.405174
-0.341166
-0.461265
-0.186944
1.05264
-0.0565291
0.300803
0.489755
-0.211666
0.228004
0.00604738
-0.138091
-0.165263
-0.569615
0.211094
0.307332
-0.0270511
-0.188946
-0.376748
0.073357
0.227005
-0.151899
-0.0460227
-0.191518
-0.193732
-0.158232
-0.154985
0.177207
0.102977
0.221473
0.332022
1.18982
0.181401
-0.135554
-0.0779895
-0.0176071
-0.199821
-0.00587147
0.135221
0.322481
-0.180386
0.155523
0.0127721
0.332463
0.153652
-0.350742
0.393483
0.00457302
-0.0185973
-0.276684
0.0611125
-0.217692
-0.0267985
0.757283
0.803224
-0.194249
-0.334305
-0.00668135
0.235297
1.78851
1.98346
0.883354
0.479862
0.168046
0.087662
0.00184864
0.110215
-0.0337591
0.235769
0.09317
-0.190581
0.0502412
-0.0209571
-0.142165
-0.234225
-0.183843
-0.152904
0.069994
0.0218432
0.0789465
0.215738
-0.94763
0.436895
0.0484639
0.14401
0.0647133
-0.0324045
0.960295
0.939142
0.153737
0.11198
0.0407552
-0.144745
-0.218021
-0.0794186
0.20241
0.18458
0.372175
0.118951
-0.398685
-0.12389
0.169267
-0.324747
0.330688
-0.0937656
0.298817
-0.0706589
-0.106463
-0.421185
0.306607
0.136108
0.0746268
0.502737
-0.0163981
0.133152
0.726864
-0.426818
-0.42689
-0.411514
0.395862
-0.336829
0.0561899
0.106132
0.000511651
0.246038
0.175464
0.0758325
-0.278951
-0.436502
-0.0789191
0.38436
-0.357602
-0.435595
0.317257
-0.180496
0.38409
0.076169
1.05132
0.208444
-0.0250342
0.741769
-0.033033
-0.0925179
0.608777
0.30883
0.0907692
0.189579
-0.240059
-0.133563
-0.111221
-0.000875202
-0.0788169
-0.170777
0.00363965
-0.0949134
0.0159074
-0.0541312
-0.330677
-0.0639877
-0.0641474
-0.336526
-0.284283
-0.411011
0.0606942
0.130183
0.244862
-0.278281
-0.395561
-0.296508
-0.448151
0.454293
0.380303
-0.0509493
0.0488542
-0.0321249
0.243899
0.226712
-0.0233944
-0.0259015
-0.472405
-0.493998
-0.404552
-0.244844
-0.206494
0.271685
0.300472
-0.356359
0.276837
0.318233
-0.552404
-0.428265
0.473816
-0.0534618
-0.129699
-0.309358
-0.221597
-0.184917
-0.379589
0.496395
0.0949672
-0.424383
0.202423
-0.165276
0.0135759
-0.138891
-0.368505
0.130094
0.279139
-0.322883
-0.0777891
-0.0157038
-0.252406
-0.101684
0.290032
0.0308517
0.219572
0.0520623
-0.319171
0.434294
-0.240641
-0.297211
0.163473
-0.0216089
-0.0590871
-0.0894727
0.0760811
-0.175355
-0.874875
-0.242323
0.133378
-0.280502
0.359885
0.00483534
-0.339781
0.0535349
-0.376172
0.0947031
0.240188
0.465529
0.312063
-0.0285135
0.329133
-0.184084
-0.184003
-0.325134
-0.058053
-0.111925
0.307084
-0.0259367
0.58212
-0.155224
0.0596339
0.599931
-0.695286
-0.0521035
0.251335
0.194065
-0.23321
0.124626
0.0763814
0.222042
0.0760507
-0.118609
0.242016
0.133504
-0.22004
-0.394797
-0.000387589
0.11369
0.100082
0.0731771
0.534841
0.0833724
0.108961
0.170444
0.272134
-0.384422
0.591818
0.479602
0.0988693
0.134028
-0.348326
0.249363
0.0115876
0.41827
0.170408
0.455128
0.317291
0.352571
-0.321941
0.0774361
0.0753086
0.0962594
0.437162
-0.317598
0.0226979
0.0217275
-0.251914
0.385725
0.055248
0.658556
0.217152
0.246785
-0.425667
0.0910697
1.60843
-0.118342
-0.038984
0.394445
-0.175267
-0.471885
3.39204
-0.33896
-0.0501642
-0.1
0.0101675
-0.22053
-0.235168
-0.139313
-0.148691
0.111614
-0.154546
-0.0673992
-0.267812
-0.0789306
-0.136635
-0.171949
-0.146116
-0.386907
-0.0139286
-0.319822
0.177123
0.120071
-0.356426
0.464139
-0.352401
-0.0188644
0.185056
0.390906
0.243257
0.500524
0.509851
-0.491277
-0.34498
-0.27904
-0.316205
-0.12672
-0.186815
0.420894
0.543744
-0.0944928
-0.0296042
0.343678
0.202795
-0.150706
-0.152368
-0.176316
-0.092748
0.29296
-0.000263012
0.232228
1.06482
0.52698
-0.00929337
-0.575631
0.237781
-0.294579
4.20884
2.48491
0.305351
0.201116
-0.0121443
0.172618
-0.258143
0.224369
-0.163923
-0.200961
0.0222173
-0.23118
0.212866
0.00587603
-0.167315
-0.230663
-0.0587189
-0.0167992
-0.397554
0.177013
0.0554011
-0.406057
-0.240835
-0.275702
0.0629886
-0.597038
0.0836563
0.408813
-0.789313
0.354651
-0.195673
0.155004
0.707824
0.213702
-0.324468
0.208515
-0.172885
-0.00932881
0.131849
0.0518975
0.201653
0.16246
0.395721
0.0796637
0.115598
0.184149
-0.353591
-0.373246
0.407224
-0.050531
0.280671
0.284021
0.45684
-0.517097
0.196074
-0.438
-0.487357
0.0621802
-0.129118
-0.158352
0.379269
-0.273244
0.425819
0.137915
0.309322
0.534511
-0.0827878
0.258776
-0.0620411
-0.18878
-0.294589
0.228587
-0.0559955
-0.369571
-0.290555
-0.0682104
0.14099
0.138561
0.744677
0.254764
-0.0351709
0.298756
0.0595127
0.460919
-0.421483
0.839401
0.019992
0.029121
-0.0929632
-0.149312
-0.0178888
-0.275784
-0.227373
0.224064
-0.123218
-0.0373736
-0.392499
-0.0453457
0.2351
-0.099003
-0.198923
-0.484274
0.33389
0.34042
-0.417618
-0.0931117
-1.14468
-0.133728
-0.702364
0.434163
0.214269
-0.409345
-0.148675
0.0218595
-0.122437
-0.287816
0.134707
0.022377
-0.096549
-0.101175
-0.0610955
-0.443485
0.396239
-0.101948
0.0207032
-0.181171
-0.366533
-0.149161
0.435148
0.0766854
0.516455
0.0946549
-0.203079
0.248774
-0.11684
0.0929484
0.102373
0.57872
-0.162259
0.153362
-0.570218
0.745019
-0.18369
0.278612
-0.134207
-0.0331992
-0.152661
-0.106039
-0.343421
0.213972
-0.391437
0.0695786
-0.102249
-0.323607
-0.00862623
0.235183
0.254102
-0.304253
0.396167
-0.0484668
-0.0728492
-0.367589
0.338273
-0.0785926
-0.237336
0.340962
-0.0975898
-0.20702
-0.383406
0.202337
0.00796039
0.359564
0.154746
0.0486056
-0.00152219
0.399933
0.282277
-0.124179
0.440574
0.389597
0.168403
0.0564364
-0.0527804
0.112069
-0.35697
-0.43347
-0.127306
-0.204446
0.150533
-0.0818242
1.37129
0.106918
-0.247429
0.0410567
0.1097
-0.0709553
-0.875214
0.197118
-0.170921
-0.0881213
-0.0854011
-0.111384
-0.114557
-0.201999
0.391623
-0.433134
0.219222
-0.533653
0.0205667
-0.244903
-0.314237
-0.134892
0.144908
0.0731653
-0.348826
-0.25016
-0.450096
0.0217418
0.682459
-0.183544
0.221609
-0.181378
0.439649
0.0807065
-0.980752
-0.643288
-0.706049
-0.225941
-0.0320017
-0.284303
0.0463185
0.199047
-0.260617
-0.0562102
0.115575
0.355258
-0.272249
-0.291594
-0.290794
0.0904293
-0.281876
-0.38501
0.351978
-0.420949
0.195057
-0.152656
-0.190441
-0.643768
0.196725
0.244717
0.134722
-0.385799
-0.531611
-0.407992
-0.0250923
0.00815868
0.35996
0.318796
0.113107
-0.0104007
0.107613
0.0306752
-0.320425
0.224043
0.204856
0.0413187
0.299935
0.0725931
-0.103364
0.164315
0.553442
-0.300378
-0.458997
0.0995126
-0.882171
-0.103755
-0.414766
0.279969
0.256922
0.183057
-1.37993
0.381706
-0.817155
-0.189438
-0.151367
-0.154941
-0.209247
0.0373368
0.0251765
0.282513
-0.438096
-0.120337
0.0609827
-0.0924806
0.123651
0.0106219
0.171036
0.1839
0.320764
0.179289
-0.0252978
0.128875
-0.26612
-0.343002
0.124194
0.118595
-0.565814
0.0848127
0.129443
0.112902
-0.378117
0.204167
-0.316433
0.0032544
-0.0951287
0.319124
0.0313015
-0.133473
0.11997
0.397078
-0.419043
0.0798847
0.122594
0.113881
-0.27191
-0.148491
-0.453694
0.0520372
-0.0806891
0.525465
-0.267865
0.170416
0.336817
-0.725349
-0.00964166
0.709562
-0.243339
-0.151656
0.78742
-0.372856
-0.244424
-0.280076
-0.154356
0.124652
0.0574763
0.286102
-1.1886
-0.0990588
-1.34434
0.0840952
-0.0435299
0.0878855
0.44658
0.766843
0.328098
-0.281043
-0.269678
-0.192065
0.570945
0.261098
-0.00822945
-0.360616
-0.221064
0.515239
-0.205525
0.0536804
0.488172
-0.220114
-0.309739
0.00295855
-0.505409
-0.20955
-0.399929
-0.384952
0.269511
-0.188481
4.39044e-06
0.451375
0.616996
0.359689
-0.0411719
-0.497369
0.0917869
0.568501
0.242736
0.338676
0.231953
-0.182028
-0.374236
0.192946
0.129804
0.206164
-0.237505
0.362722
-0.673731
-0.170378
-0.499731
0.259628
-0.0731918
0.0593526
0.125164
-0.313463
0.554825
0.263297
-0.150654
-0.149179
-0.430054
-0.554378
-0.223759
-0.0360547
-0.320483
0.296846
-0.304925
0.355535
0.171725
-0.115339
0.00481337
0.473087
-0.106518
0.0457126
0.319881
0.483647
0.0275912
-0.194975
-0.14522
-0.0729914
0.454781
0.130539
0.0166
-0.0743003
0.203553
-0.306519
0.51341
0.015687
0.148613
0.0413623
0.141517
-0.100717
0.159276
0.429557
0.430292
0.0159712
-0.449931
-0.37644
0.30218
0.0272871
0.499618
0.100408
-0.303081
-0.385139
-0.251268
-0.275719
0.030097
-0.0677421
-0.247508
0.482354
0.355919
0.417287
-0.113308
0.169042
0.121423
0.32082
-0.284935
-0.385672
-0.0799086
0.28414
0.120108
0.325058
-0.417477
0.447162
0.424453
0.354486
0.0658112
-0.261946
0.160595
0.185574
0.0981172
-0.0181733
0.177696
-0.309083
0.0987859
-0.0854754
0.521051
-0.35573
0.0427986
-0.207888
-0.18132
-0.588004
-0.0586648
-0.263408
0.335496
-0.0133924
-0.28485
-0.108498
-0.22155
-0.0107502
-0.215678
-0.496723
0.119673
-0.0794813
-0.542243
-0.542347
0.189113
0.325922
0.33468
0.312887
-0.188541
0.0699173
0.455891
0.246163
0.219604
0.326553
0.339515
-0.107317
0.237857
0.376602
-0.285044
-0.211
0.18719
0.401534
-0.678883
0.0973512
-0.336484
0.124186
0.264928
-0.265906
-0.16256
0.330695
-0.110386
-0.372829
0.286524
-0.351592
0.262511
0.447983
0.465811
0.123653
0.000195803
0.440536
0.0357985
-0.414814
-0.03669
0.1199
0.33312
-0.124221
-0.484136
0.318465
-0.191549
0.522167
-0.0587869
0.131701
0.177649
0.232408
-0.148903
0.420441
-0.302163
-0.404774
0.185859
-0.354044
-0.109582
-0.045986
0.271103
0.310436
0.135172
-0.471482
-0.0528614
0.393335
-0.120716
0.119664
0.324363
-0.158204
-0.325457
-0.266809
0.295345
-0.397305
-0.0705405
0.364666
0.329569
-0.466232
0.0706081
-0.339553
-0.295028
-0.285475
-0.242724
-0.494002
0.424968
-0.156381
0.00940968
-0.308139
0.404338
0.423692
0.54793
0.372646
-0.0312936
-0.261306
0.344899
0.0566156
-0.25649
0.204719
-0.604311
0.170843
0.223437
-0.262016
-0.0901882
0.0793809
-0.0566107
-0.105201
-0.387917
-0.603785
-0.046609
-0.904429
0.15671
0.465205
-0.42673
-0.399598
-0.396849
0.522412
-0.633388
0.1031
0.025285
0.0272792
-0.378312
0.114257
-0.0220619
0.0307583
0.302887
0.400813
0.039472
0.396367
-0.246847
-0.308402
-0.0489544
0.326681
-0.150264
0.471956
-0.149852
0.321187
-0.186045
-0.0623476
-0.000744546
0.414906
-0.508091
0.32937
-0.361163
-0.00239814
-0.223833
0.347337
-0.0592002
-0.321868
0.440333
-0.203107
-0.21397
0.394777
-0.00257173
0.035286
-0.419829
0.266527
-0.124029
0.272078
0.291759
0.335144
-0.0443676
-0.169281
-0.209211
-0.361958
-0.0198011
-0.293374
-0.166843
-0.235464
-0.171141
0.0257517
-0.463544
-0.147906
0.0215213
-0.332279
-0.0681309
-0.134083
-0.0363168
-0.0929375
0.286706
-0.504022
-0.398425
0.277855
-0.0793839
0.208169
-0.289211
-0.374742
-0.0438971
0.231229
-0.127042
-0.00435693
-0.514885
0.0981073
-0.222513
0.145622
-0.162001
-0.303145
0.102743
0.205359
0.166265
0.195205
0.0757648
-0.28211
-0.352229
-0.145197
-0.152686
-0.145571
0.0337607
-0.543163
0.182662
0.029278
-0.281395
-0.0917495
0.313881
-0.33113
0.760485
0.184929
0.185131
0.211418
0.20409
0.0894132
0.182792
-0.16708
0.2052
0.656918
0.0489936
0.53266
-0.0538266
-0.186634
-0.186943
-0.409941
0.172439
0.0845333
0.342579
0.2781
-0.454214
0.0352479
-0.438965
0.359083
-0.173128
-0.371201
0.0183425
0.253373
0.345199
-0.214546
0.252176
0.393167
0.0514882
0.448593
-0.183913
0.321952
-0.259112
0.492285
-0.197256
0.369168
0.0883322
-0.378875
-0.438961
-0.109197
0.0159278
-0.0867983
-0.0633806
0.224284
-0.227112
-0.0541715
-0.522454
0.169976
0.0375527
0.00035863
0.231807
-0.31561
-0.0374248
0.205781
-0.238954
-0.330163
-0.114957
-0.504482
-0.228796
-0.0797205
0.501058
0.337082
0.237481
-0.230007
-0.437838
-0.766859
0.14697
-0.376831
-0.372057
-0.075796
-0.217409
-0.183026
-0.495115
-0.361815
0.396439
0.404793
0.311135
-0.200062
-0.517988
0.256921
-0.468299
-0.288365
0.0206229
-0.736903
-0.487799
0.0122053
-0.395557
0.283851
0.0707181
0.14155
-0.369377
-0.69016
-0.332238
-0.0799893
-1.01159
-0.0217501
0.150192
0.00711669
0.481007
-0.342402
-0.218702
-0.505256
0.11039
0.176187
-0.308818
0.259548
0.228692
0.245635
0.154855
-0.222767
0.413701
-0.73899
-0.0296875
-0.300707
-0.387866
0.174732
-0.226116
0.371697
0.379669
0.178761
-0.14264
0.219643
0.195285
0.123197
-0.268769
0.0683587
0.323191
-0.56545
-0.446411
-0.131292
0.364257
0.314602
-0.086876
-0.192472
-0.133242
0.472511
0.291988
-0.226983
-0.397602
-0.112166
-0.231265
0.371912
-0.0765888
-0.298466
-0.180782
-0.37371
0.397299
-0.0763962
-0.0388392
-0.410941
-0.464558
-0.331738
0.248809
-0.305709
0.0489288
-0.032148
0.231922
-0.168094
-0.0762133
-0.406007
-0.400547
-0.381484
0.0257458
0.165874
0.0357693
0.0223971
0.45681
-0.196504
-0.00636619
0.182738
-0.138838
0.391112
0.398364
-0.186595
0.603061
0.501529
-0.177896
0.362099
0.0866019
0.0226083
0.466969
0.32963
-0.40991
-0.338635
-0.348644
-0.266267
0.5841
-0.00285537
0.103885
-0.327925
0.426413
0.11442
0.358901
0.174768
-0.0935448
-0.0415677
-0.530611
-0.218208
0.109439
-0.254865
-0.201723
-0.0290889
-0.344092
-0.192163
0.260019
0.189503
-0.324297
-0.272793
-0.327676
-0.123609
-0.658686
0.329826
0.210988
-0.320843
0.220368
-0.155932
-0.267485
-0.27389
-0.0503905
0.315153
0.217615
-0.25455
-0.576403
0.13421
0.198793
0.345165
0.0393791
-0.00977314
-0.00380521
0.236611
-0.352237
-0.27565
-0.350736
0.427506
-0.492779
-0.0119323
-0.224789
-0.358298
0.356877
0.193993
-0.01514
-0.106584
-0.00074346
0.117197
-0.107798
-0.541365
-0.474276
-0.356337
0.294978
0.229144
-0.250537
-0.365189
-0.427657
0.417828
0.321121
0.535079
0.00884919
-0.277282
0.243452
-0.0611195
0.267862
0.278743
-0.478927
0.11723
-0.0772287
-0.060726
-0.302401
-0.3846
0.191663
-0.208472
-0.33365
-0.199674
-0.273402
-0.0724477
0.300884
-0.210836
0.298658
-0.369195
0.158775
0.35712
-0.150634
-0.485731
-0.22187
0.0960933
-0.0457938
-0.231123
-0.187527
0.179391
0.202538
0.271583
-0.354416
-0.161493
-0.0948889
0.212828
0.410897
0.244267
0.166959
0.61441
0.230204
-0.495771
-0.315248
-0.0786416
-0.838576
-0.301915
-0.182477
-0.365229
0.217703
-0.511093
-0.0298425
0.0515572
0.561323
0.309968
0.566732
0.176081
0.445687
0.508368
-0.199804
0.298711
0.628428
0.144774
0.0853571
0.406046
0.195102
0.648052
0.738397
0.148821
0.182358
0.102989
-0.3082
-0.237913
-0.254547
0.328631
-0.0783787
0.466071
-0.147953
-0.424418
0.110879
0.0988704
-0.103592
0.214122
-0.246383
-0.105143
0.595418
-0.0255404
-0.400277
0.496336
-0.080521
0.337458
-0.374318
-0.185233
-0.247588
0.327023
-0.202568
-0.636262
0.469909
-0.795073
0.443245
0.323708
0.512634
0.00987352
0.0989343
-0.367781
0.372359
0.166905
-0.354534
0.10762
-0.00901207
0.0429782
0.370223
-0.460966
-0.145651
-0.169562
0.334047
0.19766
0.29696
0.635117
0.411637
0.349113
-0.0150236
0.0506375
-0.386159
0.485062
0.487356
0.0863538
0.0720476
-0.232178
-0.0846165
0.329624
-0.250761
0.295554
-0.418656
0.176259
0.413314
0.153598
0.146997
0.347963
1.00327
-0.23475
-0.901995
0.267904
-0.127013
0.335279
0.557227
0.0698956
0.110165
0.749453
-0.391634
0.43973
0.0308292
-0.720695
0.293637
0.35256
-0.259341
-0.85201
0.462045
0.31442
0.316795
0.61866
-0.0470081
0.285694
0.0205438
0.056376
-0.476064
