#input normalization
0.16059 0.267338
49.1259 47.8336
11.3781 40.4238
8.91259 32.3173
0.0120203 0.0432688
0.00968384 0.0322927
0.570454 1.47752
0.868996 1.21582
1.03242 1.37838
1.2475 1.53439
1.48889 1.65758
1.73269 1.76303
1.94825 1.84297
2.15628 1.90779
2.36993 1.95434
2.53124 1.96124
2.69596 1.95293
2.84062 1.92024
2.92459 1.85234
3.01674 1.77624
3.06809 1.68082
3.1138 1.56967
3.12706 1.4676
3.12563 1.33335
3.09672 1.19436
3.03838 1.04738
2.94512 0.901885
2.87716 0.758216
2.76723 0.601488
2.62856 0.43489
2.51392 0.300028
2.38854 0.166142
2.25334 0.0419532
2.13689 -0.0703269
2.0032 -0.18226
1.86461 -0.286818
1.73683 -0.376689
1.60754 -0.467776
#output normalization
1 0
#neurons weights
0.433998
-0.441209
-0.361727
-0.434113
-0.230107
-0.378478
0.00239881
0.177654
-0.143041
-0.447561
0.0533915
-0.255947
0.136947
0.296943
-0.0189042
-0.208075
-0.494668
0.365657
0.292643
-0.058285
-0.429081
-0.0649639
-0.228827
-0.200011
0.0380436
0.0708851
-0.416853
-0.172655
0.0831468
-0.249681
-0.243679
0.111133
-0.279615
0.492444
-0.0592582
-0.335371
-0.393688
0.469386
1.44389
-0.184313
3.06102
-1.35256
1.06652
-2.07566
-0.0817872
0.0774159
-0.153081
-1.75086
1.25687
0.0167791
0.402509
2.28535
0.0970889
0.0428388
-0.69159
-2.92977
0.588496
1.72818
0.513483
-1.44985
0.474308
0.145576
-0.718704
4.09882
0.16657
-1.60245
-3.28134
-0.11572
2.31934
0.0179839
-0.243792
0.171328
-1.26502
-3.05691
-0.279261
-0.213685
0.0454681
0.0896146
-0.0128218
1.10856
-0.141221
0.735412
-0.303931
-0.199342
0.0742642
-0.210554
0.847129
0.0187061
0.895561
-0.0467645
0.952679
-0.370305
-0.277956
-0.494485
-0.819971
-0.90876
-0.268066
0.365601
0.379945
0.251621
0.861892
1.24722
-1.05341
0.305634
0.334141
0.606701
0.0604553
0.0549285
0.250863
-0.326625
0.702686
0.171478
-0.195118
-0.364527
-0.284323
2.35331
#synapses weights
-0.484203
-1.53558
0.543762
-0.607868
-0.60525
-0.52105
-0.120335
0.0497944
0.014764
0.26345
0.177489
-0.268231
0.0528827
-0.41661
0.426203
-0.37034
-0.346883
0.0911782
-0.30652
0.334669
0.130903
0.977766
0.390687
-0.559422
0.261467
-0.208931
0.846379
-0.330996
-0.230468
0.552424
0.614275
0.125305
-0.86034
0.361845
-0.0804461
0.17464
-0.278114
-0.0860181
0.122237
-0.0884385
0.220237
-0.396302
0.097101
-0.601944
-0.0563296
-0.501842
-0.385363
0.115007
-0.382428
-0.0921434
-0.456269
-0.494662
-0.621275
-0.525267
-0.108137
-0.763274
-0.457815
-0.681512
-0.396333
-0.581049
-0.472674
-0.557812
-0.757959
-0.398445
-0.968627
-0.212474
-1.18772
-0.22694
-0.735284
-0.402336
-0.659151
-0.417108
-0.915461
-0.239238
-0.707334
0.0112095
-1.62062
-1.04749
-0.574517
-0.540918
0.397909
-0.0366813
0.00685194
0.15891
0.0431437
0.153377
-0.0369661
0.295601
-0.168041
-0.202666
0.00733411
-0.202312
0.68504
-0.0957413
0.248385
0.600226
0.22553
-0.636732
-0.103292
-0.266346
-0.303536
0.102226
0.522596
0.139719
0.952723
-0.363084
-1.0481
0.296166
-0.175959
-0.284877
0.12619
-0.463851
0.526143
-0.554665
0.296971
1.6005
0.272984
-0.230229
-0.586293
-0.0647243
0.00311034
0.168025
-0.144647
-0.256772
0.282049
0.309323
-0.0264276
0.0412571
0.209221
-0.553634
-0.0329459
0.227778
-0.575479
-0.352813
0.677363
-0.0999982
0.313237
0.0299232
-0.0152746
-0.389866
-0.188955
0.286248
0.36043
-0.211192
0.400282
0.129156
-0.22348
0.0826583
-0.340649
0.810562
-0.354931
0.150406
-1.28202
-0.254084
0.00110614
0.130056
0.0394176
-0.559691
-0.122371
0.603499
-0.242794
-0.276983
0.0033556
0.26696
-0.117627
0.0216263
-0.0267579
-0.0164358
-0.348136
0.0711452
-0.30984
-0.332993
0.0652916
-0.290192
-0.428707
-0.507318
0.00169319
-0.0626909
0.335365
0.0258082
0.0566506
0.065793
-0.144344
-0.301442
-0.477915
-0.240382
-0.234025
-0.141754
0.173178
-0.375175
0.749417
1.47838
0.148934
-0.0736872
0.115184
-0.212063
0.0741741
-0.112697
-0.394137
0.523058
0.704196
0.112029
-0.0488155
-0.329606
-0.37926
0.138739
-0.471822
0.020537
0.0362099
0.612769
-0.926355
0.154579
-0.760271
0.253852
-0.462937
-0.611595
0.695042
0.102586
0.325604
0.377854
-0.00111956
-0.111647
-0.182829
-0.348361
0.42472
-0.0007861
0.278084
-0.494484
0.270597
0.57478
0.0808731
0.122395
0.297122
-0.0336526
-0.426526
0.252831
0.10599
0.202109
-0.418637
0.0656633
0.151796
0.549411
0.843141
0.346164
0.564845
0.220247
0.104924
-0.330585
0.146609
0.024462
0.684675
0.290296
0.00901649
0.327009
0.215146
-0.151356
-0.586513
0.235686
0.381248
-0.545376
0.346198
0.000882666
0.20102
0.436627
-0.0487764
0.123182
-0.573675
-0.752065
-0.463608
0.191077
0.0640576
0.582778
0.503492
0.395153
-0.548221
0.253319
0.169933
0.19848
0.0176817
-0.192989
0.136528
-0.620856
-0.114527
-0.581692
-0.050698
-0.557285
-0.709035
-0.709362
-0.477898
-0.604657
0.100497
-0.242669
-0.0644607
0.0778881
-0.19139
0.115353
0.206708
-0.190884
-0.544841
-0.040763
-0.192969
-0.470821
-0.368289
-0.497811
0.489899
0.108538
-0.020428
0.0758847
-0.136423
-0.0601188
0.85886
-0.0894085
0.785246
-0.208955
-0.546124
0.692348
-0.03924
0.654719
0.8719
0.0518703
-0.070984
0.062946
-0.526204
0.132125
0.328642
0.359656
0.459102
0.604411
-0.174806
0.429019
0.0366399
-0.0669062
-0.332778
0.149179
-0.0857022
0.017209
0.130202
-0.21106
0.387589
0.44093
0.0274081
0.172918
0.988025
1.32188
-0.630698
0.154084
0.506143
0.387295
-0.474857
0.316207
0.399429
0.357468
-0.81506
0.165869
0.0513263
0.5304
-0.123975
0.324528
0.458428
0.369302
-0.360512
0.0998491
-0.202681
0.421028
0.412099
-0.550867
0.0865939
0.0113249
0.125665
-0.0981908
0.13069
-0.287025
0.452167
0.380987
-0.00145137
-0.212397
-0.457284
0.0850945
0.00405938
0.328883
0.0812673
-0.285743
1.06638
0.403589
-0.214348
-0.0248273
0.661359
0.153321
0.580397
0.760449
0.0214721
-0.0274256
0.0776235
0.13666
-0.00804061
0.510789
-0.00468479
0.358
0.22612
-0.56121
-0.34698
-0.328062
0.502496
0.0840139
-0.0480553
0.394404
-0.795229
-0.106425
-0.818811
0.310904
-0.243954
0.838097
-0.0984812
-0.0951338
0.232362
-0.152106
0.012421
0.118079
-0.719535
0.558812
-0.140087
-0.172468
-0.114578
0.592628
-0.28441
0.427059
-0.06766
0.180325
0.194009
0.277056
0.629017
-0.10855
0.655846
0.318309
1.09946
0.736647
-0.0850314
-0.0406074
1.07358
0.643951
0.476744
-0.0711904
0.0553669
-0.347826
-0.0240252
-0.161652
0.664719
0.416356
0.789605
0.556898
0.594754
0.390179
0.0774126
0.300282
0.662392
0.399257
-0.382856
0.0857021
-0.184579
-0.178347
1.04293
0.0964595
-0.0818306
0.291337
-0.0842377
-0.564615
-0.155706
0.278112
0.337311
0.603311
0.0351864
0.537444
0.668662
-0.113403
-0.135671
0.127947
0.115662
-0.329933
0.508009
0.864715
0.672137
0.670903
0.626457
0.288633
0.183752
0.718501
0.883878
0.892375
0.0973104
0.0297016
0.278207
0.491211
0.714593
0.183844
-0.1268
-1.21098
1.0585
-0.227823
-0.395928
-0.194285
-0.190727
0.4531
0.490715
-0.204965
-0.361984
-0.218813
0.747324
-0.151889
-0.390123
0.239144
0.0654314
-0.419945
0.0458015
-0.111918
-0.0815239
0.170165
-0.291977
0.264827
0.614337
0.00485701
0.148724
-0.6184
0.00365618
-0.188432
0.086833
0.0791247
0.616596
0.146014
-0.450805
0.0250256
0.0493309
-0.0521612
-0.047728
-0.361603
-0.214541
-0.506092
0.0106285
0.0987644
0.393845
-0.163449
0.237252
0.119738
0.222206
-0.662107
-0.621552
-0.569677
-0.418406
-0.347844
0.0930293
-0.0634534
-0.957974
-0.29494
-0.693101
-1.06171
-0.22667
-0.179136
-0.641113
-0.631548
-0.503415
-0.600246
-0.56947
-0.129382
-0.647534
-0.239371
-0.62796
-0.60189
-0.543574
-0.366189
-0.410428
-0.427578
-0.0584445
0.233377
-0.147703
0.0810473
0.0779001
0.694234
-0.0706896
0.555451
-0.0214788
0.484641
0.622782
-0.0706292
0.432075
0.855159
0.504133
0.896293
0.40814
0.519488
0.497358
0.286305
0.263257
1.08084
1.00226
0.408561
0.826649
0.731699
1.06042
0.338825
1.14454
0.416585
0.568661
0.436249
0.424614
0.879996
0.738876
0.0919424
-0.111993
0.296146
-0.0559236
0.747408
-0.454082
0.797304
0.0751898
0.0900643
-0.221664
-0.314721
0.848309
0.755289
0.427271
-0.218894
0.53569
0.520251
0.265644
-0.0992118
-0.0126482
0.0885785
-0.338036
-0.345708
-0.0177422
-0.0224473
-0.115637
-0.173064
-0.195731
-0.154844
0.342642
-0.0408524
0.353113
0.691549
0.414804
0.0245305
0.709101
0.299477
0.0261624
-0.147899
-0.0116571
0.37335
-0.231749
1.92811
-1.39538
0.64159
-0.206458
0.233073
0.132741
0.922963
-0.258666
-0.513116
0.0989212
0.148523
-0.00776455
0.274598
-0.610292
-0.0416661
0.0229563
0.196557
-0.619191
0.160972
0.0435858
-0.171418
0.186258
-0.280151
0.256275
-0.440249
0.019775
0.0912945
-0.837537
-0.00640583
-0.00534028
-0.505761
-0.0448263
-0.135559
0.060786
0.165819
-0.363355
0.198578
-0.682472
-0.409212
0.816216
0.23451
0.2288
-0.438703
-0.115416
-0.305769
-0.139423
-0.297839
-0.46556
-0.401069
-0.502772
-0.842432
-0.679858
-0.474333
-0.0646691
-0.0679733
-0.18237
-0.564992
-0.435496
-0.327589
-0.320376
-0.167157
-0.279517
0.286499
0.176122
0.389718
-0.271143
0.0210256
0.0421695
-0.255794
-0.0437467
-0.235354
-0.0166815
0.00200815
-0.200562
-0.886899
0.191396
-1.69936
0.91497
-0.201702
0.277245
0.00385285
-0.138191
-0.167586
-0.411929
0.137454
-0.134947
0.475493
-0.0978476
0.80575
-0.033592
-0.533707
-0.117343
0.555251
-0.230614
0.504543
-0.148174
-0.0784461
-0.514744
0.0241116
-0.607157
0.4265
-0.995087
0.495306
0.698609
-0.177363
0.432369
0.0576019
-0.0101891
0.263041
-0.124759
0.321746
-0.558146
0.150095
0.0863853
0.4846
0.58642
0.058793
-0.112636
0.27129
0.083858
0.429968
0.117137
-0.161178
-0.202632
-0.149352
0.42938
0.243061
0.287623
1.49025
0.45291
0.656092
0.552054
0.730215
0.36321
0.422597
0.659548
-0.173754
0.0320922
0.205634
-0.0490881
0.116784
0.0274797
-0.248505
0.305966
-0.485471
0.156722
0.287118
0.467967
0.28605
0.0120741
0.364129
0.39601
0.615495
0.207084
0.0239613
-0.772076
0.260851
0.335965
0.0276888
-0.555857
1.07496
0.00330381
-0.657637
0.582826
-0.439547
-0.0549757
-0.791644
0.919745
0.240623
0.955671
0.381619
-0.332319
-0.0173247
-0.570293
-0.56282
0.319955
0.0243924
-0.134418
-0.585398
-0.0268556
0.488453
0.647472
0.0131876
0.300191
0.209725
0.353208
-0.76827
0.180609
-0.199301
-0.582008
-0.363094
0.716791
0.303393
0.317582
-0.0417154
-0.443427
0.223918
-0.338017
-0.140872
0.0945509
-0.736694
0.0467162
0.318618
-0.0900186
0.499872
-0.0227815
-0.148971
0.660764
0.160862
-0.404604
0.187089
-0.152986
-0.129935
-0.174216
0.707538
-0.0862009
-0.542869
-0.182945
0.0157808
0.289204
-0.545331
-0.448152
0.984708
-0.27211
0.159494
-0.125785
-0.226349
0.270985
0.459439
0.142794
-0.250355
-0.292051
0.281525
-0.0981353
-0.284288
-0.34671
-0.633045
0.991197
0.837784
0.48358
1.02034
0.836268
0.493586
-0.159282
0.653086
-0.140634
-0.285694
0.272853
-0.313412
-0.419351
-0.332204
0.0723902
-0.127635
0.113146
-0.567292
0.0727116
0.587839
0.102248
0.566028
0.0612633
0.119053
0.471548
-0.265216
0.553572
0.248009
0.625244
0.789429
0.172754
-0.220744
-0.0723201
0.649859
-0.0346607
-0.0894096
-0.618422
0.0948851
0.271062
-0.00687759
-0.241106
0.490572
0.15217
-0.782082
0.118201
0.072053
0.0324383
0.79925
0.690484
0.930441
0.390501
0.469176
0.230537
0.66284
0.164825
0.289082
0.165665
-0.23212
0.602382
0.332293
0.202771
-0.134145
0.195504
0.367504
0.447289
0.0820001
-0.29674
-1.86438
2.34945
-0.577426
0.879758
-0.646716
-0.0115896
0.510401
-0.339499
-0.0484172
0.0929437
0.262739
0.159856
-0.588005
-0.387636
0.36858
0.268548
-0.374112
-0.113043
0.00289279
0.120436
0.144718
-0.2837
0.441678
0.0167964
0.240586
0.34512
0.44402
-0.340225
0.216607
0.0953325
-0.667639
0.549958
-0.825893
0.0408918
0.0713311
0.209775
0.216633
0.105358
-0.453061
0.526163
0.237749
0.427257
0.0625962
0.364455
-0.0855246
-0.187406
-0.113051
-0.802179
-0.328802
-0.434606
0.12242
-0.629913
0.0645648
-0.140977
-0.105622
-0.401118
-0.757591
0.121471
-0.174922
0.433887
0.279348
0.374274
0.345093
0.0518275
0.0447911
-0.272284
0.449281
-0.372541
-0.196321
-0.559577
0.139262
-0.312412
-0.28561
0.284505
-0.706733
-0.667778
0.918234
0.507864
-0.0332537
-0.509927
-0.344626
0.128175
-0.410974
0.402972
0.0952751
0.929728
0.459278
-0.235924
0.037887
0.470069
0.571199
-0.253721
0.397898
1.34253
0.680375
-0.209437
-0.144608
-0.160754
0.376971
0.365461
0.457245
-0.416998
0.234608
0.657144
0.524758
-0.26412
0.0327664
0.298736
0.326697
0.377829
-0.614375
0.267988
0.699189
1.94791
1.39534
1.23577
-0.410981
-1.27311
-0.698272
-0.0969615
-0.0163301
-0.343715
-0.0518296
-0.242103
-0.196883
0.0364438
0.121946
0.301719
-0.0505526
0.1509
0.194119
-0.280901
-0.237055
0.222883
-0.118075
-0.323838
0.358407
-0.0267253
-0.475757
0.430507
0.235655
-0.323242
0.0743069
-0.376492
0.606602
-0.478202
0.872755
-0.228816
-0.573647
-0.138238
-0.160481
0.34343
0.747037
-0.389229
-0.362867
0.133385
0.0434819
-0.852061
-0.556209
0.441119
0.31788
0.244253
0.357386
-0.071166
-0.26734
0.00933898
0.0707589
-0.0871918
0.0529434
0.507347
-0.12264
0.409033
0.182371
0.102585
0.422881
1.25391
0.240172
0.824925
1.10048
0.508687
0.323857
0.072698
0.683079
0.908445
0.227456
0.852373
0.748168
0.646391
0.818345
-1.11195
-1.67314
-0.178408
-0.253144
0.264014
-0.34705
0.607647
0.171841
-0.580211
-0.0175169
0.250598
-0.448324
-0.107431
0.563495
-0.389913
0.410193
-0.216107
-0.0349865
0.297139
0.130209
-0.251903
0.235461
0.0118932
0.583505
0.449839
-1.07232
0.535598
0.428135
0.191068
-0.547034
0.0432836
0.125171
-0.307693
0.770291
0.263388
-0.126969
0.0472292
-0.500067
-0.306342
0.36089
0.245322
-0.12245
-0.499178
0.871476
-1.12719
0.320619
-0.116319
-0.327564
0.25649
-0.109748
0.108884
-0.348142
-0.0854995
0.383888
-0.424895
-0.121397
0.0766533
-0.296953
-0.497617
-0.16619
0.15275
-0.0471239
-0.259989
0.520917
0.0931695
0.032574
-0.586355
-0.0783132
-0.139951
-0.201246
-0.38373
0.17959
0.160362
0.221581
0.0403071
-0.127733
0.165537
0.345729
-0.0566008
0.111027
0.122435
-0.00915575
0.186127
-0.340159
1.12328
1.04981
-0.12145
0.247992
-0.373582
0.424234
-0.547753
-0.504515
0.273255
0.0807727
0.491479
0.338069
-0.112941
0.335703
0.307514
0.186086
-0.151752
-0.401566
-0.0471642
0.134368
0.228959
-0.303349
0.545173
-0.202919
0.189653
-0.0513294
0.225274
0.238331
0.120861
0.0299234
0.149483
-0.372184
0.451804
0.51068
0.211284
0.288582
-0.0451846
0.0612044
-0.068468
-0.192131
-0.246529
0.0865075
-0.539053
-0.377273
0.137097
-0.0197582
-0.242036
-0.0124957
-0.148684
-0.28879
-0.651612
0.15021
-0.423446
-0.339118
-0.445069
-0.734952
-0.0115344
-0.483286
-0.661163
-0.141123
-0.380946
-0.417586
-0.000566648
-0.386309
0.201318
-0.336908
0.016188
-0.524728
0.0166721
1.09737
-0.540467
0.584496
-0.157595
0.295741
0.151437
-0.291667
0.281027
0.0175066
-0.726489
-0.398944
0.618016
-0.78289
-0.419711
0.447364
-0.827316
-0.00105167
0.121732
0.554272
-0.208879
0.246162
0.0859464
0.279097
0.0885456
0.687244
-0.0271818
-0.530474
-0.500643
0.0902023
-0.0861083
-0.378289
-0.449262
-0.475105
0.147578
-0.025785
0.328101
0.17132
1.05581
1.35437
0.451632
-0.0551859
0.162098
-0.35456
0.333927
0.601286
0.17965
0.195634
-0.0638145
-0.214261
-0.0603083
0.151278
-0.422786
0.466004
-0.00394996
-1.44444
0.121607
0.0104019
-0.272994
0.961781
0.0110503
-0.244452
-0.017369
0.378594
0.21417
-0.224506
0.67949
-0.6617
-0.172686
0.0197376
-0.419711
0.452091
-0.602097
0.150488
0.0811901
0.139091
0.378375
-1.03701
-0.174208
0.0419257
-0.214906
-0.433996
0.0931439
0.173191
0.0447044
-0.245206
-0.507875
0.0960066
-0.300614
-0.00892878
-0.553288
-0.142641
-0.227412
-0.595044
-0.501793
-0.247253
-0.523012
-0.772144
-0.980764
-0.699126
-0.483368
-0.267495
-0.704689
-0.353922
-0.267084
-0.640177
-0.773033
-0.581313
-0.781121
-0.393254
-0.631593
-0.674109
-0.441041
-0.174744
-0.368596
0.737438
0.515539
-0.330845
0.0213785
0.867637
-0.213522
0.578187
-0.0118577
0.385769
0.104146
0.372678
0.499597
0.632867
0.269946
0.138305
0.515419
0.765567
0.779865
0.327104
0.83493
0.306209
0.323018
1.26854
0.751467
0.617658
1.27286
0.315355
0.609743
0.870229
0.942458
0.310297
0.305536
0.309907
0.593605
0.132313
0.150404
0.714412
0.627958
-0.70484
0.275517
-0.386458
-0.19619
-0.741032
0.278822
0.0520519
-0.10599
-0.335056
0.0918245
0.433751
0.19565
-0.574685
-0.231602
0.0762152
-0.374164
-0.0198489
-0.572494
-0.662358
-0.0879471
-0.574998
-0.718279
-0.903853
-0.325002
-0.606863
-0.225282
-1.1005
-0.780037
-0.402876
-0.349932
-0.90693
-0.808996
-0.450428
-0.406245
-0.670159
0.00196402
-0.383503
0.493642
0.17494
0.302618
0.0392463
-0.0515775
0.40822
0.303643
-0.43893
0.44301
-0.157098
-0.173827
0.0352467
0.0166176
-0.120834
-0.324265
0.309273
0.00959148
-0.195329
0.0188317
0.378731
0.178794
0.486596
0.0229499
0.828446
-0.0247947
-0.00624871
0.355631
0.132345
0.0960312
0.650017
0.472654
0.0432482
0.423811
0.585113
0.526139
-0.172631
0.106568
0.466646
-0.600766
-0.352522
-0.181228
-0.710956
-0.341075
-0.152327
-0.159294
-0.359226
0.443638
-0.698127
-0.00750566
0.00315844
-0.0980127
-0.217945
0.177264
0.0515437
0.110091
-1.01834
-0.27331
-0.242356
-0.171646
-0.356214
-0.0935419
-0.0296357
-1.02743
-0.451267
-0.621401
-0.0711303
-0.251108
0.0214407
-0.54616
-0.0231131
-0.0406157
-0.800326
-0.168681
-0.160308
0.318271
0.5061
-0.423287
0.397588
-0.0777295
-0.0227494
0.695218
-0.330304
0.692259
-0.778279
1.06047
0.951629
-0.2672
-0.709788
0.209069
0.0353852
1.0376
1.20609
0.618233
0.75429
-0.463179
0.266383
0.210094
0.616986
-0.704928
-0.542651
0.692974
0.169015
0.571265
1.29111
0.844425
0.413635
-0.600278
0.139611
0.89673
0.878512
-0.720191
0.0198077
0.0920687
-0.276236
0.535414
0.345316
0.758163
-0.802386
-0.570662
-0.366803
-0.218547
-0.318431
-0.302159
-0.247457
-0.170698
0.0496099
0.358365
-0.00767813
0.642329
0.0306631
-0.391233
-0.352259
0.226381
0.500053
-0.127779
-0.423477
-0.52387
0.0153142
0.235517
0.297505
0.231373
-0.332134
-0.208358
-0.45669
0.473064
0.662266
-0.297401
-0.334877
0.0571274
-0.297598
0.0780285
0.19122
-0.335157
-0.337627
0.0575612
-0.0583362
-0.0438512
-0.179145
-0.114601
0.460938
0.638865
0.305981
-0.0809973
0.148909
0.0283683
0.869515
0.0901541
0.529841
0.00658171
0.473255
0.0669275
0.100416
-0.138046
0.708697
-0.399241
0.10789
0.146254
-0.0853409
0.0301651
0.0721607
-0.296622
0.261774
0.387106
-0.245038
0.516419
0.135125
-0.19722
0.149143
-0.388611
0.0711225
0.112859
0.498412
0.317094
0.329092
0.499118
0.12679
-0.394692
-0.44935
0.0576114
-0.420601
-0.352813
-0.437206
-0.225737
-0.66688
-0.257685
-0.340898
-0.490123
-0.0479647
-0.209987
-0.412254
-0.15052
-0.477136
-0.210179
-0.820763
0.265826
-1.13946
-0.189057
-0.0275423
-0.316749
0.148794
-0.050677
-0.0567229
-0.471987
0.00963405
0.147173
0.342549
0.198543
0.0586365
-0.309025
0.1261
-0.233521
0.644829
-0.0305539
-0.0907094
-1.08084
0.238252
-1.39455
1.18119
-0.499241
0.646419
-0.138954
-0.478444
-0.366123
0.777368
-0.717484
-0.0896112
-0.346564
-0.779952
-0.694915
-0.424024
0.226253
1.37415
-1.1131
-0.508834
-0.338042
0.532871
-0.761942
-0.687461
0.517993
-1.76458
-0.415273
0.0329641
0.812708
-0.36649
-1.09365
-0.189312
-0.758007
-0.0654818
0.300245
0.582695
-0.0243897
-0.593283
-0.394977
-0.872057
-0.305953
-0.751776
0.711388
0.0843475
0.634422
-0.414552
0.379888
-0.18961
1.23704
-0.00545474
0.0541827
-0.0620975
-0.978571
-0.17316
-0.534359
-0.257856
0.786189
-0.721151
-0.713455
0.289761
-0.446069
-0.636387
-0.525931
-0.0764047
-1.83364
-0.19939
0.0210037
0.944944
-0.569659
-1.63566
-0.350754
-0.234639
-0.00673605
0.515033
0.277688
0.408835
-0.286144
0.213892
-0.650095
-0.0520088
-0.379976
0.843535
0.514519
0.276771
0.365481
0.240672
-0.51095
0.408095
-0.528095
-0.6753
-0.276648
-0.15897
0.245381
-0.1042
0.212051
1.26434
-0.691067
-0.829533
0.272484
0.0348615
-0.873942
-0.254062
1.16032
-1.49117
0.56369
-0.204372
0.654161
-1.06776
-0.373488
0.653176
0.1484
-0.180101
-0.167457
0.674305
0.508454
-0.0300944
-0.112615
-0.604218
0.667198
-0.0662865
1.02259
0.315149
0.439981
0.576858
1.22661
-0.0484011
0.995658
0.419246
0.162997
-0.0650969
0.1961
0.265224
-0.616735
0.2405
0.649945
-0.140752
-0.438316
-0.234135
-0.211195
-0.492564
0.343399
0.320257
-0.283733
0.707618
0.166188
0.0650226
-0.0641834
-0.0628861
0.28691
0.121431
0.0976139
-0.365216
-0.216175
0.808997
-0.2445
0.135882
-0.0659244
0.560546
0.0192103
0.474027
-0.108523
0.724087
0.399796
0.497936
-0.0576918
0.577259
0.211795
-0.34698
0.595004
-0.0213638
-0.146389
0.258362
0.267526
0.834972
-0.405366
-0.771554
0.390874
0.655997
-0.132793
-0.117817
0.749747
-0.305215
-0.131903
0.651787
-0.277153
0.00905106
-0.244505
-0.124411
0.253272
-0.101069
0.564587
0.738622
0.00582787
0.263323
-0.131239
0.566117
0.264725
0.170184
-0.23803
0.0646657
0.584084
0.178397
0.280345
0.308333
0.304323
0.57414
0.188861
0.10454
0.212869
-0.213347
-0.169678
-0.0643306
0.327929
0.162499
-0.0044903
0.651118
0.658081
-0.109165
0.077855
0.306166
0.499892
0.16721
0.348801
0.164994
0.259174
0.607358
-0.288152
0.637279
0.503469
0.299333
0.224774
-0.482427
0.146491
-0.256447
-0.662931
-0.398316
-1.1206
0.090671
-0.355507
1.09094
0.00152494
-0.40827
-0.0428332
1.43447
-0.589342
-0.382328
0.145716
-0.801742
-0.497743
0.137532
-0.11899
0.701974
-1.05536
-0.278216
-0.0234796
0.681249
-0.428912
-0.686307
0.79338
-0.894044
-0.612281
-0.0486277
0.869763
-0.506509
-1.17856
0.577313
0.352516
0.355921
0.395358
1.11014
-0.00810906
-0.515707
-0.0232052
-0.109234
0.562648
0.299281
0.798914
-0.254097
0.41356
0.268144
0.697302
-0.0155659
0.54774
-0.419637
0.246243
-0.0208038
-0.253592
0.602513
-0.134641
0.863949
0.390029
0.282859
0.184656
0.119974
0.517972
0.111628
0.537618
0.356703
-0.482212
0.612494
-0.305762
0.469686
0.0788291
-0.399331
-0.226384
0.315959
0.179788
0.21464
0.0187422
0.444899
-0.154054
-0.236903
0.270818
-0.236374
-0.495744
-0.490464
-0.111618
-0.664727
-0.318003
0.655132
-0.437633
0.0132565
0.298021
0.199998
0.347458
0.280949
-0.0384924
-0.0988394
-0.68442
-0.211188
0.0732121
-0.160175
-0.311303
-0.545821
0.491026
-0.527918
-0.520126
-0.0404411
0.373144
-0.259437
-0.0682379
-0.123935
-0.158882
-0.152597
0.0736962
-0.268359
0.181049
0.202451
0.306468
-0.215383
0.12588
-0.406792
-0.0900805
-0.931854
-0.392438
-0.090985
0.175799
0.210862
-0.392843
-0.149657
-0.491073
-0.926825
0.0535613
0.0909908
-0.481411
-0.556703
-0.468486
0.0157264
-0.494734
-0.584981
0.0721025
-0.205505
-0.0145253
-0.113801
-0.412193
-0.0210881
0.222428
0.131876
-0.217223
-0.284627
0.0413401
0.266365
-0.264271
-0.408698
-0.424663
-0.715206
-0.501419
-0.136653
-0.211249
-0.36041
0.227458
-0.292219
-0.339996
-0.791304
-0.226111
0.0335494
-0.435992
0.270046
-0.226132
0.0362518
0.1509
0.517165
-0.620841
0.40345
-0.613987
0.216915
-0.273937
-0.508095
-0.457051
0.347725
0.206778
0.453009
-0.308817
0.328
-0.184044
0.417
0.0843832
-0.385295
-0.0709885
-0.367961
-0.412235
0.207275
-0.278043
-0.261397
-0.0739836
-0.587356
-0.0973584
-0.286024
-0.474312
-0.0371483
-0.671973
-0.883839
-0.566863
-0.141248
-0.530452
-0.131443
0.0349075
-0.866289
-0.305332
-0.101765
-0.415558
-0.49562
-0.523609
-0.717041
-0.28019
-0.672712
-0.0152589
-0.386099
0.0854257
-0.663044
0.268779
-0.133311
-0.261486
-0.170311
0.0295119
-0.197455
-0.439764
0.279595
0.00400172
0.154335
-0.511871
0.127917
-0.62776
-0.488713
0.161072
-0.146475
0.220686
-0.398102
-0.988684
-0.158759
-0.837551
0.640327
-1.50167
0.93462
-0.0829505
0.10451
-0.281418
0.380201
-1.4165
-0.479128
-0.447308
-1.1548
0.0116448
-0.762373
0.0789911
0.712104
-0.902431
-1.01279
0.0376776
-0.000614849
-0.983012
-0.497475
-0.0953467
-1.6879
-0.629032
-0.261504
1.09527
-0.876545
-1.81187
-0.822887
-0.0553945
-0.80279
0.017293
1.06086
-0.426167
-0.471215
-0.65542
-0.249957
-0.0753637
-0.347738
0.185801
0.119969
-0.379137
-0.486328
0.00506167
-0.204044
0.207341
-0.272724
-0.688766
0.238905
-0.252003
0.43748
0.0310765
-0.4429
0.375614
-0.483211
-0.401044
-0.508353
0.155448
-0.320158
-0.0817218
-0.414205
0.0256297
0.399677
-0.340619
-0.481901
0.141664
-0.442587
-0.246446
0.12411
-0.366585
-0.271582
-0.481269
-0.172249
-0.188533
-0.375497
1.17697
0.468918
0.861483
-0.496017
0.52906
0.250111
-0.474373
0.273554
0.157949
-0.547327
0.908654
0.518367
0.445328
0.128279
0.351366
-0.109559
-0.154471
-0.14206
-0.217434
0.390439
0.0779884
-0.782066
0.765735
-0.0321036
0.220895
0.0945492
-0.296138
-0.611713
-1.08575
-0.185395
0.75144
0.0261072
-0.207696
0.446134
0.0470794
-0.732714
0.201907
0.0894815
0.311224
-1.08323
-0.153151
-0.816831
0.608407
-0.0562949
0.171225
0.368921
-0.209494
-0.588493
0.153952
-0.440901
-0.294268
0.172637
-0.630576
0.373103
0.144424
-0.605462
0.359259
0.0930062
-0.920781
0.133645
0.53843
-0.130894
-0.530948
0.809889
-0.400621
0.235481
0.437723
0.346632
-0.0894467
0.0337863
-0.0453502
-0.597435
-0.338179
0.298693
0.205169
0.232167
0.154469
-0.135432
-0.143868
0.113215
0.47264
0.864728
-0.142557
0.178553
0.537429
-0.25647
1.65112
-0.240005
0.516911
0.657275
0.395866
-0.126708
0.0420944
1.0669
0.842456
0.381113
0.245314
-0.313359
0.838856
0.74473
0.767232
1.2478
-0.0349492
-0.157327
0.371293
0.00015498
-1.18019
0.822955
-0.566059
0.40848
1.41314
0.572293
0.286092
-0.208609
-0.340465
0.34241
-0.287427
-0.216137
0.0845674
0.130728
0.440638
0.192513
0.33764
1.18451
0.499176
0.152938
0.470254
-0.00387764
0.449895
0.893636
-0.000540777
-0.0390906
0.221982
-0.029146
0.797218
0.0193043
-0.399759
0.108937
0.354917
-0.0772067
0.446801
1.02309
0.0286927
0.374177
0.1107
1.28436
-0.0827493
0.0375854
0.398111
-0.383005
0.416568
0.817835
0.448406
0.717317
0.18466
0.196643
0.593464
0.0638258
1.28135
-0.190214
1.34948
-1.28719
0.428571
0.890734
0.0144224
-1.07626
0.756128
-0.0449791
0.148001
1.52873
0.0743452
0.599167
-0.569739
-0.0413198
1.03153
0.398207
-0.397375
0.0963402
1.35199
0.990115
-0.122782
2.2958
0.550656
0.0292353
-1.12311
0.676607
1.43137
0.706679
-0.571712
0.361497
-0.311238
-0.879492
0.654218
0.523152
0.527004
-0.925809
-0.513378
-1.20839
0.177471
-1.01629
0.976564
-0.472253
-0.198514
0.493623
0.483466
-0.677314
-0.00672969
-0.643412
-0.836664
-0.573823
-0.880727
0.443809
0.178827
-0.349501
-1.03778
0.505464
0.497996
-0.575285
-0.233577
-0.564908
-1.80865
-0.69319
-0.123678
0.763782
-0.693159
-1.79629
-0.979283
0.789406
-0.0209044
0.168319
0.547481
-0.467759
-0.964307
-1.00933
0.759806
-0.0339993
0.461961
-0.0264514
0.489738
0.163122
0.109444
-0.337163
-0.585365
0.140435
0.170017
0.319509
0.562734
0.787193
-0.0155883
-0.00990105
0.00538745
-0.237498
0.54346
0.488701
-0.500684
-0.291142
-0.228282
0.136981
-0.478634
0.270738
0.190925
-0.545555
-0.51641
-0.167057
0.386663
-0.166113
0.270634
-0.0496585
-0.491475
-0.236818
-0.218731
-0.473956
0.00565736
0.553559
-0.0336701
-0.0182898
-0.112818
0.222163
0.135949
-0.582424
0.373058
0.82098
-0.535952
0.606509
0.0826298
0.112269
-0.168384
0.307559
0.556969
0.524898
-0.442294
-0.250924
0.688554
-0.254955
-0.215251
0.439372
0.0843791
-0.797371
0.647539
-0.155367
0.0767598
-0.0107736
-0.0640813
0.788875
0.0384789
0.159693
-0.241155
-0.514028
-0.811157
-0.0695736
0.267809
-0.0247343
-0.174525
0.263652
0.126788
0.58331
-0.115178
0.631876
0.723137
-0.0790307
0.0703153
0.629086
-0.230582
0.316709
0.567613
-0.21315
0.243097
0.184915
-0.272395
0.0629918
-0.626347
-0.463868
-0.0172801
0.143076
0.0953626
0.0992998
0.183962
0.126674
0.165996
-0.20784
0.638267
-0.186076
0.280917
-0.198934
0.289029
-0.235231
0.537647
0.28867
0.851511
-0.128091
0.297155
-0.428836
0.0963964
-0.0944949
0.0225202
-0.00296195
0.665505
0.0809886
-0.320066
0.036699
0.304768
-0.543279
-0.266763
-0.842245
-0.572243
0.151907
-0.59779
0.238704
1.76786
-0.176498
-0.841258
0.371516
0.00879714
-0.137934
0.23353
0.499675
-1.30934
-0.560853
0.693494
1.05596
-0.841557
-0.519561
0.498787
0.11842
0.260778
0.279146
0.491384
-0.0465319
-0.370254
0.0824354
-0.902335
0.381002
-1.01438
0.408735
0.0339842
1.02292
-0.237412
-0.641785
-0.470777
0.147805
-0.523112
0.209175
-0.400321
-0.445092
0.114664
-0.250126
0.163482
1.44344
0.0870045
-0.587447
0.331657
0.395576
0.234601
-0.0789537
1.03089
-0.694082
-0.588556
0.171858
0.936508
-0.374796
-0.630496
0.303236
-0.247785
0.495842
-0.0240897
0.428823
0.271513
-0.221309
0.385124
-0.284075
-0.174646
-0.441124
0.416683
-0.0883554
0.90751
0.261545
-0.185988
0.277331
0.443662
-0.621175
0.0663119
0.550027
-0.124594
-0.278211
0.230194
0.505301
0.084154
0.237097
-0.802444
-0.0319478
0.36517
-0.62266
-0.265325
0.689564
-0.183451
0.706889
0.00207171
0.415809
0.270202
-0.0920927
0.0175648
-0.504665
-0.219508
-0.173516
0.0138145
-0.154798
0.242881
0.0236653
-0.632061
0.780173
-0.638368
0.371888
-0.606647
0.692112
-0.00329874
-0.410179
-0.16852
0.32185
-0.609769
-0.550219
0.258799
0.452965
0.0925774
-0.168625
-0.721523
0.501554
0.195006
0.0849248
0.149774
0.23223
-0.876539
0.0846055
0.783769
-0.678155
0.46353
0.337213
0.748998
-0.427683
-0.830422
-0.16016
-0.499686
-0.395137
0.334343
0.336335
0.279015
-0.0658867
0.00602054
0.295506
0.317786
0.349582
0.0091034
0.225439
-0.0106514
-0.347099
0.600749
0.39494
0.174252
0.31604
1.04192
0.683018
0.187763
0.561567
0.135025
0.38245
-0.406806
0.538122
0.557116
0.317306
0.548342
0.661924
-0.0679372
0.246724
-0.136009
-0.402912
-0.145364
0.035832
0.186259
0.0877451
0.475993
0.957977
0.571101
0.898807
0.219824
-0.0518365
0.176349
-0.44062
-0.135287
0.298911
0.222287
0.789338
0.683516
0.256979
0.794191
0.721369
0.169107
0.514988
-0.280803
-0.382359
0.916931
0.505348
-0.0119141
0.192191
0.000273997
0.639763
0.322422
0.271684
0.0504623
0.314815
-0.247637
0.473075
0.825999
-0.536557
0.466848
0.665626
0.722831
-0.525633
0.46882
-0.0564718
0.144567
0.541217
-0.0810659
0.93237
0.143349
-0.352485
0.730575
0.89079
0.338102
0.474379
-0.211456
-0.453152
-0.59222
0.122175
-0.133328
-0.329348
-0.213043
0.202665
0.454082
0.179372
0.099881
-0.0319181
-0.24536
0.276111
-0.209247
0.582567
-0.142998
0.0628166
-0.213315
0.812934
0.0972845
-0.06642
0.685502
0.291019
-0.484586
0.0667215
-0.00982424
-0.029861
0.0650025
0.230314
0.10299
0.103729
-0.682341
-0.342125
0.175474
0.121539
-1.10305
0.200708
-0.662428
0.934431
-0.528036
0.483053
-0.310088
-0.29516
0.0336728
0.542882
-0.510307
-0.638586
-0.400562
0.0540752
-0.618426
0.131313
0.441698
-0.0656043
0.146601
-0.193837
0.380927
0.522468
0.179129
0.154118
0.330979
-0.44503
-0.287302
0.964178
0.606933
-0.252013
-0.0441897
0.612706
-0.556734
-0.341171
0.973933
1.26588
-0.479452
0.397687
0.00822165
0.404866
0.231412
0.145691
-1.17787
0.56465
-0.285307
0.503201
0.725473
-0.437748
-0.130214
-0.0550502
0.442413
0.572007
1.183
-0.0400605
-0.0561544
0.380398
-0.254187
-0.475918
0.916797
-0.532754
0.00190946
0.0308313
-0.0249518
0.193915
0.612041
0.0263442
-0.916804
-0.991769
0.085696
0.66778
-0.0054848
-0.396108
-0.47437
-0.248681
-0.453344
0.0717845
-0.311985
0.357057
1.11631
-1.68442
-3.86401
1.29533
1.19208
-1.92962
2.10544
3.70371
1.90675
1.68889
0.940124
1.83221
2.45819
2.37607
-1.26361
-2.37075
0.666461
-2.81634
2.90316
-0.29748
-1.81707
1.57238
3.69482
-0.152401
-3.31188
3.83356
-1.20789
-0.683694
0.791966
2.36667
1.79539
1.16934
1.09298
2.0779
1.03313
-1.00807
2.31778
-2.88603
