#input normalization
0.160592 0.267345
31.6589 37.3258
11.5674 38.878
8.93753 31.7163
0.0117741 0.0419881
0.00971047 0.0320625
0.570454 1.47752
0.868996 1.21582
1.03242 1.37838
1.2475 1.53439
1.48889 1.65758
1.73269 1.76303
1.94825 1.84297
2.15628 1.90779
2.36993 1.95434
2.53124 1.96124
2.69596 1.95293
2.84062 1.92024
2.92459 1.85234
3.01674 1.77624
3.06809 1.68082
3.1138 1.56967
3.12706 1.4676
3.12563 1.33335
3.09901 1.19018
3.05316 1.018
#output normalization
1 0
#neurons weights
-0.46477
-0.419467
0.296559
0.379802
0.188937
-0.400179
0.0738624
0.167244
-0.407448
0.226925
0.324985
0.450451
0.0255073
0.0108166
-0.398557
0.414951
-0.180607
-0.132427
0.396728
-0.260967
-0.123387
-0.405105
0.146854
-0.100502
0.0322152
-0.316995
2.6755
0.441335
0.634037
-0.122712
0.911198
0.461986
2.13959
-2.51285
-3.39076
2.01822
0.560661
0.153257
1.0935
-0.413452
-0.999391
1.85513
1.91313
0.429631
2.00954
-0.142713
-1.55579
4.57369
0.720673
-0.150882
-1.09075
-2.88743
-1.84959
-0.0649812
-0.112303
-0.59449
0.0610188
-1.27939
-0.879782
-0.556153
0.120361
0.216889
-0.880232
-0.468195
0.0738914
-0.183757
0.152741
-1.07111
0.552669
-0.0993871
-0.460068
0.507573
-0.398549
-0.384749
-1.15707
-0.623079
-0.210703
-0.25384
0.047554
2.57164
#synapses weights
-0.963912
-1.15503
1.42065
-0.692315
0.141021
0.242417
-0.779503
-0.105697
0.000840589
0.778604
-0.526097
0.5105
0.43964
0.00446166
-0.542122
-0.831089
0.135214
0.620706
0.0181025
0.0668145
-0.457768
1.52976
-0.146316
-0.71304
-0.534767
-0.145907
0.0387437
-0.751886
-0.631252
-0.034536
0.141262
0.139832
0.441394
0.288773
-0.143333
-0.913297
0.670231
-0.191522
0.252523
0.449147
-0.436909
-0.341915
0.148422
-0.275753
-0.894259
-0.657285
-0.136544
-0.863651
-0.5704
-0.709289
-0.358612
-0.767193
-1.36971
-0.637088
0.182935
0.169658
-0.282333
0.00301101
0.196125
0.245976
-0.485594
-0.378588
-0.352697
-0.429219
0.192861
-0.520506
-0.826914
0.187528
-0.31089
-0.590552
-0.201659
0.292698
0.307311
0.422793
0.59245
0.463073
-0.160912
0.156752
0.824473
0.360354
-0.583722
-0.55616
0.160245
0.309736
-0.825159
0.0115503
-0.249177
0.109039
0.216111
-0.0110976
-0.111256
1.13906
0.928827
0.998584
1.18603
0.92823
0.180061
0.511012
0.267257
0.0368445
0.00602697
0.906498
0.739097
0.190321
0.128835
-0.530214
-0.383293
0.358319
0.0674453
0.152247
-0.290539
-0.29406
0.390132
-0.201804
-0.47418
-0.681708
-0.690253
-0.229296
-0.41923
0.204036
0.280537
0.143792
-0.565838
0.123369
0.0277518
-0.0172489
-0.152441
-0.028173
-0.696564
-0.654978
-0.285066
0.130384
1.38326
-0.643335
0.687744
-0.229771
0.801718
-0.0880008
0.685435
0.1766
-0.32088
0.341757
0.320708
-0.405802
-0.25957
0.411512
-0.263498
0.712434
0.180895
0.305029
-0.315841
-0.460332
0.722072
-0.575871
-0.84147
0.65456
-0.601448
-0.5636
0.122248
-1.09464
0.735335
0.350788
1.74916
0.695493
-0.247026
-0.294157
-0.544674
-0.140619
-0.365878
0.461005
0.113385
-0.0947731
0.349735
0.159759
0.2597
-0.380616
0.133856
-0.709193
-0.382143
0.0594836
0.434087
-0.243481
-0.632322
1.51548
-2.01034
0.622774
-0.563802
0.7898
0.185441
-0.00780105
0.210158
0.412555
-0.475943
-0.933924
0.475404
0.0686242
-0.451165
0.120162
0.307127
-0.0403098
-0.816803
-0.040081
0.417199
-0.962979
0.102342
0.0335477
-0.528106
0.339891
1.41804
1.79168
0.919074
-0.106424
-0.816142
0.252857
-0.0123452
0.00322348
-0.373482
0.110821
-0.397741
-0.156592
0.210905
0.288263
-0.251543
0.0764109
0.565771
-0.161393
0.358138
-0.271855
-0.135974
0.0214236
-0.838645
0.508252
-0.606511
0.104073
-0.606901
-0.641782
0.271572
0.16169
-0.241839
0.0791297
0.458313
0.129824
0.234301
0.251793
-0.843993
-0.57836
-0.364213
0.11144
-0.0226761
0.781059
0.169949
-0.540328
0.272265
0.293125
0.841576
-0.381489
-0.722827
0.115678
-0.710045
-0.774881
-0.142611
-1.07373
-0.29788
0.455689
0.989104
-0.157637
-0.201767
0.0402544
-0.0685935
0.741817
-0.037677
-0.424749
-0.0175308
-0.468442
-0.425812
-0.779015
-0.215693
0.129736
0.358592
-0.315354
-0.405527
0.02104
-0.433693
-0.132203
0.126814
-0.113328
-0.640959
-0.226676
-0.462445
0.359059
-0.148647
-0.381138
1.02311
0.260615
0.0725983
-0.107344
-0.350146
-0.625715
0.0681444
0.149023
-0.513492
-0.679862
-0.430711
-0.089344
-0.34332
0.0769845
-0.696698
-0.403754
-0.576242
-0.179982
-0.506646
-0.451266
-0.224192
-1.83103
0.392836
-0.285768
-0.404924
0.344403
0.204496
-0.531324
-0.000106337
-0.551579
1.08904
-0.381114
0.0387866
0.334763
0.221749
-0.0109269
-0.221239
0.651625
-0.0131647
0.411666
-0.463777
0.187244
-0.576937
1.013
-0.032392
-0.76491
0.777861
1.34989
-0.866537
1.0885
-0.696377
0.602995
0.237836
-0.0304804
0.144898
-0.0377664
0.407109
0.0131485
-0.353138
0.166468
0.0998078
-0.830372
-0.363331
-0.0974217
-0.265793
-0.637396
-0.579708
0.325028
0.0893101
0.0938911
-0.260526
0.080293
0.16635
0.810899
-0.0133797
0.420099
-0.211416
0.949065
0.845218
0.0724471
-0.114087
-0.0667959
-0.629337
0.423537
0.241201
-0.196661
0.0889301
0.395223
0.109796
0.266117
0.757907
-0.0915501
-0.291042
-0.539957
-0.808932
-0.146597
0.35831
0.33303
-0.563281
-0.846569
2.25579
-0.162676
-0.797962
-0.928278
-0.50608
0.858301
0.316072
-0.504256
0.0716958
-0.229599
0.168751
0.348391
-0.130659
0.507355
0.123563
-0.463585
-0.125327
-0.242026
0.280924
-0.274839
0.340351
0.305001
-0.25953
0.769619
-0.501478
-0.755845
0.868167
-1.05855
-0.271859
0.709294
-0.248207
-0.771415
0.120134
1.44488
-0.478367
0.127942
0.0633833
-0.100435
-0.324005
-0.136474
0.106989
-0.809639
0.524711
0.421958
-0.195972
0.274987
0.201827
0.341814
-0.07147
-0.0524978
-0.203211
1.18736
0.363644
-0.11681
-0.143342
0.0691589
0.0810861
0.26936
0.23195
-0.851736
0.375237
-0.459062
1.1282
0.479505
0.331034
0.373659
0.430686
0.639847
-0.32214
0.0521071
0.367851
0.426772
-0.297849
0.0335745
0.0579434
-0.032001
-0.565621
-0.967246
0.989887
0.160208
-0.241662
0.528998
0.216839
-0.277988
0.3605
-0.249256
-0.413857
0.543766
0.754505
-0.518632
0.0559009
-0.425062
-0.56631
-0.166072
-0.0793742
-0.944071
0.0970216
-0.143428
0.199687
0.322329
0.378602
-0.700586
-0.273248
0.915564
-0.382652
0.219903
0.16421
0.399997
0.534873
0.679565
-0.605572
-0.437212
0.924844
0.922768
-0.673178
0.624905
-0.355058
-0.0209265
0.32086
0.353587
0.173947
0.421777
-0.230491
-0.455354
-0.635114
-0.457177
0.637112
0.515164
0.448761
1.50866
0.0286356
-0.00295122
-0.965322
-0.0798633
1.00853
-0.0497631
0.337375
0.272752
0.580905
-0.0831011
-0.360789
0.346983
-0.199907
-0.960202
-0.174796
0.0442323
-0.785761
0.0518204
0.456168
0.0448332
0.471326
0.805363
0.586747
0.0881471
-0.43536
-0.994895
1.95624
-0.415374
0.456288
-0.137118
0.0501812
-0.450686
-0.524524
0.110028
0.597754
-1.06
0.807979
0.039759
0.824433
-0.513595
0.133599
0.92639
-0.592774
-0.113957
0.711465
-1.02139
0.448561
0.00891137
-0.244115
-0.591979
0.361936
-0.215272
0.663604
0.370182
0.605444
-0.348389
0.486048
0.268276
0.207946
0.508184
-0.346577
-0.525185
-0.36659
-0.473952
-0.0908045
-0.638
-0.524362
-0.0766771
-0.270453
-0.477357
-0.252352
-0.457164
-0.588908
-0.660262
-0.132883
0.0719146
0.271645
1.01507
-0.147569
0.222337
0.0109193
0.065988
-0.26111
-0.677225
0.480738
1.0525
0.486519
-0.600327
0.512178
-0.272102
0.2698
0.053627
-0.49486
-0.174661
-0.468005
1.31928
0.114349
-0.991919
-0.0989379
0.176848
-0.450094
-0.0497339
0.701324
0.692336
-0.151581
-0.398311
0.278787
0.284053
-0.866306
0.194043
0.565554
-0.556653
-0.186504
0.752238
-0.282879
0.300768
-0.187365
0.563265
-0.207433
0.350696
-0.116181
-0.108408
0.192371
0.414764
0.211273
-0.348055
0.303334
-0.0685154
-0.0852266
2.06034
-1.04504
0.266561
-0.657017
0.472749
-0.260657
0.513004
-0.658609
-0.872167
-0.109972
-0.189276
0.319329
-0.306119
-0.201044
-0.393929
-0.290819
-0.312441
0.59299
-0.754579
-0.241154
0.243969
-0.230438
-0.00954023
1.4207
0.121296
0.399106
0.825274
0.159028
0.0226385
0.630792
-0.217875
0.0351193
-0.365859
-0.270347
-0.559288
0.296393
-0.789126
0.12072
-0.0125033
-0.0283256
0.442066
0.0530509
0.227357
0.40488
0.403701
0.529842
0.363317
0.663722
0.61077
0.241594
0.942943
-0.0498397
0.252155
-0.206135
0.377259
0.0929389
0.571701
-0.145322
0.38307
0.87732
-0.123469
-0.132928
-0.0491072
-0.709559
0.932127
0.517687
-0.414743
-0.6098
-0.168908
-0.0362235
0.803396
0.23577
-0.930486
0.204438
0.0536095
-0.0546788
0.622551
0.842744
0.0971897
-0.35171
-0.514921
0.0219717
-0.230468
-0.649718
-0.436512
0.23238
0.0226224
-0.592129
-0.27334
-0.395905
0.00319985
-0.355131
-0.555374
-0.28855
-0.325141
-0.153233
0.257091
-0.485589
-0.414656
-0.560544
-0.571941
-0.28616
-0.287105
-0.56995
-0.463171
-1.01712
-0.465366
-0.465677
-0.69445
-1.36059
-1.13328
-1.09924
1.3615
0.212406
-0.506484
-0.574167
-0.86514
-0.944611
1.33359
0.995427
-1.20075
-0.975153
0.0313815
-1.20003
0.27473
0.37413
-0.709389
-0.167211
-0.00983663
0.455112
0.896934
-0.041886
0.023829
0.0717315
-0.25598
-0.351969
0.440898
-0.119413
-0.171257
0.344308
0.13148
0.425909
-0.025717
0.156539
0.256034
-0.138461
0.529962
-0.0848802
0.245362
-0.32667
-0.387085
0.202241
0.366198
0.191185
-0.25876
0.127928
-0.155249
0.111268
-0.359501
-2.29557
-1.34847
-0.437223
-0.631025
-0.885784
-0.348781
-1.83838
0.986042
0.50803
-1.53213
-0.787199
-0.48533
-2.03147
0.637461
0.248652
-2.3673
-2.13511
-0.059001
-1.84859
-0.262621
0.602345
-2.51035
-0.914897
-0.0486427
0.469734
1.2198
0.37273
-0.19834
0.0850536
-0.833986
-0.459489
-0.169606
-0.483811
-0.140105
-0.46922
-0.340792
-0.890163
-0.763437
-0.637348
-0.761157
-0.545644
-0.455973
-0.352515
-0.202061
-0.954721
-0.0846134
-0.207739
-0.238694
-0.601146
-0.761081
-0.106566
-0.314862
0.0195351
0.248216
-0.300648
0.523185
0.230492
-0.148434
-0.648781
0.766308
-0.440221
-0.411399
-0.744357
-0.559383
0.208486
-0.658745
0.363496
-0.650734
-0.537975
0.0142574
0.203507
0.128816
-0.0578527
-0.440172
-0.165988
-0.530548
-0.0545645
-0.307299
-0.144204
-0.3735
-0.137425
-0.77308
-0.652796
0.531063
-0.289854
-0.709358
-0.646666
-0.441832
0.377591
0.391362
-0.677554
-0.446098
-0.445965
0.0599548
1.06088
0.610503
-0.532962
-0.748329
-0.400438
-0.412269
-0.304766
0.377529
-0.309377
-0.0603006
0.532726
-0.146363
0.161077
0.214251
0.204411
-0.395842
-0.525916
0.257951
0.125441
-0.247449
-0.289535
0.195749
1.51907
-0.100828
-0.429193
-0.250272
-0.280698
0.634009
0.301184
-0.0291074
0.466724
0.374814
-0.21986
0.923894
0.54769
-0.73499
-0.341987
0.34129
0.358687
1.54556
0.359109
-1.70955
-0.876598
-0.361467
-0.281751
-0.729389
-0.969772
-1.35628
1.46383
0.782046
-0.302021
-0.59883
-0.737827
-1.53933
1.56512
0.58508
-1.24783
-1.46003
-0.0271128
-0.730295
0.293653
0.591956
-1.58187
-0.217823
-0.249852
0.450051
0.774834
0.680456
-2.01495
-0.535703
-0.935582
-0.311621
-1.33371
-1.0534
-1.17888
1.355
1.08285
-1.06761
-0.911511
-0.831498
-2.03791
1.07496
-0.105987
-1.98368
-1.25844
-0.550683
-1.03879
-0.188653
0.684476
-1.95921
-0.307171
0.0695343
-0.148912
0.925136
0.388167
-0.41781
-0.774895
0.924399
0.0183869
0.0624231
-0.633721
-0.326858
0.226519
0.550465
-0.0195085
-0.459502
-0.566719
-0.288997
0.188289
0.382866
-0.376854
-0.765903
-0.276265
-0.425953
-0.82212
0.0505459
0.109122
0.757425
0.248527
0.112861
-0.0612911
0.808454
-0.0957938
-0.601816
0.0767086
-0.0687177
-0.367469
0.224864
-0.785464
1.63615
-0.36128
-0.895243
-0.392756
-0.376508
-0.551454
0.988106
0.065524
-0.913073
-1.14375
0.22867
-0.994246
0.28294
-0.266203
-0.928361
-0.095729
0.822108
0.303622
-0.501515
-0.559174
-0.424874
0.24992
0.192304
-0.0246649
-0.179047
0.14102
-0.169554
0.224231
-0.299225
-0.319583
-0.286622
0.331297
0.354363
-0.387171
-0.0510756
0.581401
0.0827059
0.344273
-0.336965
-0.433698
0.420342
0.133936
0.422334
-0.218823
-0.475698
-0.328342
0.228259
-0.146479
-0.223916
-0.127742
-0.182206
-0.552396
-0.345509
-0.299087
-0.247663
-0.146361
-0.618255
0.0719202
0.149953
-0.164762
-0.12582
-0.0924905
-0.54712
-0.448437
-0.984099
-0.181391
-0.338754
-0.521
-0.413475
-0.538945
-0.648199
-0.211882
-0.743886
0.403045
-0.498237
-0.365295
-0.114396
-0.529645
-0.398206
0.185102
-0.325043
0.189751
1.58042
-0.611185
-0.478019
-0.209509
0.104315
-0.0251716
0.702826
-0.314959
0.19322
0.302215
-0.53792
-0.75063
0.425461
-1.05914
0.574278
0.414323
1.04158
0.131632
0.40524
-0.0689381
0.049449
0.0346451
-0.406969
0.0836203
-0.413387
0.125024
0.636755
-0.113565
0.100749
0.315889
0.0570354
0.160587
0.0464008
0.154977
-0.336014
-0.118564
-0.215784
-0.534325
0.0598251
0.361653
0.156585
-0.477086
-0.600905
-0.666488
-0.455708
-0.186921
-0.112184
-0.61595
0.416332
-0.421185
-0.0814893
0.208611
-0.658624
0.361147
0.90451
-0.275986
-0.567988
-0.497861
-0.520114
0.318011
0.803537
-1.15369
-0.566308
0.254
-1.01526
-0.105108
0.133592
-0.459905
0.780708
-0.103527
0.714954
-0.384011
0.292973
-0.0912729
-0.533122
0.367393
-0.316755
-0.840889
0.0133381
-0.228337
0.785241
0.261346
-0.596382
0.119217
-0.182863
-0.0701898
0.385395
0.18261
-1.26392
-0.77329
-0.336107
-0.232176
0.0926525
0.700879
-1.1397
0.575858
0.357578
-0.127836
0.244995
0.153857
-0.590095
-0.225711
0.0341573
0.0348744
-0.263246
0.140239
-1.08063
0.805028
1.04105
-0.793258
-0.0085177
-0.308249
-0.839162
1.09516
0.104808
-0.771254
-0.908503
0.337441
-0.317597
-1.22841
0.197162
0.197203
0.770247
0.361065
0.46742
0.0742835
0.289705
-0.595144
0.21007
-0.0444656
0.131575
-0.44
0.116582
-0.0145461
0.449175
0.865156
-0.618985
-0.359349
-0.368649
-0.502948
0.560735
0.304705
-0.195637
0.00300233
-0.224374
0.160805
-0.0919065
0.229544
0.0023825
-0.0513889
0.474154
-0.0824835
0.529407
-0.233452
-0.65939
0.877617
0.564588
-0.848594
0.209317
-0.35666
-0.31657
0.140119
-0.0959633
0.239254
0.559968
0.117872
0.606878
0.175637
0.153811
-0.623196
-0.433807
-1.46496
-0.321434
-0.614619
-1.02151
0.0269792
0.329773
-0.801526
-0.17822
-1.23896
-0.6948
-1.69186
-0.682785
-0.287886
-0.825347
-0.596551
-0.603169
-1.10659
0.700783
0.571539
-1.30922
-1.25544
-0.359261
-0.889223
0.0470256
0.546817
-1.70566
-1.31184
0.1228
-1.6472
-0.228015
-0.224251
-1.61741
-1.05697
-0.392215
0.229921
0.686543
0.270436
-0.456176
0.0499763
0.949132
0.136372
-0.472764
-0.525578
0.0225529
0.885569
0.389435
-0.467512
0.0974009
0.221053
-0.446876
0.203363
0.0361242
-0.520019
-0.685593
-0.00128196
-0.986802
-0.56235
-0.144883
-1.12538
0.30353
0.549518
0.1192
0.218315
0.619846
-0.563864
-0.644124
0.429562
0.100641
-0.218233
-0.251286
-0.582312
0.668768
0.0530168
-0.158599
-0.446654
-0.573474
-0.250828
0.281954
0.498817
-0.582516
-0.369919
-0.288713
-0.569661
-0.414891
0.520339
-0.0232031
-0.441379
-0.470143
-0.00772136
-0.23653
0.476733
-0.128657
-0.107513
-0.442824
0.0427044
-0.0606943
-0.449982
0.324667
-0.229611
-0.389769
-0.376526
-0.346461
-0.260275
0.262695
-0.135465
-0.216657
-0.15955
0.350996
-0.520896
-0.378122
-0.401354
0.335625
-0.424826
-0.065491
-0.591135
-0.098131
-0.605833
-0.100831
0.968584
-0.890626
3.13434
0.00454839
4.54621
-3.07694
-3.02061
2.59042
2.37871
3.57281
3.58949
2.14619
3.22869
-0.326481
-3.04934
2.1921
-0.874357
2.03094
1.49788
3.11366
0.887085
-3.14638
1.94123
2.0025
0.819235
-0.666847
